svm_type c_svc
kernel_type rbf
gamma 0.025641
nr_class 2
total_sv 2040
rho -0.114856
label 1 0
nr_sv 907 1133
SV
0.8848299190066249 6:1 8:1 15:132 
0.8038766798919225 15:114 
0.6064070329195329 6:6 15:106 
0.635269457002997 6:1 8:3 15:104 35:2 
0.8851145770744134 4:1 8:101 
0.885280918121315 8:51 11:38 14:2 22:1 
0.8846972177350361 3:41 5:2 6:2 8:1 20:7 29:2 34:3 35:1 
0.8828763499176665 20:16 28:40 
0.8839389475789793 2:1 6:1 8:3 9:1 11:6 18:8 26:13 30:2 32:10 33:7 34:2 
0.8851815168129177 8:1 15:50 34:1 36:1 
0.8793319700951163 3:25 14:9 28:11 29:2 34:2 35:2 
0.8652345085282993 4:9 8:37 35:1 36:1 
0.8849322237308628 25:47 34:1 
0.8850126273167195 4:1 14:44 19:1 20:1 
0.8993633736031625 1:11 2:2 4:1 14:5 16:1 19:2 20:3 28:17 33:1 35:1 
0.8870786469359863 14:14 15:6 18:23 35:1 
0.8317831407338772 3:1 7:5 9:2 14:19 15:4 18:3 19:2 20:5 22:1 29:1 
0.866223281093392 8:33 35:8 
1 6:1 28:39 
1 14:4 16:1 20:6 28:28 
0.9841521330594175 3:9 7:1 8:7 15:1 18:7 20:10 31:1 35:2 
1 8:7 11:28 37:1 39:1 
0.9193594369524797 7:1 8:9 16:1 28:25 
0.6365258204714127 3:24 4:1 6:2 14:1 15:1 29:3 33:1 34:1 35:1 
1 2:1 3:3 4:2 5:4 6:4 11:1 16:2 19:9 20:4 23:1 30:1 34:1 35:1 
0.9108927008874304 6:5 14:1 16:7 19:3 21:16 30:2 
1 1:30 25:4 
1 2:6 3:4 5:4 6:1 8:1 16:3 19:1 20:7 29:1 33:3 34:1 36:1 
0.773196920602377 3:1 4:2 7:3 8:9 9:4 22:2 25:6 31:6 
0.9378309132065819 6:11 19:22 
0.5869832145144793 1:3 4:4 6:9 22:5 28:11 36:1 
1 8:9 25:23 
0.7951928230686249 2:6 12:1 16:1 18:13 20:3 25:1 28:7 
0.8272072255495788 3:3 7:2 14:25 20:1 33:1 
1 3:2 5:4 11:1 14:8 15:4 16:9 19:2 34:1 
0.5530528854528689 4:4 6:2 16:3 18:14 20:2 21:2 31:2 35:1 
1 4:2 14:7 18:1 19:13 33:6 
0.561050147591489 3:5 4:2 6:3 11:1 14:9 16:6 19:2 33:1 
1 18:29 
1 6:15 7:3 8:7 11:1 20:2 
0.8758593572872535 3:16 6:1 29:10 35:1 
1 1:10 4:5 14:3 18:3 19:2 26:1 31:3 
0.664787188872933 3:8 8:3 24:3 28:13 
0.8604596825375362 2:2 4:1 6:6 8:1 20:11 28:3 29:3 
1 1:2 3:3 6:12 16:1 19:2 22:1 29:5 36:1 
1 3:2 6:6 7:2 8:2 20:10 28:2 31:2 34:1 
0.8250021846020574 9:2 15:22 33:1 34:1 
0.8223316775197282 6:15 8:10 20:1 
1 8:6 9:4 16:2 18:3 19:9 30:1 33:1 
1 5:2 6:4 8:2 20:12 29:5 
0.610123521137517 3:20 4:1 19:4 
1 1:1 3:1 4:5 6:6 8:4 19:1 22:4 35:3 
1 6:1 9:1 11:22 19:1 
1 6:1 24:2 28:22 
0.901434923307334 8:9 20:2 25:12 35:1 
1 3:2 6:15 28:7 
1 6:4 11:1 13:3 14:1 20:1 28:11 31:3 
0.9361010847848106 3:5 8:10 19:9 
0.7586905989839344 8:13 16:7 19:1 20:2 33:1 
0.9279407217975948 3:3 6:1 8:3 18:17 
1 1:19 28:5 
0.8250047179613084 3:4 8:2 14:10 22:5 29:2 34:1 
1 4:1 9:3 11:4 20:2 33:14 
1 8:1 9:2 19:1 20:5 25:13 29:1 
1 3:2 4:1 11:2 14:6 19:3 20:9 
1 4:1 6:2 7:6 14:2 19:4 22:3 29:3 33:2 
1 7:1 12:9 18:4 26:7 30:2 
1 3:15 8:4 14:3 32:1 
1 4:1 7:1 8:1 14:1 28:19 
1 2:1 5:5 7:4 14:3 15:5 19:1 22:3 34:1 
1 7:1 8:6 14:1 16:3 19:1 20:4 28:4 30:1 34:1 
1 4:4 6:2 28:16 
1 1:16 3:4 4:1 18:1 
0.8830502305401978 1:1 24:12 28:9 
1 8:7 14:10 20:1 28:3 34:1 
0.8326877288781042 4:4 8:4 14:5 16:2 31:7 
1 3:5 6:5 12:1 14:3 16:2 33:4 36:2 
1 3:2 19:15 20:1 31:4 
1 3:1 6:4 8:10 11:1 16:4 19:1 
1 6:1 7:5 8:5 16:4 20:4 33:1 34:1 
1 3:2 6:10 9:1 19:1 20:2 31:1 33:2 34:2 
1 3:2 5:3 8:4 15:5 19:1 20:4 34:1 35:1 
1 14:3 16:2 20:11 28:5 
1 7:1 8:11 14:2 25:7 
1 6:4 7:1 8:3 15:3 16:3 25:1 29:6 
0.8618470572629555 3:6 7:1 8:5 19:1 28:8 
1 24:5 28:14 35:2 
1 6:2 7:1 11:5 14:3 28:5 29:1 32:3 
1 8:1 11:1 28:15 29:2 31:1 
1 8:12 16:3 19:5 
1 8:10 16:3 19:1 20:4 35:2 
1 6:1 7:9 9:3 14:2 16:1 25:2 28:2 
1 8:1 11:2 20:4 22:12 
1 7:4 8:3 11:8 20:4 
1 8:2 9:6 18:10 34:1 
1 4:4 6:1 8:9 11:1 19:4 
1 8:5 16:8 19:1 20:5 
1 4:1 8:8 14:4 19:5 33:1 
1 4:1 6:5 11:10 20:3 
1 3:1 16:1 19:2 20:1 29:4 31:1 35:8 36:1 
1 6:7 28:12 
1 3:4 6:6 8:1 19:1 20:3 22:1 31:1 34:1 35:1 
1 4:2 6:10 8:1 9:5 34:1 
1 1:2 4:3 6:2 9:1 10:1 19:1 20:3 29:2 31:2 33:1 
1 4:2 6:2 16:3 18:7 33:4 
1 1:5 16:2 24:11 
1 3:4 7:1 8:3 11:3 16:2 19:2 20:2 30:1 
1 3:1 8:6 16:1 19:1 28:2 31:2 33:4 34:1 
1 4:1 12:7 14:3 16:3 19:4 
1 6:5 20:3 21:7 28:2 36:1 
1 3:4 11:1 14:11 16:1 19:1 
1 6:4 11:13 37:1 
1 8:5 24:2 28:11 
1 15:2 20:1 24:8 28:7 
1 6:1 8:13 11:1 20:1 31:2 
1 1:1 6:4 11:1 24:9 35:3 
1 3:1 6:2 14:3 20:11 34:1 
1 3:2 4:3 8:1 12:2 14:9 33:1 
1 18:18 
1 3:6 4:9 8:2 19:1 
1 8:17 35:1 
1 28:14 29:4 
1 6:1 12:2 19:4 20:8 30:1 34:1 
1 6:3 20:2 28:12 
1 6:10 29:6 35:1 
0.8546554019751739 6:1 18:16 
1 3:1 6:1 8:5 9:1 29:3 33:1 34:1 35:2 36:2 
1 3:3 4:4 5:2 14:2 15:2 19:1 20:1 35:2 
1 3:2 6:1 16:3 19:1 22:1 25:4 28:2 31:3 
1 4:2 7:1 8:4 19:2 20:3 22:1 26:4 
1 3:2 6:4 8:6 19:1 34:3 35:1 
1 3:2 5:3 6:4 8:1 9:4 15:2 19:1 
1 6:1 8:14 14:2 
1 8:1 18:6 28:1 32:8 34:1 
1 3:3 6:2 14:8 29:2 34:1 35:1 
1 6:8 8:9 
1 1:3 5:1 7:1 14:2 22:6 24:4 
1 6:2 8:2 19:3 26:10 
1 4:1 6:1 8:3 10:4 16:5 19:1 29:2 
1 6:8 8:1 11:3 14:4 20:1 
1 14:11 20:6 
1 3:3 6:7 11:7 
1 6:4 8:1 28:10 35:1 
1 8:8 11:1 19:3 20:4 
1 3:1 14:5 19:4 20:1 31:2 34:2 36:1 
1 6:2 8:1 19:2 20:4 31:7 
1 3:2 14:5 15:5 19:4 
1 6:12 11:1 15:1 33:2 
1 1:1 8:1 11:1 14:1 19:2 28:10 
1 8:10 19:1 22:5 
1 2:1 3:1 9:2 14:4 19:2 33:2 34:2 35:2 
1 6:10 19:5 31:1 
1 5:1 6:1 8:1 14:4 19:1 20:2 23:1 33:3 34:2 
1 5:2 7:1 14:1 15:10 31:1 36:1 
1 11:14 34:1 37:1 
1 12:5 14:3 15:3 20:4 33:1 
1 6:7 16:5 18:4 
1 5:4 6:4 19:3 31:5 
1 3:1 4:6 6:4 18:3 33:2 
1 3:1 4:1 14:4 19:1 20:2 31:6 35:1 
1 3:1 4:2 6:1 14:4 18:1 20:1 23:4 30:1 
1 3:2 6:5 8:1 15:3 16:4 
1 14:4 15:3 19:6 33:2 
1 4:3 8:6 19:1 28:4 35:1 
1 5:3 6:1 7:2 8:2 11:1 19:3 20:1 22:1 33:1 
1 11:1 14:1 16:4 20:5 22:1 29:2 35:1 
1 3:3 19:3 20:4 29:1 31:1 34:2 35:1 
1 3:2 4:5 8:4 9:3 20:1 
1 4:2 6:1 8:5 12:1 14:4 16:2 
1 4:2 8:4 14:1 19:2 31:6 
1 14:6 19:3 20:4 22:2 
1 20:15 
1 6:2 7:1 8:3 19:1 20:5 22:1 35:1 36:1 
1 8:2 14:4 19:1 20:1 28:1 31:5 34:1 
1 1:7 19:2 24:6 
1 3:4 4:1 6:1 19:2 20:6 25:1 
1 6:8 11:1 28:6 
1 4:1 6:1 14:1 19:11 29:1 
1 3:4 4:3 8:3 14:1 20:2 29:1 33:1 
1 6:1 8:1 19:7 20:5 22:1 
1 6:1 22:13 
1 5:1 6:4 11:1 12:1 14:3 19:2 31:2 
1 6:9 7:3 19:2 
1 15:14 
1 4:1 5:4 6:6 7:1 9:2 
1 6:6 12:1 14:1 19:1 25:5 
1 7:2 14:11 19:1 
1 4:2 6:1 8:2 20:4 21:1 28:4 
1 2:1 8:1 14:4 21:2 33:6 
1 3:1 8:4 9:1 12:4 14:1 16:1 19:1 35:1 
1 20:1 22:3 24:10 
1 6:6 8:1 28:7 
1 3:2 5:7 7:1 9:1 19:2 34:1 
1 10:2 14:7 16:3 19:1 20:1 
1 3:1 6:11 34:1 35:1 
1 6:10 7:2 11:1 35:1 
1 6:4 20:5 30:5 
1 4:4 5:3 19:1 22:5 30:1 
1 4:1 6:7 8:5 19:1 
1 3:1 4:1 7:1 14:5 19:1 20:1 21:1 35:3 
1 6:8 11:1 19:1 25:3 
1 6:3 8:5 31:5 
1 8:8 11:1 19:1 28:3 
1 6:1 8:1 20:11 
1 5:1 7:4 9:2 16:1 32:2 34:2 35:1 
1 14:5 19:1 20:7 
1 8:8 16:1 20:1 35:2 36:1 
1 3:1 4:1 18:8 19:2 22:1 
1 6:1 8:9 19:3 
1 1:2 4:2 11:1 14:4 16:3 31:1 
1 3:1 4:7 6:1 14:2 19:2 
1 8:9 29:4 
1 5:2 8:5 18:6 
1 14:5 16:5 19:1 20:2 
1 3:3 6:6 34:1 35:3 
1 1:8 4:1 8:1 20:2 34:1 
1 3:2 6:5 14:1 19:4 29:1 
1 14:11 35:2 
1 6:13 
1 6:2 8:1 16:1 20:5 31:4 
1 7:5 8:5 9:1 34:1 35:1 
1 3:3 6:2 7:1 18:2 19:3 33:2 
1 18:12 34:1 
1 1:2 14:5 28:6 
1 1:7 8:1 11:1 18:2 19:2 
1 5:3 6:8 14:1 35:1 
1 1:2 5:4 8:4 11:1 19:1 20:1 
1 3:3 14:3 18:2 19:3 20:1 29:1 
1 4:3 6:2 8:2 19:1 33:4 
1 8:3 18:9 
1 5:6 24:5 35:1 
1 3:2 8:1 16:2 28:7 
1 3:1 4:3 7:2 8:1 14:3 19:1 20:1 
1 7:2 8:5 18:5 
1 8:2 19:1 20:9 
1 6:1 14:4 22:1 25:3 35:2 36:1 
1 1:2 24:2 28:8 
1 8:2 11:4 20:6 
1 3:5 5:1 8:2 11:1 14:1 18:2 
1 6:3 8:1 20:8 
1 6:6 19:2 25:2 33:2 
1 8:5 9:1 19:3 30:1 33:2 
1 14:2 19:1 20:1 25:8 
1 3:1 4:4 6:1 20:5 33:1 
1 6:10 16:1 35:1 
1 3:2 5:2 14:3 18:2 19:2 35:1 
1 6:1 8:5 9:2 19:1 20:1 22:1 29:1 
1 4:1 7:1 9:2 11:1 14:2 18:2 19:1 30:2 
1 3:5 6:3 8:2 19:1 20:1 
1 3:1 6:10 20:1 
1 3:8 6:4 
1 3:1 6:2 8:3 9:1 11:1 19:3 22:1 
1 4:3 8:2 9:4 19:3 
1 6:3 8:2 16:4 19:1 29:1 35:1 
1 19:1 20:8 21:1 22:2 
1 5:3 7:2 8:1 12:1 19:1 20:3 31:1 
1 2:5 8:3 16:1 21:2 33:1 
1 10:4 14:8 
1 9:4 12:4 18:1 34:1 35:1 36:1 
1 1:2 6:7 21:1 22:2 
1 8:7 19:1 22:4 
1 14:1 16:2 19:7 31:1 34:1 
1 6:2 8:3 11:2 12:4 36:1 
1 14:9 16:2 30:1 
1 3:2 8:4 19:3 33:2 
1 3:2 6:6 33:2 34:1 
1 29:11 
1 11:1 14:7 35:3 
1 8:9 14:2 
1 4:1 14:1 19:2 21:7 
1 3:1 5:1 6:1 7:1 8:3 16:1 19:3 
1 3:3 20:8 
1 6:9 19:1 35:1 
1 6:11 
1 8:7 20:4 
1 3:1 14:9 34:1 
1 6:1 8:1 20:4 28:5 
1 7:1 8:6 14:4 
1 28:10 35:1 
1 6:4 16:4 19:1 31:2 
1 3:3 4:1 14:6 22:1 
1 14:5 16:3 19:1 20:1 31:1 
1 4:1 6:3 8:2 11:1 19:2 29:2 
1 6:3 8:1 19:3 25:4 
1 3:2 8:3 28:5 36:1 
1 3:2 6:3 19:1 29:5 
1 4:1 6:3 8:2 9:1 14:1 15:3 
1 6:11 
1 9:2 11:4 14:2 18:1 26:1 
1 6:4 8:4 16:1 34:1 
1 6:2 28:8 
1 6:1 8:2 11:1 16:5 26:1 
1 5:5 8:2 19:1 31:2 
1 3:4 14:4 35:2 
1 8:4 14:1 20:5 
1 3:1 4:1 6:6 11:1 33:1 
1 6:1 19:5 21:4 
1 4:1 6:4 9:3 22:1 27:1 
1 6:6 19:4 
1 6:1 8:4 14:3 19:1 20:1 
1 4:2 14:5 19:3 
1 3:1 8:4 20:5 
1 6:1 8:4 20:4 34:1 
1 6:8 8:1 20:1 
1 4:4 14:4 18:1 20:1 
1 8:3 11:5 19:2 
1 24:3 28:7 
1 3:6 6:2 33:2 
1 4:3 7:1 8:4 14:1 20:1 
1 8:4 19:1 20:1 22:4 
1 8:5 31:5 
1 6:10 
1 3:1 6:1 7:1 8:2 19:2 33:3 
1 3:2 5:2 6:1 18:1 33:3 
1 6:3 11:2 33:3 34:1 
1 3:1 6:1 7:1 8:1 11:1 19:2 20:1 35:1 
1 3:2 8:2 14:2 33:3 
1 1:1 4:1 6:2 11:1 19:1 22:3 
1 4:2 6:1 16:6 
1 1:3 22:2 24:1 28:3 
1 3:1 6:2 8:4 11:1 19:1 
1 14:1 19:6 35:1 36:1 
1 6:2 7:1 28:6 
1 14:2 16:1 20:6 
1 4:3 6:1 8:2 33:2 35:1 
1 1:3 3:1 4:1 16:3 19:1 
1 11:9 
1 28:6 34:1 35:2 
1 8:9 
1 8:6 27:2 28:1 
1 6:5 19:1 29:2 35:1 
1 4:1 6:7 8:1 
1 5:1 8:2 9:1 28:5 
1 6:3 16:4 19:1 33:1 
1 3:3 5:1 6:4 33:1 
1 6:2 7:2 8:2 22:1 29:2 
1 24:9 
1 24:1 28:8 
1 16:3 18:3 33:1 34:1 35:1 
1 8:1 20:7 34:1 
1 3:4 6:2 19:2 
1 5:4 6:1 28:2 35:1 
1 8:4 16:3 20:1 
1 6:1 8:3 19:2 20:1 21:1 
1 4:1 8:1 9:1 14:4 19:1 
1 3:1 6:1 8:5 20:1 
1 8:3 20:2 28:3 
1 6:5 8:3 
1 4:1 6:5 8:1 11:1 
1 6:2 14:1 20:5 
1 6:2 12:1 16:1 18:1 28:3 
1 7:1 8:5 35:2 
1 24:8 
1 8:1 16:3 18:1 34:2 36:1 
1 6:1 28:7 
1 24:2 28:6 
1 3:1 8:3 14:1 15:2 32:1 
1 8:3 22:5 
1 5:6 11:1 20:1 
1 28:6 35:2 
1 14:7 22:1 
1 4:1 20:7 
1 14:7 19:1 
1 3:2 6:1 8:1 14:1 20:3 
1 6:1 8:6 28:1 
1 8:1 11:7 
1 3:3 8:5 
1 6:1 8:1 14:3 28:3 
1 14:4 22:2 31:2 
1 5:2 6:1 7:1 8:3 31:1 
1 4:1 14:6 16:1 
1 5:2 6:2 7:2 8:1 22:1 
1 3:1 6:2 8:1 16:2 22:2 
1 3:3 6:2 20:1 31:1 34:1 
1 3:1 6:6 35:1 
1 6:2 8:2 11:1 28:2 35:1 
1 24:8 
1 3:3 6:1 14:3 34:1 
1 14:5 33:2 35:1 
1 4:4 8:4 
1 1:1 8:3 11:3 19:1 
1 8:2 20:3 31:1 34:1 35:1 
1 19:2 22:4 24:2 
1 3:3 6:3 20:2 
1 3:1 4:1 7:1 11:2 14:2 19:1 
1 3:2 18:4 29:1 35:1 
1 3:1 4:1 14:3 19:1 20:2 
1 6:7 7:1 
1 8:8 
1 3:7 6:1 
1 3:1 8:2 19:4 35:1 
1 24:7 28:1 
1 3:1 4:2 21:3 22:1 
1 4:1 6:1 14:1 19:1 20:2 33:1 
1 14:4 20:3 
1 14:1 16:3 19:1 31:2 
1 3:1 6:1 8:1 19:3 21:1 
1 6:5 19:2 
1 3:2 6:3 20:2 
1 11:1 16:5 20:1 
1 3:4 8:2 33:1 
1 11:7 
1 8:1 28:6 
1 4:2 6:2 14:2 19:1 
1 6:4 9:1 20:1 34:1 
1 4:4 14:2 19:1 
1 6:2 8:1 9:1 31:1 33:1 34:1 
1 6:3 8:1 11:1 19:2 
1 6:1 8:6 
1 4:1 8:2 9:1 31:3 
1 7:2 16:5 
1 8:3 14:2 20:1 29:1 
1 6:3 8:1 20:3 
1 6:2 8:1 20:4 
1 14:7 
1 6:2 8:2 14:3 
1 4:1 14:3 15:1 20:2 
1 4:1 6:2 16:2 19:1 30:1 
1 3:2 6:3 20:1 36:1 
1 4:3 7:1 16:2 33:1 
1 24:5 28:2 
1 3:1 6:1 8:5 
1 14:1 19:6 
1 6:2 8:2 25:3 
1 6:2 11:4 19:1 
1 11:1 14:3 20:2 28:1 
1 6:3 11:1 28:3 
1 20:2 21:1 22:3 33:1 
1 8:1 20:6 
1 7:1 8:5 35:1 
1 4:2 19:1 20:3 33:1 
1 4:1 14:1 20:5 
1 4:2 7:2 14:1 19:1 20:1 
1 6:1 11:5 19:1 
1 7:2 8:2 11:1 28:2 
1 3:1 4:1 5:1 14:3 19:1 
1 6:1 8:4 29:2 
1 8:2 14:4 28:1 
1 8:4 14:3 
1 28:7 
1 24:3 28:4 
1 8:6 
1 22:1 24:5 
1 6:1 11:1 20:4 
1 6:3 8:2 19:1 
1 8:5 33:1 
1 8:2 14:2 36:2 
1 6:5 20:1 
1 15:3 35:2 36:1 
1 8:1 14:1 20:3 34:1 
1 3:2 14:2 20:2 
1 1:1 6:2 8:1 14:1 34:1 
1 8:4 20:1 34:1 
1 8:6 
1 6:2 20:4 
1 20:6 
1 6:3 20:2 35:1 
1 8:1 11:4 19:1 
1 14:5 17:1 
1 3:3 14:3 
1 10:4 19:2 
1 8:2 11:2 14:2 
1 6:2 20:1 28:3 
1 4:3 6:1 11:2 
1 4:2 6:3 19:1 
1 6:6 
1 4:1 8:2 9:2 11:1 
1 11:6 
1 3:3 8:1 19:2 
1 14:2 20:4 
1 3:2 8:1 16:1 35:1 36:1 
1 8:4 19:2 
1 8:6 
1 3:1 14:2 19:1 29:2 
1 24:4 28:2 
1 8:2 28:4 
1 24:6 
1 6:3 19:3 
1 6:6 
1 3:1 4:1 14:1 16:3 
1 14:1 16:1 34:2 35:2 
1 8:4 16:1 35:1 
1 3:1 7:2 8:2 14:1 
1 5:1 6:2 8:1 19:2 
1 6:2 11:4 
1 8:2 20:4 
1 14:4 19:2 
1 4:1 6:1 8:3 19:1 
1 4:2 8:1 11:3 
1 4:1 14:5 
1 9:3 18:1 19:1 
1 6:1 8:4 
1 6:2 8:3 
1 19:1 22:2 24:2 
1 6:1 8:1 19:2 31:1 
1 3:2 6:2 20:1 
1 14:2 34:1 35:2 
1 6:1 8:2 16:1 28:1 
1 6:2 8:3 
1 6:1 8:3 20:1 
1 19:1 21:4 
1 20:3 24:2 
1 14:3 17:1 19:1 
1 18:5 
1 4:1 14:2 20:2 
1 4:3 14:2 
1 3:2 15:2 36:1 
1 4:1 6:3 33:1 
1 5:1 8:1 20:3 
1 14:3 20:1 35:1 
1 5:1 6:3 35:1 
1 19:1 24:2 26:2 
1 3:1 4:1 8:1 19:2 
1 14:2 28:3 
1 5:1 18:3 34:1 
1 19:1 24:3 34:1 
1 14:3 15:1 18:1 
1 8:2 10:2 19:1 
1 8:4 19:1 
1 8:1 14:2 19:1 35:1 
1 24:4 35:1 
1 8:1 20:3 30:1 
1 3:1 16:3 24:1 
1 6:4 9:1 
1 7:1 8:3 20:1 
1 22:2 24:3 
1 6:3 20:2 
1 6:2 8:1 28:2 
1 4:1 6:2 16:1 19:1 
1 14:5 
1 20:5 
1 6:3 19:1 22:1 
1 8:5 
1 19:4 26:1 
1 14:5 
1 6:3 19:1 28:1 
1 14:3 20:2 
1 19:1 24:4 
1 8:2 14:1 35:2 
1 6:2 8:2 19:1 
1 6:1 16:2 35:1 36:1 
1 6:1 8:4 
1 6:2 19:2 33:1 
1 6:4 35:1 
1 5:1 24:3 28:1 
1 1:3 6:1 8:1 
1 6:1 11:2 34:1 35:1 
1 11:1 20:1 26:3 
1 8:1 19:4 
1 8:1 14:1 35:1 36:2 
1 6:3 8:1 20:1 
1 3:1 4:1 8:1 14:2 
1 8:2 14:2 37:1 
1 8:1 14:1 19:2 20:1 
1 8:2 20:3 
1 24:5 
1 6:2 8:2 11:1 
1 8:2 14:1 19:2 
1 2:1 21:1 28:3 
1 6:3 11:1 19:1 
1 6:1 8:2 9:1 16:1 
1 6:1 8:3 20:1 
1 4:1 7:1 19:1 25:2 
1 1:1 6:4 
1 4:1 6:3 7:1 
1 5:2 6:2 35:1 
1 6:4 20:1 
1 8:1 20:3 24:1 
1 24:5 
1 8:5 
1 24:1 28:4 
1 5:1 21:2 29:1 
1 3:1 6:2 8:1 
1 4:1 8:1 28:2 
1 6:1 8:1 9:2 
1 7:2 14:2 
1 1:1 6:1 8:1 19:1 
1 6:2 8:2 
1 5:3 6:1 
1 3:1 8:1 33:2 
1 6:2 11:1 18:1 
1 8:3 31:1 
1 8:1 20:3 
1 6:1 8:1 13:2 
1 3:1 7:1 14:1 19:1 
1 24:1 28:3 
1 11:3 19:1 
1 6:2 11:1 28:1 
1 4:2 19:1 35:1 
1 8:4 
1 6:3 14:1 
1 6:4 
1 14:4 
1 3:2 8:1 19:1 
1 14:3 19:1 
1 16:1 20:2 22:1 
1 6:3 19:1 
1 6:2 15:2 
1 5:1 7:1 8:1 19:1 
1 8:1 11:2 20:1 
1 28:4 
1 4:2 11:2 
1 11:2 14:2 
1 1:4 
1 5:2 15:1 33:1 
1 8:3 14:1 
1 6:1 28:3 
1 4:2 8:2 
1 6:2 8:1 19:1 
1 6:3 8:1 
1 8:4 
1 28:4 
1 6:4 
1 8:4 
1 14:1 22:3 
1 6:2 28:2 
1 8:2 19:2 
1 6:4 
1 6:3 24:1 
1 6:1 8:1 11:1 28:1 
1 11:4 
1 8:3 19:1 
1 8:1 20:3 
1 4:1 8:1 19:2 
1 6:1 28:3 
1 6:1 14:3 
1 28:4 
1 4:1 6:1 8:1 19:1 
1 20:2 24:2 
1 8:3 30:1 
1 8:1 24:2 36:1 
1 8:4 
1 14:1 20:3 
1 8:2 24:1 28:1 
1 6:4 
1 14:1 18:2 22:1 
1 6:1 16:2 
1 1:3 
1 14:2 36:1 
1 11:1 20:2 
1 6:2 19:1 
1 4:1 8:1 32:1 
1 3:2 14:1 
1 8:1 33:2 
1 8:3 
1 11:2 34:1 
1 6:1 8:1 20:1 
1 8:1 14:1 19:1 
1 24:3 
1 8:1 16:1 19:1 
1 5:2 8:1 
1 1:1 5:1 8:1 
1 6:1 8:1 36:1 
1 4:1 8:1 30:1 
1 1:2 8:1 
1 7:1 8:1 14:1 
1 6:2 8:1 
1 6:2 8:1 
1 5:1 14:1 21:1 
1 11:2 19:1 
1 6:1 8:1 18:1 
1 6:2 20:1 
1 18:3 
1 6:3 
1 14:3 
1 3:2 4:1 
1 8:3 
1 11:2 34:1 
1 8:1 28:2 
1 6:2 20:1 
1 6:2 11:1 
1 4:2 8:1 
1 6:3 
1 24:3 
1 6:2 20:1 
1 6:3 
1 15:1 19:1 36:1 
1 4:1 8:1 19:1 
1 8:1 16:1 20:1 
1 3:1 14:2 
1 19:3 
1 11:1 16:2 
1 6:1 8:2 
1 6:2 8:1 
1 8:2 34:1 
1 6:1 8:1 36:1 
1 8:1 34:1 35:1 
1 6:2 14:1 
1 8:1 11:2 
1 14:2 16:1 
1 3:2 8:1 
1 8:2 14:1 
1 3:1 24:1 33:1 
1 6:2 35:1 
1 11:1 14:1 20:1 
1 6:3 
1 6:2 24:1 
1 6:2 20:1 
1 24:3 
1 5:1 11:1 
1 5:1 8:1 
1 6:1 28:1 
1 14:1 19:1 
1 8:1 19:1 
1 6:1 24:1 
1 14:2 
1 8:1 19:1 
1 24:2 
1 6:1 20:1 
1 28:2 
1 8:2 
1 6:2 
1 4:2 
1 3:1 8:1 
1 6:1 11:1 
1 1:1 8:1 
1 8:2 
1 8:1 28:1 
1 6:2 
1 14:2 
1 11:2 
1 6:1 14:1 
1 8:2 
1 6:1 19:1 
1 22:1 24:1 
1 6:1 8:1 
1 24:2 
1 6:1 26:1 
1 6:1 16:1 
1 28:1 34:1 
1 18:1 30:1 
1 20:2 
1 6:1 33:1 
1 6:2 
1 24:2 
1 3:1 33:1 
1 1:1 11:1 
1 1:1 14:1 
1 18:1 35:1 
1 11:2 
1 9:2 
1 6:2 
1 4:1 19:1 
1 6:2 
1 36:2 
1 14:1 16:1 
1 8:1 19:1 
1 11:1 14:1 
1 24:2 
1 4:1 11:1 
1 8:1 28:1 
1 8:1 19:1 
1 1:1 6:1 
1 8:2 
1 8:2 
1 6:2 
1 8:2 
1 6:1 8:1 
1 7:1 11:1 
1 6:2 
1 8:1 24:1 
1 14:2 
1 14:1 19:1 
1 6:1 19:1 
1 6:1 14:1 
1 6:1 28:1 
1 28:2 
1 6:1 20:1 
1 6:1 20:1 
1 8:2 
1 6:1 34:1 
1 11:2 
1 6:2 
1 6:2 
1 5:2 
1 6:1 11:1 
1 15:1 33:1 
1 14:1 
1 9:1 
1 8:1 
1 8:1 
1 20:1 
1 8:1 
1 15:1 
1 22:1 
1 6:1 
1 19:1 
1 24:1 
1 14:1 
1 8:1 
1 8:1 
1 11:1 
1 8:1 
1 11:1 
1 22:1 
1 24:1 
1 11:1 
1 8:1 
1 14:1 
1 6:1 
1 19:1 
1 8:1 
1 1:1 
1 24:1 
1 19:1 
1 8:1 
1 24:1 
1 24:1 
1 20:1 
1 20:1 
1 8:1 
1 28:1 
1 14:1 
1 8:1 
1 14:1 
1 14:1 
1 8:1 
1 24:1 
1 6:1 
1 8:1 
1 6:1 
1 11:1 
1 8:1 
1 8:1 
1 8:1 
1 24:1 
1 14:1 
1 8:1 
1 6:1 
1 8:1 
1 8:1 
1 6:1 
1 20:1 
1 36:1 
1 24:1 
1 24:1 
1 4:1 
1 6:1 
1 24:1 
1 6:1 
1 11:1 
1 6:1 
1 8:1 
1 8:1 
1 8:1 
1 28:1 
1 6:1 
1 8:1 
1 6:1 
1 6:1 
1 24:1 
1 8:1 
1 24:1 
1 24:1 
1 8:1 
1 11:1 
1 8:1 
1 11:1 
1 24:1 
1 8:1 
1 33:1 
1 24:1 
1 8:1 
1 24:1 
1 21:1 
1 11:1 
1 11:1 
1 24:1 
1 22:1 
1 6:1 
1 14:1 
1 
1 
1 
1 
1 
1 
1 
1 
1 
1 
1 
1 
1 
1 
1 
1 
1 
1 
1 
1 
1 
1 
1 
1 
1 
1 
1 
1 
1 
1 
1 
1 
1 
1 
1 
1 
-1 4:78 
-1 8:2 18:45 19:1 33:1 
-1 4:41 
-1 2:1 9:4 14:4 30:28 
-1 19:1 28:32 34:1 
-1 2:27 14:1 20:2 28:4 
-0.921325254238179 14:6 31:24 
-1 21:4 24:1 28:24 
-0.9221067933455436 31:29 
-1 11:26 14:1 37:1 
-1 3:5 7:4 18:15 35:4 
-1 6:3 9:4 18:19 36:1 
-0.7913454039365002 8:8 11:2 20:16 21:1 
-0.8396224148008407 4:4 5:2 7:1 8:15 19:1 20:2 31:1 
-1 3:2 5:5 6:4 7:6 19:2 20:7 
-0.9467963809218161 3:1 5:5 6:4 15:3 19:13 
-1 4:1 8:2 26:22 34:1 
-0.7719529171360303 3:4 8:1 19:19 34:1 
-1 3:1 4:1 5:2 6:1 7:1 14:8 19:1 20:8 34:1 35:1 
-0.9206248370078507 19:3 20:5 24:4 28:12 
-1 5:3 8:15 19:2 22:4 
-0.773983842630284 6:1 8:17 11:1 18:3 25:2 
-1 7:1 18:23 
-1 1:18 3:2 15:3 18:1 
-0.9985239404409818 6:24 
-1 7:2 9:1 14:6 15:3 19:3 31:8 34:1 
-1 5:7 8:4 35:12 
-1 11:21 19:1 37:1 
-0.6163330634230563 8:2 20:21 
-1 5:4 6:8 11:1 28:7 35:2 
-1 14:9 20:12 34:1 
-1 8:1 11:1 16:1 20:6 25:13 
-1 3:13 8:4 20:4 34:1 
-1 6:1 18:20 35:1 
-1 4:5 8:5 19:7 29:5 
-1 1:22 
-0.5933354626420068 6:1 9:1 11:18 34:1 37:1 
-1 1:1 6:4 8:1 12:1 20:5 28:9 
-0.9205744035932646 6:15 7:2 19:1 21:3 
-1 4:1 6:10 16:7 31:3 
-1 24:7 28:14 
-0.4270621277106323 6:1 8:3 11:16 37:1 
-1 8:1 25:20 
-0.6288094906733337 8:1 18:1 19:1 20:15 21:2 
-0.6376998793741222 3:3 4:1 7:2 8:10 11:1 20:2 34:1 
-1 6:4 11:2 12:1 28:11 33:2 
-0.5397281936145603 8:1 9:2 11:1 14:3 16:10 20:1 31:2 
-1 28:20 
-0.6645480238927829 1:11 5:2 6:2 8:1 19:2 33:2 
-0.5987736828595096 19:20 
-0.9360088112346063 6:6 8:10 20:4 
-1 8:19 11:1 
-0.8431594287767168 16:4 20:8 24:7 
-1 6:8 18:1 19:1 20:7 31:2 
-1 3:4 4:1 6:13 35:1 
-0.7305884131622937 14:2 15:3 19:14 
-1 3:4 5:2 6:3 8:1 9:5 14:2 18:1 35:1 
-0.6281810344380327 3:1 5:1 8:10 9:1 11:1 15:1 18:2 19:1 31:1 
-0.8967482317103999 2:1 3:3 5:2 6:2 8:1 19:1 20:4 21:1 22:4 
-1 4:2 7:7 14:10 
-0.8204424306267117 8:2 20:9 25:8 
-1 8:1 28:18 
-0.7634098701846507 3:1 6:3 7:1 12:11 31:1 34:1 35:1 
-0.6858648619797003 6:1 8:1 20:17 
-0.7649063657598052 7:2 24:11 29:6 
-0.4761383790996667 4:1 8:2 19:14 33:1 
-0.7521115797902156 3:9 8:4 29:3 34:1 35:1 
-0.7935687894516252 5:9 7:1 8:1 11:5 34:1 39:1 
-0.1228766194545405 11:14 19:1 24:2 37:1 
-0.8223485863374259 8:9 21:8 33:1 
-0.6502233396803764 6:3 8:1 19:6 28:8 
-0.9531565984502518 6:11 11:6 37:1 
-1 6:2 11:14 19:1 37:1 
-0.4562671724500844 6:9 8:1 11:1 16:1 31:5 35:1 
-1 8:11 20:7 
-0.5188637063043942 6:3 8:6 9:4 24:5 
-0.8491585669130245 6:4 22:6 26:4 30:4 
-0.3780498130203442 3:6 6:1 8:2 9:4 16:2 19:3 
-1 8:10 14:1 16:3 19:3 
-0.5355099586331759 3:3 7:2 8:3 19:9 
-1 3:3 4:2 6:5 7:3 29:1 33:3 
-1 6:11 8:6 
-1 6:1 8:1 28:15 
-1 2:7 8:2 14:5 16:1 20:1 28:1 
-0.6235431146605638 1:1 5:1 6:14 8:1 
-1 11:2 14:13 18:1 34:1 
-1 9:1 16:2 19:10 20:2 24:2 
-1 6:5 14:11 19:1 
-0.2115052083335935 2:1 7:1 9:3 11:1 14:4 20:5 22:2 
-0.613186853888242 1:8 6:1 8:2 15:1 22:3 29:1 35:1 
-1 1:6 3:2 4:5 8:2 14:2 
-0.4709492169592228 4:1 11:5 18:1 19:9 24:1 
-0.2142935117099775 5:2 6:1 8:2 9:3 19:9 
-1 3:3 6:3 15:3 19:2 20:6 
-0.4753618889967277 6:14 11:3 
-0.9042139014601418 1:15 24:2 
-1 3:1 6:1 14:10 16:1 20:2 34:1 35:1 
-0.2602115328176448 4:1 8:2 11:12 19:2 
-1 3:2 8:2 19:2 29:10 35:1 
-0.5442945439838769 3:3 4:2 7:1 11:1 19:1 20:2 22:4 29:1 31:2 
-0.972738932720566 4:2 6:9 19:1 31:4 
-1 1:3 22:3 24:9 35:1 
-1 5:1 6:1 8:1 20:6 21:2 28:5 
-1 3:2 6:8 8:1 19:4 22:1 
-1 3:2 6:4 8:8 22:2 
-0.06796431403848513 8:8 9:2 11:6 
-0.8090429766537468 1:2 3:3 5:1 8:1 14:4 21:5 
-0.9921811680431256 1:5 8:1 14:2 19:2 20:4 22:1 33:1 
-1 22:2 24:14 
-0.6932631505273428 24:9 26:1 33:6 
-0.6884169301154688 6:1 8:2 16:2 19:3 28:8 
-1 3:8 14:4 18:1 22:1 29:1 33:1 
-0.1824324779583682 3:5 6:2 11:2 19:2 22:4 35:1 
-0.2890297996686245 7:1 9:5 14:2 19:3 33:5 
-0.8247511760528228 3:4 4:3 6:1 8:1 11:1 19:6 
-1 6:10 7:5 19:1 
-1 1:2 6:1 28:13 
-1 3:5 4:1 6:3 15:1 33:6 
-0.3370690749028594 6:2 11:11 27:1 37:1 39:1 
-0.4155582248404265 8:15 37:1 
-1 6:3 9:3 20:10 
-1 6:6 11:9 37:1 
-0.6011939082772811 6:2 8:10 35:2 37:1 
-0.4970601855165164 6:15 
-1 6:1 16:7 20:7 
-0.1766942421187526 6:5 8:3 16:1 20:4 34:1 36:1 
-1 4:2 9:3 14:5 33:5 
-0.6097617916825327 11:8 31:6 37:1 
-1 6:2 8:2 19:3 20:8 
-1 6:1 8:5 9:1 19:2 20:4 35:2 
-1 5:1 6:1 9:1 15:12 
-1 6:1 28:14 
-1 4:2 5:1 11:1 14:3 19:4 20:4 
-1 8:5 19:6 20:1 31:3 
-1 3:3 6:5 20:3 29:4 
-1 3:4 6:9 34:2 
-0.4395283065774944 3:2 4:2 8:1 9:1 19:6 33:3 
-0.4239288375710075 3:1 7:1 8:1 18:3 19:1 22:7 35:1 
-1 2:1 6:1 8:5 20:6 34:1 36:1 
-1 3:1 6:7 20:5 34:1 35:1 
-0.871069000174037 8:8 11:7 
-1 6:2 28:12 35:1 
-0.8335761128627405 8:4 15:11 
-1 3:1 6:3 20:7 34:2 35:1 
-1 14:3 19:3 20:8 
-0.4636897547885044 5:1 6:2 7:4 8:1 24:2 36:4 
-0.4817255996311463 1:1 16:4 22:3 24:3 29:1 33:1 34:1 
-1 4:1 6:1 7:2 8:4 9:2 14:4 
-1 3:3 4:4 6:4 8:3 
-1 5:2 14:7 16:4 34:1 
-0.8636446636122391 3:1 5:6 14:2 19:1 33:4 
-1 14:2 15:11 35:1 
-0.932402883165202 6:1 8:3 25:10 
-1 6:9 8:5 
-1 3:2 7:1 8:6 16:1 19:3 20:1 
-0.6353364415020475 5:1 6:3 9:1 16:3 18:2 20:2 34:1 35:1 
-0.1185668403813864 3:7 4:1 8:4 9:1 34:1 
-0.4760741500884623 8:1 11:1 14:2 22:5 28:4 34:1 
-1 4:4 5:4 6:2 8:2 19:1 22:1 
-1 4:1 7:1 9:2 11:3 14:1 19:1 28:4 30:1 
-0.6733200949692363 1:7 5:4 11:1 20:1 34:1 
-1 6:5 19:1 25:8 
-1 5:7 6:2 7:2 14:1 18:1 19:1 
-1 6:3 8:1 18:9 19:1 
-1 6:6 11:7 34:1 
-1 3:4 8:3 20:7 
-1 3:1 6:1 8:2 14:2 19:1 20:3 31:3 34:1 
-0.7776408279453122 3:2 5:1 8:1 16:1 22:1 25:2 33:2 35:2 36:2 
-1 3:1 6:1 7:1 8:3 19:2 29:1 35:5 
-1 6:2 7:1 8:5 31:5 34:1 
-1 7:1 18:13 
-0.6902941843629192 12:6 18:4 35:4 
-1 8:12 14:1 20:1 
-0.2784000652493978 6:1 14:5 18:3 20:3 22:2 
-1 6:3 7:2 9:1 16:3 28:3 29:2 
-1 4:1 6:1 8:2 16:4 19:1 22:1 35:4 
-1 8:1 28:12 35:1 
-0.668532202891386 6:5 7:1 8:7 33:1 
-1 3:2 4:2 6:2 8:3 15:2 33:2 35:1 
-0.8377985295103222 7:3 20:4 29:4 30:3 
-0.1847937254980624 3:5 6:3 7:4 18:2 
-1 3:2 7:2 8:4 18:5 34:1 
-1 3:1 5:3 6:3 15:1 18:1 19:4 22:1 
-0.2714717592453285 6:4 8:2 9:5 20:2 
-1 6:3 8:6 16:1 20:2 34:1 
-1 7:1 11:2 14:5 16:5 
-1 6:11 8:1 35:1 
-1 11:1 14:10 18:2 
-1 7:1 14:4 19:8 
-0.4893013876154607 3:9 8:1 19:2 34:1 
-1 6:3 8:9 19:1 
-1 3:1 4:6 6:1 9:3 29:2 
-1 6:6 7:1 14:4 19:1 33:1 
-1 4:5 6:3 8:1 14:1 18:2 19:1 
-1 4:12 24:1 
-1 8:8 14:4 35:1 
-1 14:3 22:10 
-1 20:12 35:1 
-0.1629938297122892 6:2 19:10 33:1 
-1 8:1 14:5 20:6 33:1 
-1 3:3 8:4 16:2 28:1 33:3 
-0.01129649364305954 8:2 11:11 
-0.6232430527411483 11:6 19:2 34:1 39:4 
-1 8:3 14:2 19:3 20:2 31:3 
-1 12:1 30:11 34:1 
-0.5193677817291942 8:12 34:1 
-1 7:2 14:4 16:2 19:1 20:3 29:1 
-0.4855536644605444 6:1 8:5 9:4 11:1 16:2 
-0.6730949105582547 16:13 
-1 3:1 8:3 26:2 29:6 35:1 
-0.2035381971352981 4:1 11:9 33:1 34:1 37:1 
-0.440727448723731 20:1 25:12 
-0.3498282450024672 24:13 
-1 3:2 4:3 14:6 31:2 
-0.5410888018202936 8:7 18:2 19:1 34:1 35:2 
-0.4795600089217402 6:2 8:1 9:5 25:4 34:1 
-1 5:2 8:5 19:1 20:3 30:1 
-1 20:12 
-1 4:2 8:1 14:2 19:4 33:3 
-1 3:3 14:4 19:1 22:1 29:3 
-0.9613345815631444 6:5 12:2 14:3 29:2 
-0.9248372973288069 7:2 14:9 28:1 
-1 6:4 16:6 34:1 36:1 
-1 24:4 28:8 
-0.383737963467916 4:4 5:1 14:1 18:4 29:2 
-1 3:1 8:9 16:1 28:1 
-1 3:5 19:1 20:4 31:1 35:1 
-1 3:2 10:8 14:2 
-0.9127340417175991 4:5 9:1 14:1 18:3 30:2 
-1 6:10 19:1 22:1 
-0.8044083982027097 6:3 11:2 14:4 19:1 22:1 36:1 
-1 3:3 6:3 8:2 19:4 
-0.7066956774127477 6:3 16:7 33:2 
-0.0995441952300091 6:6 8:6 
-0.3287282018770938 6:4 8:1 11:2 19:1 20:2 22:2 
-1 6:11 14:1 
-0.5308440520843744 6:11 14:1 
-1 8:9 28:1 35:2 
-0.06053302485795593 6:3 15:8 35:1 
-0.3962049198778948 8:4 9:1 19:7 
-1 8:5 16:6 20:1 
-0.6351089179396133 8:8 11:2 14:1 19:1 
-0.717038205126284 9:10 33:2 
-1 4:2 5:1 6:2 7:3 8:1 16:3 
-1 6:2 8:3 11:2 16:1 19:3 33:1 
-0.3016594135502558 14:9 18:2 34:1 
-1 6:1 8:2 20:9 
-1 5:3 6:9 
-0.5013256133687002 5:8 11:2 19:2 
-0.5076635315588466 3:2 7:6 14:2 19:2 
-0.3036585264039047 3:1 5:2 8:2 11:2 12:1 19:4 
-0.4594625614333241 24:7 31:5 
-0.473874843304066 6:5 18:7 
-1 8:2 20:2 22:1 28:7 
-0.3465998182956258 8:4 24:8 
-1 6:10 8:1 9:1 
-0.7440783475311548 3:1 6:2 8:2 18:6 36:1 
-0.4882558262798226 8:12 
-1 14:6 16:5 19:1 
-0.1998564011746819 6:1 20:3 24:2 28:5 33:1 
-0.4062780350125872 7:8 8:1 11:3 
-1 6:11 
-0.4025922579417808 3:1 20:1 24:9 
-0.08715368988354508 8:3 9:1 12:1 16:5 34:1 
-1 4:1 12:5 14:3 19:1 35:1 
-1 6:5 9:4 29:2 
-0.7229145570544492 8:3 16:6 19:1 33:1 
-0.04421990862012559 6:1 11:8 14:2 
-0.2159611645643901 6:2 14:1 15:3 18:3 19:2 
-0.8800158953395167 14:4 16:2 28:5 
-1 6:4 8:2 12:3 19:2 
-1 8:5 9:1 19:1 20:4 
-0.3233737248473127 3:1 6:1 8:3 20:4 22:2 
-1 6:3 21:8 
-1 6:2 8:2 16:1 19:1 20:2 21:3 
-1 3:2 8:1 20:4 31:3 34:1 
-1 6:1 8:7 12:2 36:1 
-1 20:4 22:6 24:1 
-1 6:7 19:4 
-1 6:1 28:10 
-1 6:1 8:3 16:4 31:3 
-0.7177011624355072 9:2 14:3 19:3 20:2 34:1 
-0.4571864159980728 2:4 4:2 6:2 19:3 
-0.6847600931500499 8:1 31:7 34:1 35:2 
-0.7993335811012284 5:2 8:6 19:2 28:1 
-0.06209148847638056 5:3 6:1 8:2 9:1 11:1 19:2 35:1 
-0.772708810890764 3:2 8:3 9:3 19:3 
-1 6:1 8:2 19:2 20:1 33:4 35:1 
-1 8:1 11:2 20:4 21:1 33:2 34:1 
-0.1595204411177993 7:1 11:1 14:2 18:4 19:2 36:1 
-0.1668140032681568 5:4 14:2 19:5 
-0.2378563454497429 11:7 14:3 37:1 
-1 3:1 14:3 18:1 33:3 34:2 36:1 
-0.8661922678925867 8:2 9:1 15:4 19:1 35:3 
-0.9870658528394054 10:3 14:3 20:5 
-1 6:1 33:10 
-0.9009022743165466 7:11 
-1 3:3 6:6 7:1 22:1 
-1 6:4 28:7 
-1 28:7 35:4 
-0.7243613108894003 4:1 18:6 22:4 
-1 8:1 14:5 28:5 
-0.3157749849464915 8:6 20:2 24:1 28:1 
-1 8:7 19:2 33:1 
-0.9979544400236798 8:6 9:1 16:1 20:2 
-1 6:1 14:9 
-1 5:4 15:6 
-1 4:2 6:6 19:1 20:1 
-1 6:8 19:1 20:1 
-0.1653005950286398 6:3 14:4 19:1 22:2 
-0.4917199116099087 14:2 19:2 29:2 31:3 36:1 
-1 6:2 18:1 19:3 31:4 
-0.3291617920497372 6:2 19:2 20:6 
-0.2777977274579224 8:2 16:2 25:6 
-0.8202336946138336 3:2 6:2 7:1 8:1 16:3 31:1 
-0.1292715269524393 7:3 24:7 
-0.02922485223715261 11:9 34:1 
-0.4172488110710149 5:5 8:3 11:1 19:1 
-0.9058564561696298 3:5 19:2 33:3 
-1 3:1 4:1 14:2 16:4 19:2 
-1 6:3 28:6 35:1 
-0.3612063469582116 6:6 11:4 
-1 6:6 28:4 
-0.6575049406566772 7:7 8:3 
-0.4213053250310108 6:4 19:2 22:3 31:1 
-0.3901176369434999 24:9 38:1 
-0.5041821377296298 6:1 14:5 26:4 
-1 24:5 28:5 
-0.6316723527106842 1:10 
-0.3722896983946204 3:1 8:2 20:5 34:2 
-1 3:5 4:1 14:2 19:2 
-1 8:4 16:1 20:1 22:4 
-0.8781227395039655 14:1 15:2 19:2 22:3 33:1 36:1 
-0.5041973180624209 6:9 38:1 
-0.4808141882595426 6:1 7:1 8:2 20:3 22:1 31:2 
-1 3:3 5:4 8:2 19:1 
-1 3:1 6:3 8:3 16:2 19:1 
-1 4:2 6:3 7:1 8:1 19:1 20:2 
-0.7490319833386681 11:10 
-1 1:1 3:4 4:2 6:3 
-1 6:10 
-0.448382548084606 6:7 11:1 14:2 
-1 3:2 5:3 15:3 33:1 34:1 
-0.9279964946078625 8:4 9:1 12:2 14:2 18:1 
-0.2757142075018766 6:1 8:1 9:1 11:6 19:1 
-1 6:2 8:3 19:2 29:3 
-1 3:1 6:5 19:4 
-1 3:3 8:1 14:4 19:1 34:1 
-1 4:1 6:1 8:4 11:1 19:3 
-1 6:3 11:2 16:1 28:3 33:1 
-0.2424390510171949 8:9 36:1 
-1 24:1 28:9 
-0.5270222908406436 6:2 8:1 20:7 
-1 4:1 8:4 14:3 22:1 33:1 
-0.9992708883067853 11:10 
-0.05561998985263059 6:9 37:1 
-0.9889893464123025 7:2 8:7 35:1 
-1 6:1 8:5 28:4 
-1 7:1 8:4 11:1 14:2 20:2 
-1 4:2 14:8 
-1 7:3 14:2 15:4 
-1 4:2 8:6 19:1 
-1 6:7 35:2 
-1 3:6 6:2 11:1 
-1 1:1 24:8 
-1 6:5 8:3 29:1 
-0.1087839904355455 3:1 14:5 18:3 
-1 6:6 8:1 15:2 
-1 8:2 16:2 20:4 34:1 
-1 4:2 7:3 19:3 21:1 
-1 3:2 6:4 8:2 36:1 
-0.4829053825586249 3:2 6:1 9:1 16:2 18:2 20:1 
-0.1930435431924704 6:2 7:1 8:3 11:2 19:1 
-1 14:6 20:2 22:1 
-0.5053117509335048 3:1 8:3 17:1 20:1 29:2 33:1 
-1 6:2 20:5 28:2 
-0.171633602937071 6:1 9:5 18:2 34:1 
-1 8:6 14:3 
-1 6:4 19:5 
-0.5922512582982574 8:1 14:2 28:6 
-1 14:4 18:1 19:4 
-1 8:5 18:4 
-1 3:1 14:5 29:2 35:1 
-1 6:1 24:8 
-1 24:6 35:3 
-0.3632784516929964 6:9 
-1 3:2 6:3 8:1 11:1 33:1 34:1 
-1 14:1 19:6 21:2 
-1 8:5 19:2 33:2 
-0.02704540443501276 11:3 14:3 19:1 33:2 
-1 4:4 6:1 19:1 33:3 
-1 3:1 8:1 11:5 14:2 
-0.5964270046652429 16:5 25:1 34:2 35:1 
-0.980976778918601 5:1 6:2 8:1 16:4 19:1 
-0.2545152347792776 6:1 8:1 20:4 29:3 
-1 8:1 14:1 20:7 
-0.2726484455999635 8:1 9:2 16:2 19:4 
-0.2080623200602658 5:1 11:1 14:3 22:4 
-0.344829952936429 8:3 9:2 14:1 29:3 
-0.2547753753855375 6:2 11:4 18:3 
-1 4:3 6:3 20:3 
-1 4:1 8:4 19:2 22:1 33:1 
-1 8:3 20:6 
-1 3:1 4:2 8:3 26:3 
-1 3:1 6:7 34:1 
-0.2523084794146596 16:4 24:4 38:1 
-1 14:9 
-0.519480657182688 8:4 19:4 33:1 
-0.8430733625654254 4:4 8:1 12:1 14:1 31:2 
-1 3:1 14:2 18:3 19:2 33:1 
-1 3:2 6:3 8:1 20:3 
-1 4:1 14:6 35:2 
-1 8:1 14:1 28:7 
-1 7:3 8:5 19:1 
-0.9228090892250778 8:1 14:2 16:2 20:2 28:1 33:1 
-1 4:3 7:1 8:2 14:2 22:1 
-0.5166218023623691 8:2 14:2 19:1 22:4 
-1 24:2 28:7 
-1 8:5 13:1 33:3 
-0.2198705468228437 4:8 8:1 
-0.1262520934658717 3:8 35:1 
-1 6:1 8:2 20:5 30:1 
-0.7009546963254755 6:3 8:3 9:2 19:1 
-0.5452536357816435 19:4 24:5 
-1 8:5 19:1 20:2 28:1 
-1 8:5 28:3 34:1 
-1 8:7 19:1 20:1 
-1 6:9 
-1 8:7 16:2 
-1 4:5 8:4 
-0.02304885640395438 6:1 8:6 15:1 16:1 
-0.8581257444347087 6:2 8:3 25:4 
-1 5:2 6:1 7:2 8:4 
-0.3471461022725701 3:4 20:2 33:1 34:1 
-0.3490680329936699 6:7 19:1 
-1 8:4 11:1 28:3 
-1 4:3 8:2 20:2 31:1 
-0.4806635384426231 9:2 14:1 18:4 19:1 
-0.08361439935433236 4:5 6:2 19:1 
-0.9854392362276206 20:8 
-1 14:4 19:2 28:1 31:1 
-1 3:1 8:4 11:1 19:2 
-0.3479291843989024 6:5 22:3 
-0.6076987999139287 18:5 30:3 
-0.2903248155009704 4:1 6:1 14:1 16:1 31:3 35:1 
-1 20:8 
-0.5448479526259905 9:1 11:6 34:1 
-0.8034470426933866 4:1 6:4 16:1 20:2 
-0.183226280648128 3:3 24:4 34:1 
-0.9484255415843927 14:4 16:4 
-0.3035582966223357 8:2 16:2 19:4 
-0.4254420126373327 1:1 6:3 22:4 
-1 8:2 28:6 
-1 1:1 8:2 14:1 16:2 19:1 31:1 
-1 8:1 28:7 
-1 6:7 33:1 
-1 6:1 8:6 22:1 
-0.4954965787425933 3:3 8:3 15:1 35:1 
-0.3591715808147335 8:6 14:1 19:1 
-0.9424903260599945 5:4 8:1 9:2 19:1 
-1 14:3 20:5 
-1 5:1 8:1 31:6 
-1 5:3 7:1 20:1 24:3 
-0.7950679889881325 12:1 20:4 24:3 
-0.08287449411401991 8:1 12:2 14:1 33:4 
-0.8381084517344851 11:7 35:1 
-0.889019020894591 6:4 26:1 35:3 
-1 14:7 33:1 
-1 6:6 19:2 
-1 6:2 8:2 20:1 31:3 
-1 6:3 25:4 31:1 
-0.7834564046276906 14:4 20:1 33:2 34:1 
-0.9440415246233667 5:3 6:1 8:1 19:1 20:2 
-0.07326780322721589 8:3 12:1 18:1 33:3 
-0.02748567842859998 6:3 8:2 20:1 31:2 
-0.3871000000682341 6:1 7:1 8:1 11:1 20:3 36:1 
-1 4:2 6:3 8:1 11:2 
-0.4719768232237178 8:1 11:1 24:5 28:1 
-0.8046355850385172 3:4 8:1 18:3 
-1 3:1 4:1 14:1 20:4 34:1 
-1 3:1 8:1 14:4 20:1 36:1 
-1 3:4 14:4 
-0.84932098213733 6:7 16:1 
-1 8:5 14:3 
-1 8:5 14:3 
-0.5031927617860926 8:5 14:2 36:1 
-0.375343408698974 3:4 8:3 36:1 
-0.3973222906491009 12:7 37:1 
-0.2456321529520522 6:4 11:3 19:1 
-0.2811113134160889 6:1 24:7 
-1 3:2 8:4 19:1 34:1 
-0.967824561024349 8:5 28:2 35:1 
-1 14:7 19:1 
-0.5842537400608374 14:1 19:5 36:2 
-1 14:3 20:5 
-1 21:8 
-0.01862444035070335 8:1 28:4 29:3 
-0.7340828158396651 12:8 
-1 8:3 11:5 
-1 8:3 28:5 
-1 22:5 24:3 
-1 19:4 20:4 
-1 6:4 8:1 14:1 25:2 
-0.1706495227182865 5:1 8:1 18:3 30:1 34:2 
-1 11:3 26:5 
-1 24:1 28:7 
-0.8017155776208239 4:3 5:1 8:1 14:1 19:2 
-1 8:1 24:2 28:5 
-0.1247363636595146 3:3 4:2 6:2 19:1 
-1 4:1 8:4 11:1 22:2 
-1 14:6 20:2 
-1 6:3 24:1 28:4 
-0.6633804593632364 6:1 8:3 14:1 16:2 20:1 
-1 14:8 
-0.920186769571123 8:1 31:7 
-1 24:8 
-1 19:5 34:1 35:2 
-0.4341349543545057 9:1 18:4 35:3 
-0.9114133303609998 20:8 
-0.8375674634411344 24:8 
-1 6:7 35:1 
-0.4413976333017567 6:3 7:1 9:2 11:1 34:1 
-0.08018667750613995 8:1 11:7 
-0.8183197466481603 4:2 28:5 
-0.08273128123822754 4:2 6:5 
-0.2182564193839625 5:3 8:4 
-0.02144997633221187 2:3 6:1 8:1 20:2 
-1 8:2 14:5 
-0.8467814168432585 6:3 7:2 33:2 
-0.6938139697166338 1:5 6:1 14:1 
-0.8158688900444124 6:1 20:1 29:5 
-0.01338411901643557 14:1 19:2 20:2 26:1 27:1 
-0.4948550153227942 6:1 8:1 18:1 30:1 33:3 
-1 4:2 11:3 14:2 
-1 24:1 28:6 
-1 6:3 8:1 19:2 34:1 
-1 3:2 4:2 6:1 8:1 14:1 
-0.2764875631700651 3:3 6:3 31:1 
-1 19:1 24:4 28:2 
-1 14:4 19:3 
-1 3:3 8:3 20:1 
-1 3:2 6:4 19:1 
-0.4311441179196589 6:2 9:3 22:1 34:1 
-0.7910807779352051 5:1 8:1 20:2 34:3 
-1 19:1 24:5 28:1 
-1 4:1 16:2 20:3 34:1 
-0.5325660137218787 8:1 14:2 19:1 21:3 
-1 4:1 16:5 28:1 
-1 6:2 14:1 20:3 33:1 
-0.7432139106402063 8:3 9:1 19:2 30:1 
-0.6570745056738748 11:5 20:1 37:1 
-0.1273537652704148 3:2 4:2 19:1 26:2 
-0.5280390927308558 3:1 8:2 20:2 26:2 
-1 4:3 8:1 14:2 35:1 
-0.180114138727544 3:2 5:2 7:1 8:2 
-0.1227424365932684 14:1 16:2 31:4 
-1 3:3 6:3 19:1 
-1 6:5 29:1 35:1 
-1 14:4 19:3 
-1 3:2 11:1 14:4 
-0.4328969249273847 3:2 7:1 8:2 11:2 
-0.3384353169111151 11:1 24:6 
-0.08281852101693467 1:3 6:1 7:2 8:1 
-1 11:1 14:2 20:3 22:1 
-0.7620347405032764 6:3 24:4 
-1 5:3 11:1 28:3 
-0.6548792655389153 4:1 9:2 14:1 19:2 34:1 
-1 14:2 25:5 
-0.2919483428563485 3:1 14:1 16:3 34:2 
-0.2513047570814571 19:1 22:6 
-1 14:3 22:1 31:3 
-0.391962818094059 6:4 8:1 36:2 
-0.1532007574838787 3:3 8:4 
-0.9177398872136404 6:3 8:2 11:2 
-0.1319619462791686 28:7 
-0.04530715612786162 6:2 16:4 35:1 
-1 22:3 24:4 
-1 20:6 31:1 
-0.07791607155907027 5:2 8:1 9:4 
-0.8430056419869565 28:5 35:1 36:1 
-1 6:3 11:2 19:2 
-1 6:4 28:3 
-1 7:3 9:1 22:1 34:1 35:1 
-1 1:5 24:2 
-0.09144769810951515 14:7 
-1 5:1 19:3 22:3 
-1 18:7 
-1 8:1 11:4 19:2 
-0.8544553534859741 8:3 19:2 29:2 
-0.7685475263246015 1:3 22:4 
-0.3721433463535866 6:1 8:2 19:1 22:3 
-1 6:1 8:1 11:1 14:1 20:3 
-1 3:4 14:3 
-1 7:1 8:4 20:2 
-0.531441078865714 8:6 19:1 
-1 6:5 35:2 
-1 3:3 6:3 25:1 
-1 14:5 34:1 35:1 
-0.1902668198258474 28:7 
-1 8:4 28:3 
-0.2047535104222283 8:5 34:1 36:1 
-0.5752664799244437 5:3 7:2 14:2 
-1 14:3 19:3 
-0.01643474726330481 8:5 38:1 
-1 6:2 33:4 
-0.852294275551446 2:4 6:2 
-1 4:1 8:5 
-1 3:3 6:3 
-1 4:1 6:1 16:1 19:1 20:2 
-1 8:2 35:2 36:2 
-1 5:1 6:1 7:1 19:2 21:1 
-1 6:2 8:2 11:1 19:1 
-0.1665103591276228 6:3 9:2 21:1 
-0.0600817313057227 3:3 8:1 14:1 20:1 
-0.02491807469711933 19:1 24:4 34:1 
-0.2846532507412552 2:1 8:1 11:2 16:2 
-0.02911659987816354 1:1 4:3 20:1 24:1 
-1 4:2 8:4 
-1 14:5 19:1 
-1 6:2 8:3 32:1 
-0.6462730161861894 6:5 34:1 
-0.07139533858499725 6:1 11:2 28:1 34:1 35:1 
-1 8:2 11:1 20:3 
-0.8051794522079141 4:2 8:2 14:1 35:1 
-1 8:2 20:1 28:3 
-0.7997072336020123 1:3 8:2 20:1 
-1 5:3 6:2 9:1 
-1 6:3 8:1 34:1 35:1 
-1 14:5 35:1 
-0.6621454931494553 8:4 19:1 22:1 
-1 3:2 14:1 32:1 35:2 
-1 8:5 31:1 
-1 6:2 28:4 
-1 8:5 31:1 
-1 7:2 8:2 20:2 
-0.2611685622232028 6:1 16:1 19:1 29:3 
-0.6937078669515043 8:2 10:1 34:2 35:1 
-1 4:2 11:2 14:2 
-0.8134513919714839 6:4 19:2 
-0.4543484704938026 3:1 6:3 11:2 
-0.2873529441547745 14:5 19:1 
-0.807149766145458 8:1 13:2 20:3 
-1 6:1 8:2 10:1 19:2 
-1 3:1 6:1 16:2 18:1 19:1 
-0.04847067316354588 4:2 19:1 24:3 
-1 4:1 8:1 14:3 19:1 
-1 3:2 16:3 33:1 
-1 1:2 6:1 11:3 
-0.7892009301123902 22:2 24:4 
-1 14:4 30:1 35:1 
-1 6:4 16:2 
-1 6:2 8:1 28:3 
-0.2006014549756806 3:2 8:1 14:1 33:2 
-1 4:4 20:2 
-1 3:2 4:1 14:3 
-0.09750091746818002 20:2 25:4 
-0.8603604654394659 4:2 6:1 8:1 19:1 20:1 
-0.9640811327563317 1:3 24:3 
-1 4:2 8:2 9:1 20:1 
-0.6357325253853803 6:4 19:1 35:1 
-1 3:2 6:1 8:1 19:2 
-0.4478343795662417 6:3 11:2 19:1 
-0.796391736325697 3:3 35:3 
-1 6:1 8:2 11:1 20:2 
-0.8463112273048018 8:1 14:4 19:1 
-0.282033363176921 4:1 7:2 11:1 19:2 
-1 9:4 18:1 23:1 
-0.264079642142996 24:5 34:1 
-0.8474438874931919 19:1 20:4 35:1 
-1 4:2 6:2 14:2 
-0.8580654190723799 24:3 28:2 35:1 
-1 1:2 4:1 19:3 
-1 6:1 11:4 20:1 
-1 7:2 8:1 11:3 
-1 5:2 6:4 
-0.2167461527108655 1:5 24:1 
-0.8140388848966124 6:2 14:1 20:3 
-0.4549960588094364 8:1 34:1 35:3 
-0.01621707520998764 4:2 16:1 24:2 
-0.15064708846658 15:1 24:4 
-1 5:1 6:3 35:1 
-0.6117875678812181 6:1 8:2 14:2 
-0.6407579417775864 7:2 8:3 
-0.773578253648986 6:1 8:1 19:2 30:1 
-0.7680356594087862 8:2 15:2 36:1 
-1 14:4 35:1 
-1 4:1 14:1 15:3 
-0.005089583687798679 6:3 8:1 30:1 
-1 4:1 14:3 19:1 
-0.7102559826960064 6:1 8:1 14:1 33:2 
-1 3:1 19:1 28:3 
-0.02153313644723254 8:3 9:2 
-0.01806318696486807 1:1 6:2 11:1 22:1 
-1 6:1 8:1 20:1 36:2 
-1 4:1 14:2 20:2 
-1 3:1 14:3 19:1 
-1 4:1 19:1 20:3 
-0.9772511157627004 5:5 
-1 10:2 14:2 35:1 
-1 1:2 6:3 
-1 6:2 11:2 20:1 
-0.4243294916992829 8:1 20:4 
-0.7056549178835043 4:1 8:1 14:1 19:1 20:1 
-1 6:4 25:1 
-1 4:1 6:1 14:2 19:1 
-1 6:1 8:1 11:2 19:1 
-0.9493119688638714 4:2 14:2 28:1 
-1 4:3 14:2 
-0.6234379619124386 6:4 9:1 
-0.5709814914962803 6:1 28:4 
-0.9316816620953269 3:1 14:3 34:1 
-0.5489139125889198 6:4 29:1 
-1 8:2 18:1 32:1 34:1 
-0.9192933694297845 6:3 16:2 
-1 6:3 19:1 30:1 
-1 4:1 8:1 14:3 
-1 14:2 15:2 20:1 
-1 8:3 22:2 
-1 12:1 16:2 18:2 
-1 3:2 14:2 19:1 
-0.9585705787320882 3:3 6:1 20:1 
-0.4833968114019087 6:3 14:1 20:1 
-1 6:2 9:1 33:2 
-1 5:2 8:1 14:1 35:1 
-0.4942273746372155 7:2 8:2 19:1 
-1 3:1 20:3 33:1 
-1 8:2 20:3 
-0.3607129394719716 18:5 
-1 3:2 6:1 19:2 
-1 6:2 8:2 14:1 
-0.5599439008534484 4:4 22:1 
-0.3526079285380929 19:2 22:2 24:1 
-1 8:2 10:2 19:1 
-0.1092915910619628 5:3 8:2 
-0.05625857911570611 24:1 28:4 
-0.1646116927992452 8:1 20:3 35:1 
-1 18:5 
-1 3:1 6:1 14:1 34:1 35:1 
-1 5:2 6:3 
-0.8934796744527084 18:5 
-1 4:2 11:1 14:1 19:1 
-0.881973633656688 6:3 15:2 
-1 4:1 5:1 14:2 20:1 
-1 1:1 6:1 8:3 
-1 14:1 20:2 30:1 
-1 6:1 14:2 20:1 
-1 4:1 6:1 16:2 
-1 4:1 20:3 
-0.03147032291786597 11:1 28:3 
-1 6:2 8:2 
-0.2117515203842876 8:1 19:1 27:1 33:1 
-0.2629916707299173 5:2 6:2 
-0.6477498135995178 11:3 19:1 
-1 1:1 6:3 
-1 6:2 8:2 
-1 20:2 28:2 
-1 1:1 4:1 28:2 
-0.3646359470500334 1:1 24:2 28:1 
-0.1770601342683642 6:1 11:1 16:2 
-1 20:1 26:3 
-0.2900836398802191 3:1 12:1 28:2 
-1 6:1 8:1 20:1 27:1 
-0.6439362786451662 6:1 14:1 20:1 28:1 
-1 14:2 15:1 19:1 
-0.5495084749126292 6:2 28:2 
-1 14:2 35:1 36:1 
-1 14:3 35:1 
-1 14:3 35:1 
-1 3:1 14:3 
-0.1140247242422257 6:2 11:1 19:1 
-0.02407900954170028 6:1 8:1 33:2 
-1 3:1 6:1 20:2 
-1 4:1 14:2 19:1 
-1 6:2 8:2 
-0.3587262898752689 24:1 28:3 
-1 6:2 8:2 
-1 14:2 36:2 
-1 6:2 20:2 
-0.2365744831324033 28:3 36:1 
-1 5:3 24:1 
-0.1002914130938379 1:2 6:1 14:1 
-0.4362273950914946 7:2 19:2 
-1 11:3 20:1 
-1 21:4 
-0.7098045315943535 20:3 35:1 
-1 6:2 8:1 19:1 
-1 6:2 8:2 
-0.07603261719489829 8:1 26:3 
-1 6:2 20:2 
-1 8:1 11:2 19:1 
-1 6:3 33:1 
-1 11:2 20:2 
-1 6:2 8:2 
-1 14:1 19:1 21:2 
-0.008909996632482726 6:2 8:1 11:1 
-1 5:2 24:2 
-1 6:3 20:1 
-1 14:2 20:2 
-0.2290920320895659 4:3 33:1 
-1 6:1 8:1 34:2 
-0.7177815135181987 6:1 28:3 
-0.7185173371288044 4:2 11:2 
-1 6:2 8:2 
-0.1328242255443313 6:1 8:1 33:2 
-1 35:2 36:2 
-1 1:2 11:1 19:1 
-0.6036265905169563 8:1 11:3 
-0.2776363077774734 20:4 
-0.5375222626831074 6:1 14:1 15:2 
-0.05108592841230284 11:3 30:1 
-1 6:2 20:1 
-0.3014044265617442 16:3 
-1 6:2 20:1 
-0.5656842377975936 8:2 30:1 
-1 6:2 33:1 
-0.1520277161691767 19:2 22:1 
-0.0152477483203962 6:2 19:1 
-0.0881056173139296 28:3 
-1 4:1 20:2 
-1 24:2 28:1 
-0.3734606573976197 6:1 28:2 
-1 4:1 16:1 19:1 
-1 8:1 36:2 
-1 28:3 
-0.2837043140403967 6:1 10:2 
-1 6:2 19:1 
-0.9029160658972233 6:2 11:1 
-1 1:3 
-0.3366332317642055 3:1 19:1 20:1 
-1 6:2 19:1 
-1 3:1 19:1 20:1 
-1 6:2 19:1 
-1 3:1 28:2 
-0.7765422256285761 8:2 37:1 
-1 6:2 19:1 
-0.8278468642397306 1:2 8:1 
-1 3:1 14:1 20:1 
-0.1051044769715951 6:1 8:2 
-1 6:1 14:1 32:1 
-1 6:2 13:1 
-1 6:2 19:1 
-1 34:1 36:2 
-1 24:2 28:1 
-0.5980694226374845 7:1 22:2 
-1 6:2 11:1 
-1 11:1 16:2 
-1 16:3 
-0.5922929472159092 1:2 8:1 
-0.4001768852391899 14:2 20:1 
-1 11:2 16:1 
-0.7180367427681069 6:1 8:2 
-1 28:3 
-1 6:1 8:2 
-1 6:2 19:1 
-1 6:1 8:2 
-0.04278336352862375 26:3 
-1 28:3 
-1 6:1 8:2 
-0.9669309544933027 21:3 
-1 6:1 8:2 
-1 6:1 8:2 
-1 14:1 20:2 
-1 6:2 11:1 
-0.1218807004072857 11:2 18:1 
-1 28:3 
-1 6:1 8:2 
-0.8586732219024298 6:1 8:1 19:1 
-1 6:1 8:2 
-1 16:3 
-1 6:1 8:2 
-1 6:1 8:2 
-0.007694883602813883 20:3 
-0.2837788925220882 24:3 
-1 28:3 
-0.6756595119556881 4:1 9:2 
-1 24:3 
-0.4311279364226048 24:3 
-0.7153655922129016 6:1 27:1 
-1 17:2 
-0.3604801071556163 11:2 
-1 11:2 
-1 11:2 
-1 11:2 
-0.3966889984584814 8:2 
-0.671989931433021 6:2 
-0.8384240190834675 24:2 
-1 24:2 
-1 24:2 
-0.4890486774114067 6:2 
-1 24:2 
-0.321653595238882 8:2 
-1 24:2 
-0.8656010621141907 11:2 
-0.7293814138022077 11:2 
-1 11:2 
-0.761678772260011 24:2 
-0.2436153250113114 19:1 25:1 
-0.8228355446472969 8:2 
-1 24:2 
-1 8:2 
-0.6908288930602047 6:2 
-1 8:2 
-0.8975400219360639 8:2 
-1 8:2 
-1 8:2 
-0.5458168567528697 6:2 
-1 8:2 
-1 24:2 
-1 8:2 
-1 8:2 
-0.005682807119458784 24:1 36:1 
-0.1749888993701314 8:2 
-1 8:2 
-0.06171682181201672 6:1 33:1 
-1 8:2 
-0.9452388879795729 11:2 
-0.9497498957771237 24:2 
-0.2370482628522916 6:2 
-1 8:2 
-1 6:2 
-0.0569486245342059 24:2 
-1 8:2 
-0.5748872100305671 34:2 
-1 24:2 
-0.7916808781961144 6:2 
-0.4898121005143817 11:2 
-0.379937903819018 8:2 
-0.08147960427796559 16:1 19:1 
-0.02020387999963194 24:1 36:1 
-0.8044532015516563 28:2 
-1 28:2 
-0.01548422300379035 24:2 
-0.7718990378027432 8:2 
-1 24:2 
-0.4066340092706551 6:2 
-1 8:2 
-0.5570683852667244 28:2 
-0.4227098607436834 34:2 
-0.2219455372233323 11:2 
-0.9818304973579941 6:2 
-1 19:1 21:1 
-0.4903413146220198 24:2 
-1 16:1 19:1 
-1 6:2 
-0.8585434232332206 8:2 
-1 28:2 
-1 6:2 
-1 24:2 
-0.6914906920013997 11:2 
-0.0641427786494977 24:2 
-0.8801189235528507 6:2 
-1 14:1 24:1 
-1 6:2 
-0.00694457356800905 8:1 38:1 
-1 24:2 
-0.6949665615703519 6:1 19:1 
-1 11:2 
-1 11:2 
-1 6:2 
-1 24:2 
-0.6369292477654074 6:1 33:1 
-0.2170587830908948 8:2 
-1 6:2 
-0.2251546609001671 19:2 
-1 6:1 33:1 
-1 8:2 
-1 8:2 
-1 6:2 
-1 6:2 
-1 8:2 
-1 6:2 
-1 6:2 
-1 6:2 
-1 8:2 
-1 8:2 
-1 8:2 
-1 8:2 
-1 6:2 
-1 8:2 
-0.3487508703925971 24:2 
-1 24:2 
-1 8:2 
-1 8:2 
-1 24:2 
-1 6:2 
-1 11:2 
-0.5378092239423454 14:1 24:1 
-1 6:2 
-1 8:2 
-1 8:2 
-1 11:2 
-1 8:2 
-1 6:2 
-1 24:2 
-1 24:2 
-1 24:2 
-0.9159021862198973 6:1 19:1 
-1 8:2 
-0.5172457973173749 19:1 
-1 8:1 
-0.04081595311480801 14:1 
-0.6441479162375722 19:1 
-1 19:1 
-0.1171742802813361 19:1 
-0.3291298619564341 38:1 
-0.294505839435261 19:1 
-0.2409587769123857 14:1 
-0.2559095225882123 8:1 
-1 19:1 
-1 8:1 
-1 8:1 
-1 8:1 
-1 6:1 
-1 19:1 
-0.5018742902752785 19:1 
-0.05998532433850397 19:1 
-0.5011175351373278 6:1 
-0.6852653279758034 8:1 
-0.6062969022106341 19:1 
-1 8:1 
-1 8:1 
-1 6:1 
-1 8:1 
-0.2628383455744277 14:1 
-1 14:1 
-1 14:1 
-1 14:1 
-1 14:1 
-0.6336234245296739 8:1 
-1 8:1 
-1 8:1 
-0.4469280221737617 6:1 
-1 6:1 
-1 8:1 
-1 8:1 
-1 8:1 
-1 8:1 
-1 8:1 
-1 8:1 
-1 8:1 
-1 6:1 
-1 6:1 
-1 8:1 
-1 8:1 
-1 8:1 
-1 8:1 
-1 8:1 
-1 6:1 
-1 19:1 
-1 6:1 
-1 8:1 
-1 8:1 
-1 6:1 
-1 19:1 
-1 19:1 
-1 14:1 
-1 14:1 
-0.4113400569406547 11:1 
-1 
-1 
-1 
-1 
-1 
-1 
-1 
-1 
-1 
-1 
-1 
-1 
-1 
-1 
-1 
-1 
-1 
-1 
-1 
-1 
-1 
-1 
-1 
-1 
-1 
-1 
-1 
-1 
-1 
-1 
-1 
-1 
-1 
-1 
-1 
-1 
-1 
-1 
-1 
-1 
-1 
-1 
-1 
-1 
-0.8129461196675627 
-1 
-1 
-1 
-1 
-1 
-1 
-1 
-1 
-1 
-1 
-1 
-1 
-1 
-1 
-1 
-1 
-1 
-1 
-1 
-1 
-1 
-1 
-1 
-1 
-1 
-1 
-1 
-1 
-1 
-1 
