svm_type c_svc
kernel_type rbf
gamma 0.025641
nr_class 2
total_sv 3089
rho -0.367886
label 1 0
nr_sv 1462 1627
SV
0.6320898014745895 4:4 20:1 25:9 28:190 29:1 
0.6321023057270931 28:175 
0.6473195578917299 6:2 15:114 35:1 
0.6986654453904495 3:1 6:5 15:102 19:2 29:2 
0.5153953437086374 3:1 5:7 6:4 15:99 
0.5754181369085014 15:93 
0.9194489623804347 3:2 6:3 15:72 
0.6321708556111767 3:21 4:7 9:6 14:20 19:18 29:2 35:1 
0.6320354667256906 4:47 24:1 28:25 
0.6320408792810601 8:31 25:35 
0.9149492498478046 4:1 15:61 19:1 
0.6321023555443102 6:63 
0.6319334190667527 3:1 6:2 8:1 9:56 34:1 
1 3:1 7:1 15:3 18:43 19:1 22:1 33:5 
0.2858745580608297 6:1 8:1 16:3 19:1 25:2 28:44 
0.632296537745326 20:2 25:50 
0.5850201790678663 8:1 15:4 24:10 28:36 
0.2584114196154466 14:1 15:48 19:1 
0.6228164629929559 5:2 7:1 8:1 15:46 
0.4855336986577636 11:1 28:49 
0.6266418647196502 8:20 14:8 16:1 18:5 28:15 
0.6252004248291698 3:1 4:3 5:21 6:3 8:6 15:2 16:1 18:2 19:1 29:3 33:2 
0.64906256742136 3:9 4:6 6:17 14:8 18:1 19:1 20:2 
0.5898818921165313 3:3 6:1 7:2 14:1 15:36 19:1 
0.6251224787165196 14:14 20:1 28:29 
0.632124711795128 3:37 6:1 8:4 36:1 
0.7718709454543232 4:3 5:4 7:2 8:2 15:1 18:18 19:2 20:5 33:3 34:1 35:1 
0.3990861952254935 8:1 11:1 28:40 
1 18:34 24:6 35:1 
0.8528516108226447 1:31 6:2 8:1 9:1 19:5 
0.7469550998874827 3:2 5:5 6:17 16:2 20:2 28:7 29:2 34:2 35:1 
0.5180529926938965 4:1 5:4 6:7 7:2 15:20 16:1 20:3 
0.600125583516649 14:3 15:35 
0.3531401155986122 8:30 14:3 19:1 34:1 35:2 
0.3185505270913256 3:1 5:1 15:32 19:2 
0.7109880236226594 7:1 8:10 11:3 16:2 18:4 19:1 20:1 22:2 28:2 30:1 31:4 33:4 34:1 
0.5261894108152652 2:2 3:1 4:1 14:10 19:2 20:8 28:6 30:1 33:4 35:1 
0.5989721233049017 6:1 14:1 18:20 30:11 31:2 34:1 
0.6567556285458646 6:34 11:1 
0.874103800510808 3:2 8:2 15:4 18:24 34:3 
0.7749122722348407 8:2 14:5 16:2 18:1 20:2 22:3 26:1 28:18 
0.2882211682035484 24:6 28:28 
0.5791180364588941 4:5 6:6 7:2 9:2 14:5 19:14 
0.6365911820819802 3:16 5:3 19:1 20:11 34:1 35:1 
0.7319961534792376 1:6 3:1 4:2 7:1 8:7 9:1 11:1 12:1 14:2 22:4 29:2 31:5 
0.671914853714725 6:1 7:1 14:7 16:4 18:8 19:4 33:8 
1 1:30 8:1 20:1 34:1 
0.5572481308935128 3:5 4:1 9:4 14:10 28:5 29:7 
0.6298011286574443 3:1 8:2 9:2 19:1 21:1 30:23 33:2 
0.9059620221252339 6:12 16:2 28:18 
0.440146819366643 8:13 19:7 20:1 28:11 
0.671806948650964 9:1 14:7 16:4 19:4 20:7 22:8 34:1 
0.3319724478823453 6:4 8:7 28:16 30:1 31:3 
0.3596223598204092 19:1 28:30 
1 4:1 11:26 19:2 37:1 
0.4976293069042187 9:8 14:6 18:2 19:3 20:5 30:2 31:2 34:2 
1 3:1 8:1 18:28 
0.4471198625983678 6:16 19:1 28:12 
0.6436036450295337 5:7 19:1 20:8 26:10 31:1 34:2 
1 11:27 14:1 37:1 
0.8565633762763789 5:4 8:2 25:1 28:22 
0.7806936762283359 4:1 6:6 12:6 18:4 20:2 26:6 33:3 35:1 
0.006471636040641425 8:3 28:26 
0.5295979864920992 8:28 
0.3815545558883493 7:1 9:2 14:16 16:3 19:2 25:1 31:2 33:1 
0.8139970724730159 3:6 6:4 7:1 8:5 15:1 18:1 19:4 20:2 29:3 35:1 
1 7:2 11:3 14:3 19:1 22:1 28:15 29:1 32:1 33:1 
0.8918975560719671 3:2 6:12 15:3 25:2 29:7 35:1 
0.2989192247001258 6:1 8:4 16:13 28:6 34:3 
1 8:1 28:21 29:4 34:1 
0.809819813134099 6:5 7:1 9:6 14:8 15:6 35:1 
0.5133342554644111 8:7 9:7 26:1 28:11 
0.404527243189904 1:15 8:1 14:1 20:7 34:1 
0.841628333844217 6:3 7:1 8:6 19:1 20:7 29:7 
0.8258353708995743 3:6 6:5 11:2 14:10 15:2 
0.4843203850550569 8:13 18:1 33:11 
0.5805821096851087 8:11 19:4 28:4 33:6 
0.543885434155127 3:4 5:5 6:8 14:1 15:2 19:1 31:3 35:1 
0.5071845778868844 6:1 8:1 19:22 
1 19:1 22:1 24:7 28:15 
1 6:2 15:21 30:1 
1 6:4 8:4 9:8 18:7 34:1 
0.03607257884458257 6:1 7:3 8:5 9:1 16:5 19:3 20:2 28:3 35:1 
0.8855421654306942 3:6 6:6 14:4 25:5 29:1 35:1 
0.4895452555114018 8:11 15:2 28:10 
1 24:3 28:20 
1 1:2 7:5 9:3 11:2 18:8 19:1 30:1 34:1 
0.4645238663932407 14:15 18:4 33:1 35:2 
1 1:3 5:1 9:4 11:1 14:3 16:1 19:2 20:2 22:1 28:3 34:1 
1 8:5 10:2 14:1 20:7 28:3 31:2 34:1 35:1 
1 6:3 8:2 11:11 28:6 
1 3:1 6:3 12:1 18:17 
1 6:6 8:4 19:1 28:11 
1 1:1 5:2 11:3 12:6 14:3 20:3 22:1 31:3 
1 7:4 8:3 14:1 21:5 31:5 33:4 
0.4908272333577595 8:5 11:1 22:2 28:14 
0.6391428133889239 11:2 16:1 28:6 29:13 
0.3590095102916819 3:13 4:3 19:5 20:1 
1 3:1 4:5 6:4 8:2 20:3 26:5 34:1 
0.8104341549977236 7:1 8:1 14:5 19:5 25:9 
1 12:3 18:16 30:2 
0.1252541761191971 3:8 6:7 7:3 15:2 19:1 
0.390534824162132 4:3 5:11 19:1 28:6 
1 3:4 6:5 19:4 26:1 28:3 33:1 34:1 35:2 
0.3201707878339563 6:9 16:10 22:2 
1 3:4 6:6 15:1 18:3 19:1 20:1 32:2 34:1 36:2 
1 6:4 7:1 8:6 9:3 15:6 19:1 
1 3:1 5:1 6:1 8:2 16:1 20:9 25:1 33:4 
1 1:1 4:2 6:1 19:6 20:10 
1 9:1 20:2 24:17 
1 6:11 19:8 20:1 
1 3:2 4:2 7:1 8:3 11:2 14:3 25:3 29:4 
1 6:20 
0.6247157738914095 3:1 8:2 11:1 16:15 34:1 
0.7999125933330694 3:5 8:4 14:9 19:1 
0.252542709879246 8:1 16:12 28:6 
0.3431837837848089 3:3 4:1 14:10 19:1 29:1 31:3 
1 3:4 6:1 7:6 11:1 14:4 34:1 35:1 36:1 
0.1743454199270655 8:1 14:1 19:17 
1 7:6 8:11 28:2 
1 6:5 20:5 28:7 35:2 
1 4:1 5:8 6:2 7:2 19:1 20:1 28:3 33:1 
1 3:3 5:1 6:4 7:1 9:1 19:3 20:2 29:4 
0.2728988647732015 14:6 20:8 31:5 
1 3:3 6:14 15:2 
0.9779270962328277 3:2 4:2 8:10 14:4 15:1 
1 3:1 5:3 11:1 28:14 
1 4:2 8:2 11:6 14:5 19:3 34:1 
1 3:3 8:7 19:1 20:6 34:1 35:1 
0.6981102199343502 3:5 6:1 9:3 11:1 29:9 
0.3221096649641446 6:2 12:17 
0.9505007243947327 6:8 9:10 34:1 
1 3:2 6:2 7:1 12:1 19:1 29:2 33:9 35:1 
0.8149735604960053 4:3 8:6 19:10 
1 6:15 8:2 36:1 
1 3:15 7:2 19:1 
0.4896111917991187 14:12 16:1 28:5 
1 3:1 8:3 14:9 16:2 22:1 31:2 
1 6:2 8:1 18:1 19:2 20:7 29:2 33:2 34:1 
0.8012482080562333 16:5 21:3 26:9 34:1 
1 6:5 8:1 11:1 15:3 28:3 31:3 33:1 34:1 
1 6:7 14:4 19:7 
1 14:4 19:1 21:7 28:5 35:1 
1 4:2 6:2 11:1 14:1 16:6 19:1 20:4 27:1 
1 4:1 8:4 18:3 20:1 31:8 34:1 
0.5410192650826484 6:2 8:4 16:5 19:4 20:1 31:2 
1 3:6 5:2 6:3 7:1 19:1 20:4 34:1 
1 3:1 7:1 8:3 16:4 19:3 22:5 33:1 
1 6:2 7:4 12:3 14:1 15:3 20:4 34:1 
1 3:3 4:2 5:4 8:3 16:4 19:2 
1 8:5 11:1 28:12 
1 8:3 18:15 
0.9877422401034459 1:14 6:2 8:1 
1 6:17 
1 5:3 15:3 16:2 19:9 
1 18:13 30:1 31:3 
1 4:9 6:2 16:1 19:5 
1 3:3 7:5 8:3 15:4 35:2 
0.1368494309408716 14:15 22:1 35:1 
1 3:1 8:1 14:2 19:1 28:11 36:1 
1 1:1 4:3 7:2 8:6 9:1 19:1 33:2 35:1 
1 3:4 8:2 15:6 19:1 22:1 33:1 34:1 35:1 
0.594197399558243 1:2 8:1 18:3 22:1 30:9 35:1 
1 11:2 14:3 19:1 28:9 31:2 
1 4:1 11:1 19:1 21:13 22:1 
1 1:4 7:4 11:1 14:3 20:5 
1 6:8 8:1 14:3 31:5 
1 3:2 5:1 6:6 16:3 20:3 22:2 
1 3:2 14:3 18:10 20:1 34:1 
1 6:1 8:5 15:1 28:10 
0.9548879258045716 3:1 14:7 15:1 19:5 22:2 31:1 
1 4:5 7:2 8:2 20:1 29:1 33:6 
1 6:5 7:5 21:7 
1 3:1 6:3 20:4 31:7 34:1 
1 9:1 12:4 14:4 15:2 18:1 19:4 
1 6:3 8:1 20:7 28:4 34:1 
1 8:4 9:1 11:1 19:1 20:7 34:2 
1 8:5 19:10 22:1 
1 6:2 8:1 16:1 19:1 22:1 26:1 29:3 33:6 
1 3:3 4:3 6:2 16:1 20:3 28:3 29:1 
1 8:11 15:5 
1 3:2 6:6 7:3 19:1 20:3 35:1 
1 4:2 9:2 14:1 16:1 19:1 22:2 28:1 29:2 33:4 
1 3:4 4:5 18:6 34:1 
0.5784678482943778 3:5 6:1 14:1 20:3 29:4 30:1 35:1 
1 1:2 8:1 11:11 37:1 39:1 
1 3:9 6:6 31:1 
0.8621177455002206 11:1 14:2 16:8 19:1 28:3 33:1 
1 8:6 19:1 20:7 31:2 
1 3:5 14:8 33:1 34:1 35:1 
1 6:1 8:5 16:1 20:8 25:1 
1 3:1 4:1 9:3 19:1 20:7 29:2 31:1 
1 3:2 8:6 10:1 20:2 22:4 35:1 
1 3:4 6:8 22:1 28:3 
1 3:2 4:1 5:1 7:3 14:7 19:1 35:1 
1 3:2 5:1 12:2 14:5 18:2 31:4 
1 3:6 4:3 6:2 8:1 9:1 16:1 22:2 
1 19:1 20:15 
1 4:1 8:13 19:2 
1 8:2 28:14 
1 3:3 5:2 6:1 19:8 20:1 33:1 
1 3:3 4:2 5:2 19:9 
1 5:2 14:1 15:2 19:10 33:1 
0.4334098907904174 8:1 12:2 18:5 30:8 
1 6:1 8:3 12:1 19:2 29:4 31:4 
1 1:1 5:3 8:4 9:3 19:1 20:2 33:1 
1 8:2 11:1 18:2 19:1 22:3 29:5 35:1 
1 6:1 8:7 18:7 
1 8:1 18:13 19:1 
1 1:6 16:1 20:2 22:3 30:1 31:2 
1 3:6 7:2 8:2 14:2 15:2 34:1 
1 7:2 15:13 
1 14:1 16:1 19:1 28:11 29:1 
1 3:2 8:1 18:6 28:4 30:2 
0.4812155204493803 3:5 4:1 20:2 31:7 
1 8:4 28:11 
1 8:1 9:2 11:1 19:5 20:2 28:3 35:1 
1 14:3 15:2 16:2 18:4 20:1 25:1 30:2 
1 6:1 8:8 19:5 20:1 
1 8:14 19:1 
1 1:4 6:8 8:1 14:1 33:1 
1 6:2 14:6 19:6 35:1 
1 6:8 8:2 16:3 19:1 22:1 
1 8:9 33:4 35:2 
1 6:4 8:5 11:1 19:1 20:2 28:2 
1 6:13 9:2 
1 5:4 6:8 19:1 22:1 29:1 
1 6:7 19:7 20:1 
1 3:1 5:5 6:3 14:1 19:5 
1 7:2 8:5 14:1 16:5 22:2 
1 6:3 8:2 9:1 20:4 33:4 34:1 
1 14:4 19:4 20:4 31:3 
1 3:6 8:9 
1 8:10 14:3 35:1 36:1 
1 6:5 7:1 11:1 28:6 34:2 
1 6:1 16:2 20:6 25:6 
1 7:6 24:5 29:2 36:2 
1 6:4 11:2 20:9 
1 8:4 14:1 16:4 19:2 34:1 35:2 
1 4:1 9:1 12:1 14:4 16:2 26:5 
1 3:1 4:1 7:1 8:4 14:6 19:1 
1 3:1 5:1 7:2 8:3 16:2 18:2 28:3 
1 8:1 28:10 31:3 
1 3:2 8:4 15:3 29:5 
1 6:2 7:8 19:1 22:3 
1 14:1 28:12 35:1 
1 6:4 8:8 29:2 
1 3:1 11:1 14:3 16:7 20:1 34:1 
1 4:4 11:4 14:3 19:1 22:2 
1 6:1 8:5 19:7 20:1 
1 6:7 19:7 
1 4:3 6:3 11:5 20:2 34:1 
1 3:2 6:2 8:2 16:3 20:3 29:2 
1 4:1 6:1 11:2 18:8 30:2 
0.9572374312739653 1:6 14:2 19:1 20:4 34:1 
1 4:3 6:5 15:2 16:2 19:1 22:1 
1 4:1 20:3 28:8 34:1 35:1 
1 4:2 8:1 9:1 11:1 14:1 20:5 28:3 
1 4:6 7:2 14:4 22:2 
1 3:1 6:6 11:1 12:1 18:4 22:1 
1 6:4 8:7 16:1 20:2 
1 3:1 6:8 20:4 34:1 
1 3:5 8:8 16:1 
1 3:1 6:4 7:3 9:3 29:1 34:1 35:1 
0.1205673851874317 1:14 
1 1:1 6:7 11:1 14:2 22:3 
1 3:3 4:1 14:2 16:3 20:5 
1 4:2 5:1 11:1 14:4 19:6 
1 6:5 8:9 
0.2820842892241983 8:2 12:12 
1 8:1 9:7 19:1 20:1 22:2 34:1 
1 6:7 15:5 34:1 
1 3:2 6:2 9:1 20:5 29:2 34:1 
1 4:8 14:5 
1 1:4 4:2 7:1 11:4 20:2 
1 6:3 7:1 8:5 33:4 
1 5:1 6:1 8:4 11:2 19:1 31:4 
1 1:5 14:3 18:1 33:2 34:1 35:1 
1 3:3 4:2 5:3 6:2 8:1 19:1 22:1 
1 6:1 7:3 11:4 19:1 28:4 
1 6:3 8:2 18:8 
1 7:1 8:2 9:2 20:7 34:1 
1 6:7 8:6 
1 6:2 8:1 14:1 18:3 20:6 
1 5:1 7:3 14:3 15:3 31:2 35:1 
1 8:5 14:8 
1 7:1 8:1 19:1 28:10 
1 8:10 14:3 
1 7:1 8:4 14:2 19:3 20:2 22:1 
1 4:3 14:2 16:2 19:6 
1 7:2 8:1 11:1 28:9 
1 8:6 11:2 14:5 
1 5:2 11:6 19:1 20:3 39:1 
1 8:1 9:1 19:2 29:9 
1 3:3 4:1 14:5 19:3 29:1 
1 6:6 19:1 20:5 34:1 
1 6:1 8:1 20:9 34:1 35:1 
1 3:8 6:2 8:1 19:1 33:1 
1 3:3 6:6 8:2 19:2 
1 8:2 9:1 11:2 19:7 27:1 
1 3:1 10:1 19:10 20:1 
1 11:13 
1 2:2 14:6 16:4 35:1 
1 2:3 7:1 8:3 16:4 19:1 35:1 
1 11:12 37:1 
1 8:7 14:5 34:1 
1 4:2 6:1 8:1 12:1 14:1 16:3 18:1 19:2 
1 6:1 19:1 28:10 
1 6:7 19:5 
1 6:1 8:8 10:3 
1 6:8 8:1 9:2 34:1 
1 3:3 4:1 8:7 19:1 
1 3:7 8:1 9:1 18:1 20:1 22:1 
1 4:1 7:1 14:9 19:1 
1 5:3 6:1 8:2 24:3 28:3 
1 6:1 8:3 18:7 34:1 
1 15:12 
1 20:3 22:3 24:5 34:1 
1 4:2 6:2 8:2 25:6 
1 6:2 18:3 19:7 
1 14:11 16:1 
1 3:6 11:1 28:4 35:1 
1 3:1 6:1 8:2 20:7 29:1 
1 6:3 11:8 37:1 
1 3:3 6:4 19:2 33:2 34:1 
1 14:6 20:4 31:2 
1 8:9 18:2 34:1 
1 1:4 3:2 4:2 8:1 14:2 35:1 
1 4:4 19:1 28:7 
1 1:1 4:1 6:2 16:5 19:2 29:1 
1 20:12 
1 2:1 6:1 7:1 14:1 20:6 31:2 
1 3:5 8:5 15:2 
1 6:5 8:7 
1 2:6 14:3 19:1 20:2 
1 4:3 8:8 19:1 
1 6:3 8:7 16:1 19:1 
1 5:2 8:6 16:2 29:2 
1 3:7 7:2 8:1 17:1 34:1 
1 6:1 31:3 33:8 
1 7:1 14:3 33:7 35:1 
1 3:7 8:1 14:2 19:2 
1 6:5 8:1 28:6 
1 6:1 8:3 14:2 19:1 20:1 28:4 
1 5:11 34:1 
1 8:4 14:2 19:6 
1 8:7 19:1 28:1 35:3 
1 6:1 8:1 16:3 18:1 22:1 24:4 34:1 
1 1:3 3:2 4:1 6:1 14:1 20:3 
1 6:10 21:1 
1 6:11 
1 8:2 19:7 22:2 
1 8:1 9:4 19:6 
1 3:7 14:1 33:2 34:1 
1 19:2 31:8 35:1 
1 6:9 8:1 15:1 
1 3:4 8:1 15:1 19:1 20:2 33:2 
1 11:10 37:1 
1 14:8 19:2 34:1 
1 3:2 6:2 15:1 20:2 29:1 31:3 
1 6:1 19:1 28:9 
1 5:8 14:1 29:1 34:1 
1 5:3 8:1 11:2 19:1 20:4 
1 12:10 18:1 
1 6:2 8:2 19:1 28:6 
1 3:1 7:1 9:1 14:1 16:6 18:1 
1 3:8 5:3 
1 7:1 8:1 12:1 16:3 20:3 28:1 34:1 
1 3:3 4:2 6:2 14:1 19:2 34:1 
1 6:1 20:8 34:2 
1 14:5 20:5 34:1 
1 6:8 16:1 34:2 
1 5:1 14:6 18:1 19:3 
1 6:4 8:2 20:4 34:1 
1 8:6 19:5 
1 6:3 8:1 11:1 16:3 22:2 34:1 
1 1:9 5:2 
1 4:2 6:2 19:1 20:6 
1 6:2 7:1 14:1 19:5 22:2 
1 3:7 6:1 15:3 
1 19:1 28:9 34:1 
0.2054321992327074 3:11 
1 6:3 9:1 14:5 16:1 
1 6:3 7:4 8:3 
1 3:6 4:1 22:1 35:1 36:1 
1 3:4 20:5 22:1 
1 6:9 20:1 
1 2:1 14:3 28:6 
1 6:1 18:2 20:1 26:2 30:1 34:2 35:1 
1 3:2 6:7 34:1 
1 8:2 14:1 15:3 19:1 20:3 
1 4:1 5:1 8:2 19:1 22:3 29:2 
1 8:2 9:3 11:1 20:3 34:1 
1 8:2 28:6 35:2 
1 5:3 8:2 11:1 22:3 30:1 
1 6:4 11:2 20:1 22:3 
1 7:2 8:5 9:1 11:2 
1 28:10 
1 3:2 7:1 8:5 20:2 
1 4:1 6:4 14:1 19:1 33:3 
1 14:10 
1 4:1 7:6 14:3 
1 4:3 6:3 7:1 8:1 11:1 14:1 
1 14:5 19:5 
1 7:1 8:8 9:1 
1 3:1 6:3 11:2 14:1 16:1 28:1 29:1 
1 5:3 6:1 18:3 29:2 34:1 
1 8:10 
1 6:1 7:1 14:4 19:3 31:1 
1 6:3 8:6 19:1 
1 3:2 34:2 35:5 36:1 
1 14:10 
1 20:4 33:6 
1 7:1 8:5 16:4 
1 6:9 14:1 
1 8:3 14:3 16:2 31:2 
1 4:1 8:3 20:6 
1 8:7 20:3 
1 3:1 7:1 8:1 9:2 15:1 20:1 21:1 33:1 34:1 
1 11:10 
1 11:3 28:7 
1 7:1 8:4 28:5 
1 14:9 35:1 
1 14:8 36:2 
1 16:3 28:6 35:1 
1 14:9 33:1 
1 14:10 
1 8:2 16:5 28:1 33:1 34:1 
1 6:5 22:2 31:1 33:2 
1 1:10 
1 14:2 28:8 
1 6:4 8:1 28:5 
1 3:3 4:1 11:2 12:3 29:1 
1 3:3 4:2 18:4 19:1 
1 8:6 19:1 31:3 
1 3:8 5:1 34:1 
1 7:2 8:4 11:1 20:3 
1 3:4 14:1 29:5 
1 3:1 6:2 15:2 20:3 33:2 
1 4:1 8:4 11:1 14:1 16:2 19:1 
1 3:2 4:1 8:2 14:1 19:4 
1 6:1 16:1 25:7 35:1 
1 3:1 11:9 
1 8:4 16:2 20:3 
1 6:3 9:1 11:1 18:2 29:1 30:1 
1 18:5 35:1 36:3 
1 3:1 14:1 20:2 22:1 34:2 35:2 
1 2:2 6:1 11:1 14:1 20:3 34:1 
1 6:5 11:1 14:1 20:2 
1 3:4 8:1 9:1 11:1 14:1 34:1 
1 6:5 7:1 19:3 
1 8:1 14:6 20:1 33:1 
1 4:4 8:2 20:3 
1 8:1 28:7 35:1 
1 3:2 14:4 19:2 35:1 
1 8:6 20:3 
1 14:3 16:1 19:4 20:1 
1 6:2 20:7 
1 4:1 8:1 16:1 19:2 20:2 35:2 
1 6:4 8:1 19:4 
1 18:9 
1 1:6 19:1 24:2 
1 3:2 8:5 35:2 
1 8:1 19:6 22:1 31:1 
1 6:1 20:1 31:6 35:1 
1 14:5 26:2 34:1 35:1 
1 3:2 8:1 14:1 33:5 
1 6:2 7:2 18:5 
1 3:2 8:1 20:3 31:2 34:1 
1 8:1 19:8 
1 6:5 20:3 35:1 
1 6:7 34:2 
1 6:2 8:1 25:6 
1 6:7 16:1 33:1 
1 8:3 9:1 19:1 20:3 29:1 
1 6:4 16:4 35:1 
1 3:2 6:4 7:3 
1 14:9 
1 3:2 8:1 14:1 16:1 25:1 29:3 
1 8:8 16:1 
1 24:9 
1 4:1 6:2 11:2 19:1 20:3 
1 6:2 8:3 9:1 19:3 
1 6:3 8:3 24:3 
1 5:2 6:2 7:1 15:1 18:2 19:1 
1 6:1 7:4 8:1 14:1 20:2 
1 6:2 8:1 20:5 21:1 
1 8:3 16:1 19:1 28:1 29:2 35:1 
1 4:1 6:2 11:1 14:4 19:1 
1 4:4 8:4 19:1 
1 3:1 7:1 8:3 20:3 22:1 
1 11:7 20:1 37:1 
1 3:1 8:2 14:1 19:4 29:1 
1 3:1 5:3 14:4 
1 7:1 14:1 16:2 29:3 35:1 
1 4:4 8:1 16:1 34:1 35:1 
1 3:2 6:1 14:1 19:1 29:3 
1 6:6 22:2 
1 5:4 6:1 8:1 26:2 
1 8:4 19:1 20:3 
1 7:1 8:1 9:1 14:2 28:1 34:1 35:1 
1 6:7 19:1 
1 4:1 14:1 19:1 20:3 22:1 29:1 
1 6:3 14:1 28:4 
1 5:1 8:1 11:2 19:3 29:1 
1 8:8 
1 4:3 14:3 19:1 29:1 
1 4:4 8:1 18:2 19:1 
1 6:3 19:5 
1 6:1 11:5 35:1 37:1 
1 4:1 14:1 16:5 19:1 
1 6:2 8:4 16:2 
1 3:6 8:1 34:1 
1 6:1 8:1 12:1 14:2 15:2 18:1 
1 4:1 5:1 6:4 11:1 19:1 
1 8:6 18:1 30:1 
1 4:1 7:4 8:1 11:2 
1 3:2 8:3 11:3 
1 8:5 19:1 28:2 
1 8:1 14:3 19:2 33:1 36:1 
1 6:1 8:1 14:1 19:1 20:3 34:1 
1 3:1 8:2 29:2 35:3 
1 6:1 8:2 19:1 30:1 33:3 
1 8:2 20:3 25:1 34:1 35:1 
1 4:1 8:5 19:2 
1 2:2 6:2 16:2 19:1 20:1 
1 4:2 20:5 21:1 
1 7:5 8:1 24:1 30:1 
1 6:1 8:2 16:3 19:1 34:1 
1 11:7 37:1 
1 5:4 8:1 20:3 
1 5:1 6:6 19:1 
1 18:1 22:2 24:5 
1 24:7 35:1 
1 3:3 4:2 7:1 19:1 29:1 
1 24:7 28:1 
1 6:2 8:5 28:1 
1 6:5 21:3 
1 3:1 4:1 19:1 20:1 29:3 33:1 
1 3:3 6:1 19:2 20:2 
1 6:3 10:1 14:3 19:1 
1 3:1 6:1 8:3 15:1 19:2 
1 3:1 8:3 14:3 35:1 
1 3:1 8:6 19:1 
1 8:2 16:1 20:4 34:1 
1 8:8 
1 6:1 11:1 14:5 19:1 
1 6:6 8:1 19:1 
1 3:1 4:1 7:1 10:4 14:1 
1 3:1 5:2 6:1 8:1 15:1 19:1 20:1 
1 1:6 8:1 28:1 
1 8:8 
1 6:1 8:2 19:1 25:4 
1 3:3 7:2 8:3 
1 6:1 14:2 16:4 35:1 
1 8:4 11:4 
1 1:1 6:2 21:1 27:1 33:3 
1 4:2 6:4 19:2 
1 6:1 8:5 16:1 19:1 
1 8:8 
1 11:3 18:4 37:1 
1 8:6 29:1 33:1 
1 3:5 6:1 14:1 15:1 
1 6:7 8:1 
1 4:2 6:1 11:1 16:4 
1 8:1 28:7 
1 2:5 3:1 6:2 
1 6:4 14:2 19:2 
1 7:1 28:7 
1 8:1 11:1 14:3 20:1 33:2 
1 5:1 14:5 33:2 
1 16:4 19:3 24:1 
1 3:1 6:3 7:1 16:1 35:2 
1 8:1 28:7 
1 4:3 8:2 16:3 
1 6:4 8:4 
1 11:7 34:1 
1 8:2 19:5 35:1 
1 6:1 8:1 28:6 
1 5:4 6:1 8:1 11:2 
1 6:6 7:1 
1 4:1 14:3 19:2 20:1 
1 6:1 8:2 18:2 19:2 
1 6:1 14:6 
1 3:4 14:1 22:2 
1 6:1 7:1 14:1 20:1 31:3 
1 8:2 11:1 20:1 28:3 
1 14:1 15:1 28:3 35:2 
1 8:7 
1 6:6 16:1 
1 8:5 10:1 19:1 
1 19:7 
1 8:7 
1 3:1 6:1 8:1 19:2 35:1 36:1 
1 3:3 6:1 14:1 19:1 35:1 
1 3:5 19:2 
1 8:7 
1 11:1 14:5 19:1 
1 3:2 5:1 8:3 19:1 
1 3:1 6:3 7:1 8:1 9:1 
1 4:1 8:3 14:3 
1 11:3 14:1 19:1 22:2 
1 8:3 19:1 29:1 33:2 
1 11:3 33:1 34:2 35:1 
1 6:2 8:1 19:2 35:2 
1 24:6 38:1 
1 8:2 20:1 28:4 
1 3:2 14:3 20:1 34:1 
1 4:2 8:3 14:2 
1 6:4 19:1 21:1 22:1 
1 19:1 35:6 
1 7:1 14:5 18:1 
1 4:2 6:1 18:1 19:1 22:2 
1 11:1 16:4 28:2 
1 8:5 28:2 
1 11:1 14:3 19:1 22:1 30:1 
1 3:2 8:1 19:3 35:1 
1 14:3 20:3 34:1 
1 28:7 
1 8:7 
1 8:2 19:5 
1 6:2 8:1 22:2 24:2 
1 8:2 14:2 19:2 20:1 
1 4:2 6:2 11:1 19:2 
1 7:5 14:2 
1 9:4 15:1 25:1 34:1 
1 6:4 35:3 
1 6:1 8:2 12:3 19:1 
1 6:7 
1 18:3 22:3 30:1 
1 6:2 8:1 16:1 19:1 21:1 34:1 
1 6:6 19:1 
1 8:1 11:5 39:1 
1 6:1 7:2 8:1 14:2 35:1 
1 8:4 20:2 35:1 
1 6:4 21:2 35:1 
1 14:4 19:2 20:1 
1 6:4 8:2 15:1 
1 7:1 8:4 35:1 
1 6:1 8:1 28:4 
1 24:6 
1 3:3 8:2 19:1 
1 8:1 20:1 29:1 31:2 34:1 
1 5:1 9:2 19:1 20:1 34:1 
1 8:1 19:1 28:4 
1 5:3 14:1 19:1 33:1 
1 14:2 16:1 25:3 
1 11:1 14:1 18:4 
1 6:3 18:1 21:1 31:1 
1 24:6 
1 6:1 20:1 24:3 33:1 
1 6:3 8:1 20:2 
1 3:2 4:2 19:2 
1 8:6 
1 8:4 14:2 
1 22:3 24:1 34:1 35:1 
1 8:4 19:2 
1 3:2 4:1 14:2 19:1 
1 5:2 11:3 28:1 
1 6:5 20:1 
1 14:2 19:4 
1 6:1 8:3 28:2 
1 8:5 19:1 
1 6:4 8:1 14:1 
1 3:1 8:1 16:1 28:3 
1 8:2 9:1 11:1 21:2 
1 5:3 14:2 19:1 
1 6:3 8:3 
1 4:1 14:3 29:2 
1 3:2 14:2 20:2 
1 2:1 8:3 16:1 19:1 
1 8:4 19:2 
1 5:3 8:2 19:1 
1 6:3 8:3 
1 5:2 6:1 8:1 14:2 
1 8:3 33:2 35:1 
1 3:1 19:2 21:3 
1 8:2 34:3 36:1 
1 8:1 28:5 
1 4:3 8:2 18:1 
1 4:2 8:3 11:1 
1 19:2 24:1 31:3 
1 4:1 6:1 8:1 19:2 33:1 
1 6:3 16:2 36:1 
1 6:4 16:2 
1 3:1 14:1 19:4 
1 6:1 8:4 14:1 
1 16:3 29:3 
1 8:3 11:2 16:1 
1 8:6 
1 6:3 19:1 20:2 
1 16:6 
1 3:4 5:1 35:1 
1 24:6 
1 7:1 14:3 19:1 36:1 
1 6:3 8:3 
1 28:6 
1 19:1 24:5 
1 8:1 28:5 
1 8:4 9:1 34:1 
1 6:5 20:1 
1 8:3 28:3 
1 6:1 8:5 
1 3:3 6:2 36:1 
1 4:4 8:2 
1 6:2 8:4 
1 6:1 11:1 20:4 
1 5:1 14:1 28:3 35:1 
1 6:2 11:1 16:3 
1 5:1 6:3 8:1 20:1 
1 6:2 8:2 11:1 19:1 
1 6:5 19:1 
1 7:2 14:3 20:1 
1 8:1 11:1 14:1 31:3 
1 11:5 34:1 
1 6:6 
1 6:5 34:1 
1 3:1 9:1 33:1 34:2 35:1 
1 8:1 11:4 14:1 
1 6:6 
1 29:4 35:1 
1 6:2 8:3 
1 2:1 8:1 28:3 
1 1:1 4:1 6:1 19:1 20:1 
1 4:1 14:3 20:1 
1 24:2 28:3 
1 4:1 7:2 8:1 28:1 
1 3:1 14:3 19:1 
1 8:2 28:3 
1 4:1 8:2 19:1 37:1 
1 6:4 14:1 
1 8:1 28:4 
1 4:1 6:1 7:1 8:1 19:1 
1 11:1 28:4 
1 3:1 6:2 19:1 34:1 
1 6:2 14:3 
1 8:5 
1 11:2 20:2 34:1 
1 8:1 19:1 28:3 
1 6:1 8:1 19:3 
1 14:2 19:2 22:1 
1 8:1 11:1 15:2 28:1 
1 11:3 19:1 28:1 
1 6:2 8:2 11:1 
1 6:1 18:1 20:3 
1 1:1 14:4 
1 14:1 16:1 19:1 35:2 
1 8:1 11:4 
1 4:1 14:1 20:2 34:1 
1 8:2 20:3 
1 28:5 
1 4:1 6:1 7:1 8:1 11:1 
1 6:1 8:4 
1 8:2 19:1 21:2 
1 5:2 16:1 20:1 29:1 
1 6:2 19:1 20:2 
1 5:3 9:1 14:1 
1 8:1 28:3 35:1 
1 7:1 11:1 14:1 19:1 28:1 
1 20:1 24:4 
1 5:2 19:2 36:1 
1 5:1 8:1 28:3 
1 3:1 4:2 7:1 14:1 
1 3:1 14:3 19:1 
1 4:1 20:4 
1 8:1 14:2 18:1 22:1 
1 19:1 28:4 
1 4:1 7:2 8:2 
1 6:1 8:1 20:3 
1 24:5 
1 6:2 19:2 22:1 
1 6:2 8:2 16:1 
1 6:1 14:1 21:3 
1 3:2 6:1 34:2 
1 6:2 8:1 11:1 19:1 
1 14:3 16:1 20:1 
1 1:2 19:1 24:2 
1 6:3 8:1 14:1 
1 5:4 19:1 
1 6:1 8:1 12:1 18:1 29:1 
1 14:4 16:1 
1 4:2 8:2 19:1 
1 15:5 
1 11:5 
1 3:1 5:1 14:3 
1 3:2 8:2 14:1 
1 4:1 6:1 8:2 20:1 
1 6:1 8:1 19:1 21:2 
1 1:1 6:1 8:3 
1 6:1 8:1 28:3 
1 6:4 28:1 
1 8:1 14:4 
1 5:1 11:1 25:3 
1 4:2 5:2 8:1 
1 8:5 
1 6:3 24:2 
1 4:1 11:1 20:2 22:1 
1 8:5 
1 6:1 11:1 33:3 
1 11:5 
1 6:3 20:2 
1 6:3 8:1 22:1 
1 8:1 11:4 
1 20:3 34:1 36:1 
1 24:5 
1 3:1 6:2 8:1 22:1 
1 6:1 8:2 19:1 34:1 
1 11:4 18:1 
1 8:1 11:4 
1 6:2 8:1 11:2 
1 7:4 29:1 
1 6:2 11:2 34:1 
1 6:2 31:2 
1 3:1 14:2 19:1 
1 7:3 8:1 
1 8:1 9:1 31:1 34:1 
1 4:1 14:3 
1 6:1 33:3 
1 6:2 8:1 9:1 
1 4:1 8:3 
1 8:1 15:1 27:1 35:1 
1 5:1 19:1 34:1 35:1 
1 6:1 15:1 19:2 
1 6:1 8:2 30:1 
1 9:1 22:2 28:1 
1 8:2 18:1 35:1 
1 6:4 
1 19:4 
1 14:3 19:1 
1 6:1 7:1 8:2 
1 6:4 
1 14:2 19:1 20:1 
1 6:1 11:3 
1 6:2 18:1 35:1 
1 11:2 26:2 
1 3:1 7:2 9:1 
1 3:1 8:3 
1 4:1 6:2 28:1 
1 6:3 8:1 
1 28:4 
1 6:2 19:1 33:1 
1 6:1 8:3 
1 7:2 8:1 33:1 
1 8:3 20:1 
1 8:1 15:1 35:2 
1 14:3 19:1 
1 6:1 10:1 33:2 
1 6:3 36:1 
1 7:1 8:2 22:1 
1 8:3 9:1 
1 1:2 14:1 28:1 
1 6:4 
1 6:3 24:1 
1 6:1 7:1 14:2 
1 16:1 19:1 20:1 28:1 
1 8:1 11:1 20:2 
1 4:1 6:1 19:1 20:1 
1 14:1 19:1 29:2 
1 6:1 19:3 
1 14:2 16:1 19:1 
1 7:2 19:1 21:1 
1 3:3 14:1 
1 6:1 16:2 19:1 
1 16:1 28:3 
1 6:2 7:1 19:1 
1 14:3 22:1 
1 1:1 4:3 
1 6:3 8:1 
1 16:3 24:1 
1 8:3 20:1 
1 8:2 11:1 19:1 
1 8:2 14:1 20:1 
1 6:2 15:2 
1 4:1 6:1 19:1 22:1 
1 6:1 7:1 14:2 
1 5:3 6:1 
1 6:1 8:3 
1 14:4 
1 8:1 11:1 14:2 
1 4:1 6:1 8:1 11:1 
1 11:1 14:3 
1 14:4 
1 6:4 
1 5:3 8:1 
1 6:4 
1 4:1 6:2 8:1 
1 6:1 8:3 
1 8:3 24:1 
1 6:3 8:1 
1 3:2 4:2 
1 6:1 7:1 8:2 
1 7:1 14:1 18:2 
1 28:4 
1 8:2 14:2 
1 6:3 21:1 
1 6:3 22:1 
1 6:2 20:1 34:1 
1 6:4 
1 24:4 
1 4:1 24:3 
1 16:2 34:1 35:1 
1 9:1 20:3 
1 24:3 34:1 
1 6:1 8:2 16:1 
1 8:2 11:2 
1 8:4 
1 28:4 
1 28:4 
1 6:4 
1 6:4 
1 22:3 24:1 
1 1:4 
1 3:1 6:3 
1 4:2 8:2 
1 3:2 6:1 35:1 
1 6:1 8:2 33:1 
1 8:3 35:1 
1 20:4 
1 6:2 14:2 
1 4:1 6:2 20:1 
1 1:1 14:2 29:1 
1 8:2 20:2 
1 8:2 11:1 20:1 
1 3:2 4:1 6:1 
1 4:2 8:2 
1 8:1 14:3 
1 6:4 
1 5:2 6:1 14:1 
1 14:1 19:3 
1 24:2 28:2 
1 6:1 8:1 19:1 34:1 
1 8:4 
1 8:3 36:1 
1 4:1 8:1 11:2 
1 6:1 8:2 36:1 
1 5:3 28:1 
1 6:3 35:1 
1 6:1 8:2 35:1 
1 3:1 6:2 18:1 
1 8:2 19:1 34:1 
1 7:2 8:2 
1 6:3 35:1 
1 6:1 16:2 37:1 
1 14:3 35:1 
1 8:2 14:1 35:1 
1 6:4 
1 6:2 7:1 
1 3:2 6:1 
1 8:2 20:1 
1 6:1 14:1 28:1 
1 8:1 14:1 18:1 
1 3:1 6:2 
1 14:3 
1 24:3 
1 8:2 35:1 
1 6:2 27:1 
1 5:1 6:1 8:1 
1 24:3 
1 4:1 8:1 19:1 
1 24:3 
1 8:1 11:1 34:1 
1 8:1 14:2 
1 8:3 
1 1:1 6:1 20:1 
1 3:2 11:1 
1 6:1 8:1 34:1 
1 8:3 
1 6:3 
1 4:1 8:1 11:1 
1 1:3 
1 8:3 
1 6:1 19:1 20:1 
1 4:1 5:1 14:1 
1 16:1 19:1 34:1 
1 22:1 24:2 
1 24:1 28:2 
1 6:3 
1 16:1 28:1 35:1 
1 20:1 24:2 
1 6:1 8:1 29:1 
1 3:1 4:1 8:1 
1 4:1 6:1 26:1 
1 6:1 8:2 
1 8:1 19:1 24:1 
1 6:3 
1 6:2 20:1 
1 24:2 36:1 
1 20:1 29:1 34:1 
1 3:1 23:1 35:1 
1 6:1 8:1 35:1 
1 6:1 8:1 28:1 
1 6:2 8:1 
1 6:1 19:1 20:1 
1 24:3 
1 4:1 8:2 
1 8:2 24:1 
1 11:1 14:1 35:1 
1 6:2 22:1 
1 5:2 6:1 
1 6:2 8:1 
1 8:3 
1 6:1 8:1 28:1 
1 6:2 22:1 
1 6:3 
1 16:2 33:1 
1 4:1 33:2 
1 6:1 11:2 
1 3:1 6:1 8:1 
1 7:1 8:1 14:1 
1 6:2 34:1 
1 9:2 19:1 
1 6:1 31:2 
1 24:2 29:1 
1 8:3 
1 8:3 
1 6:3 
1 22:3 
1 6:1 14:1 21:1 
1 6:3 
1 11:3 
1 6:2 8:1 
1 16:1 19:1 29:1 
1 8:1 18:2 
1 8:2 30:1 
1 6:3 
1 4:2 6:1 
1 6:1 8:1 14:1 
1 8:1 20:1 24:1 
1 8:3 
1 8:2 19:1 
1 11:2 19:1 
1 8:2 31:1 
1 6:3 
1 11:2 37:1 
1 8:3 
1 5:2 6:1 
1 5:1 8:1 30:1 
1 24:3 
1 14:3 
1 4:1 6:1 20:1 
1 8:1 16:2 
1 3:1 8:1 19:1 
1 4:1 14:1 20:1 
1 8:1 14:1 19:1 
1 6:1 11:2 
1 6:1 19:1 29:1 
1 4:2 11:1 
1 6:2 14:1 
1 8:2 20:1 
1 8:2 35:1 
1 6:1 11:1 34:1 
1 11:3 
1 8:2 36:1 
1 7:1 14:2 
1 20:1 24:2 
1 6:1 7:1 24:1 
1 8:1 18:1 36:1 
1 8:1 19:1 24:1 
1 6:2 14:1 
1 6:2 36:1 
1 4:1 11:1 34:1 
1 24:2 35:1 
1 6:1 8:1 14:1 
1 6:1 8:1 34:1 
1 6:1 8:2 
1 19:2 34:1 
1 6:1 24:1 37:1 
1 6:1 8:1 25:1 
1 6:2 37:1 
1 6:1 8:1 35:1 
1 3:1 35:2 
1 4:1 6:1 8:1 
1 14:2 18:1 
1 4:2 16:1 
1 8:1 14:1 35:1 
1 8:1 20:2 
1 14:2 35:1 
1 8:1 19:1 36:1 
1 24:2 34:1 
1 8:2 
1 24:2 
1 19:1 20:1 
1 11:1 28:1 
1 24:2 
1 3:1 14:1 
1 1:1 14:1 
1 28:1 36:1 
1 1:2 
1 11:1 35:1 
1 6:1 8:1 
1 5:2 
1 6:1 8:1 
1 6:1 8:1 
1 20:1 29:1 
1 14:2 
1 18:1 20:1 
1 8:2 
1 20:2 
1 4:1 21:1 
1 11:1 18:1 
1 14:2 
1 6:1 35:1 
1 14:2 
1 25:2 
1 14:2 
1 20:2 
1 6:2 
1 6:1 8:1 
1 8:2 
1 7:1 8:1 
1 4:1 19:1 
1 6:2 
1 8:1 19:1 
1 6:1 14:1 
1 6:1 18:1 
1 8:1 11:1 
1 24:2 
1 4:1 6:1 
1 11:2 
1 8:1 35:1 
1 9:2 
1 19:1 24:1 
1 4:1 19:1 
1 8:2 
1 8:2 
1 8:1 11:1 
1 8:1 19:1 
1 8:1 14:1 
1 20:1 35:1 
1 4:1 11:1 
1 8:2 
1 24:1 35:1 
1 3:1 16:1 
1 6:1 34:1 
1 11:1 14:1 
1 4:1 14:1 
1 8:2 
1 6:2 
1 8:1 28:1 
1 8:1 11:1 
1 24:2 
1 6:2 
1 8:1 21:1 
1 8:1 20:1 
1 8:2 
1 6:2 
1 35:1 37:1 
1 14:1 28:1 
1 16:1 31:1 
1 14:1 35:1 
1 6:2 
1 6:1 34:1 
1 6:1 19:1 
1 4:2 
1 28:2 
1 1:1 17:1 
1 3:1 11:1 
1 6:2 
1 6:1 8:1 
1 28:2 
1 24:2 
1 6:1 8:1 
1 8:1 20:1 
1 4:1 19:1 
1 8:1 12:1 
1 3:1 8:1 
1 14:2 
1 6:2 
1 6:1 19:1 
1 28:1 35:1 
1 34:1 35:1 
1 6:1 8:1 
1 6:2 
1 14:2 
1 6:2 
1 6:2 
1 11:1 19:1 
1 8:1 20:1 
1 24:2 
1 6:1 24:1 
1 7:1 11:1 
1 6:1 8:1 
1 6:1 11:1 
1 18:1 29:1 
1 8:2 
1 6:1 11:1 
1 6:1 28:1 
1 14:2 
1 6:1 16:1 
1 6:2 
1 6:1 19:1 
1 9:1 36:1 
1 8:2 
1 8:1 14:1 
1 6:1 8:1 
1 6:1 34:1 
1 6:1 35:1 
1 24:1 37:1 
1 6:1 8:1 
1 4:1 6:1 
1 4:1 11:1 
1 21:2 
1 35:2 
1 28:2 
1 6:1 37:1 
1 3:1 14:1 
1 6:2 
1 8:1 37:1 
1 19:1 24:1 
1 6:1 7:1 
1 8:2 
1 20:2 
1 21:1 34:1 
1 8:1 11:1 
1 20:1 
1 20:1 
1 6:1 
1 8:1 
1 15:1 
1 6:1 
1 6:1 
1 8:1 
1 6:1 
1 11:1 
1 20:1 
1 6:1 
1 11:1 
1 28:1 
1 8:1 
1 18:1 
1 6:1 
1 24:1 
1 24:1 
1 6:1 
1 8:1 
1 6:1 
1 24:1 
1 7:1 
1 20:1 
1 19:1 
1 11:1 
1 8:1 
1 3:1 
1 33:1 
1 8:1 
1 24:1 
1 11:1 
1 11:1 
1 14:1 
1 16:1 
1 6:1 
1 8:1 
1 28:1 
1 14:1 
1 6:1 
1 20:1 
1 8:1 
1 4:1 
1 8:1 
1 24:1 
1 24:1 
1 24:1 
1 24:1 
1 24:1 
1 28:1 
1 4:1 
1 6:1 
1 24:1 
1 8:1 
1 24:1 
1 8:1 
1 8:1 
1 8:1 
1 8:1 
1 3:1 
1 14:1 
1 6:1 
1 6:1 
1 21:1 
1 6:1 
1 6:1 
1 8:1 
1 8:1 
1 8:1 
1 11:1 
1 14:1 
1 11:1 
1 20:1 
1 24:1 
1 8:1 
1 8:1 
1 6:1 
1 6:1 
1 8:1 
1 37:1 
1 24:1 
1 6:1 
1 8:1 
1 19:1 
1 11:1 
1 6:1 
1 11:1 
1 6:1 
1 34:1 
1 28:1 
1 6:1 
1 3:1 
1 20:1 
1 11:1 
1 6:1 
1 6:1 
1 28:1 
1 4:1 
1 28:1 
1 8:1 
1 8:1 
1 31:1 
1 14:1 
1 31:1 
1 25:1 
1 28:1 
1 6:1 
1 14:1 
1 24:1 
1 8:1 
1 8:1 
1 14:1 
1 35:1 
1 24:1 
1 8:1 
1 11:1 
1 11:1 
1 6:1 
1 14:1 
1 6:1 
1 24:1 
1 3:1 
1 24:1 
1 8:1 
1 11:1 
1 6:1 
1 24:1 
1 19:1 
1 11:1 
1 11:1 
1 6:1 
1 4:1 
1 8:1 
1 8:1 
1 11:1 
1 6:1 
1 20:1 
1 24:1 
1 6:1 
1 8:1 
1 24:1 
1 8:1 
1 8:1 
1 24:1 
1 28:1 
1 19:1 
1 11:1 
1 8:1 
1 8:1 
1 6:1 
1 5:1 
1 14:1 
1 6:1 
1 18:1 
1 24:1 
1 8:1 
1 19:1 
1 28:1 
1 24:1 
1 12:1 
1 8:1 
1 6:1 
1 8:1 
1 3:1 
1 1:1 
1 11:1 
1 16:1 
1 35:1 
1 4:1 
1 11:1 
1 5:1 
1 8:1 
1 6:1 
1 
1 
1 
1 
1 
1 
1 
1 
1 
1 
1 
1 
1 
1 
1 
1 
1 
1 
1 
1 
1 
1 
1 
1 
1 
1 
1 
1 
1 
1 
1 
1 
1 
1 
1 
1 
1 
1 
1 
1 
1 
1 
1 
1 
1 
1 
1 
1 
1 
1 
1 
1 
1 
1 
1 
1 
1 
1 
1 
1 
1 
1 
1 
1 
1 
1 
1 
1 
1 
1 
1 
1 
1 
1 
-1 14:2 15:132 35:1 
-1 28:116 
-1 3:6 15:104 34:1 
-1 8:1 9:1 15:67 33:2 34:1 
-1 3:13 5:3 7:2 12:2 14:32 15:2 19:8 29:4 
-1 3:1 7:1 8:55 20:1 33:1 
-1 6:1 8:29 15:24 
-1 11:1 14:45 29:1 34:2 
-0.8101637399998113 7:1 9:1 11:2 18:40 19:1 30:1 
-0.7224911203295616 4:1 8:1 11:2 18:40 19:1 
-1 14:2 18:36 32:4 34:1 
-1 5:4 8:23 9:2 15:5 16:2 18:1 19:4 
-1 15:39 16:1 34:1 
-1 1:38 6:1 14:1 
-1 1:33 8:1 11:2 37:1 
-1 3:8 6:25 14:1 34:1 
-1 4:30 6:2 14:1 
-1 7:1 8:8 18:11 19:3 20:7 35:2 
-1 11:30 37:1 
-1 7:2 11:1 18:25 35:3 
-0.8360136120584342 5:8 8:1 11:20 39:1 
-1 6:1 7:3 18:14 34:1 35:11 
-1 6:7 19:1 20:2 28:17 34:1 
-1 18:28 
-1 1:24 6:2 8:1 
-1 22:26 24:1 
-1 2:8 14:2 19:4 20:7 28:2 34:2 35:1 
-1 6:3 8:2 11:2 14:9 28:10 
-1 3:7 8:3 14:3 16:1 19:7 29:2 33:3 
-1 6:21 28:4 
-0.4546467396096431 6:5 11:19 39:1 
-1 11:24 37:1 
-1 8:4 9:1 16:2 20:15 31:3 
-1 8:1 16:24 
-1 3:4 4:5 6:1 7:2 8:9 19:1 35:3 
-1 2:3 5:2 6:8 8:5 11:1 21:2 28:4 
-1 4:11 6:2 19:5 20:5 34:1 
-1 22:11 24:7 26:1 34:4 38:1 
-0.3924399651232807 3:1 6:2 19:1 20:19 34:1 
-1 15:23 16:1 
-1 6:16 19:7 
-1 8:1 14:6 19:3 29:5 31:8 
-0.9956477878544238 11:23 
-1 3:2 4:5 8:6 15:2 16:1 33:6 34:1 
-1 6:4 7:1 18:17 35:1 
-1 1:8 4:8 19:1 20:1 24:4 
-1 6:2 19:8 33:12 
-1 3:5 6:7 8:1 20:7 29:1 34:1 
-1 6:17 16:1 20:4 
-1 8:3 16:1 24:1 28:17 
-0.4620588179248992 5:7 11:15 
-1 8:1 9:8 14:1 16:2 18:9 35:1 
-1 6:10 8:6 11:6 
-1 3:3 6:5 7:1 14:1 29:7 31:2 33:2 
-1 24:1 28:20 
-1 3:10 24:9 34:2 
-1 3:2 15:16 35:3 
-0.7023572458858931 6:1 19:1 20:19 
-1 5:3 6:7 18:4 19:6 35:1 
-0.7689363417557881 14:4 19:1 20:16 
-1 3:3 6:16 8:1 
-1 3:1 7:1 8:4 11:2 14:2 20:8 34:1 35:1 
-1 2:13 7:4 29:2 31:1 
-1 8:2 25:18 
-0.6059691377909445 3:4 11:16 
-1 1:15 6:1 11:3 18:1 
-1 24:20 
-1 8:6 20:7 28:6 34:1 
-1 6:2 18:17 20:1 
-1 6:1 7:1 8:1 28:16 
-0.4999539647145415 22:2 24:13 26:2 34:1 35:1 
-1 3:3 4:1 6:2 11:1 20:11 29:1 
-0.4169477902520848 6:4 11:14 37:1 
-1 3:14 6:2 8:1 19:1 34:1 
-1 11:6 14:1 21:12 
-1 4:2 7:1 8:8 19:1 22:1 31:5 
-0.9318279016151954 8:4 11:14 
-1 4:1 6:1 7:1 8:3 11:1 14:1 16:1 19:1 22:1 29:5 31:2 
-1 3:3 4:4 6:3 9:1 16:2 20:4 34:1 
-1 1:3 6:4 14:6 19:5 
-1 6:1 8:1 19:1 20:11 29:3 34:1 
-1 3:9 5:2 14:5 34:1 35:1 
-1 4:6 8:1 20:3 24:1 25:5 28:2 
-1 1:1 4:2 6:1 14:5 16:2 19:7 
-0.8018220551979303 4:12 6:3 8:1 11:2 
-1 6:7 7:1 8:1 19:6 20:2 26:1 
-0.2240417208496218 24:1 28:16 34:1 
-1 28:18 
-1 2:1 3:1 6:3 11:1 12:1 16:4 19:1 30:2 34:2 35:1 
-1 6:1 8:8 20:8 
-1 4:2 6:1 11:1 14:13 
-0.7516372303599295 24:17 
-1 2:4 3:4 6:1 8:2 19:2 20:1 22:2 26:1 
-0.3990680430976155 6:2 11:12 15:1 33:2 
-1 6:5 8:1 9:3 18:1 19:1 20:5 34:1 
-1 5:1 14:2 18:13 19:1 
-0.3183093550042709 8:2 24:15 
-1 6:1 8:7 28:9 
-1 6:14 19:1 37:1 
-1 6:8 9:1 31:7 
-1 3:1 8:11 18:1 31:3 
-0.4779546962319273 8:15 9:1 
-1 6:4 8:2 20:8 28:1 30:1 
-1 3:4 4:2 6:1 7:6 8:2 31:1 
-1 2:2 3:2 6:5 15:1 16:1 19:2 34:2 36:1 
-0.7208363398928306 6:4 11:8 19:4 
-1 6:13 26:3 
-1 11:6 16:3 28:7 
-1 6:2 9:3 15:6 19:4 35:1 
-1 18:16 
-1 3:7 8:2 11:1 14:2 15:2 19:2 
-1 3:1 6:4 19:1 21:8 22:2 
-1 14:5 19:6 20:3 28:1 
-1 3:4 14:9 35:1 36:1 
-1 6:5 10:1 19:9 
-1 7:2 14:8 16:3 34:1 35:1 
-0.8639179208357035 6:6 24:9 
-1 3:3 7:6 8:2 11:1 15:3 
-0.6544304968936576 6:3 14:1 20:11 
-1 9:1 19:1 22:1 28:11 34:1 
-1 4:1 14:1 28:13 
-1 14:15 
-1 6:1 9:1 18:5 19:7 33:1 
-1 3:1 14:8 18:1 19:1 29:1 32:3 
-1 8:3 11:4 14:8 
-1 6:2 11:1 19:1 28:11 
-1 6:3 8:5 28:7 
-1 11:1 14:7 15:2 19:1 20:3 22:1 
-1 3:2 5:1 7:1 8:9 29:2 
-1 3:5 4:2 6:1 8:2 11:1 15:1 29:3 
-1 3:8 18:6 34:1 
-1 6:5 8:3 14:1 19:6 
-1 5:10 33:3 34:1 35:1 
-1 20:5 24:9 34:1 
-1 6:8 11:2 15:1 19:2 34:1 35:1 
-1 3:1 5:6 7:5 19:2 34:1 
-1 6:9 22:5 36:1 
-1 8:1 15:2 28:12 
-1 3:2 6:3 14:1 19:8 36:1 
-1 18:12 35:2 36:1 
-1 8:15 
-1 8:14 19:1 
-1 3:1 6:2 18:10 22:1 32:1 
-0.7836833634219904 3:1 4:7 6:5 19:1 
-1 8:3 19:6 29:1 33:4 
-1 19:2 28:12 
-1 7:1 8:4 14:4 16:3 19:2 
-1 7:1 8:2 11:2 19:4 22:5 
-1 7:1 8:3 15:9 31:1 
-1 6:1 16:7 20:1 28:3 34:2 
-1 6:5 8:4 14:1 15:3 19:1 
-0.02236127088286752 20:4 24:10 
-0.5621714730616877 3:1 6:3 8:1 11:2 22:6 34:1 
-1 7:4 14:8 33:2 
-1 3:1 6:5 14:1 19:1 20:5 34:1 
-1 4:1 6:6 9:3 15:1 34:1 35:2 
-0.6884198086277571 14:6 16:1 22:2 27:4 35:1 
-1 1:1 6:7 8:1 11:2 22:1 33:2 
-1 3:1 6:8 7:3 19:2 
-1 1:1 8:2 9:1 14:4 16:1 19:1 22:3 30:1 
-1 4:1 6:1 8:2 16:2 19:1 20:1 28:5 30:1 
-0.7111979399461759 5:3 11:10 37:1 
-1 5:4 20:10 
-0.7532993992004301 2:4 3:1 6:1 8:8 
-1 3:2 6:4 8:3 18:1 19:1 29:3 
-0.360256057824707 4:3 6:1 8:3 24:7 
-0.8756224600395972 6:1 20:12 25:1 
-0.67896566936576 6:1 8:2 22:11 
-0.8217075233388001 11:10 14:4 
-0.5702911463710267 6:1 7:2 8:1 11:8 34:1 36:1 
-0.1765267111601048 3:1 11:11 35:1 
-1 8:7 28:5 35:1 
-1 6:1 11:1 16:3 19:4 28:4 
-1 8:2 9:2 11:3 18:4 19:1 30:1 
-1 2:1 3:2 8:4 20:6 
-0.3566143985463256 11:12 37:1 
-1 3:13 
-1 3:4 7:2 8:1 14:5 34:1 
-1 6:12 34:1 
-1 6:6 14:6 19:1 
-0.7859885351526392 5:4 6:4 8:5 
-1 6:5 9:1 19:1 20:2 28:3 31:1 
-1 8:2 28:11 
-1 6:1 8:6 20:4 33:2 
-1 6:1 8:3 19:1 20:7 35:1 
-1 8:9 16:3 20:1 
-0.6074006930170446 8:5 11:4 28:2 34:1 35:1 
-1 3:4 6:2 8:4 19:3 
-1 8:1 11:4 19:8 
-1 11:2 14:3 34:1 35:7 
-1 3:6 20:6 34:1 
-1 2:1 4:3 8:2 19:1 20:6 
-1 6:1 7:5 8:4 11:1 14:2 
-1 3:3 8:8 34:2 
-1 8:1 28:12 
-1 7:1 8:5 10:1 20:5 34:1 
-1 8:1 28:12 
-1 7:1 8:6 14:1 22:5 
-1 4:2 8:1 30:2 33:8 
-1 3:1 6:9 16:1 19:2 
-1 8:7 9:6 
-1 3:1 4:2 5:1 6:1 8:4 18:1 20:1 35:2 
-1 4:3 6:1 19:9 
-0.228757341501805 3:4 6:3 8:5 36:1 
-1 4:2 6:3 8:2 9:2 15:2 18:2 
-1 3:4 16:8 34:1 
-1 6:8 8:1 20:1 28:3 
-1 6:1 8:2 25:10 
-1 8:1 15:10 22:1 34:1 
-1 6:3 8:4 20:6 
-1 3:6 6:3 7:1 14:1 34:2 
-1 11:2 16:1 19:2 28:8 
-1 5:7 8:4 9:1 19:1 
-1 6:3 8:1 14:5 19:3 35:1 
-1 9:2 14:9 18:1 35:1 
-1 7:1 8:5 28:2 29:2 35:3 
-0.06621538053294022 20:1 28:12 
-0.4973362021978427 8:8 26:4 
-1 1:1 6:1 7:1 16:3 20:4 22:1 34:1 
-1 14:8 16:2 36:2 
-1 4:1 6:3 8:4 11:1 16:1 19:1 35:1 
-1 3:3 14:8 34:1 
-1 4:4 6:1 14:6 19:1 
-0.9590317605148858 2:6 4:1 6:5 
-1 6:6 7:5 19:1 
-1 31:12 
-1 8:8 19:4 
-1 4:1 8:10 19:1 
-1 11:11 37:1 
-1 20:9 34:3 
-1 6:6 16:2 20:1 28:3 
-1 8:2 18:10 
-1 6:3 25:6 28:1 33:1 35:1 
-1 3:5 6:7 
-0.3133101697924118 3:4 6:5 8:2 33:1 
-1 6:4 28:8 
-0.596365288967236 8:8 9:3 35:1 
-1 6:8 20:1 33:1 34:1 36:1 
-0.4421131288600458 14:2 24:10 
-1 8:4 19:8 
-0.4016628796105867 8:1 14:1 24:4 26:2 28:4 
-1 1:9 8:1 19:2 
-1 6:3 25:9 
-1 6:3 28:9 
-1 6:4 8:3 18:1 28:4 
-0.9274923387872382 6:1 8:8 35:2 36:1 
-1 4:1 6:2 7:2 8:1 18:2 33:4 
-0.3320314440662809 6:8 24:4 
-0.9494592273976745 1:1 8:1 15:3 28:5 33:2 
-1 6:2 11:8 20:1 34:1 
-1 6:2 15:1 18:6 20:2 31:1 
-1 6:1 8:1 18:10 
-0.9723169635340222 6:9 19:2 39:1 
-1 2:1 4:2 14:1 16:2 20:4 22:1 30:1 
-1 8:5 11:1 16:4 19:1 28:1 
-0.5163468066928842 4:8 8:1 19:3 
-1 3:1 5:3 14:3 15:1 20:1 31:2 37:1 
-0.6697421804843128 6:3 11:3 14:5 34:1 
-1 6:3 8:2 29:7 
-1 4:4 12:4 19:1 20:3 
-1 6:5 20:6 34:1 
-1 8:2 19:9 36:1 
-1 8:11 15:1 
-0.2203338252869851 11:11 35:1 
-1 6:1 8:4 9:1 15:2 19:2 33:2 
-1 6:1 8:10 19:1 
-1 6:12 
-0.04774812336702351 4:10 7:1 11:1 
-1 3:2 6:1 33:7 34:1 
-1 22:3 24:2 26:5 34:1 
-0.9938433893529989 6:1 7:2 19:8 
-0.4829166290250399 6:11 
-0.5966320653514994 7:2 14:4 20:2 22:3 
-1 6:4 8:7 
-0.366212025911141 5:4 6:2 8:1 18:1 19:1 33:2 
-1 8:4 19:1 20:4 34:1 35:1 
-1 3:5 4:1 6:1 8:3 34:1 
-0.7125320644116696 6:3 8:3 18:1 19:4 
-1 8:1 24:2 28:8 
-1 8:8 18:2 35:1 
-1 4:1 6:4 31:6 
-1 3:2 14:1 19:3 20:1 25:2 29:1 34:1 
-1 3:4 8:1 11:1 14:5 
-1 3:4 6:3 8:2 35:2 
-1 5:6 7:1 20:1 28:1 33:2 
-1 3:2 14:8 19:1 
-1 6:5 8:5 20:1 
-0.2770591849714467 7:1 8:2 11:1 19:7 
-0.649111219580934 4:2 8:2 14:3 20:4 
-0.8301888950755545 4:5 6:1 19:2 22:2 26:1 
-1 5:2 6:1 8:2 14:3 20:3 
-1 6:6 19:2 29:2 35:1 
-0.5207416799963236 4:1 14:2 16:1 20:6 21:1 
-1 3:1 4:1 8:1 16:3 19:5 
-1 6:2 12:5 18:4 
-1 5:2 14:5 31:2 33:1 34:1 
-1 3:3 6:5 7:2 8:1 
-0.9262982521962119 11:10 37:1 
-0.9848435422786622 11:10 37:1 
-1 3:1 6:8 8:2 
-0.9204087414372094 7:1 14:1 18:2 19:1 27:3 29:3 
-1 8:2 10:7 19:1 35:1 
-1 6:6 20:5 
-0.2460232904280072 4:1 6:10 
-0.09444657169537525 5:1 6:7 11:1 35:2 
-1 7:1 8:2 14:7 35:1 
-0.7614570942096949 16:2 20:8 34:1 
-1 14:4 28:7 
-1 6:1 8:1 33:9 
-1 8:4 11:2 20:4 29:1 
-0.09485862186095076 6:4 7:1 8:1 14:4 22:1 
-1 3:2 4:6 6:1 14:1 18:1 
-1 8:1 14:7 19:2 20:1 
-1 6:4 21:7 
-0.9994838620150293 6:11 
-0.03523331779418603 19:1 24:1 28:9 
-1 4:1 8:6 14:1 20:1 34:1 35:1 
-1 8:1 28:9 36:1 
-0.5371368284476639 8:11 
-1 3:3 6:1 14:2 29:2 32:2 33:1 
-1 6:1 20:2 24:1 28:7 
-1 8:6 14:4 34:1 
-1 6:3 8:6 24:1 34:1 
-1 6:5 19:3 24:1 31:2 
-0.2320060555070088 18:9 35:2 
-1 3:1 6:3 18:5 34:1 36:1 
-0.6143795680550199 6:1 8:1 20:7 34:1 
-1 6:2 11:1 19:1 28:6 
-1 19:6 20:1 22:2 24:1 
-1 6:2 16:8 
-1 4:1 8:1 19:8 
-1 8:3 11:3 14:2 19:2 
-1 14:2 15:2 16:1 18:3 28:2 
-0.812643164377867 4:3 11:6 37:1 
-1 4:1 6:1 7:1 8:1 20:6 
-1 8:1 19:9 
-0.7217408757633021 4:6 8:1 14:1 29:2 
-0.7086256111173549 4:3 24:3 28:4 
-1 6:1 11:1 14:2 16:1 19:5 
-0.6678130667003713 8:3 24:7 
-1 14:3 18:7 
-1 4:3 8:2 19:1 20:4 
-1 19:1 28:9 
-1 3:1 6:4 8:2 22:3 
-0.5070413703650949 20:7 21:3 
-1 1:1 20:4 22:2 24:3 
-1 6:3 8:7 
-1 3:2 14:4 16:1 19:2 33:1 
-1 3:1 4:3 6:2 19:1 34:1 35:2 
-1 3:4 6:2 7:1 16:1 19:1 33:1 
-0.9255325296890706 4:4 11:5 37:1 
-0.3816254695260064 6:5 11:5 
-0.4683166765722765 4:1 6:2 8:2 14:3 19:1 31:1 
-0.1000841617860054 9:1 11:1 14:5 16:1 18:1 34:1 
-0.2372217329080529 24:9 38:1 
-1 6:3 9:3 19:1 20:2 34:1 
-1 3:4 5:4 8:2 
-1 3:5 8:3 19:1 34:1 
-1 5:1 19:1 24:2 29:6 
-0.3432772213596399 6:1 8:3 11:1 19:1 22:1 28:3 
-0.3035133119843957 6:1 8:1 15:4 19:4 
-0.007139068100710994 8:3 11:7 
-1 3:1 11:1 14:2 19:6 
-1 1:8 4:1 6:1 
-1 6:3 8:7 
-0.4532016457176956 14:2 15:3 18:3 19:1 35:1 
-1 3:2 8:7 34:1 
-1 6:2 8:1 20:4 33:3 
-0.4544168337317584 3:1 6:3 8:2 29:3 33:1 
-1 5:1 6:4 8:3 19:2 
-1 28:8 35:2 
-1 8:8 14:2 
-1 3:1 6:5 18:4 
-1 3:2 8:3 14:3 29:2 
-1 3:2 14:3 20:5 
-1 4:1 11:1 14:3 19:3 31:2 
-1 4:1 6:3 8:1 18:3 30:2 
-1 6:1 8:5 14:1 16:2 30:1 
-0.8364747742013184 5:2 8:2 9:2 11:1 30:2 34:1 
-1 6:1 8:3 19:6 
-1 3:1 11:8 39:1 
-0.8207737179791876 8:2 14:1 15:3 19:1 29:2 35:1 
-1 8:1 28:9 
-0.5906449959032274 6:8 28:2 
-1 6:8 8:2 
-1 6:3 8:7 
-1 4:1 6:1 8:3 11:3 20:2 
-0.272911585511821 6:6 8:2 19:2 
-1 28:9 35:1 
-1 6:1 14:6 21:3 
-0.3443201434196678 8:4 19:3 27:1 33:2 
-1 8:1 11:2 14:2 19:1 28:3 30:1 
-1 8:10 
-0.7184509346751318 24:5 33:5 
-1 8:1 14:6 16:1 19:1 33:1 
-1 3:1 6:8 20:1 
-1 8:1 14:2 19:1 22:2 31:1 33:3 
-1 7:1 8:2 20:2 21:5 
-1 19:2 29:7 
-0.4970188788019766 6:2 8:7 
-1 5:1 9:7 34:1 
-1 1:2 7:1 8:1 11:1 25:1 35:3 
-0.997260048622986 6:2 8:7 
-0.6275736222808913 11:8 28:1 
-0.8098726165511329 4:1 8:3 19:1 21:4 
-1 6:4 19:1 33:4 
-1 3:1 6:4 19:3 33:1 
-1 18:7 24:2 
-1 5:3 19:5 22:1 
-1 6:3 14:4 16:1 35:1 
-1 6:5 11:1 22:2 35:1 
-1 6:6 20:3 
-1 3:3 8:3 19:2 35:1 
-0.01582207236469838 4:1 5:1 6:1 8:1 9:1 15:2 28:1 34:1 
-1 8:4 19:2 20:2 30:1 
-1 8:3 14:3 16:1 19:1 21:1 
-1 6:1 8:1 14:4 20:1 31:2 
-1 3:2 8:5 19:1 35:1 
-1 4:2 6:1 7:1 8:1 9:1 11:1 22:2 
-1 4:2 7:1 14:2 20:3 34:1 
-0.1430731115229937 6:5 8:1 20:3 
-0.8667217685839488 6:3 7:1 11:1 14:2 19:1 20:1 
-1 14:9 
-1 9:4 14:2 19:1 21:1 34:1 
-1 8:7 25:2 
-1 6:3 8:2 28:4 
-1 5:3 6:1 8:1 28:4 
-1 8:2 20:7 
-1 8:1 28:8 
-1 6:1 9:1 11:2 14:1 20:2 22:1 31:1 
-1 14:4 16:4 34:1 
-0.4603563348089697 6:3 7:1 8:1 31:4 
-1 15:7 34:1 35:1 
-1 3:3 8:4 16:2 
-0.86710589722343 11:4 14:3 20:2 
-1 3:1 8:4 15:2 19:2 
-1 14:9 
-1 6:1 7:1 8:5 20:2 
-1 8:4 19:5 
-0.838468514212739 28:9 
-1 5:2 8:1 19:3 20:1 29:2 
-1 3:1 8:8 
-0.3002214445539302 4:3 5:1 6:1 8:2 19:1 20:1 
-0.9261309232048165 11:7 22:2 
-0.8683176670962618 4:3 19:6 
-1 16:2 19:1 20:4 24:1 34:1 
-1 14:3 18:1 19:5 
-0.6057549666555225 8:2 11:5 28:2 
-0.8618659844449108 6:2 9:1 11:1 14:1 19:1 29:3 
-1 3:5 6:3 8:1 
-0.887659328740976 7:3 8:2 11:2 18:1 19:1 
-0.8100501788401954 5:6 8:3 
-1 8:2 20:2 29:3 34:2 
-1 3:4 8:2 19:2 35:1 
-1 3:5 6:4 
-1 8:4 20:2 28:3 
-1 8:4 19:1 20:3 22:1 
-1 8:1 28:7 35:1 
-1 1:1 6:2 7:2 8:2 20:2 
-1 3:3 6:1 9:1 19:1 33:2 34:1 
-1 8:9 
-1 6:3 8:6 
-1 6:1 8:2 28:6 
-0.2954166701577098 5:1 8:3 11:4 19:1 
-1 8:3 15:1 19:1 20:3 34:1 
-1 14:1 20:6 33:2 
-0.1818439035063515 8:7 11:2 
-1 1:4 6:1 8:1 20:1 22:2 
-0.2910734967689825 8:2 14:2 19:1 33:3 34:1 
-0.5486784998144277 11:7 34:1 39:1 
-0.319597648432811 18:1 19:1 24:1 28:6 
-1 3:2 18:5 29:2 
-0.9783771924253928 5:2 7:1 8:2 11:3 19:1 
-1 3:3 8:1 9:4 14:1 
-1 6:6 9:2 34:1 
-1 6:4 8:5 
-1 3:1 4:5 14:2 22:1 
-1 3:1 7:5 29:1 32:1 34:1 
-0.6690241537005215 24:8 28:1 
-1 8:4 19:4 24:1 
-1 7:1 14:5 20:3 
-1 3:7 8:2 
-1 3:2 8:1 16:3 28:2 
-0.6069130193007941 7:3 22:1 24:4 
-1 4:2 14:4 20:2 
-1 14:3 16:2 22:3 
-1 6:6 8:1 21:1 
-1 6:4 19:4 
-1 2:3 6:1 9:1 14:1 20:1 30:1 
-1 3:2 4:1 8:1 14:3 19:1 
-0.9112312031117286 8:5 18:2 20:1 
-1 3:2 6:2 19:3 35:1 
-0.1841309005328186 8:4 19:1 21:3 
-1 8:8 
-1 6:4 8:3 16:1 
-1 8:3 14:2 20:1 29:2 
-0.7183378781513547 6:1 8:2 14:1 19:4 
-0.2128115118792022 6:2 9:4 34:2 
-0.07139904114538989 14:2 24:6 
-1 4:2 5:2 6:1 11:2 19:1 
-0.1740227463603699 6:3 22:1 24:3 29:1 
-0.03329180209988251 8:8 
-1 7:1 8:3 18:4 
-1 28:8 
-1 8:3 14:5 
-1 14:6 15:1 19:1 
-1 4:2 6:1 16:2 19:2 36:1 
-0.2002989529586978 5:2 6:1 7:5 
-1 8:1 19:7 
-1 3:1 6:1 20:4 34:2 
-0.8545204922452463 3:3 6:5 
-0.3551735185005322 6:5 14:2 35:1 
-1 3:1 6:2 8:1 20:3 35:1 
-1 11:6 34:1 37:1 
-0.7506901479405091 6:5 33:2 35:1 
-0.09750300866531085 7:2 8:3 11:2 22:1 
-1 8:3 34:1 35:2 36:2 
-1 8:7 16:1 
-1 8:6 18:2 
-1 6:1 8:2 19:1 20:2 22:2 
-1 8:3 33:5 
-1 6:4 19:4 
-1 8:5 19:1 33:2 
-1 3:1 5:1 8:2 22:4 
-1 4:1 8:1 11:1 31:5 
-1 14:3 18:1 19:2 22:2 
-1 1:4 6:1 9:1 14:1 19:1 
-0.3636279349506891 7:2 24:6 
-1 1:4 6:2 19:1 22:1 
-0.1235022612422634 22:2 24:6 
-0.7149056145161017 19:1 22:3 24:4 
-1 22:3 24:5 
-1 4:1 6:2 20:5 
-1 3:3 8:2 20:3 
-1 8:3 9:4 20:1 
-0.4326233194445637 4:2 6:2 8:1 19:1 20:2 
-0.8528654667464562 4:2 6:1 21:2 33:3 
-1 7:4 8:3 19:1 
-1 16:2 19:1 24:5 
-1 8:5 11:1 33:2 
-0.03286807394499277 3:1 6:5 20:1 36:1 
-1 16:2 19:1 20:5 
-0.8827721388716785 11:7 12:1 
-0.211114870912121 3:1 7:1 8:1 11:4 14:1 
-1 9:1 28:6 34:1 
-0.0244563868879212 6:4 7:1 8:1 21:1 30:1 
-1 8:1 28:6 35:1 
-1 6:1 8:3 16:2 19:1 20:1 
-1 8:1 14:6 31:1 
-0.2432137946897402 13:2 20:6 
-0.6355775992675241 8:2 14:1 29:3 33:1 34:1 
-1 7:2 8:2 14:4 
-0.8349401882864405 8:4 11:4 
-1 7:5 24:3 
-0.5655151193442097 4:2 7:1 8:1 9:1 11:1 21:2 
-1 4:1 6:3 7:3 8:1 
-0.9908639314027172 8:4 11:4 
-1 6:1 8:5 19:2 
-1 4:1 5:1 8:2 11:1 20:3 
-1 8:5 14:1 16:2 
-1 6:1 20:5 33:1 34:1 
-1 8:1 19:7 
-1 7:2 8:6 
-1 7:2 8:1 14:1 19:2 20:1 28:1 
-0.5030643487778044 24:7 28:1 
-1 14:4 35:4 
-0.5726193452664167 8:6 36:2 
-1 6:1 7:1 8:1 20:4 34:1 
-1 6:3 8:1 33:3 34:1 
-0.6024017299384203 6:5 19:1 20:2 
-1 8:7 19:1 
-1 6:6 14:2 
-0.0368003198303182 7:1 9:3 14:3 34:1 
-1 3:1 8:2 19:4 20:1 
-0.3955017140802481 16:1 18:6 35:1 
-0.8131499812323497 24:7 35:1 
-1 3:5 6:2 19:1 
-1 6:1 8:1 19:1 28:5 
-1 6:1 8:2 11:1 31:4 
-0.7863006363506995 6:1 14:2 16:1 20:4 
-0.6966236003342661 8:7 28:1 
-1 8:6 19:2 
-1 6:5 19:3 
-1 3:1 4:2 8:4 
-1 4:2 19:1 20:1 29:3 
-1 6:2 11:3 16:1 20:1 
-1 3:1 6:2 20:2 29:1 34:1 
-0.278400403853675 6:3 7:3 19:1 
-1 28:6 35:1 
-1 3:3 8:1 14:1 19:2 
-1 8:6 19:1 
-0.2247882880496795 8:2 20:5 
-1 6:1 20:1 31:4 34:1 
-0.9686927579768128 3:1 8:1 14:1 33:4 
-1 6:1 8:2 19:1 20:2 34:1 
-1 11:3 20:4 
-0.5878316253635969 8:5 15:2 
-1 6:2 14:2 19:2 28:1 
-1 8:5 19:1 20:1 
-1 1:6 24:1 
-1 14:2 15:1 20:3 34:1 
-1 7:3 8:1 9:1 14:1 19:1 
-1 3:1 8:5 14:1 
-1 8:2 19:2 20:1 28:2 
-1 6:3 15:2 19:1 35:1 
-1 1:2 4:2 11:3 
-0.328228151027336 8:2 20:2 22:2 34:1 
-1 3:4 6:3 
-1 3:1 28:5 35:1 
-1 20:2 25:2 28:3 
-1 14:5 20:2 
-1 8:4 14:3 
-1 7:1 8:2 16:4 
-0.04757841560376042 19:6 22:1 
-1 8:1 16:4 20:2 
-0.08399701233429978 15:4 16:2 33:1 
-1 8:1 9:2 20:2 29:2 
-0.1084932803741682 5:2 8:3 15:1 16:1 
-1 5:3 6:3 7:1 
-1 5:2 6:1 14:1 20:3 
-1 7:2 11:1 14:1 20:3 
-1 12:4 19:1 22:2 
-1 6:6 16:1 
-1 3:4 5:3 
-1 1:1 9:2 14:1 19:1 20:2 
-1 3:2 14:1 29:4 
-1 6:1 8:4 19:2 
-1 5:3 8:3 16:1 
-1 6:2 8:3 31:2 
-1 8:4 19:3 
-1 6:2 19:1 20:1 28:3 
-1 8:1 14:6 
-0.6706703896384529 1:3 6:4 
-0.1426999870625423 6:7 
-1 12:2 14:4 29:1 
-1 3:6 11:1 
-1 8:4 20:3 
-1 7:2 20:1 22:1 31:3 
-0.8739419421559766 1:1 3:1 4:4 6:1 
-0.6720269552212244 7:4 9:1 11:1 16:1 
-0.6153685444171456 11:5 37:1 39:1 
-1 3:1 7:3 15:1 35:2 
-0.2378860421342139 22:1 24:3 29:3 
-0.3504395236030707 11:3 24:1 28:3 
-1 4:2 8:2 9:1 19:2 
-1 7:1 8:1 16:1 28:4 
-1 3:1 4:2 14:3 19:1 
-1 6:2 7:1 16:3 19:1 
-0.6767561219962506 14:4 18:2 33:1 
-0.08298814188242402 6:3 20:4 
-1 3:5 8:2 
-1 8:2 28:5 
-0.4087493331964759 6:2 18:1 20:2 25:1 28:1 
-1 3:2 7:1 14:3 16:1 
-0.6887671012897771 8:4 15:3 
-1 4:3 8:1 14:2 19:1 
-1 6:2 14:2 22:1 28:2 
-1 7:2 8:5 
-1 11:2 14:2 18:2 30:1 
-1 8:5 14:1 20:1 
-0.9740923744886285 6:3 20:4 
-1 6:2 33:5 
-1 7:2 11:1 14:2 35:2 
-1 3:2 4:1 5:3 8:1 
-1 20:3 25:4 
-0.9134901542446302 5:2 24:5 
-1 24:6 38:1 
-0.04784348058358262 6:3 8:4 
-0.0440946279414525 5:2 22:2 24:3 
-1 6:7 
-0.6415533939173106 6:3 8:1 22:3 
-1 6:3 14:1 16:2 19:1 
-1 5:3 20:3 34:1 
-1 6:2 7:2 14:1 20:1 34:1 
-1 3:4 8:1 19:1 36:1 
-1 6:7 
-0.3796696313236721 11:3 24:4 
-0.2536292969639032 6:7 
-0.680752092104234 4:1 5:1 8:3 14:1 19:1 
-1 8:4 19:1 29:2 
-0.432794271164854 4:1 5:1 11:4 14:1 
-1 8:6 14:1 
-1 8:5 33:2 
-0.2939425846297443 6:1 7:2 8:3 18:1 
-0.2026549165472675 19:1 24:6 
-1 6:4 22:3 
-1 6:3 35:4 
-0.8668584069308999 24:6 35:1 
-0.1489288386933477 3:1 9:1 14:1 21:2 29:1 34:1 
-1 18:3 22:3 34:1 
-1 4:2 5:2 6:1 19:2 
-1 7:2 8:3 14:2 
-0.8581039286730102 8:3 26:4 
-0.8434841016391091 8:1 10:1 19:1 20:4 
-1 4:3 8:2 14:1 
-1 3:3 11:1 14:1 19:1 
-1 29:4 35:2 
-1 3:3 14:1 34:2 
-1 7:2 8:2 16:2 
-1 4:3 8:1 16:1 19:1 
-1 3:2 5:2 14:1 19:1 
-1 3:1 6:1 7:1 20:2 34:1 
-0.7650268625368964 8:3 18:3 
-1 11:1 14:3 19:2 
-1 6:2 20:2 34:1 35:1 
-0.6727475456388847 11:2 19:1 31:3 
-0.2000950622472183 6:2 16:1 20:3 
-1 4:1 6:1 11:3 34:1 
-0.6242521887111896 6:3 28:3 
-0.4029531701564879 5:2 31:4 
-1 6:2 16:4 
-1 4:3 8:2 11:1 
-1 8:4 16:2 
-1 4:1 7:1 14:3 19:1 
-1 8:1 11:2 28:3 
-0.3357662143496123 18:6 
-1 8:1 18:4 34:1 
-1 8:2 19:1 28:3 
-1 8:4 19:2 
-1 5:3 16:1 19:1 22:1 
-1 6:1 21:2 28:3 
-0.3780345887140616 5:3 11:1 19:1 30:1 
-1 4:2 8:2 28:2 
-1 8:4 20:2 
-0.9409514742566137 6:3 21:1 33:2 
-1 14:1 19:5 
-1 4:1 14:4 19:1 
-1 1:3 14:3 
-1 4:1 8:4 19:1 
-1 14:6 
-1 7:4 8:2 
-1 14:1 31:4 33:1 
-0.7755551161295181 10:2 19:1 28:3 
-1 20:2 24:1 28:3 
-0.4700535560693714 6:3 7:2 11:1 
-1 3:2 20:4 
-0.9292958210622549 7:1 9:1 14:2 34:1 35:1 
-1 5:4 6:2 
-1 6:3 8:2 16:1 
-0.1181841372896873 3:1 9:2 14:2 19:1 
-1 6:5 14:1 
-1 3:1 6:1 18:1 19:2 20:1 
-1 9:6 
-1 5:1 6:3 14:1 19:1 
-1 6:4 19:1 21:1 
-1 12:6 
-1 8:3 20:3 
-1 3:1 6:1 28:4 
-1 8:1 28:5 
-1 8:5 14:1 
-1 6:1 19:1 20:4 
-0.5040388099638604 6:3 19:1 35:2 
-1 11:1 16:4 18:1 
-1 3:2 4:1 6:1 34:2 
-1 14:1 19:5 
-1 8:1 14:1 28:4 
-1 3:2 4:1 14:3 
-1 5:5 19:1 
-0.1588276395632696 4:2 8:2 11:1 19:1 
-1 5:1 6:4 18:1 
-1 8:4 35:2 
-0.4412952462051138 6:4 20:1 34:1 
-0.1418397891836501 19:2 24:4 
-1 5:3 14:2 33:1 
-1 6:1 7:4 9:1 
-0.24900812228313 6:2 7:1 22:2 33:1 
-1 8:3 14:1 28:2 
-1 4:1 33:5 
-1 3:5 14:1 
-1 4:1 6:3 19:1 20:1 
-1 3:1 15:3 34:1 35:1 
-1 4:2 8:1 9:1 19:2 
-0.2304823406543955 4:4 8:2 
-1 8:1 20:4 28:1 
-1 3:2 6:2 18:1 20:1 
-1 8:1 16:2 19:2 30:1 
-1 5:1 6:1 15:2 16:1 19:1 
-1 6:3 8:1 16:1 20:1 
-1 4:1 11:1 14:1 19:2 20:1 
-1 1:6 
-1 6:2 11:3 37:1 
-1 6:3 16:1 20:2 
-0.7674866309458158 11:2 29:2 35:1 36:1 
-1 8:5 14:1 
-0.7443860545866355 6:1 8:1 14:1 27:3 
-1 6:5 14:1 
-1 6:3 20:2 22:1 
-1 14:2 19:4 
-0.3637241425492181 14:1 16:2 31:2 34:1 
-0.7322345354670778 6:6 
-1 6:6 
-1 6:1 7:1 14:3 36:1 
-1 14:6 
-1 4:2 6:1 8:1 19:1 22:1 
-1 3:2 4:1 6:2 20:1 
-0.8126035184433148 5:1 6:4 11:1 
-1 6:2 19:1 20:3 
-1 28:5 35:1 
-1 6:6 
-1 25:6 
-1 8:4 19:1 20:1 
-0.3182270294270498 6:1 8:1 31:3 35:1 
-1 14:5 31:1 
-1 6:6 
-1 6:6 
-1 8:1 11:1 28:4 
-1 6:3 7:3 
-0.8537075715217062 19:1 20:5 
-1 3:3 14:2 28:1 
-1 6:6 
-1 4:1 8:4 37:1 
-1 16:6 
-1 6:1 31:5 
-1 14:6 
-1 24:5 34:1 
-1 4:1 8:2 16:1 19:1 36:1 
-0.9505001791560878 6:4 20:1 34:1 
-0.2879987184975121 24:6 
-1 4:3 11:1 14:2 
-0.8954198906304245 5:2 6:2 16:1 34:1 
-1 12:5 36:1 
-0.9993844602904433 6:6 
-0.3874669493641182 14:5 
-0.4830667245411946 8:2 19:1 28:2 
-1 3:4 36:1 
-1 14:5 
-1 6:1 8:3 16:1 
-1 7:5 
-1 4:1 8:4 
-0.3596757972989891 6:2 22:2 34:1 
-1 3:4 19:1 
-1 4:3 8:2 
-1 8:3 12:2 
-1 3:2 4:1 19:1 33:1 
-1 6:1 16:4 
-0.6353845429703386 6:1 8:2 34:1 35:1 
-1 14:5 
-1 6:1 8:2 24:2 
-0.5792523394128247 6:1 8:2 24:2 
-0.3568197779081574 6:3 18:2 
-1 4:1 8:4 
-1 6:1 8:1 16:2 19:1 
-1 6:4 34:1 
-1 3:1 14:1 19:2 35:1 
-1 1:3 24:2 
-1 7:1 14:2 18:1 20:1 
-0.05345831624795588 9:3 29:1 36:1 
-0.2443992206718535 15:3 21:2 
-1 6:1 12:1 14:1 15:2 
-1 5:2 6:1 19:2 
-1 3:1 14:1 20:3 
-0.7995735427087837 3:2 19:3 
-1 4:1 6:3 11:1 
-0.6934857020339154 6:2 20:2 35:1 
-1 4:1 6:2 7:1 8:1 
-1 8:2 9:1 19:1 34:1 
-1 4:1 6:4 
-0.142699262751354 8:2 11:2 34:1 
-1 5:4 6:1 
-1 4:1 14:1 19:1 20:1 33:1 
-1 8:2 9:1 11:1 20:1 
-1 8:1 14:2 20:1 31:1 
-0.7979126762228715 4:1 6:2 19:1 20:1 
-1 4:1 14:2 19:2 
-1 8:1 9:1 28:2 35:1 
-1 8:1 28:4 
-1 6:3 19:1 21:1 
-0.8123319100599327 5:1 14:3 16:1 
-1 2:3 6:1 7:1 
-1 6:4 14:1 
-1 6:4 14:1 
-1 8:3 31:2 
-1 8:2 31:3 
-0.3915849597976138 6:3 11:1 34:1 
-1 3:1 8:1 16:3 
-1 4:1 6:3 11:1 
-0.7894454050842564 5:2 8:1 14:2 
-1 5:3 19:1 22:1 
-1 7:3 20:1 33:1 
-0.8651098493889759 8:2 14:1 28:1 35:1 
-1 4:1 14:2 19:1 29:1 
-1 5:1 6:4 
-1 4:2 14:1 22:1 29:1 
-1 14:2 33:3 
-1 3:5 
-0.5593001140707717 33:5 
-0.8994654484963148 6:1 19:1 31:3 
-1 34:5 
-1 8:2 29:3 
-0.4575318405503502 3:1 5:2 11:1 19:1 
-1 3:1 14:2 28:1 35:1 
-1 11:1 14:1 19:1 20:2 
-1 14:2 19:2 20:1 
-1 11:1 14:2 18:2 
-0.5352520498977044 4:2 6:3 
-1 8:1 28:4 
-1 6:4 22:1 
-0.1664426074785269 7:4 8:1 
-0.2437354251001103 14:2 15:1 33:2 
-0.3210481877936466 6:2 20:2 28:1 
-1 11:1 28:4 
-1 3:2 19:3 
-1 6:1 8:3 16:1 
-0.8757661694302993 4:1 11:1 22:3 
-1 3:4 19:1 
-1 8:2 11:1 16:2 
-1 16:5 
-1 11:1 16:4 
-1 3:1 16:4 
-1 4:1 28:4 
-1 1:5 
-0.2788521585195767 15:5 
-1 6:4 14:1 
-0.956217865022895 14:5 
-1 4:1 8:1 28:3 
-1 6:1 8:1 11:1 16:2 
-0.5442126022839093 4:2 14:1 19:2 
-1 5:3 11:2 
-1 8:1 28:4 
-0.01547878397282772 16:1 33:4 
-0.7380793509685469 8:1 28:4 
-1 3:1 19:1 35:3 
-0.6208503192009517 19:2 26:3 
-1 6:1 8:1 16:3 
-0.5836255815749677 8:2 20:1 34:1 36:1 
-1 5:4 14:1 
-0.1284261951624832 9:4 34:1 
-1 6:4 34:1 
-0.2312337461909596 21:1 28:4 
-0.8939398383340773 16:2 24:1 35:1 36:1 
-1 4:2 8:3 
-1 8:2 28:3 
-1 8:1 31:4 
-0.114488605222602 6:2 11:3 
-0.5353075182459252 6:1 8:2 19:1 35:1 
-1 7:1 14:3 19:1 
-0.6000713582199074 6:3 14:1 36:1 
-0.06097153121349635 11:4 37:1 
-0.3680577351163476 3:1 8:1 19:1 36:2 
-0.5450897016719698 7:2 8:3 
-0.3498723369472306 8:3 19:2 
-0.1581470756686042 24:4 38:1 
-0.05458652727274028 8:1 19:1 28:3 
-1 6:2 8:1 25:2 
-1 3:1 29:2 33:1 
-0.5363941840221699 4:2 14:2 
-1 11:1 18:3 
-0.8430392137799048 6:1 19:1 20:1 33:1 
-1 14:1 28:3 
-1 5:2 6:1 19:1 
-1 8:3 16:1 
-0.347481257447709 6:3 38:1 
-1 3:4 
-1 8:2 16:1 19:1 
-0.237504094675427 5:2 6:1 14:1 
-1 1:2 8:2 
-1 6:1 21:3 
-1 11:1 18:1 19:1 20:1 
-1 3:1 4:1 14:2 
-1 1:1 4:1 11:1 14:1 
-1 6:1 19:1 21:2 
-1 7:4 
-1 6:1 15:3 
-1 5:2 14:2 
-1 7:2 14:2 
-0.9825926909068408 14:1 16:1 22:1 29:1 
-0.8434829546950822 5:2 6:1 29:1 
-1 3:1 22:3 
-1 4:1 8:1 18:2 
-1 6:3 22:1 
-1 8:2 28:2 
-1 3:4 
-0.4746891125112611 5:4 
-1 19:1 20:2 35:1 
-0.7353175593267685 4:1 8:3 
-1 6:3 34:1 
-1 6:1 9:1 20:2 
-1 14:2 19:2 
-0.1328352730372938 6:3 25:1 
-1 1:3 24:1 
-1 4:1 14:2 19:1 
-1 6:2 19:1 22:1 
-1 16:4 
-1 4:1 14:2 19:1 
-1 8:1 11:1 20:2 
-1 14:2 16:2 
-1 4:2 8:2 
-0.1004628844189388 1:2 4:1 24:1 
-1 6:1 14:2 19:1 
-1 14:2 19:2 
-1 4:2 26:2 
-1 8:1 9:1 11:1 20:1 
-1 11:2 28:2 
-1 14:2 19:2 
-0.1639853870531073 4:1 6:2 19:1 
-1 6:2 19:1 22:1 
-1 3:3 29:1 
-0.2314678252426405 7:1 14:1 35:2 
-1 3:4 
-1 1:3 8:1 
-1 24:3 36:1 
-1 6:1 7:2 14:1 
-1 1:2 14:2 
-1 3:1 35:3 
-1 6:1 14:2 19:1 
-1 6:1 16:3 
-1 4:1 14:2 19:1 
-0.0006992260958060179 4:1 8:3 
-0.953146076417011 6:2 11:1 25:1 
-1 3:2 29:1 35:1 
-0.0826606282294127 6:3 12:1 
-1 3:4 
-1 4:1 5:1 19:1 20:1 
-1 8:2 34:1 35:1 
-0.7084824279657325 6:1 10:1 14:1 35:1 
-0.07758659024443892 8:1 16:2 34:1 
-1 6:2 16:2 
-0.1384968638135214 8:2 20:2 
-1 6:3 34:1 
-0.9012290416966293 6:2 24:2 
-1 8:2 16:2 
-0.7560717827876299 5:1 11:1 14:2 
-1 16:3 19:1 
-1 11:1 20:2 34:1 
-1 6:2 16:1 19:1 
-1 4:2 8:2 
-1 20:1 24:1 29:2 
-1 18:2 34:1 35:1 
-0.1556205614305551 8:1 16:2 33:1 
-1 14:3 19:1 
-1 11:1 20:2 34:1 
-0.8940502967244444 6:2 24:2 
-1 8:1 11:2 34:1 
-1 24:3 34:1 
-1 1:1 20:2 24:1 
-0.1092723691356683 14:1 19:3 
-1 7:1 28:3 
-1 5:1 6:1 14:1 19:1 
-0.7011883088954373 3:3 35:1 
-1 6:3 37:1 
-1 4:1 6:1 16:1 
-0.01144836349545509 6:2 16:1 
-0.1580797416965546 29:3 
-0.5372924342008847 19:2 21:1 
-1 5:1 19:2 
-0.7915061945254777 3:1 35:2 
-1 34:1 35:2 
-0.7979127924094573 7:1 14:2 
-1 8:1 25:2 
-1 35:1 36:2 
-1 14:2 19:1 
-0.06939319165417469 6:1 8:1 11:1 
-1 11:1 37:2 
-1 11:1 34:2 
-1 8:2 10:1 
-0.09470808840401129 8:2 35:1 
-1 6:1 19:1 29:1 
-0.8752850649861001 6:1 8:1 24:1 
-0.3823993180075698 18:3 
-1 6:1 8:1 11:1 
-1 3:1 20:2 
-1 20:1 35:2 
-0.8019051957646584 8:1 11:2 
-0.959578038528408 6:2 22:1 
-1 8:2 35:1 
-0.7646045644908361 29:1 35:2 
-1 14:2 19:1 
-1 8:1 11:2 
-0.9514180853846886 29:3 
-1 2:2 14:1 
-1 14:2 19:1 
-1 14:2 19:1 
-1 8:1 20:1 29:1 
-0.3176238475998309 6:1 11:2 
-1 6:1 8:1 11:1 
-0.03736451238909248 16:3 
-1 30:3 
-1 14:2 19:1 
-1 8:1 35:2 
-1 8:1 11:2 
-0.9934443389553913 16:3 
-1 14:1 20:1 33:1 
-0.5602286783731628 11:2 34:1 
-0.7249428706429739 6:2 8:1 
-1 6:2 8:1 
-1 4:1 7:1 8:1 
-1 6:2 36:1 
-0.648313567864567 6:2 23:1 
-0.02154997939936875 4:1 8:1 25:1 
-1 6:2 8:1 
-0.646175329488933 6:1 11:1 20:1 
-1 6:2 8:1 
-0.8982945686027731 6:2 14:1 
-0.009217120268148705 4:1 6:2 
-1 14:2 28:1 
-1 6:2 21:1 
-1 8:2 35:1 
-1 6:1 8:1 11:1 
-1 6:2 8:1 
-1 6:2 8:1 
-1 8:1 19:1 35:1 
-1 6:1 19:1 35:1 
-1 8:1 11:2 
-1 14:1 25:1 35:1 
-1 8:2 35:1 
-1 19:1 24:1 35:1 
-1 6:1 11:2 
-1 8:2 10:1 
-1 6:1 11:2 
-0.4706907143480139 28:3 
-1 6:2 8:1 
-1 14:2 19:1 
-1 11:1 20:2 
-1 6:1 11:2 
-1 6:2 8:1 
-1 6:2 8:1 
-1 6:1 11:2 
-1 19:2 35:1 
-1 14:1 19:2 
-1 26:3 
-1 8:1 28:1 34:1 
-1 6:2 8:1 
-1 6:2 8:1 
-0.1297328849466783 11:3 
-0.7127696072750571 6:1 8:1 11:1 
-1 6:1 8:1 24:1 
-1 6:1 8:1 24:1 
-1 6:1 11:2 
-1 11:3 
-1 11:3 
-1 6:2 8:1 
-1 35:3 
-0.9369131306056024 6:2 8:1 
-1 11:1 20:2 
-1 8:1 35:2 
-1 11:3 
-1 11:3 
-1 14:2 19:1 
-1 4:1 11:1 20:1 
-0.9810739889136695 21:2 35:1 
-1 8:2 35:1 
-0.7391268736384016 24:2 36:1 
-1 11:3 
-0.1526473128584215 7:2 14:1 
-0.8309099242289093 11:3 
-0.7047684222635372 6:2 8:1 
-0.5111783064949796 6:1 24:2 
-1 6:1 8:1 24:1 
-0.7905314574548667 24:3 
-1 24:3 
-1 11:3 
-1 24:3 
-1 6:1 14:1 36:1 
-1 24:3 
-1 6:2 8:1 
-1 24:3 
-1 11:3 
-0.9954043952551535 11:2 34:1 
-1 24:3 
-1 24:3 
-1 11:3 
-1 8:2 35:1 
-1 6:2 8:1 
-1 24:3 
-1 11:3 
-0.4017507761320904 24:3 
-0.824401463401055 6:2 8:1 
-0.1779751892167173 11:3 
-1 6:2 
-1 6:2 
-1 6:2 
-0.2687153590958813 8:2 
-0.9618229283983855 24:2 
-1 8:2 
-1 6:2 
-1 24:2 
-1 6:2 
-1 6:1 8:1 
-0.4476655170287484 8:1 25:1 
-1 34:2 
-1 25:2 
-0.01538015868984681 18:2 
-0.02092951507348823 28:2 
-0.3287531621665602 6:1 8:1 
-0.5469307645133035 35:2 
-1 6:1 8:1 
-1 8:2 
-0.8378295093285969 6:2 
-0.4394535187957283 8:2 
-0.5956307296585923 24:2 
-0.5985552504189668 28:2 
-1 28:2 
-1 24:2 
-1 6:2 
-1 6:2 
-0.07529049137694602 21:2 
-1 6:2 
-1 24:2 
-1 14:1 28:1 
-0.02260465256178838 18:2 
-0.2143566021293934 8:1 37:1 
-0.1578867727918709 11:2 
-0.531376768075287 8:2 
-0.1590789671603098 6:1 8:1 
-0.07434582819808354 6:2 
-0.2879706349848717 24:2 
-1 24:2 
-1 6:1 8:1 
-1 8:2 
-1 6:1 8:1 
-1 6:2 
-1 11:1 20:1 
-1 28:2 
-0.5844971159670239 11:2 
-0.3449868813942006 24:2 
-0.4276961821507023 6:2 
-0.240283990011246 8:2 
-1 24:2 
-1 8:2 
-0.5849823526024619 6:1 8:1 
-1 8:2 
-1 8:2 
-1 24:2 
-1 17:1 22:1 
-0.5668867525915695 6:1 8:1 
-1 6:2 
-1 6:2 
-1 6:2 
-1 6:2 
-1 24:2 
-1 6:2 
-1 6:1 8:1 
-1 28:2 
-1 24:2 
-1 24:2 
-0.8904997715242413 24:2 
-1 6:2 
-0.5980506129178345 8:2 
-1 6:2 
-1 6:2 
-0.4766748225622427 6:1 8:1 
-0.4666363462087691 28:1 29:1 
-1 18:1 28:1 
-1 28:2 
-1 28:1 35:1 
-1 19:1 35:1 
-0.01029106685676472 18:2 
-1 34:2 
-0.5720972306849275 14:1 35:1 
-0.8510532860934454 8:1 25:1 
-1 3:1 20:1 
-0.9302351486300716 19:1 34:1 
-0.02044727062060642 6:1 36:1 
-0.5749707415821862 14:1 35:1 
-1 28:2 
-1 14:1 28:1 
-1 19:1 34:1 
-1 28:2 
-0.1091979301760783 6:1 8:1 
-0.3046241748355881 8:2 
-0.1269102694864253 21:2 
-0.03534725641141539 6:1 21:1 
-1 8:2 
-0.5349401536358266 24:2 
-1 18:1 36:1 
-0.9681143229695499 18:2 
-1 28:2 
-0.03950647143885705 30:2 
-0.4742608621102862 11:2 
-0.9281613264849224 35:2 
-1 11:2 
-1 21:2 
-0.850545821376146 24:2 
-0.698044464780474 6:2 
-0.5028189388823452 8:2 
-1 11:2 
-0.3336748526147424 6:2 
-0.8193634485181965 24:2 
-0.1231614144672849 6:1 8:1 
-0.2283377763284027 6:1 8:1 
-1 24:2 
-0.2438685309517614 11:2 
-1 11:2 
-1 11:1 18:1 
-0.3970681054552491 18:2 
-0.06322439378246789 6:2 
-1 15:1 20:1 
-1 28:2 
-0.794569236539889 8:2 
-1 8:2 
-0.09491290254081838 6:1 8:1 
-1 11:2 
-0.3804333751439553 24:2 
-0.8824349793218854 8:1 25:1 
-1 11:1 20:1 
-0.7684249107688769 8:2 
-0.9499632595693461 35:2 
-0.717816252039941 8:2 
-0.4451771866398498 6:2 
-0.01969728044153479 11:2 
-1 8:2 
-1 14:1 36:1 
-1 8:2 
-1 8:2 
-1 8:2 
-1 8:2 
-0.1799014586649857 6:1 8:1 
-1 8:2 
-1 8:2 
-1 6:1 8:1 
-1 6:1 8:1 
-1 6:1 8:1 
-0.7656148566489395 6:2 
-1 6:2 
-1 6:1 8:1 
-1 6:1 8:1 
-1 34:2 
-1 6:1 8:1 
-1 6:1 8:1 
-1 6:1 8:1 
-1 8:2 
-1 6:2 
-1 34:1 35:1 
-1 8:2 
-1 21:2 
-1 6:2 
-1 8:2 
-1 6:2 
-1 6:2 
-1 6:2 
-1 6:2 
-1 6:2 
-1 8:2 
-1 6:1 8:1 
-1 6:1 8:1 
-1 6:2 
-1 6:1 8:1 
-1 6:2 
-0.02538383181745991 11:2 
-1 6:1 8:1 
-1 6:1 8:1 
-1 28:2 
-1 8:2 
-1 24:2 
-1 6:2 
-1 6:1 8:1 
-1 6:2 
-0.7514787435601263 39:2 
-1 6:1 8:1 
-1 6:1 8:1 
-1 6:1 8:1 
-1 6:1 8:1 
-0.6473384502095564 11:2 
-1 8:2 
-1 28:2 
-1 8:2 
-1 6:2 
-1 3:1 20:1 
-1 8:2 
-1 8:2 
-1 8:2 
-1 6:1 8:1 
-1 6:1 8:1 
-1 11:2 
-1 6:1 8:1 
-1 8:2 
-1 8:2 
-1 8:2 
-0.5033637743501088 24:2 
-1 8:2 
-1 24:2 
-1 8:2 
-1 24:2 
-0.6032797948640598 6:1 24:1 
-1 6:1 8:1 
-1 6:2 
-1 8:2 
-1 6:2 
-1 6:1 8:1 
-1 6:1 8:1 
-1 24:2 
-1 24:2 
-1 6:2 
-1 8:2 
-1 8:2 
-1 24:2 
-1 24:2 
-1 6:2 
-1 6:1 8:1 
-1 6:2 
-1 24:2 
-1 6:2 
-1 24:2 
-1 6:1 8:1 
-1 6:2 
-0.5710173066355166 4:1 
-0.288073996051704 8:1 
-0.3019607964657086 6:1 
-1 8:1 
-1 4:1 
-1 4:1 
-0.03154754651618392 14:1 
-1 4:1 
-0.08101432451087359 14:1 
-1 4:1 
-1 37:1 
-1 4:1 
-0.7860514760721946 37:1 
-0.4196018624212743 4:1 
-0.07559551466954284 14:1 
-0.06014485357683826 14:1 
-0.02021505624688242 14:1 
-0.7375814394350724 14:1 
-0.8632880379145651 37:1 
-1 14:1 
-0.5064080878949591 4:1 
-1 4:1 
-0.6555381421870501 6:1 
-0.9731463181214715 36:1 
-0.7682682174227036 8:1 
-1 8:1 
-1 8:1 
-1 6:1 
-1 8:1 
-1 6:1 
-1 14:1 
-1 4:1 
-0.1060688506894224 14:1 
-1 4:1 
-0.09393309340177748 14:1 
-0.1277200016615128 14:1 
-0.1177724753591371 4:1 
-0.05428652590592205 4:1 
-0.0114439646425949 38:1 
-0.5525886995052049 4:1 
-1 8:1 
-0.4580775967568729 6:1 
-1 8:1 
-1 8:1 
-1 8:1 
-1 8:1 
-1 8:1 
-1 6:1 
-1 6:1 
-1 8:1 
-1 6:1 
-1 37:1 
-0.514174801205869 13:1 
-1 37:1 
-1 37:1 
-1 23:1 
-0.2635010372434 38:1 
-0.76217903439459 14:1 
-1 14:1 
-1 8:1 
-1 14:1 
-1 14:1 
-1 4:1 
-1 4:1 
-1 14:1 
-1 14:1 
-1 4:1 
-1 4:1 
-1 14:1 
-1 14:1 
-0.337406475552064 8:1 
-1 8:1 
-1 8:1 
-1 8:1 
-1 8:1 
-1 8:1 
-1 8:1 
-1 8:1 
-1 8:1 
-1 8:1 
-1 8:1 
-1 8:1 
-1 8:1 
-1 8:1 
-0.08604014160543619 6:1 
-1 6:1 
-1 6:1 
-1 4:1 
-1 8:1 
-1 6:1 
-1 8:1 
-1 8:1 
-1 8:1 
-1 8:1 
-1 6:1 
-1 6:1 
-1 8:1 
-1 6:1 
-1 14:1 
-1 6:1 
-1 8:1 
-1 8:1 
-1 6:1 
-1 8:1 
-1 6:1 
-1 14:1 
-1 6:1 
-1 
-1 
-1 
-1 
-1 
-1 
-1 
-1 
-1 
-1 
-1 
-1 
-1 
-1 
-1 
-1 
-1 
-1 
-1 
-1 
-1 
-1 
-1 
-1 
-1 
-1 
-1 
-1 
-1 
-1 
-1 
-1 
-1 
-1 
-1 
-1 
-1 
-1 
-1 
-1 
-1 
-1 
-1 
-1 
-1 
-1 
-1 
-1 
-1 
-1 
-1 
-1 
-1 
-1 
-1 
-1 
-1 
-1 
-1 
-1 
-1 
-1 
-0.6346201657612252 
-1 
-1 
-1 
-1 
-1 
-1 
-1 
-1 
-1 
-1 
-1 
-1 
-1 
-1 
-1 
-1 
-1 
-1 
-1 
-1 
-1 
-1 
-1 
-1 
-1 
-1 
-1 
-1 
-1 
-1 
-1 
-1 
-1 
-1 
-1 
-1 
-1 
-1 
-1 
-1 
-1 
-1 
-1 
-1 
-1 
-1 
-1 
-1 
-1 
-1 
-1 
-1 
-1 
-1 
-1 
-1 
-1 
-1 
-1 
-1 
-1 
-1 
