#global bias W0
-2.69623
#unary interactions Wj
0.756253
0.581695
0.149218
0.0633361
0.427874
-0.148163
-0.0081346
0.424784
0.129537
0.647544
-0.0254858
0.521728
0.63721
0.991114
-0.00779976
0.366477
0.31003
0.55899
0.0791165
0.466422
0.433613
0.272944
0.756496
0.945951
0.744439
0.63349
0.270868
0.12984
0.157497
0.49698
0.81878
0.665647
0.512606
0.750632
-0.38724
0.314477
0.46269
1.08612
0.880857
0.894748
0.215762
0.460918
-0.44601
0.666997
0.938242
0.0610068
0.0661613
0.401058
0.176419
0.362379
0.7748
0.935213
0.979928
0.0818921
-0.185072
-0.0810433
0.620774
0.154261
0.844345
0.286509
0.537454
1.07999
0.138222
0.812395
0.430032
0.296467
0.229523
0.348566
0.454926
0.463544
-0.360144
1.05476
0.436183
0.767523
0.120106
0.794415
0.322716
0.982105
0.407673
0.469962
0.2949
-0.170647
0.438189
0.431818
0.685491
0.412521
0.166293
0.0148895
0.863534
0.523938
0.499788
-0.0847205
0.626929
0.576616
0.938398
0.41877
1.03159
0.41519
0.68813
0.896163
0.285439
-0.470611
0.880213
0.463503
-0.00187192
0.46922
0.328121
0.865916
0.379978
0.116189
0.578208
0.291419
0.663803
0.195884
0.721264
0.0392504
0.356046
-0.0779433
0.00148155
0.109866
0.404269
1.1165
0.0971107
0.553563
0.0380227
0.497211
0.52312
0.400251
0.596471
0.0690094
0.196101
0.21125
0.222539
-0.142233
0.114761
-0.504784
0.343064
0.412651
0.453015
0.336446
0.0399312
0.245984
0.187951
0.521652
0.407517
0.347636
1.47835
0.801048
-0.0893666
0.471337
0.83126
0.703433
0.852446
0.0308329
0.783046
0.279818
-0.195805
0.699698
0.105861
0.205646
0.20251
-0.00981165
0.135453
0.541318
0.224345
0.0611799
-0.195051
-0.0641331
-0.118883
0.699867
0.881933
0.511173
0.517449
0.614911
0.317451
0.477262
0.484465
0.34326
0.481736
0.333256
0.578591
-0.0799704
0.304092
-0.0182549
0.651531
0.858661
0.505798
0.247398
0.145633
0.453836
0.573391
-0.503274
0.57139
0.436706
0.992506
-0.389191
0.074492
0.386525
0.427113
0.905012
0.137413
0.38735
0.338105
0.464331
0.0554414
1.23674
0.384907
0.160052
-0.264557
0.355541
0.414889
-0.142751
0.323406
0.672831
1.34758
0.666146
0.562641
0.523818
-0.0580778
0.517097
-0.0391332
0.63688
-0.114297
0.390673
-0.160459
0.703664
0.21048
0.122616
0.190293
0.21417
0.446802
0.728067
0.272447
0.655624
-0.0533215
-0.120911
0.343982
0.995515
0.325229
-0.205818
0.28233
0.338316
0.0756535
0.534965
0.204139
0.386384
0.745212
0.05515
0.400102
0.304161
0.788653
0.53615
0.256962
0.203624
0.789983
1.13341
-0.123284
0.984239
0.757048
0.653555
0.441838
0.125268
-0.0480005
0.402197
0.841451
0.0428631
0.197615
0.497384
0.250509
0.221968
0.203748
#pairwise interactions Vj,f
-0.08658 0.755306 -0.511942 0.367128 0.327687 -0.582014 -0.495211 0.373311
-0.441283 -0.453124 -0.609752 -0.148459 -0.248986 -0.188153 -0.539421 -0.116916
0.165113 0.47031 -0.617669 -0.30394 0.123829 -0.140991 -0.30765 -0.188556
0.0847422 0.410457 0.0591434 -0.611914 -0.292937 -0.0954429 0.611154 -0.159537
-0.627544 0.323527 0.747377 0.242818 -0.625654 -0.0865183 0.175713 0.341353
-0.139422 0.641637 0.0778825 0.336363 0.330807 -0.11452 -0.520895 -0.0150108
-0.385212 0.00812609 -0.621101 0.389427 0.171089 -0.19828 -0.422249 -0.27547
0.151531 0.220345 -0.480399 -0.190209 -0.503475 0.0539464 0.0892446 -0.0724186
-0.350436 -0.0785111 0.141093 0.146583 0.856149 -0.122306 -0.48882 -0.707309
0.0131216 -0.341105 -0.421887 -0.0106401 0.15723 -0.369255 -0.407257 -0.120028
-0.0265762 -0.288687 0.0974816 -0.359241 -0.0982094 -0.265924 0.0500285 0.227804
0.396074 0.289363 0.364761 0.352658 -0.148774 -0.0105707 -0.0496969 0.299631
0.0933494 -0.0148761 0.329793 -0.422551 -0.197321 -0.191015 -0.914809 0.998811
0.298712 0.776946 -0.679762 0.200961 -0.387588 0.493193 -0.231282 -0.0496967
0.354896 0.0425493 -0.191245 -0.187054 0.0679047 -0.509819 0.171919 0.290972
-0.102309 0.135265 -0.0166187 -0.243676 -0.0495503 -0.00153904 0.20887 0.561896
0.48344 -0.0675143 0.0171435 -0.192363 -0.0384308 0.0145559 0.396536 -0.121329
-0.297189 0.0787687 -0.0979213 0.339284 0.323693 -0.66983 -0.846543 0.0495247
0.246912 -0.0434477 0.00576278 0.0650586 -0.336695 -0.442094 -0.354055 0.303139
-0.120193 -0.053875 0.0282025 -0.0485493 -0.199725 0.258135 -0.0960284 0.972568
-0.2496 0.445596 0.297683 -0.00538769 -0.383157 0.324894 0.0737552 0.529239
0.410405 0.0313122 0.305512 -0.486075 -0.0727613 0.149656 -0.705229 -0.122371
0.0544308 0.553804 -0.0314685 -0.437246 -0.0165097 -0.293608 0.156009 -0.283036
-0.0132908 0.800143 0.0578411 -0.22769 -0.586576 -0.171478 -0.387505 0.615461
0.178583 -0.0751246 0.387128 -0.56881 0.583862 -0.346655 0.524981 -0.459065
-0.0970924 -0.220912 1.09317 0.00128492 -0.00318363 0.381527 -0.121875 -0.344344
0.140544 0.307047 -0.441569 0.201157 0.139553 -0.331046 -0.145536 -0.120696
-0.423599 0.313437 -0.43824 -0.160227 -0.123975 -0.0706224 -0.258253 -0.311279
0.100477 0.282635 -0.374712 -0.300504 0.268184 0.275526 0.14378 0.0252587
-0.0300201 0.531361 0.610271 0.406152 -0.255787 -0.589154 -0.664806 0.00279187
-0.121543 0.30006 0.295673 0.0116079 -0.73932 0.354498 0.329863 0.250261
1.01734 -0.0626555 0.60785 -0.292943 -0.35358 0.199327 1.05087 0.055873
0.240114 -0.0762042 -0.383333 0.00740613 -0.535285 0.0925302 0.461183 0.13013
0.0855711 -0.272108 -0.127125 0.213478 -0.0138407 -0.325928 -0.11159 0.594268
0.497024 0.891223 -0.103988 -0.128486 -0.348972 -0.54609 0.412946 -0.242086
0.235441 0.36481 0.0054818 0.123475 -0.267474 0.707042 -0.73755 -0.0954106
-0.135066 0.590954 -0.0463918 0.0290611 0.0912987 -0.334305 0.374413 -0.693571
0.170105 0.415535 -0.405053 -0.509269 0.288713 0.0969111 0.792308 0.232142
-0.0872996 0.195101 -0.406128 -0.230554 -0.402835 -0.0291144 0.436841 0.134266
0.36592 0.438856 -0.47427 -0.34953 0.0329037 0.171708 1.00765 0.495051
-0.303827 0.398351 -0.386534 0.146122 0.310304 0.0520749 0.587671 -0.465361
0.221748 -0.206602 0.481439 -0.187599 1.0091 -0.282402 0.424536 -0.448539
0.346575 -0.0631082 -0.11798 -0.00738381 0.0312369 -0.554505 0.111794 0.866161
0.130895 -0.109919 0.64451 -0.16645 0.200407 0.151886 0.0801607 0.370976
-0.479908 -0.269953 -0.388388 -0.180488 0.156213 0.130635 0.0424658 0.178415
-0.293453 0.397676 -0.222931 0.169585 -0.0923074 0.00658155 -1.09706 0.529609
0.15074 -0.0340067 0.113704 -0.0758742 0.444872 -0.37473 -0.430481 0.212413
0.0729668 0.200012 0.0838865 -0.163195 0.301036 0.689284 0.364895 0.217552
-0.0751614 0.418541 0.140611 -0.625037 0.518367 0.271377 0.397394 -0.42057
0.252198 -0.117049 0.0565099 -0.0981099 0.178603 -0.0415697 0.0391151 -0.0504527
0.299988 0.814401 -0.025933 0.0294508 -0.106769 -0.0970786 0.204245 -0.625582
-0.0717303 0.676402 0.139328 -0.25452 0.254906 -0.150521 -0.203563 -0.195184
-0.391053 -0.11517 0.176872 0.230175 0.164599 -0.0690436 -0.169976 0.110444
-0.0947486 0.37508 0.521933 0.399708 -0.238503 -0.563537 -0.00886198 0.0539636
0.0541595 0.142484 0.128267 -0.0276795 0.469023 0.241982 0.289716 -0.372115
-0.225413 -0.376468 0.0875026 0.359944 -0.507645 0.436819 0.871613 -0.264306
-0.0538257 0.141219 -0.807678 0.395466 0.00692103 0.197669 0.740907 -0.115358
-0.0719531 0.31926 0.726869 -0.385043 -0.252961 -0.200788 -0.170728 -0.0178276
-0.0649261 0.511493 0.000979287 -0.409688 -0.700805 0.0887425 -0.373199 0.0592669
0.282892 -0.185572 -0.221901 -0.210322 0.11589 -0.0907809 0.627204 0.890701
-0.117599 0.188011 -0.503994 0.102961 -0.00772916 0.753217 -0.684468 -0.0900856
0.13893 -0.312431 0.393598 -0.117735 0.149419 -0.8289 0.48755 0.30433
0.462549 0.548943 0.437769 -0.483948 -0.13094 -0.157629 -0.345302 -0.00530868
-0.252989 0.459649 -0.0894234 -0.318051 0.0383314 0.0828967 -0.139779 0.24796
-0.181704 0.186635 0.519319 -0.268289 -0.0706582 -0.261365 0.400165 -0.0568581
-0.0519881 -0.419393 0.64435 -0.429907 0.547924 0.616912 -0.373818 -0.204072
-0.309431 0.391817 -0.286545 -0.190161 0.199297 -0.074756 0.922401 -0.244744
0.524158 -0.235374 -0.137671 -0.571046 -0.0355938 0.27221 0.261143 -0.0246253
0.213266 -0.0576103 0.215653 0.0603501 0.119433 0.269852 0.460773 0.506239
-0.283895 0.408572 -0.718412 -0.101182 0.101501 -0.0425972 0.269338 -0.443995
-0.146739 0.1147 0.0777904 -0.524146 -0.345961 -0.28628 -0.868292 -0.240506
-0.372737 0.186347 -0.245068 -0.0965869 -0.279641 -0.0099679 0.153527 0.126427
-0.225111 0.244173 -0.415094 -0.614807 -0.341778 0.182569 -0.477542 0.676493
0.154696 0.363783 0.19145 0.124565 0.357717 -0.221725 -0.032629 -0.199032
0.282886 -0.187401 -0.256244 0.0763063 -0.100294 -0.280534 0.685704 0.175961
0.363728 -0.160704 0.459389 0.0785643 -0.0696192 0.152939 0.154348 0.902234
0.696484 0.358348 -0.461434 -0.149584 0.170368 -0.00145646 0.864867 0.118839
0.068759 0.363039 0.368991 -0.0615147 0.0444464 0.130435 0.299134 -0.974707
0.0348499 0.00189344 0.121144 -0.249567 0.124872 0.268945 0.0282671 0.158356
-0.297988 0.450201 0.226542 0.144089 -0.00586058 -0.429469 -0.0495573 -0.165478
0.0994189 0.289605 -0.179472 -0.177164 -0.106974 0.0605012 0.334391 -0.114353
0.184199 0.496321 0.0328172 -0.126659 0.60488 0.117727 0.619386 -0.814041
-0.128784 0.152376 0.00258969 -0.126807 -0.290826 0.253831 0.201032 -0.350419
-0.0851562 0.318167 0.367022 0.0806383 0.169479 0.0493773 0.702144 0.589422
-0.268524 -0.495246 -0.497376 -0.332606 -0.315488 -0.0101387 -0.357988 -0.206901
-0.526677 -0.0915575 -0.0988426 -0.360996 0.155413 0.276164 0.325091 -0.204007
-0.551652 0.558336 0.42876 0.0951758 -0.748435 -0.381412 0.440615 -0.394542
0.285571 -0.271574 0.0863409 0.220758 -0.100086 0.0585755 0.152606 0.36496
0.0501416 0.0396205 -0.0170162 0.242293 0.26832 0.397242 -0.107907 -0.0871093
-0.31636 0.278793 -0.489398 -0.30328 -0.545949 0.0102339 0.325762 -0.0971751
0.0557021 -0.341529 -0.288368 0.297429 -0.0721492 -0.428133 -0.124419 -0.179568
0.040502 0.0918617 -0.635154 -0.367819 -0.0488489 -0.412263 -0.265448 -0.292578
0.467572 0.155087 -0.0318702 -0.0977476 0.396362 0.190114 -0.015674 -0.129587
-0.325981 0.154912 -0.191815 -0.23965 0.0829382 -0.109788 -0.207892 0.196761
-0.387015 0.188058 0.0654897 -0.124049 -0.263978 -0.284327 -0.0765278 -0.0771196
-0.0309347 0.0709696 0.225486 -0.547236 -0.449071 -0.162252 0.436595 0.231567
-0.392282 0.252666 0.286795 0.339871 -0.154586 -0.266525 0.0466436 0.236581
0.369242 0.0332371 0.795825 0.225784 -0.0363001 0.244925 0.653659 -0.28385
0.183567 -0.0506983 -0.591727 0.0127753 0.0782777 -0.195892 -0.140856 0.11409
-0.128738 0.0451876 -0.135401 0.243669 0.243855 -0.0142086 0.186873 0.0632888
0.367025 -0.540518 0.300679 0.220814 0.379877 0.185466 1.17777 -0.207003
0.124537 0.0205921 0.0380259 -0.426685 0.268246 0.0424375 0.0336077 -0.188519
0.37964 0.280936 -0.0560167 -0.710899 0.323258 -0.465144 0.0228626 0.231315
0.266684 0.446204 0.538654 -0.487638 0.567298 -0.0616917 0.394571 0.0690274
0.2224 -0.124946 -0.768279 -0.137898 0.286059 0.121606 0.719132 0.311942
0.278074 0.299785 -0.0344838 -0.224127 0.51254 0.0462222 -0.19132 0.395131
0.0827008 0.416157 -0.695667 -0.365995 0.0880613 -0.327354 0.681041 -0.729167
-0.053715 -0.0858433 0.907109 -0.280624 0.327515 0.690985 -0.212912 -0.111198
0.0087216 0.378443 -0.256507 -0.0750863 0.347834 -0.104752 0.331319 0.0205522
0.18341 0.0161164 0.449223 -0.266352 0.487746 -0.000101833 0.136562 -0.383549
-0.0673076 0.996748 -0.0696536 -0.665202 -0.552322 0.301358 -0.400657 -0.308414
-0.157938 0.705182 -0.574114 0.0981119 0.618167 -0.117257 0.56262 0.556729
-0.474127 0.358962 0.375505 -0.550851 -0.109516 -0.300387 0.531002 0.335871
0.28601 -0.393192 -0.143659 0.0969073 -0.265227 -0.335658 0.443256 0.0257334
0.557033 -0.0181723 0.626362 -0.410073 -0.322262 -0.533727 0.285904 0.732664
0.25971 -0.27068 0.523823 -0.108611 -0.553623 -0.168154 0.271652 -0.165756
0.23362 -0.00135144 0.134666 0.165836 0.195376 -0.218331 -0.602842 0.213637
0.191075 0.0285612 0.305176 0.148697 0.343251 -0.931246 -0.217368 0.41146
0.340943 0.47399 -0.447802 -0.165458 0.266756 -0.396862 -0.408137 -0.285388
-0.0271512 -0.0971466 -0.0392425 0.0991392 -0.0257949 0.398181 -0.503464 0.110219
0.101728 0.660266 0.408321 -0.134149 0.0293885 -0.625265 -0.0872588 0.51789
0.208164 0.568666 -0.0283043 -0.502054 0.537215 -0.769097 -0.132881 0.358372
-0.0924593 0.438792 -0.140867 -0.380992 0.539894 -0.294322 0.461913 -0.468535
0.457877 0.119301 0.38527 0.236171 -0.267111 0.394741 -0.671829 0.633713
-0.0265354 -0.0742612 -0.475722 -0.274508 -0.0410413 0.154313 -0.264399 -0.375805
0.276304 0.330478 -0.264318 0.126451 0.236424 0.077921 0.267295 0.884436
-0.36472 0.20907 -0.733075 -0.206654 -0.545945 -0.0826477 0.165149 0.358961
0.0238476 -0.0968165 0.0909168 0.71125 -0.547065 0.127788 0.762004 -0.614231
0.290752 -0.17041 -0.0147398 -0.216431 0.113821 0.332744 -0.500464 -0.261703
0.168184 -0.400258 -0.00866736 -0.064594 0.0742072 -0.147758 0.1716 -0.406422
0.192243 0.478158 -0.708485 -0.0931058 0.207781 0.137165 0.459931 0.1682
0.254596 0.607936 0.455622 -0.348071 -0.439008 0.594603 -0.122933 0.204366
0.182304 -0.0211699 -0.146068 0.0658917 -0.0647195 -0.474501 -0.0875893 -0.568297
-0.161953 0.0587829 0.219404 -0.0637177 0.0556499 -0.0497612 0.126462 -0.107455
0.119545 -0.172433 0.456392 -0.212708 -0.302001 -0.417427 0.486901 0.0846008
-0.170187 0.178056 -0.451336 0.112129 0.578146 -0.370861 0.27023 -0.0224522
0.392826 0.387985 0.350636 -0.424884 -0.271515 0.646512 0.0422269 0.386933
-0.0337375 0.487238 -0.486494 -0.258746 0.452499 -0.275174 0.230117 -0.140712
-0.635962 0.435306 0.220233 0.0283619 0.994832 0.0962194 0.0879804 -0.0405076
0.250668 -0.364578 0.0925913 -0.226903 0.0728189 0.128881 -0.231657 0.311963
-0.0411637 0.416658 0.106509 -0.24009 -0.595286 -0.0314265 0.76774 0.833352
0.65373 0.207075 -0.371978 -0.0608562 0.431275 -0.0744763 0.0186272 0.996042
-0.137908 0.148782 0.0923814 -0.32528 0.0954972 -0.670554 0.143029 0.908909
0.451614 -0.203476 -0.468257 0.0078725 -0.0587382 0.0102473 0.438262 0.451544
-0.34801 0.296404 0.344621 -0.358713 0.372414 -0.565488 -0.142276 -0.104237
0.0760376 0.317155 0.12712 -0.267566 -0.292207 -0.501017 -0.27439 0.270865
0.355774 -0.0902425 0.1746 0.237405 0.259452 -0.258852 0.468344 0.0923862
0.191986 0.758969 -0.365965 0.0423536 0.438463 -0.195667 0.128099 1.09742
0.226563 0.150619 0.0126055 0.321369 -0.333985 0.283252 0.295592 -0.218286
0.122746 0.267735 -0.404536 -0.394866 -0.708725 0.156611 0.394638 -0.236747
0.299527 -0.157753 -0.926263 -0.228235 0.46128 -0.234969 0.261914 -0.190546
-0.0504011 0.617369 0.259603 -0.519445 -0.545765 0.295296 0.343963 -0.71149
0.143443 0.255767 -0.132914 0.0862638 0.0287692 -0.394816 -0.0109266 0.363596
-0.0518074 -0.0304727 0.78769 -0.332842 0.507202 -0.082226 -0.522139 0.267871
-0.103148 0.261194 -0.921681 0.209007 0.281772 0.242112 0.87561 -0.00905142
0.803754 0.442158 -0.315691 -0.166653 -0.314458 -0.39446 -0.405816 0.0499254
0.0549879 -0.0591766 0.173675 0.055174 -0.23539 0.0127195 0.422104 -0.749457
0.248493 -0.249383 0.206304 0.334812 0.0504018 0.315357 -0.692384 -0.367406
0.0825781 0.725511 -0.402207 -0.277241 -0.113554 -0.135858 0.0850245 0.198986
0.599688 0.145714 0.894465 -0.327708 -0.0394909 -0.0642312 0.623585 0.346359
-0.252046 0.0183045 0.352601 0.0371766 -0.342448 -0.170591 -0.508595 0.204314
-0.347793 0.47074 -0.520488 0.0750823 -0.201201 -0.393095 0.334948 0.52836
0.0169718 0.518721 -0.476143 -0.242611 -0.00843724 0.691922 0.0636078 -0.42177
0.120791 -0.0534867 0.362401 -0.101661 0.13395 -0.153544 0.130153 0.393901
0.439249 0.605172 0.0460543 -0.136196 0.136199 0.24956 -0.0752481 0.275995
0.201165 0.0439816 0.0753883 -0.433704 -0.341332 -0.229481 0.502313 0.193734
0.00161982 -0.492812 -0.0808157 -0.0883796 -0.801074 -0.520737 -0.351226 0.508758
0.108363 0.258191 0.451692 0.44049 0.352703 -0.379817 0.303815 0.0655683
-0.227509 -0.169508 -0.28995 0.0312715 -0.141889 0.071478 0.639856 0.115671
0.753224 0.378477 -0.148698 -0.518314 0.384757 0.418511 0.0529852 -0.250489
0.290496 -0.635843 0.00536526 -0.328796 0.99718 -0.167741 -0.253376 0.0518725
0.453323 -0.310221 -0.189608 -0.334192 0.0706707 -0.125905 -0.133166 -0.145395
0.365 -0.0418033 0.231612 -0.260571 -0.260237 -0.221389 -0.077527 -0.180683
0.296677 -0.0318667 0.509278 -0.513646 -0.1264 0.0654003 0.493394 -0.094634
-0.358552 0.272264 0.172438 -0.401873 0.410533 -0.672972 -0.242064 0.160126
0.459662 -0.133706 -0.562939 -0.139283 -0.314945 0.182831 0.1306 -0.190059
-0.0114286 -0.265763 0.54512 -0.420932 -0.0929851 0.157665 0.0794671 0.0244694
0.547686 0.106479 -0.333131 0.000896924 0.067536 -0.535557 0.480055 -0.201368
0.0873126 0.403349 0.579719 -0.351466 -0.0527281 0.154621 0.379664 0.534444
-0.386309 -0.0227027 0.397961 -0.632967 -0.0198246 0.00378342 0.387166 -0.0718007
-0.0123226 -0.289371 -0.208943 -0.201326 -0.617679 -0.412949 0.195161 -0.273224
-0.0445195 -0.280588 0.266267 -0.107789 -0.080146 -0.280354 0.0741623 -0.0293007
0.608818 0.439309 -0.0895062 0.169462 0.59681 0.0663909 0.32803 0.585283
-0.144674 0.0721151 -0.424226 -0.0968341 -0.416053 0.178447 0.918634 -0.436933
-0.178351 -0.278415 -0.0567436 -0.0159709 -0.20776 0.229252 -0.264187 -0.369414
0.704825 0.0773211 -0.454839 0.108895 0.216245 0.175307 -0.0929481 -0.322172
0.109262 0.630568 0.395896 0.146318 0.742448 0.0513487 -0.626772 -0.176205
-0.137714 0.354896 0.275494 0.220365 -0.172673 0.0154126 0.691528 -0.0529054
-0.0567767 0.394189 0.882621 -0.0380101 -0.307336 0.359526 -0.0930537 -0.406188
0.408859 -0.140673 0.502853 -0.0560109 0.132417 0.409223 0.192147 -0.298801
-0.289149 0.412993 -0.770193 -0.388167 0.187528 -0.134488 1.07976 -0.435502
-0.0124068 0.150647 0.100835 -0.23209 -0.0882797 0.0807671 0.716415 0.52755
-0.137619 -0.0647376 0.022412 -0.0659973 0.0375042 0.178022 0.477574 0.576224
-0.329797 0.0883077 0.433284 -0.268463 -0.0802694 -0.25738 0.289623 -0.568153
0.161908 -0.00858808 0.014411 0.157074 0.142676 0.0740407 -0.289711 -0.101498
-0.0266164 0.342939 0.603718 0.0297495 0.100593 -0.361937 0.058511 -0.0283446
-0.400387 0.469404 0.320239 0.229023 0.0139317 -0.392279 0.0888679 -0.129525
0.103711 0.0614175 0.115854 0.271021 -0.243838 -0.262282 0.0918667 -0.0342233
-0.118904 0.0604908 0.756029 -0.113921 -0.110604 0.0149076 0.0228345 -0.196697
-0.574202 0.057353 0.340221 0.102094 -0.381216 -0.11336 -0.527153 0.110553
0.643126 -0.237377 0.346612 -0.146181 0.0515965 0.23989 0.327634 0.147874
0.395841 -0.0944613 0.500657 0.180631 0.0908156 -0.364126 0.747489 -0.936241
-0.0117531 -0.269676 -0.708861 0.103636 0.0171195 0.051668 0.440956 0.135895
-0.246201 0.22895 -0.178227 -0.0114324 -0.623514 -0.666173 0.046482 -0.130028
0.138651 0.676329 -0.34236 0.0382897 -0.190365 -0.0259019 0.23076 0.0537098
-0.0829849 0.41034 0.159057 -0.312826 -0.0391456 -0.779007 0.438804 -0.229559
0.474767 -0.299215 0.2898 -0.0375282 0.141791 -0.0829277 0.603008 -0.248593
0.195267 0.0959097 0.652154 0.109703 0.0564768 -0.0584492 0.685545 -0.723954
0.888072 -0.0177185 -0.612174 0.164825 0.483646 0.0646195 -0.133328 -0.400543
-0.0958919 0.0776761 -0.0248263 -0.365759 0.434274 0.119481 0.803224 0.34542
0.209477 -0.262691 -0.206841 -0.198582 -0.457012 -0.218973 0.73964 -0.276592
0.0984438 -0.184057 -0.100862 -0.0362222 -0.42512 0.505797 -0.0511481 0.779481
0.134508 0.167967 0.185493 -0.1535 -0.464 0.091857 -0.191895 0.235061
-0.229896 0.302983 -0.59087 -0.452867 0.435016 -0.0952938 0.149935 -0.436591
-0.131666 0.684232 -0.172942 -0.353989 0.256932 0.210313 -0.366989 0.174074
0.732579 0.261203 0.144577 -0.059402 -0.51706 -0.565014 -0.570097 0.309926
0.532775 -0.0202571 -0.223735 0.0135164 -0.655391 0.174694 0.354009 0.266191
0.387131 -0.224985 -0.0120167 -0.258493 0.0850935 0.352306 0.701611 0.455345
0.985523 0.557679 0.586147 -0.0208883 0.355013 -0.165282 0.898964 0.194878
0.118972 0.312821 -0.175592 -0.0338242 0.106696 -0.183291 -0.426722 0.131971
0.53894 0.19196 0.423401 -0.199681 -0.0415867 0.307634 -0.0211807 -0.275811
0.492524 -0.200305 -0.259639 -0.449426 -0.231949 0.407631 0.317264 0.069909
-0.0983547 0.290033 0.687264 0.236705 -0.0212596 0.15494 -0.300563 -0.704946
0.440407 -0.48403 0.667478 -0.287291 -0.253066 -0.292503 -0.444831 -0.240476
0.062733 0.426651 0.341778 -0.0218155 -0.169559 0.131312 -0.463965 0.01814
0.0894234 0.324087 0.52918 0.0042011 -0.0497392 0.255795 0.415649 0.135564
-0.420269 0.17677 -0.32988 -0.338561 -0.0711128 -0.0200121 0.345406 0.615242
0.109347 0.235327 0.558189 0.149876 -0.104059 0.214163 -0.137807 -0.199551
0.306446 -0.0241564 0.321769 0.223331 -0.195207 -0.337354 0.234895 -0.582235
0.0834305 0.192991 -0.291898 0.443525 -0.345457 -0.358182 1.06403 0.412089
-0.322939 0.624449 -0.338594 -0.129782 -0.172057 0.0954492 0.219697 0.0307275
0.133256 0.315249 0.349044 -0.452842 0.769139 -0.0974772 0.362709 0.18859
0.432547 0.137902 0.218421 0.237745 -0.0198915 -0.334563 -0.136584 0.0668343
0.655994 0.319137 -0.665708 -0.459802 0.101527 0.0342348 0.236418 -0.164851
0.277015 0.293842 0.480097 0.102186 0.0787519 -0.075442 0.166293 -0.498918
0.0796888 0.233904 0.0129916 0.0201111 0.0904485 0.181237 0.175056 0.610565
-0.160424 -0.23368 -0.217931 0.037445 0.168542 0.0406424 -0.0321853 0.0727989
-0.362765 -0.17973 0.0238188 -0.414243 0.247914 -0.103924 0.381005 0.249072
0.0324038 0.0644536 -0.358486 -0.0492172 -0.370911 -0.139475 0.423979 -0.212941
0.00773747 0.060613 -0.20436 -0.0442505 -0.532229 -0.268016 0.340904 -0.480846
0.387519 0.511318 0.161022 0.685535 -0.465333 -0.243408 0.84099 -0.582021
0.501663 0.194892 0.185953 -0.486797 -0.377715 0.142596 0.608769 -0.629638
-0.2097 -0.0649562 0.252608 0.49255 -0.211228 0.019256 0.408149 0.137404
0.127639 0.129581 -0.106505 -0.634178 -0.492934 -0.154545 0.666437 -0.310608
-0.0417815 0.248988 0.716844 -0.0626785 0.493631 -0.283629 0.270358 0.703649
-0.0381115 0.0577365 -0.415976 -0.376397 -0.5026 -0.159427 0.260327 0.215688
0.129169 0.277286 -0.30264 -0.110536 -0.510004 0.483353 0.367872 0.131534
0.222899 0.840819 0.527793 0.15971 -0.14329 -0.186088 0.258451 0.473466
-0.712506 0.011236 0.0075317 -0.190266 0.0794355 -0.561658 -0.0880717 0.253085
-0.388575 0.563387 0.0651567 -0.221169 -0.201119 0.330261 0.257804 0.060941
-0.0284018 0.508322 0.0729207 -0.0282746 -0.517243 0.154794 0.102101 -0.443368
-0.381465 -0.478963 -0.0985505 0.315082 -0.203209 -0.927337 0.303483 0.0807934
0.125386 0.249109 0.152228 -0.0356576 -0.0659684 0.333839 0.146555 0.659728
-0.116575 0.492905 0.604109 -0.150329 -0.2627 0.112179 -0.418387 0.135209
0.450304 0.333889 0.0930969 0.669871 0.118789 0.000645591 0.239075 0.160577
-0.142448 0.330445 0.12753 0.0145009 -0.0159165 -0.23764 -0.468615 0.463857
0.206768 0.229028 0.050094 0.0603257 0.307272 0.192545 0.339069 0.771499
-0.119757 -0.400767 -0.0701155 -0.28458 -0.0781381 0.328357 -0.731857 -0.329179
-0.0228158 0.240193 -0.487653 -0.0620422 0.0116979 0.244897 0.360872 -0.388143
-0.0389406 0.181369 -0.620223 0.408159 -0.298828 0.200725 -0.256309 0.172672
-0.465742 -0.241219 -0.376824 -0.0774004 0.0108043 0.016835 0.274023 -0.0621313
-0.0828751 -0.138417 -1.14605 0.00622148 0.695732 -0.464318 -0.199645 0.259047
0.410684 -0.117052 -0.167395 -0.413742 0.118499 -0.0980405 -0.293946 -0.108125
0.15443 0.634057 0.0383328 -0.0693596 0.17098 -0.58116 0.464561 0.421664
0.345174 0.399877 -0.0615473 0.180651 0.294652 0.0337985 0.320213 -0.459541
0.104589 0.342689 -0.131122 -0.270655 0.207893 -0.606373 0.257947 0.411752
-0.361613 0.117064 -0.0196756 0.0332119 -0.0449461 0.429306 -0.392228 -0.456068
0.295188 0.426005 -0.191297 -0.04463 -0.487606 -0.350969 -0.20407 0.00119683
0.244466 0.651469 -0.216984 0.0774419 -0.321329 -0.089616 -0.0455682 -0.0763218
0.419568 0.433366 -0.318382 -0.0527706 0.356042 -0.3717 0.563087 -0.238154
0.409841 0.578522 0.558467 0.176025 0.220192 -0.446217 -0.2221 -0.123711
