#global bias W0
-1.77408
#unary interactions Wj
0.633733
-0.0772322
0.104363
0.0812281
0.221099
0.327261
0.519176
0.251996
0.128269
-0.113432
0.201471
0.965213
-0.125143
0.0760938
0.771602
0.655158
0.75163
-0.095489
-0.0141929
0.158475
0.203589
0.237208
0.273427
0.450877
0.653224
0.33601
0.0596065
0.251206
0.489462
-0.0610085
0.0700805
0.59286
0.432162
0.697176
0.12097
0.176329
0.753197
-0.073071
0.464227
0.175073
0.541821
0.343991
0.227746
0.453001
0.295463
0.185912
0.287226
0.00714237
0.0626773
0.334522
0.494031
0.114738
0.165967
-0.0316791
-0.0601948
-0.140329
0.525229
0.897303
0.370818
0.59525
0.401237
0.23217
0.0133373
-0.167704
-0.0312164
0.110883
0.304133
-0.0725887
0.321406
0.426071
-0.0992213
0.140249
-0.0860535
0.124299
0.15631
0.345068
0.110703
0.367553
0.194991
-0.196321
0.0823383
0.0505369
0.379492
0.271639
0.629597
-0.121718
-0.18405
0.0636
0.296481
0.340824
0.260615
-0.0302001
0.443543
0.611605
0.383477
0.523178
-0.549354
0.175529
0.262737
0.143418
-0.0987244
0.413166
0.430783
-0.0334167
0.370724
0.710013
0.371271
0.426447
0.466173
-0.129129
0.0622033
-0.290491
-0.33174
0.261702
-0.372972
-0.181564
0.381363
0.0883401
-0.0108452
0.610002
-0.0543906
0.261042
0.129707
0.398716
0.0433462
-0.224747
-0.182609
0.236383
0.533455
-0.0545925
-0.0257914
-0.185976
-0.114248
-0.0193928
0.0255253
-0.152168
0.265438
0.170166
-0.122883
0.337647
0.537201
0.195317
0.630087
-0.00298493
0.328964
-0.0544543
1.221
0.292098
0.161747
-0.0793906
0.647916
0.210736
0.365226
0.361007
0.428049
-0.322995
0.176454
0.0830812
0.303158
0.348318
0.153102
0.416863
-0.0627864
0.420555
0.0709621
-0.0319559
0.434581
0.816096
0.0127611
0.0731645
-0.0932267
0.683847
-0.366743
0.922705
0.378892
0.507243
-0.260795
-0.332859
0.0351221
0.222227
0.486577
0.643501
0.252733
0.382448
-0.144319
0.265754
0.213855
0.0268058
0.86923
0.226041
0.46833
0.22118
0.601762
0.541143
0.618342
0.388507
0.190906
0.0302765
0.626862
0.338105
0.488953
0.616753
0.649304
0.0528818
0.246463
-0.00819989
0.28559
-0.0306991
-0.0895727
0.487088
0.473503
0.330251
0.111356
0.0414686
0.256015
0.122104
0.486932
0.371558
0.164291
0.360687
0.386383
0.13892
0.123219
0.328607
-0.0257025
0.196101
-0.328111
-0.225498
0.199692
0.341139
-0.397161
-0.185557
-0.0847518
0.160709
0.256267
-0.700025
0.440667
-0.033323
0.0393043
0.575812
0.395185
0.29818
0.30588
0.864251
0.146059
-0.23517
0.445594
0.0512758
0.263981
-0.189254
-0.00214595
0.442093
0.398279
0.00751044
0.484258
0.417905
0.31947
0.670739
-0.143049
0.125995
-0.124091
0.323368
0.146598
-0.0691287
0.401496
0.18348
0.609785
0.939569
0.236753
0.132532
0.474718
#pairwise interactions Vj,f
0.239029 0.211178 0.142211 0.180944 -0.0267242 -0.355315 0.347534 -0.207618
0.315767 0.323255 0.125726 -0.44473 -0.423725 -0.0341532 -0.109426 -0.0546881
0.55121 0.191792 -0.175583 0.456892 0.255012 -0.152098 -0.244303 0.0286479
0.0742048 0.0603973 0.409099 -0.00317605 -0.0881984 -0.146424 0.541934 0.245285
0.151417 -0.234803 -0.32579 -0.0727147 -0.126826 -0.450344 0.618542 0.482915
0.0278298 -0.218647 0.341429 0.10317 -0.0694965 -0.304796 0.604981 -0.461448
0.455101 -0.189316 0.145508 -0.61083 -0.133516 0.257341 0.190962 -0.118627
-0.179409 -0.454355 0.0214754 0.048704 0.0465697 0.169664 -0.113065 0.410719
0.243619 -0.352406 -0.0566666 0.177673 -0.298103 0.228739 -0.445302 0.16416
0.0185132 -0.0735548 -0.0477049 0.297856 0.389345 -0.265157 -0.24905 -0.449784
0.455601 0.0285507 -0.694161 0.15474 0.213771 -0.362062 -0.149109 0.292214
0.126769 -0.219091 -0.368018 -0.0360485 -0.134995 0.013069 -0.270694 -0.049303
0.411378 0.344411 -0.30794 0.522924 0.195083 -0.738466 0.216833 -0.275811
0.316442 0.0615426 -0.321554 0.579063 0.0548808 -0.775632 0.172527 -0.230495
0.0519885 0.0982798 0.000225331 0.371211 -0.0381204 -0.226101 0.191916 0.135446
-0.148609 -0.428205 0.210518 0.259439 0.14272 -0.0974954 0.00142326 -0.184963
0.616177 0.425228 0.0830612 -0.0247992 0.318579 -0.0900259 0.273023 -0.0728692
-0.00622696 -0.475067 -0.421865 0.260799 0.246355 0.0648187 -0.471548 -0.507641
0.199657 -0.106816 0.403809 -0.0232377 0.10602 -0.0306193 0.389317 -0.66013
0.239011 0.193602 -0.459523 0.335184 0.0616592 0.359764 -0.242175 -0.027856
0.271353 -0.387639 0.515724 0.217959 0.529403 0.11128 0.0377844 -0.193867
0.0443223 -0.198571 -0.912863 -0.164274 0.185264 -0.44691 0.0902391 0.0865589
0.271279 0.107222 -0.0372835 -0.329094 0.0302053 0.452931 0.0128913 -0.0634861
0.238168 -0.127331 -0.0817084 -0.242425 0.0896287 0.0843636 -0.0994189 0.176474
0.161044 -0.382334 0.695463 0.25964 -0.367205 0.375304 0.468905 -0.324791
0.127042 -0.397975 0.824213 0.60335 0.030676 0.40968 -0.119653 0.0792018
0.420079 -0.103958 -0.474028 0.341991 0.103892 -0.021771 -0.197408 -0.364333
-0.393716 0.57501 -0.413998 0.0982785 -0.219586 0.334135 -0.139199 -0.233256
0.721725 0.0603268 0.618156 0.367964 0.168393 -0.279598 0.42171 -0.400697
0.115972 0.711185 -0.525318 0.377857 0.0905462 -0.0369948 -0.374835 0.172721
0.523887 -0.1445 -0.240852 -0.0122889 -0.108894 0.386508 0.425056 0.0297719
0.662247 -0.0160998 0.348171 0.610735 0.538788 0.00219747 0.0592944 0.294439
-0.0471494 -0.0330363 -0.564111 0.136339 0.411331 -0.157054 -0.120391 0.18093
0.202601 0.120792 -0.0730998 -0.139958 -0.161002 -0.0751286 0.208231 0.243062
0.731972 0.18385 0.593 0.381506 0.275299 0.606492 0.219915 0.0320257
0.0862939 0.0844394 -0.60633 0.248577 0.381228 0.107318 0.386929 -0.200438
-0.337091 0.39285 0.115355 -0.20574 4.82654e-05 0.213493 -0.437681 0.226224
0.321864 -0.345521 0.141948 0.0155249 0.00201745 0.246542 0.214245 -0.154187
0.64143 0.121827 -0.137683 0.50614 0.393251 0.141942 -0.190471 0.195148
0.11012 0.63004 0.285538 -0.105044 0.0533007 -0.367358 0.306694 0.273894
-0.120198 -0.297977 0.298526 0.366538 0.284791 0.114591 -0.0164705 -0.151608
0.753293 -0.236917 -0.0919803 0.438648 -0.255337 -0.226131 -0.665876 0.192537
0.456268 0.531409 0.0392911 0.653399 -0.0723713 -0.0772109 -0.0325374 0.00946845
0.167042 -0.126494 -0.16842 0.117277 -0.257227 -0.641964 -0.0895505 0.165858
-0.263772 0.0744849 0.35054 -0.174274 0.307595 -0.452316 0.475766 0.698586
-0.267005 -0.766322 0.529801 -0.626352 0.654271 0.183095 0.269355 0.190283
0.00395717 -0.111064 0.0565709 0.263505 0.199741 0.324562 0.0111145 -0.286758
0.450101 0.35002 0.495524 -0.113799 0.13545 0.491503 0.251191 0.10528
0.509871 -0.340391 0.00287437 -0.285122 0.152533 -0.0917053 0.0742116 -0.0823279
0.125451 -0.286753 -0.202962 0.358082 -0.124829 -0.0241782 -0.336293 0.284349
0.351334 0.214134 0.399032 0.64014 0.116058 -0.0818163 0.191624 0.0599924
-0.0593285 -0.225687 0.13385 -0.390884 -0.416557 -0.0875046 0.389094 -0.117914
-0.151837 0.0212306 0.405576 0.0720647 0.0241641 0.392722 0.422333 -0.275027
0.229589 -0.445925 0.323746 0.0030203 -0.0487565 0.0178515 0.092947 -0.0389681
-0.216197 -0.654001 0.44315 -0.260428 -0.0572933 -0.210137 0.0649041 -0.928186
0.14506 -0.697661 -0.578773 -0.323575 -0.0557452 -0.654166 -0.333984 -0.199498
-0.0716041 -0.0951858 -0.238688 0.356523 0.0870886 -0.478938 -0.149108 0.175368
0.0169227 -0.448521 0.0279185 0.37191 0.356883 0.407592 -0.17178 0.0904149
-0.0955972 -0.17295 -0.00378426 -0.218276 0.366537 -0.19305 0.484358 -0.64717
-0.215069 0.130702 -0.305343 0.388773 -0.294372 -0.0579325 -0.560286 -0.103352
0.27872 0.103825 -0.104652 -0.015957 -0.0386388 0.0555324 0.261202 0.41965
-0.103502 -0.296309 -0.112341 0.182282 0.451041 0.0926866 -0.185288 0.202505
0.263526 0.0502439 0.387413 0.345086 -0.199079 -0.244558 -0.120012 0.000904188
0.112302 -0.174113 0.551772 0.10269 -0.314829 -0.699662 -0.16944 -0.396297
0.390151 -0.102365 0.0946732 0.0184406 0.00305949 0.116859 0.337315 0.1011
0.674957 0.172436 0.102696 0.229534 -0.129139 -0.444621 0.0561287 0.207604
-0.181412 -0.486233 -0.0445671 -0.0723054 0.254687 0.136731 0.318646 0.429109
0.262171 -0.109154 -0.889167 -0.284486 -0.206102 -0.463851 -0.125586 -0.0696493
-0.308532 -0.570805 -0.142488 0.0818138 -0.275467 0.123817 -0.179441 0.0569537
0.854499 -0.181039 -0.0342102 0.296209 0.236662 -0.0199442 -0.195458 -0.525318
0.126638 -0.277219 -0.337159 0.599986 0.684355 0.417659 -0.139624 -0.332021
-0.360558 -0.484464 0.250163 0.0534478 -0.223474 0.101947 -0.0534089 0.0571486
0.0203587 0.48232 -0.161296 0.388838 0.470171 -0.80264 -0.0787692 0.3693
0.106975 0.230058 -0.573709 0.239164 0.270989 -0.494932 0.315586 0.192722
-0.293898 0.459809 -0.69708 0.696474 0.0612436 -0.321563 -0.153685 0.0537607
0.0584698 -0.454666 -0.134857 0.274641 -0.0302206 -0.246359 -0.462344 -0.250565
-0.0468554 -0.153943 0.802501 0.801552 -0.190677 0.581523 -0.0216751 -0.450866
0.262254 -0.299361 -0.294076 -0.0399789 -0.45223 0.435471 -0.489694 0.271246
0.00230283 0.0608673 0.140515 0.642948 0.0663615 0.0562054 0.176745 -0.310463
0.0477916 0.00731642 -0.0340906 -0.204773 0.0979271 0.0903362 -0.414572 0.457101
0.387812 0.174529 -0.225371 0.0522376 0.400015 0.0981585 -0.457131 -0.13601
0.261817 -0.23778 -0.307914 -0.0715161 0.0784114 -0.532532 -0.138932 -0.414774
-0.696634 0.222608 -0.390701 0.202221 -0.0654454 0.529604 0.231545 0.0867596
0.35202 -0.127399 0.111596 0.0868496 0.263986 0.292636 0.447238 -0.0151072
-0.0041456 0.0644656 -0.488488 -0.260774 0.105994 0.193178 0.423583 -0.0490169
-0.0446779 0.197895 0.994858 0.334655 0.0950257 1.14717 0.569416 0.172185
0.424771 -0.489884 -0.244416 0.276718 -0.230035 0.384144 -0.129774 0.0564222
0.0501764 -0.124142 -0.254844 0.0408637 0.440836 -0.126325 0.299789 -0.0913869
-0.187747 -0.462376 0.753117 0.1102 -0.181817 -0.0281645 0.354577 0.279061
0.340558 0.343486 0.000505937 0.363781 -0.249925 0.0383898 0.111814 0.295331
-0.293522 -0.125929 -0.486274 0.191319 0.187522 0.51362 0.146323 0.06516
-0.159693 -0.143063 -0.5724 -0.00491915 0.285548 0.211974 -0.212449 -0.00372876
0.207334 -0.0606202 -0.147694 0.0321576 0.504312 0.134668 0.0352358 0.502405
0.337338 0.0484557 0.0619467 -0.461598 -0.214215 -0.0293787 0.423659 -0.238643
0.306412 -0.169251 0.288568 0.0326051 0.387075 -0.333219 0.169969 -0.237209
-0.175083 -0.544582 0.636468 0.160086 0.0595345 -0.425685 -0.452951 -0.0517594
0.23318 0.00453001 0.900472 0.048826 0.100128 -0.503589 0.359683 -0.213334
0.0918521 -0.191633 -0.22329 -0.158782 -0.478894 -0.0584677 0.0541938 0.169679
0.0450715 0.190928 -0.427884 0.409575 0.002539 0.126909 -0.639921 0.434269
0.166943 0.289099 0.457794 0.436341 0.222747 -0.19373 -0.0614779 -0.700797
0.462255 0.0138038 -0.263871 0.557983 -0.00742291 -0.099969 -0.407859 0.133533
0.558429 0.212113 0.388934 -0.254887 0.0202307 -0.248059 -0.0309102 -0.0223609
0.21686 0.080255 -0.165985 0.223276 0.174295 -1.18699 0.50083 -0.306823
0.350919 -0.481699 -0.218528 0.349954 0.0867546 -0.290099 0.111085 -0.194187
0.390879 -0.533847 0.00490651 0.267285 0.375993 0.0608664 0.112877 -0.452515
0.604717 0.350837 0.195762 0.460096 0.14943 0.378826 -0.192079 -0.344929
0.462146 -0.370102 -0.0620382 -0.0444194 0.47728 -0.379192 0.349055 0.0747333
0.483583 0.282459 -0.193527 0.773522 0.359017 -0.261057 0.239164 0.102123
0.462593 -0.308117 0.0140057 -0.405838 -0.369964 -0.268714 0.304777 -0.288108
0.0621234 -0.944769 0.638866 0.0553092 0.449009 0.239659 0.0969433 -0.440479
0.09344 -0.162199 0.26913 -0.331511 0.446562 0.359187 0.122208 -0.484347
0.508939 0.219971 0.685545 -0.233059 -0.0759302 -0.158148 0.0558682 -0.115981
0.17717 0.366509 0.0179934 0.152751 0.102819 -0.234152 0.461454 -0.26135
-0.157106 0.140579 0.340135 0.126675 -0.291718 0.0295901 0.00599292 -0.155078
-0.143943 0.24452 -0.550372 0.356529 -0.0110787 -0.291597 0.28132 0.442963
0.41359 -0.143969 0.184219 0.11365 0.139234 0.0198153 0.482416 -0.184791
-0.187468 0.433232 -0.181783 0.124576 0.0637162 0.0451735 -0.245503 0.0100616
0.198702 -0.0335833 0.00543393 -0.0694664 -0.0398723 -0.274369 -0.115354 0.0532921
0.563902 -0.342274 0.19394 0.0510527 0.156121 -0.673657 -0.520912 0.419669
0.327364 -0.308099 0.0971532 0.335411 0.217511 0.278336 0.250691 0.244274
0.54486 0.236006 -0.171381 0.212128 0.505531 0.361367 0.828221 0.0278756
-0.0318137 0.29934 0.0670863 -0.346616 0.0842651 -0.0487347 0.252232 -0.42202
-0.134185 0.713083 0.42118 0.483164 0.141697 -0.323438 -0.27287 -0.124939
-0.119548 -0.19321 -0.145989 -0.450746 0.11292 0.032776 -0.389809 0.23361
-0.543593 -0.418521 -0.103338 -0.0365403 0.364877 -0.123232 -0.449278 0.0729226
0.174663 0.158573 -0.722378 0.454124 0.186383 -0.5544 -0.120629 -0.419842
0.317072 -0.144978 0.385002 0.142368 0.194447 -0.609158 0.164476 0.585797
0.284745 -0.164301 0.626991 0.189409 0.285895 0.0482939 0.59585 -0.00670057
0.204949 -0.186942 -0.0580609 0.0890697 0.136129 -0.265785 -0.175593 -0.335382
0.0985049 -0.257767 0.0483631 0.314355 0.187443 0.0750112 -0.117935 -0.108516
0.363937 0.101988 -0.575537 0.234644 -0.323058 -0.103447 0.298178 -0.263464
0.124071 0.116743 0.337892 0.0271764 0.128699 0.505659 -0.509362 -0.135181
0.869251 0.218539 -0.412616 0.300194 0.286912 -0.22319 -0.189487 0.0630616
0.172948 0.12481 -0.107747 0.549312 0.02263 -0.0733684 -0.0761526 0.705769
0.323821 -0.241675 -0.0562649 0.104816 0.214253 -0.435333 0.147283 -0.548465
0.752815 -0.422013 -0.379112 -0.182573 -0.0358636 0.368741 0.0742369 0.280296
-0.147665 -0.0592201 0.112195 0.406355 0.719984 0.0532281 0.0733486 -0.0971083
-0.450886 0.105738 0.344114 -0.069285 0.348972 0.682547 0.266141 0.420603
0.324023 0.521017 0.158926 0.166339 0.14929 0.315571 -0.0489864 0.115083
0.0119062 0.221943 0.423224 -0.0539312 0.50027 -0.241757 -0.070177 0.0056633
0.174909 -0.260252 -0.106923 -0.263598 -0.155993 -0.156563 -0.552956 -0.254473
0.149588 0.474473 -0.169758 0.0439262 -0.278955 0.269116 -0.335349 -0.330998
0.0398239 -0.0494705 -0.155493 -0.659019 -0.137883 -0.397206 0.0472711 0.0807245
0.311306 0.24566 0.347199 0.164106 0.32779 -1.02253 0.361183 0.0544654
-0.183818 -0.394692 0.188558 0.343444 0.268026 0.181134 0.361425 0.404768
-0.251024 -0.553107 -0.317215 0.248884 -0.247271 -0.463311 0.123407 -0.113533
0.382407 -0.196657 0.241851 -0.148996 0.111457 -0.361561 0.449802 -0.340104
0.0938878 -0.000695642 -0.570982 0.621769 0.00397286 -0.420769 -0.0872626 -0.0366909
-0.118136 0.370151 -0.251988 0.0656066 0.0361408 0.144747 -0.196259 0.0874298
0.836118 -0.222498 -0.209726 0.229663 0.157348 -0.230456 -0.114481 -0.328412
0.15939 0.274134 -0.168981 0.230846 -0.18956 0.315957 0.107924 -0.258664
0.382972 -0.387158 0.536851 0.873234 0.0485136 -0.445704 0.0924348 -0.218165
0.242458 0.315431 -0.331471 0.347568 -0.0187095 0.212762 0.24371 -0.302035
0.0468766 0.279899 0.544825 0.0196095 0.291502 0.103938 0.287355 0.3069
0.375285 -0.343492 0.305386 0.140662 0.342617 0.463784 0.377815 -0.0951411
0.0836863 -0.040311 -0.000573793 -0.453078 0.00339808 -0.787976 0.0525909 0.0399768
0.270691 -0.132234 0.68894 -0.300036 0.0769803 -0.579659 -0.381556 0.599977
-0.0720339 -0.250243 -0.561024 0.552659 0.0181326 0.0531199 0.17723 -0.333659
-0.0803086 0.582734 -0.363988 0.198536 -0.124178 -0.569573 -0.309496 0.0529328
0.727815 -0.050134 0.204605 -0.637453 0.034012 -0.309372 0.374787 0.503545
0.508577 0.0417011 -0.178721 0.0297722 -0.0382276 0.218425 -0.129277 0.195366
0.324618 -0.0153806 -0.0790766 -0.388159 0.29857 -0.184847 -0.52818 -0.031767
0.364051 -0.168504 -0.566681 0.109878 -0.212939 -0.676004 0.33334 0.383058
0.00915024 -0.738012 -0.352804 -0.254805 0.329256 -0.042391 0.0236147 0.143722
0.196004 0.140353 0.419413 -0.00633208 0.256024 0.236595 -0.176678 -0.139309
-0.288069 -0.0674917 0.861217 -0.360575 0.0856733 -0.164033 -0.107552 0.157573
0.0871312 -0.155539 0.10516 0.5274 0.0503736 -0.595838 0.237864 -0.255506
0.216847 -0.143403 0.174557 -0.0197833 -0.0366374 0.269861 -0.103571 0.196546
-0.0398488 0.240851 -0.134038 -0.246912 0.10694 0.573307 0.168385 -0.190524
-0.147745 0.850854 0.296507 -0.135256 -0.0860784 0.0261631 0.182835 0.388127
0.393406 -0.611269 0.5104 0.346479 0.17503 0.834662 0.264794 0.146742
0.419661 -0.515164 0.138768 0.3465 -0.181675 -0.733362 0.578751 0.293299
0.0483323 -0.776145 -0.349552 0.222631 -0.0544986 -0.185399 -0.144251 -0.0392176
-0.0240703 -0.303212 -0.207807 0.0551389 -0.124019 -0.274635 -0.0758976 -0.636299
0.352804 0.376499 0.189095 0.510729 -0.0227522 -0.817857 -0.0164295 -0.132101
-0.0323226 -0.517986 -0.611619 0.280472 0.605964 0.0251821 -0.37096 0.0822674
-0.00336003 0.347426 0.985973 -0.18856 0.626898 -0.183367 -0.311606 -0.327749
0.021832 0.553579 -0.317935 0.470627 -0.0257189 -0.348482 -0.0563913 -0.123853
-0.00376488 -0.49819 -0.711001 -0.474183 -0.0787662 -0.0349561 0.304839 0.0690661
0.863894 0.357562 -0.0220638 0.296002 0.827235 -0.38272 0.46446 0.456165
0.56218 0.350479 0.323985 -0.45044 0.649209 0.379828 0.448063 0.144595
0.418603 -0.00485028 0.319093 0.0110698 0.225589 0.186901 -0.196654 -0.14155
0.431879 -0.197228 0.372635 -0.152833 -0.611225 -0.260574 0.559205 -0.230331
0.0540129 0.156898 -0.322086 0.269296 0.15204 0.196474 -0.0851284 0.0853917
-0.341891 -0.198322 0.238119 -0.041189 0.0673964 0.154079 0.230785 -0.115573
0.0984402 -0.289506 -0.233303 0.218007 0.214833 0.767106 -0.402356 -0.363845
0.0110578 -0.105471 -0.416106 0.0924499 -0.157389 0.0332021 -0.109653 0.147177
0.065707 -0.287692 -0.245021 0.0596775 0.0629358 -0.151596 0.0619694 -0.17122
0.243788 -0.597815 -0.354299 -0.184259 -0.0345111 0.683405 -0.100089 0.135326
0.318743 -0.00477405 0.0758325 -0.349058 0.154529 -0.398801 -0.0904744 -0.507291
-0.137133 -0.301634 0.403301 0.282868 0.131634 0.240644 -0.276799 0.711247
0.0881395 -0.549453 -0.299619 -0.198831 0.122333 0.112761 -0.111826 -0.434174
0.318674 0.475188 -0.271605 0.0795911 -0.235689 0.00501368 0.0084957 -0.108693
0.0135446 0.696715 0.471306 -0.0123713 0.16927 0.544255 0.254946 0.365081
-0.139134 -0.285277 0.522666 0.541761 -0.022785 -0.119661 -0.152524 -0.500363
0.390894 0.141344 -0.27396 -0.666805 0.290563 -0.455417 0.300714 -0.213395
0.236472 -0.749858 -0.239393 0.0716305 0.192558 0.207854 0.0985139 -0.168382
0.0915559 -0.0824129 -0.0768585 -0.0830429 0.285084 -0.301589 -0.375863 -0.228177
0.379988 0.190734 -0.466836 0.29743 -0.188674 0.162206 -0.0316509 -0.0340098
0.400775 0.0043629 0.272303 -0.387524 -0.0382455 -0.634054 -0.0857401 0.144211
0.0885423 -0.151828 0.140192 -0.306258 0.0645069 -0.147755 -0.193277 0.00870127
-0.0747494 0.477369 -0.683354 -0.151973 0.00237892 0.0831809 -0.0701687 0.123167
0.1207 -0.186923 0.025474 -0.216621 0.133831 -0.0321459 0.0393152 -0.4623
-0.0114927 0.501625 0.307026 -0.405515 -0.0881609 0.0936413 -0.0415119 0.245664
0.182929 0.078077 0.66794 0.27149 0.280401 0.254568 -0.205918 -0.117971
0.260145 0.289073 -0.000173288 0.00958539 0.100648 -0.168042 -0.405518 0.39253
0.160718 0.0270891 0.00600732 0.185727 0.173352 0.751934 0.373058 0.115218
0.164468 -0.0297021 0.302527 0.257702 0.339421 0.0920491 -0.517261 -0.0713638
0.0184963 0.096606 -0.216945 0.0401162 -0.0394524 0.00202141 0.174722 -0.271774
0.928682 -0.268217 -0.204621 0.456227 -0.51043 -0.0279823 -0.330429 -0.158067
0.133485 -0.178498 0.267811 -0.188649 0.237135 -0.296482 0.230015 -0.191736
0.0575021 0.225741 0.091174 0.0870869 -0.0395982 -0.246535 -0.420517 -0.158804
0.753525 -0.139343 0.478991 0.178628 0.190995 -0.916032 0.174981 0.0361479
0.479015 -0.585605 -0.257692 -0.0274476 0.233097 0.486576 -0.24237 0.0162052
0.142956 -0.33139 0.128814 0.696902 0.123538 -0.192859 -0.274441 -0.175624
0.706814 -0.0284586 -0.534398 0.365 -0.0154961 -0.0804922 -0.36688 0.0235309
0.0965879 -0.109988 0.00249555 0.216705 0.495196 -0.238536 0.0662254 0.403065
0.27191 0.390603 0.330296 -0.270189 -0.130407 -0.109917 -0.0459767 0.172553
0.117259 0.327189 -0.397445 -0.331141 0.725686 -0.0802787 -0.137058 0.310233
0.293708 -0.31151 -0.144429 0.31141 -0.0426432 -0.0500775 -0.109243 -0.238652
0.359057 -0.643049 -0.113849 0.75171 0.0195706 0.128762 -0.196161 0.176693
0.481454 0.340444 0.130309 -0.0220356 0.0109585 0.0878266 -0.0263093 -0.0905986
0.27661 -0.22132 -0.169277 0.0235989 0.381318 -0.383779 0.0151519 -0.0451189
-0.357522 0.0637839 0.281479 0.965834 -0.194343 0.231147 0.220629 -0.0997844
-0.0318327 -0.0297302 0.478098 0.610744 -0.0287456 0.127249 -0.634386 0.171407
-0.306129 0.0360077 0.302134 0.438523 -0.35073 -0.325887 -0.310651 -0.0314703
0.0873327 -0.145766 -0.0940003 -0.476017 0.283556 0.0366146 -0.755554 -0.0633865
0.0523462 -0.160362 0.0974851 0.410291 0.0867882 -0.0704212 -0.160962 0.0626338
0.201173 -0.640738 -0.379145 0.699641 -0.189597 0.117157 -0.188441 0.0448996
0.014063 -0.228243 0.011548 -0.275383 -0.327886 0.2201 0.292985 0.544354
0.508883 -0.614225 0.0155443 0.587178 0.517714 0.250817 0.215038 -0.400201
-0.123297 0.559987 -0.113861 0.122029 0.0717547 0.236096 -0.274137 -0.431932
0.409303 0.285576 -0.0127152 -0.0234858 -0.0695406 -0.242836 -0.367745 0.168024
-0.0388236 -0.039784 -0.365298 0.190919 0.443719 -0.127163 -0.0963386 -0.0707445
0.231948 0.570358 -0.0635583 0.277072 -0.338093 0.138289 0.0745962 -0.179688
0.417376 -0.0103934 -0.623837 -0.000674811 -0.122924 0.477704 0.129338 0.0350533
-0.173084 0.163321 -0.0769809 -0.302554 -0.357947 0.00307216 -0.0566944 0.102478
-0.429696 -0.415733 -0.167622 -0.23688 -0.24953 -0.354578 -0.0420531 0.370008
0.345831 0.121946 0.224395 0.152427 0.336932 0.23015 -0.241872 0.386559
0.2908 0.0486954 0.485666 -0.32678 -0.115901 0.100101 0.513558 -0.114462
-0.00833671 0.290745 -0.124384 -0.285337 0.149328 0.584593 -0.0920721 0.367482
-0.227506 0.0517067 0.610258 0.0852599 -0.0519136 -0.0215431 -0.0281936 0.304234
-0.248337 -0.175662 -0.0435802 -0.38673 0.256297 -0.0142634 -0.024385 0.110271
0.241278 -0.281555 -0.302605 -0.177579 -0.152993 -0.0691273 0.630561 -0.0424687
0.474258 -0.154707 -0.25111 0.133513 -0.066179 -0.493665 -0.132461 0.179458
0.320139 -0.0025478 0.139033 0.5457 0.118854 -0.0435151 0.0705512 -0.266638
0.0770569 0.441062 -0.194055 0.0342246 -0.188962 -0.033564 0.128794 -0.0921861
0.696689 0.235822 0.756882 0.155795 -0.0234687 -0.165503 -0.150668 -0.213898
0.446644 -0.15943 -0.0792667 0.216967 -0.0319211 0.18876 -0.370844 0.285295
0.120161 -0.191498 -0.352866 -0.0973851 0.00700508 0.100949 0.0684944 0.0390525
0.15887 0.439744 0.0626839 0.20405 0.406175 0.337555 -0.423875 0.25753
0.224859 -0.17906 0.184541 -0.141239 -0.280066 0.0287674 -0.461242 -0.267007
0.264357 0.467797 -0.102287 0.134377 0.240819 0.287457 -0.200348 -0.260171
-0.0904563 -0.193402 -0.481713 -0.192444 -0.22534 0.324215 0.163536 -0.0983072
-0.132816 0.0111338 0.302026 0.327341 -0.26191 0.675924 -0.646048 0.521469
-0.126509 -0.326913 0.291764 0.0735905 -0.170094 0.0180867 0.102621 0.145413
0.513364 -0.0504937 -0.0755697 -0.0893052 0.109361 0.0360067 -0.10642 -0.262393
-0.201642 0.188981 -0.241601 0.0505109 -0.00089817 -0.154738 0.0332042 -0.0480385
0.365814 -0.143439 0.0383165 0.376319 -0.134018 -0.758691 0.475033 0.203703
0.587733 -0.534247 -0.139894 -0.260934 0.183107 0.0385716 0.596704 -0.0776816
0.345077 -0.0704235 -0.427433 -0.279487 -0.111978 -0.109189 0.18401 -0.041528
0.0223894 0.0128492 0.381316 -0.0343945 0.108884 -0.0684178 -0.141381 -0.165812
-0.027962 0.29586 0.253697 -0.0178066 0.266815 -0.385816 0.13562 -0.220837
0.298657 -0.379418 0.413523 0.267079 -0.140393 -0.319228 -0.19688 0.0384169
0.367241 0.0513646 0.159413 -0.0932725 0.296495 0.0150017 0.270803 0.639044
0.251358 -0.236368 0.185374 0.135885 -0.188681 -0.5828 0.0394151 -0.240778
-0.342668 0.640799 -0.367662 0.288943 -0.183001 -0.0980795 0.149766 0.0601921
-0.254436 0.31502 -0.64285 0.140922 -0.422396 0.375443 0.209637 0.154951
0.260747 0.0481214 0.176643 0.383925 0.302988 -0.159213 0.0182344 0.277498
-0.0376896 0.385814 -0.14576 0.156504 0.10875 0.455306 -0.42055 -0.223428
0.252573 -0.0563895 -0.375105 -0.15495 0.0080531 0.200076 0.138883 0.424366
