#global bias W0
-2.01605
#unary interactions Wj
0.0246862
0.229214
0.428838
0.146539
-0.0496045
0.49206
0.529542
0.187719
-0.270809
-0.398875
0.454629
0.542805
-0.105222
0.371609
0.34495
-0.0534819
0.323113
0.134296
0.370366
0.580457
0.326415
0.922102
0.137375
-0.0736904
0.297709
0.466212
0.0420514
0.260906
-0.0874279
0.521146
0.366141
-0.155112
0.297578
0.291074
0.182688
0.378018
-0.0733519
0.269029
0.726954
0.672606
-0.00660066
0.418518
0.177485
-0.125631
0.178402
0.667489
0.227459
0.283839
0.174429
0.134483
0.553453
0.131346
0.241166
0.27815
-0.110744
-0.150077
0.451704
0.598454
0.219768
0.346026
0.151665
0.614617
0.141083
0.486758
0.176223
0.448089
-0.147943
0.264972
0.418418
0.226899
0.429673
0.567831
0.498494
0.39928
0.116154
0.196467
0.255322
0.457249
-0.0970756
0.449212
0.117887
-0.0535211
0.396831
0.268274
0.803385
0.758436
0.147119
0.0578049
-0.0381313
0.3825
0.339837
-0.120139
0.351855
0.545232
-0.0294845
0.447693
0.569234
0.709604
-0.200281
0.229855
0.466332
0.161131
0.00710437
0.25295
0.339204
0.632186
0.53221
0.565751
0.194004
0.456454
0.0589745
0.186779
-0.0894124
0.0757299
0.29192
-0.106018
0.0490499
0.133065
0.222309
-0.0940855
0.320294
0.381377
0.239207
0.208354
0.00485342
0.4069
0.277948
0.151803
0.340183
-0.0496687
0.240329
-0.0957415
0.163954
0.248704
0.00301518
-0.15216
0.294163
0.246691
0.328626
0.278053
0.414115
0.283719
0.238385
0.674645
0.276065
-0.335598
0.518819
0.282227
0.433778
-0.0908794
0.427293
0.692482
0.21597
0.321622
0.308202
0.00266337
0.0238798
0.179738
0.122307
0.0435557
0.394321
-0.0368908
0.00906123
0.347898
0.221728
0.733781
0.417996
0.214064
0.408059
-0.0211033
0.665995
0.120444
0.370626
0.01328
0.428004
-0.121494
0.727377
-0.143573
-0.0887259
0.807516
0.308962
0.0366954
0.469446
0.113021
0.688579
0.357323
0.148214
0.166253
-0.231826
0.285
0.63931
0.624657
0.68479
0.301665
0.629398
0.447481
0.414282
0.117955
0.818704
0.509703
0.176557
0.0417082
0.214849
0.406304
0.498102
0.192985
0.155315
-0.364002
0.267787
0.133792
0.0443315
0.440481
0.268176
0.174533
0.435932
0.252514
0.195661
0.392633
-0.013605
-0.0624511
0.590821
0.318534
0.383579
0.170938
0.525287
0.196822
0.384233
0.608284
0.184657
0.530158
0.312171
0.323785
0.497439
0.171802
0.128495
-0.345101
0.0175526
-0.216342
0.407249
0.348289
0.414687
0.192023
-0.096969
0.532887
0.570997
0.160259
0.192369
0.150825
0.500672
0.0427949
-0.0385735
0.470684
0.183996
0.139068
0.311489
0.568985
0.129365
0.829057
0.0227579
0.16758
0.388273
0.523801
-0.115173
0.0383352
0.0778755
-0.519819
0.672541
0.0275343
-0.323833
0.673762
0.0241165
#pairwise interactions Vj,f
-0.359701 -0.397356 0.35527 -0.262252 -0.0327707 -0.358201 0.211499 0.124521
0.120323 0.350477 0.244306 -0.00161139 0.213349 0.393138 0.346507 1.01287
-0.278436 0.0876131 0.392068 0.154795 0.00844976 0.330842 0.0204716 0.507275
-0.11906 -0.0832792 0.263998 -0.220581 0.422603 0.241336 -0.241755 -0.294854
0.19681 0.049588 0.351902 -0.0789939 -0.0504448 -0.269415 -0.657551 0.0512212
-0.366314 -0.151761 -0.0614034 -0.0110893 0.324875 0.170361 -0.056519 -0.010889
0.332431 -0.0385446 0.141776 0.306402 0.371927 -0.544209 0.00436012 0.90196
-0.768392 0.225423 0.00124354 0.164634 0.247323 -0.0387597 -0.39297 0.101854
0.0504068 -0.0397039 -0.247087 0.0933065 -0.382821 -0.256669 -0.0869443 -0.278464
0.204175 0.210001 0.0972104 0.473865 -0.407233 0.0295002 -0.408788 -0.103371
-0.0441904 0.0758856 0.244375 -0.362139 -0.14005 0.48924 0.0433699 0.004977
-0.0929982 0.594506 -0.393884 -0.237459 0.40088 -0.190792 -0.288232 0.1071
-0.341795 0.121152 0.152478 0.192196 0.171322 0.405003 -0.350013 0.343756
-0.167353 0.245639 -0.0809166 -0.193894 -0.00932629 0.125014 -0.276202 0.164659
0.0811524 0.687231 -0.039539 -0.262424 -0.0763252 -0.575573 0.385432 -0.228407
0.365845 0.303863 0.0166942 -0.556407 -0.0899017 -0.332676 -0.0795703 0.304946
0.187196 0.105895 0.045027 -0.0662971 0.151809 0.645862 -0.202975 -0.208952
-0.107856 0.336825 -0.2897 -0.167052 0.344523 -0.408806 -0.00803835 0.118248
-0.427466 -1.2349 0.0454269 -0.0309927 -0.229114 -0.251745 0.241439 -0.0692875
0.426109 -0.149279 0.286324 -0.154817 0.513597 0.195586 -0.00590094 -0.448033
0.277424 0.851609 0.167305 -0.327663 -0.138365 -0.0489605 -0.077341 -0.391497
0.224525 0.49886 -0.633434 -0.240494 -0.276466 -0.515123 -0.0935593 -0.26152
-0.38078 0.784528 0.683529 0.108766 -0.010104 -0.0129109 -0.286642 -0.515006
-0.144895 0.500507 0.10364 -0.433562 0.850882 0.0556137 -0.177589 0.267324
0.18235 0.705975 0.0276329 0.277749 0.0389117 -0.0960524 0.52604 0.0441334
0.0824126 0.109107 0.291028 -0.22494 0.283097 0.0216687 0.211892 0.0225145
-0.0317483 0.0574399 0.135128 -0.179547 -0.0293822 0.154491 0.200652 -0.0204884
0.0822915 0.66791 0.0922003 0.128954 0.27514 -0.0938417 0.172755 -0.0561839
-0.48247 -0.478292 0.184674 -0.0658637 -0.379961 -0.417389 -0.407752 -0.0208076
0.0671862 0.253231 0.622133 0.00980092 0.239738 -0.0150033 0.435935 -0.149486
-0.0726354 0.31594 -0.0936043 -0.363791 0.30878 -0.279894 0.0277942 -0.231155
-0.109675 -0.0601175 0.470725 0.0346781 -0.406703 -0.402131 -0.311054 0.0497519
0.421477 0.659403 -0.339281 0.0863753 -0.288478 0.112607 -0.0246893 -0.421174
-0.583459 0.347724 0.290861 0.075096 0.406299 -0.280637 -0.694376 0.593691
-0.0834589 0.675317 -0.413816 0.403116 0.504611 0.207629 0.171758 0.414498
-0.209589 0.364968 0.901982 -0.398186 0.51044 0.340089 -0.346034 -0.0244677
-0.523225 0.304907 -0.151684 -0.0931046 0.00847056 0.293703 -0.159207 0.373247
-0.259898 -0.061953 0.141736 -0.446019 0.851308 0.686282 0.0803568 0.63344
-0.372473 0.425652 0.389706 -0.223227 0.220809 -0.0560838 -0.181889 0.68712
-0.378615 0.790139 0.0473802 -0.534994 0.0791543 0.0970545 -0.13045 -0.314416
-0.0302901 0.124127 -0.125654 0.0128285 0.902348 0.130533 0.236187 0.211475
-0.109397 0.249719 0.276656 0.168098 -0.352891 0.16856 0.291385 0.0437299
-0.435417 0.649366 0.00776956 0.490609 0.172745 0.0523986 0.0287949 -0.313636
0.458487 -0.20102 -0.257011 0.158879 0.434926 0.329821 -0.0882939 -0.363043
0.428356 -0.0872231 0.156755 0.0660214 0.21806 0.423704 0.0457981 0.0600883
-0.259671 -0.12034 -0.16722 -0.684618 0.361827 -0.40174 0.148858 -0.0311075
0.0122036 0.328641 -0.0668051 0.0805068 -0.186838 0.131837 0.270417 -0.728919
-0.0192635 0.0991069 0.405053 -0.119682 0.358352 0.129512 0.562697 -0.483641
0.127595 -0.225207 0.24188 -0.0313879 0.181091 0.0517601 0.0840595 -0.39526
-0.0768719 0.298405 0.675154 0.0801434 -0.0688259 -0.298113 0.0983578 -0.206324
-0.188544 0.404039 0.0114184 0.106905 0.222224 -0.256726 -0.521153 -0.0280075
0.0546462 0.639783 0.527718 -0.202836 -0.108653 0.00608856 -0.3408 -0.0937614
-0.126383 -0.244025 -0.134921 -0.359676 0.173025 0.455702 -0.342071 0.454613
0.0658767 -0.153004 -0.0520302 0.115847 -0.300171 0.207291 -0.10416 -0.0638246
-0.280637 -0.0499184 -0.11773 0.31781 -0.308273 -0.251707 0.281289 -0.229052
-0.60208 0.00269868 0.102295 0.0963625 0.190023 -0.134427 -0.185703 -0.0231535
-0.729695 0.210892 0.248759 0.171226 0.0210545 0.409422 0.494845 0.261647
0.183971 -0.170164 0.824545 0.193579 0.222136 0.306815 -0.801715 -0.0551518
-0.426274 0.00236491 -0.308527 -0.408706 0.481734 0.0751134 -0.188703 -0.715662
-0.0296687 -0.317795 0.137604 0.154158 -0.389203 -0.272979 0.385752 -0.196406
0.175207 0.58862 -0.0692647 0.125872 0.306182 -0.306107 0.182999 0.537193
0.0782457 -0.209656 -0.232471 -0.36587 0.0327082 -0.821946 -0.140565 0.44938
-0.419993 0.212929 0.177239 0.460948 0.0106795 0.686526 -0.0693529 0.141245
-0.0852786 0.392924 0.0738745 0.419547 0.0602714 0.523717 0.449125 -0.0987821
0.321009 0.536701 0.105397 0.159187 0.106534 -0.365228 -0.0369908 0.774401
-0.742211 -0.591771 -0.340319 0.972622 0.169246 -0.467327 -0.324368 -0.119864
-0.0669184 -0.611833 -0.221824 -0.47762 -0.115854 0.0381292 -0.300197 0.292641
-0.49551 0.347155 -0.0673338 -0.199131 0.0520291 -0.135642 -0.0327617 0.0600425
0.568963 0.0641599 -0.596096 0.140697 0.522327 -0.0566572 0.250366 0.378101
0.307402 -0.150891 0.397166 -0.575857 -0.112731 -0.137536 -0.449482 0.11803
0.102289 -0.0784734 -0.161093 -0.455855 -0.25046 -0.361043 -0.121047 0.174775
-0.071181 0.137149 0.11398 0.140597 0.807132 0.453955 0.076506 0.280624
0.0838756 0.166383 0.404237 0.198786 0.0217224 0.0719264 0.377877 0.114651
-0.274308 0.558074 -0.003398 -0.381568 -0.315331 -0.322466 0.19027 0.126088
0.561501 -0.120844 0.286743 0.116555 0.0896089 0.375044 0.0246797 -0.307664
-0.152824 0.329748 0.503487 -0.322167 0.242414 -0.276709 0.0684958 -0.0857014
-0.359803 0.280899 0.452986 -0.255081 0.319691 -0.633388 0.0390417 -0.265343
0.470986 0.113489 0.0969662 -0.276914 0.335706 0.76148 0.0258865 -0.343875
-0.103258 0.00684069 0.296919 0.11134 -0.19919 0.218732 0.238203 -0.370655
0.0537581 -0.292612 0.40735 0.476432 0.0842225 0.48952 0.130095 -0.0884804
-0.107336 -0.31326 0.328462 -0.256293 0.144196 -0.127235 0.1959 0.275312
-0.444709 0.360257 -0.117478 0.263245 -0.101131 -0.359674 -0.0434184 -0.15094
-0.251499 -0.0270866 -0.203209 0.506438 0.613474 -0.21127 -0.0118383 0.244407
-0.294723 -0.165407 0.27279 -0.024388 -0.0173582 0.289169 0.765438 0.35691
0.241056 -0.419865 -0.0348305 0.259235 -0.158957 -0.362012 -0.178209 0.00614179
0.133073 -0.233618 0.209963 -0.0507229 0.252271 0.522439 -0.0916453 0.558372
0.374101 -0.192301 -0.517463 0.264945 0.464953 0.628501 0.30699 0.297492
-0.0467728 0.219182 -0.0586054 0.230267 0.273302 -0.0469831 0.172412 0.25172
-0.00183847 0.876875 0.0582713 -0.378321 0.584185 0.43757 0.163624 0.130724
0.374634 0.250168 0.253024 0.0415979 0.27865 0.0112569 0.102605 -0.150889
-0.237209 -0.0781587 -0.5921 -0.701844 0.305983 -0.376452 -0.107101 -0.317273
0.00433066 0.839103 -0.103911 -0.912967 -0.0886307 -0.206687 0.129951 -0.168052
-0.285309 -0.0455632 -0.0933059 0.118516 0.105017 0.221425 0.0315307 0.445017
0.380382 0.0317685 0.128698 0.515707 0.0401311 0.0326002 -0.334957 -0.078508
-0.0601376 0.109613 -0.306802 -0.0492569 -0.0767353 0.0721013 0.104549 -0.244077
-0.167381 -0.0621402 -0.292704 -0.204925 0.170803 0.0678486 -0.143687 -0.398017
0.33675 -0.0808389 0.214832 -0.297265 0.034887 0.677248 0.108682 0.232402
0.00195984 0.778229 0.267568 -0.436068 -0.669901 0.433813 -0.0904492 -0.541775
0.070184 0.0420798 -0.239088 0.274959 -0.427546 -0.314149 0.292819 0.119504
0.422565 0.426568 -0.191753 -0.399314 0.269516 -0.149745 -0.318865 0.600585
0.133874 0.737454 -0.358879 0.357781 -0.284718 0.203733 0.225902 -0.254179
-0.253348 0.271172 -0.133633 -0.462294 -0.206887 0.702994 0.000949655 -0.0760879
0.405981 -0.659289 0.0932352 -0.355846 0.0966495 -0.23003 -0.463868 0.194244
0.132587 0.930478 0.590232 -0.0370373 -0.00139431 -0.416762 0.0686962 0.363831
0.195952 0.398205 -0.237159 -0.300543 -0.0134153 0.687297 0.113727 0.168018
-0.0852733 0.532462 0.256738 0.201098 0.0474651 0.38156 -0.346322 -0.0388309
-0.0398344 -0.317076 0.0369714 0.325069 -0.0581418 -0.420883 0.363111 -0.226763
-0.00433546 -0.0373937 -0.310005 -0.354243 0.431185 -0.281307 -0.091262 0.190861
-0.132169 0.571685 -0.179442 -0.490221 -0.597458 0.0853218 -0.098258 0.334565
0.394173 -0.438219 0.422088 0.0666182 -0.35913 0.0209063 0.180941 -0.220933
0.0791411 0.79453 -0.0808729 0.032955 0.278869 0.0652238 -0.132425 0.100567
-0.132193 0.648908 -0.292637 0.39303 0.128545 -0.24192 -0.215148 0.56712
0.511203 -0.794956 0.0150607 -0.0853916 0.0943306 0.18788 -0.077471 0.628436
-0.342671 0.356605 -0.24228 0.0436765 0.0290214 -0.233044 -0.0739327 -0.281644
0.512165 0.583277 0.213629 0.0208596 0.0546148 0.341251 -0.0816536 -0.446729
-0.0662819 0.23573 0.22352 -0.489158 -0.156616 0.282273 0.19922 0.00525217
-0.618404 -0.0709863 0.384494 -0.158661 0.395095 -0.910286 -0.343674 0.324553
-0.0533973 0.589083 0.00889255 0.0498516 0.373833 0.469173 -0.263915 -0.0662944
-0.150541 -0.04857 0.140467 0.181652 -0.2942 0.0704222 0.313937 -0.70923
-0.0536608 0.171395 -0.257062 -0.0425138 0.0698623 0.170812 0.0714754 0.458144
0.339238 -0.515767 0.311686 -0.0706371 0.278352 0.644543 -0.46576 0.219088
0.32904 0.489094 0.370718 0.682901 0.0627607 -0.114159 0.124371 0.16856
-0.0652108 0.354162 -0.283348 -0.125649 -0.0317826 -0.0358945 -0.00509722 -0.191371
-0.0316707 0.12159 0.471387 -0.117988 -0.209162 0.220798 0.0836934 0.14792
0.0946575 -0.785359 0.50287 -0.208121 0.116502 -0.0410037 0.281447 0.177408
0.474497 -0.188088 0.131678 0.199544 -0.133262 -0.397986 -0.0525431 -0.551177
-0.430943 -0.436582 -0.51375 0.250025 0.355705 0.122285 0.213126 -0.520888
0.272495 0.249342 -0.194737 0.0105281 -0.207785 0.0394679 -0.0520915 0.320796
-0.154668 -0.396542 -0.0678373 -0.595499 0.605671 -0.35792 -0.0735387 0.41084
-0.102623 -0.188313 0.394162 -0.547642 0.00101901 0.000504752 -0.0379465 -0.507737
-0.0867882 -0.249032 -0.0575734 -0.328472 0.0577174 0.423231 0.234893 0.130982
0.320505 -0.622655 -0.481469 -0.373956 0.19419 0.113199 0.34728 -0.32344
0.221999 -0.600058 -0.474786 -0.229073 -0.15348 0.430313 0.345484 -0.355666
-0.912558 0.33443 -0.220913 -0.118095 0.164535 0.315968 0.113869 -0.455732
-0.562176 0.469776 -0.145035 0.357572 -0.227908 0.29096 -0.294096 -0.0901147
0.0194276 0.112319 -0.326192 0.518387 0.135498 0.48045 -0.0961768 -0.0325115
-0.418799 0.278269 0.837709 0.438811 0.108269 -0.210609 0.14024 0.553042
-0.306914 0.152975 -0.090704 0.289709 0.186489 0.194013 -0.18977 0.74297
-0.0529212 0.836337 0.233513 -0.203831 0.331947 -0.570935 0.281142 0.293363
0.177769 0.264566 -0.331728 0.0560546 0.0181552 0.0910548 0.161677 0.094756
0.0407522 0.252554 0.103369 -0.111799 0.0700716 -0.076701 0.312893 -0.248667
0.109969 0.0957641 0.0651832 -0.806145 0.145012 -0.323873 -0.42702 0.434622
0.20842 0.418205 0.0660111 0.26405 0.297799 0.688752 0.114298 0.329348
-0.4328 -0.444088 -0.117041 0.124039 -0.180752 0.0364375 -0.441974 -0.174567
-0.308008 0.456519 0.318113 0.25512 -0.0205617 0.0577474 0.0900213 -0.19787
0.00528638 0.497424 0.729775 -0.640309 -0.175031 0.346816 0.405919 0.146636
-0.315355 0.311866 0.052566 -0.175298 0.416452 -0.125548 0.118687 -0.367719
-0.198886 0.246696 -0.118894 -0.0189021 -0.0281652 0.240253 -0.63338 0.136661
0.187369 -0.358955 -0.138482 -0.210979 -0.188265 -0.144713 0.397828 -0.0130721
0.191987 0.14458 0.278327 -0.825566 0.253612 -0.5655 0.430445 -0.0724875
0.0665852 -0.175848 0.0648762 0.0249154 0.193718 0.380095 0.0230292 0.1327
-0.182244 -0.25645 -0.378026 -0.186788 -0.0882743 0.351084 0.434722 -0.094349
-0.411495 -0.125736 -0.63607 -0.752438 0.11348 0.173416 -0.273366 0.503191
-0.34379 -0.0391466 0.213524 0.295464 0.357366 -0.395886 -0.0188409 0.33882
0.0966246 0.405051 -0.0522823 0.113169 -0.176638 -0.0860234 0.153956 -0.387194
-0.935669 0.836687 -0.26927 0.394313 0.346 0.642143 -0.282378 -0.185097
-0.095468 0.190978 0.729036 0.255981 0.0822442 -0.230117 -0.195907 -0.0247774
-0.319805 0.0553464 0.224689 -0.0640994 0.137899 -0.138933 0.219857 0.476705
-0.30686 0.0700151 -0.148603 -0.471802 0.016222 0.0632943 0.13856 0.372889
0.00148486 0.314564 0.0378985 0.0485099 0.110279 -0.246105 0.326899 0.273327
-0.0659155 -0.467073 -0.395601 -0.185418 -0.169236 -0.614486 0.0359197 0.148538
-0.304685 -0.0441217 0.0785907 0.0657069 0.0145567 0.57926 -0.134628 0.64324
-0.294437 0.467017 -0.0426157 -0.00788933 0.0702228 0.545418 0.21476 -0.0422032
0.0693269 0.0906111 0.822338 0.385984 0.675398 -0.001785 -0.299738 0.166638
-0.296937 0.630438 -0.326821 -0.000420007 0.0340892 -0.293232 -0.404398 -0.353623
-0.29619 -0.260818 0.342951 0.0320793 0.228581 -0.0132458 0.2185 -0.101875
-0.0779259 -0.18494 -0.496412 -0.440654 -0.0448655 -0.224434 0.277977 -0.409655
-0.0148418 0.78003 -0.0184105 0.0315073 -0.200431 -0.364192 -0.268943 -0.334978
-0.334897 0.132167 -0.218475 0.13866 0.278326 0.200167 0.295183 -0.214711
0.207222 1.91318 0.206491 -0.220843 0.249983 0.00268397 -0.150638 0.131151
0.0654434 0.575534 -0.0438706 -0.0398274 0.105195 -0.658875 0.111324 -0.436938
0.179583 0.0835344 0.315125 -0.0799599 -0.0336828 0.0619366 0.481367 -0.144931
0.427712 -0.461974 -0.0247847 0.0897473 -0.153151 -0.35328 -0.0256631 0.359881
0.227487 0.109681 -0.024877 -0.148172 0.219048 -0.182674 0.390096 0.0761153
0.194707 -0.04937 0.0316436 -0.0944792 0.160294 0.00302222 0.381446 0.235712
-0.409751 0.145647 0.174174 0.297969 0.223504 0.315303 -0.045874 0.209304
-0.350063 0.411385 -0.0523319 0.376179 -0.131573 0.0245216 -0.31831 0.176569
0.198985 0.00845404 0.359014 -0.43957 0.368321 -0.0706042 0.184744 0.0509572
-0.191025 0.826366 -0.58156 0.0355639 -0.181056 -0.367051 -0.165313 -0.0324972
0.122586 0.42583 0.228244 0.0506213 0.0309047 0.387989 -0.15331 -0.323703
-0.3308 0.283282 0.0296074 0.023838 0.168535 -0.125834 -0.0761648 -0.297034
-0.15163 0.74615 -0.0268771 0.500858 0.353177 -0.594396 0.0425841 0.371184
-0.0694277 -0.131217 -0.128449 0.0210105 0.588672 -0.386418 -0.0143253 -0.206214
-0.465755 0.102365 0.592978 -0.240771 -0.17744 0.920807 0.24113 -0.423454
-0.518145 -0.210089 0.0068947 -0.322893 0.418902 0.096776 0.250672 -0.584498
-0.114179 0.192242 -0.231582 -0.489394 0.234292 -0.24976 -0.222973 0.165957
0.444251 0.493137 -0.11393 -0.0492061 0.149413 -0.172113 0.206778 -0.360612
0.284273 0.188405 -0.189208 -0.145462 -0.23311 -0.254959 -0.0594634 0.191712
-0.514904 -0.304069 0.107764 0.0346528 0.181114 -0.46183 0.0622572 0.192193
-0.32051 0.262341 0.409167 -0.00597991 -0.182621 -0.145413 0.406995 0.0162841
-0.239453 -0.234166 -0.0364968 0.110546 0.224055 0.537453 0.444768 0.807938
-0.0462946 -0.336849 -0.0166026 -0.101727 -0.0972441 0.0729228 -0.0319689 0.387484
-0.224111 -0.0489423 -0.125147 0.0142329 0.0347835 -0.13504 -0.08521 -0.649741
-0.0892041 0.0656719 0.151938 -0.525793 0.293338 0.489563 -0.424691 -0.508915
-0.066937 -0.102151 -0.261672 -0.0596867 0.109809 -0.0641889 -0.143287 0.248103
0.229245 -0.0299707 0.232161 -0.405222 0.788324 0.319128 -0.134978 -0.172659
-0.152539 0.291694 0.0881773 -0.147254 0.340407 0.349044 0.0539921 -0.29369
-0.120682 0.144583 -0.0843653 -0.575676 -0.338922 -0.866527 0.390268 -0.178902
0.0307202 0.922625 -0.365345 0.0646961 0.20005 -0.220518 0.818779 -0.243086
0.0985863 -0.0294675 0.0920523 -0.0852345 -0.29762 0.910103 0.235472 0.0955085
0.254275 0.566167 0.220719 0.738478 -0.246158 0.0634226 0.191841 -0.0508947
-0.187823 -0.206244 -0.0841122 -0.190285 0.472891 -0.0406976 0.366653 -0.26575
0.285285 -0.483363 0.0573669 0.0730293 -0.035429 0.15865 -0.389875 -0.196582
0.275271 -0.33384 0.24037 -0.261098 0.092832 0.56151 0.163726 0.499595
0.291783 0.166797 0.69833 -0.339007 0.329062 -0.332515 0.403736 -0.0405229
-0.489268 -0.279706 -0.0367303 0.521227 -0.263666 -0.0580484 -0.0253739 -0.237666
-0.0132979 -0.573426 0.0300106 -0.280707 0.0360248 0.36039 0.431219 -0.321892
-0.131814 -0.422562 -0.260694 0.352341 0.15456 -0.119758 -0.0686221 -0.0428499
-0.304213 0.368888 0.333609 -0.605934 0.227526 -0.848537 0.347878 0.293622
0.250493 0.0256423 -0.254537 0.162188 -0.0145557 0.452526 0.0235402 -0.453807
-0.547055 -0.0554458 0.22573 -0.565389 0.738045 0.0918519 0.0545683 0.109161
-0.0507726 -0.0341554 -0.315814 -0.370398 0.462039 0.0359239 0.395548 -0.538242
-0.0195177 0.129372 0.277739 -0.0819657 -0.108446 -0.25461 -0.290618 0.27361
0.386881 -0.258965 0.553634 0.222558 0.319445 -0.634086 0.418761 0.625314
0.0896016 0.535565 -0.461612 -0.214162 0.257058 0.0198839 0.171477 0.239907
0.0969567 0.362172 0.836151 -0.0602274 -0.286122 -0.334019 0.308059 0.381607
0.0316162 0.196644 -0.0493826 -0.255228 0.00100548 0.207912 0.0533204 -0.308502
0.069668 -0.234438 0.282602 -0.40513 -0.225996 0.420527 0.0914169 0.799068
-0.347758 -0.818383 -0.109491 -0.0537166 -0.0862045 -0.00677614 0.0855841 -0.199056
-0.0789702 0.766807 0.112557 -0.284842 -0.0419513 -0.491939 -0.205337 0.263266
0.0605389 0.587366 -0.097249 -0.395788 0.423958 -0.537016 -0.0620883 0.464526
-0.443374 -0.204051 -0.271578 -0.158188 -0.00885415 -0.276878 -0.434331 -0.0949134
0.177191 0.0780917 -0.154509 0.678416 -0.143969 0.526163 0.0637906 0.194952
0.0441439 0.720376 -0.167304 0.00183433 0.133384 0.184131 -0.234959 0.0997381
0.22599 -0.106972 0.274059 -0.0433034 0.147946 0.11663 0.126486 -0.325333
-0.0981017 0.360268 -0.0364667 -0.752304 0.0500813 0.604659 -0.286399 -0.240553
0.034426 0.688006 -0.539011 0.0147201 -0.100663 -0.0706111 -0.260562 0.264494
0.0702422 0.0901113 0.892824 0.612415 -0.314654 -0.457464 -0.00704557 0.341078
0.143988 -0.128593 0.296055 -0.383488 0.271246 0.0548903 0.651987 0.375011
-0.322625 -0.576908 -0.201822 0.0322509 0.314173 -0.0727225 -0.426159 0.173773
-0.05249 -0.0452787 0.0436695 -0.041028 -0.256506 0.68862 0.207578 0.328133
-0.214066 0.155593 -0.0598759 -0.458986 -0.124985 -0.195413 -0.0774862 0.0649319
0.223397 0.161827 0.399468 -0.0704072 0.103039 0.185501 0.126717 -0.510538
-0.0563403 0.220635 -0.450208 0.432195 0.361404 0.283507 -0.187709 0.243404
-0.030739 -0.608669 -0.508154 0.191619 0.148151 0.389502 0.429727 0.0644948
-0.402943 -0.619858 0.280454 -0.327955 -0.0164306 -0.498426 0.469042 -0.228716
0.51133 0.52621 -0.678734 0.0903327 0.44094 0.042677 -0.0972821 0.430478
0.133503 -0.394029 -0.233289 -0.15428 0.0864599 0.313339 -0.0513951 0.467416
-0.198836 -0.492217 0.0857762 0.147958 0.385655 -0.262032 0.327438 -0.375163
0.380089 0.836964 -0.257773 -0.046858 -0.0234161 -0.0382001 0.0167735 0.105804
-0.160403 0.417537 0.24851 -0.0574781 0.520766 -0.367878 -0.608408 0.404469
0.0398145 0.432889 -0.0590702 -0.0225921 0.245299 -0.143034 0.404019 -0.643522
0.159919 0.304058 0.227179 0.30394 -0.0328888 -0.0165153 -0.273238 -0.185925
0.265927 0.397261 0.475371 0.132907 0.807854 0.286575 0.107841 0.0872397
-0.0775838 -0.0733267 -0.134706 0.343311 0.0706919 -0.0561908 -0.202515 0.473543
-0.212943 0.379998 0.507073 -0.467499 -0.5168 -0.632271 -0.0194083 0.503965
-0.250171 0.380984 -0.214162 -0.391329 -0.170333 0.301557 -0.0741351 0.304911
-0.120011 -0.396629 -0.402637 0.475549 0.426043 0.204713 0.192052 -0.0706571
-0.0552326 -0.313214 0.00735701 0.0494734 -0.0750671 0.232673 0.0604029 0.887065
0.0689673 -0.251779 -0.288048 0.246257 -0.807236 0.0549195 -0.11645 0.75413
0.278204 0.513561 0.0920911 0.152397 0.42994 1.04919 0.255927 -0.536294
-0.0300331 0.00276163 -0.0731282 -0.428527 -0.0579408 0.274557 0.310176 0.176092
-0.0921502 0.308287 -0.142262 0.242216 -0.00569924 -0.519315 -0.0266576 -0.246709
0.535276 0.46092 -0.0756722 -0.00328085 0.334839 0.283328 -0.303045 0.068691
0.376899 0.0893108 -0.112384 -0.337274 0.357369 -0.128908 -0.153165 -0.291761
-0.181349 -0.268989 0.367416 0.458265 0.486276 -0.655084 -0.0546017 -0.201901
-0.11825 0.546645 0.0529282 -0.134005 -0.0584703 0.0139482 -0.0951304 0.231949
0.110161 0.0901141 -0.369036 0.31253 0.00294884 -0.0334184 0.0032533 -0.40916
-0.529556 0.720255 0.105425 0.00245913 -0.0683173 -0.599686 0.228027 0.44962
-0.7696 0.89421 -0.15666 0.298082 0.0850225 -0.649969 -0.888606 0.0163033
0.138155 -0.203559 0.0657266 0.0522911 0.173744 0.071786 0.278748 0.368351
-0.0539742 0.502119 0.265275 -0.670648 0.264981 -0.0384994 0.352661 -0.211637
0.197608 -0.265819 0.432684 -0.23306 -0.0260367 -0.219269 -0.0110062 0.668633
-0.333493 0.358639 0.222406 0.0137681 0.0511753 0.364289 -0.385821 0.23343
-0.157958 -0.904813 0.0576724 -0.139954 -0.270999 0.224833 -0.368403 -0.0622851
-0.0122266 0.125709 -0.0302561 -0.348174 -0.571073 0.718717 0.198181 0.535038
-0.312078 0.278246 -0.196319 -0.320097 0.485027 0.146424 0.049697 0.205414
0.588334 0.11424 0.0162588 0.080874 0.296364 -0.404195 0.299168 -0.556261
0.104108 -0.450291 0.132628 0.237919 -0.249328 0.196997 -0.15616 0.206735
0.0636799 0.00692243 0.371451 0.331545 0.166143 -0.422571 -0.262356 0.707087
0.185651 0.382591 -0.778483 -0.429327 -0.0409149 0.456598 -0.224612 0.548784
