#global bias W0
-2.01171
#unary interactions Wj
0.541755
0.131744
0.0688911
0.253081
0.03374
0.275154
-0.222182
0.00851185
0.450174
0.0362551
-0.325072
0.337189
0.104394
0.900957
0.397368
0.426699
0.448748
0.40707
0.137919
0.508328
0.00667277
0.224312
0.0841659
0.391014
0.612906
0.0510974
-0.231514
0.149921
0.571494
0.146524
-0.0192275
0.422074
0.571836
0.22655
0.552473
0.248035
0.349954
0.170239
0.774088
0.58605
0.303111
0.388038
0.360945
0.135601
-0.179013
0.330459
0.357193
0.33005
0.0618183
0.21778
0.103299
0.549068
0.15607
0.027669
0.407265
0.212441
-0.0327944
-0.068801
0.29925
0.300197
0.310536
0.327487
0.36122
0.256923
0.947822
0.379676
0.580474
0.228069
0.319085
0.233197
0.27095
0.296117
0.550651
-0.173248
0.201026
0.351358
0.319181
0.517504
-0.0176969
0.53464
-0.159141
0.0402107
-0.120959
0.235351
0.422227
0.0788399
-0.374919
0.0821518
0.371841
0.208433
0.432381
0.161372
0.34713
0.294557
0.080363
0.588432
-0.00412616
0.384774
0.225484
0.415226
-0.140227
0.582661
-0.230717
0.617332
-0.0437709
0.766333
0.0357516
0.415119
-0.0698181
0.506422
-0.0990471
0.0408014
-0.161815
-0.205628
0.217366
0.150148
0.101358
-0.0379355
-0.0158981
0.171098
-0.0298599
0.349597
0.0553049
0.251126
-0.0392893
-0.325275
0.126162
0.16221
0.169302
0.13955
0.527315
0.325397
0.188642
0.516988
0.154482
0.070891
0.198156
1.02709
0.0813489
-0.240776
-0.248119
0.618088
0.563324
0.30918
0.296677
0.340443
0.752303
0.173288
0.371031
0.256636
0.300185
0.213623
-0.026918
0.46856
0.0271117
0.338399
-0.205859
0.347071
0.738189
0.825834
0.324056
-0.112077
0.440668
0.631177
0.432764
0.673007
0.640343
0.143406
-0.0534275
0.618273
0.263365
0.0121962
0.415244
-0.278576
0.149785
0.165626
0.040323
0.534134
0.712384
0.208889
0.344432
-0.0251982
-0.344924
0.433882
0.421556
0.337253
0.568484
0.414007
0.306743
0.0594757
0.204736
0.040241
0.192018
0.347402
0.556005
0.0534492
0.0483593
0.115043
-0.00561558
0.18402
0.503946
-0.135188
0.500121
0.215004
0.0332665
0.460243
0.844128
0.278563
-0.00387721
-0.0347094
0.606171
0.467508
1.05644
0.461658
0.582363
-0.0222727
0.449592
0.29197
0.0559643
0.068428
0.0531237
0.296023
0.0855284
0.515774
0.202022
0.242931
0.0418368
-0.0722602
0.161422
-0.0720055
0.29137
0.214126
0.752434
0.236496
-0.161575
0.0146755
0.0683052
0.377477
-0.175655
-0.269633
0.0955188
0.335269
0.121783
0.23727
0.212073
0.0882104
0.333698
0.26256
0.322097
0.639018
0.259156
0.362721
0.357666
0.0356131
0.583383
0.284352
0.230367
0.721263
0.260637
0.458625
0.161929
0.724596
0.931114
-0.24264
-0.0624422
0.277592
-0.0468937
0.0660269
0.0498469
1.04872
0.61826
#pairwise interactions Vj,f
0.245463 -0.235665 0.126139 0.00223118 -0.276087 -0.231344 -0.318637 0.265634
0.225704 -0.363254 0.228127 -0.0317865 0.15405 -0.114966 -0.133658 0.201429
-0.100137 0.568075 0.0436245 -0.273433 0.279243 -0.383336 0.0395358 -0.261067
-0.0642084 0.369512 0.270258 -0.246029 -0.0548005 -0.673015 -0.262988 0.32617
-0.112951 -0.0708845 0.244767 0.136779 0.445482 -0.16365 -0.335809 0.160724
-0.754683 -0.0675378 0.0187719 0.142051 0.488993 -0.762342 0.0731248 -0.307559
0.491769 -0.472869 -0.0552907 -0.422634 0.225092 -0.0314808 -0.119641 0.499061
-0.461129 0.496141 -0.00293543 -0.0745903 -0.0690778 -0.336014 -0.279945 0.0822167
-0.473261 0.26299 0.295545 -0.158446 0.508519 0.117268 -0.301394 -0.218458
-0.0572654 -0.230051 0.394943 0.276119 0.134961 0.209537 0.378732 -0.14043
0.0889674 -0.176952 0.262635 -0.339827 0.0529193 -0.500307 0.157595 -0.0685232
0.203824 0.0760134 -0.472911 -0.679336 0.387262 -0.225308 0.124243 -0.488048
0.403978 0.379582 0.113806 0.122666 0.225586 -0.0281541 0.0979703 -0.30137
0.41096 -0.855284 -0.289043 0.515688 -0.485456 0.0840711 0.144432 0.388416
-0.392265 0.291809 0.337932 0.493104 0.453232 0.389816 -0.193562 0.0999143
-0.112118 0.158005 0.153795 0.305122 0.125024 0.155529 0.334923 0.115827
-0.75512 -0.356414 -0.092506 0.396487 -0.159773 0.310274 0.00629824 0.591577
-0.0583294 -0.199799 -0.309107 0.219558 -0.0282011 -0.658613 0.0852269 -0.595129
0.124831 -0.217913 0.398623 -0.284746 -0.0257418 0.564931 -0.243036 0.198707
0.122361 0.0536776 0.252104 -0.0257607 -0.179632 -0.492409 0.122943 -0.414728
0.453836 -0.465833 -0.445587 -0.0853479 0.106981 -0.0303712 -0.301361 -0.135405
0.172451 -0.45956 0.384271 0.3491 0.29074 -0.207245 0.218448 0.421883
-0.0128569 0.355605 0.408016 0.35872 0.460698 0.115585 0.223463 -0.3131
-0.766436 -0.337994 -0.0952757 0.33085 0.206419 -0.570495 -0.0316603 0.406649
-0.0801965 0.0472873 0.159722 0.128739 0.91974 -0.312047 0.0228534 -0.176345
-0.0470141 -0.446511 0.347917 0.0362395 -0.296857 -0.230279 -0.28915 -0.412935
-0.507308 -0.0644939 0.432555 0.0160788 -0.0476524 0.760765 0.253077 -0.244852
-0.799242 0.161781 -0.0493951 0.29369 -0.00781443 0.0351709 -0.519337 0.0264173
0.210329 0.264342 0.154352 0.0643732 -0.568972 -0.451555 0.0486333 -0.572606
-0.257146 -0.0845135 0.554326 -0.108731 0.181043 -0.358544 0.208392 0.355029
-0.390643 -0.316257 0.0890244 -0.0234941 0.127037 -0.216586 -0.336495 0.0644083
-0.121579 -0.329523 0.478835 -0.0226372 -0.124441 0.16412 0.0758823 -0.218495
-0.173817 -0.770531 -0.144686 -0.00824248 0.132458 -0.0864774 0.0249936 0.173871
-0.0905421 -0.473548 0.490813 0.489697 0.0264447 -0.379515 0.442155 -0.935667
-0.151016 0.39115 0.440457 -0.200783 -0.498934 0.213357 -0.104513 -0.308556
0.552433 0.305714 0.0887772 0.470664 0.220258 0.327253 0.450633 0.325677
-0.278625 -0.0307395 0.12872 0.10822 -0.124198 0.0658088 0.000219529 0.383459
-0.705079 -0.408305 -0.217733 -0.0435612 -0.158102 0.366243 -0.249879 0.218346
-0.253914 -0.152453 -0.209737 0.180789 -0.330304 -0.504492 0.197042 0.224131
-0.337499 -0.44418 0.165523 -0.0903288 0.388331 -0.0712256 -0.0313234 0.362532
0.078538 0.238151 0.0231686 1.0678 0.339291 0.406581 0.232419 0.0211122
-0.765018 0.0772927 0.660652 -0.180984 -0.226989 -0.189984 -0.181937 0.107866
-1.07336 -0.998882 0.585182 0.261501 0.455409 0.0335711 -0.114171 -0.169502
0.0232661 -0.310405 0.335832 -0.171447 -0.0497783 -0.17645 0.240331 -0.242367
-0.210291 0.502327 0.0051549 0.372777 -0.306871 0.17002 -0.246846 -0.21048
0.388571 -0.283975 -0.0123009 -0.312435 -0.3346 0.187382 0.0870939 -0.457459
0.0113177 -0.103528 -0.188389 -0.0552604 0.530395 0.363659 0.0766951 0.0972517
-0.320866 0.379083 0.360902 0.136991 0.229293 0.325658 0.158958 -0.0403148
0.123084 0.313056 0.269866 0.205503 -0.0106396 -0.150544 0.00526488 0.332544
-0.102543 0.0332288 0.0140155 0.313148 -0.237896 0.0170101 0.0903709 0.660713
-0.204751 0.158716 0.31456 0.253826 0.344971 0.00801618 -0.0187251 0.0089253
0.205377 -0.264814 0.694299 0.184336 -0.0577537 0.219668 0.203707 0.395297
-0.126739 0.0596885 0.208621 -0.572027 -0.139425 -0.402967 -0.0577404 -0.0749771
-0.245172 -0.0815602 0.272546 0.111435 -0.11029 -0.180663 0.00790357 -0.191247
-0.0371859 -1.244 -0.153584 -0.213063 0.140428 0.0119016 0.116642 -0.0170572
-0.26388 0.779899 0.272571 0.116867 -0.0769969 -0.589292 0.217769 0.00682249
-0.978919 0.0890218 0.582341 -0.148594 0.334183 0.175912 -0.0207709 0.508498
-0.0772703 0.0296927 0.5295 -0.0839155 0.209809 0.285425 -0.559038 -0.163032
0.0127081 0.07447 0.304569 0.186509 -0.397028 -0.123282 0.131363 0.0988534
0.163758 0.306533 -0.361239 0.0460854 0.226795 0.139128 0.102389 -0.0120498
0.224534 0.116759 -0.140494 0.207865 0.197442 -0.106446 0.218447 -0.473502
0.334139 -0.0763798 -0.251905 0.440001 0.0892112 0.621794 -0.115291 0.362193
-0.178684 0.388359 -0.0654072 0.0113763 -0.200541 0.0337615 0.113535 -0.195164
-0.136189 0.419392 0.0356702 0.510677 0.11976 -0.2442 0.0317303 -0.396194
0.222978 0.551641 -0.225475 0.35429 0.263691 -0.257782 0.0932117 -0.243022
-0.464471 -0.271615 -0.0296147 -0.307135 -0.187613 -0.570056 0.102994 0.262877
0.176406 0.0428287 -0.0361244 0.120788 0.290901 0.712666 -0.205387 -0.890736
-0.307797 0.0314972 0.21178 -0.419557 -0.108317 -0.491877 0.35247 -0.0539868
-0.00130449 0.43545 0.057083 -0.0845719 -0.432313 0.178989 -0.0703819 -0.299217
-0.811981 -0.163914 0.1549 -0.114733 0.605337 -0.322027 -0.0730479 0.185541
-0.442131 0.265995 -0.428695 0.298287 0.365036 -0.709806 0.136863 0.0788871
0.193368 -0.0849226 0.163071 0.164446 -0.358257 0.0722574 0.361344 -0.311921
-0.341489 -0.475848 0.0198857 0.494502 -0.214459 0.0981982 -0.170056 -0.16632
0.236582 0.20037 0.176235 -0.102374 0.418344 -0.114443 -0.108202 0.281233
-0.594889 0.645714 0.523021 -0.0643937 0.2695 -0.52122 -0.243548 -0.248563
-0.0887159 0.0710031 0.247893 -0.0197579 0.0979595 0.149403 -0.111947 -0.35518
-0.46928 0.389741 -0.326346 0.160683 0.50819 -0.0716486 0.138061 0.107674
0.405034 -0.189443 0.235453 -0.377655 -0.239892 -0.485768 -0.113854 -0.0637477
-0.115533 0.41691 0.141997 0.50439 0.247678 0.413397 -0.216156 0.120325
0.283446 -0.0809468 -0.214675 0.495049 0.621755 -0.106176 -0.207893 -0.0698348
-0.607229 0.895343 0.574903 -0.27411 0.309444 -0.125956 0.359031 -0.185631
-0.0987083 0.0476031 -0.103281 0.123531 -0.25095 -0.0717963 0.14744 0.223996
-0.508176 0.486395 0.0401622 -0.198549 -0.154428 0.0818226 0.0524965 -0.0377648
0.464331 -0.120758 -0.0538544 0.0636037 0.170832 -0.112101 -0.0265408 -0.143061
0.261907 0.120783 0.299601 0.437533 0.356908 -0.102192 0.508109 -0.504184
-0.520642 -0.318504 0.192167 -0.0329118 0.187342 0.190646 0.0498654 0.200296
0.318533 -0.303526 -0.0986403 0.153385 0.18764 -0.0126139 0.0429141 -0.189488
-0.377891 0.185865 -0.411013 0.0281366 -0.179933 0.0460533 0.179521 -0.0553546
-0.406799 0.11895 0.085096 -0.456962 -0.00331144 -0.458611 0.290857 -0.0718043
0.383851 0.513614 -0.366488 -0.126705 0.133855 -0.836111 0.249524 -0.615116
0.0838879 0.312257 0.0121899 0.0676527 -0.385334 -0.0760465 0.111235 0.0549155
-0.0633606 -0.227335 0.402922 -0.195856 -0.13194 0.353113 -0.357367 -0.384973
-0.82084 -0.645402 -0.218183 -0.39504 0.43224 -0.190491 -0.0919052 0.13335
0.131821 -0.522344 -0.611777 0.11275 0.525582 -0.439839 0.16699 0.139875
-0.152677 -0.298302 -0.308843 -0.333034 -0.15587 -0.161764 -0.492561 0.0814682
-0.328644 -0.028005 0.091438 0.135203 0.290528 0.0500167 -0.127764 -0.21299
-0.184905 -0.0347946 0.0168778 -0.19236 -0.14865 -0.690775 0.255162 -0.254402
0.490314 -0.197468 -0.376545 -0.0636367 0.131675 -0.00249094 0.141535 -0.27162
0.37131 0.182995 -0.259221 0.0598467 -0.301737 0.207925 0.302669 0.323104
0.139439 -0.280029 -0.34339 0.443644 0.290503 -0.0481395 -0.306467 -0.354956
0.223402 0.520252 0.187372 -0.0271099 0.502822 -0.269892 -0.178334 -0.483272
-0.13868 -0.229913 -0.0520638 -0.167687 0.143513 0.259104 -0.446626 -0.353596
-0.070675 0.0667874 -0.301719 0.366775 -0.119809 -0.197376 -0.178135 0.272549
-0.0934378 -0.141048 0.0805706 -0.2231 -0.0616447 -0.369011 -0.13778 0.367371
-0.256323 -0.273814 0.171019 0.525103 -0.0944891 -0.324443 -0.258346 -0.370114
0.0122161 -0.473318 0.0584408 0.230422 0.124905 -0.141428 -0.00105266 0.0977714
0.0485329 -0.104352 -0.195558 0.214801 -0.0691898 -0.0403871 0.00813011 0.499721
-0.199997 -0.412008 -0.0173371 0.259603 0.392033 -0.346809 -0.047506 -0.2532
0.374599 -0.192566 0.153917 0.415905 -0.264289 0.505199 -0.392976 0.00299443
-0.390157 -0.285975 -0.213373 0.0438889 0.487766 0.195317 -0.236664 0.0754877
-0.0052437 0.22258 0.330212 -0.355522 -0.0969599 0.220929 0.111778 0.463096
-0.308134 -0.163294 -0.0129059 -0.0404579 -0.0347253 -0.151135 0.109992 0.451413
-0.289048 -0.0465876 -0.335541 0.0352513 -0.153972 -0.37024 0.273167 0.704207
-0.251441 -0.421575 0.173225 0.291863 -0.00301417 0.365578 -0.24015 0.624834
0.240027 0.776578 -0.473055 -0.489751 0.338069 -0.0807206 0.167049 0.269622
0.0665208 0.0734138 0.385129 0.181003 0.304875 0.621409 -0.0339021 0.572976
-0.0385345 -0.457679 0.26012 -0.0789821 -0.0751871 0.134119 0.0847261 0.112007
0.166253 0.0211505 0.27206 -0.107569 0.146444 0.03913 0.133237 0.204044
0.400996 0.498019 -0.145093 0.0925173 0.0461922 -0.489856 0.0676244 -0.239352
-0.234962 -0.214932 0.0359469 0.137656 0.532982 -0.850993 -0.484628 -0.393606
-0.0140877 0.221426 0.0527408 0.370211 0.151616 -0.926181 0.146145 0.322958
-0.253325 0.0520778 -0.0641255 0.250906 -0.172724 0.362431 -0.198974 0.165653
-0.0306517 0.172087 -0.331161 -0.599778 0.245097 -0.327609 0.0789564 0.0716073
-0.43683 -0.132327 -0.231562 0.0946541 -0.0492658 -0.0499015 0.11711 -0.0577657
-0.284713 -0.215217 -0.0288874 0.114776 0.606658 -0.489862 0.1437 -0.0655492
0.371891 0.263232 0.146438 0.358379 0.193002 -0.567198 0.203087 0.151905
-0.582402 0.271106 0.301581 -0.201858 -0.0262938 -0.0203434 0.137584 0.453142
-0.258695 0.155989 0.189929 0.537209 0.227075 0.36174 -0.0634189 0.25997
-0.361002 0.0125191 -0.261212 -0.162286 0.100049 1.0959 -0.190646 -0.189356
0.218091 -0.605472 0.276976 -0.219066 -0.0495428 0.109216 -0.0639613 -0.561621
0.37656 0.951912 0.164179 -0.0228082 0.0968178 0.364885 0.453424 -0.0140255
-0.231254 0.0102668 0.387978 -0.142653 -0.197712 0.0185899 0.114561 -0.0678707
-0.25936 0.0819691 0.01348 -0.144828 0.461009 -0.379159 0.481748 0.707278
-0.211081 0.601384 -0.0359047 -0.135053 0.373064 0.433109 -0.0529556 0.0576691
-0.183399 -0.339709 0.471532 0.312064 -0.079053 -0.31761 -0.0122996 -0.145265
-0.266456 0.0712084 0.167943 -0.124414 0.250804 -0.984039 -0.0242203 0.162422
0.426035 -0.0525501 -0.0217752 0.175637 -0.0909035 0.312378 0.0779026 -0.440107
0.238485 -0.109267 0.000566431 -0.526556 0.0802486 -0.407732 0.078483 0.0817918
0.0862166 -0.583904 0.0963594 -0.105905 0.151778 0.697773 -0.466052 0.502484
0.600447 0.10362 -0.561475 0.24851 0.107461 0.204404 0.172349 -0.0866451
-0.132523 0.428968 -0.047067 -0.309296 0.638213 0.0421129 0.394683 0.36795
-0.0172939 -0.429219 -0.730392 -0.284058 -0.0722952 -0.0987901 0.161797 0.233179
0.0893993 -0.105845 -0.0967643 0.435529 0.72192 -0.939947 0.000302242 -0.335527
-0.366354 0.264031 -0.411066 0.399904 0.193326 -0.40365 0.297904 -0.243168
-0.123363 -0.165086 -0.270905 -0.231718 -0.258222 0.0926947 0.144298 0.03393
-0.419565 -0.0668394 0.311099 0.0333222 -0.333069 -0.13346 0.0234034 0.893609
-0.238225 0.505019 -0.144353 -0.260422 -0.0386142 -0.380756 -0.0490634 -0.389503
-0.643417 -0.508886 0.230407 -0.244592 -0.229775 -0.388761 -0.0695577 -0.458781
0.124746 0.0763357 0.0731689 -0.0741441 -0.0246916 0.0488848 0.294168 0.426128
-0.320519 0.000433057 0.00395687 0.0555862 -0.123462 0.410889 0.0228294 0.0699365
-1.04593 0.0372848 -0.202269 -0.365897 0.0739643 0.147354 -0.269623 0.0535861
-0.412394 0.355217 0.239012 -0.311623 0.435049 -0.352053 -0.113625 -0.458114
-0.22771 -0.00505111 0.177051 0.231562 0.0418768 -0.0490634 -0.000427232 0.0614857
-0.417811 -0.25831 0.496467 0.0987213 -0.198225 -0.413636 0.0447583 -0.0448085
-0.248973 0.0143958 -0.00743254 -0.272354 0.802848 -0.0926829 0.0352131 -0.216362
0.279009 0.119537 -0.283635 -0.0489405 0.530737 -0.00231072 0.305719 0.177474
0.0821515 -0.243397 0.248898 0.343092 -0.24776 -0.00975196 0.0048548 0.11562
-0.495265 -0.319143 0.31185 0.565237 0.0418231 -0.0919836 -0.101416 0.159073
-0.0305572 -0.153536 0.419638 0.539701 -0.424856 0.0885446 -0.00666176 -0.0965111
0.14049 -0.872986 0.257723 -0.0373749 -0.391135 0.0208955 0.106138 0.275304
0.503838 0.4047 -0.0834509 -0.15375 0.334526 -0.0435455 -0.0865708 -0.109636
-0.0564208 -0.26056 0.200916 -0.154482 0.0710844 -0.288025 0.240434 -0.115199
0.184043 -0.0505596 0.0818459 0.0337987 -0.336512 0.0818887 0.237367 0.168297
-0.35838 0.272797 0.0285959 0.55837 0.782135 -0.606873 0.0981765 0.169986
0.11356 -0.27423 -0.0389452 -0.415499 -0.0680274 0.0364564 0.304793 0.104232
0.389198 0.117794 -0.246155 -0.101805 0.0730839 0.168426 -0.0601533 -0.810073
0.262891 0.0707632 0.0520445 -0.0868759 0.318478 -0.456395 -0.0683243 -0.0487444
0.0396136 -0.880349 -0.405208 0.168929 -0.365457 0.522802 -0.170763 0.416948
0.102805 -0.193516 0.545992 0.161609 0.283914 -0.500369 0.16707 0.561137
-0.0238999 0.100241 0.0236427 -0.113833 0.353321 -0.360077 0.0436004 0.548013
0.627929 -0.287416 0.309937 -0.0306247 -0.158142 -0.0761262 0.0912141 -0.0784878
-0.0517544 -0.509986 0.048041 0.451218 0.253296 -0.493609 0.0111067 0.150114
0.0156899 -0.00587366 0.0738302 0.585034 -0.433848 0.3174 0.153652 -0.114925
0.00273175 -0.0302949 0.3403 0.390362 -0.0341086 0.37669 0.315473 -0.00159924
-0.450503 -0.65431 0.338434 -0.25118 -0.0913177 0.0399559 0.00367423 0.192654
0.255784 -0.154423 0.516901 -0.0502391 0.615192 -0.285748 0.0389261 0.0253082
-0.282203 -0.603396 0.471828 -0.103335 0.0985251 -0.591591 0.0535339 -0.302426
-0.494895 -0.265729 0.514146 -0.0100058 -0.568572 -0.522144 0.33546 -0.374872
0.0525944 0.413899 -0.205233 0.0918146 -0.239304 0.0801934 -0.0378739 0.128838
-0.225948 0.236003 0.548908 -0.319827 -0.310251 -0.694798 0.246517 0.0622042
-0.740923 0.264818 -0.280286 -0.134871 -0.277244 -0.515048 -0.110204 0.0293428
-0.394703 0.558455 -0.155924 -0.401202 -0.203598 0.244186 0.0913467 -0.00265861
-0.328243 0.273338 -0.172295 0.12825 0.183141 0.314751 0.145892 0.262636
-0.524705 0.345357 0.410824 0.350451 0.0960383 0.0990777 -0.210156 -0.0517543
0.117194 -0.188706 0.24531 -0.421158 -0.284848 -0.35465 -0.364851 -0.122537
-0.258851 0.30306 -0.112261 0.0380136 -0.00757774 0.26987 0.0120367 -0.137159
0.310257 0.0180295 -0.252493 0.58803 -0.485178 -0.180301 0.103326 -0.375324
-0.475812 -0.481143 0.215233 -0.263903 0.134533 -0.767804 0.0648293 -0.500322
0.462702 -0.0588322 0.014748 0.221174 0.410231 0.576935 -0.204318 0.808701
-0.553395 -0.440156 0.379148 0.157018 -0.218877 -0.098184 -0.183785 -0.0376964
-0.0874513 -0.0658945 0.29167 -0.423845 0.484899 -0.403256 0.0880094 0.15623
-0.717634 -0.197716 0.311378 0.0890491 -0.410507 0.370895 -0.415254 -0.521687
-0.0361192 -0.602434 0.301517 0.0769791 -0.191718 0.0372066 -0.172422 0.860192
0.0540273 0.105495 0.113555 -0.286229 0.156398 0.00696152 -0.178628 0.200291
-0.255151 -0.0207587 0.0848048 -0.157235 0.102208 -0.224675 -0.378035 0.0829698
0.274222 0.201927 -0.292501 0.406759 0.144349 -0.00315564 -0.0454728 0.167615
0.0889242 0.164152 -0.00616074 -0.566103 0.264506 0.111249 -0.17134 -0.508695
-0.407447 -0.569488 0.127059 -0.595674 0.163086 -0.27482 0.187597 0.145919
0.157618 0.354078 0.433391 -0.0996163 0.0903337 -0.243908 -0.086397 0.658865
0.837857 0.0134048 -0.138216 0.215738 0.124293 -0.488515 0.303036 0.0310865
0.0664854 0.272435 0.0444463 -0.161379 -0.0949598 -0.0584903 -0.198926 -0.0428286
0.0010551 0.70491 0.519271 0.273428 0.219632 0.747137 -0.134301 0.614091
-0.515703 -0.00671411 0.0976561 0.215624 0.523384 -0.0755803 0.200178 -0.0552985
-0.194182 0.0435292 0.0880275 0.476523 0.00843302 -0.00791695 -0.171468 0.592147
-0.433309 -0.255375 0.16789 -0.340817 -0.0622993 -0.677089 -0.00825568 0.39981
-0.150554 -0.376311 -0.659186 -0.0860376 -0.0575635 -0.173473 -0.0148568 -0.301006
0.320866 0.205007 0.277763 0.230689 0.659923 0.395725 0.269195 0.521598
0.403122 0.219083 -0.170074 0.221536 0.119786 -0.00280693 -0.00213827 0.516978
-0.636011 0.218867 0.0680053 0.258745 -0.585265 1.23326 -0.160742 -0.0443371
-0.000813522 -0.472626 0.382063 -0.0972095 -0.186927 0.678265 -0.223455 0.660611
-0.0230232 0.068553 0.272885 0.373997 0.265197 -0.266037 -0.171222 -0.443028
0.143773 0.331475 0.139569 0.101436 0.154828 -0.0943992 -0.0389605 -0.0102479
0.343173 -0.172521 0.510953 0.326666 0.328117 -0.516501 -0.0011169 0.335828
0.162841 0.0432509 -0.179979 0.526809 -0.30648 -0.0891488 -0.0746913 -0.0830398
0.242638 0.384904 0.502093 -0.0490874 -0.284282 -0.495168 -0.232856 -0.194498
-0.515934 0.470459 0.386336 -0.422914 -0.0042362 0.814654 -0.243903 -0.447129
-0.296399 -0.697914 0.098383 -0.00625311 0.140477 0.127186 -0.280446 -0.0515793
-0.673912 -0.449203 0.37152 -0.0883935 0.0956052 0.0182533 0.147596 0.108134
-0.125344 0.606965 0.408788 -0.154138 0.24764 0.0879608 0.0775566 -0.021574
-0.430628 -0.384257 0.43306 -0.353904 -0.0311453 0.813652 -0.35388 0.529223
-0.351409 -0.416631 0.115017 -0.165189 -0.265828 -0.221083 0.130741 -0.156841
-0.290768 0.231366 0.505695 -0.791627 -0.0728847 0.663692 -0.0110973 0.18069
-0.282762 0.175668 0.108613 0.136049 0.729654 -1.16181 -0.175202 0.490243
-0.226305 0.252482 0.0952815 0.00773532 0.221197 0.698702 0.0246968 -0.0184525
0.156661 -0.224339 0.082164 0.20641 -0.0943902 -0.315363 0.179521 0.182822
0.0354344 -0.353349 0.199004 0.31191 -0.40291 0.107043 0.0230225 0.316027
-0.627549 0.0347358 -0.17646 0.392287 0.304366 -0.0297989 0.0889907 0.00743416
-0.044727 -0.393797 -0.277755 0.0343181 -0.196582 -0.630005 0.419372 -0.205396
-0.723584 -0.321642 -0.0438655 0.235449 0.273529 0.206455 0.215672 0.0199124
-0.489439 0.0492545 -0.0686457 0.108994 0.218497 0.624201 -0.605084 0.251253
0.614106 0.307652 0.0910445 -0.278462 -0.56411 0.0678131 0.069185 0.0838061
-0.576898 -0.153292 -0.40644 -0.250207 0.514718 -0.191597 0.0983202 0.275228
0.0508299 0.174811 0.320933 -0.0371858 -0.157908 0.226469 0.252784 0.28352
-0.329122 -0.00379936 -0.128928 -0.327782 0.379505 -0.215393 0.265284 -0.248302
0.00520989 0.406078 -0.0660195 -0.415182 0.0918114 0.00449617 -0.18077 -0.221119
0.185824 0.584822 0.130086 0.164137 0.33646 -0.670107 0.0693294 -0.231267
0.148614 0.61799 0.375363 -0.0776526 -0.559349 0.466743 0.326889 0.342335
-0.573767 -0.216991 0.127569 0.411527 -0.220229 -0.323749 0.0935713 0.301681
-0.352044 -0.617833 0.627008 0.226114 0.579005 -0.0916751 0.193739 0.00457337
-0.328723 -0.300722 -0.491534 0.35979 0.248486 0.169319 0.134925 -0.39567
0.128582 0.128386 -0.137825 0.180317 0.0783868 0.148789 -0.233929 0.181853
-0.286055 0.00244651 -0.0704908 0.360795 0.237717 -0.228384 -0.245789 -0.249811
-0.0371055 0.123035 0.0492358 -0.15245 0.127009 0.344471 0.0393168 -0.276866
0.00160779 0.539836 -0.190211 0.176712 0.120139 0.351869 -0.0903305 0.189235
-0.419495 -0.0557526 -0.719083 -0.173797 -0.16275 -0.168981 0.587837 -0.0615674
-0.241422 -0.41242 0.137 -0.458231 0.653172 0.274274 0.590929 -0.144276
-0.264164 -0.327436 -0.174208 -0.431036 0.483567 -0.012565 -0.167043 0.00201413
0.0167232 0.0759711 -0.381746 0.0093221 -0.377612 0.0203714 0.0591395 0.341975
-0.189594 0.214274 0.202475 -0.402587 0.572985 -0.0136972 0.000520015 -0.168931
-0.202404 -0.343675 0.125024 -0.080764 0.0734037 -0.565134 -0.129207 0.51689
-0.69691 0.058141 0.00940848 -0.0971383 0.221495 0.660386 -0.352902 -0.09303
-0.0176428 -0.167969 0.324138 -0.368425 -0.171356 0.122912 -0.0489651 -0.430628
0.133276 -0.335742 0.314207 0.723139 0.505881 -0.037629 0.231302 0.324096
-0.0834585 0.0683041 -0.233695 0.406456 -0.359994 -0.0985332 -0.0944851 -0.255149
0.0562151 -0.523863 0.472735 0.410296 0.216842 -0.476572 0.4043 -0.429864
-0.134974 -0.195304 0.284976 -0.478527 0.166031 -0.17568 -0.0186504 -0.533468
0.198323 0.417603 -0.142716 -0.296679 0.202926 0.700702 0.233861 0.271266
-0.188965 0.00442924 -0.0402757 0.0446228 0.243068 -0.259936 -0.0538031 -0.040991
0.0671557 -0.233328 0.412821 -0.114818 0.494354 -0.428224 0.0522888 0.458722
-0.80033 0.138205 0.0675975 0.161642 0.354842 0.370027 0.163713 0.458113
-0.301443 -0.726856 0.247201 0.159257 0.344174 0.0902381 0.282255 -0.180168
0.284755 0.268967 0.219657 0.0811631 -0.176175 -0.222022 0.0363505 0.185729
-0.22974 -0.617341 -0.368921 0.186178 0.394262 -0.667744 0.236005 0.552205
-0.00242742 -0.333586 0.0280542 0.490075 0.261925 -0.0358325 0.043029 -0.159826
-0.222981 0.137403 -0.232926 -0.163172 0.146942 0.446205 0.00847497 -0.0413996
0.135646 -0.0728306 0.250188 0.0405991 -0.0563642 0.542212 0.350792 0.130767
0.321718 0.753488 -0.171182 0.0212934 -0.550567 0.110967 0.041831 0.371953
0.428663 -0.0885795 -0.21665 -0.720686 0.751192 -0.760356 -0.010363 -0.36975
0.0212758 -0.485477 0.437747 0.0818897 -0.396531 0.253656 0.301189 -0.0435129
-0.323775 -0.22697 -0.0483827 -0.231881 -0.00453412 -1.03736 0.309296 -0.0560326
0.00458353 -0.91676 0.0583851 0.283376 0.0169951 0.678317 0.119842 -0.23133
