svm_type c_svc
kernel_type rbf
gamma 0.0037037
nr_class 2
total_sv 2692
rho 0.944768
label 1 0
nr_sv 1133 1559
SV
1 49:1 87:1 140:1 147:1 150:1 
1 87:1 150:1 
1 29:1 75:1 87:1 155:1 233:1 257:1 
1 24:1 42:1 53:1 78:1 98:1 101:1 107:1 115:1 116:1 144:1 148:1 251:1 257:1 261:1 
1 14:1 147:1 
1 23:1 24:1 75:1 87:1 115:1 123:1 187:1 
1 49:1 
1 24:1 49:1 87:1 97:1 192:1 
1 248:1 
1 24:1 25:1 41:1 79:1 82:1 83:1 84:1 92:1 95:1 110:1 148:1 150:1 193:1 200:1 224:1 246:1 
1 77:1 110:1 189:1 193:1 200:1 251:1 257:1 
1 123:1 165:1 193:1 
1 83:1 93:1 245:1 248:1 257:1 
1 257:1 
1 49:1 77:1 122:1 147:1 189:1 
1 19:1 90:1 116:1 186:1 
1 47:1 84:1 193:1 194:1 214:1 228:1 
1 23:1 49:1 68:1 75:1 87:1 117:1 123:1 194:1 251:1 257:1 
1 49:1 123:1 189:1 194:1 
1 49:1 87:1 93:1 95:1 143:1 146:1 192:1 
1 53:1 55:1 87:1 91:1 127:1 138:1 257:1 
1 44:1 127:1 194:1 251:1 257:1 
1 53:1 87:1 117:1 123:1 144:1 152:1 189:1 191:1 194:1 251:1 257:1 
1 49:1 87:1 93:1 111:1 146:1 219:1 225:1 
1 51:1 59:1 77:1 84:1 95:1 192:1 194:1 197:1 200:1 221:1 251:1 257:1 261:1 
1 23:1 24:1 87:1 90:1 95:1 126:1 191:1 194:1 
1 90:1 
1 84:1 87:1 117:1 192:1 233:1 242:1 248:1 
1 11:1 83:1 89:1 90:1 95:1 155:1 188:1 
1 79:1 81:1 115:1 123:1 200:1 
1 4:1 194:1 
1 49:1 87:1 115:1 189:1 192:1 194:1 200:1 234:1 248:1 257:1 
1 48:1 49:1 53:1 75:1 87:1 90:1 130:1 193:1 194:1 
1 14:1 16:1 19:1 127:1 148:1 186:1 
1 39:1 53:1 87:1 122:1 123:1 148:1 150:1 189:1 219:1 
1 24:1 53:1 75:1 87:1 90:1 116:1 164:1 194:1 248:1 257:1 
1 4:1 44:1 83:1 87:1 123:1 245:1 
1 49:1 68:1 72:1 75:1 85:1 87:1 124:1 141:1 148:1 191:1 193:1 239:1 244:1 251:1 253:1 257:1 
1 185:1 194:1 
1 55:1 77:1 87:1 116:1 193:1 194:1 214:1 
1 3:1 123:1 
1 7:1 49:1 50:1 193:1 200:1 219:1 221:1 251:1 
1 22:1 24:1 87:1 111:1 116:1 117:1 189:1 192:1 245:1 
1 49:1 91:1 117:1 193:1 200:1 257:1 
1 53:1 77:1 87:1 90:1 150:1 189:1 194:1 
1 41:1 53:1 157:1 251:1 
1 11:1 23:1 59:1 76:1 84:1 87:1 90:1 152:1 193:1 
1 87:1 90:1 113:1 123:1 138:1 194:1 
1 53:1 75:1 84:1 134:1 193:1 263:1 
1 122:1 252:1 254:1 
1 14:1 53:1 58:1 189:1 193:1 
1 5:1 83:1 115:1 191:1 248:1 257:1 
1 83:1 87:1 95:1 144:1 248:1 
1 49:1 53:1 59:1 87:1 122:1 127:1 189:1 194:1 200:1 206:1 216:1 
1 194:1 200:1 227:1 
1 5:1 106:1 111:1 194:1 251:1 
1 14:1 23:1 38:1 58:1 59:1 78:1 84:1 87:1 90:1 105:1 115:1 116:1 122:1 155:1 
1 14:1 
1 48:1 53:1 84:1 87:1 191:1 192:1 194:1 200:1 221:1 
1 23:1 29:1 38:1 48:1 51:1 80:1 83:1 93:1 127:1 189:1 193:1 200:1 228:1 245:1 
1 84:1 185:1 194:1 257:1 
1 49:1 53:1 87:1 90:1 116:1 117:1 122:1 194:1 233:1 248:1 251:1 257:1 259:1 
1 77:1 191:1 193:1 194:1 
1 38:1 44:1 53:1 55:1 73:1 87:1 95:1 150:1 152:1 192:1 193:1 200:1 248:1 
1 72:1 251:1 252:1 257:1 
1 49:1 53:1 55:1 87:1 90:1 97:1 107:1 116:1 150:1 189:1 200:1 
1 49:1 90:1 99:1 111:1 117:1 148:1 152:1 194:1 200:1 239:1 
1 49:1 53:1 59:1 75:1 87:1 189:1 193:1 194:1 200:1 
1 188:1 193:1 194:1 257:1 
1 42:1 193:1 
1 53:1 82:1 87:1 93:1 133:1 193:1 200:1 214:1 
1 23:1 27:1 107:1 189:1 192:1 214:1 246:1 
1 47:1 53:1 155:1 189:1 194:1 
1 53:1 76:1 87:1 90:1 95:1 115:1 127:1 187:1 192:1 221:1 229:1 248:1 251:1 252:1 257:1 
1 23:1 39:1 
1 130:1 248:1 251:1 257:1 
1 94:1 116:1 117:1 164:1 193:1 
1 73:1 123:1 164:1 193:1 194:1 
1 23:1 59:1 73:1 84:1 90:1 97:1 123:1 193:1 194:1 200:1 248:1 251:1 
1 76:1 82:1 150:1 192:1 
1 80:1 123:1 
1 23:1 55:1 59:1 80:1 83:1 84:1 87:1 94:1 192:1 194:1 
1 24:1 53:1 80:1 83:1 85:1 109:1 115:1 126:1 189:1 192:1 193:1 245:1 246:1 
1 9:1 152:1 156:1 257:1 
1 11:1 19:1 23:1 53:1 77:1 95:1 116:1 134:1 189:1 
1 55:1 75:1 80:1 85:1 87:1 95:1 144:1 148:1 149:1 200:1 246:1 
1 193:1 
1 23:1 75:1 136:1 150:1 155:1 186:1 189:1 193:1 194:1 242:1 
1 21:1 90:1 187:1 192:1 222:1 
1 49:1 75:1 186:1 192:1 194:1 236:1 
1 73:1 123:1 165:1 189:1 
1 73:1 80:1 82:1 109:1 116:1 132:1 192:1 200:1 221:1 251:1 257:1 
1 49:1 75:1 76:1 77:1 90:1 221:1 
1 4:1 23:1 75:1 77:1 106:1 116:1 248:1 
1 12:1 13:1 42:1 44:1 49:1 53:1 87:1 
1 58:1 200:1 251:1 255:1 257:1 
1 77:1 95:1 246:1 
1 84:1 164:1 189:1 219:1 221:1 224:1 
1 6:1 24:1 123:1 141:1 193:1 248:1 
1 47:1 49:1 53:1 58:1 73:1 80:1 93:1 116:1 248:1 
1 49:1 53:1 84:1 87:1 90:1 95:1 123:1 127:1 148:1 153:1 194:1 
1 22:1 49:1 75:1 87:1 95:1 189:1 
1 116:1 123:1 193:1 
1 55:1 191:1 194:1 200:1 257:1 
1 106:1 244:1 245:1 247:1 
1 115:1 123:1 124:1 148:1 151:1 247:1 
1 48:1 53:1 73:1 192:1 194:1 200:1 
1 59:1 87:1 117:1 127:1 152:1 221:1 233:1 
1 49:1 115:1 123:1 
1 23:1 78:1 80:1 82:1 87:1 98:1 189:1 220:1 247:1 
1 53:1 64:1 90:1 144:1 155:1 
1 51:1 87:1 111:1 127:1 233:1 244:1 246:1 248:1 251:1 
1 94:1 148:1 165:1 192:1 193:1 251:1 257:1 258:1 
1 53:1 87:1 90:1 122:1 186:1 192:1 193:1 194:1 246:1 
1 53:1 89:1 90:1 97:1 122:1 193:1 195:1 201:1 218:1 
1 55:1 76:1 87:1 116:1 117:1 193:1 253:1 
1 43:1 82:1 117:1 194:1 
1 14:1 77:1 156:1 
1 257:1 
1 83:1 87:1 116:1 123:1 130:1 189:1 193:1 194:1 
1 193:1 221:1 
1 53:1 87:1 130:1 193:1 
1 23:1 49:1 77:1 193:1 200:1 
1 48:1 166:1 251:1 
1 23:1 29:1 78:1 89:1 95:1 142:1 189:1 221:1 248:1 
1 49:1 89:1 123:1 149:1 200:1 221:1 
1 193:1 
1 23:1 83:1 90:1 147:1 155:1 193:1 253:1 
1 27:1 87:1 122:1 248:1 
1 111:1 186:1 193:1 197:1 
1 15:1 53:1 221:1 251:1 
1 115:1 244:1 257:1 
1 87:1 193:1 194:1 244:1 251:1 263:1 
1 53:1 78:1 79:1 83:1 130:1 191:1 
1 29:1 87:1 146:1 
1 75:1 77:1 84:1 87:1 189:1 192:1 194:1 200:1 221:1 
1 115:1 192:1 193:1 242:1 251:1 257:1 
1 83:1 87:1 193:1 197:1 220:1 
1 59:1 127:1 153:1 193:1 221:1 
1 23:1 29:1 47:1 87:1 117:1 244:1 
1 77:1 87:1 93:1 98:1 194:1 
1 39:1 76:1 87:1 127:1 257:1 
1 47:1 80:1 87:1 144:1 189:1 193:1 
1 75:1 95:1 115:1 116:1 246:1 
1 21:1 48:1 49:1 87:1 89:1 95:1 122:1 127:1 
1 75:1 80:1 200:1 248:1 
1 44:1 77:1 87:1 
1 80:1 85:1 122:1 132:1 186:1 246:1 
1 75:1 78:1 85:1 87:1 90:1 93:1 193:1 
1 221:1 
1 22:1 84:1 123:1 200:1 
1 90:1 95:1 116:1 
1 116:1 123:1 124:1 189:1 
1 49:1 53:1 87:1 89:1 90:1 191:1 248:1 
1 7:1 53:1 87:1 144:1 152:1 192:1 
1 95:1 185:1 214:1 
1 23:1 29:1 77:1 80:1 87:1 93:1 123:1 148:1 189:1 192:1 246:1 
1 244:1 252:1 270:1 
1 115:1 123:1 
1 69:1 80:1 194:1 200:1 244:1 248:1 
1 81:1 123:1 200:1 242:1 252:1 
1 22:1 23:1 122:1 200:1 248:1 
1 185:1 193:1 
1 95:1 130:1 204:1 
1 95:1 98:1 122:1 127:1 148:1 241:1 253:1 
1 47:1 83:1 251:1 
1 123:1 
1 24:1 53:1 59:1 84:1 116:1 134:1 187:1 
1 49:1 53:1 87:1 200:1 221:1 251:1 257:1 
1 4:1 257:1 261:1 
1 79:1 112:1 138:1 191:1 227:1 240:1 
1 76:1 87:1 89:1 90:1 193:1 
1 29:1 49:1 58:1 87:1 90:1 95:1 189:1 
1 49:1 59:1 87:1 124:1 150:1 191:1 
1 11:1 111:1 116:1 144:1 
1 58:1 75:1 76:1 79:1 200:1 231:1 270:1 
1 44:1 192:1 200:1 242:1 
1 185:1 
1 105:1 191:1 
1 48:1 69:1 84:1 85:1 200:1 248:1 
1 111:1 193:1 194:1 241:1 251:1 257:1 
1 49:1 81:1 95:1 106:1 200:1 
1 48:1 53:1 87:1 95:1 150:1 193:1 194:1 251:1 257:1 
1 47:1 48:1 53:1 87:1 117:1 156:1 192:1 199:1 200:1 241:1 
1 90:1 149:1 189:1 192:1 221:1 
1 252:1 257:1 
1 10:1 23:1 24:1 87:1 189:1 192:1 228:1 243:1 248:1 
1 71:1 72:1 76:1 80:1 115:1 123:1 205:1 242:1 248:1 
1 52:1 80:1 
1 23:1 186:1 189:1 246:1 
1 29:1 76:1 78:1 87:1 90:1 98:1 189:1 194:1 200:1 247:1 
1 24:1 49:1 58:1 87:1 117:1 156:1 192:1 
1 7:1 116:1 160:1 257:1 
1 53:1 59:1 79:1 87:1 98:1 127:1 192:1 194:1 199:1 200:1 227:1 257:1 
1 29:1 53:1 77:1 85:1 87:1 97:1 117:1 192:1 
1 33:1 89:1 127:1 191:1 219:1 220:1 222:1 233:1 
1 44:1 58:1 78:1 82:1 84:1 133:1 221:1 257:1 
1 146:1 
1 23:1 44:1 80:1 84:1 123:1 192:1 193:1 242:1 243:1 
1 76:1 85:1 116:1 122:1 123:1 189:1 193:1 195:1 
1 75:1 83:1 87:1 111:1 122:1 192:1 
1 49:1 53:1 84:1 87:1 98:1 251:1 
1 78:1 104:1 115:1 138:1 162:1 
1 4:1 49:1 53:1 87:1 89:1 90:1 186:1 189:1 242:1 
1 83:1 87:1 90:1 116:1 117:1 132:1 150:1 192:1 
1 49:1 72:1 87:1 90:1 97:1 146:1 
1 70:1 84:1 123:1 248:1 251:1 257:1 
1 49:1 194:1 257:1 
1 95:1 193:1 
1 73:1 87:1 90:1 105:1 116:1 117:1 123:1 248:1 
1 4:1 10:1 64:1 85:1 98:1 199:1 227:1 244:1 248:1 
1 49:1 53:1 87:1 89:1 90:1 98:1 99:1 116:1 
1 48:1 75:1 78:1 85:1 87:1 202:1 
1 23:1 49:1 75:1 87:1 
1 76:1 87:1 95:1 149:1 187:1 192:1 197:1 228:1 245:1 257:1 
1 76:1 93:1 95:1 148:1 192:1 235:1 248:1 
1 8:1 49:1 58:1 87:1 193:1 247:1 
1 93:1 222:1 
1 73:1 193:1 
1 44:1 49:1 204:1 217:1 
1 79:1 85:1 116:1 117:1 150:1 191:1 
1 44:1 84:1 98:1 
1 49:1 75:1 84:1 122:1 245:1 
1 7:1 47:1 48:1 53:1 82:1 87:1 123:1 130:1 193:1 200:1 245:1 
1 68:1 87:1 194:1 200:1 
1 49:1 87:1 116:1 191:1 193:1 
1 23:1 73:1 193:1 
1 54:1 73:1 103:1 117:1 127:1 144:1 148:1 218:1 221:1 
1 48:1 115:1 117:1 123:1 
1 115:1 192:1 200:1 221:1 228:1 
1 87:1 192:1 257:1 
1 81:1 117:1 219:1 247:1 252:1 
1 53:1 54:1 84:1 87:1 191:1 194:1 200:1 
1 44:1 80:1 83:1 95:1 148:1 189:1 248:1 
1 49:1 75:1 76:1 84:1 87:1 200:1 
1 78:1 93:1 193:1 200:1 222:1 233:1 
1 193:1 194:1 
1 49:1 53:1 87:1 116:1 130:1 
1 53:1 77:1 
1 49:1 77:1 90:1 
1 54:1 117:1 144:1 187:1 189:1 193:1 200:1 240:1 
1 70:1 84:1 
1 39:1 49:1 59:1 81:1 87:1 115:1 244:1 248:1 
1 53:1 76:1 87:1 89:1 105:1 194:1 
1 75:1 80:1 194:1 240:1 
1 49:1 111:1 116:1 138:1 140:1 
1 85:1 115:1 251:1 
1 87:1 191:1 197:1 248:1 
1 14:1 48:1 80:1 87:1 150:1 193:1 
1 49:1 87:1 189:1 257:1 
1 23:1 49:1 84:1 192:1 193:1 
1 27:1 82:1 
1 24:1 49:1 87:1 200:1 
1 248:1 251:1 
1 23:1 53:1 59:1 87:1 116:1 124:1 201:1 
1 49:1 87:1 91:1 116:1 221:1 245:1 
1 4:1 23:1 53:1 73:1 115:1 164:1 
1 49:1 53:1 87:1 234:1 257:1 
1 39:1 49:1 130:1 144:1 186:1 194:1 245:1 
1 23:1 49:1 78:1 87:1 122:1 144:1 
1 244:1 257:1 259:1 
1 53:1 81:1 116:1 151:1 152:1 257:1 259:1 
1 122:1 144:1 193:1 200:1 
1 251:1 252:1 255:1 257:1 
1 81:1 140:1 189:1 207:1 242:1 245:1 
1 87:1 194:1 
1 73:1 87:1 185:1 193:1 
1 144:1 194:1 248:1 251:1 257:1 
1 117:1 193:1 199:1 200:1 
1 4:1 48:1 80:1 87:1 152:1 193:1 
1 49:1 85:1 90:1 95:1 111:1 115:1 116:1 122:1 189:1 
1 76:1 87:1 151:1 189:1 191:1 221:1 
1 48:1 85:1 117:1 191:1 192:1 195:1 199:1 200:1 
1 75:1 84:1 95:1 115:1 247:1 257:1 
1 49:1 
1 72:1 87:1 117:1 251:1 
1 90:1 95:1 195:1 
1 44:1 87:1 93:1 116:1 193:1 194:1 251:1 252:1 257:1 
1 44:1 48:1 53:1 127:1 148:1 194:1 248:1 251:1 
1 59:1 87:1 93:1 127:1 140:1 150:1 192:1 
1 73:1 123:1 
1 53:1 87:1 193:1 197:1 251:1 257:1 
1 19:1 
1 192:1 
1 48:1 193:1 195:1 246:1 
1 122:1 233:1 
1 194:1 199:1 200:1 201:1 251:1 
1 185:1 257:1 
1 49:1 55:1 59:1 75:1 142:1 
1 87:1 130:1 138:1 194:1 233:1 257:1 
1 49:1 90:1 122:1 140:1 189:1 
1 47:1 51:1 53:1 77:1 87:1 189:1 
1 73:1 194:1 
1 53:1 87:1 95:1 146:1 156:1 193:1 
1 21:1 24:1 76:1 125:1 126:1 
1 6:1 23:1 49:1 53:1 87:1 124:1 189:1 193:1 
1 72:1 75:1 198:1 251:1 
1 49:1 53:1 59:1 87:1 150:1 248:1 
1 87:1 111:1 191:1 193:1 257:1 
1 127:1 132:1 193:1 194:1 221:1 
1 53:1 84:1 122:1 200:1 251:1 252:1 257:1 
1 257:1 
1 122:1 123:1 
1 53:1 87:1 
1 53:1 80:1 192:1 193:1 
1 49:1 87:1 90:1 106:1 133:1 146:1 
1 29:1 32:1 33:1 87:1 155:1 186:1 192:1 193:1 
1 4:1 48:1 80:1 109:1 120:1 148:1 201:1 218:1 221:1 233:1 247:1 
1 49:1 87:1 90:1 116:1 140:1 149:1 253:1 257:1 
1 49:1 53:1 87:1 146:1 
1 4:1 49:1 77:1 82:1 87:1 150:1 153:1 192:1 194:1 
1 44:1 47:1 83:1 122:1 
1 53:1 148:1 194:1 200:1 
1 53:1 93:1 193:1 
1 53:1 78:1 87:1 138:1 156:1 193:1 259:1 
1 58:1 87:1 189:1 242:1 257:1 
1 10:1 115:1 187:1 191:1 245:1 
1 14:1 24:1 49:1 53:1 77:1 87:1 98:1 
1 87:1 95:1 117:1 192:1 
1 4:1 44:1 49:1 70:1 76:1 87:1 116:1 200:1 248:1 
1 53:1 87:1 193:1 194:1 200:1 257:1 
1 23:1 80:1 81:1 87:1 89:1 90:1 
1 33:1 63:1 87:1 111:1 246:1 247:1 
1 48:1 75:1 89:1 90:1 152:1 
1 95:1 
1 29:1 200:1 
1 77:1 87:1 127:1 132:1 
1 48:1 257:1 
1 191:1 194:1 
1 23:1 89:1 90:1 193:1 
1 115:1 117:1 123:1 127:1 248:1 
1 24:1 53:1 84:1 87:1 89:1 90:1 106:1 196:1 247:1 
1 19:1 58:1 116:1 221:1 
1 76:1 115:1 189:1 193:1 
1 84:1 87:1 135:1 156:1 191:1 194:1 219:1 
1 49:1 87:1 89:1 157:1 194:1 246:1 
1 58:1 87:1 116:1 192:1 197:1 219:1 
1 29:1 49:1 53:1 87:1 189:1 193:1 200:1 257:1 259:1 
1 4:1 44:1 49:1 53:1 59:1 87:1 125:1 189:1 191:1 257:1 
1 3:1 53:1 76:1 77:1 85:1 90:1 192:1 
1 6:1 251:1 257:1 
1 75:1 141:1 193:1 194:1 201:1 
1 51:1 244:1 251:1 257:1 261:1 
1 49:1 84:1 90:1 191:1 251:1 
1 115:1 123:1 170:1 185:1 
1 53:1 87:1 90:1 116:1 124:1 235:1 
1 84:1 192:1 200:1 257:1 
1 24:1 75:1 82:1 189:1 
1 29:1 49:1 89:1 98:1 106:1 150:1 
1 192:1 248:1 
1 23:1 53:1 78:1 90:1 
1 7:1 44:1 53:1 116:1 192:1 221:1 229:1 244:1 
1 87:1 
1 29:1 49:1 105:1 187:1 
1 47:1 144:1 198:1 233:1 
1 3:1 33:1 49:1 58:1 87:1 
1 7:1 164:1 
1 53:1 87:1 155:1 248:1 
1 76:1 78:1 138:1 186:1 240:1 242:1 
1 69:1 78:1 165:1 200:1 
1 47:1 81:1 122:1 193:1 201:1 221:1 
1 24:1 47:1 189:1 192:1 
1 87:1 233:1 
1 73:1 84:1 87:1 90:1 98:1 117:1 194:1 215:1 220:1 
1 73:1 148:1 149:1 
1 47:1 48:1 49:1 53:1 84:1 191:1 194:1 197:1 200:1 
1 87:1 109:1 153:1 
1 90:1 116:1 192:1 194:1 218:1 245:1 
1 29:1 93:1 116:1 192:1 
1 73:1 160:1 189:1 
1 14:1 239:1 
1 48:1 52:1 77:1 79:1 123:1 221:1 270:1 
1 8:1 84:1 115:1 134:1 192:1 193:1 245:1 246:1 
1 38:1 75:1 87:1 90:1 91:1 
1 49:1 51:1 
1 53:1 87:1 
1 24:1 49:1 
1 123:1 160:1 192:1 194:1 
1 59:1 75:1 199:1 215:1 219:1 
1 115:1 123:1 193:1 194:1 
1 153:1 193:1 194:1 221:1 
1 72:1 124:1 255:1 
1 53:1 148:1 192:1 194:1 220:1 
1 48:1 58:1 84:1 185:1 
1 24:1 
1 115:1 123:1 148:1 189:1 251:1 257:1 
1 244:1 
1 67:1 233:1 246:1 
1 41:1 108:1 228:1 248:1 
1 53:1 62:1 87:1 192:1 200:1 248:1 257:1 
1 48:1 82:1 87:1 248:1 
1 72:1 80:1 84:1 87:1 91:1 95:1 99:1 146:1 193:1 241:1 
1 24:1 49:1 219:1 245:1 
1 24:1 107:1 122:1 148:1 189:1 
1 81:1 244:1 
1 75:1 105:1 
1 148:1 194:1 200:1 251:1 
1 23:1 123:1 194:1 
1 49:1 115:1 117:1 193:1 220:1 233:1 
1 49:1 127:1 220:1 
1 55:1 87:1 144:1 200:1 
1 23:1 39:1 48:1 154:1 
1 81:1 205:1 
1 23:1 87:1 150:1 
1 44:1 53:1 83:1 148:1 152:1 187:1 245:1 
1 53:1 68:1 228:1 253:1 
1 115:1 122:1 165:1 204:1 
1 75:1 79:1 194:1 270:1 
1 7:1 72:1 73:1 115:1 
1 24:1 33:1 75:1 90:1 116:1 122:1 
1 53:1 251:1 
1 55:1 84:1 97:1 115:1 146:1 193:1 
1 52:1 53:1 87:1 89:1 153:1 193:1 
1 87:1 90:1 192:1 
1 117:1 194:1 252:1 
1 49:1 81:1 84:1 109:1 115:1 192:1 
1 109:1 165:1 
1 53:1 87:1 91:1 122:1 127:1 193:1 195:1 248:1 
1 23:1 76:1 79:1 192:1 193:1 
1 49:1 73:1 78:1 117:1 123:1 138:1 
1 76:1 130:1 225:1 
1 38:1 95:1 233:1 
1 82:1 83:1 84:1 90:1 95:1 
1 87:1 
1 123:1 144:1 193:1 200:1 233:1 
1 23:1 59:1 116:1 259:1 
1 95:1 164:1 165:1 194:1 206:1 
1 208:1 235:1 
1 80:1 116:1 251:1 257:1 
1 115:1 193:1 248:1 251:1 257:1 
1 87:1 127:1 194:1 240:1 257:1 
1 6:1 87:1 245:1 
1 87:1 117:1 233:1 257:1 
1 53:1 87:1 115:1 117:1 
1 72:1 132:1 185:1 251:1 258:1 
1 107:1 115:1 116:1 215:1 220:1 221:1 
1 95:1 132:1 
1 49:1 83:1 111:1 116:1 124:1 261:1 
1 144:1 146:1 
1 23:1 87:1 93:1 153:1 192:1 257:1 
1 47:1 73:1 115:1 
1 64:1 84:1 189:1 
1 251:1 257:1 
1 79:1 156:1 200:1 221:1 224:1 
1 131:1 193:1 194:1 257:1 
1 48:1 127:1 141:1 148:1 192:1 257:1 
1 192:1 233:1 251:1 
1 47:1 132:1 221:1 228:1 
1 53:1 144:1 257:1 
1 49:1 53:1 59:1 85:1 87:1 132:1 248:1 
1 73:1 77:1 82:1 152:1 189:1 193:1 194:1 
1 78:1 90:1 97:1 98:1 192:1 257:1 
1 75:1 84:1 90:1 122:1 146:1 189:1 
1 81:1 90:1 221:1 241:1 246:1 
1 105:1 261:1 
1 49:1 87:1 90:1 93:1 103:1 105:1 106:1 159:1 
1 111:1 259:1 
1 7:1 124:1 150:1 251:1 
1 49:1 64:1 87:1 90:1 98:1 106:1 200:1 248:1 
1 48:1 49:1 87:1 130:1 148:1 200:1 
1 7:1 23:1 155:1 194:1 221:1 
1 78:1 252:1 
1 192:1 
1 24:1 53:1 87:1 192:1 
1 81:1 111:1 148:1 152:1 
1 47:1 49:1 75:1 87:1 129:1 
1 53:1 80:1 93:1 115:1 192:1 
1 22:1 53:1 193:1 221:1 233:1 251:1 
1 49:1 51:1 53:1 78:1 84:1 87:1 116:1 
1 7:1 111:1 186:1 189:1 204:1 252:1 258:1 
1 191:1 
1 76:1 132:1 192:1 257:1 
1 257:1 
1 23:1 24:1 75:1 87:1 194:1 
1 95:1 164:1 186:1 193:1 233:1 
1 252:1 257:1 
1 75:1 200:1 251:1 257:1 
1 242:1 
1 75:1 115:1 149:1 242:1 
1 84:1 116:1 
1 75:1 140:1 189:1 
1 83:1 115:1 189:1 194:1 195:1 
1 93:1 94:1 193:1 194:1 
1 23:1 123:1 189:1 200:1 242:1 
1 115:1 138:1 160:1 194:1 221:1 240:1 257:1 
1 7:1 81:1 115:1 189:1 
1 81:1 233:1 
1 7:1 23:1 87:1 193:1 
1 48:1 257:1 
1 5:1 214:1 219:1 257:1 260:1 
1 53:1 112:1 257:1 
1 23:1 189:1 193:1 263:1 
1 87:1 93:1 150:1 248:1 
1 36:1 39:1 53:1 80:1 87:1 127:1 194:1 200:1 
1 64:1 87:1 220:1 
1 164:1 194:1 222:1 233:1 248:1 270:1 
1 49:1 84:1 186:1 189:1 193:1 
1 73:1 144:1 186:1 198:1 
1 80:1 115:1 189:1 
1 7:1 80:1 117:1 122:1 123:1 221:1 
1 29:1 33:1 53:1 73:1 87:1 123:1 245:1 248:1 
1 90:1 140:1 
1 23:1 90:1 96:1 
1 84:1 193:1 248:1 
1 97:1 140:1 146:1 248:1 257:1 
1 29:1 49:1 75:1 77:1 87:1 
1 82:1 111:1 112:1 248:1 251:1 
1 200:1 
1 76:1 160:1 161:1 
1 49:1 53:1 85:1 87:1 122:1 148:1 192:1 
1 127:1 248:1 251:1 
1 73:1 185:1 251:1 257:1 
1 87:1 111:1 117:1 193:1 200:1 248:1 251:1 257:1 
1 59:1 116:1 192:1 213:1 
1 7:1 39:1 138:1 189:1 
1 58:1 87:1 90:1 115:1 127:1 251:1 
1 49:1 53:1 87:1 90:1 193:1 
1 81:1 124:1 189:1 235:1 245:1 
1 29:1 78:1 
1 49:1 53:1 59:1 87:1 130:1 144:1 194:1 
1 186:1 228:1 261:1 
1 83:1 87:1 189:1 
1 194:1 233:1 
1 49:1 87:1 144:1 200:1 251:1 
1 87:1 90:1 193:1 248:1 
1 111:1 
1 43:1 44:1 47:1 84:1 198:1 
1 194:1 248:1 251:1 257:1 
1 111:1 146:1 
1 90:1 96:1 193:1 
1 130:1 158:1 186:1 193:1 257:1 
1 47:1 49:1 58:1 191:1 200:1 
1 115:1 123:1 
1 48:1 124:1 144:1 194:1 247:1 
1 106:1 128:1 
1 9:1 49:1 87:1 93:1 105:1 245:1 
1 23:1 53:1 79:1 97:1 192:1 200:1 
1 152:1 
1 49:1 53:1 189:1 191:1 251:1 
1 79:1 221:1 
1 44:1 48:1 53:1 83:1 200:1 
1 23:1 87:1 150:1 224:1 
1 53:1 87:1 257:1 
1 7:1 73:1 125:1 197:1 221:1 246:1 251:1 
1 83:1 189:1 197:1 200:1 244:1 
1 81:1 87:1 200:1 
1 192:1 193:1 242:1 257:1 
1 106:1 233:1 248:1 
1 200:1 
1 23:1 49:1 75:1 193:1 194:1 
1 23:1 77:1 87:1 225:1 
1 83:1 87:1 90:1 95:1 98:1 
1 90:1 
1 87:1 191:1 251:1 257:1 
1 53:1 108:1 187:1 
1 73:1 115:1 148:1 192:1 194:1 233:1 
1 84:1 
1 
1 82:1 116:1 
1 259:1 
1 87:1 89:1 117:1 127:1 153:1 193:1 221:1 248:1 
1 48:1 193:1 200:1 257:1 
1 73:1 117:1 192:1 
1 9:1 49:1 64:1 87:1 97:1 127:1 193:1 
1 116:1 117:1 193:1 221:1 
1 49:1 
1 49:1 80:1 115:1 220:1 
1 219:1 220:1 
1 7:1 87:1 200:1 239:1 244:1 
1 49:1 77:1 87:1 107:1 148:1 
1 73:1 79:1 115:1 200:1 251:1 
1 185:1 
1 77:1 83:1 87:1 189:1 193:1 
1 49:1 53:1 87:1 89:1 111:1 193:1 
1 49:1 194:1 
1 246:1 
1 6:1 58:1 87:1 111:1 195:1 
1 44:1 150:1 189:1 194:1 
1 192:1 193:1 194:1 244:1 
1 25:1 
1 49:1 53:1 75:1 85:1 87:1 117:1 194:1 
1 23:1 53:1 87:1 89:1 90:1 
1 59:1 122:1 189:1 
1 48:1 87:1 95:1 187:1 191:1 
1 189:1 194:1 
1 49:1 194:1 200:1 
1 49:1 87:1 193:1 257:1 
1 115:1 123:1 251:1 257:1 
1 90:1 93:1 95:1 122:1 155:1 193:1 248:1 
1 49:1 50:1 87:1 
1 123:1 221:1 
1 28:1 189:1 257:1 
1 76:1 
1 123:1 
1 191:1 193:1 199:1 
1 151:1 194:1 244:1 248:1 
1 24:1 194:1 
1 4:1 7:1 53:1 75:1 116:1 186:1 225:1 
1 116:1 
1 44:1 
1 53:1 73:1 87:1 116:1 122:1 149:1 193:1 
1 85:1 208:1 
1 24:1 111:1 123:1 245:1 
1 44:1 148:1 
1 117:1 240:1 
1 7:1 52:1 248:1 257:1 
1 48:1 156:1 193:1 243:1 
1 53:1 95:1 193:1 
1 53:1 87:1 90:1 93:1 194:1 251:1 257:1 
1 116:1 257:1 
1 49:1 115:1 124:1 189:1 194:1 
1 49:1 53:1 87:1 138:1 140:1 141:1 
1 73:1 87:1 98:1 100:1 104:1 
1 84:1 115:1 192:1 194:1 200:1 244:1 
1 49:1 53:1 87:1 193:1 194:1 
1 23:1 29:1 77:1 83:1 
1 193:1 257:1 
1 111:1 122:1 186:1 
1 33:1 73:1 111:1 115:1 148:1 248:1 251:1 
1 87:1 194:1 204:1 
1 89:1 90:1 192:1 193:1 201:1 
1 23:1 189:1 
1 105:1 123:1 
1 58:1 87:1 95:1 142:1 200:1 251:1 257:1 
1 53:1 73:1 83:1 87:1 155:1 241:1 242:1 
1 185:1 
1 87:1 
1 
1 24:1 72:1 186:1 
1 115:1 189:1 200:1 
1 77:1 80:1 
1 112:1 244:1 
1 116:1 152:1 200:1 245:1 
1 87:1 115:1 127:1 193:1 194:1 200:1 251:1 257:1 
1 49:1 
1 48:1 117:1 198:1 200:1 257:1 259:1 
1 84:1 91:1 186:1 245:1 
1 9:1 33:1 49:1 194:1 221:1 
1 47:1 49:1 55:1 87:1 117:1 214:1 
1 89:1 
1 85:1 194:1 
1 53:1 75:1 87:1 191:1 194:1 195:1 
1 257:1 
1 125:1 185:1 214:1 251:1 
1 44:1 47:1 77:1 
1 14:1 23:1 233:1 
1 117:1 194:1 
1 53:1 72:1 87:1 257:1 
1 23:1 39:1 107:1 
1 23:1 80:1 
1 116:1 193:1 194:1 251:1 
1 73:1 123:1 194:1 
1 47:1 51:1 115:1 158:1 165:1 189:1 
1 47:1 94:1 189:1 221:1 233:1 
1 24:1 53:1 87:1 
1 143:1 191:1 
1 53:1 77:1 194:1 
1 64:1 91:1 194:1 
1 48:1 75:1 81:1 91:1 115:1 206:1 221:1 248:1 251:1 
1 3:1 193:1 257:1 
1 49:1 193:1 
1 44:1 53:1 87:1 90:1 95:1 96:1 193:1 
1 78:1 116:1 189:1 257:1 
1 49:1 189:1 206:1 
1 48:1 
1 29:1 77:1 195:1 
1 219:1 220:1 
1 33:1 49:1 192:1 194:1 233:1 
1 87:1 111:1 191:1 194:1 246:1 
1 253:1 
1 49:1 53:1 87:1 248:1 
1 124:1 193:1 194:1 251:1 261:1 
1 160:1 
1 73:1 117:1 
1 71:1 122:1 123:1 245:1 248:1 
1 80:1 187:1 189:1 192:1 
1 111:1 117:1 
1 8:1 198:1 252:1 254:1 257:1 
1 48:1 59:1 84:1 
1 53:1 83:1 148:1 220:1 248:1 
1 4:1 194:1 251:1 
1 90:1 95:1 
1 81:1 109:1 189:1 200:1 
1 92:1 96:1 
1 53:1 77:1 87:1 127:1 
1 90:1 107:1 233:1 
1 257:1 
1 70:1 73:1 221:1 251:1 
1 252:1 
1 148:1 257:1 
1 90:1 
1 166:1 185:1 
1 152:1 194:1 217:1 234:1 
1 53:1 129:1 193:1 194:1 
1 49:1 90:1 122:1 
1 115:1 132:1 
1 7:1 71:1 81:1 124:1 
1 79:1 224:1 
1 124:1 
1 48:1 49:1 53:1 84:1 87:1 191:1 
1 7:1 83:1 115:1 
1 53:1 84:1 127:1 193:1 194:1 
1 84:1 90:1 
1 87:1 194:1 
1 75:1 80:1 
1 49:1 193:1 
1 51:1 117:1 123:1 193:1 
1 58:1 75:1 80:1 84:1 248:1 
1 95:1 148:1 192:1 
1 53:1 83:1 
1 78:1 79:1 189:1 244:1 
1 85:1 87:1 
1 122:1 192:1 193:1 247:1 
1 80:1 82:1 107:1 228:1 
1 75:1 83:1 95:1 228:1 
1 53:1 87:1 93:1 193:1 
1 87:1 251:1 
1 61:1 112:1 
1 84:1 113:1 233:1 
1 53:1 87:1 95:1 122:1 
1 87:1 90:1 95:1 103:1 192:1 193:1 
1 77:1 123:1 193:1 206:1 214:1 254:1 
1 49:1 53:1 83:1 87:1 
1 87:1 115:1 122:1 124:1 193:1 194:1 
1 53:1 85:1 87:1 90:1 
1 116:1 117:1 192:1 220:1 
1 130:1 138:1 
1 80:1 92:1 191:1 194:1 
1 47:1 163:1 
1 24:1 
1 72:1 189:1 
1 130:1 192:1 
1 48:1 53:1 
1 117:1 148:1 189:1 248:1 251:1 257:1 
1 51:1 189:1 220:1 
1 251:1 252:1 257:1 
1 189:1 
1 53:1 132:1 193:1 
1 49:1 189:1 
1 44:1 48:1 
1 189:1 194:1 200:1 
1 106:1 166:1 228:1 
1 49:1 53:1 84:1 87:1 90:1 193:1 194:1 248:1 
1 79:1 122:1 
1 53:1 84:1 90:1 193:1 
1 3:1 124:1 184:1 193:1 
1 
1 49:1 
1 84:1 115:1 
1 201:1 
1 90:1 150:1 
1 115:1 123:1 252:1 
1 185:1 
1 257:1 
1 48:1 53:1 87:1 122:1 127:1 192:1 200:1 
1 115:1 
1 
1 123:1 130:1 257:1 261:1 
1 44:1 152:1 193:1 194:1 
1 44:1 87:1 122:1 124:1 194:1 
1 7:1 148:1 
1 49:1 87:1 
1 123:1 144:1 201:1 
1 81:1 115:1 189:1 248:1 
1 49:1 
1 73:1 251:1 
1 53:1 87:1 247:1 
1 53:1 95:1 148:1 
1 
1 3:1 146:1 191:1 231:1 
1 72:1 83:1 148:1 150:1 
1 70:1 151:1 248:1 
1 239:1 245:1 
1 29:1 49:1 53:1 87:1 
1 53:1 87:1 90:1 97:1 193:1 
1 257:1 
1 49:1 
1 115:1 123:1 
1 84:1 192:1 257:1 
1 116:1 124:1 
1 251:1 
1 75:1 
1 89:1 
1 75:1 87:1 89:1 90:1 
1 156:1 
1 36:1 73:1 
1 27:1 240:1 
1 194:1 257:1 
1 51:1 257:1 
1 189:1 
1 7:1 82:1 193:1 194:1 
1 130:1 189:1 
1 165:1 224:1 257:1 
1 77:1 87:1 201:1 
1 
1 83:1 116:1 193:1 221:1 
1 53:1 
1 81:1 
1 189:1 
1 39:1 257:1 
1 7:1 115:1 
1 23:1 193:1 200:1 
1 76:1 252:1 
1 
1 193:1 200:1 
1 192:1 
1 80:1 189:1 194:1 
1 87:1 
1 124:1 248:1 
1 115:1 193:1 194:1 240:1 
1 23:1 84:1 115:1 157:1 225:1 257:1 
1 53:1 69:1 245:1 263:1 
1 48:1 189:1 192:1 
1 124:1 233:1 248:1 251:1 
1 87:1 
1 87:1 115:1 221:1 233:1 
1 49:1 87:1 98:1 
1 257:1 
1 87:1 194:1 200:1 257:1 
1 228:1 251:1 257:1 
1 49:1 192:1 
1 7:1 
1 122:1 
1 83:1 115:1 
1 84:1 193:1 221:1 242:1 270:1 
1 251:1 257:1 
1 73:1 87:1 98:1 257:1 
1 49:1 53:1 87:1 115:1 192:1 200:1 
1 53:1 87:1 89:1 90:1 186:1 
1 115:1 189:1 232:1 
1 138:1 200:1 
1 58:1 81:1 113:1 
1 93:1 194:1 
1 49:1 53:1 87:1 95:1 193:1 
1 
1 122:1 197:1 
1 191:1 
1 49:1 53:1 87:1 111:1 193:1 
1 244:1 
1 77:1 194:1 
1 49:1 53:1 85:1 87:1 100:1 200:1 
1 48:1 116:1 193:1 247:1 257:1 
1 49:1 77:1 115:1 
1 194:1 248:1 
1 53:1 87:1 236:1 
1 47:1 
1 192:1 193:1 252:1 
1 194:1 
1 23:1 153:1 
1 204:1 
1 73:1 87:1 152:1 191:1 193:1 
1 73:1 87:1 95:1 146:1 
1 73:1 251:1 
1 39:1 53:1 194:1 
1 115:1 123:1 
1 87:1 200:1 
1 200:1 
1 49:1 87:1 214:1 257:1 
1 49:1 111:1 219:1 233:1 
1 49:1 53:1 87:1 115:1 122:1 225:1 241:1 
1 122:1 127:1 194:1 233:1 
1 193:1 194:1 248:1 
1 192:1 
1 115:1 255:1 
1 84:1 233:1 251:1 
1 53:1 87:1 233:1 248:1 
1 81:1 115:1 214:1 245:1 
1 48:1 53:1 84:1 193:1 
1 87:1 191:1 221:1 
1 4:1 73:1 78:1 184:1 185:1 221:1 245:1 
1 165:1 185:1 
1 73:1 194:1 233:1 
1 87:1 187:1 192:1 242:1 
1 21:1 112:1 115:1 
1 81:1 242:1 250:1 257:1 
1 193:1 
1 3:1 51:1 115:1 251:1 
1 138:1 
1 80:1 194:1 228:1 
1 24:1 49:1 
1 78:1 87:1 
1 48:1 49:1 
1 165:1 248:1 252:1 257:1 
1 185:1 
1 84:1 
1 244:1 
1 248:1 
1 115:1 242:1 251:1 
1 193:1 
1 221:1 
1 123:1 
1 73:1 248:1 251:1 
1 36:1 214:1 
1 150:1 
1 255:1 
1 244:1 
1 116:1 148:1 235:1 
1 219:1 
1 53:1 87:1 206:1 
1 72:1 248:1 
1 218:1 
1 87:1 192:1 
1 
1 70:1 87:1 194:1 245:1 
1 251:1 
1 44:1 193:1 
1 
1 87:1 
1 
1 87:1 
1 251:1 261:1 
1 53:1 123:1 232:1 
1 75:1 76:1 78:1 
1 49:1 87:1 193:1 246:1 
1 127:1 192:1 
1 
1 224:1 257:1 
1 192:1 214:1 221:1 
1 115:1 
1 87:1 90:1 107:1 193:1 
1 48:1 58:1 125:1 
1 80:1 84:1 
1 53:1 84:1 200:1 
1 103:1 123:1 
1 95:1 
1 81:1 
1 232:1 
1 115:1 122:1 
1 83:1 87:1 95:1 
1 78:1 
1 87:1 
1 87:1 
1 49:1 85:1 117:1 
1 111:1 116:1 122:1 
1 165:1 200:1 
1 252:1 255:1 
1 81:1 115:1 122:1 193:1 
1 68:1 87:1 
1 250:1 251:1 
1 122:1 
1 80:1 189:1 197:1 
1 
1 115:1 116:1 194:1 
1 53:1 87:1 
1 189:1 221:1 
1 161:1 193:1 194:1 200:1 
1 194:1 
1 49:1 53:1 95:1 144:1 
1 54:1 
1 53:1 83:1 87:1 253:1 
1 115:1 257:1 
1 117:1 
1 136:1 200:1 
1 73:1 257:1 
1 189:1 248:1 
1 49:1 90:1 138:1 
1 
1 186:1 
1 87:1 194:1 
1 111:1 252:1 
1 49:1 220:1 
1 164:1 
1 80:1 115:1 117:1 
1 83:1 112:1 
1 75:1 77:1 193:1 
1 214:1 221:1 242:1 
1 48:1 53:1 110:1 220:1 
1 23:1 
1 
1 73:1 
1 73:1 193:1 
1 53:1 79:1 115:1 193:1 250:1 
1 89:1 
1 123:1 
1 23:1 73:1 115:1 156:1 194:1 
1 162:1 
1 194:1 251:1 257:1 
1 233:1 257:1 
1 221:1 
1 251:1 257:1 
1 79:1 263:1 
1 244:1 
1 23:1 228:1 233:1 247:1 
1 87:1 257:1 
1 
1 81:1 122:1 213:1 235:1 244:1 
1 
1 
1 193:1 
1 
1 233:1 
1 8:1 
1 115:1 
1 
1 47:1 81:1 114:1 242:1 
1 125:1 148:1 185:1 
1 
1 245:1 
1 143:1 
1 148:1 
1 32:1 
1 79:1 244:1 248:1 
1 257:1 
1 185:1 221:1 224:1 251:1 
1 116:1 193:1 200:1 257:1 
1 194:1 
1 49:1 84:1 
1 191:1 
1 201:1 221:1 
1 83:1 84:1 
1 
1 7:1 85:1 87:1 111:1 112:1 116:1 117:1 214:1 251:1 
1 62:1 
1 
1 53:1 87:1 90:1 98:1 257:1 
1 248:1 
1 51:1 
1 
1 
1 84:1 194:1 257:1 
1 193:1 
1 
1 
1 200:1 
1 194:1 
1 89:1 
1 160:1 221:1 
1 73:1 115:1 194:1 200:1 221:1 251:1 257:1 
1 194:1 
1 185:1 
1 115:1 254:1 
1 189:1 
1 124:1 194:1 244:1 251:1 257:1 
1 115:1 194:1 
1 117:1 
1 91:1 
1 7:1 
1 
1 
1 112:1 185:1 194:1 
1 
1 87:1 248:1 257:1 
1 
1 
1 85:1 
1 
1 192:1 193:1 
1 87:1 115:1 246:1 248:1 
1 
1 51:1 87:1 194:1 
1 44:1 
1 194:1 
1 10:1 78:1 
1 81:1 257:1 
1 
1 117:1 
1 127:1 
1 53:1 87:1 
1 193:1 221:1 244:1 
1 84:1 
1 115:1 123:1 
1 117:1 
1 49:1 84:1 220:1 
1 201:1 
1 87:1 116:1 
1 117:1 144:1 191:1 221:1 
1 124:1 251:1 
1 192:1 233:1 244:1 
1 257:1 
1 49:1 106:1 186:1 
1 192:1 
1 72:1 
1 84:1 194:1 
1 71:1 
1 251:1 
1 
1 7:1 116:1 117:1 193:1 
1 117:1 
1 84:1 
1 257:1 
1 84:1 
1 257:1 
1 257:1 259:1 
1 251:1 252:1 
1 244:1 
1 122:1 251:1 
1 115:1 186:1 194:1 
1 
1 193:1 194:1 
1 87:1 200:1 248:1 
1 73:1 
1 150:1 193:1 
1 
1 201:1 
1 82:1 
1 186:1 219:1 233:1 
1 
1 150:1 
1 90:1 116:1 
1 194:1 
1 48:1 185:1 
1 82:1 83:1 84:1 116:1 193:1 221:1 
1 84:1 248:1 
1 250:1 251:1 257:1 
1 53:1 81:1 87:1 93:1 107:1 192:1 194:1 248:1 257:1 
1 185:1 
1 
1 227:1 
1 192:1 194:1 
1 194:1 
1 170:1 185:1 
1 192:1 193:1 
1 248:1 
1 95:1 
1 51:1 194:1 
1 49:1 257:1 
1 192:1 
1 47:1 115:1 232:1 261:1 
1 175:1 185:1 
1 214:1 
1 221:1 
1 107:1 194:1 234:1 
1 
1 23:1 47:1 49:1 50:1 75:1 80:1 84:1 87:1 189:1 248:1 253:1 
1 73:1 
1 148:1 194:1 
1 73:1 116:1 
1 48:1 
1 261:1 
1 193:1 
1 
1 49:1 
1 
-1 53:1 87:1 146:1 
-1 23:1 38:1 53:1 59:1 79:1 95:1 127:1 186:1 192:1 194:1 215:1 221:1 
-1 144:1 146:1 
-0.8170785523578097 85:1 115:1 117:1 202:1 205:1 206:1 208:1 213:1 
-0.6555261854368415 23:1 29:1 68:1 132:1 191:1 
-1 23:1 93:1 146:1 193:1 194:1 
-0.4670153437656628 49:1 87:1 147:1 233:1 
-1 14:1 
-1 87:1 146:1 147:1 
-0.9725180931974902 105:1 187:1 189:1 193:1 
-0.698532536961718 23:1 48:1 49:1 50:1 53:1 54:1 75:1 87:1 90:1 127:1 248:1 
-1 64:1 251:1 
-0.2629387386042739 23:1 29:1 53:1 59:1 87:1 223:1 248:1 257:1 
-0.354629532160751 11:1 43:1 49:1 53:1 87:1 
-1 14:1 19:1 
-1 219:1 251:1 252:1 257:1 
-0.4637636124546802 16:1 49:1 189:1 257:1 
-0.07491720005158831 241:1 248:1 257:1 
-1 48:1 49:1 87:1 89:1 97:1 150:1 192:1 201:1 
-1 53:1 73:1 87:1 117:1 123:1 248:1 
-0.7813205713487197 59:1 116:1 117:1 192:1 
-1 3:1 24:1 53:1 83:1 87:1 106:1 146:1 248:1 
-1 49:1 53:1 58:1 73:1 84:1 115:1 194:1 200:1 
-0.8454796433772659 52:1 78:1 84:1 127:1 148:1 189:1 194:1 197:1 
-1 44:1 192:1 200:1 251:1 
-1 24:1 53:1 150:1 195:1 233:1 
-1 23:1 53:1 80:1 81:1 87:1 111:1 257:1 
-1 83:1 161:1 192:1 193:1 194:1 195:1 200:1 221:1 228:1 257:1 
-0.7393125460308876 49:1 77:1 87:1 150:1 201:1 
-0.01442841623252681 87:1 175:1 185:1 194:1 242:1 
-1 8:1 39:1 
-1 93:1 189:1 192:1 193:1 
-1 8:1 33:1 87:1 112:1 116:1 117:1 192:1 245:1 
-0.5768543826706468 52:1 59:1 185:1 251:1 252:1 257:1 
-0.3818788124368434 6:1 16:1 
-1 7:1 82:1 84:1 95:1 199:1 
-1 47:1 80:1 189:1 193:1 194:1 221:1 225:1 242:1 246:1 248:1 
-1 4:1 49:1 80:1 84:1 115:1 191:1 194:1 
-1 84:1 194:1 257:1 
-1 53:1 193:1 194:1 214:1 257:1 
-1 27:1 115:1 
-1 192:1 194:1 200:1 
-1 49:1 55:1 87:1 191:1 193:1 194:1 251:1 
-1 87:1 95:1 96:1 144:1 
-1 53:1 87:1 97:1 146:1 191:1 194:1 248:1 
-0.7838317827340164 49:1 81:1 83:1 87:1 194:1 248:1 257:1 
-1 76:1 91:1 115:1 192:1 248:1 
-0.9846300825703529 23:1 44:1 48:1 53:1 123:1 155:1 244:1 245:1 
-1 14:1 49:1 59:1 82:1 87:1 95:1 
-1 59:1 76:1 221:1 
-1 93:1 116:1 194:1 257:1 263:1 
-0.8247421184150555 4:1 53:1 93:1 125:1 148:1 149:1 189:1 193:1 195:1 200:1 246:1 247:1 
-1 90:1 130:1 138:1 193:1 200:1 252:1 257:1 
-0.06882235172478864 54:1 127:1 194:1 248:1 257:1 
-1 87:1 123:1 127:1 192:1 193:1 194:1 251:1 257:1 
-0.347395830919192 91:1 123:1 130:1 189:1 193:1 194:1 242:1 
-0.07480665341603511 52:1 84:1 90:1 
-0.387595057723559 4:1 110:1 113:1 115:1 144:1 
-1 84:1 185:1 
-1 77:1 83:1 87:1 152:1 192:1 200:1 221:1 248:1 
-1 4:1 68:1 146:1 155:1 186:1 
-0.6991517082478189 47:1 53:1 82:1 91:1 116:1 138:1 192:1 194:1 200:1 248:1 
-1 75:1 77:1 189:1 194:1 
-0.3229160156844333 116:1 157:1 191:1 200:1 257:1 
-1 23:1 95:1 106:1 109:1 115:1 136:1 156:1 221:1 257:1 
-0.7458315183102429 49:1 53:1 81:1 87:1 90:1 94:1 105:1 
-0.5822574540382637 76:1 132:1 208:1 213:1 
-1 58:1 87:1 117:1 193:1 199:1 
-0.6600453479782452 19:1 51:1 75:1 87:1 248:1 
-1 23:1 29:1 70:1 75:1 95:1 127:1 142:1 189:1 194:1 
-1 21:1 53:1 257:1 
-1 49:1 53:1 87:1 189:1 257:1 
-0.1270194850943784 14:1 18:1 69:1 106:1 127:1 144:1 
-1 24:1 49:1 75:1 79:1 193:1 
-0.8964598013109217 70:1 84:1 148:1 189:1 193:1 194:1 201:1 244:1 
-0.8592177038775382 24:1 44:1 52:1 59:1 95:1 101:1 116:1 148:1 189:1 193:1 221:1 241:1 
-1 87:1 90:1 191:1 194:1 
-1 49:1 116:1 146:1 218:1 
-1 23:1 79:1 83:1 
-0.02991317794360691 85:1 127:1 252:1 
-1 49:1 87:1 200:1 248:1 
-1 91:1 117:1 123:1 130:1 200:1 252:1 257:1 
-0.9402922344457307 8:1 73:1 84:1 123:1 233:1 248:1 
-1 7:1 84:1 194:1 200:1 214:1 
-0.5503433250127977 29:1 54:1 75:1 116:1 193:1 194:1 
-1 49:1 83:1 85:1 87:1 90:1 111:1 193:1 251:1 257:1 
-1 75:1 80:1 84:1 192:1 
-0.5782884670798608 87:1 89:1 90:1 106:1 117:1 248:1 251:1 
-0.8360547729062549 49:1 87:1 185:1 191:1 219:1 
-1 29:1 49:1 75:1 84:1 87:1 90:1 247:1 253:1 
-0.9542884117043188 84:1 87:1 90:1 162:1 189:1 193:1 228:1 
-1 23:1 87:1 98:1 192:1 246:1 248:1 
-0.4313642524036992 76:1 144:1 193:1 248:1 
-0.8569234325679802 23:1 48:1 78:1 122:1 126:1 144:1 
-1 49:1 78:1 87:1 90:1 116:1 117:1 126:1 152:1 200:1 248:1 251:1 253:1 
-0.01400774469087937 58:1 117:1 132:1 193:1 248:1 
-0.230182138712495 49:1 87:1 93:1 116:1 117:1 192:1 202:1 
-0.1237633436355711 53:1 84:1 213:1 
-0.3332433490460008 49:1 53:1 55:1 82:1 87:1 106:1 
-1 138:1 152:1 153:1 194:1 200:1 257:1 
-0.9200051775174742 79:1 81:1 115:1 124:1 235:1 244:1 
-0.1521932684303468 95:1 115:1 124:1 193:1 255:1 
-1 49:1 58:1 150:1 189:1 
-0.02332800231112795 83:1 90:1 125:1 225:1 233:1 
-0.1315919125418947 87:1 117:1 191:1 259:1 
-0.9259353103848093 47:1 68:1 84:1 89:1 90:1 115:1 148:1 
-1 48:1 146:1 199:1 
-1 49:1 53:1 87:1 132:1 146:1 151:1 200:1 
-1 22:1 23:1 53:1 76:1 87:1 90:1 221:1 
-0.3660871225852433 233:1 244:1 251:1 263:1 
-1 23:1 53:1 87:1 89:1 90:1 95:1 97:1 106:1 124:1 
-1 78:1 194:1 251:1 257:1 
-1 44:1 84:1 186:1 192:1 193:1 244:1 245:1 248:1 
-1 83:1 87:1 116:1 189:1 
-1 70:1 75:1 76:1 82:1 
-1 49:1 106:1 189:1 191:1 194:1 200:1 
-0.797325532010894 53:1 75:1 244:1 251:1 
-1 77:1 78:1 83:1 87:1 148:1 194:1 
-0.1734732650898272 78:1 115:1 185:1 194:1 207:1 251:1 
-1 23:1 24:1 76:1 89:1 
-1 14:1 186:1 192:1 194:1 
-1 75:1 76:1 
-0.9297036786290733 19:1 24:1 87:1 90:1 98:1 
-1 49:1 191:1 199:1 200:1 
-0.4177957466804873 72:1 117:1 127:1 193:1 228:1 229:1 
-1 53:1 76:1 77:1 87:1 98:1 191:1 
-1 75:1 87:1 116:1 122:1 
-1 53:1 73:1 117:1 194:1 248:1 257:1 
-0.8096504944586531 47:1 95:1 229:1 251:1 
-1 53:1 87:1 152:1 193:1 244:1 245:1 
-0.8796851830787401 138:1 194:1 
-0.722930244668166 49:1 53:1 54:1 59:1 75:1 77:1 87:1 188:1 
-1 95:1 116:1 220:1 234:1 
-1 58:1 87:1 192:1 200:1 246:1 
-0.2188939296805946 9:1 14:1 49:1 77:1 90:1 148:1 190:1 
-1 87:1 153:1 192:1 193:1 
-0.4094900043918011 7:1 87:1 185:1 189:1 200:1 
-0.3629040622023752 79:1 81:1 124:1 140:1 242:1 
-0.47701254090239 7:1 10:1 75:1 144:1 191:1 192:1 
-0.9831449641517406 53:1 77:1 87:1 116:1 117:1 122:1 123:1 
-0.2354826778250124 19:1 52:1 53:1 59:1 87:1 115:1 200:1 253:1 
-1 23:1 84:1 93:1 94:1 95:1 115:1 117:1 132:1 153:1 233:1 
-0.9594135648298134 49:1 53:1 87:1 90:1 148:1 152:1 253:1 
-1 4:1 53:1 76:1 111:1 
-1 73:1 193:1 221:1 253:1 257:1 
-1 85:1 90:1 159:1 224:1 227:1 
-1 48:1 81:1 85:1 192:1 
-1 49:1 53:1 75:1 87:1 93:1 150:1 
-1 75:1 77:1 80:1 153:1 
-0.7081528240411989 48:1 49:1 53:1 87:1 193:1 
-0.07021183108479395 80:1 124:1 149:1 252:1 
-0.9509776814843677 84:1 165:1 185:1 214:1 
-0.8141316597188398 194:1 220:1 225:1 
-1 49:1 53:1 87:1 116:1 117:1 144:1 152:1 189:1 248:1 251:1 257:1 
-1 22:1 41:1 111:1 116:1 193:1 248:1 
-1 27:1 
-1 79:1 116:1 124:1 144:1 148:1 
-1 76:1 89:1 90:1 98:1 127:1 194:1 
-0.8869811890860767 84:1 91:1 127:1 141:1 
-1 221:1 244:1 261:1 
-0.1733017807512423 14:1 242:1 
-0.1720444803912028 49:1 87:1 116:1 150:1 
-1 152:1 164:1 192:1 200:1 224:1 257:1 
-0.3307938177747709 41:1 44:1 134:1 
-1 81:1 116:1 122:1 123:1 189:1 
-1 75:1 83:1 89:1 90:1 193:1 242:1 248:1 
-1 83:1 84:1 87:1 95:1 98:1 193:1 
-0.6402487062866919 48:1 157:1 164:1 257:1 
-0.9454116028545629 122:1 228:1 233:1 245:1 251:1 257:1 
-1 24:1 49:1 195:1 
-0.02756171549491776 98:1 99:1 101:1 105:1 189:1 191:1 
-1 75:1 81:1 117:1 192:1 200:1 219:1 
-0.264830586453525 80:1 112:1 115:1 123:1 197:1 
-1 53:1 75:1 117:1 122:1 129:1 148:1 191:1 248:1 251:1 
-1 152:1 198:1 214:1 218:1 
-1 81:1 115:1 123:1 245:1 
-1 115:1 123:1 138:1 194:1 239:1 
-1 244:1 257:1 
-0.1188995573933526 49:1 53:1 138:1 141:1 192:1 
-0.8131813652665756 36:1 49:1 53:1 87:1 90:1 127:1 156:1 191:1 195:1 
-0.8438238742804621 4:1 186:1 194:1 200:1 257:1 263:1 
-1 42:1 49:1 53:1 84:1 87:1 107:1 127:1 
-1 53:1 87:1 191:1 194:1 
-0.2005428645092998 24:1 194:1 236:1 
-1 3:1 84:1 123:1 187:1 189:1 192:1 
-1 111:1 117:1 123:1 245:1 247:1 
-1 87:1 115:1 116:1 191:1 197:1 251:1 257:1 
-1 84:1 144:1 192:1 193:1 200:1 234:1 257:1 
-0.03454403319553685 115:1 233:1 251:1 252:1 
-1 49:1 77:1 90:1 93:1 94:1 111:1 115:1 123:1 189:1 
-1 53:1 83:1 87:1 257:1 
-1 53:1 87:1 192:1 193:1 246:1 
-1 51:1 80:1 93:1 151:1 191:1 
-1 24:1 84:1 87:1 116:1 191:1 194:1 199:1 
-0.8611682824776066 117:1 132:1 189:1 219:1 
-0.4703608103123882 87:1 111:1 123:1 213:1 
-1 78:1 87:1 123:1 148:1 194:1 240:1 
-0.9701772467849965 26:1 87:1 244:1 251:1 258:1 270:1 
-1 23:1 48:1 51:1 87:1 95:1 193:1 
-1 53:1 87:1 116:1 189:1 193:1 194:1 200:1 
-1 4:1 107:1 200:1 251:1 
-0.5893371454133208 53:1 87:1 89:1 90:1 127:1 189:1 215:1 
-1 23:1 49:1 53:1 87:1 95:1 200:1 248:1 
-1 41:1 44:1 85:1 87:1 122:1 189:1 197:1 250:1 257:1 
-0.5540169638796237 48:1 49:1 53:1 84:1 
-1 29:1 80:1 87:1 95:1 193:1 
-1 53:1 76:1 127:1 193:1 200:1 221:1 228:1 246:1 248:1 257:1 
-1 48:1 78:1 87:1 92:1 193:1 194:1 197:1 
-1 49:1 95:1 123:1 141:1 153:1 193:1 200:1 
-0.9192442484385935 53:1 84:1 87:1 193:1 
-1 24:1 78:1 85:1 98:1 122:1 
-0.556424099212956 122:1 194:1 240:1 
-0.6437763789889667 54:1 95:1 156:1 187:1 192:1 193:1 231:1 233:1 248:1 
-1 87:1 89:1 116:1 193:1 194:1 257:1 
-0.9461283255719888 27:1 87:1 193:1 
-0.2701746721906285 53:1 87:1 111:1 115:1 124:1 143:1 205:1 
-0.9096032334793311 95:1 115:1 163:1 165:1 186:1 
-0.9451026748824 64:1 68:1 87:1 95:1 193:1 215:1 
-0.9310463018671835 115:1 123:1 194:1 
-0.03656637795460556 49:1 53:1 87:1 90:1 192:1 221:1 
-0.9059243544877099 49:1 87:1 89:1 115:1 246:1 248:1 
-0.9029431141003242 53:1 75:1 82:1 87:1 90:1 188:1 193:1 233:1 
-1 23:1 221:1 222:1 246:1 
-1 77:1 189:1 257:1 
-1 84:1 87:1 186:1 192:1 200:1 
-1 53:1 77:1 87:1 90:1 95:1 248:1 
-0.366444613696075 38:1 81:1 89:1 246:1 
-0.9667284628995105 54:1 87:1 127:1 257:1 259:1 
-0.9773780055386162 150:1 151:1 154:1 155:1 194:1 
-0.01947598475534203 2:1 3:1 111:1 123:1 221:1 257:1 
-1 73:1 144:1 158:1 
-1 53:1 192:1 194:1 221:1 250:1 
-0.06237673949477285 49:1 87:1 130:1 135:1 144:1 200:1 
-0.08398982637409599 87:1 153:1 193:1 
-0.8173739427605676 49:1 68:1 78:1 80:1 93:1 150:1 
-0.9169318591192189 84:1 91:1 117:1 123:1 192:1 194:1 
-0.9798157664405275 87:1 93:1 127:1 187:1 193:1 
-1 75:1 76:1 
-1 82:1 84:1 191:1 254:1 
-0.0415170444338254 57:1 115:1 192:1 193:1 219:1 
-0.7889032621038622 49:1 77:1 78:1 83:1 144:1 244:1 
-0.8567584700839393 109:1 113:1 194:1 200:1 251:1 
-0.03882490837765405 48:1 49:1 76:1 233:1 
-0.1084126625908649 23:1 75:1 191:1 
-1 59:1 80:1 90:1 117:1 194:1 
-1 198:1 225:1 
-0.4695216510397318 7:1 48:1 53:1 75:1 87:1 152:1 
-1 218:1 243:1 245:1 
-1 47:1 186:1 189:1 200:1 
-0.6635121473836286 89:1 95:1 147:1 189:1 
-0.04609105091150587 42:1 49:1 53:1 83:1 84:1 87:1 90:1 129:1 
-0.05868970312889326 77:1 98:1 111:1 191:1 199:1 
-1 39:1 
-1 79:1 122:1 235:1 244:1 
-0.4019882804812767 49:1 53:1 83:1 84:1 193:1 200:1 
-0.06199100656022488 43:1 117:1 197:1 259:1 
-1 49:1 87:1 122:1 150:1 194:1 248:1 
-1 33:1 164:1 
-1 73:1 185:1 
-0.6449725639781848 79:1 84:1 87:1 114:1 192:1 
-0.07402086740334751 81:1 115:1 194:1 200:1 206:1 
-0.04712850327418232 47:1 87:1 233:1 
-0.1424000217814685 117:1 156:1 
-0.9529777614504765 95:1 193:1 233:1 236:1 
-0.4117669179574492 3:1 123:1 140:1 141:1 
-0.1217292230752503 48:1 53:1 191:1 270:1 
-1 29:1 53:1 77:1 87:1 95:1 106:1 
-0.05747629242132772 49:1 125:1 153:1 247:1 
-0.7785403515621705 5:1 116:1 200:1 257:1 
-0.1531385641253566 7:1 112:1 123:1 127:1 193:1 
-1 7:1 55:1 152:1 221:1 
-0.8369841320968441 14:1 42:1 81:1 87:1 130:1 
-0.1477911278323403 53:1 87:1 90:1 148:1 188:1 192:1 
-1 29:1 59:1 78:1 80:1 87:1 90:1 242:1 248:1 
-0.03103043580649259 47:1 87:1 154:1 252:1 
-1 48:1 117:1 123:1 144:1 194:1 200:1 221:1 247:1 
-0.9503282803758254 124:1 133:1 143:1 251:1 
-1 82:1 87:1 98:1 251:1 257:1 
-0.1863523748824417 117:1 151:1 189:1 191:1 214:1 228:1 
-1 75:1 90:1 95:1 123:1 130:1 
-0.8691830093094945 49:1 75:1 87:1 99:1 107:1 
-1 53:1 84:1 87:1 194:1 257:1 
-0.2835030539447306 76:1 78:1 251:1 
-0.4664645680686514 75:1 162:1 191:1 194:1 257:1 
-1 49:1 59:1 87:1 93:1 193:1 233:1 
-0.09595983471459998 80:1 192:1 200:1 
-0.9783226697564289 7:1 124:1 189:1 233:1 240:1 251:1 270:1 
-1 111:1 122:1 
-1 39:1 132:1 
-1 73:1 87:1 251:1 257:1 
-1 24:1 49:1 87:1 117:1 191:1 257:1 
-1 53:1 75:1 87:1 189:1 219:1 
-1 29:1 87:1 97:1 
-1 84:1 85:1 115:1 123:1 193:1 201:1 221:1 
-1 23:1 49:1 76:1 87:1 90:1 144:1 
-1 85:1 98:1 116:1 189:1 246:1 
-0.2122503026833106 49:1 106:1 112:1 116:1 117:1 
-0.1057436062276907 81:1 124:1 235:1 239:1 
-0.3959624503452384 77:1 87:1 115:1 200:1 
-0.9795898716552885 44:1 69:1 225:1 234:1 248:1 
-0.09475526512848273 53:1 75:1 87:1 105:1 192:1 248:1 
-1 58:1 148:1 189:1 
-1 77:1 125:1 194:1 221:1 
-1 49:1 75:1 98:1 148:1 247:1 251:1 
-0.04156011977640715 7:1 75:1 193:1 
-1 25:1 48:1 51:1 127:1 128:1 244:1 248:1 251:1 257:1 
-1 192:1 194:1 
-0.2166034440240587 148:1 186:1 248:1 
-0.9508321951062908 24:1 81:1 125:1 
-1 53:1 85:1 87:1 117:1 132:1 221:1 
-1 252:1 257:1 261:1 
-1 79:1 115:1 160:1 194:1 200:1 242:1 
-0.4119635197940963 123:1 193:1 233:1 
-0.8084413036345397 59:1 95:1 116:1 130:1 148:1 156:1 193:1 194:1 
-1 105:1 127:1 224:1 
-1 115:1 248:1 257:1 
-0.4459897407407623 73:1 81:1 185:1 200:1 
-1 48:1 53:1 87:1 192:1 242:1 
-0.01649821799055957 49:1 52:1 53:1 87:1 89:1 90:1 98:1 123:1 245:1 
-0.513387057530988 115:1 126:1 193:1 201:1 
-1 53:1 55:1 85:1 87:1 89:1 90:1 91:1 106:1 150:1 195:1 200:1 
-1 92:1 111:1 
-1 53:1 87:1 93:1 194:1 195:1 241:1 
-0.05662314826552748 23:1 52:1 84:1 245:1 
-1 23:1 75:1 193:1 
-0.05178523562029629 83:1 84:1 192:1 
-0.8496324467942281 192:1 194:1 
-1 4:1 109:1 201:1 221:1 
-0.3910825961899306 78:1 83:1 84:1 248:1 263:1 
-1 58:1 81:1 191:1 194:1 257:1 
-0.7748216464319411 81:1 83:1 111:1 115:1 124:1 
-1 165:1 193:1 206:1 214:1 
-1 87:1 116:1 117:1 123:1 248:1 
-1 53:1 87:1 90:1 116:1 132:1 148:1 245:1 257:1 
-0.5066621027038933 78:1 87:1 144:1 189:1 196:1 
-0.9818716356563014 53:1 81:1 192:1 193:1 200:1 220:1 233:1 
-1 4:1 87:1 115:1 194:1 257:1 
-1 49:1 53:1 87:1 194:1 
-0.1194185468552057 53:1 87:1 138:1 248:1 
-0.5411542885584718 51:1 81:1 117:1 123:1 228:1 270:1 
-1 24:1 77:1 191:1 192:1 
-1 47:1 53:1 116:1 140:1 199:1 200:1 240:1 
-0.4029478583361812 76:1 98:1 189:1 193:1 
-0.5371785312720651 49:1 87:1 117:1 193:1 248:1 
-0.03006745591374558 111:1 116:1 117:1 143:1 
-1 51:1 73:1 112:1 115:1 164:1 221:1 
-1 29:1 192:1 193:1 248:1 
-0.9748323143021302 61:1 104:1 116:1 117:1 192:1 
-0.05333130171438652 70:1 116:1 127:1 150:1 
-1 49:1 53:1 87:1 107:1 189:1 193:1 257:1 
-0.143630011918049 193:1 194:1 224:1 245:1 
-1 49:1 53:1 95:1 189:1 
-0.59584544547216 81:1 111:1 115:1 123:1 125:1 189:1 
-1 248:1 251:1 257:1 
-1 85:1 87:1 116:1 117:1 127:1 144:1 
-0.5487412812775926 48:1 49:1 87:1 122:1 
-1 11:1 23:1 89:1 
-0.03694236183801 7:1 59:1 81:1 125:1 143:1 
-0.1774254115483431 23:1 80:1 87:1 99:1 
-1 115:1 194:1 200:1 250:1 257:1 
-1 90:1 95:1 225:1 
-0.04072733559451783 53:1 87:1 90:1 193:1 257:1 
-1 87:1 192:1 194:1 219:1 251:1 
-1 24:1 116:1 
-0.2929113509358852 59:1 123:1 247:1 
-0.09212573877570017 200:1 233:1 252:1 257:1 
-0.3734833081973337 69:1 148:1 
-0.7987410186134782 140:1 189:1 193:1 251:1 257:1 
-1 36:1 80:1 90:1 106:1 116:1 253:1 
-0.4379623083291211 14:1 53:1 
-1 64:1 80:1 245:1 246:1 
-0.2162720715670345 166:1 200:1 
-0.2933248854674967 73:1 189:1 
-1 189:1 233:1 248:1 
-0.8958699594787509 77:1 78:1 80:1 
-0.6108935743083349 48:1 116:1 117:1 162:1 221:1 244:1 
-0.05439002640767176 49:1 87:1 98:1 123:1 132:1 144:1 
-1 49:1 53:1 89:1 90:1 122:1 
-0.2084592840796189 49:1 53:1 68:1 87:1 95:1 111:1 192:1 248:1 
-0.1010087498017946 48:1 52:1 53:1 87:1 191:1 194:1 215:1 
-0.1965789403930921 49:1 53:1 54:1 87:1 90:1 95:1 138:1 193:1 
-1 189:1 192:1 193:1 251:1 257:1 
-1 122:1 186:1 219:1 222:1 233:1 
-1 49:1 53:1 84:1 87:1 98:1 193:1 194:1 
-0.1294198081416038 48:1 71:1 98:1 245:1 
-1 23:1 53:1 189:1 
-1 49:1 53:1 87:1 93:1 95:1 191:1 251:1 
-0.2518504411268991 5:1 81:1 257:1 
-0.2503442437630872 13:1 53:1 80:1 89:1 106:1 186:1 233:1 
-0.717839324074245 47:1 59:1 78:1 83:1 
-0.8299075643742727 7:1 84:1 113:1 242:1 
-0.02737519175131658 115:1 189:1 200:1 218:1 
-0.08743772280050816 82:1 117:1 252:1 
-1 87:1 127:1 248:1 257:1 
-0.210327564013698 117:1 127:1 129:1 149:1 156:1 247:1 
-0.7304142348703888 252:1 255:1 257:1 
-1 49:1 59:1 87:1 130:1 150:1 155:1 194:1 197:1 
-1 80:1 87:1 89:1 90:1 194:1 200:1 
-0.541696022512725 38:1 87:1 
-0.01467704600398414 41:1 75:1 155:1 
-1 51:1 115:1 189:1 246:1 
-0.9735924884107074 7:1 200:1 
-1 87:1 95:1 127:1 130:1 192:1 200:1 
-1 187:1 200:1 257:1 
-0.8198803997235592 48:1 75:1 87:1 248:1 
-1 194:1 257:1 
-0.08472525689789628 80:1 87:1 152:1 200:1 
-0.2032336666606499 53:1 85:1 
-0.02219240115954521 44:1 80:1 98:1 148:1 234:1 
-0.9554467861653292 4:1 122:1 123:1 138:1 255:1 
-0.9810087393512845 7:1 59:1 115:1 122:1 124:1 148:1 150:1 245:1 
-1 193:1 200:1 251:1 257:1 
-0.124019768584207 16:1 17:1 38:1 41:1 186:1 
-1 90:1 95:1 192:1 219:1 
-1 53:1 69:1 87:1 90:1 251:1 
-1 39:1 200:1 
-0.3450730077425879 79:1 115:1 122:1 124:1 186:1 
-1 87:1 90:1 93:1 116:1 193:1 
-0.09822741559179864 7:1 40:1 115:1 123:1 160:1 191:1 200:1 233:1 
-1 115:1 204:1 
-1 24:1 87:1 115:1 143:1 234:1 245:1 248:1 
-0.669911103315925 80:1 87:1 150:1 186:1 
-0.3678292252627415 49:1 53:1 77:1 90:1 
-0.05746679843352651 32:1 191:1 200:1 221:1 225:1 
-1 48:1 76:1 87:1 191:1 
-0.07503467006726081 111:1 116:1 164:1 
-0.443575900787044 79:1 122:1 
-0.04501463478646522 75:1 187:1 201:1 
-1 84:1 155:1 257:1 
-0.5186075382168441 23:1 115:1 116:1 122:1 
-0.0220527297267524 49:1 52:1 53:1 80:1 84:1 87:1 193:1 248:1 
-1 7:1 73:1 111:1 130:1 186:1 
-0.7559468066190899 83:1 116:1 117:1 248:1 251:1 257:1 
-0.2208150029552019 36:1 75:1 149:1 193:1 
-0.3363358115879557 23:1 53:1 87:1 115:1 248:1 
-1 87:1 90:1 186:1 189:1 248:1 
-0.06618284217662418 81:1 117:1 144:1 242:1 
-0.04733465077503367 87:1 193:1 221:1 257:1 
-1 75:1 186:1 194:1 246:1 
-0.9769675741835843 48:1 49:1 75:1 76:1 246:1 
-0.886147686980817 23:1 153:1 200:1 
-0.3999958123562174 79:1 221:1 
-0.1472008695495302 83:1 152:1 155:1 
-1 49:1 87:1 90:1 257:1 
-0.2843417305236745 6:1 248:1 
-1 49:1 51:1 87:1 122:1 192:1 246:1 248:1 257:1 
-0.09660752658593527 138:1 193:1 221:1 257:1 
-0.8341752996241044 73:1 122:1 194:1 214:1 
-1 23:1 49:1 87:1 192:1 
-1 24:1 87:1 93:1 144:1 148:1 
-1 47:1 193:1 228:1 
-0.8729943646609341 78:1 85:1 115:1 201:1 221:1 242:1 
-1 47:1 73:1 82:1 189:1 
-1 156:1 193:1 194:1 248:1 
-0.08103417873699735 53:1 87:1 193:1 248:1 
-1 53:1 87:1 127:1 193:1 220:1 
-0.2735959322948398 10:1 79:1 112:1 189:1 200:1 
-0.592514447710155 49:1 87:1 98:1 130:1 141:1 142:1 239:1 
-0.3039213631266998 73:1 87:1 153:1 246:1 
-1 72:1 198:1 
-0.898240324744417 44:1 53:1 87:1 90:1 153:1 189:1 
-0.1370225255196989 49:1 53:1 87:1 116:1 127:1 192:1 225:1 247:1 
-0.5756264188650205 49:1 53:1 150:1 191:1 
-0.9380777089394575 49:1 96:1 192:1 194:1 200:1 
-1 44:1 124:1 166:1 185:1 
-0.9571030223917826 48:1 251:1 257:1 
-1 115:1 170:1 185:1 
-0.9495879005136071 116:1 193:1 251:1 
-1 123:1 193:1 194:1 233:1 
-0.2045164393647905 48:1 59:1 87:1 152:1 
-1 150:1 193:1 
-1 23:1 29:1 77:1 
-0.7340045757109006 4:1 53:1 75:1 87:1 
-0.337018405080222 53:1 87:1 116:1 117:1 191:1 259:1 
-1 24:1 75:1 127:1 192:1 
-1 85:1 138:1 164:1 242:1 
-1 29:1 53:1 58:1 82:1 83:1 194:1 197:1 
-1 76:1 133:1 193:1 
-1 7:1 48:1 80:1 144:1 187:1 189:1 194:1 
-1 53:1 87:1 90:1 111:1 116:1 
-1 49:1 59:1 75:1 87:1 107:1 112:1 122:1 200:1 248:1 
-1 87:1 93:1 115:1 116:1 191:1 194:1 200:1 251:1 
-0.6961374132273327 49:1 75:1 89:1 90:1 127:1 150:1 224:1 
-0.3488727494438137 44:1 72:1 111:1 116:1 
-0.136891835203293 53:1 123:1 248:1 
-1 23:1 76:1 193:1 
-1 49:1 53:1 87:1 90:1 94:1 116:1 192:1 194:1 200:1 
-1 58:1 148:1 200:1 221:1 
-1 164:1 193:1 
-0.5358666191800651 19:1 53:1 87:1 122:1 194:1 
-1 87:1 150:1 191:1 
-0.4085387408440747 63:1 95:1 115:1 
-0.1307890604383208 87:1 115:1 116:1 144:1 193:1 233:1 
-0.05553214762588399 83:1 87:1 90:1 
-0.5411398520005291 72:1 115:1 122:1 235:1 
-0.02049212724157529 7:1 78:1 81:1 115:1 
-0.04810400590711074 77:1 90:1 248:1 
-0.700999101336468 109:1 221:1 
-0.5079766944933668 7:1 156:1 206:1 
-0.8066439086280663 51:1 78:1 195:1 221:1 
-0.02385888430026296 53:1 57:1 70:1 85:1 87:1 89:1 90:1 
-1 53:1 78:1 83:1 
-0.9568470913515467 44:1 109:1 127:1 144:1 248:1 
-0.01299848519791909 78:1 224:1 246:1 
-0.03506192154089269 111:1 191:1 233:1 
-1 83:1 115:1 122:1 144:1 189:1 
-0.00621154781104526 7:1 48:1 109:1 194:1 
-0.02100063391440042 49:1 115:1 152:1 221:1 
-0.2233942121774592 87:1 122:1 194:1 224:1 
-0.01991011542740347 81:1 148:1 255:1 
-1 80:1 87:1 189:1 193:1 
-1 53:1 84:1 95:1 116:1 123:1 193:1 200:1 221:1 
-1 39:1 81:1 194:1 232:1 248:1 
-1 123:1 189:1 193:1 194:1 200:1 
-1 73:1 82:1 150:1 193:1 248:1 
-1 75:1 77:1 155:1 191:1 248:1 
-1 185:1 251:1 257:1 
-0.04596946470376556 96:1 257:1 
-1 48:1 53:1 148:1 194:1 251:1 
-1 148:1 257:1 
-1 81:1 84:1 192:1 
-1 44:1 48:1 78:1 115:1 117:1 193:1 242:1 
-1 49:1 77:1 116:1 152:1 186:1 193:1 200:1 
-0.02358751625841102 48:1 221:1 257:1 
-0.1158738179429575 23:1 87:1 187:1 221:1 
-1 59:1 73:1 84:1 200:1 
-0.5585530981401583 220:1 221:1 233:1 
-0.9687803067363914 53:1 87:1 89:1 90:1 92:1 193:1 248:1 
-1 23:1 53:1 150:1 191:1 192:1 
-1 122:1 189:1 
-1 164:1 222:1 257:1 
-1 97:1 191:1 
-0.2814694110286595 6:1 49:1 
-0.8453089181705824 8:1 93:1 106:1 130:1 227:1 
-0.03577975828862125 87:1 90:1 93:1 200:1 
-0.2887671628045311 62:1 247:1 
-0.6409520447110006 87:1 95:1 115:1 221:1 244:1 
-0.1882110476639025 64:1 81:1 
-0.5349698679306009 48:1 49:1 160:1 187:1 
-0.4387581410400232 38:1 189:1 
-0.4144551772999076 116:1 117:1 251:1 257:1 
-0.1445655437356628 53:1 80:1 195:1 257:1 
-0.1058080899496875 80:1 189:1 208:1 254:1 
-0.9047246526067096 3:1 58:1 123:1 124:1 
-0.8695853657433379 193:1 194:1 199:1 200:1 
-0.09131153519360889 107:1 
-1 23:1 53:1 73:1 
-0.2838111105659029 4:1 7:1 10:1 53:1 189:1 194:1 
-1 107:1 
-0.2702903308793849 111:1 117:1 160:1 
-0.1080216948803388 79:1 166:1 
-1 44:1 48:1 53:1 75:1 87:1 90:1 192:1 
-0.03570529475213077 42:1 116:1 127:1 192:1 194:1 
-0.967725186627999 7:1 228:1 247:1 
-0.6803761773405 79:1 115:1 194:1 221:1 
-0.08806726342272397 36:1 47:1 49:1 87:1 127:1 128:1 
-0.325067522012071 44:1 47:1 49:1 194:1 
-1 24:1 49:1 53:1 87:1 193:1 194:1 221:1 
-1 49:1 90:1 132:1 
-0.2348155907407891 191:1 195:1 248:1 
-0.1055266429045565 117:1 186:1 242:1 
-1 185:1 257:1 
-1 76:1 87:1 248:1 
-1 149:1 191:1 214:1 221:1 
-1 23:1 75:1 83:1 87:1 
-0.102746109892451 49:1 188:1 192:1 257:1 
-1 87:1 130:1 192:1 194:1 244:1 248:1 
-1 49:1 73:1 87:1 93:1 95:1 98:1 115:1 148:1 244:1 
-1 53:1 90:1 105:1 123:1 245:1 
-0.04328708013925925 53:1 87:1 95:1 102:1 219:1 248:1 
-1 115:1 251:1 257:1 
-0.1108290229157969 79:1 251:1 255:1 
-1 81:1 115:1 123:1 186:1 242:1 
-1 49:1 53:1 84:1 87:1 111:1 115:1 148:1 
-0.3945540845211929 49:1 53:1 87:1 186:1 192:1 193:1 221:1 229:1 231:1 
-0.93414301280926 48:1 100:1 242:1 251:1 
-0.03669214648044337 53:1 85:1 113:1 
-1 244:1 252:1 
-1 72:1 222:1 248:1 251:1 252:1 254:1 257:1 
-0.9355812686022589 49:1 50:1 219:1 
-1 7:1 23:1 53:1 89:1 90:1 192:1 
-0.1533492180901258 75:1 87:1 186:1 247:1 
-1 79:1 80:1 87:1 157:1 192:1 198:1 
-0.03448414384184087 81:1 87:1 117:1 236:1 
-1 53:1 76:1 80:1 85:1 90:1 
-0.02301649991125188 47:1 83:1 117:1 
-0.426503164181117 87:1 90:1 95:1 142:1 
-0.265392758997329 23:1 53:1 242:1 247:1 248:1 
-0.9435837089428731 48:1 87:1 122:1 123:1 201:1 246:1 
-1 53:1 55:1 84:1 193:1 200:1 
-0.922169621207154 53:1 87:1 109:1 257:1 263:1 
-1 24:1 44:1 78:1 150:1 152:1 189:1 245:1 
-1 116:1 138:1 
-1 49:1 75:1 87:1 189:1 
-1 107:1 115:1 228:1 
-1 29:1 87:1 91:1 
-0.0303454883981928 115:1 160:1 248:1 
-1 51:1 123:1 160:1 224:1 251:1 
-1 76:1 80:1 83:1 87:1 
-0.7362292325118358 23:1 125:1 149:1 247:1 
-1 59:1 111:1 233:1 248:1 
-1 58:1 165:1 219:1 270:1 
-0.09358001618182188 52:1 156:1 160:1 233:1 241:1 
-1 251:1 252:1 257:1 258:1 
-1 7:1 47:1 219:1 
-1 73:1 189:1 251:1 
-0.03071302362532757 53:1 115:1 200:1 
-1 58:1 192:1 244:1 
-0.8550065934540458 53:1 130:1 144:1 193:1 200:1 239:1 
-1 53:1 87:1 91:1 127:1 191:1 257:1 
-0.2758427025144307 4:1 49:1 87:1 194:1 
-1 55:1 115:1 123:1 144:1 
-1 53:1 90:1 193:1 
-0.5919673737085399 49:1 87:1 95:1 
-0.5705783245409949 70:1 194:1 
-0.9438096706095048 49:1 110:1 141:1 257:1 
-1 53:1 115:1 193:1 243:1 
-0.9705049712069033 12:1 116:1 192:1 
-0.7721697032762336 115:1 117:1 123:1 
-0.1056086607609102 90:1 116:1 193:1 200:1 
-1 48:1 132:1 197:1 200:1 214:1 
-0.4832842616539651 90:1 94:1 194:1 
-0.1130188109139233 116:1 123:1 144:1 
-1 24:1 73:1 77:1 87:1 
-1 87:1 148:1 192:1 193:1 
-0.4643871859913678 44:1 115:1 123:1 124:1 
-0.02760337854665881 79:1 94:1 124:1 
-0.8683535346998679 23:1 25:1 
-0.03561877865376516 49:1 54:1 97:1 
-1 23:1 116:1 
-0.04480992571503496 7:1 115:1 116:1 117:1 122:1 124:1 
-0.9808485537285844 248:1 252:1 253:1 255:1 257:1 
-1 87:1 111:1 220:1 224:1 
-0.1610293159870862 115:1 123:1 189:1 233:1 252:1 
-1 23:1 87:1 194:1 
-1 44:1 84:1 87:1 257:1 
-1 29:1 49:1 77:1 89:1 90:1 
-0.9193306215449333 7:1 48:1 192:1 248:1 251:1 
-0.0310286340907628 4:1 77:1 233:1 
-0.4333767152040435 78:1 80:1 193:1 233:1 242:1 
-1 47:1 81:1 117:1 248:1 251:1 
-0.7187418613129642 84:1 98:1 111:1 116:1 193:1 224:1 
-1 49:1 76:1 200:1 
-0.3097667569948673 125:1 148:1 
-1 23:1 90:1 115:1 122:1 
-0.7440134981765585 83:1 143:1 222:1 
-0.5522689664611234 49:1 81:1 87:1 189:1 192:1 247:1 
-1 14:1 87:1 133:1 
-0.3563104343352053 47:1 49:1 53:1 81:1 87:1 123:1 192:1 248:1 
-1 80:1 95:1 148:1 
-0.05158976275406351 84:1 87:1 191:1 257:1 
-1 53:1 77:1 83:1 194:1 
-0.1707694920639966 7:1 53:1 77:1 87:1 
-1 48:1 73:1 115:1 246:1 257:1 
-0.1035851831301581 23:1 53:1 83:1 247:1 
-0.05395193435314037 122:1 193:1 206:1 214:1 
-0.8925870605598525 83:1 115:1 148:1 205:1 
-1 49:1 53:1 87:1 124:1 193:1 
-0.8788893788670545 122:1 189:1 214:1 244:1 245:1 
-1 11:1 44:1 194:1 241:1 
-0.1054019665045719 23:1 78:1 188:1 
-1 87:1 90:1 93:1 95:1 106:1 193:1 248:1 
-1 189:1 192:1 194:1 
-0.6626616926455688 48:1 82:1 87:1 90:1 192:1 
-0.03152983899794207 4:1 156:1 162:1 248:1 251:1 
-1 73:1 123:1 148:1 232:1 
-0.1546992870007962 4:1 73:1 115:1 116:1 
-1 33:1 53:1 191:1 
-0.03893797729949804 44:1 73:1 164:1 194:1 
-1 76:1 87:1 187:1 194:1 
-1 87:1 95:1 122:1 193:1 
-0.04370967194586437 82:1 87:1 200:1 
-1 59:1 87:1 150:1 200:1 
-0.3238200904965167 7:1 82:1 115:1 123:1 
-0.8037206934618623 73:1 87:1 123:1 130:1 193:1 
-0.05233056493661638 116:1 123:1 245:1 
-0.04916780489370924 24:1 53:1 200:1 
-1 116:1 117:1 192:1 
-1 23:1 189:1 
-0.05558027916507006 7:1 24:1 123:1 
-0.6196585620814918 49:1 53:1 84:1 87:1 130:1 191:1 
-1 72:1 193:1 248:1 
-1 84:1 127:1 193:1 194:1 251:1 257:1 
-0.8204274275529426 48:1 78:1 79:1 117:1 191:1 
-0.5332262835823404 11:1 
-0.7902318028965937 44:1 124:1 193:1 
-0.04021715988278797 41:1 42:1 
-0.5480661342238698 49:1 87:1 93:1 
-1 130:1 220:1 
-0.3930386573734614 29:1 49:1 87:1 246:1 
-0.06511693115703712 187:1 228:1 252:1 
-1 115:1 123:1 192:1 193:1 
-1 49:1 87:1 90:1 122:1 
-0.1960285375625369 80:1 194:1 
-0.1584690603376807 112:1 117:1 122:1 152:1 245:1 
-1 14:1 148:1 
-0.04940467918549553 78:1 84:1 124:1 242:1 
-0.8007872407756303 53:1 149:1 153:1 
-0.9838802829174829 10:1 55:1 87:1 116:1 140:1 142:1 
-1 192:1 193:1 
-0.09370010874039537 4:1 152:1 245:1 
-1 59:1 122:1 146:1 
-0.721221324448402 4:1 125:1 191:1 220:1 
-1 49:1 84:1 
-0.02228760127929752 53:1 80:1 193:1 248:1 
-0.1360858413772389 49:1 53:1 83:1 87:1 153:1 
-1 193:1 194:1 251:1 257:1 259:1 
-1 123:1 242:1 
-1 47:1 84:1 248:1 
-1 53:1 58:1 87:1 140:1 189:1 257:1 
-1 49:1 53:1 87:1 194:1 
-1 189:1 192:1 
-0.3976805735198314 48:1 117:1 123:1 
-0.02037885851067357 113:1 186:1 240:1 
-1 24:1 248:1 
-1 48:1 193:1 199:1 200:1 
-1 53:1 80:1 84:1 193:1 
-1 53:1 77:1 87:1 90:1 193:1 
-0.1453133240607896 75:1 87:1 111:1 114:1 
-0.161058162381236 3:1 122:1 155:1 194:1 248:1 
-1 7:1 72:1 251:1 255:1 
-0.07140016852806969 75:1 149:1 193:1 
-0.05862215266921074 24:1 84:1 193:1 194:1 
-0.5914612591559253 49:1 189:1 
-0.9437154593758733 53:1 70:1 84:1 
-0.09559501407571967 73:1 87:1 200:1 
-1 24:1 49:1 53:1 87:1 192:1 
-1 185:1 193:1 
-0.9809780884537315 186:1 246:1 247:1 251:1 
-1 47:1 87:1 193:1 
-0.1000994153526613 47:1 73:1 87:1 91:1 
-0.05815338680478363 24:1 70:1 148:1 201:1 
-0.1317972453176753 53:1 124:1 144:1 
-1 48:1 52:1 53:1 87:1 97:1 156:1 189:1 
-1 77:1 87:1 
-1 87:1 89:1 146:1 147:1 
-1 49:1 55:1 98:1 138:1 257:1 
-0.02369560002587038 79:1 112:1 123:1 228:1 
-0.05775580188949826 165:1 166:1 
-1 75:1 87:1 127:1 135:1 194:1 233:1 
-0.1203471684505873 83:1 220:1 
-0.3261595091488492 122:1 251:1 257:1 
-0.05442808627450643 53:1 75:1 87:1 90:1 200:1 
-0.4390413018537028 116:1 117:1 124:1 
-1 49:1 84:1 117:1 193:1 
-0.326208756722584 23:1 115:1 192:1 
-1 82:1 185:1 194:1 
-1 48:1 75:1 84:1 
-1 112:1 124:1 244:1 
-1 85:1 116:1 117:1 
-1 87:1 245:1 257:1 259:1 
-0.04137349016024427 111:1 122:1 124:1 
-1 127:1 132:1 221:1 
-0.8065569830484955 115:1 161:1 198:1 
-1 23:1 83:1 193:1 
-1 148:1 193:1 200:1 251:1 
-0.6362466759112104 83:1 87:1 122:1 
-1 49:1 75:1 186:1 
-1 79:1 87:1 90:1 155:1 189:1 
-0.9333050164630776 36:1 49:1 87:1 189:1 193:1 200:1 242:1 
-0.03974040633914478 7:1 87:1 257:1 
-1 59:1 90:1 127:1 193:1 
-0.3658458448076999 59:1 215:1 
-0.1210446652838548 123:1 191:1 194:1 248:1 
-1 80:1 115:1 
-0.8962687088288124 192:1 221:1 248:1 
-0.9555593065729762 49:1 75:1 87:1 
-0.9462387233355356 84:1 117:1 216:1 221:1 
-0.6312901445868622 53:1 87:1 124:1 193:1 200:1 
-0.3968720860399699 80:1 148:1 229:1 236:1 
-1 49:1 95:1 
-1 85:1 90:1 93:1 
-1 23:1 189:1 194:1 251:1 
-0.9340503140650381 24:1 48:1 55:1 189:1 
-1 24:1 53:1 87:1 
-1 53:1 72:1 75:1 87:1 134:1 
-1 82:1 115:1 192:1 
-0.5389961708996059 28:1 55:1 74:1 134:1 148:1 
-1 64:1 78:1 189:1 240:1 
-0.481432219570509 49:1 53:1 68:1 116:1 126:1 130:1 253:1 
-1 194:1 257:1 
-0.09136075239709215 90:1 194:1 224:1 
-0.917118800146262 117:1 122:1 152:1 218:1 
-0.1146519725176781 73:1 115:1 130:1 194:1 
-0.1233121120124318 49:1 126:1 200:1 
-1 84:1 87:1 97:1 122:1 248:1 
-1 44:1 53:1 82:1 95:1 194:1 
-0.4356226393832348 254:1 259:1 
-1 75:1 87:1 90:1 98:1 150:1 
-1 84:1 116:1 193:1 
-0.4049381992009529 47:1 48:1 53:1 87:1 95:1 
-0.352386484402 124:1 193:1 194:1 200:1 
-0.9326423084554868 84:1 123:1 
-0.2356953548635979 23:1 53:1 87:1 117:1 122:1 
-1 47:1 77:1 218:1 
-1 44:1 75:1 87:1 107:1 
-0.4072688733438262 80:1 83:1 87:1 91:1 123:1 233:1 
-1 72:1 73:1 83:1 84:1 
-1 49:1 87:1 189:1 193:1 200:1 248:1 
-1 7:1 44:1 80:1 192:1 193:1 197:1 
-0.1863951115206176 80:1 245:1 246:1 
-1 49:1 87:1 192:1 257:1 
-1 47:1 53:1 75:1 87:1 200:1 247:1 
-1 23:1 49:1 53:1 58:1 84:1 87:1 151:1 194:1 200:1 206:1 251:1 257:1 
-0.9559883869608549 4:1 115:1 116:1 220:1 
-1 10:1 58:1 76:1 
-0.2734086314449106 115:1 144:1 148:1 193:1 194:1 
-0.9142839063779069 23:1 47:1 78:1 194:1 
-1 53:1 77:1 87:1 95:1 104:1 
-0.2499576447040309 84:1 114:1 115:1 245:1 
-1 23:1 200:1 
-1 53:1 78:1 87:1 95:1 193:1 194:1 200:1 
-0.02441897398198458 44:1 156:1 221:1 
-1 192:1 194:1 233:1 252:1 
-0.6288626122388931 79:1 80:1 194:1 257:1 
-1 11:1 193:1 
-0.7254875395461619 84:1 116:1 117:1 193:1 
-0.9182870401358502 243:1 252:1 
-0.4873875116638393 53:1 87:1 153:1 193:1 257:1 
-0.04857493413156082 81:1 235:1 242:1 
-1 49:1 77:1 117:1 123:1 189:1 
-1 49:1 84:1 251:1 
-1 81:1 111:1 117:1 148:1 
-0.04056242057183945 186:1 221:1 233:1 
-1 7:1 148:1 
-0.9691540476122538 19:1 89:1 90:1 116:1 244:1 
-1 73:1 123:1 
-0.04309588761286903 115:1 193:1 257:1 
-1 64:1 87:1 189:1 193:1 200:1 
-0.9673831450607582 49:1 50:1 73:1 87:1 89:1 98:1 228:1 
-0.8053069455544711 4:1 48:1 197:1 228:1 251:1 
-0.14086359419065 89:1 112:1 233:1 245:1 247:1 
-0.9575878587272295 192:1 214:1 
-0.9318320829268367 49:1 53:1 87:1 117:1 192:1 
-0.2550915872608283 85:1 144:1 248:1 
-0.9927691873583292 49:1 90:1 155:1 194:1 
-0.09302187975785833 49:1 84:1 87:1 248:1 251:1 270:1 
-1 122:1 189:1 
-0.0970060533541868 55:1 87:1 95:1 
-1 76:1 79:1 165:1 
-1 49:1 53:1 87:1 148:1 192:1 
-1 80:1 117:1 
-0.903137408253033 44:1 193:1 251:1 
-0.0681235902397169 58:1 125:1 251:1 
-0.3366602711693003 32:1 153:1 
-0.03429259907020582 117:1 144:1 235:1 239:1 
-0.2569676033840436 166:1 185:1 257:1 
-0.5880155094700114 111:1 194:1 200:1 
-0.8706159844946377 76:1 89:1 224:1 
-1 53:1 87:1 194:1 200:1 
-1 75:1 83:1 
-0.4480505028769705 48:1 49:1 53:1 77:1 87:1 192:1 
-1 73:1 193:1 
-1 23:1 85:1 95:1 200:1 
-1 47:1 49:1 81:1 189:1 
-1 44:1 220:1 233:1 
-1 53:1 123:1 194:1 257:1 
-0.8126519916604446 144:1 200:1 221:1 241:1 248:1 
-0.3260358527616285 148:1 164:1 240:1 
-1 192:1 221:1 
-1 87:1 191:1 193:1 
-1 3:1 84:1 90:1 111:1 115:1 191:1 
-0.7844966785326487 87:1 251:1 257:1 
-1 23:1 87:1 
-1 29:1 115:1 127:1 149:1 
-1 21:1 191:1 220:1 
-0.1195333460942555 3:1 76:1 83:1 
-1 53:1 59:1 87:1 89:1 90:1 93:1 123:1 193:1 
-0.1375877481806132 156:1 245:1 
-0.9662761266895973 53:1 78:1 87:1 90:1 193:1 
-1 49:1 53:1 83:1 87:1 116:1 220:1 257:1 
-1 192:1 233:1 
-0.3446465465032312 73:1 160:1 161:1 166:1 
-1 48:1 193:1 
-1 85:1 87:1 
-1 123:1 194:1 
-0.02695587321478423 47:1 73:1 193:1 
-0.1267512789714893 49:1 146:1 226:1 
-1 80:1 193:1 194:1 
-1 248:1 251:1 257:1 
-0.06184403700221731 76:1 80:1 87:1 
-1 73:1 90:1 122:1 221:1 
-1 49:1 194:1 257:1 
-0.9611518685020346 242:1 251:1 257:1 260:1 
-0.4781636321400311 22:1 41:1 53:1 70:1 83:1 192:1 
-0.6210497844306139 73:1 206:1 257:1 
-0.7783912611201445 49:1 77:1 191:1 242:1 
-0.9720296089957222 49:1 53:1 87:1 110:1 248:1 
-0.01359145209413695 130:1 193:1 194:1 251:1 
-0.8360770467771319 77:1 83:1 132:1 152:1 
-1 53:1 87:1 90:1 116:1 117:1 127:1 251:1 
-0.9799966937003686 49:1 84:1 157:1 187:1 194:1 
-0.2848424154544935 32:1 53:1 87:1 90:1 200:1 
-1 7:1 49:1 193:1 200:1 
-0.4795609714432752 83:1 87:1 193:1 
-1 194:1 233:1 
-0.1059340069059277 49:1 53:1 62:1 193:1 
-0.4053282304178185 189:1 193:1 200:1 248:1 
-0.900130780397689 87:1 99:1 107:1 
-1 7:1 214:1 217:1 228:1 
-0.1626344032724897 83:1 123:1 200:1 
-0.7511820802982158 44:1 84:1 
-0.1124096668802654 80:1 127:1 140:1 144:1 
-1 49:1 53:1 87:1 194:1 
-0.6838011384240865 48:1 87:1 95:1 
-0.04045571820328781 82:1 108:1 165:1 
-0.4087368659920024 87:1 89:1 90:1 
-0.9710382029470894 87:1 91:1 93:1 111:1 242:1 
-1 127:1 219:1 
-0.9617076646522544 49:1 87:1 95:1 191:1 192:1 
-1 87:1 123:1 194:1 
-0.3325501798303708 8:1 77:1 87:1 117:1 193:1 257:1 
-0.02108439161727927 3:1 116:1 124:1 
-1 48:1 49:1 87:1 90:1 96:1 192:1 
-0.8605077743387477 47:1 108:1 123:1 
-1 80:1 81:1 112:1 122:1 204:1 
-1 115:1 192:1 
-0.3969682662389272 187:1 236:1 
-1 87:1 134:1 193:1 251:1 257:1 
-1 83:1 251:1 
-0.1165724293939567 14:1 193:1 
-1 55:1 76:1 164:1 
-1 115:1 194:1 248:1 257:1 
-1 49:1 87:1 117:1 200:1 245:1 
-0.9087982766248736 115:1 138:1 
-0.3544019523825971 49:1 50:1 201:1 
-0.3676411624060457 73:1 79:1 81:1 239:1 
-0.07324574674940099 25:1 53:1 
-0.5347848861495902 22:1 49:1 111:1 
-1 39:1 
-0.2584357921658187 116:1 148:1 
-0.3592965029910392 73:1 87:1 123:1 
-1 148:1 150:1 221:1 233:1 
-1 33:1 89:1 
-1 44:1 90:1 192:1 
-1 49:1 84:1 90:1 189:1 193:1 
-1 51:1 84:1 165:1 200:1 
-1 79:1 80:1 111:1 248:1 
-1 44:1 148:1 156:1 
-0.02716944174046342 108:1 116:1 156:1 162:1 
-0.03058531863743033 80:1 106:1 115:1 200:1 
-0.271668075151307 87:1 124:1 194:1 232:1 
-0.08948717530601738 53:1 83:1 87:1 89:1 94:1 200:1 
-1 84:1 200:1 252:1 
-1 23:1 49:1 189:1 
-0.9183922098291589 37:1 43:1 193:1 194:1 261:1 
-0.2748451071131098 81:1 189:1 193:1 200:1 
-0.8248743173771151 49:1 71:1 
-0.2998534680996143 77:1 140:1 221:1 
-1 116:1 148:1 150:1 
-0.6539378674916734 24:1 53:1 109:1 189:1 
-1 75:1 116:1 194:1 
-0.4852867601738394 24:1 80:1 193:1 253:1 
-0.04156925463191268 47:1 87:1 124:1 
-0.07162937708400481 46:1 157:1 160:1 246:1 
-0.8662416179010666 151:1 194:1 
-1 185:1 194:1 
-1 47:1 221:1 
-1 53:1 87:1 98:1 124:1 194:1 
-0.3261684859629268 32:1 194:1 200:1 
-0.4950569053556346 4:1 95:1 196:1 
-1 49:1 105:1 
-0.1715608959130125 91:1 95:1 233:1 248:1 
-1 23:1 87:1 193:1 194:1 200:1 244:1 247:1 
-1 115:1 189:1 194:1 
-0.6847630811698766 122:1 144:1 
-0.8634963987836619 75:1 109:1 115:1 197:1 
-0.0762403711177726 23:1 115:1 251:1 
-0.1542792477257323 49:1 87:1 140:1 
-1 87:1 127:1 221:1 
-1 23:1 87:1 189:1 221:1 
-1 29:1 77:1 87:1 
-0.9794960987124482 53:1 130:1 191:1 194:1 
-0.4844778603911972 185:1 186:1 233:1 
-1 80:1 84:1 
-0.6713352925061972 125:1 251:1 
-1 22:1 141:1 187:1 
-1 48:1 53:1 192:1 
-0.01282939641061693 148:1 149:1 159:1 
-0.03617897949500494 73:1 78:1 87:1 91:1 
-0.6840067214065082 19:1 122:1 140:1 248:1 
-0.6574308767749906 83:1 84:1 122:1 254:1 
-0.4824740552511261 7:1 83:1 
-1 72:1 117:1 123:1 251:1 
-1 38:1 187:1 
-1 200:1 220:1 
-1 123:1 149:1 221:1 
-1 90:1 95:1 189:1 
-0.3068326089753308 7:1 55:1 89:1 248:1 
-0.08973300530186651 73:1 156:1 
-1 148:1 165:1 170:1 185:1 270:1 
-0.6289979489827479 87:1 245:1 
-0.4121809623958365 123:1 220:1 
-0.02799080714381721 84:1 248:1 252:1 
-1 3:1 24:1 231:1 
-0.3412315795546478 138:1 150:1 
-0.1462485641580833 87:1 97:1 193:1 
-0.9710647407832986 115:1 257:1 
-0.1193444425699376 116:1 233:1 259:1 
-0.2505939859670182 51:1 111:1 247:1 
-1 10:1 239:1 245:1 
-0.2581922791260887 7:1 186:1 255:1 
-0.1436661674996803 48:1 51:1 53:1 
-0.1532397576662016 7:1 123:1 189:1 
-1 115:1 116:1 221:1 240:1 
-0.9323941466036416 53:1 87:1 115:1 117:1 
-1 165:1 200:1 
-0.854733220065788 44:1 51:1 189:1 
-1 115:1 251:1 257:1 
-1 39:1 193:1 
-0.2127175170661151 72:1 87:1 98:1 117:1 193:1 200:1 
-1 85:1 111:1 115:1 189:1 214:1 
-1 27:1 
-0.5780905256250056 69:1 233:1 
-0.08390085955451654 81:1 233:1 
-0.8960208964242582 81:1 115:1 189:1 
-0.02397823052481359 44:1 124:1 152:1 219:1 
-0.7692755857721072 87:1 191:1 193:1 
-0.2620404668704412 105:1 138:1 
-1 87:1 194:1 201:1 257:1 
-1 85:1 259:1 
-1 111:1 116:1 257:1 
-1 85:1 87:1 106:1 138:1 197:1 246:1 247:1 
-0.4980209821834223 193:1 263:1 
-1 44:1 73:1 193:1 194:1 200:1 244:1 
-0.5398582750625054 116:1 192:1 
-1 48:1 49:1 53:1 122:1 206:1 
-0.7750413393163547 49:1 53:1 87:1 189:1 242:1 
-0.01611971708251714 87:1 150:1 
-1 75:1 87:1 99:1 257:1 
-1 81:1 189:1 245:1 
-0.4414981050570885 81:1 148:1 149:1 200:1 
-1 23:1 87:1 
-0.04384783570393428 51:1 115:1 116:1 233:1 
-0.03397705883018618 49:1 108:1 242:1 257:1 
-0.2573634244414756 4:1 160:1 193:1 245:1 
-1 49:1 53:1 87:1 149:1 194:1 200:1 
-1 83:1 115:1 251:1 257:1 
-1 90:1 116:1 
-1 53:1 87:1 192:1 200:1 
-0.9589039474921953 115:1 232:1 255:1 
-1 53:1 77:1 189:1 
-0.6016133601731143 69:1 248:1 
-0.0296017379379754 93:1 144:1 197:1 
-1 75:1 193:1 
-1 164:1 194:1 
-1 49:1 77:1 
-1 116:1 123:1 193:1 
-1 49:1 87:1 192:1 194:1 248:1 
-1 83:1 112:1 189:1 
-1 84:1 87:1 191:1 
-0.1161176307037916 95:1 201:1 252:1 
-1 233:1 248:1 251:1 
-0.3313601694624378 87:1 246:1 
-1 39:1 
-1 73:1 80:1 156:1 160:1 
-0.0256449416895446 79:1 116:1 240:1 
-1 73:1 115:1 
-1 123:1 248:1 
-0.03791137615022309 108:1 245:1 257:1 
-0.8311060631929048 80:1 87:1 117:1 193:1 257:1 
-1 75:1 90:1 194:1 
-0.1651910738874446 51:1 123:1 160:1 
-0.0346949002286829 115:1 195:1 201:1 
-1 87:1 194:1 200:1 
-0.1571310281324226 189:1 221:1 245:1 
-1 87:1 193:1 251:1 257:1 
-1 122:1 227:1 
-1 83:1 152:1 189:1 
-0.6960215821399285 3:1 47:1 189:1 194:1 
-0.2050548458200752 150:1 152:1 248:1 257:1 
-1 73:1 248:1 
-0.1106403949150026 79:1 201:1 254:1 
-0.8170569478009023 115:1 194:1 233:1 
-0.03045411205123558 193:1 197:1 245:1 
-1 49:1 77:1 
-1 80:1 95:1 189:1 
-0.7089559790884026 55:1 59:1 87:1 
-1 257:1 259:1 
-1 93:1 192:1 
-1 49:1 219:1 
-1 29:1 32:1 77:1 78:1 
-1 29:1 53:1 84:1 193:1 195:1 
-1 49:1 90:1 97:1 
-1 189:1 221:1 
-0.9289242587922882 81:1 204:1 
-1 251:1 252:1 257:1 
-1 48:1 58:1 
-1 23:1 49:1 87:1 193:1 200:1 
-1 87:1 90:1 95:1 98:1 233:1 
-1 62:1 107:1 
-1 72:1 73:1 
-1 49:1 85:1 
-1 100:1 105:1 116:1 
-0.1562633135093914 7:1 123:1 124:1 248:1 
-1 116:1 122:1 123:1 124:1 
-1 233:1 251:1 
-1 71:1 257:1 259:1 
-0.08379434507189965 24:1 48:1 53:1 87:1 148:1 
-0.08498962083272932 73:1 108:1 193:1 
-1 166:1 185:1 
-0.5649536518275201 24:1 49:1 53:1 87:1 
-0.8252254127752972 44:1 83:1 
-0.6672939601326465 49:1 124:1 194:1 228:1 233:1 
-0.7816012468666236 13:1 82:1 117:1 138:1 
-1 115:1 123:1 242:1 
-1 49:1 84:1 87:1 261:1 
-0.7335701745074127 49:1 197:1 219:1 
-1 24:1 82:1 116:1 
-0.9096009208068673 4:1 186:1 193:1 214:1 251:1 
-1 49:1 73:1 77:1 111:1 
-0.07227234314501711 49:1 193:1 221:1 
-1 115:1 189:1 194:1 
-1 111:1 117:1 
-0.9692278362326291 115:1 193:1 233:1 
-1 49:1 87:1 245:1 
-1 71:1 72:1 246:1 
-0.2675246552803978 49:1 53:1 122:1 
-0.7410179416556655 49:1 140:1 221:1 
-0.6943952841630747 85:1 94:1 
-0.2156050382647248 77:1 193:1 
-0.4868148041225612 78:1 252:1 
-1 235:1 240:1 245:1 
-0.5470222840285647 87:1 187:1 
-0.1576971994331528 194:1 221:1 
-0.8920334615300052 85:1 115:1 
-0.1775614807603199 48:1 49:1 53:1 87:1 89:1 90:1 155:1 
-0.9586615348915111 49:1 257:1 
-1 73:1 79:1 186:1 245:1 
-1 155:1 220:1 
-0.8512120404170921 184:1 185:1 
-0.2772347282195742 156:1 200:1 246:1 
-0.7914577582718545 117:1 233:1 
-1 73:1 221:1 
-0.7193395717944135 252:1 254:1 
-1 193:1 200:1 251:1 257:1 
-1 93:1 97:1 116:1 122:1 193:1 200:1 
-0.7478803949873858 98:1 146:1 
-0.8641140666564917 111:1 193:1 
-1 23:1 117:1 
-1 23:1 248:1 
-1 49:1 87:1 220:1 
-1 185:1 221:1 
-1 90:1 233:1 
-0.7795906063727244 87:1 220:1 
-0.7828555439296253 81:1 252:1 
-0.5594433386867501 124:1 194:1 
-1 80:1 115:1 
-1 95:1 193:1 
-0.4680312441108823 23:1 53:1 192:1 
-1 53:1 87:1 116:1 127:1 187:1 194:1 200:1 
-1 84:1 221:1 
-0.1861710629212581 53:1 245:1 
-0.2543277309424763 140:1 150:1 194:1 
-1 233:1 251:1 
-1 261:1 
-1 192:1 193:1 
-1 198:1 
-1 192:1 193:1 
-0.4054070710291142 53:1 87:1 193:1 221:1 
-0.2142036582311393 115:1 251:1 252:1 
-0.8808940849884819 115:1 124:1 248:1 
-0.2343110463598936 82:1 144:1 221:1 
-1 146:1 189:1 
-0.08206257060496737 23:1 87:1 245:1 
-1 49:1 53:1 87:1 115:1 127:1 193:1 
-0.885845644917857 251:1 252:1 
-1 23:1 84:1 
-1 39:1 111:1 
-1 227:1 
-1 84:1 189:1 
-0.785006816117062 95:1 116:1 
-1 85:1 95:1 
-1 73:1 194:1 
-0.7754001687847532 123:1 194:1 
-0.06681182503934965 53:1 122:1 
-1 87:1 189:1 257:1 
-0.7248822455066638 112:1 138:1 
-1 115:1 123:1 
-0.6987283724240128 3:1 186:1 228:1 
-0.6066794267958581 110:1 115:1 252:1 
-1 5:1 49:1 96:1 124:1 146:1 
-1 23:1 194:1 
-1 144:1 152:1 192:1 
-0.9108751164833933 108:1 193:1 194:1 201:1 
-1 193:1 247:1 
-0.8138879841550052 53:1 80:1 87:1 147:1 195:1 
-0.2696157685619134 87:1 116:1 192:1 
-1 194:1 251:1 
-0.5614263284514347 63:1 90:1 
-0.1293468410834516 7:1 47:1 83:1 200:1 
-1 87:1 194:1 251:1 
-0.04847777249265701 48:1 53:1 87:1 116:1 192:1 193:1 
-0.2857276146206243 116:1 122:1 
-0.307487567866643 73:1 124:1 194:1 270:1 
-1 73:1 116:1 
-1 84:1 193:1 
-1 192:1 257:1 
-0.4576965364016968 78:1 189:1 
-1 53:1 193:1 194:1 
-0.3347927275725546 49:1 123:1 127:1 164:1 193:1 
-0.8608123487963668 130:1 193:1 194:1 257:1 
-0.4242337042682208 38:1 221:1 
-0.838966318583981 103:1 129:1 193:1 
-0.04015816029081998 49:1 53:1 87:1 251:1 
-1 78:1 90:1 
-1 124:1 127:1 193:1 251:1 
-0.967899650319383 49:1 87:1 200:1 248:1 
-1 221:1 251:1 
-1 7:1 124:1 
-1 189:1 194:1 
-1 242:1 257:1 
-1 53:1 87:1 90:1 97:1 
-0.7683652205029048 117:1 122:1 193:1 
-1 48:1 257:1 
-0.1278935852813615 23:1 84:1 98:1 248:1 
-0.02579733802329592 124:1 197:1 221:1 
-1 9:1 189:1 
-1 42:1 156:1 233:1 
-0.03734646179537868 87:1 111:1 
-1 6:1 140:1 150:1 193:1 257:1 
-1 105:1 247:1 248:1 253:1 
-0.289218507026891 69:1 115:1 148:1 
-0.1339890968872414 4:1 248:1 
-1 47:1 189:1 
-1 84:1 192:1 248:1 251:1 
-1 53:1 87:1 193:1 257:1 
-1 90:1 193:1 
-1 148:1 220:1 248:1 257:1 
-1 49:1 53:1 87:1 155:1 193:1 241:1 
-0.09748538728281478 24:1 87:1 150:1 
-0.3106966479737744 51:1 59:1 87:1 191:1 
-0.3329180043573253 195:1 197:1 
-1 48:1 58:1 200:1 263:1 
-0.1102009058251712 79:1 148:1 163:1 
-1 87:1 115:1 194:1 
-0.07745276974624993 122:1 189:1 193:1 
-0.4588601479994709 47:1 144:1 
-0.07275721945605579 49:1 87:1 117:1 122:1 
-1 111:1 148:1 189:1 
-1 23:1 193:1 
-1 51:1 221:1 257:1 
-0.562294421477713 87:1 116:1 149:1 192:1 
-1 44:1 72:1 144:1 201:1 
-0.6588392352609299 83:1 84:1 117:1 123:1 124:1 252:1 
-1 248:1 257:1 
-1 73:1 138:1 
-0.9493313553794078 79:1 244:1 245:1 
-0.171640224905988 49:1 53:1 87:1 257:1 
-0.3869232579185579 158:1 164:1 
-1 73:1 193:1 257:1 
-0.6406446182766692 53:1 116:1 122:1 
-0.02448619437203133 4:1 106:1 242:1 
-1 111:1 245:1 
-1 83:1 87:1 127:1 192:1 
-1 49:1 87:1 122:1 257:1 
-1 123:1 165:1 
-1 48:1 185:1 
-0.4400523319733595 23:1 49:1 80:1 194:1 
-0.8052608594828971 49:1 53:1 87:1 90:1 140:1 
-0.8216048900492717 58:1 130:1 189:1 
-1 73:1 251:1 
-1 29:1 49:1 
-0.8985998782034987 58:1 113:1 
-0.7555194161061031 95:1 193:1 
-1 80:1 186:1 
-1 49:1 55:1 75:1 
-1 75:1 115:1 
-1 95:1 192:1 
-1 193:1 194:1 
-0.07797842493314408 49:1 116:1 
-0.2794110446599754 95:1 
-1 150:1 
-0.02495048490764662 83:1 188:1 
-0.03933799099777265 115:1 123:1 189:1 
-0.4927934300215364 75:1 200:1 228:1 242:1 
-1 90:1 221:1 
-1 186:1 194:1 
-1 82:1 193:1 194:1 
-1 53:1 87:1 90:1 192:1 
-1 49:1 150:1 240:1 244:1 
-1 241:1 244:1 257:1 
-0.03200010979183593 87:1 89:1 90:1 104:1 116:1 
-0.8106265581189309 79:1 81:1 123:1 
-0.7810834253335067 105:1 
-0.2743835816044068 150:1 
-1 73:1 95:1 
-0.7123309453253519 84:1 189:1 
-1 49:1 84:1 
-1 84:1 221:1 
-1 9:1 194:1 
-0.05732952312924387 228:1 257:1 
-0.3671834434480112 115:1 245:1 
-1 90:1 146:1 
-1 14:1 
-1 6:1 148:1 
-0.4339314434843075 90:1 93:1 116:1 
-0.5737653239318914 106:1 220:1 248:1 
-0.9391337336588819 191:1 194:1 
-0.2073900005733024 115:1 134:1 228:1 
-1 44:1 47:1 
-0.6802591349845105 78:1 200:1 
-1 111:1 248:1 
-0.06375311684249206 112:1 122:1 144:1 240:1 
-1 84:1 115:1 200:1 
-1 84:1 248:1 251:1 257:1 259:1 
-0.6992021000176272 53:1 87:1 155:1 
-1 193:1 201:1 
-0.52409580510211 81:1 115:1 122:1 
-1 5:1 6:1 9:1 22:1 189:1 
-0.6640834716638037 189:1 194:1 
-1 248:1 251:1 
-1 152:1 194:1 204:1 
-1 194:1 251:1 
-1 24:1 194:1 
-1 64:1 270:1 
-0.9181644703322442 49:1 75:1 
-1 189:1 200:1 
-0.9001931431427885 252:1 257:1 
-0.1835651788221188 58:1 73:1 189:1 
-0.3638972400313523 87:1 115:1 124:1 148:1 152:1 
-0.02228541501169572 115:1 116:1 221:1 242:1 
-1 29:1 
-1 259:1 
-1 117:1 257:1 
-0.8901696901694269 49:1 117:1 193:1 194:1 
-0.5287015778507507 115:1 140:1 155:1 208:1 
-0.08681287474717096 117:1 156:1 189:1 
-1 75:1 82:1 
-1 53:1 87:1 90:1 103:1 
-1 80:1 200:1 
-0.708039995208689 248:1 257:1 
-1 115:1 192:1 228:1 233:1 
-1 39:1 
-1 73:1 194:1 
-1 49:1 58:1 87:1 
-0.1520676459775506 53:1 87:1 93:1 98:1 
-1 103:1 115:1 132:1 
-1 87:1 90:1 97:1 
-0.07020053692049288 89:1 90:1 200:1 257:1 
-1 204:1 
-0.4264159583921728 193:1 242:1 
-1 117:1 194:1 221:1 
-1 200:1 204:1 
-0.8983055189831053 48:1 59:1 73:1 115:1 241:1 
-1 53:1 87:1 93:1 193:1 
-1 131:1 144:1 227:1 
-1 115:1 123:1 186:1 235:1 251:1 
-1 192:1 
-0.08179249689804556 64:1 
-1 192:1 
-0.06866413123638439 115:1 122:1 189:1 
-0.5112128790451249 91:1 192:1 193:1 194:1 
-0.9815531473698355 53:1 87:1 130:1 193:1 245:1 
-1 53:1 87:1 89:1 105:1 
-0.1058814834385864 49:1 72:1 87:1 98:1 101:1 106:1 
-0.05138687423390245 93:1 260:1 
-0.3695433049842811 193:1 194:1 
-0.5588233434356777 44:1 112:1 158:1 186:1 
-0.7742337402629935 47:1 79:1 194:1 214:1 
-1 186:1 193:1 
-0.949506204082997 217:1 
-0.1011382426283347 82:1 
-0.4801689559455403 112:1 194:1 
-0.6111910255616284 23:1 48:1 
-0.8542420419202759 122:1 123:1 148:1 252:1 
-0.2132234027913025 87:1 124:1 257:1 
-1 87:1 184:1 185:1 245:1 
-1 29:1 
-1 87:1 193:1 194:1 200:1 
-1 38:1 49:1 53:1 87:1 193:1 
-0.7099939350906482 9:1 
-0.7274321605072185 75:1 115:1 
-0.05879173455872486 73:1 245:1 
-0.5735840416078272 62:1 193:1 
-0.5256500851190788 251:1 252:1 257:1 
-1 76:1 
-0.7387508768766633 81:1 122:1 235:1 
-1 48:1 200:1 
-1 59:1 73:1 221:1 248:1 
-0.6902332430051327 47:1 111:1 138:1 
-0.859405985834107 49:1 134:1 
-1 49:1 90:1 116:1 193:1 194:1 246:1 
-0.940613380062335 214:1 219:1 
-0.5071575891317264 53:1 77:1 
-0.6044425307718717 187:1 
-1 23:1 
-1 53:1 192:1 257:1 
-1 200:1 233:1 251:1 257:1 
-0.6820819068464119 53:1 82:1 97:1 98:1 
-0.6459433749122241 156:1 
-0.1158988879916215 192:1 
-0.7683231912216124 53:1 192:1 200:1 
-0.3597879649232841 246:1 
-1 192:1 200:1 
-1 53:1 83:1 87:1 116:1 193:1 
-0.2097349243249249 73:1 115:1 241:1 
-0.8233429310888005 7:1 81:1 
-0.840911792357707 252:1 255:1 
-1 165:1 185:1 257:1 
-0.9601986664015489 73:1 194:1 257:1 
-1 175:1 185:1 
-1 189:1 221:1 
-1 160:1 221:1 
-1 84:1 245:1 
-0.142296950254496 116:1 257:1 
-1 23:1 
-1 14:1 
-1 49:1 90:1 193:1 194:1 
-0.1006998612735156 122:1 160:1 235:1 
-1 185:1 214:1 
-0.8786878038992502 251:1 257:1 259:1 
-0.7864645541727638 123:1 221:1 
-1 228:1 248:1 257:1 
-0.1302862979156913 81:1 115:1 184:1 
-0.5047498798702156 83:1 115:1 123:1 235:1 
-0.6552753606383228 23:1 
-1 77:1 
-0.6559789995354786 49:1 87:1 117:1 
-0.9592623530498691 251:1 257:1 
-0.01885043155453351 53:1 87:1 130:1 144:1 
-1 261:1 
-0.9196020929379046 189:1 206:1 
-0.441482558318556 123:1 200:1 
-1 85:1 
-1 251:1 257:1 
-1 48:1 144:1 261:1 
-1 233:1 261:1 
-1 251:1 257:1 
-0.2307226187728346 90:1 148:1 155:1 
-1 251:1 257:1 
-1 23:1 53:1 90:1 193:1 
-1 252:1 257:1 
-1 165:1 185:1 
-0.6999418329375771 64:1 115:1 
-1 70:1 73:1 189:1 251:1 
-0.1723260460786422 81:1 242:1 
-0.8834116829917859 122:1 123:1 
-0.570040218312444 252:1 257:1 
-0.8020943235039959 122:1 194:1 
-0.8254285730402151 111:1 232:1 
-1 116:1 117:1 194:1 251:1 257:1 261:1 
-0.2348144531541532 148:1 222:1 224:1 
-1 77:1 
-0.121756138381402 52:1 59:1 138:1 160:1 257:1 
-0.7595612953726942 193:1 194:1 
-1 7:1 257:1 
-1 107:1 150:1 233:1 
-0.05260212159772774 111:1 251:1 
-1 51:1 251:1 
-0.1830499607393618 7:1 189:1 
-1 93:1 
-1 84:1 257:1 
-1 148:1 257:1 
-1 47:1 49:1 53:1 80:1 87:1 116:1 192:1 
-1 87:1 95:1 
-1 72:1 
-1 49:1 75:1 77:1 
-1 248:1 257:1 
-1 72:1 
-1 49:1 87:1 89:1 194:1 
-0.2622631833512851 72:1 73:1 82:1 
-0.1695206346828771 51:1 
-1 251:1 257:1 
-1 72:1 
-0.8505744302898042 24:1 
-1 83:1 84:1 
-1 225:1 261:1 
-0.1310471380415167 53:1 251:1 
-1 72:1 251:1 
-1 87:1 251:1 257:1 
-0.9655653158021364 193:1 257:1 
-1 240:1 
-0.4652151138504098 152:1 
-1 80:1 123:1 
-0.04746996506540539 250:1 251:1 257:1 
-0.6752606352457187 47:1 83:1 115:1 127:1 193:1 194:1 
-1 33:1 193:1 
-1 192:1 
-1 73:1 193:1 194:1 
-1 150:1 
-0.2096905149809364 87:1 192:1 
-0.07877179667633277 47:1 52:1 80:1 
-1 233:1 257:1 
-0.4545567028029815 214:1 221:1 
-1 251:1 252:1 257:1 
-1 58:1 123:1 221:1 
-1 95:1 
-1 24:1 49:1 
-1 192:1 233:1 
-1 87:1 89:1 90:1 251:1 257:1 
-1 51:1 
-0.794682731344761 87:1 95:1 
-1 127:1 257:1 
-0.6680879263375806 7:1 115:1 
-0.9612475762494235 81:1 244:1 
-1 49:1 87:1 233:1 248:1 
-1 122:1 233:1 
-0.06731513717450296 138:1 
-0.1564713635842062 164:1 
-0.0490364326995235 115:1 122:1 
-0.6633397288306997 244:1 
-0.1979515764330557 73:1 115:1 123:1 
-0.4537065661691474 160:1 
-1 48:1 200:1 
-1 192:1 
-0.6963218672716691 43:1 244:1 251:1 257:1 
-0.03382118844133065 62:1 191:1 245:1 
-0.9142362832945123 244:1 245:1 
-1 95:1 122:1 
-1 23:1 29:1 106:1 122:1 
-1 193:1 194:1 
-0.4480029502339978 156:1 160:1 251:1 
-1 24:1 
-0.295947048378767 193:1 221:1 
-1 251:1 257:1 
-0.1783932429399081 54:1 117:1 191:1 193:1 
-1 250:1 251:1 257:1 
-1 194:1 257:1 
-1 78:1 186:1 
-1 244:1 257:1 
-1 103:1 
-0.7264459481441595 73:1 82:1 83:1 194:1 257:1 
-1 44:1 122:1 194:1 
-1 185:1 
-1 220:1 
-0.4944431474776215 219:1 
-1 193:1 221:1 
-1 138:1 
-1 185:1 
-1 193:1 221:1 
-1 123:1 221:1 
-0.84550964138462 253:1 
-1 219:1 
-1 59:1 73:1 77:1 87:1 189:1 200:1 257:1 
-1 71:1 
-1 7:1 115:1 189:1 
-1 73:1 194:1 
-0.4039510200777127 201:1 
-1 185:1 
-1 244:1 
-1 6:1 23:1 
-1 200:1 221:1 
-1 47:1 
-0.8567847813789554 122:1 140:1 207:1 242:1 
-1 194:1 244:1 251:1 
-1 201:1 
-1 107:1 
-1 58:1 80:1 251:1 
-0.01097446307109684 87:1 90:1 115:1 
-1 194:1 221:1 
-1 185:1 
-1 115:1 261:1 
-1 239:1 
-1 105:1 
-1 115:1 257:1 
-1 47:1 
-1 165:1 
-1 244:1 
