svm_type c_svc
kernel_type rbf
gamma 0.0037037
nr_class 2
total_sv 1343
rho -0.40004
label 0 1
nr_sv 718 625
SV
1 36:1 111:1 192:1 193:1 200:1 233:1 257:1 
1 53:1 84:1 87:1 191:1 220:1 221:1 251:1 252:1 257:1 
1 49:1 50:1 78:1 84:1 233:1 248:1 
1 44:1 112:1 144:1 193:1 220:1 
1 106:1 146:1 226:1 
1 84:1 87:1 185:1 200:1 
1 23:1 55:1 76:1 84:1 87:1 103:1 106:1 115:1 119:1 189:1 214:1 
0.02655999341569967 14:1 38:1 130:1 
1 48:1 53:1 80:1 87:1 116:1 257:1 
1 58:1 78:1 123:1 192:1 193:1 
1 29:1 71:1 142:1 257:1 260:1 
1 97:1 248:1 257:1 
1 115:1 117:1 123:1 194:1 251:1 
1 26:1 84:1 103:1 192:1 194:1 197:1 257:1 
1 19:1 42:1 49:1 55:1 80:1 87:1 116:1 127:1 191:1 
1 90:1 94:1 216:1 233:1 244:1 
0.5185191047546724 85:1 185:1 
1 7:1 111:1 112:1 116:1 117:1 123:1 
0.03844509141743606 189:1 193:1 236:1 
1 115:1 170:1 185:1 
1 49:1 75:1 193:1 
1 75:1 90:1 95:1 115:1 150:1 193:1 197:1 
1 23:1 70:1 87:1 109:1 127:1 130:1 142:1 144:1 
1 4:1 23:1 48:1 90:1 
1 156:1 184:1 185:1 200:1 
1 55:1 78:1 87:1 91:1 97:1 98:1 127:1 192:1 193:1 253:1 
1 87:1 117:1 194:1 248:1 257:1 
1 49:1 90:1 144:1 192:1 253:1 
0.481639916499436 116:1 132:1 192:1 194:1 
1 90:1 111:1 193:1 247:1 
1 49:1 193:1 194:1 200:1 232:1 248:1 
1 115:1 248:1 251:1 270:1 
1 115:1 164:1 194:1 257:1 
0.8060464285445466 243:1 244:1 257:1 
0.5091115581352996 78:1 82:1 87:1 192:1 200:1 
0.4353501426737135 85:1 98:1 228:1 247:1 
1 49:1 53:1 59:1 87:1 90:1 129:1 193:1 194:1 
1 93:1 189:1 257:1 
1 24:1 53:1 84:1 87:1 90:1 193:1 
1 53:1 68:1 133:1 192:1 194:1 248:1 
1 49:1 53:1 87:1 90:1 192:1 233:1 
1 185:1 244:1 
1 38:1 75:1 257:1 
1 87:1 116:1 193:1 251:1 257:1 
1 87:1 192:1 218:1 251:1 257:1 
0.08857790804866546 127:1 252:1 261:1 
1 94:1 191:1 218:1 
1 75:1 76:1 
1 194:1 201:1 
1 49:1 59:1 90:1 97:1 111:1 248:1 
1 82:1 122:1 189:1 240:1 251:1 257:1 
1 71:1 73:1 80:1 243:1 246:1 
1 24:1 87:1 112:1 116:1 127:1 218:1 221:1 251:1 257:1 259:1 
0.3497546272017342 48:1 87:1 95:1 251:1 
1 95:1 123:1 161:1 185:1 245:1 
1 80:1 189:1 194:1 
1 76:1 79:1 127:1 148:1 194:1 
1 89:1 115:1 117:1 123:1 193:1 
1 123:1 185:1 193:1 
1 53:1 194:1 200:1 240:1 251:1 
0.2479920278883339 23:1 117:1 235:1 248:1 
0.8551032446819147 6:1 14:1 90:1 111:1 246:1 
1 251:1 252:1 254:1 
1 23:1 87:1 189:1 193:1 
1 87:1 98:1 193:1 244:1 
1 7:1 23:1 115:1 247:1 
1 19:1 83:1 111:1 193:1 
1 49:1 90:1 116:1 117:1 149:1 248:1 
0.3570119475833801 66:1 111:1 132:1 188:1 
1 148:1 185:1 200:1 
1 76:1 80:1 84:1 200:1 
1 81:1 138:1 185:1 
1 89:1 90:1 151:1 
1 29:1 49:1 87:1 89:1 
1 23:1 30:1 75:1 90:1 122:1 194:1 
1 186:1 193:1 194:1 
1 75:1 89:1 90:1 
1 8:1 122:1 200:1 231:1 
1 144:1 187:1 215:1 
1 141:1 187:1 
1 80:1 135:1 194:1 
0.5728778167403309 53:1 98:1 233:1 248:1 
1 48:1 53:1 59:1 125:1 185:1 
1 98:1 115:1 214:1 
0.7425234250975811 29:1 76:1 
1 41:1 144:1 185:1 257:1 
1 3:1 46:1 48:1 58:1 156:1 160:1 270:1 
1 93:1 193:1 194:1 
1 124:1 193:1 233:1 257:1 
0.4894418508898181 7:1 42:1 117:1 123:1 130:1 
1 111:1 193:1 194:1 221:1 250:1 251:1 
0.2841402899080618 53:1 189:1 221:1 227:1 232:1 
0.5046618697661156 132:1 138:1 194:1 228:1 
0.01770265997367343 6:1 95:1 127:1 
1 53:1 84:1 87:1 90:1 193:1 200:1 251:1 257:1 
1 49:1 87:1 148:1 193:1 248:1 
0.4455253528746554 83:1 115:1 186:1 225:1 
1 48:1 78:1 115:1 130:1 
1 87:1 89:1 90:1 248:1 257:1 270:1 
0.7007826591766148 115:1 189:1 244:1 
0.4408084566309495 53:1 87:1 90:1 104:1 193:1 
1 44:1 73:1 194:1 
0.441963776684446 122:1 158:1 165:1 194:1 200:1 
0.8066765241654787 87:1 194:1 231:1 
1 47:1 53:1 87:1 122:1 194:1 248:1 
0.4839170672130029 3:1 115:1 116:1 148:1 240:1 
1 73:1 79:1 251:1 
0.9948639249432367 98:1 151:1 
0.374894127136935 117:1 166:1 185:1 194:1 
1 201:1 214:1 
1 192:1 194:1 233:1 
0.434277915451029 52:1 84:1 193:1 
1 122:1 148:1 192:1 248:1 
1 49:1 87:1 89:1 90:1 94:1 140:1 146:1 200:1 
1 76:1 194:1 
1 62:1 107:1 
1 73:1 242:1 248:1 257:1 
0.235368354697625 157:1 162:1 193:1 200:1 
1 47:1 201:1 
0.7979748307083963 47:1 194:1 221:1 222:1 
1 58:1 76:1 219:1 
1 44:1 142:1 189:1 194:1 
1 116:1 124:1 143:1 189:1 224:1 
0.1205986089430734 114:1 195:1 
1 23:1 117:1 221:1 
1 148:1 251:1 257:1 259:1 
1 53:1 87:1 89:1 90:1 116:1 192:1 
1 84:1 115:1 200:1 219:1 
1 47:1 53:1 194:1 247:1 
1 48:1 87:1 95:1 117:1 124:1 191:1 231:1 
1 49:1 53:1 84:1 90:1 98:1 105:1 
1 124:1 193:1 248:1 257:1 
1 24:1 192:1 194:1 201:1 
1 187:1 242:1 244:1 
1 49:1 189:1 194:1 
1 78:1 87:1 150:1 189:1 
1 49:1 76:1 87:1 98:1 193:1 
1 90:1 151:1 220:1 
1 29:1 44:1 152:1 
1 164:1 194:1 251:1 
1 82:1 89:1 194:1 
0.1154472012447979 150:1 
1 89:1 186:1 194:1 
1 83:1 218:1 233:1 
0.4091097373993778 115:1 116:1 122:1 235:1 245:1 
0.138527495091173 49:1 87:1 192:1 193:1 200:1 
1 115:1 244:1 251:1 
1 73:1 79:1 85:1 115:1 148:1 233:1 
1 4:1 49:1 116:1 148:1 242:1 
1 73:1 83:1 200:1 
1 53:1 80:1 109:1 
1 123:1 124:1 221:1 233:1 242:1 
1 52:1 162:1 193:1 200:1 214:1 
1 53:1 89:1 90:1 189:1 221:1 
0.4385685224511786 4:1 185:1 
1 83:1 115:1 255:1 
1 188:1 193:1 194:1 
1 189:1 214:1 
1 47:1 162:1 214:1 
1 84:1 193:1 194:1 
1 49:1 80:1 83:1 
1 48:1 82:1 165:1 248:1 251:1 257:1 
1 53:1 90:1 94:1 193:1 
1 75:1 189:1 
0.3234606578384868 193:1 214:1 
0.1279082741358268 49:1 87:1 105:1 192:1 
1 201:1 257:1 
1 193:1 194:1 233:1 
0.1177885101092553 8:1 84:1 255:1 
0.2477694515980873 64:1 
1 84:1 87:1 115:1 122:1 138:1 187:1 193:1 194:1 233:1 
1 23:1 80:1 87:1 148:1 
1 148:1 185:1 200:1 
1 44:1 48:1 87:1 116:1 123:1 129:1 247:1 
1 248:1 252:1 257:1 270:1 
0.7650483341879453 49:1 53:1 87:1 89:1 90:1 
1 75:1 78:1 127:1 
1 24:1 87:1 244:1 246:1 
1 48:1 53:1 87:1 115:1 123:1 251:1 257:1 
1 78:1 189:1 231:1 
1 77:1 95:1 98:1 155:1 186:1 189:1 192:1 
1 123:1 193:1 214:1 
1 53:1 84:1 193:1 194:1 257:1 
1 149:1 151:1 251:1 261:1 
1 7:1 54:1 106:1 107:1 248:1 
1 53:1 75:1 77:1 87:1 116:1 195:1 200:1 
0.7729299336153272 68:1 87:1 129:1 248:1 
0.180155893728874 141:1 
1 53:1 193:1 214:1 
0.4873810272309492 124:1 187:1 194:1 200:1 
1 23:1 194:1 
1 185:1 251:1 257:1 
0.3697323563272398 255:1 257:1 
0.6432604586310273 73:1 125:1 187:1 193:1 
1 87:1 193:1 194:1 251:1 
0.3113325797500841 39:1 
0.389408109066438 73:1 78:1 84:1 
0.1648865215615005 7:1 115:1 214:1 
1 49:1 53:1 87:1 93:1 95:1 129:1 253:1 
1 53:1 75:1 153:1 251:1 
0.4131289029467632 90:1 95:1 220:1 
1 19:1 49:1 87:1 90:1 189:1 
0.8748690636381464 193:1 200:1 221:1 228:1 
1 117:1 247:1 248:1 257:1 259:1 
1 48:1 49:1 87:1 93:1 150:1 192:1 193:1 199:1 200:1 
1 23:1 83:1 84:1 87:1 95:1 111:1 194:1 
1 23:1 47:1 49:1 193:1 
1 43:1 76:1 90:1 153:1 
0.09613986431110805 4:1 10:1 79:1 
1 44:1 83:1 87:1 195:1 233:1 
1 23:1 90:1 225:1 244:1 
1 43:1 54:1 193:1 244:1 
1 130:1 185:1 257:1 
0.202678772001835 94:1 
1 87:1 90:1 123:1 127:1 132:1 192:1 244:1 
1 24:1 85:1 87:1 93:1 
1 7:1 78:1 83:1 123:1 251:1 257:1 
1 49:1 53:1 87:1 116:1 192:1 248:1 251:1 257:1 
1 83:1 127:1 200:1 
1 79:1 123:1 189:1 233:1 248:1 
1 53:1 87:1 94:1 95:1 122:1 
1 23:1 116:1 194:1 225:1 
0.1949415402848321 192:1 221:1 248:1 
1 23:1 111:1 
1 29:1 49:1 80:1 87:1 148:1 
1 73:1 194:1 221:1 
1 80:1 87:1 90:1 116:1 117:1 122:1 123:1 144:1 
1 75:1 95:1 
1 53:1 80:1 193:1 194:1 
1 23:1 90:1 189:1 195:1 
1 53:1 84:1 87:1 123:1 148:1 189:1 191:1 
0.7857435096423296 58:1 72:1 115:1 125:1 126:1 189:1 
1 87:1 132:1 192:1 193:1 194:1 248:1 
0.1686501061429909 79:1 113:1 255:1 
1 53:1 87:1 94:1 98:1 220:1 245:1 
1 23:1 47:1 
1 80:1 245:1 
1 187:1 194:1 219:1 
1 24:1 189:1 248:1 
0.8518086092130153 80:1 224:1 243:1 
1 77:1 80:1 87:1 130:1 
1 76:1 90:1 193:1 
1 49:1 50:1 53:1 59:1 79:1 84:1 87:1 116:1 248:1 
1 53:1 87:1 90:1 95:1 150:1 
0.2750259810037564 48:1 115:1 248:1 257:1 
1 23:1 87:1 130:1 253:1 
1 49:1 192:1 251:1 257:1 259:1 
1 84:1 87:1 90:1 248:1 259:1 
1 73:1 84:1 189:1 240:1 
1 49:1 53:1 87:1 90:1 93:1 193:1 
1 48:1 123:1 197:1 206:1 219:1 
1 75:1 87:1 241:1 248:1 
0.9766012344944985 59:1 73:1 81:1 148:1 
1 79:1 221:1 233:1 
0.9608486013850249 148:1 187:1 245:1 
1 47:1 75:1 79:1 
1 155:1 251:1 252:1 257:1 
1 49:1 87:1 193:1 200:1 248:1 
1 4:1 83:1 193:1 
0.9086249378660087 48:1 53:1 85:1 92:1 113:1 115:1 
1 75:1 85:1 194:1 251:1 
1 47:1 58:1 160:1 189:1 200:1 
0.9459819099619382 84:1 156:1 194:1 
0.5157188008852085 6:1 7:1 92:1 111:1 144:1 
1 48:1 53:1 87:1 93:1 128:1 193:1 245:1 247:1 
1 72:1 78:1 201:1 254:1 
1 53:1 98:1 123:1 251:1 257:1 
0.5431742724829091 4:1 49:1 87:1 90:1 194:1 226:1 
1 7:1 123:1 245:1 
1 164:1 221:1 251:1 257:1 
0.5169851031218042 75:1 87:1 90:1 144:1 
1 111:1 117:1 189:1 206:1 219:1 252:1 
1 55:1 82:1 115:1 150:1 
0.242267871066696 81:1 151:1 200:1 
0.4317957973035055 4:1 148:1 250:1 252:1 
1 23:1 48:1 53:1 152:1 191:1 241:1 257:1 
1 53:1 87:1 95:1 124:1 194:1 244:1 
1 4:1 49:1 53:1 75:1 77:1 87:1 
1 49:1 87:1 151:1 201:1 
1 29:1 53:1 80:1 87:1 90:1 105:1 123:1 
1 73:1 115:1 185:1 
1 48:1 53:1 73:1 76:1 87:1 90:1 95:1 117:1 
1 138:1 193:1 194:1 
1 75:1 90:1 105:1 193:1 
1 87:1 89:1 116:1 193:1 206:1 220:1 
1 49:1 87:1 115:1 116:1 185:1 
0.8170373662148075 79:1 123:1 124:1 248:1 
1 53:1 64:1 87:1 192:1 
1 83:1 87:1 90:1 95:1 193:1 246:1 
1 7:1 53:1 189:1 195:1 251:1 
1 75:1 111:1 115:1 116:1 117:1 193:1 
1 150:1 218:1 248:1 
1 49:1 87:1 200:1 222:1 244:1 257:1 
1 93:1 116:1 117:1 252:1 257:1 
1 23:1 90:1 91:1 109:1 123:1 
1 152:1 164:1 187:1 248:1 
1 49:1 53:1 82:1 87:1 248:1 257:1 
1 162:1 194:1 200:1 223:1 225:1 
0.8752086647695361 29:1 192:1 193:1 
1 53:1 73:1 87:1 95:1 251:1 
0.6976945549958025 6:1 84:1 191:1 194:1 199:1 234:1 
1 185:1 252:1 257:1 259:1 
0.6194769248956746 193:1 229:1 233:1 252:1 
1 110:1 146:1 
1 49:1 53:1 87:1 89:1 90:1 98:1 191:1 193:1 
0.3362908924551875 23:1 156:1 
1 140:1 187:1 193:1 257:1 
1 107:1 151:1 
1 23:1 87:1 106:1 146:1 159:1 
1 73:1 193:1 222:1 233:1 251:1 257:1 
1 77:1 90:1 247:1 
0.2658771119661142 97:1 192:1 200:1 
1 53:1 87:1 187:1 193:1 194:1 221:1 
1 130:1 185:1 
1 49:1 53:1 78:1 164:1 194:1 250:1 251:1 
0.1014198406973818 79:1 164:1 200:1 246:1 
1 79:1 86:1 123:1 200:1 
1 49:1 150:1 193:1 239:1 257:1 
1 4:1 111:1 251:1 
1 23:1 84:1 
1 29:1 87:1 105:1 152:1 
1 75:1 90:1 194:1 
1 49:1 87:1 95:1 122:1 123:1 127:1 191:1 
1 193:1 199:1 257:1 
0.02617182078431152 52:1 55:1 127:1 200:1 232:1 
1 59:1 115:1 185:1 
1 84:1 117:1 189:1 194:1 257:1 
1 113:1 186:1 218:1 245:1 
1 7:1 116:1 122:1 193:1 195:1 
0.320337186677837 49:1 87:1 193:1 257:1 259:1 
1 49:1 78:1 150:1 
1 53:1 75:1 248:1 257:1 
1 83:1 193:1 257:1 
1 73:1 81:1 115:1 130:1 189:1 248:1 
0.007996508741319186 115:1 245:1 248:1 
1 3:1 59:1 87:1 98:1 127:1 
1 10:1 157:1 245:1 
1 49:1 87:1 115:1 117:1 123:1 138:1 193:1 247:1 
1 73:1 83:1 148:1 192:1 
0.3167558372392614 123:1 218:1 233:1 
1 111:1 219:1 244:1 257:1 
0.3227502865716461 115:1 123:1 185:1 
1 21:1 191:1 200:1 201:1 248:1 251:1 257:1 
1 4:1 7:1 155:1 189:1 
1 11:1 90:1 124:1 133:1 251:1 257:1 
0.6720587947221232 89:1 91:1 97:1 153:1 
0.4227730297832767 144:1 214:1 239:1 246:1 
1 49:1 53:1 87:1 150:1 
0.2603995970169158 44:1 77:1 149:1 
1 59:1 80:1 193:1 
1 7:1 24:1 43:1 115:1 156:1 
1 54:1 55:1 59:1 89:1 98:1 241:1 257:1 
1 73:1 160:1 241:1 
1 51:1 80:1 165:1 193:1 
1 58:1 87:1 97:1 111:1 120:1 200:1 248:1 
0.664391727680445 79:1 81:1 228:1 252:1 261:1 
1 4:1 148:1 193:1 194:1 246:1 
1 49:1 80:1 87:1 152:1 189:1 
0.06660042816773923 53:1 87:1 90:1 116:1 135:1 218:1 
1 53:1 55:1 87:1 90:1 150:1 
1 122:1 193:1 200:1 248:1 257:1 
0.9570692500053871 85:1 152:1 198:1 207:1 
1 64:1 72:1 83:1 98:1 
1 200:1 221:1 224:1 228:1 
0.7005212308860835 54:1 115:1 123:1 127:1 
1 23:1 189:1 192:1 200:1 
1 115:1 194:1 200:1 245:1 
1 23:1 49:1 87:1 193:1 
0.3300485640054741 116:1 117:1 192:1 197:1 247:1 
1 75:1 116:1 220:1 
1 78:1 189:1 194:1 
1 44:1 53:1 87:1 95:1 98:1 192:1 
1 44:1 51:1 87:1 146:1 150:1 189:1 
1 84:1 186:1 194:1 
1 116:1 117:1 189:1 193:1 194:1 
1 48:1 117:1 130:1 192:1 193:1 194:1 251:1 
1 87:1 117:1 123:1 193:1 200:1 201:1 
1 52:1 80:1 87:1 116:1 
1 77:1 194:1 245:1 
1 11:1 19:1 49:1 111:1 122:1 155:1 
1 138:1 189:1 221:1 
1 78:1 115:1 123:1 130:1 
1 49:1 90:1 95:1 111:1 133:1 194:1 200:1 
1 233:1 245:1 247:1 
0.712513731829739 59:1 215:1 
1 81:1 124:1 127:1 246:1 257:1 
0.306591192230837 80:1 149:1 194:1 
1 49:1 53:1 87:1 90:1 97:1 194:1 
1 214:1 221:1 
1 83:1 87:1 152:1 192:1 
1 29:1 53:1 87:1 89:1 90:1 193:1 
0.8754750990350427 110:1 148:1 194:1 
1 53:1 87:1 193:1 248:1 251:1 
1 49:1 53:1 84:1 87:1 146:1 191:1 248:1 251:1 257:1 
1 87:1 117:1 195:1 251:1 257:1 
1 91:1 148:1 193:1 200:1 214:1 251:1 
1 7:1 77:1 186:1 251:1 
0.9369587577970903 116:1 221:1 251:1 
1 98:1 150:1 193:1 199:1 225:1 
1 4:1 73:1 251:1 252:1 257:1 
1 49:1 87:1 200:1 215:1 
1 4:1 81:1 231:1 
1 80:1 224:1 252:1 
1 48:1 93:1 115:1 117:1 248:1 
1 53:1 78:1 87:1 108:1 233:1 248:1 
1 49:1 84:1 87:1 193:1 194:1 
1 127:1 189:1 200:1 
0.5223955447478191 72:1 115:1 201:1 206:1 
0.2910002242925606 7:1 248:1 252:1 263:1 
1 84:1 87:1 90:1 116:1 191:1 194:1 
1 87:1 97:1 191:1 215:1 
1 23:1 49:1 53:1 
1 87:1 90:1 111:1 112:1 153:1 194:1 
1 73:1 214:1 242:1 
0.1399645821563576 148:1 152:1 162:1 200:1 
0.2837360644112638 142:1 214:1 
1 49:1 53:1 87:1 90:1 246:1 251:1 
1 75:1 76:1 
1 53:1 77:1 83:1 248:1 
1 7:1 81:1 113:1 115:1 221:1 248:1 
1 186:1 200:1 244:1 
1 47:1 116:1 240:1 248:1 259:1 
0.05081888958929844 48:1 115:1 193:1 248:1 
1 24:1 47:1 49:1 142:1 189:1 
1 53:1 85:1 90:1 98:1 192:1 
1 7:1 115:1 130:1 144:1 
1 73:1 115:1 191:1 194:1 200:1 257:1 
1 73:1 185:1 
0.4915669712838528 186:1 193:1 248:1 
0.07608380915822843 80:1 87:1 193:1 200:1 
1 44:1 75:1 87:1 144:1 200:1 
0.481696433433829 55:1 73:1 161:1 194:1 248:1 
1 80:1 116:1 194:1 200:1 
1 115:1 214:1 218:1 
1 87:1 90:1 97:1 98:1 234:1 245:1 
1 49:1 75:1 87:1 90:1 97:1 122:1 248:1 
1 53:1 98:1 127:1 192:1 218:1 
1 47:1 193:1 221:1 
1 23:1 233:1 
1 48:1 90:1 95:1 116:1 127:1 195:1 220:1 248:1 
1 84:1 115:1 193:1 248:1 
1 44:1 53:1 194:1 251:1 
1 23:1 53:1 99:1 115:1 154:1 
1 48:1 53:1 59:1 87:1 148:1 189:1 200:1 
0.2835632537970971 49:1 53:1 87:1 90:1 107:1 
1 87:1 90:1 115:1 126:1 193:1 261:1 
1 48:1 73:1 75:1 81:1 87:1 91:1 117:1 248:1 
1 194:1 221:1 228:1 248:1 
1 23:1 77:1 90:1 189:1 
1 115:1 214:1 221:1 
1 48:1 49:1 192:1 194:1 248:1 
1 97:1 150:1 
1 47:1 53:1 75:1 106:1 200:1 245:1 
1 87:1 115:1 123:1 193:1 200:1 221:1 
1 115:1 130:1 185:1 
0.1197323502089366 87:1 91:1 93:1 194:1 251:1 
0.4567633529726138 53:1 87:1 89:1 116:1 123:1 
1 106:1 117:1 194:1 200:1 248:1 
1 53:1 73:1 193:1 194:1 218:1 221:1 248:1 251:1 257:1 259:1 
1 73:1 185:1 
1 51:1 53:1 59:1 84:1 87:1 92:1 192:1 
1 75:1 78:1 189:1 
1 80:1 84:1 123:1 157:1 189:1 192:1 
1 33:1 83:1 200:1 
0.7580220726334461 47:1 123:1 189:1 
1 81:1 115:1 122:1 123:1 126:1 144:1 235:1 239:1 
1 53:1 87:1 194:1 245:1 257:1 
1 23:1 76:1 87:1 218:1 
1 53:1 87:1 89:1 193:1 214:1 253:1 
1 53:1 87:1 127:1 194:1 248:1 
1 193:1 221:1 251:1 257:1 
0.520707126876755 2:1 49:1 148:1 149:1 244:1 
0.7445962228900826 72:1 117:1 124:1 130:1 221:1 
1 22:1 87:1 115:1 221:1 248:1 
1 122:1 150:1 
1 75:1 123:1 189:1 233:1 
1 14:1 152:1 193:1 197:1 
1 80:1 106:1 199:1 
0.3196255251116165 49:1 87:1 106:1 127:1 144:1 
1 49:1 53:1 87:1 98:1 194:1 257:1 
1 123:1 164:1 245:1 
0.6956207399847635 112:1 117:1 123:1 189:1 198:1 
1 49:1 53:1 75:1 82:1 87:1 
1 53:1 191:1 193:1 194:1 221:1 
1 53:1 87:1 144:1 151:1 192:1 
0.6235997957992242 7:1 122:1 160:1 194:1 
0.07080482826739548 115:1 185:1 193:1 
1 22:1 51:1 90:1 104:1 
1 146:1 
0.7306926948433253 77:1 142:1 
1 49:1 53:1 84:1 87:1 153:1 193:1 221:1 
0.03275672812888718 49:1 89:1 259:1 
1 192:1 194:1 200:1 248:1 
1 48:1 53:1 111:1 116:1 192:1 
1 7:1 73:1 194:1 200:1 
1 49:1 77:1 89:1 193:1 
1 7:1 24:1 123:1 193:1 
0.2208608924880758 49:1 53:1 87:1 89:1 90:1 
0.8803883804115873 85:1 115:1 144:1 228:1 242:1 
1 189:1 194:1 257:1 
1 7:1 83:1 123:1 242:1 
0.8749841994865826 75:1 233:1 
0.1357841225334765 49:1 52:1 53:1 87:1 189:1 
1 62:1 76:1 148:1 189:1 194:1 
1 53:1 55:1 87:1 90:1 122:1 244:1 248:1 
0.1296124669365066 68:1 135:1 
1 105:1 107:1 
0.9122776738634207 21:1 80:1 125:1 242:1 246:1 
0.3532120825341706 53:1 87:1 97:1 241:1 
1 85:1 90:1 123:1 192:1 194:1 245:1 
0.6847334457916395 248:1 252:1 257:1 260:1 
1 185:1 194:1 
1 48:1 87:1 123:1 194:1 240:1 
1 53:1 75:1 87:1 95:1 98:1 
1 104:1 201:1 257:1 261:1 
0.04577428428826579 115:1 214:1 242:1 
1 49:1 122:1 193:1 248:1 251:1 257:1 
1 47:1 75:1 89:1 90:1 257:1 
1 23:1 75:1 138:1 150:1 241:1 
0.3674720143866337 135:1 136:1 221:1 228:1 251:1 
0.4374458398290487 77:1 87:1 221:1 
1 59:1 117:1 127:1 248:1 
1 23:1 115:1 194:1 
1 115:1 122:1 123:1 235:1 245:1 
0.6767462264003216 7:1 83:1 112:1 115:1 
1 10:1 115:1 116:1 189:1 
0.09696182449875083 83:1 161:1 189:1 248:1 
1 115:1 122:1 123:1 155:1 189:1 
1 23:1 44:1 48:1 49:1 53:1 78:1 84:1 193:1 200:1 
1 77:1 144:1 189:1 
1 87:1 147:1 150:1 
0.1832158117520444 22:1 193:1 194:1 
1 233:1 244:1 245:1 
0.233947650104518 80:1 83:1 195:1 234:1 
0.5014588309449526 33:1 82:1 152:1 
1 47:1 115:1 117:1 122:1 123:1 242:1 
1 122:1 194:1 201:1 
1 87:1 144:1 155:1 193:1 244:1 
1 49:1 76:1 80:1 87:1 
1 84:1 188:1 190:1 193:1 248:1 
1 53:1 72:1 77:1 84:1 87:1 100:1 127:1 257:1 
1 49:1 150:1 
1 80:1 95:1 193:1 
0.9801299427510478 24:1 48:1 49:1 53:1 87:1 90:1 
1 82:1 194:1 233:1 242:1 
0.2318783463995793 7:1 79:1 115:1 200:1 225:1 
0.006805485719760217 49:1 53:1 87:1 89:1 192:1 
1 49:1 69:1 75:1 77:1 84:1 
1 193:1 201:1 221:1 247:1 
1 75:1 189:1 
1 53:1 77:1 87:1 123:1 192:1 194:1 
1 72:1 87:1 146:1 199:1 
1 36:1 95:1 187:1 219:1 248:1 
1 48:1 201:1 
1 49:1 85:1 87:1 200:1 257:1 
1 49:1 58:1 59:1 193:1 
0.7030730986402578 49:1 50:1 70:1 75:1 87:1 103:1 193:1 
1 8:1 87:1 106:1 146:1 193:1 
1 53:1 192:1 194:1 226:1 248:1 257:1 
0.4985471959145641 130:1 194:1 
1 80:1 111:1 116:1 194:1 219:1 257:1 
1 75:1 76:1 
1 44:1 123:1 138:1 246:1 
0.6890757611273948 4:1 140:1 194:1 
0.3697604538874917 4:1 82:1 188:1 
1 47:1 48:1 116:1 247:1 
1 83:1 114:1 124:1 
1 49:1 59:1 85:1 140:1 
1 25:1 49:1 87:1 111:1 156:1 248:1 
1 58:1 127:1 200:1 245:1 248:1 
1 77:1 83:1 87:1 90:1 
1 13:1 24:1 49:1 53:1 84:1 116:1 200:1 
0.1897859111730584 19:1 27:1 28:1 41:1 49:1 53:1 87:1 246:1 
1 39:1 44:1 
1 48:1 193:1 194:1 250:1 
1 87:1 130:1 193:1 194:1 221:1 257:1 
0.5892055330423215 5:1 93:1 189:1 257:1 
1 3:1 52:1 130:1 144:1 194:1 219:1 
0.6574976326747601 48:1 83:1 189:1 
0.4436888685814887 95:1 128:1 193:1 200:1 
1 53:1 70:1 75:1 220:1 225:1 242:1 
1 80:1 123:1 129:1 138:1 193:1 240:1 245:1 
1 23:1 193:1 242:1 
1 23:1 24:1 
1 72:1 94:1 115:1 221:1 
1 53:1 87:1 106:1 123:1 144:1 189:1 193:1 
0.1860361353149684 78:1 218:1 221:1 
0.666442723598918 78:1 189:1 257:1 
1 39:1 81:1 
1 185:1 189:1 228:1 
1 130:1 138:1 
1 84:1 103:1 105:1 189:1 
1 78:1 83:1 189:1 
0.2234793348536513 78:1 152:1 233:1 
1 135:1 193:1 200:1 221:1 244:1 
0.8138750828407475 48:1 49:1 53:1 87:1 90:1 103:1 189:1 
1 83:1 191:1 194:1 257:1 
1 22:1 49:1 94:1 
1 151:1 248:1 
1 75:1 77:1 87:1 89:1 117:1 140:1 
1 80:1 123:1 152:1 
0.3760562628091279 83:1 217:1 218:1 
1 77:1 87:1 245:1 
1 49:1 150:1 
1 53:1 123:1 127:1 144:1 193:1 
1 7:1 48:1 111:1 221:1 
0.02313752550037578 61:1 111:1 193:1 
1 23:1 90:1 91:1 95:1 
1 24:1 87:1 98:1 109:1 248:1 
1 81:1 87:1 90:1 115:1 214:1 
1 214:1 221:1 
1 58:1 90:1 127:1 251:1 
1 95:1 160:1 194:1 240:1 
1 53:1 59:1 79:1 87:1 91:1 117:1 194:1 200:1 257:1 
1 49:1 80:1 87:1 116:1 193:1 
1 49:1 84:1 87:1 200:1 248:1 
1 123:1 194:1 221:1 
1 7:1 115:1 123:1 201:1 221:1 245:1 
1 49:1 53:1 87:1 90:1 91:1 191:1 193:1 194:1 200:1 
1 49:1 109:1 115:1 194:1 200:1 
1 49:1 55:1 74:1 138:1 150:1 188:1 200:1 
0.4460453794737564 47:1 155:1 221:1 
0.3749976440186709 89:1 90:1 200:1 
1 85:1 87:1 95:1 123:1 193:1 
1 49:1 73:1 116:1 194:1 228:1 
1 48:1 49:1 152:1 193:1 
1 73:1 83:1 221:1 257:1 
1 192:1 193:1 194:1 
1 24:1 189:1 200:1 242:1 
1 149:1 197:1 200:1 248:1 257:1 
1 130:1 156:1 185:1 224:1 
1 49:1 83:1 152:1 
1 78:1 99:1 116:1 197:1 
1 84:1 87:1 189:1 193:1 214:1 
1 23:1 155:1 194:1 
1 77:1 83:1 87:1 153:1 248:1 
1 24:1 49:1 124:1 221:1 
0.7067079134498384 194:1 241:1 
1 79:1 80:1 251:1 
0.03578685685441958 248:1 257:1 270:1 
1 49:1 87:1 89:1 90:1 116:1 192:1 225:1 
1 73:1 165:1 194:1 251:1 
1 53:1 87:1 115:1 158:1 194:1 257:1 
0.2043454601956662 108:1 193:1 233:1 257:1 
1 48:1 49:1 53:1 87:1 95:1 123:1 125:1 201:1 
1 150:1 200:1 247:1 
1 49:1 87:1 122:1 189:1 193:1 
1 116:1 193:1 200:1 215:1 
1 130:1 193:1 219:1 228:1 233:1 
1 84:1 148:1 221:1 248:1 257:1 
1 49:1 197:1 200:1 221:1 
1 76:1 77:1 93:1 115:1 
0.09198571153121726 81:1 155:1 224:1 248:1 
0.8844228523443294 7:1 81:1 85:1 189:1 
1 4:1 186:1 232:1 248:1 
1 49:1 58:1 193:1 242:1 248:1 
0.444800849255911 7:1 57:1 116:1 199:1 
1 76:1 245:1 246:1 248:1 
1 115:1 200:1 214:1 
0.2504623102703384 123:1 214:1 
1 49:1 150:1 
0.3333057824265219 48:1 49:1 161:1 193:1 248:1 
1 47:1 58:1 144:1 156:1 162:1 248:1 
0.9138302249823679 24:1 48:1 83:1 
1 77:1 87:1 95:1 
0.8721177499248713 117:1 144:1 251:1 252:1 258:1 
1 52:1 59:1 233:1 
1 115:1 165:1 194:1 214:1 
1 81:1 115:1 193:1 194:1 252:1 
1 51:1 193:1 194:1 
0.4857418331665696 194:1 221:1 242:1 
0.4286368334191835 59:1 75:1 
0.4227079976476754 90:1 116:1 219:1 
1 49:1 53:1 87:1 130:1 186:1 
1 48:1 53:1 79:1 89:1 90:1 
1 49:1 68:1 90:1 152:1 248:1 
0.5589851607091069 80:1 117:1 245:1 
1 53:1 58:1 87:1 89:1 90:1 200:1 
1 23:1 82:1 123:1 
1 77:1 85:1 87:1 98:1 
1 95:1 107:1 123:1 
0.5137132117231837 49:1 89:1 247:1 
1 84:1 193:1 194:1 200:1 233:1 257:1 
1 23:1 81:1 98:1 
1 194:1 221:1 242:1 
1 116:1 189:1 194:1 248:1 
1 251:1 255:1 
1 192:1 201:1 
1 90:1 115:1 116:1 122:1 135:1 189:1 
0.0201459184457882 82:1 87:1 116:1 164:1 257:1 
0.5559879636242413 47:1 59:1 155:1 
1 2:1 71:1 98:1 111:1 201:1 254:1 
1 93:1 94:1 155:1 192:1 200:1 
0.07705861767851852 48:1 87:1 90:1 98:1 193:1 
1 49:1 53:1 87:1 150:1 
1 23:1 233:1 
1 194:1 221:1 251:1 
1 115:1 185:1 261:1 
0.2566019267066008 53:1 84:1 87:1 123:1 127:1 191:1 
1 47:1 214:1 
0.3211746420974789 81:1 185:1 189:1 
0.396725503300089 23:1 70:1 154:1 200:1 
1 53:1 78:1 83:1 90:1 119:1 221:1 
1 90:1 97:1 114:1 116:1 122:1 189:1 221:1 248:1 
1 73:1 148:1 218:1 251:1 257:1 
1 7:1 8:1 80:1 130:1 192:1 
1 83:1 115:1 194:1 200:1 251:1 257:1 
0.9300214692528334 3:1 95:1 193:1 
1 23:1 194:1 
1 244:1 252:1 257:1 
1 117:1 123:1 185:1 231:1 
1 14:1 77:1 200:1 
1 81:1 111:1 115:1 200:1 219:1 225:1 
0.2733620930991312 47:1 84:1 87:1 194:1 
1 78:1 80:1 90:1 115:1 144:1 
1 116:1 117:1 124:1 201:1 
1 68:1 87:1 127:1 140:1 248:1 
1 53:1 80:1 192:1 214:1 
-1 64:1 144:1 248:1 
-1 116:1 257:1 
-1 87:1 191:1 200:1 
-1 257:1 
-1 150:1 
-1 58:1 115:1 123:1 
-1 163:1 185:1 
-1 194:1 
-1 81:1 207:1 
-1 84:1 85:1 111:1 
-1 194:1 
-1 185:1 
-1 53:1 79:1 80:1 192:1 246:1 
-1 87:1 192:1 
-1 53:1 77:1 87:1 89:1 189:1 193:1 199:1 
-1 123:1 
-1 192:1 
-1 47:1 78:1 257:1 
-1 53:1 87:1 95:1 
-1 47:1 185:1 
-1 23:1 53:1 87:1 89:1 90:1 94:1 111:1 116:1 150:1 
-1 49:1 146:1 
-1 251:1 
-1 19:1 87:1 116:1 144:1 194:1 
-1 53:1 87:1 95:1 195:1 245:1 
-1 87:1 123:1 200:1 
-1 39:1 41:1 79:1 111:1 194:1 242:1 
-1 53:1 87:1 89:1 90:1 127:1 156:1 192:1 193:1 233:1 245:1 
-1 132:1 150:1 
-1 81:1 194:1 233:1 
-1 194:1 
-1 186:1 270:1 
-1 48:1 53:1 76:1 78:1 83:1 87:1 127:1 192:1 
-1 185:1 
-1 7:1 8:1 53:1 87:1 89:1 90:1 94:1 95:1 105:1 193:1 
-1 49:1 83:1 84:1 95:1 98:1 148:1 
-1 4:1 76:1 122:1 124:1 138:1 162:1 221:1 
-1 138:1 161:1 232:1 248:1 251:1 
-1 23:1 83:1 87:1 194:1 
-1 252:1 257:1 
-1 62:1 80:1 84:1 189:1 200:1 201:1 214:1 215:1 247:1 248:1 
-1 73:1 187:1 257:1 
-1 79:1 117:1 189:1 242:1 251:1 252:1 
-1 48:1 53:1 80:1 189:1 201:1 245:1 
-1 49:1 53:1 87:1 90:1 98:1 193:1 
-1 185:1 221:1 233:1 
-1 193:1 199:1 248:1 
-1 84:1 193:1 214:1 
-1 221:1 
-1 185:1 
-1 233:1 
-1 11:1 22:1 89:1 155:1 200:1 
-1 49:1 53:1 77:1 87:1 90:1 116:1 150:1 
-1 48:1 58:1 59:1 95:1 244:1 
-1 49:1 59:1 87:1 111:1 116:1 248:1 
-1 49:1 76:1 146:1 
-1 48:1 87:1 150:1 188:1 193:1 
-1 214:1 221:1 248:1 
-1 49:1 200:1 
-1 49:1 53:1 87:1 93:1 105:1 116:1 200:1 
-1 83:1 143:1 200:1 233:1 
-1 107:1 123:1 142:1 200:1 
-1 49:1 98:1 250:1 251:1 257:1 
-1 32:1 33:1 83:1 85:1 92:1 97:1 
-1 10:1 49:1 53:1 187:1 245:1 248:1 251:1 257:1 
-1 81:1 83:1 114:1 115:1 242:1 
-1 49:1 53:1 87:1 193:1 248:1 251:1 257:1 
-1 23:1 53:1 55:1 85:1 87:1 95:1 191:1 257:1 
-1 186:1 194:1 219:1 242:1 
-1 21:1 29:1 49:1 89:1 95:1 193:1 224:1 
-1 81:1 214:1 
-1 95:1 111:1 115:1 117:1 224:1 225:1 228:1 245:1 
-1 49:1 87:1 90:1 193:1 
-1 49:1 53:1 87:1 189:1 192:1 
-1 49:1 87:1 146:1 
-1 23:1 90:1 124:1 193:1 214:1 248:1 
-1 51:1 80:1 87:1 98:1 214:1 248:1 
-1 23:1 43:1 122:1 193:1 
-1 84:1 115:1 124:1 194:1 248:1 
-1 221:1 
-1 77:1 78:1 80:1 95:1 111:1 116:1 200:1 233:1 
-1 73:1 87:1 89:1 90:1 98:1 106:1 200:1 246:1 248:1 257:1 
-1 48:1 49:1 81:1 87:1 94:1 147:1 
-1 80:1 191:1 193:1 225:1 257:1 
-1 53:1 200:1 214:1 248:1 
-1 29:1 115:1 151:1 193:1 
-1 4:1 36:1 48:1 77:1 148:1 
-1 48:1 111:1 152:1 233:1 251:1 
-1 87:1 146:1 
-1 32:1 49:1 87:1 90:1 93:1 191:1 
-1 23:1 39:1 104:1 150:1 189:1 200:1 
-1 115:1 116:1 123:1 194:1 200:1 248:1 
-1 122:1 186:1 194:1 
-1 24:1 240:1 
-1 49:1 53:1 68:1 87:1 90:1 98:1 105:1 117:1 192:1 193:1 195:1 219:1 244:1 248:1 251:1 259:1 
-1 44:1 75:1 76:1 87:1 98:1 111:1 189:1 195:1 200:1 248:1 
-1 53:1 76:1 87:1 89:1 90:1 91:1 98:1 148:1 193:1 241:1 
-1 53:1 150:1 159:1 194:1 257:1 
-1 49:1 90:1 105:1 150:1 193:1 248:1 
-1 185:1 
-1 53:1 73:1 81:1 82:1 87:1 
-1 4:1 81:1 127:1 189:1 240:1 
-1 81:1 84:1 109:1 142:1 193:1 233:1 
-1 53:1 59:1 76:1 77:1 87:1 129:1 193:1 195:1 248:1 251:1 257:1 
-1 23:1 110:1 220:1 
-1 44:1 185:1 261:1 
-1 19:1 103:1 151:1 189:1 
-1 49:1 84:1 87:1 90:1 94:1 95:1 104:1 240:1 248:1 270:1 
-1 87:1 148:1 159:1 189:1 192:1 193:1 
-1 24:1 214:1 233:1 
-1 116:1 193:1 201:1 219:1 251:1 257:1 
-1 49:1 53:1 84:1 87:1 132:1 194:1 
-1 7:1 189:1 218:1 
-1 3:1 7:1 124:1 221:1 
-1 158:1 221:1 241:1 251:1 
-1 36:1 84:1 90:1 248:1 
-1 75:1 90:1 123:1 192:1 194:1 195:1 201:1 247:1 
-1 255:1 
-1 87:1 123:1 194:1 251:1 
-1 55:1 90:1 115:1 193:1 
-1 84:1 87:1 257:1 
-1 61:1 
-1 84:1 115:1 
-1 24:1 53:1 89:1 90:1 193:1 203:1 
-1 7:1 112:1 215:1 218:1 221:1 247:1 257:1 
-1 84:1 87:1 192:1 200:1 
-1 44:1 
-1 44:1 90:1 150:1 193:1 
-1 68:1 194:1 197:1 218:1 
-1 48:1 73:1 194:1 
-1 53:1 87:1 140:1 193:1 251:1 
-1 53:1 80:1 142:1 150:1 152:1 193:1 200:1 233:1 251:1 
-1 193:1 194:1 
-1 76:1 85:1 109:1 130:1 
-1 49:1 77:1 124:1 193:1 
-1 80:1 115:1 201:1 217:1 221:1 
-1 53:1 87:1 90:1 116:1 117:1 
-1 44:1 48:1 49:1 59:1 82:1 84:1 116:1 121:1 122:1 157:1 193:1 200:1 231:1 
-1 191:1 
-1 44:1 49:1 89:1 90:1 91:1 124:1 133:1 135:1 213:1 257:1 
-1 4:1 22:1 29:1 49:1 53:1 70:1 75:1 87:1 89:1 90:1 150:1 228:1 245:1 
-1 53:1 193:1 
-1 83:1 218:1 
-1 6:1 132:1 
-1 87:1 117:1 123:1 
-1 185:1 
-1 194:1 221:1 257:1 
-1 49:1 77:1 144:1 160:1 164:1 248:1 251:1 257:1 
-1 24:1 84:1 115:1 193:1 194:1 224:1 
-1 53:1 87:1 115:1 194:1 
-1 23:1 70:1 93:1 150:1 151:1 193:1 257:1 
-1 117:1 123:1 
-1 78:1 87:1 111:1 112:1 114:1 192:1 194:1 200:1 201:1 221:1 248:1 250:1 
-1 51:1 68:1 84:1 95:1 194:1 200:1 244:1 251:1 
-1 49:1 84:1 90:1 94:1 97:1 127:1 138:1 150:1 
-1 53:1 87:1 123:1 142:1 144:1 152:1 153:1 193:1 233:1 248:1 251:1 
-1 251:1 259:1 
-1 81:1 90:1 162:1 187:1 257:1 
-1 23:1 75:1 193:1 248:1 
-1 44:1 75:1 95:1 191:1 199:1 
-1 200:1 221:1 257:1 
-1 77:1 111:1 191:1 192:1 
-1 58:1 77:1 87:1 
-1 87:1 95:1 189:1 192:1 
-1 107:1 
-1 24:1 47:1 162:1 
-1 7:1 106:1 189:1 192:1 193:1 200:1 
-1 87:1 152:1 
-1 124:1 129:1 150:1 
-1 116:1 117:1 122:1 123:1 127:1 194:1 197:1 
-1 193:1 214:1 250:1 257:1 260:1 
-1 47:1 73:1 87:1 91:1 105:1 109:1 130:1 144:1 251:1 257:1 
-1 23:1 49:1 53:1 55:1 59:1 75:1 87:1 89:1 90:1 97:1 133:1 146:1 148:1 218:1 
-1 4:1 7:1 47:1 78:1 87:1 144:1 227:1 
-1 184:1 185:1 
-1 10:1 75:1 87:1 90:1 116:1 150:1 189:1 241:1 
-1 23:1 87:1 91:1 92:1 135:1 194:1 248:1 
-1 44:1 53:1 77:1 87:1 90:1 94:1 111:1 122:1 152:1 
-1 84:1 193:1 221:1 
-1 49:1 
-1 151:1 185:1 
-1 78:1 115:1 194:1 221:1 257:1 
-1 49:1 59:1 93:1 192:1 
-1 73:1 79:1 111:1 189:1 
-1 49:1 72:1 84:1 189:1 
-1 49:1 140:1 194:1 
-1 38:1 75:1 125:1 130:1 
-1 148:1 189:1 197:1 
-1 24:1 59:1 73:1 80:1 87:1 194:1 251:1 
-1 49:1 90:1 116:1 117:1 192:1 244:1 
-1 39:1 107:1 122:1 193:1 245:1 248:1 
-1 148:1 156:1 189:1 194:1 200:1 
-1 116:1 124:1 194:1 
-1 59:1 87:1 192:1 200:1 236:1 
-1 251:1 
-1 23:1 90:1 91:1 97:1 98:1 124:1 241:1 
-1 154:1 155:1 261:1 
-1 51:1 111:1 257:1 
-1 87:1 89:1 104:1 194:1 
-1 170:1 185:1 
-1 24:1 49:1 59:1 73:1 83:1 87:1 103:1 150:1 
-1 47:1 82:1 87:1 95:1 115:1 147:1 191:1 199:1 221:1 
-1 90:1 150:1 
-1 53:1 75:1 77:1 87:1 
-1 53:1 87:1 115:1 135:1 192:1 193:1 200:1 201:1 
-1 14:1 87:1 
-1 73:1 117:1 248:1 
-1 87:1 140:1 200:1 247:1 
-1 23:1 90:1 94:1 123:1 246:1 
-1 49:1 86:1 93:1 119:1 140:1 193:1 218:1 
-1 24:1 87:1 115:1 122:1 240:1 
-1 4:1 189:1 
-1 46:1 73:1 85:1 90:1 115:1 127:1 144:1 193:1 246:1 257:1 
-1 47:1 115:1 189:1 242:1 
-1 76:1 108:1 
-1 53:1 90:1 
-1 80:1 194:1 
-1 21:1 24:1 80:1 257:1 
-1 14:1 87:1 115:1 144:1 189:1 193:1 248:1 
-1 49:1 53:1 87:1 194:1 201:1 245:1 
-1 23:1 29:1 90:1 116:1 191:1 199:1 247:1 
-1 44:1 51:1 189:1 
-1 78:1 113:1 138:1 185:1 194:1 
-1 221:1 251:1 260:1 261:1 
-1 221:1 
-1 115:1 123:1 194:1 200:1 231:1 
-1 49:1 64:1 87:1 89:1 90:1 122:1 127:1 130:1 141:1 146:1 186:1 194:1 200:1 240:1 248:1 257:1 
-1 48:1 75:1 78:1 80:1 95:1 155:1 
-1 146:1 
-1 53:1 55:1 68:1 83:1 84:1 87:1 90:1 95:1 
-1 59:1 87:1 97:1 98:1 107:1 122:1 200:1 
-1 257:1 
-1 194:1 245:1 
-1 48:1 62:1 63:1 87:1 115:1 188:1 192:1 
-1 53:1 79:1 81:1 87:1 98:1 103:1 111:1 
-1 24:1 59:1 87:1 133:1 193:1 
-1 200:1 
-1 49:1 53:1 59:1 87:1 98:1 150:1 248:1 
-1 87:1 185:1 
-1 49:1 
-1 49:1 80:1 87:1 95:1 215:1 244:1 245:1 
-1 193:1 
-1 49:1 53:1 90:1 98:1 248:1 
-1 49:1 83:1 84:1 90:1 94:1 99:1 111:1 
-1 3:1 66:1 78:1 128:1 192:1 193:1 194:1 201:1 
-1 84:1 87:1 200:1 
-1 78:1 107:1 194:1 
-1 53:1 194:1 257:1 
-1 23:1 49:1 90:1 122:1 
-1 49:1 
-1 23:1 75:1 79:1 98:1 102:1 116:1 194:1 
-1 77:1 79:1 80:1 87:1 122:1 192:1 193:1 197:1 221:1 
-1 19:1 111:1 116:1 117:1 123:1 194:1 
-1 73:1 175:1 185:1 194:1 221:1 
-1 53:1 83:1 87:1 89:1 90:1 117:1 138:1 
-1 77:1 83:1 218:1 224:1 
-1 186:1 
-1 47:1 80:1 87:1 117:1 123:1 127:1 140:1 245:1 
-1 111:1 114:1 123:1 126:1 194:1 248:1 
-1 7:1 24:1 49:1 62:1 116:1 186:1 
-1 49:1 84:1 126:1 233:1 
-1 80:1 115:1 123:1 189:1 200:1 
-1 23:1 152:1 
-1 47:1 49:1 72:1 106:1 115:1 189:1 200:1 244:1 245:1 
-1 231:1 259:1 261:1 
-1 23:1 73:1 106:1 115:1 116:1 122:1 200:1 
-1 23:1 75:1 77:1 116:1 194:1 241:1 247:1 
-1 49:1 84:1 87:1 194:1 257:1 
-1 77:1 95:1 109:1 218:1 
-1 25:1 49:1 
-1 6:1 91:1 193:1 257:1 
-1 193:1 
-1 64:1 192:1 194:1 200:1 248:1 
-1 192:1 199:1 257:1 
-1 123:1 148:1 151:1 194:1 257:1 258:1 
-1 7:1 185:1 194:1 201:1 
-1 115:1 200:1 257:1 
-1 47:1 48:1 80:1 83:1 124:1 130:1 189:1 192:1 193:1 195:1 242:1 245:1 
-1 55:1 116:1 152:1 194:1 
-1 98:1 220:1 233:1 
-1 23:1 64:1 77:1 189:1 192:1 193:1 248:1 
-1 49:1 53:1 75:1 87:1 138:1 248:1 
-1 23:1 53:1 90:1 105:1 215:1 
-1 49:1 50:1 53:1 85:1 87:1 89:1 90:1 193:1 200:1 221:1 228:1 
-1 185:1 
-1 48:1 87:1 197:1 225:1 253:1 
-1 48:1 49:1 87:1 117:1 152:1 200:1 219:1 248:1 
-1 39:1 44:1 49:1 75:1 116:1 191:1 202:1 
-1 27:1 49:1 80:1 84:1 162:1 189:1 248:1 250:1 
-1 112:1 190:1 
-1 78:1 113:1 130:1 221:1 233:1 
-1 53:1 122:1 123:1 191:1 194:1 219:1 244:1 245:1 
-1 85:1 87:1 159:1 192:1 221:1 
-1 39:1 48:1 116:1 192:1 
-1 49:1 50:1 53:1 80:1 90:1 127:1 150:1 189:1 232:1 
-1 115:1 
-1 53:1 116:1 127:1 251:1 257:1 259:1 
-1 48:1 53:1 110:1 200:1 
-1 73:1 115:1 116:1 117:1 144:1 193:1 194:1 251:1 
-1 7:1 39:1 
-1 148:1 193:1 194:1 214:1 246:1 
-1 23:1 53:1 201:1 214:1 219:1 
-1 53:1 55:1 73:1 75:1 87:1 130:1 153:1 193:1 242:1 
-1 7:1 29:1 77:1 83:1 106:1 189:1 
-1 23:1 76:1 87:1 90:1 95:1 110:1 189:1 193:1 200:1 224:1 225:1 
-1 185:1 
-1 44:1 47:1 75:1 87:1 89:1 233:1 
-1 53:1 75:1 79:1 98:1 116:1 138:1 187:1 193:1 
-1 76:1 87:1 194:1 231:1 233:1 
-1 244:1 252:1 
-1 49:1 76:1 90:1 97:1 
-1 52:1 138:1 165:1 248:1 
-1 87:1 115:1 218:1 221:1 245:1 246:1 
-1 7:1 257:1 
-1 148:1 156:1 189:1 
-1 44:1 49:1 53:1 84:1 85:1 90:1 106:1 248:1 253:1 
-1 7:1 216:1 233:1 
-1 89:1 90:1 219:1 242:1 251:1 257:1 259:1 
-1 81:1 83:1 84:1 233:1 254:1 
-1 53:1 89:1 90:1 97:1 193:1 
-1 83:1 111:1 117:1 193:1 
-1 16:1 
-1 251:1 
-1 115:1 117:1 123:1 244:1 
-1 23:1 53:1 76:1 79:1 84:1 87:1 98:1 231:1 
-1 123:1 
-1 48:1 49:1 73:1 87:1 125:1 151:1 160:1 193:1 244:1 248:1 257:1 263:1 
-1 23:1 115:1 221:1 
-1 58:1 193:1 214:1 220:1 
-1 49:1 77:1 87:1 
-1 84:1 119:1 257:1 
-1 7:1 123:1 228:1 
-1 116:1 257:1 
-1 257:1 259:1 
-1 53:1 87:1 123:1 127:1 200:1 225:1 244:1 251:1 
-1 115:1 251:1 
-1 160:1 164:1 185:1 240:1 
-1 185:1 
-1 87:1 116:1 187:1 257:1 
-1 48:1 162:1 251:1 
-1 54:1 116:1 123:1 187:1 200:1 257:1 
-1 23:1 75:1 92:1 133:1 241:1 244:1 
-1 75:1 147:1 
-1 53:1 87:1 193:1 
-1 53:1 87:1 106:1 109:1 127:1 135:1 144:1 153:1 193:1 248:1 251:1 253:1 
-1 115:1 185:1 194:1 248:1 
-1 164:1 187:1 193:1 218:1 
-1 4:1 55:1 80:1 83:1 87:1 193:1 200:1 
-1 49:1 58:1 87:1 127:1 146:1 
-1 49:1 123:1 193:1 242:1 248:1 251:1 257:1 
-1 48:1 194:1 
-1 112:1 115:1 122:1 123:1 144:1 189:1 235:1 244:1 
-1 111:1 214:1 
-1 87:1 90:1 95:1 188:1 200:1 215:1 219:1 220:1 244:1 245:1 
-1 75:1 87:1 115:1 193:1 
-1 115:1 252:1 
-1 48:1 85:1 87:1 95:1 151:1 244:1 
-1 3:1 53:1 58:1 72:1 87:1 112:1 115:1 127:1 130:1 144:1 189:1 245:1 248:1 251:1 254:1 255:1 258:1 259:1 
-1 49:1 75:1 87:1 90:1 117:1 
-1 193:1 
-1 200:1 221:1 257:1 
-1 116:1 248:1 257:1 
-1 49:1 53:1 63:1 87:1 95:1 99:1 138:1 156:1 
-1 185:1 
-1 49:1 53:1 87:1 90:1 129:1 221:1 
-1 78:1 170:1 185:1 189:1 
-1 49:1 87:1 150:1 200:1 
-1 76:1 87:1 152:1 192:1 194:1 200:1 221:1 245:1 
-1 49:1 87:1 89:1 90:1 248:1 
-1 48:1 53:1 193:1 247:1 251:1 257:1 
-1 123:1 248:1 257:1 
-1 79:1 193:1 200:1 240:1 
-1 89:1 90:1 248:1 
-1 22:1 54:1 85:1 87:1 123:1 152:1 155:1 188:1 189:1 
-1 106:1 115:1 193:1 198:1 
-1 124:1 214:1 
-1 75:1 
-1 49:1 53:1 87:1 97:1 
-1 185:1 
-1 115:1 123:1 
-1 257:1 
-1 106:1 122:1 146:1 148:1 
-1 58:1 73:1 115:1 221:1 
-1 73:1 116:1 160:1 201:1 221:1 244:1 
-1 23:1 29:1 93:1 151:1 189:1 222:1 
-1 75:1 87:1 90:1 107:1 189:1 242:1 
-1 49:1 53:1 87:1 97:1 191:1 
-1 194:1 200:1 220:1 
-1 23:1 155:1 186:1 193:1 225:1 
-1 58:1 79:1 127:1 189:1 228:1 
-1 64:1 90:1 93:1 122:1 186:1 189:1 247:1 
-1 78:1 87:1 95:1 109:1 115:1 117:1 123:1 194:1 200:1 251:1 
-1 185:1 
-1 53:1 76:1 80:1 87:1 90:1 106:1 111:1 148:1 191:1 
-1 73:1 83:1 87:1 222:1 248:1 251:1 257:1 
-1 83:1 123:1 193:1 214:1 
-1 14:1 151:1 152:1 187:1 
-1 193:1 248:1 257:1 
-1 148:1 
-1 83:1 254:1 
-1 87:1 90:1 93:1 193:1 244:1 248:1 
-1 53:1 70:1 75:1 130:1 186:1 189:1 192:1 193:1 194:1 200:1 233:1 243:1 245:1 248:1 
-1 75:1 87:1 98:1 194:1 248:1 
-1 87:1 152:1 248:1 
-1 3:1 48:1 53:1 72:1 85:1 86:1 87:1 89:1 98:1 116:1 117:1 165:1 200:1 248:1 253:1 257:1 
-1 114:1 251:1 252:1 
-1 123:1 
-1 214:1 
-1 194:1 
-1 53:1 75:1 77:1 90:1 98:1 146:1 152:1 
-1 64:1 97:1 138:1 270:1 
-1 157:1 185:1 257:1 
-1 111:1 122:1 194:1 244:1 
-1 48:1 53:1 83:1 192:1 195:1 242:1 247:1 
-1 49:1 53:1 68:1 80:1 87:1 111:1 123:1 192:1 194:1 248:1 
-1 7:1 81:1 115:1 127:1 
-1 85:1 116:1 117:1 192:1 194:1 
-1 23:1 75:1 78:1 80:1 155:1 
-1 78:1 115:1 123:1 189:1 
-1 23:1 29:1 116:1 
-1 49:1 53:1 87:1 141:1 146:1 150:1 
-1 23:1 75:1 87:1 90:1 
-1 189:1 193:1 200:1 221:1 229:1 
-1 194:1 
-1 53:1 75:1 85:1 90:1 116:1 148:1 149:1 248:1 
-1 49:1 53:1 78:1 91:1 98:1 125:1 189:1 193:1 201:1 
-1 19:1 42:1 215:1 
-1 193:1 
-1 53:1 59:1 75:1 87:1 130:1 141:1 193:1 194:1 197:1 
-1 85:1 115:1 122:1 123:1 144:1 206:1 
-1 58:1 123:1 144:1 
-1 87:1 138:1 153:1 193:1 194:1 
-1 53:1 87:1 90:1 99:1 189:1 192:1 
-1 115:1 130:1 193:1 194:1 
-1 117:1 201:1 244:1 251:1 
-1 24:1 62:1 95:1 122:1 186:1 192:1 193:1 204:1 251:1 
-1 90:1 93:1 94:1 97:1 231:1 246:1 
-1 49:1 112:1 130:1 164:1 248:1 
-1 49:1 52:1 83:1 245:1 248:1 
-1 257:1 
-1 219:1 
-1 98:1 
-1 84:1 185:1 
-1 43:1 80:1 87:1 95:1 126:1 148:1 200:1 247:1 
-1 192:1 193:1 248:1 251:1 257:1 
-1 53:1 87:1 90:1 94:1 215:1 
-1 44:1 80:1 95:1 192:1 193:1 
-1 49:1 53:1 87:1 251:1 257:1 
-1 111:1 146:1 248:1 
-1 52:1 53:1 87:1 89:1 105:1 115:1 116:1 117:1 186:1 192:1 247:1 
-1 23:1 47:1 80:1 151:1 
-1 115:1 165:1 189:1 193:1 214:1 
-1 189:1 
-1 29:1 90:1 93:1 
-1 72:1 252:1 
-1 4:1 115:1 117:1 122:1 123:1 239:1 245:1 252:1 
-1 47:1 144:1 214:1 257:1 
-1 7:1 23:1 58:1 59:1 87:1 90:1 115:1 122:1 187:1 220:1 270:1 
-1 185:1 
-1 115:1 144:1 152:1 194:1 251:1 257:1 
-1 24:1 
-1 49:1 84:1 127:1 189:1 241:1 
-1 49:1 87:1 149:1 193:1 200:1 
-1 225:1 233:1 
-1 63:1 138:1 
-1 221:1 
-1 8:1 73:1 80:1 115:1 124:1 200:1 257:1 
-1 78:1 115:1 116:1 123:1 218:1 221:1 252:1 
-1 3:1 4:1 81:1 122:1 144:1 
-1 185:1 194:1 200:1 
-1 115:1 117:1 248:1 251:1 259:1 
-1 116:1 251:1 257:1 261:1 
-1 146:1 226:1 
-1 49:1 87:1 200:1 
-1 47:1 53:1 83:1 115:1 116:1 130:1 194:1 
-1 47:1 87:1 
-1 221:1 
-1 71:1 
-1 53:1 77:1 87:1 194:1 233:1 257:1 
-1 79:1 127:1 194:1 
-1 75:1 153:1 189:1 194:1 
-1 49:1 78:1 90:1 93:1 111:1 117:1 130:1 248:1 
-1 87:1 90:1 95:1 221:1 
-1 72:1 73:1 221:1 248:1 
-1 53:1 75:1 83:1 214:1 
-1 150:1 
-1 259:1 
-1 48:1 53:1 62:1 87:1 201:1 
-1 115:1 123:1 201:1 233:1 
-1 49:1 193:1 233:1 
-1 84:1 95:1 246:1 
-1 53:1 83:1 87:1 90:1 246:1 251:1 
-1 44:1 48:1 49:1 53:1 80:1 194:1 214:1 
-1 194:1 257:1 
-1 194:1 221:1 
-1 82:1 115:1 123:1 189:1 194:1 
-1 115:1 193:1 
-1 2:1 71:1 84:1 127:1 149:1 150:1 188:1 193:1 
-1 48:1 68:1 80:1 85:1 111:1 
-1 87:1 125:1 197:1 245:1 
-1 49:1 53:1 87:1 200:1 206:1 221:1 247:1 
-1 53:1 83:1 115:1 127:1 148:1 239:1 248:1 251:1 257:1 
-1 4:1 117:1 251:1 257:1 
-1 194:1 
-1 84:1 98:1 245:1 257:1 
-1 115:1 148:1 156:1 194:1 
-1 49:1 77:1 89:1 90:1 
-1 49:1 59:1 75:1 98:1 189:1 
-1 54:1 75:1 95:1 97:1 189:1 
-1 189:1 194:1 200:1 
-1 23:1 107:1 
-1 7:1 148:1 193:1 
-1 77:1 122:1 144:1 
-1 84:1 94:1 95:1 194:1 248:1 
-1 84:1 193:1 201:1 
-1 7:1 49:1 115:1 116:1 127:1 155:1 189:1 235:1 242:1 251:1 257:1 
-1 193:1 221:1 
-1 7:1 23:1 87:1 90:1 94:1 116:1 123:1 
-1 19:1 24:1 59:1 82:1 90:1 105:1 142:1 193:1 
-1 49:1 53:1 115:1 189:1 200:1 242:1 
-1 23:1 73:1 78:1 80:1 82:1 123:1 221:1 228:1 233:1 
-1 7:1 82:1 193:1 194:1 201:1 
-1 194:1 
-1 116:1 194:1 
-1 48:1 53:1 75:1 84:1 129:1 193:1 248:1 257:1 
-1 53:1 84:1 87:1 189:1 191:1 193:1 194:1 200:1 220:1 248:1 251:1 257:1 
-1 7:1 83:1 148:1 254:1 
-1 7:1 47:1 83:1 
-1 23:1 194:1 
-1 58:1 115:1 248:1 252:1 257:1 
-1 26:1 51:1 53:1 87:1 130:1 140:1 141:1 191:1 192:1 200:1 201:1 257:1 
-1 194:1 248:1 251:1 257:1 
-1 113:1 157:1 164:1 193:1 194:1 201:1 
-1 52:1 84:1 228:1 248:1 
-1 48:1 49:1 53:1 86:1 90:1 97:1 103:1 116:1 150:1 190:1 193:1 195:1 
-1 87:1 194:1 
-1 23:1 73:1 200:1 240:1 242:1 
-1 214:1 251:1 
-1 49:1 55:1 87:1 193:1 194:1 
-1 24:1 193:1 
-1 73:1 123:1 
-1 4:1 7:1 80:1 84:1 116:1 126:1 192:1 193:1 194:1 200:1 219:1 221:1 
-1 75:1 78:1 200:1 
-1 10:1 53:1 78:1 87:1 122:1 123:1 191:1 193:1 
-1 47:1 246:1 
-1 80:1 84:1 124:1 194:1 257:1 
-1 48:1 51:1 79:1 123:1 193:1 194:1 200:1 248:1 
-1 53:1 123:1 194:1 247:1 257:1 
-1 73:1 76:1 80:1 130:1 192:1 
-1 123:1 
-1 252:1 
-1 87:1 109:1 117:1 127:1 144:1 153:1 189:1 221:1 228:1 
-1 47:1 49:1 59:1 93:1 221:1 
-1 73:1 117:1 123:1 130:1 144:1 158:1 164:1 165:1 189:1 193:1 200:1 214:1 221:1 261:1 
-1 193:1 194:1 248:1 
-1 48:1 81:1 115:1 148:1 214:1 225:1 252:1 
-1 123:1 189:1 
-1 48:1 141:1 193:1 194:1 199:1 200:1 244:1 
-1 252:1 
-1 47:1 48:1 130:1 150:1 193:1 194:1 196:1 218:1 221:1 243:1 
-1 38:1 43:1 148:1 192:1 
-1 48:1 49:1 89:1 90:1 98:1 104:1 144:1 187:1 
-1 53:1 77:1 248:1 
-1 7:1 115:1 248:1 251:1 
-1 270:1 
-1 23:1 52:1 76:1 78:1 84:1 123:1 130:1 194:1 220:1 248:1 
-1 4:1 82:1 115:1 127:1 148:1 194:1 
-1 49:1 74:1 87:1 98:1 146:1 
-1 130:1 156:1 233:1 
-1 80:1 89:1 94:1 
-1 29:1 59:1 87:1 142:1 195:1 228:1 248:1 
-1 53:1 73:1 82:1 87:1 93:1 189:1 193:1 194:1 200:1 
-1 22:1 49:1 53:1 194:1 
-1 163:1 189:1 193:1 257:1 
-1 75:1 87:1 149:1 191:1 
-1 189:1 194:1 206:1 
-1 233:1 
-1 29:1 68:1 75:1 77:1 231:1 
-1 8:1 201:1 223:1 
-1 4:1 33:1 49:1 76:1 
-1 23:1 117:1 194:1 233:1 248:1 251:1 
-1 47:1 48:1 87:1 151:1 193:1 201:1 
-1 73:1 163:1 185:1 193:1 
-1 218:1 254:1 
-1 130:1 248:1 251:1 257:1 
-1 4:1 23:1 73:1 193:1 194:1 253:1 
-1 87:1 90:1 193:1 194:1 251:1 257:1 
-1 189:1 192:1 193:1 194:1 
-1 221:1 251:1 257:1 
-1 73:1 123:1 194:1 
-1 193:1 194:1 245:1 
-1 53:1 80:1 87:1 90:1 127:1 155:1 192:1 
-1 77:1 87:1 194:1 
-1 53:1 87:1 90:1 117:1 122:1 247:1 
-1 24:1 26:1 33:1 49:1 80:1 87:1 150:1 164:1 193:1 
-1 23:1 48:1 75:1 200:1 
-1 75:1 115:1 189:1 193:1 245:1 
-1 251:1 257:1 
-1 123:1 214:1 244:1 
-1 83:1 90:1 246:1 
-1 194:1 197:1 
-1 59:1 87:1 117:1 194:1 
-1 47:1 76:1 77:1 90:1 187:1 193:1 198:1 219:1 
-1 257:1 
-1 233:1 245:1 
-1 130:1 252:1 255:1 
-1 23:1 54:1 76:1 83:1 90:1 193:1 194:1 
-1 83:1 243:1 251:1 252:1 255:1 
-1 87:1 192:1 221:1 242:1 
-1 73:1 115:1 123:1 193:1 231:1 248:1 
-1 115:1 123:1 200:1 
-1 72:1 219:1 
-1 194:1 244:1 257:1 
-1 79:1 194:1 
-1 251:1 257:1 
-1 24:1 116:1 117:1 220:1 233:1 
-1 48:1 84:1 148:1 199:1 219:1 248:1 
-1 52:1 123:1 156:1 160:1 187:1 189:1 194:1 200:1 242:1 
-1 58:1 252:1 255:1 257:1 
-1 78:1 80:1 83:1 87:1 
-1 49:1 75:1 81:1 87:1 194:1 
-1 155:1 192:1 214:1 224:1 241:1 
-1 155:1 194:1 
-1 73:1 82:1 123:1 194:1 
-1 53:1 76:1 80:1 156:1 193:1 257:1 
