svm_type c_svc
kernel_type rbf
gamma 0.0037037
nr_class 2
total_sv 3314
rho 0.850502
label 1 0
nr_sv 1469 1845
SV
1 23:1 117:1 194:1 248:1 257:1 
1 87:1 248:1 259:1 
1 55:1 87:1 97:1 127:1 146:1 191:1 
1 122:1 146:1 248:1 
1 49:1 53:1 87:1 93:1 147:1 150:1 248:1 
1 146:1 
1 87:1 93:1 150:1 193:1 247:1 
1 23:1 49:1 77:1 90:1 95:1 122:1 132:1 189:1 192:1 220:1 225:1 248:1 
1 187:1 251:1 252:1 254:1 
1 193:1 248:1 
1 146:1 189:1 199:1 
1 117:1 123:1 189:1 
1 49:1 97:1 225:1 
1 29:1 90:1 115:1 152:1 
1 72:1 194:1 251:1 257:1 
1 219:1 261:1 
1 149:1 152:1 252:1 254:1 
1 78:1 87:1 146:1 
1 49:1 138:1 150:1 
1 164:1 247:1 
1 38:1 39:1 49:1 53:1 59:1 200:1 257:1 
1 36:1 49:1 87:1 189:1 204:1 248:1 
1 7:1 23:1 49:1 95:1 193:1 
1 49:1 80:1 147:1 233:1 
1 49:1 87:1 147:1 192:1 206:1 251:1 257:1 
1 49:1 53:1 87:1 89:1 90:1 93:1 
1 23:1 83:1 87:1 119:1 127:1 132:1 153:1 192:1 199:1 257:1 
1 49:1 87:1 245:1 257:1 
1 252:1 
1 49:1 50:1 146:1 188:1 
1 49:1 80:1 123:1 138:1 261:1 
1 49:1 58:1 87:1 93:1 98:1 122:1 193:1 248:1 257:1 
1 49:1 53:1 87:1 127:1 144:1 146:1 193:1 
1 49:1 150:1 
1 49:1 87:1 89:1 122:1 147:1 150:1 
1 49:1 76:1 90:1 147:1 
1 3:1 7:1 59:1 78:1 142:1 148:1 159:1 199:1 200:1 248:1 257:1 
1 75:1 87:1 90:1 155:1 189:1 192:1 194:1 200:1 233:1 257:1 
1 24:1 49:1 191:1 199:1 247:1 248:1 
1 73:1 
1 26:1 49:1 53:1 87:1 150:1 
1 3:1 23:1 24:1 83:1 84:1 194:1 200:1 233:1 251:1 257:1 
1 83:1 252:1 
1 18:1 52:1 75:1 144:1 189:1 
1 49:1 75:1 93:1 192:1 193:1 194:1 244:1 
1 47:1 80:1 117:1 123:1 132:1 156:1 192:1 193:1 242:1 245:1 248:1 
1 29:1 32:1 77:1 84:1 87:1 193:1 248:1 
1 78:1 193:1 242:1 
1 7:1 53:1 58:1 87:1 93:1 116:1 117:1 186:1 248:1 254:1 
1 10:1 14:1 29:1 75:1 87:1 
1 69:1 84:1 193:1 221:1 
1 49:1 80:1 200:1 233:1 257:1 
1 4:1 76:1 83:1 87:1 98:1 188:1 192:1 193:1 201:1 214:1 
1 117:1 191:1 199:1 257:1 
1 257:1 
1 148:1 164:1 185:1 189:1 194:1 
1 8:1 24:1 75:1 80:1 134:1 191:1 201:1 248:1 
1 38:1 49:1 229:1 248:1 
1 117:1 193:1 214:1 252:1 257:1 
1 49:1 55:1 58:1 189:1 192:1 214:1 
1 59:1 76:1 78:1 90:1 122:1 123:1 192:1 200:1 221:1 245:1 246:1 247:1 
1 87:1 115:1 170:1 185:1 
1 49:1 192:1 251:1 257:1 258:1 
1 43:1 63:1 64:1 116:1 126:1 152:1 189:1 194:1 200:1 248:1 
1 58:1 112:1 117:1 252:1 257:1 
1 248:1 
1 7:1 76:1 193:1 225:1 228:1 233:1 240:1 246:1 
1 80:1 92:1 97:1 104:1 116:1 135:1 200:1 221:1 
1 19:1 53:1 78:1 127:1 151:1 164:1 251:1 
1 54:1 115:1 116:1 150:1 194:1 
1 49:1 194:1 233:1 251:1 
1 73:1 107:1 192:1 193:1 194:1 200:1 244:1 247:1 257:1 
1 89:1 127:1 150:1 188:1 219:1 225:1 248:1 
1 84:1 193:1 200:1 248:1 251:1 257:1 
1 53:1 117:1 123:1 192:1 193:1 214:1 221:1 
1 53:1 75:1 87:1 117:1 192:1 220:1 
1 95:1 106:1 245:1 
1 29:1 193:1 
1 49:1 53:1 87:1 149:1 251:1 257:1 
1 48:1 87:1 150:1 192:1 200:1 245:1 
1 77:1 
1 113:1 117:1 252:1 
1 49:1 82:1 87:1 90:1 91:1 148:1 150:1 192:1 193:1 245:1 
1 49:1 233:1 
1 24:1 
1 59:1 69:1 73:1 78:1 82:1 116:1 130:1 200:1 257:1 
1 85:1 87:1 90:1 94:1 116:1 119:1 193:1 198:1 257:1 
1 83:1 87:1 108:1 115:1 194:1 257:1 
1 8:1 149:1 
1 7:1 239:1 245:1 252:1 
1 14:1 130:1 
1 32:1 49:1 53:1 55:1 87:1 89:1 90:1 
1 48:1 73:1 78:1 115:1 123:1 192:1 194:1 245:1 257:1 
1 191:1 200:1 228:1 233:1 248:1 
1 115:1 164:1 185:1 194:1 200:1 257:1 
1 41:1 43:1 186:1 245:1 
1 53:1 77:1 200:1 257:1 
1 44:1 48:1 59:1 83:1 93:1 123:1 162:1 164:1 200:1 248:1 
1 73:1 87:1 140:1 152:1 191:1 194:1 195:1 
1 83:1 87:1 148:1 194:1 219:1 257:1 
1 7:1 73:1 117:1 125:1 164:1 194:1 251:1 252:1 257:1 
1 23:1 77:1 83:1 105:1 107:1 189:1 
1 23:1 48:1 200:1 
1 75:1 123:1 194:1 
1 24:1 42:1 193:1 201:1 257:1 
1 49:1 53:1 87:1 95:1 144:1 152:1 214:1 221:1 
1 23:1 49:1 257:1 
1 49:1 53:1 84:1 95:1 194:1 226:1 248:1 257:1 
1 70:1 73:1 87:1 233:1 239:1 
1 7:1 24:1 49:1 89:1 90:1 220:1 
1 49:1 53:1 87:1 115:1 142:1 149:1 152:1 156:1 
1 48:1 84:1 90:1 155:1 186:1 225:1 233:1 
1 4:1 47:1 53:1 75:1 123:1 219:1 
1 3:1 4:1 58:1 81:1 127:1 206:1 
1 53:1 87:1 110:1 186:1 194:1 200:1 257:1 
1 49:1 75:1 194:1 200:1 221:1 242:1 
1 89:1 90:1 98:1 101:1 116:1 117:1 127:1 189:1 
1 83:1 206:1 
1 241:1 242:1 
1 49:1 53:1 78:1 87:1 98:1 105:1 
1 73:1 258:1 
1 70:1 75:1 87:1 91:1 127:1 189:1 192:1 194:1 199:1 200:1 219:1 248:1 
1 49:1 63:1 95:1 106:1 115:1 123:1 142:1 186:1 206:1 248:1 
1 48:1 75:1 87:1 112:1 159:1 200:1 
1 59:1 87:1 106:1 107:1 117:1 193:1 194:1 248:1 251:1 257:1 
1 72:1 98:1 193:1 194:1 200:1 219:1 228:1 257:1 
1 49:1 189:1 251:1 
1 48:1 75:1 87:1 117:1 132:1 192:1 
1 55:1 58:1 87:1 110:1 112:1 191:1 192:1 193:1 194:1 200:1 246:1 257:1 
1 51:1 87:1 89:1 90:1 150:1 189:1 200:1 
1 44:1 49:1 148:1 245:1 246:1 247:1 
1 49:1 93:1 156:1 259:1 
1 25:1 47:1 49:1 53:1 77:1 87:1 148:1 189:1 200:1 
1 49:1 59:1 90:1 122:1 192:1 
1 83:1 90:1 199:1 243:1 248:1 
1 49:1 87:1 146:1 147:1 219:1 
1 50:1 58:1 84:1 87:1 198:1 
1 32:1 87:1 127:1 148:1 248:1 
1 23:1 75:1 248:1 
1 49:1 53:1 220:1 248:1 
1 85:1 90:1 93:1 144:1 
1 47:1 116:1 193:1 251:1 257:1 
1 53:1 64:1 87:1 104:1 106:1 116:1 193:1 
1 29:1 49:1 122:1 200:1 245:1 
1 84:1 108:1 186:1 194:1 227:1 241:1 248:1 
1 57:1 127:1 150:1 193:1 248:1 
1 49:1 53:1 77:1 87:1 
1 84:1 111:1 116:1 117:1 200:1 251:1 257:1 
1 47:1 48:1 81:1 84:1 109:1 144:1 189:1 193:1 200:1 214:1 228:1 
1 24:1 87:1 189:1 191:1 199:1 
1 68:1 75:1 151:1 189:1 192:1 199:1 228:1 251:1 
1 49:1 87:1 91:1 134:1 192:1 
1 69:1 80:1 84:1 87:1 91:1 218:1 233:1 257:1 260:1 
1 106:1 140:1 142:1 146:1 192:1 194:1 248:1 
1 48:1 53:1 90:1 93:1 187:1 206:1 
1 73:1 117:1 123:1 156:1 248:1 251:1 257:1 
1 24:1 
1 116:1 123:1 
1 9:1 49:1 50:1 53:1 186:1 245:1 
1 49:1 75:1 77:1 98:1 146:1 248:1 
1 38:1 41:1 
1 23:1 84:1 228:1 
1 87:1 97:1 128:1 146:1 
1 53:1 59:1 83:1 87:1 98:1 116:1 191:1 
1 87:1 93:1 192:1 248:1 257:1 
1 79:1 111:1 115:1 144:1 189:1 193:1 
1 49:1 53:1 76:1 83:1 89:1 90:1 146:1 150:1 248:1 
1 11:1 
1 192:1 199:1 200:1 248:1 251:1 
1 76:1 90:1 116:1 194:1 
1 48:1 59:1 192:1 193:1 194:1 247:1 
1 49:1 87:1 117:1 123:1 143:1 192:1 200:1 
1 4:1 5:1 87:1 191:1 192:1 
1 85:1 90:1 106:1 115:1 116:1 189:1 218:1 222:1 
1 24:1 53:1 95:1 138:1 193:1 221:1 
1 87:1 123:1 189:1 222:1 233:1 252:1 
1 53:1 76:1 77:1 83:1 87:1 90:1 115:1 150:1 191:1 
1 44:1 83:1 112:1 130:1 152:1 194:1 
1 53:1 127:1 130:1 144:1 192:1 194:1 200:1 251:1 
1 84:1 95:1 191:1 194:1 200:1 
1 24:1 48:1 52:1 59:1 77:1 87:1 147:1 192:1 
1 53:1 87:1 194:1 221:1 233:1 251:1 257:1 259:1 
1 87:1 188:1 192:1 
1 76:1 83:1 194:1 248:1 
1 23:1 44:1 49:1 87:1 92:1 151:1 270:1 
1 23:1 84:1 90:1 116:1 122:1 221:1 233:1 253:1 257:1 
1 49:1 150:1 
1 89:1 133:1 186:1 193:1 235:1 
1 23:1 127:1 132:1 152:1 194:1 247:1 248:1 251:1 
1 22:1 42:1 94:1 122:1 189:1 
1 84:1 95:1 150:1 164:1 189:1 193:1 206:1 244:1 246:1 248:1 
1 175:1 185:1 242:1 
1 53:1 81:1 89:1 90:1 123:1 191:1 194:1 
1 73:1 84:1 115:1 159:1 193:1 257:1 
1 4:1 78:1 152:1 193:1 
1 49:1 87:1 90:1 106:1 144:1 151:1 189:1 193:1 220:1 224:1 248:1 
1 53:1 87:1 165:1 193:1 194:1 251:1 257:1 
1 53:1 122:1 199:1 200:1 221:1 
1 81:1 83:1 87:1 90:1 107:1 192:1 194:1 
1 83:1 87:1 89:1 90:1 116:1 257:1 
1 23:1 36:1 48:1 75:1 95:1 135:1 
1 48:1 59:1 95:1 192:1 200:1 242:1 
1 23:1 53:1 84:1 87:1 89:1 90:1 115:1 116:1 117:1 127:1 
1 214:1 257:1 
1 77:1 87:1 189:1 
1 84:1 257:1 
1 49:1 75:1 77:1 89:1 90:1 200:1 
1 23:1 49:1 53:1 75:1 85:1 87:1 186:1 194:1 
1 49:1 150:1 
1 24:1 214:1 
1 48:1 53:1 55:1 57:1 59:1 87:1 122:1 192:1 194:1 200:1 231:1 248:1 
1 49:1 51:1 87:1 123:1 189:1 192:1 200:1 248:1 
1 24:1 49:1 53:1 115:1 117:1 193:1 241:1 
1 3:1 19:1 38:1 41:1 117:1 122:1 
1 24:1 
1 123:1 193:1 200:1 248:1 
1 90:1 150:1 186:1 240:1 
1 6:1 54:1 87:1 146:1 
1 75:1 122:1 194:1 257:1 
1 25:1 41:1 251:1 257:1 
1 89:1 164:1 
1 7:1 84:1 117:1 123:1 189:1 200:1 251:1 252:1 
1 75:1 148:1 156:1 159:1 214:1 248:1 257:1 
1 24:1 49:1 84:1 87:1 150:1 231:1 
1 29:1 49:1 75:1 80:1 83:1 87:1 193:1 242:1 251:1 
1 87:1 194:1 
1 49:1 53:1 87:1 116:1 117:1 123:1 149:1 
1 49:1 50:1 186:1 
1 53:1 83:1 84:1 189:1 193:1 200:1 251:1 
1 29:1 53:1 87:1 111:1 116:1 152:1 201:1 233:1 
1 48:1 58:1 95:1 123:1 193:1 194:1 221:1 251:1 257:1 
1 194:1 
1 49:1 53:1 87:1 116:1 117:1 127:1 200:1 
1 48:1 53:1 80:1 87:1 90:1 189:1 192:1 
1 49:1 75:1 82:1 87:1 91:1 248:1 
1 107:1 116:1 122:1 135:1 244:1 
1 123:1 126:1 144:1 248:1 
1 32:1 53:1 87:1 192:1 200:1 221:1 
1 77:1 84:1 87:1 192:1 
1 29:1 53:1 87:1 91:1 152:1 191:1 200:1 244:1 
1 49:1 53:1 73:1 87:1 90:1 116:1 234:1 
1 18:1 158:1 191:1 194:1 251:1 
1 233:1 
1 123:1 
1 49:1 53:1 59:1 87:1 89:1 97:1 123:1 146:1 189:1 191:1 
1 111:1 189:1 194:1 248:1 
1 10:1 82:1 200:1 248:1 
1 48:1 53:1 75:1 81:1 93:1 127:1 148:1 189:1 247:1 
1 24:1 84:1 189:1 257:1 
1 191:1 200:1 263:1 
1 53:1 87:1 89:1 116:1 193:1 194:1 
1 11:1 53:1 79:1 144:1 193:1 200:1 
1 58:1 248:1 251:1 257:1 
1 116:1 122:1 
1 53:1 84:1 87:1 93:1 111:1 192:1 194:1 201:1 231:1 244:1 
1 23:1 82:1 83:1 164:1 221:1 251:1 
1 7:1 76:1 87:1 193:1 248:1 
1 75:1 87:1 115:1 189:1 
1 53:1 159:1 189:1 192:1 
1 90:1 116:1 117:1 122:1 192:1 194:1 198:1 248:1 
1 25:1 193:1 
1 55:1 87:1 117:1 123:1 186:1 192:1 
1 23:1 44:1 53:1 68:1 83:1 87:1 90:1 106:1 147:1 225:1 
1 47:1 52:1 59:1 192:1 193:1 259:1 270:1 
1 193:1 194:1 242:1 257:1 
1 4:1 23:1 83:1 106:1 115:1 116:1 123:1 189:1 244:1 
1 59:1 62:1 75:1 83:1 95:1 193:1 
1 53:1 191:1 194:1 200:1 245:1 248:1 
1 84:1 87:1 192:1 193:1 
1 48:1 84:1 87:1 94:1 
1 49:1 59:1 89:1 90:1 127:1 186:1 248:1 
1 115:1 123:1 
1 115:1 117:1 123:1 142:1 164:1 191:1 193:1 199:1 
1 52:1 72:1 94:1 95:1 193:1 200:1 
1 48:1 75:1 189:1 
1 7:1 49:1 53:1 75:1 77:1 87:1 148:1 194:1 
1 47:1 73:1 116:1 193:1 194:1 
1 47:1 53:1 75:1 83:1 194:1 224:1 
1 49:1 87:1 105:1 146:1 
1 53:1 87:1 117:1 122:1 192:1 193:1 200:1 219:1 221:1 
1 23:1 53:1 59:1 83:1 189:1 192:1 200:1 241:1 257:1 
1 7:1 109:1 122:1 123:1 185:1 219:1 
1 34:1 87:1 116:1 127:1 191:1 192:1 193:1 248:1 
1 48:1 164:1 193:1 199:1 
1 19:1 49:1 87:1 89:1 148:1 
1 48:1 83:1 87:1 95:1 
1 47:1 127:1 193:1 250:1 
1 38:1 57:1 221:1 
1 47:1 131:1 132:1 194:1 200:1 214:1 
1 51:1 115:1 127:1 189:1 193:1 194:1 201:1 
1 38:1 49:1 53:1 87:1 227:1 
1 49:1 87:1 130:1 144:1 150:1 191:1 248:1 257:1 
1 192:1 193:1 200:1 241:1 
1 257:1 
1 53:1 87:1 90:1 98:1 188:1 
1 75:1 76:1 80:1 82:1 83:1 116:1 117:1 127:1 144:1 193:1 240:1 
1 4:1 77:1 78:1 83:1 87:1 189:1 248:1 257:1 
1 83:1 87:1 130:1 187:1 189:1 248:1 251:1 257:1 
1 26:1 53:1 58:1 214:1 251:1 257:1 
1 175:1 185:1 233:1 
1 49:1 76:1 116:1 122:1 132:1 
1 23:1 77:1 83:1 85:1 87:1 90:1 116:1 248:1 
1 123:1 138:1 192:1 193:1 248:1 
1 192:1 194:1 
1 95:1 123:1 
1 49:1 75:1 240:1 
1 53:1 77:1 78:1 115:1 
1 77:1 193:1 221:1 
1 185:1 227:1 
1 87:1 112:1 192:1 220:1 233:1 248:1 
1 80:1 98:1 141:1 193:1 194:1 239:1 
1 175:1 185:1 
1 97:1 194:1 
1 23:1 78:1 83:1 84:1 200:1 
1 115:1 122:1 189:1 257:1 
1 49:1 50:1 53:1 87:1 115:1 193:1 201:1 
1 87:1 90:1 116:1 124:1 192:1 194:1 200:1 
1 49:1 130:1 248:1 
1 53:1 75:1 87:1 89:1 187:1 
1 39:1 95:1 127:1 186:1 194:1 245:1 248:1 
1 49:1 53:1 189:1 200:1 
1 254:1 
1 41:1 49:1 87:1 248:1 
1 150:1 
1 81:1 84:1 117:1 189:1 201:1 
1 24:1 193:1 194:1 200:1 
1 24:1 76:1 
1 49:1 53:1 87:1 191:1 
1 90:1 93:1 231:1 257:1 
1 81:1 115:1 194:1 200:1 220:1 
1 82:1 185:1 
1 48:1 77:1 82:1 87:1 90:1 92:1 127:1 138:1 152:1 
1 111:1 116:1 193:1 200:1 214:1 221:1 231:1 
1 24:1 248:1 251:1 
1 53:1 84:1 87:1 91:1 123:1 193:1 242:1 248:1 
1 47:1 201:1 252:1 
1 84:1 90:1 91:1 123:1 189:1 193:1 194:1 
1 76:1 189:1 192:1 194:1 195:1 200:1 219:1 
1 127:1 192:1 244:1 251:1 
1 48:1 97:1 103:1 152:1 
1 115:1 148:1 233:1 
1 59:1 80:1 83:1 87:1 127:1 192:1 193:1 194:1 
1 53:1 80:1 189:1 200:1 245:1 
1 54:1 73:1 115:1 117:1 194:1 200:1 
1 76:1 87:1 116:1 132:1 156:1 194:1 200:1 
1 95:1 
1 49:1 53:1 54:1 87:1 155:1 191:1 248:1 
1 141:1 149:1 
1 53:1 77:1 90:1 95:1 140:1 
1 49:1 252:1 259:1 
1 49:1 84:1 189:1 193:1 194:1 221:1 251:1 257:1 270:1 
1 11:1 49:1 
1 8:1 77:1 79:1 87:1 91:1 200:1 
1 194:1 200:1 248:1 251:1 257:1 
1 112:1 
1 7:1 93:1 112:1 189:1 193:1 221:1 242:1 
1 47:1 73:1 123:1 138:1 189:1 194:1 233:1 
1 192:1 200:1 251:1 
1 75:1 80:1 115:1 
1 49:1 75:1 147:1 
1 29:1 49:1 87:1 90:1 152:1 200:1 
1 78:1 87:1 106:1 122:1 191:1 199:1 200:1 225:1 233:1 248:1 
1 3:1 26:1 87:1 115:1 150:1 156:1 189:1 
1 53:1 87:1 152:1 193:1 
1 185:1 
1 49:1 53:1 78:1 138:1 
1 87:1 93:1 115:1 117:1 191:1 206:1 
1 252:1 
1 111:1 186:1 
1 49:1 123:1 200:1 
1 44:1 
1 49:1 53:1 257:1 
1 24:1 73:1 75:1 77:1 82:1 91:1 130:1 
1 48:1 95:1 
1 59:1 106:1 122:1 194:1 215:1 257:1 
1 23:1 53:1 77:1 87:1 89:1 90:1 123:1 189:1 
1 193:1 200:1 
1 193:1 197:1 200:1 248:1 
1 70:1 90:1 124:1 200:1 
1 38:1 48:1 49:1 53:1 84:1 87:1 193:1 
1 87:1 115:1 189:1 192:1 221:1 248:1 
1 49:1 75:1 83:1 87:1 
1 47:1 53:1 87:1 192:1 194:1 
1 48:1 123:1 194:1 
1 115:1 187:1 192:1 
1 53:1 87:1 90:1 109:1 194:1 233:1 
1 117:1 193:1 194:1 
1 59:1 62:1 90:1 116:1 122:1 127:1 193:1 194:1 248:1 
1 7:1 81:1 
1 55:1 68:1 87:1 148:1 240:1 248:1 
1 53:1 85:1 127:1 
1 87:1 95:1 242:1 248:1 
1 73:1 89:1 90:1 200:1 246:1 
1 87:1 193:1 194:1 200:1 261:1 
1 49:1 87:1 193:1 200:1 248:1 251:1 257:1 
1 24:1 53:1 110:1 193:1 248:1 
1 49:1 87:1 90:1 
1 49:1 87:1 193:1 
1 47:1 48:1 80:1 116:1 142:1 156:1 195:1 202:1 221:1 251:1 
1 87:1 189:1 192:1 
1 192:1 194:1 239:1 257:1 
1 36:1 79:1 221:1 
1 7:1 64:1 87:1 193:1 
1 4:1 193:1 221:1 
1 246:1 252:1 257:1 
1 7:1 85:1 193:1 194:1 201:1 
1 78:1 127:1 148:1 152:1 189:1 244:1 
1 49:1 53:1 87:1 130:1 248:1 
1 132:1 189:1 200:1 245:1 
1 22:1 81:1 130:1 189:1 246:1 
1 53:1 77:1 87:1 200:1 
1 87:1 127:1 189:1 
1 9:1 53:1 73:1 80:1 192:1 201:1 257:1 
1 36:1 42:1 122:1 
1 87:1 116:1 117:1 125:1 194:1 251:1 
1 53:1 84:1 87:1 90:1 116:1 142:1 191:1 
1 8:1 87:1 123:1 127:1 144:1 160:1 194:1 
1 89:1 111:1 138:1 148:1 222:1 234:1 
1 49:1 
1 149:1 214:1 
1 53:1 144:1 194:1 246:1 248:1 
1 87:1 95:1 144:1 191:1 248:1 
1 87:1 122:1 193:1 194:1 
1 160:1 189:1 193:1 219:1 
1 84:1 193:1 194:1 200:1 
1 125:1 148:1 201:1 218:1 
1 138:1 185:1 
1 157:1 248:1 251:1 257:1 
1 194:1 200:1 251:1 
1 87:1 116:1 117:1 
1 93:1 130:1 150:1 
1 73:1 232:1 247:1 251:1 257:1 
1 49:1 53:1 87:1 148:1 191:1 
1 49:1 53:1 87:1 191:1 
1 44:1 117:1 152:1 193:1 257:1 
1 53:1 87:1 123:1 155:1 193:1 200:1 
1 117:1 123:1 
1 4:1 117:1 248:1 251:1 
1 270:1 
1 59:1 93:1 106:1 201:1 247:1 248:1 
1 23:1 38:1 90:1 
1 75:1 90:1 98:1 193:1 
1 49:1 50:1 58:1 87:1 90:1 193:1 
1 53:1 109:1 192:1 194:1 
1 53:1 87:1 106:1 193:1 233:1 
1 87:1 200:1 245:1 
1 23:1 87:1 194:1 
1 53:1 76:1 78:1 85:1 87:1 123:1 
1 59:1 148:1 193:1 200:1 
1 23:1 39:1 90:1 117:1 189:1 193:1 200:1 242:1 
1 148:1 194:1 200:1 202:1 240:1 
1 24:1 77:1 78:1 116:1 244:1 251:1 
1 18:1 87:1 140:1 150:1 
1 83:1 87:1 89:1 144:1 193:1 200:1 257:1 
1 192:1 193:1 221:1 
1 59:1 87:1 164:1 189:1 192:1 193:1 194:1 221:1 243:1 248:1 
1 53:1 70:1 84:1 87:1 90:1 95:1 127:1 245:1 
1 129:1 
1 53:1 87:1 152:1 192:1 193:1 
1 7:1 200:1 
1 2:1 221:1 257:1 
1 53:1 76:1 77:1 83:1 84:1 87:1 95:1 98:1 220:1 228:1 
1 49:1 53:1 87:1 221:1 
1 49:1 80:1 193:1 194:1 248:1 
1 193:1 
1 69:1 122:1 140:1 189:1 200:1 201:1 
1 76:1 80:1 144:1 194:1 200:1 
1 14:1 18:1 53:1 87:1 
1 117:1 
1 49:1 87:1 89:1 90:1 97:1 
1 80:1 193:1 245:1 257:1 
1 106:1 117:1 191:1 199:1 
1 192:1 200:1 234:1 257:1 
1 29:1 87:1 90:1 
1 24:1 144:1 194:1 
1 
1 77:1 144:1 
1 49:1 53:1 87:1 90:1 233:1 
1 159:1 193:1 
1 84:1 115:1 193:1 221:1 
1 5:1 194:1 200:1 
1 53:1 87:1 117:1 221:1 
1 51:1 72:1 148:1 194:1 
1 130:1 194:1 233:1 245:1 
1 49:1 53:1 87:1 116:1 193:1 
1 87:1 90:1 116:1 193:1 
1 129:1 188:1 
1 81:1 124:1 
1 47:1 53:1 58:1 218:1 
1 7:1 75:1 115:1 
1 10:1 81:1 115:1 233:1 242:1 
1 49:1 62:1 144:1 
1 53:1 87:1 143:1 214:1 251:1 263:1 
1 192:1 193:1 
1 49:1 53:1 78:1 84:1 87:1 117:1 192:1 195:1 220:1 248:1 257:1 
1 4:1 115:1 156:1 193:1 263:1 
1 23:1 47:1 84:1 90:1 123:1 200:1 
1 83:1 87:1 90:1 105:1 193:1 194:1 228:1 247:1 
1 185:1 
1 49:1 53:1 90:1 95:1 251:1 
1 49:1 83:1 90:1 111:1 115:1 194:1 
1 69:1 111:1 122:1 
1 23:1 87:1 98:1 222:1 233:1 
1 49:1 116:1 
1 81:1 115:1 189:1 248:1 
1 49:1 224:1 
1 53:1 116:1 197:1 
1 47:1 111:1 132:1 143:1 200:1 257:1 
1 87:1 
1 23:1 115:1 116:1 123:1 200:1 201:1 224:1 
1 53:1 87:1 194:1 
1 48:1 78:1 112:1 117:1 124:1 165:1 204:1 251:1 
1 52:1 87:1 192:1 
1 44:1 78:1 116:1 148:1 
1 4:1 23:1 77:1 
1 49:1 193:1 
1 130:1 141:1 185:1 257:1 
1 72:1 
1 112:1 194:1 
1 87:1 93:1 193:1 
1 59:1 150:1 192:1 253:1 
1 48:1 52:1 76:1 87:1 189:1 193:1 
1 24:1 84:1 123:1 194:1 
1 151:1 194:1 
1 115:1 162:1 
1 83:1 87:1 115:1 194:1 251:1 257:1 
1 49:1 76:1 87:1 150:1 186:1 228:1 
1 73:1 87:1 192:1 193:1 194:1 200:1 
1 53:1 87:1 89:1 116:1 122:1 
1 29:1 122:1 148:1 149:1 193:1 194:1 
1 3:1 
1 3:1 130:1 142:1 189:1 
1 53:1 83:1 84:1 115:1 219:1 220:1 228:1 
1 23:1 115:1 193:1 194:1 
1 91:1 132:1 144:1 244:1 245:1 
1 80:1 84:1 116:1 138:1 193:1 240:1 
1 185:1 
1 49:1 193:1 194:1 200:1 
1 49:1 78:1 
1 41:1 79:1 81:1 248:1 
1 124:1 140:1 164:1 193:1 245:1 
1 23:1 48:1 49:1 53:1 87:1 90:1 116:1 133:1 194:1 200:1 
1 251:1 252:1 
1 49:1 81:1 82:1 225:1 257:1 
1 115:1 194:1 222:1 
1 23:1 53:1 76:1 87:1 94:1 115:1 152:1 189:1 194:1 
1 77:1 82:1 156:1 193:1 194:1 214:1 
1 49:1 54:1 109:1 144:1 200:1 
1 49:1 87:1 98:1 
1 87:1 95:1 103:1 116:1 122:1 193:1 
1 53:1 87:1 90:1 91:1 195:1 240:1 
1 84:1 87:1 134:1 194:1 214:1 
1 116:1 
1 79:1 127:1 
1 59:1 79:1 95:1 224:1 
1 4:1 49:1 53:1 87:1 89:1 112:1 235:1 
1 48:1 49:1 90:1 221:1 248:1 
1 
1 87:1 116:1 193:1 194:1 
1 87:1 198:1 248:1 
1 85:1 93:1 189:1 252:1 
1 62:1 193:1 194:1 233:1 248:1 251:1 
1 26:1 164:1 194:1 201:1 221:1 233:1 248:1 251:1 
1 109:1 127:1 152:1 189:1 194:1 251:1 
1 82:1 87:1 187:1 193:1 251:1 
1 3:1 7:1 104:1 221:1 
1 193:1 247:1 
1 24:1 185:1 
1 116:1 
1 49:1 87:1 90:1 146:1 
1 53:1 87:1 90:1 193:1 246:1 257:1 
1 84:1 112:1 189:1 
1 148:1 251:1 
1 48:1 53:1 87:1 90:1 193:1 194:1 200:1 257:1 
1 49:1 53:1 75:1 87:1 
1 130:1 148:1 251:1 252:1 257:1 
1 82:1 149:1 164:1 200:1 228:1 
1 7:1 49:1 53:1 87:1 90:1 148:1 
1 70:1 80:1 
1 98:1 192:1 
1 49:1 53:1 87:1 116:1 192:1 
1 23:1 48:1 54:1 73:1 192:1 
1 
1 11:1 22:1 44:1 49:1 77:1 90:1 91:1 93:1 97:1 104:1 116:1 117:1 130:1 132:1 152:1 193:1 247:1 248:1 257:1 
1 80:1 84:1 194:1 225:1 
1 73:1 87:1 188:1 
1 11:1 84:1 
1 53:1 115:1 123:1 127:1 240:1 248:1 
1 22:1 77:1 83:1 115:1 122:1 200:1 
1 24:1 77:1 80:1 228:1 
1 49:1 
1 93:1 94:1 253:1 
1 4:1 191:1 193:1 
1 239:1 248:1 251:1 
1 150:1 
1 194:1 251:1 
1 44:1 72:1 87:1 127:1 193:1 251:1 257:1 
1 9:1 48:1 77:1 156:1 193:1 194:1 224:1 248:1 
1 49:1 53:1 75:1 87:1 192:1 200:1 
1 87:1 90:1 193:1 246:1 
1 77:1 90:1 91:1 
1 75:1 81:1 95:1 115:1 194:1 200:1 
1 76:1 83:1 87:1 90:1 148:1 
1 49:1 53:1 87:1 
1 53:1 87:1 112:1 
1 49:1 77:1 90:1 
1 89:1 90:1 193:1 
1 48:1 53:1 76:1 193:1 194:1 250:1 
1 47:1 78:1 83:1 
1 87:1 116:1 245:1 
1 2:1 130:1 138:1 185:1 
1 2:1 78:1 81:1 97:1 146:1 
1 58:1 189:1 207:1 
1 148:1 189:1 197:1 251:1 257:1 
1 7:1 90:1 193:1 
1 193:1 195:1 232:1 233:1 242:1 
1 83:1 108:1 117:1 123:1 194:1 
1 49:1 55:1 79:1 87:1 97:1 146:1 192:1 233:1 
1 87:1 
1 123:1 
1 84:1 251:1 257:1 
1 200:1 251:1 257:1 
1 53:1 83:1 87:1 156:1 
1 49:1 77:1 93:1 
1 87:1 193:1 195:1 
1 257:1 
1 73:1 193:1 194:1 
1 52:1 53:1 76:1 104:1 
1 81:1 83:1 115:1 
1 53:1 75:1 105:1 192:1 
1 80:1 189:1 221:1 
1 87:1 130:1 233:1 244:1 
1 49:1 225:1 248:1 
1 186:1 
1 49:1 50:1 53:1 59:1 87:1 142:1 198:1 
1 49:1 53:1 87:1 191:1 
1 23:1 
1 194:1 200:1 
1 24:1 75:1 164:1 219:1 
1 233:1 
1 204:1 
1 87:1 90:1 193:1 200:1 240:1 
1 49:1 92:1 105:1 194:1 246:1 
1 84:1 233:1 248:1 
1 192:1 195:1 200:1 
1 3:1 5:1 122:1 153:1 231:1 
1 252:1 
1 115:1 207:1 
1 80:1 95:1 
1 191:1 193:1 
1 49:1 77:1 115:1 219:1 
1 257:1 
1 49:1 87:1 153:1 
1 72:1 73:1 91:1 117:1 192:1 195:1 241:1 
1 18:1 28:1 
1 28:1 114:1 130:1 193:1 194:1 206:1 247:1 
1 189:1 
1 81:1 189:1 205:1 219:1 242:1 
1 115:1 200:1 244:1 257:1 
1 7:1 23:1 75:1 90:1 228:1 
1 123:1 251:1 257:1 
1 18:1 49:1 
1 122:1 200:1 257:1 
1 7:1 115:1 117:1 228:1 
1 70:1 85:1 224:1 
1 189:1 195:1 
1 53:1 193:1 194:1 251:1 
1 53:1 76:1 85:1 87:1 
1 49:1 53:1 117:1 193:1 257:1 
1 78:1 112:1 115:1 144:1 
1 49:1 87:1 152:1 193:1 
1 84:1 87:1 95:1 127:1 251:1 257:1 
1 5:1 87:1 192:1 246:1 
1 49:1 225:1 228:1 
1 87:1 91:1 93:1 112:1 193:1 234:1 
1 23:1 116:1 192:1 201:1 240:1 
1 53:1 87:1 89:1 90:1 193:1 
1 49:1 53:1 117:1 127:1 194:1 248:1 
1 75:1 87:1 108:1 193:1 200:1 
1 49:1 87:1 125:1 192:1 193:1 251:1 
1 115:1 194:1 257:1 
1 49:1 122:1 193:1 
1 4:1 8:1 149:1 
1 80:1 84:1 90:1 130:1 152:1 187:1 193:1 
1 4:1 14:1 134:1 142:1 201:1 
1 84:1 87:1 193:1 257:1 
1 23:1 24:1 53:1 201:1 
1 123:1 192:1 193:1 
1 191:1 243:1 
1 47:1 80:1 193:1 194:1 
1 73:1 84:1 87:1 240:1 
1 49:1 54:1 84:1 87:1 
1 49:1 53:1 78:1 87:1 90:1 95:1 
1 49:1 87:1 233:1 
1 116:1 248:1 
1 251:1 
1 152:1 
1 59:1 186:1 194:1 200:1 214:1 221:1 229:1 
1 193:1 
1 49:1 53:1 87:1 89:1 93:1 193:1 200:1 248:1 
1 189:1 
1 142:1 189:1 
1 49:1 53:1 87:1 90:1 192:1 245:1 
1 251:1 257:1 
1 73:1 81:1 115:1 186:1 
1 257:1 
1 48:1 49:1 87:1 
1 49:1 87:1 193:1 
1 49:1 87:1 156:1 257:1 
1 48:1 193:1 194:1 
1 93:1 105:1 148:1 192:1 194:1 206:1 
1 23:1 84:1 87:1 
1 87:1 
1 115:1 193:1 221:1 
1 53:1 162:1 200:1 248:1 251:1 257:1 
1 68:1 83:1 194:1 
1 58:1 148:1 192:1 194:1 252:1 
1 10:1 84:1 200:1 244:1 257:1 
1 53:1 85:1 193:1 194:1 
1 53:1 115:1 221:1 
1 53:1 87:1 90:1 95:1 146:1 193:1 
1 189:1 
1 194:1 
1 53:1 84:1 87:1 90:1 
1 104:1 
1 49:1 78:1 115:1 194:1 200:1 
1 81:1 115:1 123:1 194:1 
1 83:1 116:1 117:1 200:1 233:1 
1 53:1 115:1 127:1 193:1 
1 87:1 116:1 193:1 200:1 257:1 
1 80:1 87:1 123:1 189:1 200:1 221:1 
1 84:1 
1 112:1 252:1 257:1 
1 112:1 189:1 
1 
1 
1 81:1 115:1 185:1 189:1 242:1 
1 49:1 53:1 87:1 
1 124:1 252:1 257:1 
1 22:1 54:1 80:1 87:1 127:1 
1 4:1 117:1 257:1 
1 4:1 75:1 104:1 
1 87:1 127:1 191:1 257:1 
1 49:1 59:1 84:1 224:1 246:1 
1 7:1 193:1 194:1 
1 
1 75:1 87:1 192:1 
1 79:1 81:1 
1 49:1 53:1 87:1 
1 26:1 58:1 251:1 
1 115:1 228:1 257:1 
1 24:1 189:1 198:1 245:1 
1 87:1 123:1 201:1 257:1 
1 49:1 72:1 117:1 222:1 
1 73:1 160:1 194:1 252:1 
1 228:1 
1 115:1 192:1 245:1 
1 152:1 252:1 270:1 
1 51:1 
1 115:1 135:1 193:1 194:1 200:1 221:1 
1 53:1 75:1 109:1 125:1 206:1 233:1 247:1 
1 49:1 84:1 116:1 218:1 
1 122:1 218:1 
1 49:1 53:1 87:1 192:1 194:1 257:1 
1 141:1 257:1 
1 160:1 192:1 200:1 257:1 
1 113:1 122:1 246:1 
1 3:1 49:1 146:1 
1 34:1 194:1 251:1 257:1 
1 44:1 89:1 90:1 112:1 127:1 
1 10:1 90:1 111:1 115:1 
1 23:1 192:1 193:1 
1 14:1 83:1 87:1 200:1 
1 49:1 53:1 193:1 251:1 255:1 
1 57:1 187:1 239:1 
1 193:1 
1 7:1 
1 77:1 193:1 248:1 
1 87:1 115:1 189:1 192:1 225:1 
1 84:1 115:1 192:1 194:1 200:1 251:1 261:1 
1 105:1 224:1 225:1 
1 151:1 221:1 228:1 233:1 
1 49:1 84:1 127:1 144:1 
1 117:1 123:1 257:1 
1 49:1 
1 49:1 
1 11:1 59:1 116:1 117:1 194:1 
1 48:1 49:1 69:1 117:1 
1 23:1 53:1 87:1 89:1 193:1 
1 150:1 
1 185:1 
1 49:1 
1 87:1 90:1 95:1 111:1 
1 189:1 193:1 
1 201:1 252:1 
1 115:1 123:1 257:1 
1 188:1 257:1 
1 6:1 116:1 117:1 251:1 257:1 
1 49:1 87:1 124:1 
1 194:1 251:1 257:1 
1 47:1 78:1 165:1 194:1 242:1 
1 251:1 
1 122:1 
1 47:1 83:1 193:1 245:1 
1 91:1 116:1 117:1 195:1 200:1 233:1 
1 82:1 148:1 151:1 152:1 194:1 251:1 
1 185:1 
1 218:1 
1 122:1 
1 185:1 221:1 
1 47:1 78:1 98:1 132:1 148:1 188:1 
1 252:1 
1 53:1 73:1 75:1 87:1 143:1 233:1 
1 11:1 23:1 80:1 84:1 153:1 193:1 
1 38:1 106:1 193:1 
1 185:1 
1 91:1 
1 29:1 38:1 53:1 87:1 125:1 127:1 191:1 194:1 218:1 233:1 
1 75:1 80:1 122:1 123:1 219:1 
1 87:1 130:1 191:1 
1 81:1 87:1 95:1 186:1 189:1 
1 87:1 143:1 192:1 194:1 
1 191:1 
1 23:1 87:1 97:1 98:1 144:1 
1 153:1 194:1 233:1 
1 53:1 87:1 156:1 200:1 245:1 
1 123:1 156:1 242:1 
1 29:1 92:1 150:1 
1 49:1 80:1 
1 49:1 50:1 80:1 140:1 
1 156:1 
1 83:1 115:1 132:1 194:1 197:1 221:1 233:1 
1 25:1 
1 115:1 164:1 193:1 
1 77:1 
1 82:1 200:1 
1 144:1 
1 87:1 130:1 194:1 257:1 
1 75:1 193:1 
1 142:1 248:1 
1 6:1 53:1 62:1 87:1 140:1 
1 165:1 200:1 240:1 
1 89:1 246:1 251:1 
1 49:1 90:1 130:1 257:1 
1 
1 53:1 82:1 115:1 187:1 193:1 194:1 206:1 
1 189:1 257:1 
1 32:1 135:1 189:1 200:1 221:1 
1 4:1 7:1 23:1 81:1 84:1 148:1 192:1 200:1 
1 153:1 
1 189:1 194:1 
1 98:1 146:1 
1 87:1 193:1 
1 155:1 189:1 
1 53:1 112:1 251:1 
1 115:1 200:1 
1 59:1 142:1 
1 78:1 123:1 200:1 257:1 
1 73:1 218:1 
1 4:1 144:1 
1 58:1 144:1 193:1 239:1 
1 83:1 193:1 257:1 
1 148:1 162:1 186:1 192:1 193:1 
1 193:1 
1 117:1 194:1 
1 49:1 108:1 
1 78:1 104:1 197:1 
1 
1 87:1 90:1 105:1 
1 73:1 
1 246:1 251:1 257:1 
1 84:1 87:1 138:1 
1 49:1 87:1 123:1 189:1 
1 123:1 242:1 
1 87:1 
1 73:1 148:1 
1 
1 53:1 87:1 206:1 248:1 
1 53:1 84:1 123:1 
1 87:1 150:1 194:1 
1 
1 53:1 144:1 192:1 194:1 245:1 
1 49:1 
1 127:1 228:1 
1 58:1 
1 51:1 87:1 251:1 
1 23:1 48:1 53:1 87:1 
1 7:1 49:1 53:1 87:1 248:1 
1 150:1 
1 82:1 114:1 115:1 193:1 200:1 251:1 
1 49:1 
1 49:1 53:1 87:1 200:1 
1 44:1 49:1 53:1 87:1 192:1 194:1 
1 112:1 194:1 
1 128:1 
1 49:1 53:1 87:1 
1 87:1 89:1 187:1 233:1 
1 144:1 
1 144:1 156:1 245:1 
1 125:1 257:1 
1 52:1 115:1 189:1 192:1 
1 4:1 111:1 122:1 193:1 195:1 
1 8:1 83:1 122:1 148:1 
1 233:1 
1 115:1 214:1 242:1 
1 81:1 122:1 214:1 
1 7:1 233:1 
1 3:1 84:1 
1 49:1 53:1 84:1 233:1 
1 71:1 214:1 
1 53:1 194:1 245:1 
1 160:1 194:1 200:1 
1 73:1 89:1 98:1 193:1 248:1 
1 252:1 
1 251:1 252:1 
1 49:1 247:1 
1 83:1 87:1 193:1 200:1 
1 81:1 
1 123:1 
1 49:1 94:1 95:1 115:1 130:1 189:1 
1 79:1 116:1 
1 47:1 48:1 89:1 92:1 107:1 122:1 248:1 
1 87:1 127:1 148:1 
1 6:1 
1 49:1 149:1 244:1 
1 53:1 87:1 193:1 
1 194:1 200:1 247:1 
1 87:1 91:1 122:1 
1 233:1 252:1 
1 80:1 192:1 
1 7:1 23:1 95:1 
1 115:1 247:1 
1 87:1 90:1 192:1 194:1 221:1 248:1 
1 49:1 53:1 77:1 219:1 
1 53:1 87:1 115:1 122:1 194:1 
1 49:1 53:1 75:1 87:1 130:1 
1 252:1 
1 49:1 59:1 89:1 90:1 105:1 148:1 
1 15:1 136:1 187:1 194:1 221:1 248:1 
1 149:1 185:1 
1 187:1 233:1 
1 91:1 95:1 194:1 251:1 
1 68:1 
1 4:1 48:1 73:1 84:1 87:1 200:1 
1 76:1 87:1 95:1 97:1 117:1 220:1 253:1 
1 214:1 
1 49:1 53:1 75:1 77:1 87:1 150:1 152:1 189:1 193:1 257:1 
1 80:1 87:1 123:1 
1 49:1 55:1 59:1 64:1 87:1 89:1 
1 185:1 
1 84:1 90:1 93:1 96:1 117:1 123:1 151:1 159:1 186:1 193:1 194:1 200:1 233:1 244:1 248:1 257:1 
1 11:1 29:1 87:1 191:1 
1 
1 115:1 127:1 135:1 
1 87:1 91:1 
1 87:1 193:1 
1 251:1 
1 41:1 53:1 87:1 156:1 220:1 
1 87:1 194:1 248:1 
1 127:1 194:1 257:1 
1 
1 87:1 135:1 
1 115:1 189:1 
1 48:1 51:1 236:1 
1 10:1 161:1 236:1 263:1 
1 98:1 
1 84:1 112:1 
1 240:1 
1 4:1 44:1 108:1 
1 53:1 87:1 193:1 
1 117:1 123:1 200:1 
1 96:1 194:1 251:1 
1 138:1 189:1 193:1 194:1 
1 194:1 
1 115:1 194:1 242:1 
1 23:1 194:1 
1 123:1 242:1 
1 87:1 245:1 248:1 
1 192:1 194:1 200:1 
1 48:1 125:1 219:1 
1 71:1 
1 
1 
1 218:1 
1 192:1 200:1 231:1 241:1 251:1 257:1 
1 123:1 218:1 
1 
1 95:1 194:1 251:1 
1 23:1 
1 3:1 115:1 201:1 245:1 
1 115:1 245:1 
1 115:1 228:1 233:1 242:1 
1 192:1 200:1 
1 81:1 115:1 
1 
1 87:1 220:1 
1 93:1 
1 197:1 251:1 257:1 
1 87:1 
1 221:1 246:1 
1 
1 24:1 
1 221:1 
1 48:1 55:1 185:1 200:1 245:1 247:1 
1 115:1 193:1 194:1 221:1 
1 49:1 
1 144:1 
1 7:1 193:1 200:1 
1 49:1 185:1 193:1 200:1 248:1 251:1 257:1 258:1 
1 78:1 123:1 257:1 
1 76:1 87:1 106:1 187:1 194:1 
1 72:1 151:1 192:1 194:1 221:1 
1 47:1 201:1 
1 87:1 185:1 
1 49:1 53:1 87:1 89:1 90:1 
1 14:1 76:1 
1 49:1 53:1 87:1 90:1 119:1 
1 75:1 132:1 156:1 200:1 247:1 
1 229:1 
1 111:1 252:1 
1 193:1 200:1 
1 130:1 200:1 
1 53:1 87:1 
1 81:1 214:1 251:1 252:1 257:1 
1 
1 242:1 
1 7:1 
1 87:1 112:1 
1 70:1 72:1 80:1 111:1 115:1 116:1 117:1 200:1 248:1 
1 80:1 242:1 248:1 
1 156:1 165:1 193:1 257:1 
1 122:1 
1 10:1 23:1 53:1 194:1 247:1 
1 49:1 
1 123:1 221:1 
1 53:1 87:1 251:1 257:1 
1 193:1 194:1 228:1 
1 78:1 
1 111:1 193:1 
1 194:1 200:1 
1 115:1 185:1 
1 49:1 123:1 
1 7:1 49:1 97:1 
1 49:1 
1 8:1 
1 49:1 53:1 
1 80:1 193:1 
1 69:1 
1 75:1 94:1 
1 218:1 228:1 
1 200:1 257:1 
1 115:1 164:1 
1 78:1 117:1 
1 116:1 138:1 185:1 
1 39:1 44:1 48:1 64:1 
1 49:1 50:1 53:1 76:1 80:1 87:1 89:1 116:1 
1 116:1 128:1 161:1 193:1 245:1 247:1 
1 78:1 87:1 91:1 109:1 
1 78:1 194:1 
1 84:1 127:1 138:1 140:1 141:1 193:1 200:1 
1 47:1 49:1 53:1 87:1 116:1 127:1 138:1 150:1 257:1 
1 115:1 144:1 214:1 
1 59:1 62:1 133:1 
1 14:1 87:1 90:1 136:1 
1 
1 123:1 214:1 
1 44:1 47:1 53:1 87:1 89:1 98:1 109:1 129:1 142:1 144:1 240:1 257:1 
1 87:1 200:1 
1 117:1 233:1 242:1 
1 80:1 129:1 194:1 
1 79:1 106:1 147:1 194:1 224:1 
1 115:1 189:1 195:1 257:1 
1 48:1 227:1 228:1 
1 106:1 185:1 257:1 
1 193:1 194:1 214:1 220:1 
1 47:1 127:1 185:1 191:1 
1 23:1 80:1 87:1 189:1 200:1 
1 220:1 248:1 
1 49:1 192:1 194:1 221:1 251:1 257:1 259:1 
1 16:1 248:1 
1 53:1 87:1 95:1 191:1 194:1 
1 47:1 77:1 95:1 152:1 156:1 189:1 233:1 
1 193:1 
1 53:1 87:1 95:1 194:1 
1 98:1 112:1 116:1 126:1 222:1 233:1 247:1 
1 38:1 111:1 200:1 233:1 
1 53:1 83:1 87:1 144:1 195:1 197:1 
1 115:1 
1 246:1 
1 185:1 
1 4:1 
1 87:1 93:1 127:1 200:1 
1 116:1 117:1 193:1 194:1 248:1 
1 123:1 130:1 148:1 251:1 
1 117:1 123:1 242:1 
1 233:1 
1 193:1 194:1 
1 48:1 49:1 53:1 87:1 
1 7:1 130:1 
1 49:1 53:1 
1 117:1 233:1 
1 84:1 194:1 
1 105:1 220:1 
1 87:1 142:1 241:1 251:1 
1 221:1 
1 115:1 189:1 193:1 200:1 
1 24:1 193:1 194:1 
1 78:1 194:1 221:1 
1 148:1 
1 73:1 
1 194:1 
1 244:1 
1 194:1 
1 73:1 112:1 115:1 242:1 
1 53:1 83:1 87:1 
1 73:1 116:1 
1 80:1 112:1 115:1 127:1 248:1 
1 44:1 200:1 
1 115:1 
1 
1 48:1 
1 29:1 201:1 
1 133:1 194:1 221:1 251:1 
1 112:1 
1 44:1 200:1 251:1 
1 84:1 87:1 157:1 194:1 
1 55:1 87:1 233:1 
1 189:1 
1 78:1 245:1 257:1 
1 10:1 83:1 123:1 132:1 187:1 193:1 
1 48:1 73:1 87:1 
1 48:1 87:1 
1 115:1 
1 
1 81:1 95:1 
1 49:1 219:1 
1 44:1 80:1 
1 49:1 87:1 
1 116:1 117:1 
1 84:1 95:1 111:1 189:1 193:1 200:1 221:1 246:1 
1 165:1 
1 
1 
1 59:1 
1 194:1 200:1 
1 123:1 252:1 
1 81:1 247:1 
1 84:1 115:1 
1 189:1 257:1 
1 193:1 241:1 242:1 245:1 251:1 
1 193:1 221:1 
1 123:1 
1 233:1 
1 185:1 251:1 
1 233:1 257:1 
1 
1 191:1 251:1 
1 81:1 148:1 194:1 
1 105:1 
1 79:1 194:1 257:1 
1 189:1 
1 255:1 
1 48:1 78:1 123:1 194:1 
1 
1 219:1 
1 48:1 84:1 192:1 245:1 
1 251:1 252:1 257:1 
1 122:1 214:1 
1 49:1 87:1 219:1 
1 189:1 194:1 251:1 
1 44:1 
1 23:1 53:1 64:1 87:1 244:1 248:1 
1 116:1 247:1 
1 
1 53:1 78:1 80:1 87:1 200:1 233:1 
1 49:1 75:1 
1 251:1 259:1 
1 49:1 87:1 146:1 188:1 191:1 198:1 226:1 
1 83:1 123:1 
1 116:1 
1 84:1 
1 112:1 115:1 
1 115:1 189:1 201:1 
1 
1 219:1 
1 
1 117:1 
1 46:1 59:1 130:1 
1 87:1 
1 24:1 164:1 194:1 
1 24:1 116:1 
1 123:1 251:1 
1 193:1 200:1 
1 115:1 251:1 257:1 
1 32:1 53:1 87:1 90:1 106:1 
1 84:1 115:1 123:1 270:1 
1 194:1 
1 39:1 49:1 50:1 75:1 87:1 95:1 127:1 142:1 193:1 
1 80:1 84:1 105:1 112:1 122:1 144:1 193:1 234:1 253:1 
1 95:1 244:1 263:1 
1 53:1 81:1 87:1 123:1 219:1 251:1 
1 53:1 87:1 193:1 
1 69:1 148:1 161:1 189:1 245:1 257:1 
1 61:1 
1 184:1 185:1 
1 
1 49:1 115:1 233:1 
1 23:1 49:1 
1 87:1 193:1 221:1 
1 49:1 78:1 87:1 89:1 152:1 225:1 
1 115:1 128:1 233:1 
1 185:1 
1 53:1 200:1 
1 3:1 80:1 111:1 127:1 221:1 251:1 257:1 
1 175:1 185:1 
1 78:1 252:1 
1 
1 194:1 242:1 251:1 257:1 
1 95:1 123:1 156:1 193:1 200:1 
1 244:1 251:1 
1 48:1 82:1 84:1 90:1 93:1 
1 218:1 
1 192:1 200:1 
1 87:1 257:1 
1 81:1 
1 54:1 94:1 122:1 150:1 
1 185:1 
1 87:1 147:1 
1 200:1 201:1 
1 87:1 92:1 
1 
1 219:1 
1 78:1 87:1 194:1 
1 185:1 
1 257:1 
1 4:1 6:1 49:1 91:1 156:1 192:1 244:1 248:1 251:1 257:1 
1 24:1 95:1 127:1 144:1 194:1 243:1 248:1 
1 
1 
1 
1 59:1 
1 194:1 
1 189:1 197:1 200:1 
1 84:1 
1 127:1 188:1 
1 194:1 200:1 
1 
1 115:1 200:1 206:1 247:1 
1 
1 94:1 193:1 
1 149:1 
1 194:1 
1 193:1 198:1 
1 185:1 
1 
1 
1 192:1 
1 84:1 87:1 
1 
1 251:1 
1 48:1 
1 
1 200:1 221:1 251:1 
1 53:1 80:1 87:1 91:1 191:1 195:1 236:1 239:1 242:1 
1 
1 
1 123:1 251:1 
1 
1 
1 
1 115:1 
1 252:1 
1 189:1 233:1 
1 87:1 
1 81:1 123:1 
1 75:1 129:1 130:1 154:1 189:1 221:1 233:1 242:1 
1 
1 194:1 
1 245:1 
1 
1 3:1 93:1 
1 95:1 
1 80:1 125:1 248:1 
1 193:1 194:1 
1 
1 221:1 
1 154:1 194:1 
1 247:1 
1 111:1 193:1 
1 194:1 233:1 
1 194:1 233:1 
1 
1 122:1 194:1 
1 185:1 
1 193:1 200:1 
1 
1 84:1 192:1 250:1 257:1 
1 248:1 
1 84:1 194:1 200:1 
1 
1 87:1 245:1 
1 185:1 
1 240:1 
1 254:1 
1 112:1 
1 108:1 
1 184:1 185:1 
1 193:1 
1 185:1 
1 162:1 200:1 221:1 228:1 
1 89:1 
1 233:1 
1 125:1 197:1 
1 91:1 
1 116:1 148:1 200:1 233:1 
1 185:1 
1 73:1 194:1 200:1 257:1 
1 
1 270:1 
1 48:1 105:1 189:1 193:1 200:1 251:1 
1 84:1 251:1 
1 115:1 129:1 194:1 233:1 
1 122:1 194:1 
1 
1 115:1 234:1 
1 199:1 
1 84:1 148:1 193:1 
1 
1 107:1 
1 194:1 251:1 
1 152:1 252:1 
1 242:1 
1 84:1 
1 
1 84:1 231:1 
1 116:1 198:1 
1 257:1 
1 185:1 
1 
1 4:1 
1 
1 48:1 58:1 
1 
1 49:1 95:1 
1 7:1 81:1 189:1 
1 123:1 233:1 
1 185:1 
1 14:1 49:1 90:1 
1 243:1 
1 49:1 146:1 
1 166:1 
1 165:1 
1 
1 187:1 
1 189:1 
1 112:1 194:1 222:1 233:1 
1 185:1 
1 49:1 53:1 79:1 
1 221:1 
1 
1 117:1 123:1 194:1 
1 193:1 
1 
1 58:1 
1 115:1 245:1 
1 
1 117:1 247:1 252:1 
1 80:1 123:1 129:1 130:1 161:1 
1 
1 
1 194:1 
1 185:1 
1 49:1 53:1 87:1 
1 193:1 194:1 
1 49:1 53:1 75:1 77:1 87:1 115:1 
1 49:1 53:1 76:1 77:1 186:1 192:1 
1 252:1 254:1 255:1 
1 73:1 194:1 244:1 
1 
1 49:1 77:1 87:1 90:1 192:1 193:1 246:1 257:1 
1 117:1 
1 6:1 111:1 115:1 239:1 
1 49:1 
1 49:1 77:1 80:1 
1 48:1 87:1 192:1 193:1 200:1 201:1 
1 47:1 49:1 80:1 87:1 95:1 116:1 248:1 
1 123:1 
1 
1 73:1 84:1 193:1 194:1 201:1 
1 82:1 98:1 
1 22:1 23:1 52:1 53:1 117:1 122:1 193:1 194:1 
1 83:1 
1 53:1 87:1 90:1 116:1 186:1 194:1 
1 49:1 53:1 194:1 251:1 
1 49:1 53:1 84:1 191:1 200:1 257:1 
1 87:1 92:1 93:1 122:1 186:1 248:1 
1 193:1 
1 
1 48:1 
1 
1 75:1 80:1 
1 194:1 
1 
1 53:1 
1 84:1 123:1 250:1 
1 10:1 
1 73:1 185:1 
1 
1 251:1 257:1 
1 32:1 98:1 
1 
1 185:1 
1 49:1 78:1 194:1 248:1 
1 111:1 221:1 
1 43:1 248:1 
1 73:1 115:1 
1 
1 270:1 
1 194:1 
1 194:1 
1 255:1 
1 254:1 
1 106:1 218:1 219:1 
1 123:1 
1 261:1 
1 193:1 
1 3:1 49:1 53:1 87:1 
1 220:1 248:1 
1 193:1 228:1 
1 28:1 58:1 248:1 
1 185:1 
1 115:1 200:1 243:1 
1 252:1 
1 148:1 193:1 
1 194:1 228:1 
1 4:1 5:1 245:1 
1 261:1 
1 194:1 
1 193:1 
1 131:1 194:1 220:1 
1 115:1 194:1 255:1 
1 233:1 
1 200:1 252:1 257:1 
1 185:1 
1 150:1 
1 
1 124:1 
1 49:1 
1 34:1 
1 251:1 257:1 
1 130:1 228:1 
1 194:1 
1 270:1 
1 233:1 
1 193:1 
1 
1 198:1 
1 122:1 156:1 252:1 270:1 
1 49:1 
1 78:1 
1 146:1 
1 193:1 
1 194:1 
1 84:1 
1 49:1 220:1 221:1 
1 7:1 53:1 185:1 257:1 
1 24:1 41:1 78:1 110:1 164:1 
1 84:1 
1 95:1 111:1 122:1 194:1 200:1 
-1 49:1 87:1 98:1 146:1 148:1 
-0.3231570318477575 53:1 87:1 251:1 257:1 
-1 49:1 87:1 147:1 150:1 225:1 
-1 41:1 49:1 146:1 204:1 
-1 48:1 49:1 55:1 59:1 76:1 77:1 87:1 90:1 116:1 143:1 150:1 189:1 
-1 8:1 84:1 85:1 123:1 151:1 193:1 246:1 
-1 24:1 44:1 245:1 
-0.368426424429967 19:1 84:1 87:1 193:1 
-1 80:1 87:1 150:1 156:1 233:1 245:1 248:1 
-1 85:1 93:1 
-1 18:1 53:1 59:1 77:1 87:1 186:1 192:1 200:1 
-0.3696505939890166 49:1 185:1 194:1 
-1 14:1 152:1 248:1 
-1 115:1 192:1 194:1 248:1 251:1 257:1 
-1 123:1 221:1 228:1 242:1 
-1 106:1 193:1 221:1 257:1 
-0.2093789945937126 4:1 53:1 54:1 87:1 115:1 191:1 193:1 257:1 
-1 68:1 75:1 87:1 90:1 93:1 116:1 155:1 225:1 
-1 93:1 244:1 257:1 
-0.02858206448291188 72:1 130:1 165:1 185:1 
-1 4:1 51:1 52:1 112:1 192:1 194:1 195:1 201:1 241:1 248:1 251:1 257:1 
-1 23:1 53:1 75:1 87:1 192:1 193:1 
-1 53:1 76:1 77:1 87:1 
-1 87:1 92:1 199:1 
-1 34:1 47:1 73:1 90:1 
-1 78:1 117:1 123:1 189:1 200:1 
-1 164:1 185:1 239:1 270:1 
-1 49:1 87:1 90:1 123:1 194:1 219:1 
-0.960963916895357 87:1 248:1 257:1 
-1 22:1 38:1 100:1 227:1 
-1 44:1 53:1 85:1 127:1 191:1 247:1 
-0.7475555575403303 4:1 7:1 82:1 83:1 109:1 185:1 246:1 
-1 193:1 247:1 
-1 18:1 49:1 76:1 140:1 200:1 
-1 116:1 188:1 191:1 194:1 233:1 245:1 258:1 
-1 28:1 123:1 
-0.9262533608617012 191:1 193:1 220:1 257:1 
-1 47:1 92:1 117:1 192:1 218:1 
-1 36:1 185:1 
-1 83:1 117:1 123:1 192:1 240:1 
-1 73:1 114:1 123:1 135:1 144:1 189:1 191:1 192:1 193:1 194:1 199:1 200:1 241:1 248:1 
-1 43:1 44:1 87:1 89:1 93:1 104:1 193:1 219:1 
-1 4:1 193:1 221:1 
-1 49:1 90:1 200:1 226:1 
-0.502306896699475 7:1 10:1 115:1 117:1 187:1 193:1 251:1 
-0.9757529189550523 44:1 242:1 247:1 
-1 49:1 80:1 221:1 224:1 
-1 251:1 255:1 270:1 
-1 53:1 73:1 84:1 87:1 193:1 
-0.02265589595269601 81:1 115:1 144:1 242:1 
-1 80:1 83:1 87:1 189:1 193:1 194:1 248:1 
-1 24:1 87:1 116:1 148:1 150:1 159:1 
-1 24:1 138:1 218:1 228:1 248:1 
-1 7:1 11:1 18:1 49:1 77:1 
-1 49:1 193:1 194:1 251:1 257:1 
-1 185:1 207:1 
-1 193:1 200:1 248:1 
-1 193:1 194:1 228:1 233:1 
-0.4934217620660992 53:1 87:1 90:1 193:1 194:1 217:1 225:1 248:1 257:1 263:1 
-1 49:1 95:1 144:1 189:1 193:1 251:1 
-1 87:1 93:1 193:1 227:1 231:1 245:1 248:1 
-0.8193281373114948 10:1 78:1 80:1 148:1 165:1 185:1 
-0.8087522423086387 22:1 53:1 87:1 90:1 111:1 116:1 200:1 
-0.7618648634008635 72:1 184:1 251:1 257:1 
-0.2383404796379765 140:1 263:1 
-1 81:1 115:1 149:1 185:1 
-1 55:1 83:1 87:1 90:1 95:1 148:1 157:1 159:1 200:1 
-1 62:1 75:1 90:1 246:1 
-1 47:1 143:1 191:1 192:1 193:1 
-0.08091659092638066 251:1 252:1 257:1 
-1 53:1 78:1 194:1 233:1 251:1 
-1 53:1 87:1 90:1 91:1 194:1 
-1 87:1 98:1 106:1 144:1 193:1 251:1 
-0.9358770358745887 49:1 54:1 64:1 84:1 97:1 245:1 246:1 
-1 78:1 83:1 132:1 251:1 
-0.9262813308304018 5:1 194:1 250:1 257:1 
-0.3480554239590681 73:1 87:1 140:1 193:1 
-1 80:1 89:1 152:1 
-1 38:1 49:1 54:1 87:1 116:1 
-0.1204294199855758 10:1 112:1 115:1 189:1 
-0.9515179574897283 83:1 87:1 111:1 218:1 248:1 
-0.5603211845669815 53:1 87:1 95:1 117:1 122:1 246:1 
-1 28:1 49:1 59:1 87:1 116:1 
-1 29:1 77:1 87:1 245:1 246:1 
-1 49:1 90:1 105:1 146:1 243:1 
-0.8893591321016457 46:1 49:1 134:1 150:1 
-1 23:1 193:1 200:1 251:1 
-0.04510184312492759 87:1 90:1 117:1 191:1 193:1 
-0.7171381486276576 112:1 261:1 
-1 23:1 87:1 127:1 
-1 76:1 77:1 111:1 152:1 153:1 
-0.3242354175891884 228:1 251:1 257:1 
-1 49:1 53:1 84:1 87:1 140:1 
-1 49:1 123:1 132:1 
-1 49:1 148:1 193:1 194:1 257:1 
-0.5465529796673125 5:1 87:1 116:1 117:1 149:1 191:1 
-1 48:1 87:1 95:1 248:1 
-0.9455519873845032 48:1 49:1 98:1 129:1 152:1 
-1 49:1 53:1 78:1 87:1 220:1 257:1 
-0.9032847548798854 29:1 49:1 83:1 87:1 107:1 253:1 
-1 49:1 111:1 116:1 123:1 138:1 
-0.3670647009807019 77:1 87:1 109:1 112:1 
-1 49:1 84:1 112:1 115:1 123:1 144:1 
-1 44:1 48:1 73:1 233:1 252:1 
-1 53:1 87:1 89:1 194:1 248:1 
-1 29:1 84:1 85:1 111:1 116:1 
-0.00936698773218847 41:1 44:1 
-1 132:1 185:1 
-0.6313711138853518 79:1 115:1 185:1 231:1 242:1 251:1 257:1 
-0.2220132818033619 149:1 185:1 200:1 202:1 
-0.5939031892024709 5:1 53:1 154:1 251:1 257:1 
-1 80:1 115:1 160:1 193:1 194:1 257:1 
-1 24:1 47:1 80:1 
-1 54:1 87:1 90:1 111:1 189:1 192:1 194:1 
-1 87:1 93:1 94:1 
-1 87:1 116:1 122:1 191:1 193:1 
-1 115:1 200:1 248:1 257:1 
-1 219:1 251:1 
-1 75:1 105:1 192:1 193:1 
-1 191:1 194:1 248:1 257:1 
-0.1967900603224841 47:1 59:1 87:1 112:1 160:1 
-1 73:1 77:1 85:1 87:1 95:1 
-1 23:1 49:1 87:1 89:1 90:1 200:1 
-0.8400184864505991 7:1 28:1 43:1 
-1 93:1 218:1 220:1 
-1 49:1 53:1 82:1 87:1 89:1 90:1 93:1 116:1 
-1 87:1 193:1 200:1 233:1 244:1 248:1 251:1 257:1 
-1 127:1 193:1 200:1 248:1 
-1 4:1 53:1 87:1 147:1 148:1 193:1 194:1 200:1 
-1 87:1 193:1 220:1 
-1 48:1 73:1 75:1 87:1 112:1 
-1 23:1 75:1 228:1 
-1 87:1 95:1 191:1 193:1 194:1 200:1 
-0.8685393322619996 24:1 87:1 155:1 189:1 
-1 90:1 95:1 194:1 
-1 53:1 54:1 70:1 90:1 95:1 97:1 98:1 112:1 122:1 142:1 200:1 233:1 
-1 44:1 117:1 165:1 251:1 263:1 
-1 49:1 75:1 87:1 89:1 
-1 23:1 49:1 90:1 95:1 193:1 245:1 
-1 7:1 59:1 73:1 125:1 193:1 246:1 
-1 57:1 150:1 
-1 55:1 84:1 87:1 106:1 127:1 192:1 194:1 231:1 248:1 257:1 
-1 49:1 53:1 75:1 84:1 103:1 164:1 189:1 193:1 195:1 200:1 257:1 
-0.1844691918935855 49:1 89:1 
-1 49:1 53:1 75:1 87:1 95:1 189:1 246:1 
-1 84:1 194:1 
-0.03227019347653589 75:1 87:1 140:1 153:1 
-1 49:1 53:1 75:1 87:1 127:1 129:1 251:1 
-1 49:1 189:1 194:1 200:1 
-0.9757454459947899 122:1 251:1 257:1 258:1 259:1 
-1 194:1 200:1 221:1 
-1 49:1 87:1 193:1 194:1 200:1 257:1 
-1 123:1 148:1 193:1 194:1 198:1 251:1 257:1 258:1 259:1 261:1 
-1 58:1 87:1 244:1 257:1 
-1 53:1 98:1 221:1 233:1 248:1 
-1 25:1 84:1 122:1 130:1 193:1 200:1 
-0.07121681746189087 7:1 218:1 258:1 
-0.355533489390826 52:1 53:1 77:1 193:1 
-1 75:1 116:1 189:1 193:1 242:1 
-1 4:1 109:1 122:1 123:1 150:1 189:1 244:1 
-1 3:1 24:1 53:1 87:1 193:1 257:1 
-1 49:1 73:1 78:1 239:1 
-1 23:1 29:1 248:1 
-1 53:1 87:1 115:1 123:1 152:1 155:1 251:1 257:1 
-1 59:1 199:1 218:1 
-1 4:1 185:1 194:1 
-0.5518571322556772 107:1 115:1 189:1 194:1 
-0.06377172153861886 87:1 150:1 185:1 
-0.9452479718169587 133:1 193:1 
-1 23:1 44:1 188:1 194:1 200:1 
-0.1045050950994707 72:1 84:1 115:1 197:1 
-1 53:1 87:1 146:1 193:1 251:1 
-0.3288221953402419 119:1 228:1 
-0.6301543047730139 53:1 78:1 152:1 155:1 246:1 248:1 
-0.05707680650532895 81:1 112:1 189:1 
-1 80:1 206:1 248:1 
-1 7:1 48:1 75:1 127:1 192:1 
-1 150:1 251:1 257:1 259:1 
-1 58:1 122:1 206:1 
-1 115:1 192:1 194:1 
-0.4523698754660555 87:1 97:1 98:1 117:1 
-1 80:1 193:1 
-1 32:1 49:1 53:1 
-0.1788150750159585 23:1 87:1 90:1 246:1 
-1 29:1 49:1 53:1 75:1 78:1 200:1 
-1 55:1 92:1 189:1 192:1 193:1 194:1 246:1 
-0.9542056350441263 81:1 112:1 123:1 233:1 
-1 4:1 87:1 189:1 191:1 
-1 82:1 112:1 189:1 193:1 221:1 
-1 77:1 89:1 90:1 116:1 193:1 194:1 
-0.6941245981038856 47:1 156:1 164:1 
-1 53:1 78:1 106:1 236:1 248:1 
-1 90:1 97:1 106:1 111:1 194:1 245:1 
-1 116:1 130:1 149:1 189:1 193:1 248:1 
-1 49:1 148:1 200:1 252:1 
-1 73:1 85:1 90:1 200:1 245:1 
-0.1672641210296224 75:1 79:1 87:1 144:1 
-1 23:1 44:1 80:1 83:1 115:1 
-0.6136421162543096 49:1 53:1 87:1 186:1 193:1 219:1 
-1 59:1 123:1 244:1 245:1 
-1 80:1 84:1 87:1 117:1 200:1 234:1 
-1 84:1 193:1 
-1 23:1 68:1 80:1 89:1 
-0.1674993429993147 43:1 58:1 116:1 
-0.2541945507831576 49:1 53:1 87:1 138:1 155:1 193:1 248:1 
-1 87:1 89:1 90:1 245:1 248:1 
-1 93:1 130:1 194:1 220:1 
-0.7198922244467834 29:1 53:1 116:1 200:1 
-1 109:1 194:1 233:1 
-1 4:1 47:1 87:1 91:1 115:1 192:1 
-0.8876470766255222 53:1 87:1 141:1 200:1 
-0.2079453234067075 7:1 129:1 134:1 192:1 
-0.2454314602575271 84:1 148:1 149:1 
-1 53:1 122:1 214:1 
-0.06236994023832931 75:1 115:1 116:1 138:1 248:1 
-1 23:1 90:1 194:1 
-1 59:1 87:1 189:1 192:1 200:1 
-1 193:1 200:1 
-0.9711522036572936 49:1 53:1 84:1 87:1 189:1 193:1 
-0.2002541586959835 194:1 206:1 
-1 53:1 87:1 89:1 90:1 94:1 97:1 106:1 116:1 122:1 153:1 200:1 
-0.8487798891653661 7:1 29:1 91:1 138:1 
-0.1138380915073133 72:1 87:1 138:1 200:1 259:1 
-1 29:1 44:1 87:1 91:1 251:1 
-0.2951116930560422 53:1 206:1 257:1 
-0.5090922004714893 80:1 83:1 115:1 197:1 200:1 235:1 
-0.0806783290891715 73:1 116:1 156:1 
-1 164:1 194:1 200:1 247:1 
-0.6544019818459047 8:1 19:1 72:1 150:1 257:1 
-1 80:1 130:1 194:1 214:1 
-1 185:1 242:1 
-1 23:1 84:1 117:1 127:1 214:1 221:1 
-1 117:1 194:1 242:1 
-1 123:1 130:1 189:1 257:1 
-0.9214699537890477 115:1 116:1 156:1 186:1 246:1 
-0.6512217989459267 23:1 115:1 214:1 
-1 194:1 257:1 
-1 47:1 91:1 95:1 193:1 225:1 253:1 
-1 194:1 257:1 
-0.8060736771333938 113:1 117:1 123:1 218:1 
-1 4:1 58:1 186:1 
-0.9397203373288915 122:1 152:1 242:1 
-0.0815561536132996 4:1 84:1 122:1 208:1 
-1 53:1 87:1 193:1 194:1 
-1 49:1 87:1 95:1 152:1 193:1 
-1 80:1 87:1 89:1 127:1 150:1 189:1 
-1 47:1 185:1 189:1 
-1 4:1 87:1 192:1 
-1 24:1 49:1 126:1 138:1 
-0.2158840305355703 49:1 87:1 90:1 
-0.9231004571538785 115:1 148:1 159:1 257:1 
-0.7631005708973171 63:1 75:1 148:1 221:1 246:1 
-0.1740819458257684 87:1 116:1 127:1 
-1 22:1 78:1 87:1 117:1 146:1 
-1 59:1 87:1 89:1 90:1 130:1 
-0.4150321793908782 7:1 53:1 115:1 165:1 214:1 
-0.1212494388561565 48:1 81:1 87:1 144:1 
-0.7481953301985286 122:1 231:1 251:1 257:1 
-1 58:1 127:1 248:1 
-0.8699760610015944 34:1 49:1 
-1 53:1 82:1 87:1 198:1 248:1 
-0.06777972850163638 87:1 91:1 197:1 251:1 
-1 53:1 79:1 80:1 87:1 91:1 144:1 164:1 189:1 192:1 200:1 
-1 23:1 25:1 53:1 87:1 90:1 98:1 231:1 
-1 36:1 115:1 221:1 248:1 
-0.9676811070442487 87:1 185:1 245:1 257:1 
-0.7905538538354285 7:1 111:1 117:1 127:1 244:1 
-1 49:1 53:1 75:1 87:1 
-1 252:1 257:1 261:1 
-0.9220522250207932 185:1 214:1 
-1 194:1 257:1 
-1 48:1 112:1 116:1 188:1 194:1 
-0.2804699037977307 21:1 49:1 84:1 193:1 248:1 
-0.4978095164899494 48:1 77:1 87:1 191:1 204:1 
-1 84:1 87:1 116:1 122:1 127:1 135:1 192:1 
-0.9707574125398756 7:1 48:1 89:1 122:1 148:1 
-0.9304948934868288 58:1 248:1 
-0.7926522708052948 47:1 80:1 115:1 186:1 206:1 227:1 
-0.7438854030818643 51:1 87:1 117:1 123:1 130:1 233:1 
-0.8073653173824812 78:1 220:1 221:1 
-1 84:1 201:1 251:1 257:1 
-1 80:1 106:1 144:1 189:1 233:1 
-1 7:1 122:1 152:1 225:1 
-1 49:1 50:1 89:1 106:1 155:1 
-1 95:1 126:1 193:1 200:1 228:1 240:1 246:1 
-1 48:1 75:1 123:1 
-0.03801808878740988 49:1 82:1 83:1 87:1 103:1 
-0.2025547786994188 53:1 87:1 90:1 95:1 
-0.9400708557184255 7:1 49:1 51:1 87:1 103:1 138:1 189:1 
-1 3:1 76:1 80:1 117:1 141:1 
-1 49:1 53:1 194:1 218:1 
-0.6207004690536604 8:1 87:1 91:1 106:1 107:1 
-0.9265724863140723 76:1 116:1 
-1 53:1 78:1 82:1 89:1 111:1 117:1 194:1 253:1 
-1 23:1 144:1 192:1 193:1 194:1 
-0.9354975872764915 49:1 84:1 87:1 116:1 117:1 124:1 129:1 192:1 220:1 
-0.02576581073864709 87:1 95:1 130:1 135:1 
-1 193:1 194:1 200:1 
-1 193:1 200:1 
-1 49:1 87:1 192:1 257:1 
-1 53:1 116:1 200:1 
-1 87:1 192:1 251:1 257:1 
-1 130:1 144:1 148:1 150:1 192:1 200:1 
-1 87:1 117:1 192:1 194:1 240:1 248:1 257:1 
-1 49:1 191:1 221:1 248:1 
-1 8:1 147:1 
-1 82:1 87:1 193:1 194:1 233:1 
-1 53:1 87:1 89:1 90:1 96:1 97:1 98:1 193:1 
-0.185085358159625 53:1 116:1 130:1 191:1 257:1 
-1 5:1 9:1 189:1 
-1 70:1 156:1 193:1 
-1 185:1 257:1 
-1 49:1 87:1 90:1 127:1 189:1 193:1 
-0.8963947828107885 83:1 115:1 123:1 130:1 228:1 
-0.6635045069743593 144:1 200:1 
-1 81:1 87:1 115:1 122:1 191:1 194:1 200:1 
-1 23:1 49:1 76:1 206:1 
-0.4618300772270635 49:1 53:1 83:1 87:1 164:1 
-1 23:1 75:1 83:1 115:1 
-1 70:1 72:1 80:1 206:1 
-1 63:1 75:1 83:1 87:1 233:1 
-1 41:1 112:1 156:1 194:1 257:1 
-1 53:1 84:1 87:1 95:1 115:1 192:1 193:1 248:1 
-1 4:1 53:1 89:1 90:1 98:1 193:1 
-1 10:1 53:1 115:1 194:1 
-0.960832417964972 48:1 72:1 80:1 112:1 188:1 
-1 48:1 76:1 129:1 152:1 156:1 
-0.06819297709346792 53:1 78:1 89:1 186:1 193:1 226:1 246:1 
-1 53:1 116:1 117:1 192:1 221:1 257:1 
-1 47:1 83:1 194:1 242:1 
-1 87:1 117:1 127:1 194:1 
-1 29:1 49:1 87:1 189:1 221:1 
-0.1018389915452451 49:1 53:1 87:1 106:1 245:1 
-0.8762484551282631 73:1 122:1 123:1 127:1 130:1 200:1 
-0.9002267985126193 73:1 144:1 189:1 220:1 242:1 
-1 185:1 263:1 
-0.6914065169617328 48:1 148:1 185:1 189:1 193:1 
-0.3657073173192797 123:1 251:1 
-0.09989841817415034 83:1 87:1 98:1 117:1 
-1 83:1 189:1 200:1 
-1 123:1 233:1 248:1 
-1 48:1 193:1 194:1 200:1 
-1 3:1 170:1 185:1 200:1 
-1 87:1 123:1 200:1 246:1 
-1 53:1 85:1 87:1 130:1 132:1 
-0.09826385811448443 193:1 200:1 
-1 23:1 69:1 87:1 127:1 
-0.04113645627503117 18:1 19:1 64:1 82:1 
-1 44:1 49:1 80:1 
-1 87:1 122:1 248:1 257:1 
-0.5282663469332629 58:1 81:1 115:1 144:1 
-0.9244268875987615 49:1 53:1 87:1 189:1 221:1 
-0.05253290122402908 68:1 87:1 115:1 
-1 185:1 257:1 
-1 24:1 62:1 
-0.5961766523910507 75:1 87:1 90:1 93:1 
-1 48:1 75:1 82:1 122:1 144:1 193:1 200:1 
-1 87:1 122:1 148:1 164:1 186:1 234:1 248:1 
-0.2942522579432126 44:1 49:1 79:1 87:1 233:1 
-0.03488876996006322 73:1 81:1 123:1 245:1 
-0.9582373057688756 115:1 123:1 148:1 228:1 239:1 245:1 
-1 48:1 50:1 189:1 201:1 
-0.5143914871225476 79:1 81:1 115:1 117:1 119:1 
-0.5602144820127691 4:1 22:1 48:1 51:1 129:1 189:1 194:1 
-0.01761326438472145 49:1 123:1 124:1 129:1 148:1 244:1 
-1 49:1 87:1 186:1 193:1 248:1 
-0.1454239948104789 87:1 94:1 191:1 251:1 
-0.05983842363488301 53:1 75:1 87:1 153:1 191:1 
-0.03307556511980514 72:1 200:1 255:1 
-0.07307987652758098 23:1 98:1 
-1 133:1 149:1 
-1 82:1 194:1 251:1 257:1 
-1 85:1 109:1 122:1 189:1 193:1 200:1 
-1 87:1 116:1 134:1 193:1 257:1 
-1 84:1 87:1 125:1 194:1 
-0.4816615843903762 49:1 53:1 160:1 193:1 241:1 
-1 32:1 87:1 148:1 152:1 245:1 
-1 49:1 53:1 83:1 129:1 195:1 233:1 
-1 49:1 53:1 87:1 191:1 
-1 24:1 49:1 87:1 193:1 194:1 200:1 
-1 49:1 87:1 192:1 200:1 
-1 83:1 84:1 189:1 200:1 
-0.7344286565137067 193:1 200:1 204:1 214:1 246:1 
-1 189:1 199:1 
-1 23:1 47:1 83:1 87:1 246:1 
-1 53:1 164:1 251:1 
-1 23:1 193:1 194:1 218:1 245:1 
-0.3199786449093791 80:1 115:1 123:1 192:1 
-1 7:1 83:1 112:1 117:1 123:1 
-1 87:1 104:1 149:1 193:1 201:1 
-1 23:1 34:1 53:1 75:1 193:1 
-1 162:1 194:1 200:1 233:1 248:1 251:1 257:1 
-0.06759642808807582 122:1 129:1 245:1 247:1 
-0.4343287397329957 48:1 59:1 160:1 165:1 184:1 246:1 
-0.2551491163392732 49:1 53:1 87:1 193:1 194:1 247:1 
-1 49:1 53:1 80:1 84:1 87:1 124:1 200:1 
-1 53:1 87:1 194:1 242:1 
-1 123:1 251:1 257:1 
-1 7:1 47:1 87:1 152:1 192:1 251:1 
-0.08363068515748959 81:1 111:1 115:1 122:1 221:1 
-1 193:1 200:1 221:1 
-1 49:1 53:1 77:1 87:1 93:1 
-1 122:1 127:1 206:1 
-0.9803854336551695 130:1 221:1 233:1 244:1 245:1 
-1 44:1 112:1 123:1 189:1 242:1 
-1 3:1 69:1 122:1 130:1 148:1 214:1 
-0.07544540969094249 53:1 87:1 116:1 123:1 192:1 
-0.04439396085769286 78:1 233:1 251:1 257:1 
-1 49:1 53:1 87:1 152:1 
-1 23:1 107:1 248:1 
-1 81:1 164:1 194:1 
-1 53:1 87:1 90:1 95:1 116:1 117:1 248:1 
-1 84:1 115:1 122:1 221:1 
-1 115:1 117:1 123:1 127:1 191:1 248:1 
-1 23:1 48:1 193:1 228:1 
-0.9267075639323662 48:1 51:1 95:1 114:1 127:1 187:1 192:1 193:1 200:1 270:1 
-1 49:1 93:1 246:1 
-1 49:1 80:1 
-1 41:1 115:1 185:1 
-1 53:1 87:1 90:1 95:1 193:1 
-0.04251473169427421 87:1 135:1 189:1 193:1 233:1 
-0.6361166813335063 115:1 148:1 193:1 200:1 247:1 
-1 49:1 53:1 257:1 
-0.9542177890450333 49:1 87:1 98:1 192:1 
-0.8509054847828653 73:1 87:1 157:1 240:1 
-1 77:1 195:1 
-0.05619036317854208 19:1 29:1 68:1 
-1 194:1 252:1 
-1 49:1 193:1 194:1 200:1 
-1 73:1 78:1 87:1 95:1 221:1 248:1 251:1 
-0.5410773829722536 49:1 53:1 116:1 200:1 231:1 
-1 48:1 73:1 75:1 79:1 80:1 247:1 
-1 49:1 77:1 84:1 142:1 192:1 245:1 
-1 53:1 87:1 187:1 192:1 221:1 
-1 47:1 51:1 57:1 185:1 221:1 
-1 251:1 252:1 257:1 
-1 93:1 115:1 117:1 193:1 200:1 
-1 7:1 36:1 87:1 186:1 189:1 
-0.1938475962537656 75:1 124:1 195:1 
-1 53:1 77:1 87:1 90:1 
-0.7107300066982127 53:1 191:1 193:1 200:1 
-1 32:1 90:1 193:1 
-0.062955212781416 123:1 129:1 144:1 242:1 
-1 48:1 106:1 140:1 250:1 
-0.9170489963124465 91:1 158:1 192:1 221:1 
-1 252:1 254:1 263:1 
-1 127:1 150:1 200:1 248:1 
-0.2201913226675923 156:1 193:1 
-1 69:1 148:1 
-0.8306924086245463 78:1 200:1 251:1 
-0.6890648804041387 4:1 117:1 232:1 242:1 
-1 95:1 248:1 257:1 
-0.311306126923457 10:1 84:1 99:1 193:1 194:1 251:1 
-1 47:1 84:1 194:1 
-1 14:1 55:1 94:1 112:1 115:1 187:1 193:1 
-0.06932260817036086 47:1 87:1 193:1 220:1 
-1 53:1 77:1 194:1 
-0.9606617460149293 75:1 78:1 83:1 
-0.2836237139382121 53:1 87:1 90:1 193:1 248:1 
-1 72:1 219:1 220:1 
-0.2328040971275728 47:1 122:1 186:1 188:1 
-1 49:1 150:1 193:1 
-1 49:1 87:1 193:1 248:1 
-0.02023734273893755 3:1 160:1 218:1 
-1 95:1 156:1 221:1 
-1 49:1 59:1 
-1 7:1 95:1 193:1 242:1 
-1 49:1 53:1 87:1 90:1 248:1 
-1 116:1 117:1 201:1 
-0.4656692781600157 49:1 78:1 84:1 115:1 
-1 80:1 187:1 193:1 
-1 80:1 90:1 98:1 116:1 159:1 189:1 
-1 10:1 115:1 125:1 200:1 257:1 
-1 5:1 38:1 44:1 48:1 
-0.9595601455919806 52:1 53:1 59:1 87:1 116:1 117:1 197:1 228:1 
-1 3:1 117:1 123:1 252:1 
-1 52:1 59:1 107:1 123:1 194:1 
-1 18:1 84:1 193:1 200:1 225:1 
-0.368950250134472 85:1 93:1 160:1 
-1 49:1 221:1 251:1 
-0.8612092232934109 187:1 193:1 200:1 245:1 
-0.437599884106147 23:1 53:1 189:1 242:1 
-1 78:1 84:1 156:1 188:1 232:1 248:1 
-1 47:1 87:1 95:1 142:1 248:1 
-0.1398811110267094 4:1 10:1 82:1 123:1 
-1 189:1 251:1 257:1 270:1 
-1 26:1 116:1 
-0.3935748941481436 184:1 185:1 
-0.307556998751881 48:1 87:1 90:1 95:1 
-1 23:1 49:1 90:1 189:1 
-1 75:1 87:1 148:1 199:1 
-1 73:1 84:1 87:1 144:1 252:1 
-1 47:1 83:1 87:1 95:1 
-1 84:1 193:1 257:1 
-1 251:1 252:1 
-0.6638393962355796 29:1 53:1 87:1 90:1 
-0.4824518248784294 92:1 116:1 
-1 8:1 83:1 95:1 104:1 115:1 116:1 123:1 200:1 
-1 87:1 116:1 117:1 191:1 194:1 
-1 49:1 72:1 87:1 91:1 127:1 186:1 193:1 
-0.3751123767848104 53:1 87:1 94:1 115:1 232:1 
-0.8702238498882189 22:1 47:1 80:1 87:1 189:1 194:1 
-1 194:1 257:1 
-1 8:1 192:1 193:1 200:1 220:1 
-1 49:1 87:1 146:1 
-1 24:1 110:1 194:1 219:1 257:1 
-0.004901036910825197 82:1 115:1 248:1 251:1 257:1 
-1 53:1 87:1 90:1 112:1 189:1 192:1 233:1 
-1 78:1 148:1 193:1 248:1 
-1 194:1 200:1 242:1 251:1 
-0.2524352425107411 48:1 53:1 54:1 90:1 93:1 
-0.8831176978271663 49:1 53:1 59:1 83:1 87:1 193:1 204:1 233:1 
-1 23:1 48:1 49:1 248:1 
-1 87:1 101:1 193:1 200:1 
-1 39:1 116:1 
-1 23:1 87:1 127:1 200:1 
-1 192:1 200:1 
-0.1315750413592119 48:1 115:1 156:1 221:1 
-0.5336348418265513 53:1 87:1 234:1 
-0.9711824344850843 116:1 117:1 122:1 242:1 244:1 
-1 3:1 247:1 252:1 
-1 77:1 80:1 153:1 
-1 49:1 84:1 
-0.07996910676288282 6:1 53:1 193:1 200:1 
-0.09917910421241416 47:1 87:1 115:1 116:1 132:1 
-1 54:1 78:1 87:1 148:1 150:1 152:1 
-0.5478613102122802 7:1 193:1 221:1 
-1 3:1 23:1 48:1 75:1 
-1 29:1 84:1 194:1 233:1 
-1 117:1 127:1 257:1 
-0.05571309640180236 112:1 143:1 144:1 155:1 224:1 
-1 115:1 194:1 233:1 251:1 
-1 58:1 229:1 
-1 49:1 89:1 90:1 117:1 
-0.758743759222846 81:1 124:1 142:1 144:1 235:1 
-1 11:1 38:1 
-1 23:1 49:1 53:1 87:1 214:1 
-0.06929935006909704 23:1 49:1 53:1 
-1 84:1 138:1 140:1 233:1 
-1 49:1 89:1 90:1 
-0.4603540667539901 10:1 242:1 245:1 255:1 
-0.4338925360518794 115:1 122:1 148:1 233:1 
-0.1527758239175859 29:1 90:1 248:1 
-1 49:1 53:1 87:1 90:1 93:1 94:1 
-0.2739680378216856 10:1 78:1 79:1 248:1 
-1 80:1 193:1 248:1 251:1 
-1 2:1 115:1 116:1 193:1 200:1 
-1 189:1 257:1 
-0.03685964446779148 79:1 81:1 225:1 
-1 87:1 115:1 117:1 193:1 194:1 251:1 257:1 259:1 
-1 53:1 77:1 87:1 195:1 
-1 53:1 75:1 80:1 87:1 192:1 
-0.9713760673760158 23:1 48:1 75:1 127:1 
-0.4401754232627501 73:1 257:1 
-0.8557669460547834 53:1 55:1 87:1 123:1 192:1 193:1 
-0.290365380268505 109:1 261:1 
-1 49:1 91:1 257:1 
-1 49:1 233:1 
-1 84:1 189:1 214:1 
-0.5226000357998644 53:1 251:1 257:1 
-0.1773293535977777 144:1 158:1 161:1 226:1 240:1 
-0.8764569272689676 7:1 79:1 81:1 115:1 122:1 193:1 
-1 233:1 257:1 
-1 52:1 156:1 201:1 
-1 87:1 90:1 150:1 
-1 87:1 123:1 193:1 200:1 
-1 53:1 78:1 115:1 194:1 
-1 75:1 193:1 
-1 29:1 193:1 
-1 23:1 76:1 83:1 192:1 
-1 87:1 130:1 192:1 233:1 
-1 7:1 83:1 130:1 194:1 
-0.2647218861552395 115:1 117:1 123:1 248:1 
-0.2467407538750307 116:1 123:1 127:1 163:1 193:1 194:1 
-0.3481151609934531 78:1 91:1 257:1 
-0.0338177490303157 193:1 215:1 252:1 
-1 115:1 143:1 162:1 194:1 
-1 53:1 75:1 84:1 87:1 112:1 200:1 
-1 49:1 53:1 87:1 127:1 
-1 49:1 53:1 84:1 87:1 192:1 251:1 
-1 77:1 135:1 151:1 193:1 243:1 
-1 115:1 192:1 193:1 194:1 
-1 79:1 95:1 132:1 
-1 81:1 90:1 122:1 193:1 
-1 77:1 80:1 115:1 
-1 22:1 24:1 77:1 95:1 197:1 248:1 
-1 53:1 54:1 87:1 192:1 193:1 194:1 257:1 
-1 25:1 110:1 116:1 117:1 
-1 73:1 76:1 194:1 
-1 44:1 59:1 78:1 133:1 187:1 193:1 
-1 44:1 130:1 193:1 194:1 225:1 228:1 
-0.04230719171321601 73:1 117:1 144:1 164:1 
-1 39:1 
-1 48:1 49:1 77:1 270:1 
-0.4088090242986482 47:1 52:1 53:1 83:1 87:1 89:1 90:1 114:1 189:1 241:1 
-1 85:1 91:1 219:1 257:1 
-1 49:1 53:1 75:1 87:1 192:1 
-1 192:1 193:1 
-0.1499484126697173 115:1 224:1 228:1 
-1 200:1 221:1 
-0.07025450237728867 106:1 117:1 233:1 
-0.1119223630054614 49:1 55:1 141:1 
-1 59:1 84:1 
-1 49:1 75:1 77:1 87:1 
-1 87:1 105:1 189:1 
-1 48:1 53:1 83:1 87:1 90:1 189:1 192:1 
-0.01584522224284959 115:1 116:1 240:1 245:1 
-1 111:1 193:1 200:1 251:1 257:1 
-1 193:1 257:1 
-1 87:1 89:1 186:1 193:1 239:1 251:1 257:1 
-1 7:1 115:1 148:1 185:1 206:1 
-1 49:1 53:1 78:1 87:1 152:1 
-1 48:1 83:1 91:1 97:1 219:1 251:1 
-0.1270411272456499 164:1 165:1 166:1 185:1 
-1 53:1 87:1 194:1 
-1 111:1 115:1 128:1 150:1 193:1 
-0.525597351909614 8:1 144:1 194:1 
-0.2992487980678675 87:1 115:1 126:1 189:1 194:1 
-1 23:1 24:1 49:1 
-1 78:1 90:1 95:1 192:1 193:1 
-1 132:1 153:1 189:1 
-1 123:1 193:1 194:1 251:1 
-0.1035966999246448 115:1 122:1 189:1 228:1 
-1 117:1 140:1 192:1 251:1 
-0.2032269699606689 7:1 53:1 78:1 193:1 200:1 
-1 189:1 251:1 257:1 
-0.5924493853365861 73:1 116:1 144:1 
-1 188:1 251:1 260:1 
-1 49:1 87:1 186:1 192:1 247:1 
-1 24:1 75:1 
-0.2056491228719063 220:1 270:1 
-1 107:1 200:1 244:1 251:1 
-1 23:1 75:1 
-1 214:1 248:1 
-0.1393807476518333 34:1 83:1 115:1 
-0.2641454572015928 73:1 90:1 193:1 
-1 53:1 77:1 83:1 189:1 194:1 248:1 
-0.04919591454481778 112:1 117:1 245:1 254:1 
-0.5893474101380393 193:1 220:1 228:1 
-1 80:1 84:1 123:1 
-0.9780682326000113 111:1 115:1 156:1 248:1 
-1 49:1 194:1 221:1 
-0.7571805040162056 53:1 83:1 109:1 135:1 
-1 53:1 87:1 192:1 257:1 
-1 59:1 95:1 127:1 
-0.1016811654074295 6:1 87:1 194:1 246:1 
-1 44:1 115:1 122:1 192:1 200:1 
-0.9275215547598733 48:1 87:1 245:1 
-1 48:1 53:1 76:1 159:1 219:1 
-0.1335921724630753 115:1 161:1 220:1 223:1 233:1 
-1 76:1 105:1 195:1 
-1 79:1 239:1 242:1 
-0.06286309355097736 87:1 229:1 242:1 
-1 58:1 84:1 192:1 
-1 127:1 193:1 194:1 200:1 244:1 251:1 
-1 116:1 193:1 194:1 200:1 201:1 251:1 
-0.9499164920936204 26:1 115:1 
-1 24:1 87:1 106:1 150:1 192:1 195:1 242:1 
-1 49:1 87:1 122:1 192:1 
-0.1382858438636584 82:1 193:1 221:1 
-1 233:1 242:1 
-1 76:1 123:1 200:1 
-1 111:1 116:1 142:1 199:1 
-1 144:1 156:1 257:1 
-1 48:1 49:1 87:1 89:1 90:1 
-1 47:1 53:1 194:1 
-1 49:1 53:1 87:1 109:1 142:1 
-1 49:1 87:1 116:1 117:1 185:1 248:1 
-0.05068637905469615 219:1 228:1 
-1 221:1 244:1 248:1 251:1 257:1 270:1 
-0.1593878447130231 80:1 84:1 111:1 
-0.7751620494685963 3:1 73:1 78:1 221:1 
-1 53:1 89:1 95:1 127:1 
-0.7250842096566755 115:1 123:1 194:1 252:1 
-1 76:1 83:1 
-1 48:1 73:1 192:1 248:1 
-0.4865474454060102 106:1 207:1 
-1 192:1 194:1 251:1 
-1 9:1 117:1 166:1 185:1 
-1 90:1 95:1 115:1 189:1 
-1 123:1 189:1 194:1 206:1 
-1 200:1 233:1 251:1 261:1 
-0.1432879996501688 129:1 193:1 221:1 257:1 
-1 24:1 80:1 189:1 
-0.94468840359394 81:1 82:1 91:1 106:1 115:1 
-1 77:1 87:1 89:1 90:1 193:1 194:1 
-0.01797028549350093 244:1 251:1 
-1 76:1 87:1 97:1 
-1 87:1 90:1 105:1 193:1 
-1 75:1 77:1 200:1 
-0.1260923457175434 49:1 87:1 243:1 
-1 77:1 80:1 189:1 200:1 
-1 116:1 117:1 130:1 161:1 194:1 
-1 49:1 53:1 193:1 194:1 201:1 
-1 23:1 53:1 87:1 193:1 221:1 233:1 
-0.4922131308188177 29:1 49:1 52:1 87:1 193:1 
-1 194:1 233:1 251:1 
-1 48:1 53:1 76:1 87:1 116:1 
-0.8646931857068684 115:1 117:1 144:1 240:1 251:1 
-1 87:1 105:1 215:1 220:1 
-0.8999506277959599 75:1 87:1 89:1 90:1 
-0.206353254116048 18:1 49:1 247:1 
-1 117:1 122:1 241:1 
-1 23:1 194:1 245:1 
-1 95:1 116:1 189:1 257:1 
-0.9694990000588789 59:1 87:1 150:1 
-0.9517064851317545 53:1 54:1 77:1 87:1 90:1 104:1 
-1 73:1 95:1 144:1 200:1 221:1 233:1 
-1 49:1 53:1 58:1 87:1 192:1 
-1 108:1 122:1 144:1 149:1 
-1 116:1 221:1 228:1 247:1 
-0.9365681381509183 123:1 242:1 
-0.9904496980440247 47:1 136:1 
-0.08061802984909605 111:1 116:1 193:1 218:1 251:1 
-1 76:1 87:1 138:1 
-1 23:1 115:1 116:1 189:1 245:1 
-0.7000767516819231 22:1 53:1 151:1 192:1 193:1 
-1 24:1 49:1 200:1 
-0.2006752231677533 49:1 87:1 124:1 127:1 191:1 193:1 244:1 
-0.7152083638916766 51:1 84:1 189:1 225:1 
-0.5842276727702024 156:1 240:1 
-0.7550634871231474 128:1 129:1 193:1 251:1 257:1 
-1 23:1 53:1 116:1 192:1 193:1 
-0.02635897545422375 47:1 78:1 124:1 200:1 
-1 189:1 251:1 257:1 
-0.9142482691947186 4:1 185:1 194:1 
-1 49:1 87:1 189:1 193:1 257:1 
-1 23:1 116:1 151:1 
-0.04031857671268512 7:1 231:1 248:1 252:1 
-1 49:1 53:1 75:1 82:1 87:1 127:1 
-0.7357121566000895 109:1 130:1 148:1 194:1 
-1 52:1 59:1 84:1 193:1 200:1 
-1 185:1 257:1 
-0.7893294023804598 115:1 239:1 252:1 
-1 83:1 87:1 132:1 152:1 
-1 7:1 199:1 245:1 
-1 76:1 84:1 
-1 47:1 53:1 83:1 84:1 
-1 24:1 192:1 
-0.8116228486458895 78:1 156:1 202:1 233:1 
-0.5252206107981278 47:1 87:1 161:1 194:1 
-0.9436742185899649 48:1 108:1 
-1 48:1 49:1 53:1 87:1 248:1 
-1 84:1 132:1 133:1 151:1 
-1 87:1 240:1 248:1 257:1 
-0.6124878265500212 4:1 112:1 252:1 
-1 47:1 53:1 117:1 194:1 200:1 257:1 
-1 7:1 53:1 83:1 84:1 245:1 
-1 49:1 53:1 87:1 98:1 191:1 
-1 104:1 245:1 
-1 23:1 84:1 115:1 193:1 194:1 
-0.01637111377141128 49:1 87:1 191:1 
-1 39:1 194:1 
-1 87:1 117:1 192:1 194:1 
-1 144:1 194:1 
-0.9768287405092183 53:1 87:1 89:1 90:1 151:1 153:1 
-1 84:1 95:1 191:1 
-0.09441540921728712 95:1 192:1 
-0.1524473463372363 49:1 90:1 
-1 48:1 49:1 53:1 58:1 192:1 
-0.9597835955701236 189:1 193:1 229:1 
-0.1285849388173729 150:1 194:1 244:1 
-0.9430763555141555 19:1 72:1 148:1 194:1 
-1 123:1 193:1 
-0.2115599902077567 112:1 115:1 248:1 
-1 3:1 53:1 84:1 87:1 200:1 
-0.4936204873148372 189:1 245:1 
-1 93:1 111:1 193:1 200:1 259:1 
-0.513431962518995 89:1 150:1 
-0.7186599431670917 29:1 80:1 87:1 90:1 115:1 
-1 49:1 75:1 186:1 194:1 
-0.04510128711724144 87:1 149:1 200:1 
-0.6203426744867101 130:1 221:1 251:1 
-1 194:1 220:1 
-1 47:1 58:1 112:1 116:1 194:1 248:1 
-0.3399031855986131 81:1 112:1 122:1 144:1 
-1 195:1 257:1 
-0.1082246873367774 7:1 47:1 123:1 194:1 
-1 50:1 93:1 
-1 192:1 200:1 201:1 
-1 200:1 221:1 
-1 81:1 83:1 156:1 189:1 
-1 80:1 148:1 222:1 228:1 
-0.2534744153743419 79:1 93:1 252:1 
-0.9698517126060056 115:1 148:1 185:1 189:1 
-1 80:1 123:1 189:1 
-0.06133141172143908 77:1 159:1 189:1 
-1 7:1 81:1 111:1 200:1 221:1 
-0.2790415496754309 46:1 87:1 144:1 192:1 194:1 
-1 97:1 194:1 248:1 
-1 75:1 115:1 
-1 79:1 81:1 
-0.4717336530667371 115:1 152:1 
-1 62:1 82:1 98:1 150:1 
-0.7521223502536537 7:1 78:1 152:1 221:1 
-0.1966005428267981 80:1 91:1 127:1 
-0.9015553411650369 55:1 148:1 218:1 224:1 225:1 
-1 44:1 95:1 224:1 257:1 
-1 53:1 87:1 89:1 90:1 116:1 141:1 200:1 
-0.3412036375308459 49:1 58:1 87:1 144:1 
-1 97:1 189:1 194:1 197:1 242:1 
-0.854706430228293 53:1 87:1 127:1 192:1 
-1 125:1 192:1 200:1 
-1 138:1 144:1 248:1 257:1 
-0.4489872292000066 87:1 89:1 90:1 148:1 
-0.312332577231029 58:1 73:1 78:1 144:1 
-1 123:1 200:1 228:1 
-1 58:1 87:1 248:1 
-0.5415280908328971 112:1 148:1 185:1 201:1 
-0.0211487260382016 122:1 162:1 
-0.4823296904469393 87:1 189:1 257:1 
-1 10:1 70:1 200:1 251:1 
-1 49:1 78:1 84:1 144:1 192:1 193:1 200:1 
-1 123:1 189:1 192:1 194:1 
-0.6863343334634783 53:1 87:1 106:1 193:1 
-1 4:1 53:1 75:1 115:1 
-1 23:1 53:1 
-0.5812212792544 7:1 115:1 228:1 
-0.3117784908956441 59:1 127:1 
-0.9967521854670159 80:1 90:1 218:1 225:1 
-1 122:1 257:1 
-1 222:1 224:1 233:1 
-1 32:1 41:1 47:1 53:1 87:1 
-1 23:1 193:1 194:1 
-0.453499571324749 80:1 193:1 
-0.06387448131744497 123:1 236:1 
-1 115:1 189:1 201:1 
-1 53:1 73:1 83:1 85:1 87:1 192:1 199:1 200:1 
-1 4:1 257:1 
-0.0603596259853675 116:1 220:1 242:1 
-1 49:1 83:1 115:1 
-1 49:1 53:1 87:1 194:1 245:1 
-1 49:1 104:1 193:1 221:1 
-1 41:1 93:1 
-1 150:1 161:1 164:1 
-1 192:1 193:1 219:1 
-1 77:1 87:1 248:1 
-0.5272574989079776 87:1 251:1 257:1 
-1 64:1 192:1 200:1 233:1 
-1 24:1 122:1 
-1 192:1 195:1 247:1 
-1 84:1 87:1 193:1 194:1 201:1 247:1 
-1 222:1 224:1 
-1 49:1 108:1 246:1 
-1 87:1 116:1 117:1 194:1 
-0.2394296892881644 4:1 239:1 254:1 
-0.02844829148864724 81:1 236:1 
-1 81:1 247:1 
-0.2562636017300845 87:1 89:1 90:1 95:1 
-1 115:1 189:1 244:1 248:1 252:1 
-0.3052494680891814 197:1 221:1 252:1 
-1 78:1 192:1 221:1 
-0.8827361112241582 117:1 257:1 
-0.6885725243057541 53:1 68:1 87:1 89:1 90:1 
-0.6902757542720133 7:1 115:1 164:1 
-1 7:1 149:1 186:1 218:1 
-1 49:1 53:1 87:1 90:1 105:1 
-1 115:1 125:1 194:1 221:1 
-1 10:1 58:1 148:1 165:1 252:1 
-0.9308531443702939 187:1 193:1 222:1 
-1 48:1 194:1 214:1 
-1 87:1 193:1 194:1 
-1 70:1 201:1 
-1 82:1 115:1 200:1 
-1 200:1 248:1 
-1 24:1 53:1 80:1 87:1 193:1 248:1 257:1 
-1 39:1 
-1 49:1 53:1 59:1 87:1 90:1 117:1 
-0.8556250893389599 115:1 189:1 193:1 
-0.8092053324867263 49:1 54:1 75:1 87:1 192:1 247:1 
-1 53:1 87:1 142:1 
-1 127:1 130:1 131:1 194:1 
-1 49:1 50:1 53:1 87:1 193:1 
-1 156:1 194:1 245:1 
-1 4:1 115:1 189:1 206:1 
-1 162:1 189:1 233:1 242:1 
-1 29:1 87:1 193:1 194:1 
-1 29:1 105:1 
-1 23:1 54:1 87:1 123:1 193:1 194:1 
-1 49:1 80:1 
-1 49:1 106:1 189:1 248:1 
-1 270:1 
-1 87:1 187:1 233:1 248:1 
-1 49:1 92:1 122:1 194:1 
-1 116:1 248:1 250:1 
-1 49:1 53:1 76:1 87:1 116:1 192:1 
-1 200:1 251:1 
-0.9679911567190667 111:1 218:1 221:1 
-1 48:1 90:1 191:1 199:1 254:1 257:1 
-0.9493509791645725 48:1 193:1 
-0.3282744721416792 53:1 87:1 95:1 106:1 
-1 11:1 91:1 
-1 122:1 186:1 219:1 
-1 115:1 189:1 242:1 
-0.1724372323338014 193:1 200:1 201:1 
-0.6834886429405658 2:1 115:1 
-1 49:1 87:1 125:1 193:1 194:1 251:1 
-1 59:1 186:1 236:1 
-1 127:1 160:1 194:1 200:1 
-1 115:1 193:1 221:1 
-0.5553730032627032 73:1 117:1 123:1 
-0.8624746423866751 49:1 53:1 87:1 214:1 
-1 49:1 53:1 87:1 116:1 117:1 186:1 189:1 192:1 193:1 225:1 
-1 49:1 77:1 
-1 195:1 245:1 247:1 
-0.02635307602268427 7:1 170:1 257:1 
-0.595084610842801 4:1 81:1 123:1 
-0.0670389166341467 48:1 53:1 59:1 
-1 84:1 122:1 192:1 194:1 200:1 
-1 49:1 53:1 233:1 
-1 90:1 111:1 117:1 165:1 231:1 233:1 257:1 
-0.2165804763629365 84:1 132:1 155:1 194:1 
-0.9548025535637461 6:1 24:1 49:1 87:1 97:1 193:1 225:1 
-1 117:1 252:1 
-0.8473914732830347 49:1 87:1 192:1 
-0.5332050336299275 186:1 198:1 
-1 53:1 87:1 191:1 200:1 
-0.04005445780958232 87:1 91:1 219:1 
-0.7954129046521047 4:1 242:1 248:1 
-1 193:1 200:1 257:1 
-0.3463628420529166 112:1 160:1 214:1 221:1 
-1 4:1 115:1 127:1 
-1 49:1 243:1 248:1 
-0.2470865532257894 41:1 84:1 124:1 
-1 87:1 200:1 244:1 245:1 
-0.02254507971281838 24:1 115:1 
-1 128:1 222:1 
-0.3668042127160194 87:1 148:1 233:1 257:1 
-1 49:1 53:1 87:1 127:1 191:1 
-1 152:1 164:1 189:1 257:1 
-1 6:1 112:1 194:1 244:1 247:1 
-0.9625634986560618 49:1 53:1 87:1 93:1 192:1 246:1 
-1 164:1 200:1 
-1 138:1 141:1 149:1 
-0.5628885431619337 116:1 192:1 
-1 115:1 116:1 194:1 
-1 53:1 116:1 117:1 193:1 248:1 251:1 
-1 87:1 159:1 191:1 199:1 
-1 77:1 140:1 200:1 
-1 7:1 73:1 78:1 84:1 115:1 194:1 
-0.1585442930806805 115:1 123:1 193:1 
-1 144:1 194:1 
-0.6628954388555365 87:1 192:1 201:1 
-1 81:1 228:1 252:1 
-1 185:1 245:1 247:1 
-1 53:1 87:1 93:1 193:1 
-1 49:1 84:1 200:1 
-1 47:1 112:1 239:1 257:1 
-1 115:1 189:1 221:1 
-1 53:1 123:1 194:1 
-0.7356920480760818 199:1 241:1 
-1 90:1 92:1 185:1 
-0.5410605303282856 49:1 53:1 87:1 95:1 148:1 
-1 49:1 89:1 
-0.1537034106185934 130:1 218:1 233:1 
-1 87:1 95:1 98:1 220:1 253:1 
-1 87:1 95:1 115:1 248:1 
-0.9532861050500812 148:1 200:1 
-0.9057162956430544 134:1 200:1 
-1 84:1 189:1 
-1 73:1 148:1 156:1 
-0.1074218329426813 81:1 82:1 115:1 116:1 193:1 
-0.905838097258912 115:1 123:1 242:1 
-1 84:1 87:1 117:1 122:1 123:1 
-1 77:1 83:1 90:1 
-1 23:1 49:1 
-0.1940515219143825 68:1 122:1 123:1 
-1 7:1 49:1 64:1 90:1 197:1 245:1 
-1 90:1 91:1 248:1 
-0.9627302461008036 87:1 111:1 116:1 197:1 219:1 251:1 257:1 
-1 90:1 93:1 
-1 87:1 132:1 191:1 192:1 
-0.8831050409097851 48:1 219:1 
-0.4739819989828963 82:1 185:1 
-0.4359602950688252 53:1 87:1 89:1 94:1 
-1 222:1 233:1 
-1 38:1 87:1 
-0.9668713356239513 58:1 81:1 125:1 
-0.0753010651788409 53:1 75:1 87:1 127:1 193:1 253:1 
-1 11:1 53:1 78:1 82:1 156:1 201:1 
-0.06071378474323202 115:1 133:1 143:1 
-1 49:1 150:1 
-1 81:1 117:1 189:1 233:1 251:1 
-1 165:1 200:1 233:1 257:1 
-0.0536232171552741 41:1 116:1 
-1 193:1 221:1 
-1 49:1 69:1 87:1 193:1 
-0.04147782311657711 48:1 117:1 124:1 164:1 244:1 
-0.7920584449139755 59:1 79:1 123:1 132:1 235:1 
-1 53:1 90:1 127:1 149:1 193:1 247:1 
-1 49:1 233:1 
-1 200:1 221:1 
-0.35923862347523 122:1 193:1 
-1 6:1 49:1 144:1 192:1 200:1 233:1 
-0.9018898539289755 69:1 
-1 127:1 152:1 
-1 87:1 89:1 90:1 105:1 116:1 142:1 
-1 53:1 73:1 123:1 192:1 194:1 201:1 257:1 
-1 49:1 93:1 
-1 87:1 115:1 123:1 127:1 251:1 257:1 
-0.07771642426044358 49:1 87:1 195:1 
-1 14:1 134:1 
-1 132:1 154:1 194:1 
-1 193:1 248:1 252:1 
-0.9517008012097533 3:1 47:1 124:1 131:1 132:1 138:1 
-1 32:1 90:1 
-1 53:1 84:1 194:1 244:1 248:1 
-0.6959386750815518 75:1 115:1 
-0.1964588334850939 152:1 240:1 
-1 23:1 53:1 77:1 82:1 83:1 87:1 
-0.00982864656970122 49:1 193:1 194:1 
-0.529875179448038 191:1 225:1 227:1 233:1 
-1 38:1 
-1 49:1 122:1 
-1 72:1 77:1 195:1 254:1 
-1 49:1 91:1 93:1 115:1 247:1 
-1 23:1 80:1 87:1 127:1 
-1 84:1 112:1 214:1 252:1 
-1 147:1 
-0.9236385550053769 73:1 248:1 251:1 257:1 
-1 84:1 123:1 
-1 84:1 123:1 156:1 
-1 87:1 93:1 248:1 
-1 81:1 115:1 233:1 
-1 152:1 252:1 
-1 79:1 194:1 251:1 
-1 83:1 194:1 
-1 87:1 187:1 194:1 
-0.238699109519513 73:1 127:1 128:1 
-0.1755192379890224 94:1 112:1 
-1 49:1 75:1 83:1 
-0.4061964595908011 41:1 87:1 193:1 
-0.6768491394278966 73:1 81:1 115:1 
-1 3:1 127:1 
-1 81:1 150:1 248:1 
-1 49:1 233:1 
-1 4:1 84:1 200:1 221:1 
-1 252:1 255:1 257:1 
-0.9357653046878005 116:1 200:1 
-1 53:1 87:1 138:1 148:1 248:1 257:1 
-1 49:1 75:1 247:1 
-1 80:1 122:1 194:1 244:1 
-0.2677415018670208 79:1 81:1 
-1 165:1 240:1 
-1 84:1 98:1 194:1 245:1 246:1 
-1 49:1 87:1 97:1 98:1 107:1 127:1 
-1 49:1 116:1 251:1 257:1 
-0.04794556137629658 83:1 87:1 233:1 
-1 87:1 115:1 194:1 
-1 198:1 206:1 
-1 49:1 189:1 248:1 
-1 49:1 90:1 
-0.2808307145138841 49:1 53:1 87:1 89:1 115:1 116:1 122:1 124:1 
-1 48:1 194:1 200:1 
-0.9887933313743914 49:1 220:1 
-0.4993149260600618 7:1 75:1 83:1 
-1 49:1 78:1 152:1 189:1 
-0.03905848837558799 48:1 49:1 87:1 90:1 251:1 
-1 91:1 200:1 
-1 53:1 87:1 90:1 156:1 245:1 
-0.1587300281887269 89:1 193:1 197:1 
-0.07140952792569039 48:1 87:1 250:1 
-1 75:1 83:1 200:1 
-1 49:1 144:1 
-1 261:1 
-1 49:1 53:1 87:1 191:1 
-0.3890655042590809 78:1 222:1 
-0.1134465586363271 75:1 81:1 193:1 
-1 2:1 111:1 150:1 
-0.9669025461390157 49:1 87:1 95:1 193:1 
-0.8320007053683858 193:1 257:1 
-0.4480090975378995 185:1 247:1 257:1 
-1 142:1 
-1 49:1 248:1 
-1 59:1 91:1 149:1 
-1 72:1 84:1 117:1 127:1 164:1 187:1 
-1 48:1 53:1 95:1 144:1 257:1 
-1 82:1 108:1 242:1 
-0.0788889217862645 25:1 53:1 75:1 115:1 
-0.9849269399547231 87:1 122:1 162:1 193:1 233:1 
-0.6727217205517607 189:1 200:1 
-1 83:1 117:1 193:1 
-1 73:1 81:1 84:1 250:1 
-1 48:1 49:1 87:1 111:1 200:1 251:1 
-0.8806474518166002 6:1 70:1 87:1 251:1 
-0.1605226821344472 28:1 192:1 
-1 83:1 194:1 201:1 
-0.2158669942975809 58:1 82:1 241:1 
-1 53:1 87:1 116:1 233:1 251:1 257:1 
-0.7094487122959154 48:1 87:1 193:1 
-0.09131885125142222 82:1 123:1 193:1 
-0.1801745645288446 63:1 111:1 116:1 122:1 127:1 
-0.09321347156616455 7:1 81:1 
-1 53:1 76:1 
-0.6451497705959923 53:1 62:1 81:1 
-1 49:1 75:1 87:1 
-1 48:1 117:1 200:1 
-0.5940605395436624 4:1 78:1 123:1 
-0.9528414294878559 32:1 
-1 95:1 186:1 189:1 
-1 3:1 194:1 218:1 
-0.2032405021714366 87:1 115:1 193:1 194:1 
-1 32:1 
-1 49:1 53:1 251:1 
-1 116:1 142:1 
-1 49:1 53:1 75:1 87:1 
-0.793646745883952 49:1 221:1 247:1 
-1 87:1 98:1 233:1 
-0.7095146382808287 49:1 87:1 192:1 227:1 233:1 
-0.7449679259188962 49:1 87:1 233:1 
-1 200:1 214:1 228:1 
-0.3353054716943801 81:1 161:1 
-1 90:1 117:1 193:1 194:1 200:1 257:1 
-1 132:1 191:1 200:1 233:1 
-0.7065074105688438 49:1 87:1 117:1 257:1 
-1 123:1 192:1 
-0.2541074871839273 29:1 87:1 154:1 
-0.5144228289528685 53:1 187:1 221:1 251:1 
-1 48:1 53:1 90:1 123:1 
-0.3677213340178538 81:1 87:1 89:1 90:1 115:1 
-0.6579223342552714 48:1 148:1 228:1 
-1 49:1 53:1 144:1 248:1 251:1 
-0.04930738474344876 53:1 85:1 247:1 251:1 
-1 193:1 221:1 
-0.7528520540857628 115:1 252:1 254:1 
-1 110:1 186:1 251:1 
-0.9365394416770164 83:1 194:1 228:1 
-0.6078433269358772 87:1 127:1 
-0.5382871054321894 78:1 112:1 123:1 124:1 
-1 234:1 
-1 49:1 247:1 
-1 78:1 83:1 87:1 122:1 
-1 49:1 53:1 87:1 193:1 200:1 248:1 257:1 
-0.282766891130413 64:1 83:1 
-1 14:1 53:1 87:1 90:1 
-1 68:1 194:1 198:1 
-1 49:1 53:1 77:1 87:1 251:1 
-1 78:1 200:1 
-1 55:1 87:1 135:1 144:1 148:1 194:1 240:1 
-1 193:1 221:1 
-0.03014828739399441 59:1 148:1 
-0.1238238938038305 49:1 53:1 236:1 
-0.03011423261517047 84:1 148:1 233:1 
-1 229:1 233:1 
-1 58:1 95:1 189:1 245:1 
-1 87:1 191:1 200:1 
-0.9744300531572414 23:1 48:1 186:1 
-1 201:1 214:1 221:1 240:1 
-0.6265439576330322 52:1 84:1 192:1 
-1 76:1 80:1 
-0.03821927550966978 53:1 87:1 89:1 95:1 
-1 49:1 53:1 87:1 89:1 90:1 
-0.04113137406849818 122:1 141:1 
-1 11:1 90:1 257:1 
-1 48:1 248:1 251:1 
-1 52:1 84:1 115:1 200:1 233:1 
-1 142:1 
-1 49:1 53:1 87:1 90:1 116:1 
-0.6882270473786344 219:1 255:1 
-0.3703165370261263 62:1 189:1 193:1 
-0.07005685348055175 81:1 123:1 186:1 
-1 59:1 75:1 83:1 
-1 23:1 76:1 87:1 89:1 
-0.4664710924304185 83:1 87:1 98:1 
-0.4135812550314295 71:1 244:1 
-1 75:1 193:1 
-0.08092361813256177 116:1 194:1 257:1 
-1 49:1 53:1 59:1 123:1 
-1 117:1 251:1 257:1 
-1 68:1 87:1 98:1 193:1 
-1 94:1 115:1 123:1 194:1 
-0.4268643685508728 189:1 221:1 
-1 252:1 257:1 
-1 148:1 187:1 194:1 257:1 
-1 200:1 233:1 247:1 254:1 
-1 49:1 53:1 87:1 89:1 
-0.1032750669606597 94:1 233:1 
-0.1891907708294414 49:1 79:1 148:1 
-1 24:1 49:1 53:1 
-1 108:1 
-1 214:1 242:1 
-1 159:1 192:1 
-1 23:1 191:1 200:1 224:1 
-0.9558789010912417 14:1 53:1 132:1 
-0.06149397817713059 90:1 222:1 
-1 123:1 194:1 
-0.9285320787283385 64:1 233:1 
-0.9255034130334707 51:1 76:1 
-1 24:1 
-0.2635909248407087 41:1 117:1 
-1 7:1 75:1 189:1 
-1 91:1 194:1 221:1 
-1 53:1 87:1 147:1 
-1 127:1 193:1 
-1 76:1 83:1 90:1 111:1 116:1 
-0.2839209659131928 7:1 87:1 93:1 116:1 
-0.1819609406640749 2:1 
-1 123:1 233:1 
-0.0673957643007051 53:1 87:1 89:1 111:1 193:1 
-1 87:1 192:1 
-0.1530537600006819 7:1 115:1 189:1 201:1 
-1 144:1 194:1 
-1 95:1 115:1 189:1 
-1 73:1 195:1 224:1 
-0.69604197777614 49:1 53:1 87:1 248:1 
-0.2699562159342614 48:1 87:1 194:1 
-1 198:1 
-0.08082885764422788 95:1 109:1 115:1 193:1 
-0.1550003568563491 78:1 123:1 189:1 242:1 
-1 49:1 151:1 193:1 
-0.1325872772687359 73:1 198:1 
-1 49:1 89:1 
-0.8385497584576493 191:1 206:1 
-0.1523970445387999 49:1 72:1 90:1 
-1 53:1 87:1 122:1 123:1 152:1 193:1 
-1 82:1 130:1 200:1 
-0.0312231181736872 87:1 90:1 192:1 
-0.1601012892001559 49:1 84:1 87:1 
-0.2045408228121736 82:1 200:1 
-0.6370002104475985 36:1 49:1 53:1 189:1 
-1 123:1 252:1 
-1 55:1 87:1 146:1 200:1 
-1 23:1 200:1 
-1 117:1 194:1 257:1 
-1 270:1 
-0.8254984149683881 49:1 53:1 75:1 87:1 
-1 194:1 251:1 257:1 
-1 75:1 95:1 245:1 248:1 
-0.1781945351901297 91:1 186:1 247:1 
-1 193:1 194:1 248:1 
-0.9618394709474306 200:1 252:1 
-1 130:1 193:1 241:1 251:1 257:1 
-1 194:1 200:1 
-1 53:1 69:1 193:1 
-0.9414804519449488 110:1 
-1 87:1 193:1 194:1 
-1 192:1 245:1 
-0.4976133271091653 123:1 193:1 221:1 
-1 106:1 191:1 199:1 219:1 
-1 38:1 
-0.05117954086996774 59:1 112:1 
-1 49:1 87:1 257:1 
-1 76:1 95:1 
-1 115:1 193:1 194:1 
-1 194:1 248:1 257:1 
-1 200:1 221:1 
-1 192:1 193:1 
-1 49:1 53:1 87:1 191:1 
-1 194:1 248:1 257:1 
-1 234:1 
-1 87:1 90:1 193:1 194:1 
-0.6530116004266726 187:1 194:1 
-1 94:1 
-1 49:1 115:1 192:1 193:1 200:1 
-1 53:1 87:1 90:1 127:1 
-1 24:1 59:1 193:1 195:1 200:1 241:1 257:1 
-1 49:1 53:1 77:1 87:1 
-0.4447137116262432 49:1 53:1 87:1 124:1 193:1 194:1 201:1 
-0.6406471169869158 53:1 87:1 115:1 193:1 245:1 
-1 77:1 84:1 197:1 
-1 24:1 122:1 
-1 49:1 95:1 186:1 
-1 92:1 127:1 189:1 201:1 
-1 116:1 117:1 193:1 257:1 
-1 87:1 116:1 117:1 193:1 257:1 
-0.9567736913967944 44:1 53:1 117:1 248:1 251:1 
-1 87:1 188:1 
-1 84:1 87:1 192:1 
-0.04205529814767812 73:1 111:1 198:1 
-1 192:1 257:1 
-1 143:1 193:1 221:1 248:1 257:1 
-1 193:1 194:1 251:1 
-1 106:1 191:1 248:1 251:1 
-1 244:1 263:1 
-1 49:1 90:1 
-0.3728647205057046 225:1 251:1 270:1 
-0.8781880621001021 87:1 104:1 
-0.4545900374451027 92:1 
-0.1763376835783249 53:1 87:1 156:1 
-1 138:1 185:1 
-0.6001550506988187 71:1 200:1 
-0.6584491242195147 106:1 189:1 242:1 
-1 49:1 53:1 257:1 
-0.1220397062623697 49:1 87:1 95:1 247:1 
-0.3613350930192473 221:1 228:1 
-0.4155862992702173 82:1 234:1 
-0.2635881842347398 193:1 263:1 
-1 84:1 116:1 
-0.08512354136573967 63:1 122:1 124:1 144:1 240:1 
-0.7281017789299149 79:1 89:1 90:1 116:1 191:1 251:1 
-0.950088067748655 117:1 200:1 
-1 24:1 53:1 90:1 94:1 
-1 193:1 221:1 
-1 49:1 87:1 123:1 248:1 257:1 
-0.9550675254610209 84:1 106:1 246:1 
-1 252:1 257:1 
-0.1987610714437286 51:1 73:1 193:1 257:1 
-1 194:1 199:1 
-1 89:1 193:1 
-0.07280351405399953 48:1 140:1 193:1 
-0.05333692286582835 49:1 87:1 112:1 140:1 193:1 
-1 84:1 233:1 
-1 153:1 233:1 
-0.8323002512470044 251:1 257:1 
-1 147:1 
-1 115:1 201:1 
-1 116:1 194:1 197:1 202:1 219:1 
-0.1983272134943762 23:1 148:1 189:1 
-0.118606589692455 81:1 241:1 
-0.3894111722648027 49:1 115:1 214:1 
-0.3347808222781978 82:1 189:1 244:1 257:1 
-0.2498625987566291 55:1 59:1 148:1 233:1 
-0.5100893599283441 221:1 243:1 
-1 87:1 146:1 
-0.08459221919546785 161:1 193:1 251:1 
-1 78:1 98:1 
-0.1132588238498694 4:1 161:1 
-1 81:1 115:1 194:1 251:1 257:1 
-0.2083086871751448 47:1 252:1 
-1 84:1 87:1 130:1 191:1 
-1 49:1 122:1 188:1 
-0.05099576868882044 95:1 122:1 
-1 49:1 53:1 87:1 189:1 194:1 
-0.6292214485376298 49:1 87:1 116:1 228:1 
-1 53:1 116:1 117:1 193:1 257:1 
-0.2693260460163144 49:1 117:1 
-1 111:1 116:1 193:1 200:1 248:1 
-0.04877235894705166 58:1 193:1 
-1 234:1 
-0.231684159223156 127:1 251:1 
-1 192:1 193:1 
-1 49:1 53:1 87:1 192:1 194:1 200:1 
-1 189:1 193:1 194:1 240:1 
-1 3:1 198:1 
-1 89:1 90:1 193:1 
-1 49:1 78:1 87:1 122:1 123:1 
-1 150:1 
-0.1374454044018617 53:1 87:1 151:1 191:1 193:1 
-1 7:1 142:1 
-0.1695723580235844 49:1 206:1 
-1 189:1 200:1 
-0.3279260050350578 83:1 233:1 257:1 
-1 200:1 245:1 
-1 4:1 193:1 
-1 42:1 
-0.7881918772904383 107:1 130:1 
-0.1432153044841987 123:1 193:1 
-1 73:1 115:1 130:1 160:1 189:1 193:1 248:1 
-0.1363100388127797 33:1 96:1 107:1 
-1 48:1 49:1 53:1 87:1 156:1 
-0.4376326226453429 189:1 251:1 
-0.3417120219152363 115:1 247:1 
-1 115:1 219:1 
-1 81:1 117:1 189:1 252:1 
-1 112:1 194:1 233:1 
-0.3410329883083137 123:1 194:1 
-1 49:1 80:1 130:1 192:1 231:1 
-0.4013064214074945 242:1 248:1 
-0.7738226600475725 186:1 245:1 
-0.4126300631361773 83:1 252:1 
-1 77:1 95:1 135:1 156:1 
-1 84:1 193:1 
-1 123:1 257:1 
-1 150:1 
-1 194:1 224:1 
-1 194:1 200:1 233:1 
-0.3117729526213656 243:1 
-1 87:1 90:1 194:1 
-0.261844368061304 87:1 116:1 135:1 193:1 220:1 
-1 24:1 
-1 53:1 87:1 193:1 194:1 
-1 84:1 243:1 
-1 23:1 87:1 111:1 141:1 191:1 248:1 
-1 144:1 214:1 
-1 75:1 152:1 193:1 248:1 
-1 73:1 125:1 251:1 257:1 
-0.188907684497191 73:1 87:1 116:1 192:1 
-1 4:1 77:1 257:1 
-1 49:1 149:1 
-1 150:1 
-1 251:1 252:1 257:1 
-1 84:1 89:1 90:1 122:1 127:1 130:1 
-1 252:1 257:1 
-1 194:1 248:1 
-0.2880265006645578 59:1 185:1 
-1 49:1 200:1 
-0.7467105515055558 115:1 194:1 248:1 
-0.873686292902854 123:1 233:1 
-0.1472338442938956 49:1 185:1 
-0.6687911359427918 150:1 
-0.7466498289513778 87:1 89:1 90:1 93:1 94:1 226:1 
-1 83:1 257:1 
-0.9664991493200378 248:1 251:1 257:1 
-1 7:1 200:1 
-1 69:1 219:1 
-1 75:1 87:1 156:1 
-1 81:1 242:1 
-0.05063816372168117 115:1 116:1 122:1 218:1 
-1 7:1 95:1 
-1 58:1 194:1 251:1 
-1 122:1 200:1 
-1 90:1 146:1 
-0.06112131816411736 81:1 87:1 192:1 
-0.7011046115831798 148:1 200:1 
-0.8878956205266688 84:1 214:1 
-0.0925529117044773 48:1 51:1 82:1 
-0.5748573157418381 14:1 18:1 53:1 87:1 97:1 
-0.03700630666416218 47:1 48:1 194:1 
-1 200:1 248:1 
-1 90:1 117:1 148:1 257:1 
-1 83:1 148:1 192:1 193:1 194:1 257:1 
-1 152:1 193:1 
-1 127:1 194:1 
-1 97:1 111:1 147:1 248:1 
-1 142:1 149:1 
-0.9470863179169922 58:1 115:1 189:1 
-1 76:1 152:1 
-1 194:1 233:1 
-1 73:1 164:1 257:1 
-0.1120121051106236 53:1 123:1 241:1 
-1 90:1 193:1 248:1 257:1 
-1 189:1 194:1 248:1 
-0.1284474709261934 219:1 241:1 
-1 130:1 201:1 
-1 87:1 90:1 93:1 138:1 142:1 
-0.4396626696589311 91:1 194:1 
-1 48:1 84:1 87:1 
-1 194:1 200:1 
-1 49:1 53:1 77:1 115:1 
-1 197:1 200:1 
-0.9499218817845242 245:1 257:1 
-1 48:1 49:1 164:1 
-0.3140068008357662 84:1 233:1 251:1 
-0.07170581629021262 48:1 53:1 155:1 189:1 251:1 257:1 
-1 61:1 
-0.1811459963588956 193:1 251:1 257:1 
-1 49:1 53:1 77:1 87:1 193:1 200:1 
-0.06125678020332558 84:1 115:1 242:1 
-1 24:1 
-0.7853786848855451 81:1 130:1 
-0.1133564429911882 119:1 194:1 
-1 81:1 115:1 189:1 
-1 77:1 90:1 
-0.3636910537345812 48:1 87:1 247:1 248:1 
-1 228:1 233:1 
-1 142:1 
-0.6398984006006275 123:1 221:1 
-0.7251167031368324 95:1 189:1 252:1 
-0.7634706848836962 64:1 251:1 
-0.1212986073510454 2:1 53:1 87:1 140:1 
-1 49:1 87:1 90:1 150:1 248:1 
-0.2882027721449443 49:1 221:1 
-1 189:1 251:1 
-0.04195972226872979 115:1 194:1 
-1 71:1 200:1 
-1 53:1 191:1 194:1 
-1 115:1 116:1 200:1 
-0.4342080126015122 53:1 87:1 89:1 116:1 
-1 75:1 123:1 
-0.4954435838696153 10:1 81:1 115:1 116:1 117:1 122:1 123:1 
-0.5002351315632718 87:1 192:1 
-1 49:1 93:1 98:1 
-0.1257941842525621 73:1 252:1 257:1 
-1 49:1 97:1 251:1 
-1 122:1 248:1 
-1 73:1 219:1 247:1 
-0.2253568815144766 49:1 53:1 84:1 87:1 
-1 109:1 135:1 248:1 270:1 
-1 191:1 200:1 257:1 
-0.4103699775648614 112:1 115:1 132:1 138:1 
-1 53:1 200:1 233:1 
-0.9793954286486648 49:1 89:1 91:1 98:1 115:1 124:1 
-1 83:1 252:1 257:1 
-0.09334942826558035 87:1 127:1 233:1 
-1 4:1 117:1 123:1 127:1 144:1 
-1 75:1 93:1 199:1 
-0.02711420070464503 52:1 115:1 117:1 242:1 
-0.1114182856711633 48:1 53:1 195:1 
-0.8137192294329304 96:1 
-0.1014075079810534 3:1 115:1 194:1 
-0.5536770844774055 193:1 222:1 
-1 245:1 261:1 
-1 112:1 201:1 220:1 247:1 
-0.6413264599009767 112:1 194:1 
-1 87:1 192:1 
-1 104:1 
-1 78:1 109:1 142:1 
-1 112:1 194:1 
-0.1606712407621015 130:1 154:1 
-0.6620938077683104 78:1 87:1 144:1 191:1 
-1 18:1 53:1 59:1 84:1 87:1 192:1 224:1 
-1 75:1 81:1 251:1 
-1 185:1 233:1 
-0.8690800215827326 251:1 257:1 
-0.5353943069399185 123:1 189:1 
-1 115:1 194:1 257:1 
-1 108:1 228:1 
-1 245:1 247:1 
-1 87:1 189:1 192:1 
-1 78:1 80:1 162:1 193:1 214:1 251:1 
-1 24:1 192:1 
-0.5959367112541479 49:1 81:1 115:1 148:1 
-1 48:1 81:1 206:1 
-0.2296376653177975 49:1 59:1 87:1 117:1 160:1 193:1 
-0.2329502247874027 157:1 185:1 247:1 248:1 
-0.6567567183663693 73:1 83:1 91:1 115:1 
-0.1055544076800883 98:1 124:1 231:1 248:1 257:1 
-0.03953836195421256 95:1 98:1 
-0.1390804736467187 29:1 
-0.04306264164502676 80:1 122:1 
-0.05928471079838003 7:1 10:1 122:1 123:1 127:1 207:1 213:1 235:1 
-1 8:1 185:1 186:1 194:1 
-1 49:1 53:1 87:1 191:1 
-1 26:1 221:1 
-0.5148233368688687 49:1 117:1 201:1 
-0.2557577639503748 132:1 192:1 
-0.1065543724640618 85:1 201:1 245:1 
-0.05918065658570504 79:1 81:1 115:1 122:1 140:1 
-1 5:1 191:1 192:1 233:1 248:1 
-1 75:1 76:1 
-1 81:1 115:1 127:1 242:1 
-1 49:1 87:1 257:1 
-1 185:1 240:1 
-1 24:1 
-0.441287254682416 113:1 194:1 251:1 
-0.9481780968829345 83:1 228:1 242:1 
-0.06137180448992148 83:1 115:1 125:1 193:1 200:1 
-1 194:1 252:1 
-1 80:1 87:1 200:1 
-1 92:1 95:1 199:1 
-1 49:1 53:1 87:1 200:1 
-0.02227883820227716 41:1 
-1 4:1 83:1 240:1 
-0.4047841800429696 164:1 185:1 
-0.7776221674323113 84:1 126:1 187:1 236:1 
-0.6963421774270646 191:1 194:1 
-1 19:1 105:1 
-1 239:1 240:1 
-1 125:1 198:1 
-0.551309314591502 193:1 194:1 
-0.08014886030296954 87:1 194:1 228:1 
-1 73:1 87:1 194:1 
-1 251:1 257:1 
-1 198:1 200:1 245:1 246:1 
-0.1850369331125749 53:1 87:1 95:1 257:1 
-1 49:1 53:1 87:1 116:1 251:1 257:1 259:1 
-1 80:1 194:1 
-1 84:1 124:1 192:1 194:1 
-0.2827071790315884 8:1 10:1 112:1 144:1 245:1 
-0.2906499008920637 14:1 18:1 132:1 
-0.1995129579606857 81:1 122:1 
-1 6:1 10:1 122:1 243:1 
-1 49:1 59:1 80:1 
-1 194:1 200:1 
-0.7569406256378799 130:1 194:1 
-1 49:1 225:1 
-1 189:1 200:1 
-0.8699376326230829 78:1 87:1 95:1 98:1 
-0.2451953865020092 81:1 207:1 
-0.9833608621706326 7:1 193:1 228:1 
-0.3233221905937452 14:1 240:1 
-1 43:1 119:1 220:1 257:1 
-1 116:1 123:1 150:1 
-1 194:1 251:1 
-1 192:1 194:1 
-0.2706776997854177 78:1 242:1 
-0.5938077747592729 127:1 144:1 189:1 
-0.9421627830426544 91:1 194:1 225:1 
-0.04959759496331979 201:1 
-0.8606192523481667 115:1 156:1 
-0.7399425400233093 44:1 73:1 248:1 251:1 
-0.4445656622624835 116:1 233:1 
-1 49:1 78:1 
-1 75:1 80:1 
-1 127:1 140:1 239:1 254:1 
-0.2464219466008327 207:1 244:1 
-1 59:1 122:1 
-0.4798060466523631 14:1 53:1 87:1 191:1 
-0.9962487452827333 127:1 130:1 191:1 193:1 252:1 
-1 192:1 193:1 194:1 
-1 3:1 84:1 
-0.08622575287002773 97:1 195:1 
-0.5052258923016215 77:1 
-1 214:1 233:1 
-1 48:1 49:1 59:1 87:1 130:1 150:1 193:1 194:1 200:1 
-0.02376340331139206 221:1 248:1 250:1 
-0.08475928695565485 103:1 127:1 200:1 
-1 87:1 93:1 248:1 
-0.07219946599313368 112:1 117:1 189:1 193:1 200:1 223:1 
-1 112:1 194:1 219:1 244:1 
-1 84:1 194:1 
-0.5098090428771965 123:1 144:1 
-1 79:1 123:1 193:1 248:1 
-1 87:1 192:1 200:1 
-1 41:1 194:1 221:1 
-1 251:1 257:1 
-1 192:1 251:1 
-1 150:1 
-1 26:1 257:1 
-0.9173547399887998 188:1 
-1 194:1 221:1 
-1 151:1 
-1 49:1 53:1 87:1 248:1 
-1 11:1 148:1 
-1 24:1 
-1 41:1 79:1 87:1 90:1 91:1 
-1 59:1 
-0.6093831352292339 3:1 189:1 
-1 25:1 26:1 130:1 
-1 194:1 228:1 
-1 82:1 127:1 149:1 189:1 248:1 
-1 193:1 200:1 201:1 219:1 
-0.808003172918113 49:1 115:1 117:1 123:1 
-1 76:1 87:1 193:1 251:1 
-0.2997067824733456 87:1 93:1 117:1 
-0.8482927560453914 91:1 221:1 241:1 
-1 52:1 58:1 80:1 251:1 257:1 
-1 193:1 194:1 
-1 84:1 248:1 
-1 193:1 228:1 
-0.4960994724886347 59:1 184:1 247:1 
-1 49:1 192:1 194:1 
-1 150:1 
-1 193:1 194:1 
-1 123:1 194:1 
-0.7480661107043315 164:1 188:1 
-0.6708801674459698 14:1 115:1 200:1 
-0.7474711576469723 191:1 192:1 257:1 
-0.619064522081237 116:1 194:1 
-0.4062789392564495 95:1 185:1 
-1 59:1 257:1 
-1 48:1 194:1 
-1 81:1 123:1 
-1 105:1 
-1 123:1 194:1 
-1 62:1 194:1 
-1 84:1 251:1 257:1 
-0.2562265259105831 115:1 194:1 
-1 87:1 192:1 
-0.3843577051788234 161:1 185:1 
-1 48:1 87:1 105:1 193:1 200:1 
-1 49:1 53:1 87:1 191:1 
-1 248:1 251:1 257:1 
-0.156838681525911 23:1 
-1 6:1 87:1 192:1 194:1 
-1 49:1 53:1 87:1 257:1 
-0.2386104636014828 14:1 89:1 90:1 
-0.8199896566588976 84:1 87:1 91:1 
-1 78:1 194:1 200:1 
-0.2013052381134268 53:1 84:1 87:1 192:1 
-1 193:1 194:1 
-0.3319900763169441 112:1 116:1 122:1 124:1 248:1 
-1 117:1 252:1 
-1 49:1 53:1 87:1 248:1 
-0.6512644014496447 49:1 83:1 87:1 
-1 185:1 
-1 164:1 
-0.08860766279841362 22:1 104:1 
-1 23:1 
-1 44:1 49:1 189:1 248:1 
-0.636573281717925 78:1 200:1 245:1 
-1 24:1 48:1 55:1 84:1 87:1 98:1 241:1 
-1 7:1 108:1 
-1 218:1 219:1 
-1 84:1 112:1 
-0.4724055550700137 53:1 85:1 193:1 
-1 185:1 
-1 73:1 115:1 200:1 
-1 185:1 
-1 185:1 
-1 24:1 
-1 24:1 193:1 
-0.9612302725666169 106:1 143:1 164:1 
-0.05725211798254488 47:1 151:1 
-1 193:1 194:1 
-0.03930558673465389 49:1 151:1 226:1 246:1 
-1 251:1 257:1 
-1 185:1 
-1 123:1 221:1 248:1 
-1 73:1 251:1 252:1 
-1 201:1 
-0.7850438557628994 152:1 
-0.6118705644134973 47:1 200:1 
-1 55:1 144:1 146:1 
-0.009141027196731821 185:1 
-0.9008230377161387 75:1 87:1 90:1 187:1 244:1 
-1 73:1 189:1 194:1 
-1 123:1 193:1 222:1 
-1 85:1 164:1 231:1 
-0.8696548017734929 113:1 115:1 123:1 214:1 255:1 
-1 106:1 123:1 186:1 
-0.0536391391189357 53:1 87:1 194:1 
-1 251:1 257:1 
-0.9535763395584125 199:1 
-1 80:1 257:1 
-0.7816308263363783 78:1 81:1 
-1 123:1 200:1 
-0.9808306634075501 62:1 87:1 90:1 150:1 
-1 188:1 
-0.5903912026359098 53:1 70:1 87:1 200:1 
-0.7087530334345689 4:1 122:1 248:1 
-1 123:1 151:1 152:1 
-1 251:1 252:1 257:1 
-0.8755356976463712 148:1 194:1 
-0.2980561254714387 49:1 115:1 116:1 251:1 257:1 
-0.4055236626993096 115:1 129:1 138:1 156:1 228:1 
-0.4963237219536327 70:1 
-1 83:1 115:1 123:1 187:1 194:1 
-0.7284521307495941 122:1 189:1 
-0.8883043071185601 78:1 123:1 
-0.2914490091363739 194:1 245:1 
-1 194:1 200:1 242:1 
-0.02296326674399052 87:1 150:1 248:1 
-1 116:1 242:1 248:1 251:1 
-1 128:1 
-1 220:1 
-1 156:1 200:1 
-0.2858212510969022 72:1 194:1 
-1 47:1 53:1 87:1 90:1 214:1 233:1 
-1 49:1 194:1 
-1 140:1 152:1 248:1 
-0.05191977318087566 87:1 140:1 194:1 227:1 
-0.847688852768188 53:1 132:1 224:1 
-1 201:1 
-1 201:1 221:1 259:1 
-0.3858148802922396 245:1 248:1 
-1 117:1 123:1 
-1 152:1 
-1 125:1 194:1 219:1 
-0.05051917742586619 218:1 225:1 257:1 
-0.7284186712733075 49:1 186:1 
-1 58:1 117:1 193:1 
-1 53:1 115:1 228:1 
-0.02350761800341124 116:1 117:1 193:1 
-0.3341446925650102 36:1 48:1 
-0.03589989306935967 78:1 245:1 
-1 136:1 
-0.1221325267725396 49:1 193:1 248:1 253:1 
-1 49:1 53:1 87:1 150:1 193:1 
-1 49:1 50:1 87:1 150:1 
-0.8127666125405373 117:1 194:1 
-0.6904802453952492 59:1 
-1 49:1 90:1 
-1 59:1 
-0.5588303228597293 214:1 
-1 87:1 127:1 191:1 248:1 
-1 23:1 189:1 
-0.213222560031154 115:1 116:1 199:1 
-1 84:1 193:1 233:1 
-0.7339827499239802 164:1 
-1 193:1 194:1 
-1 252:1 254:1 
-0.5992105197306721 10:1 244:1 
-0.8196138795252885 189:1 233:1 
-0.7927719537456684 81:1 83:1 
-0.2528817840484804 115:1 198:1 
-0.1422709832291809 95:1 
-1 59:1 64:1 221:1 
-1 95:1 
-1 77:1 152:1 247:1 
-1 252:1 255:1 
-0.1121408398566045 52:1 115:1 221:1 233:1 
-1 78:1 194:1 
-1 59:1 87:1 119:1 200:1 
-1 93:1 
-0.1273056226853831 115:1 122:1 148:1 206:1 
-0.246163193806305 130:1 161:1 165:1 
-1 192:1 194:1 
-0.1177516323235681 106:1 188:1 
-1 251:1 252:1 
-0.4879366822647606 48:1 148:1 195:1 
-1 53:1 144:1 195:1 
-1 138:1 185:1 
-0.254063056516804 81:1 193:1 201:1 
-1 83:1 194:1 
-0.7615792046133091 185:1 
-0.4721927178006932 58:1 206:1 
-1 214:1 
-1 214:1 
-0.3930273678503466 49:1 53:1 87:1 90:1 
-1 185:1 
-1 77:1 
-0.1321341102559171 131:1 185:1 233:1 244:1 
-1 116:1 194:1 
-1 193:1 194:1 214:1 
-1 77:1 93:1 186:1 
-0.8301493100724722 240:1 
-1 72:1 90:1 144:1 193:1 244:1 
-0.4715569334270212 14:1 
-0.5914680153013506 84:1 
-1 84:1 198:1 
-1 23:1 49:1 93:1 148:1 248:1 253:1 
-0.6396913665447108 115:1 122:1 257:1 
-0.5294218430749595 3:1 251:1 270:1 
-0.2411528203048979 193:1 214:1 
-1 193:1 194:1 
-1 185:1 
-0.2669006326228551 189:1 194:1 
-1 185:1 
-1 251:1 257:1 
-0.5319229251585398 193:1 242:1 
-1 185:1 
-1 73:1 122:1 194:1 
-1 53:1 87:1 148:1 189:1 193:1 194:1 201:1 221:1 
-0.8760438921652413 76:1 
-1 42:1 
-1 84:1 115:1 192:1 194:1 200:1 
-1 185:1 
-1 24:1 
-0.7655509182755786 7:1 194:1 
-0.8560591239980517 53:1 83:1 87:1 247:1 
-1 240:1 
-1 194:1 233:1 
-1 94:1 
-1 77:1 200:1 
-1 185:1 
-0.5123026237651892 87:1 191:1 221:1 233:1 251:1 
-1 192:1 193:1 
-1 220:1 
-1 193:1 194:1 
-0.5376390999416303 219:1 
-1 49:1 53:1 87:1 189:1 248:1 
-1 138:1 185:1 
-1 77:1 
-0.06626936758139487 52:1 59:1 
-0.9480886098581973 117:1 123:1 
-0.02060457135133521 24:1 49:1 53:1 
-0.1516987466589691 194:1 244:1 
-1 219:1 
-0.05699557122620182 144:1 192:1 193:1 
-1 185:1 
-1 47:1 73:1 194:1 
-0.9674749852115925 252:1 
-1 84:1 
-1 252:1 
-1 84:1 194:1 
-1 84:1 
-1 185:1 
-1 251:1 257:1 
-1 115:1 127:1 189:1 
-1 219:1 
-1 185:1 
-1 200:1 248:1 
-1 252:1 
-1 69:1 
