svm_type c_svc
kernel_type rbf
gamma 0.0037037
nr_class 2
total_sv 2201
rho 0.943011
label 1 0
nr_sv 907 1294
SV
1 49:1 87:1 105:1 146:1 
1 147:1 
1 49:1 53:1 87:1 146:1 
1 87:1 91:1 105:1 116:1 147:1 150:1 152:1 248:1 
1 87:1 189:1 192:1 194:1 
1 48:1 51:1 82:1 84:1 194:1 201:1 241:1 242:1 248:1 251:1 253:1 257:1 
1 38:1 48:1 49:1 89:1 90:1 116:1 189:1 193:1 201:1 
1 192:1 195:1 257:1 
1 24:1 151:1 245:1 
1 150:1 189:1 
1 90:1 95:1 97:1 116:1 117:1 202:1 251:1 
1 3:1 5:1 6:1 59:1 111:1 126:1 
1 200:1 
1 189:1 191:1 194:1 241:1 245:1 
1 32:1 117:1 123:1 193:1 194:1 200:1 244:1 257:1 261:1 
1 21:1 22:1 48:1 49:1 87:1 111:1 150:1 191:1 
1 24:1 47:1 79:1 95:1 107:1 130:1 146:1 192:1 193:1 
1 49:1 90:1 248:1 
1 116:1 257:1 
1 87:1 
1 49:1 53:1 54:1 87:1 90:1 146:1 193:1 
1 82:1 109:1 123:1 163:1 185:1 194:1 
1 14:1 48:1 53:1 78:1 87:1 150:1 193:1 251:1 257:1 
1 4:1 23:1 36:1 58:1 83:1 87:1 95:1 107:1 122:1 149:1 
1 44:1 49:1 75:1 80:1 84:1 95:1 123:1 156:1 189:1 248:1 
1 46:1 47:1 53:1 78:1 82:1 117:1 222:1 
1 123:1 194:1 220:1 
1 49:1 89:1 93:1 124:1 148:1 193:1 194:1 200:1 248:1 
1 44:1 81:1 106:1 109:1 115:1 123:1 189:1 191:1 214:1 
1 49:1 75:1 76:1 111:1 129:1 189:1 
1 23:1 48:1 59:1 78:1 81:1 84:1 116:1 117:1 123:1 189:1 219:1 248:1 251:1 257:1 
1 49:1 225:1 
1 33:1 84:1 193:1 257:1 
1 53:1 90:1 98:1 106:1 130:1 193:1 200:1 
1 49:1 90:1 146:1 193:1 194:1 197:1 248:1 
1 23:1 38:1 
1 4:1 23:1 29:1 48:1 76:1 80:1 225:1 
1 23:1 48:1 72:1 76:1 87:1 132:1 152:1 192:1 233:1 248:1 253:1 
1 62:1 
1 47:1 125:1 130:1 144:1 193:1 194:1 201:1 221:1 
1 49:1 87:1 193:1 247:1 259:1 
1 23:1 115:1 123:1 186:1 189:1 192:1 214:1 242:1 
1 73:1 91:1 95:1 115:1 233:1 251:1 257:1 
1 87:1 122:1 130:1 189:1 194:1 200:1 244:1 251:1 
1 8:1 49:1 80:1 82:1 87:1 95:1 116:1 123:1 193:1 194:1 
1 87:1 95:1 144:1 191:1 257:1 
1 146:1 151:1 
1 194:1 
1 24:1 53:1 69:1 75:1 127:1 148:1 201:1 
1 49:1 87:1 90:1 116:1 117:1 127:1 193:1 194:1 
1 7:1 77:1 87:1 90:1 94:1 187:1 189:1 193:1 
1 79:1 111:1 116:1 189:1 
1 49:1 138:1 185:1 
1 252:1 257:1 
1 92:1 193:1 221:1 225:1 
1 49:1 53:1 97:1 251:1 257:1 
1 143:1 191:1 219:1 251:1 257:1 
1 49:1 53:1 76:1 87:1 90:1 95:1 
1 73:1 78:1 84:1 152:1 193:1 
1 47:1 87:1 90:1 115:1 
1 123:1 252:1 257:1 
1 11:1 19:1 95:1 116:1 193:1 233:1 
1 53:1 84:1 125:1 148:1 152:1 189:1 194:1 197:1 200:1 
1 107:1 116:1 132:1 135:1 194:1 200:1 
1 77:1 80:1 84:1 87:1 90:1 95:1 193:1 200:1 234:1 
1 44:1 53:1 80:1 122:1 127:1 130:1 
1 24:1 
1 49:1 53:1 87:1 90:1 98:1 105:1 245:1 251:1 
1 87:1 148:1 200:1 257:1 
1 47:1 49:1 53:1 80:1 87:1 146:1 147:1 
1 47:1 48:1 53:1 87:1 192:1 194:1 221:1 227:1 248:1 251:1 257:1 
1 49:1 53:1 187:1 192:1 248:1 257:1 
1 24:1 47:1 49:1 87:1 123:1 
1 81:1 115:1 117:1 123:1 228:1 252:1 
1 30:1 192:1 244:1 252:1 
1 22:1 23:1 78:1 87:1 106:1 224:1 248:1 
1 47:1 53:1 87:1 89:1 90:1 98:1 101:1 148:1 248:1 
1 53:1 75:1 87:1 191:1 
1 49:1 53:1 73:1 80:1 87:1 90:1 186:1 189:1 193:1 221:1 
1 29:1 32:1 77:1 135:1 186:1 194:1 
1 7:1 70:1 87:1 90:1 103:1 194:1 199:1 
1 49:1 75:1 76:1 90:1 125:1 146:1 215:1 
1 87:1 194:1 244:1 251:1 
1 52:1 87:1 116:1 186:1 189:1 192:1 193:1 200:1 227:1 
1 19:1 53:1 116:1 117:1 194:1 
1 53:1 81:1 87:1 115:1 116:1 127:1 191:1 199:1 221:1 248:1 257:1 
1 126:1 257:1 
1 47:1 87:1 117:1 132:1 194:1 240:1 257:1 
1 117:1 164:1 191:1 200:1 221:1 257:1 
1 79:1 82:1 87:1 105:1 122:1 214:1 228:1 248:1 251:1 
1 84:1 116:1 194:1 200:1 257:1 261:1 
1 116:1 130:1 138:1 193:1 251:1 257:1 
1 4:1 73:1 78:1 81:1 83:1 193:1 
1 133:1 185:1 193:1 219:1 
1 24:1 161:1 
1 75:1 81:1 87:1 122:1 135:1 148:1 150:1 189:1 193:1 242:1 
1 53:1 84:1 193:1 200:1 223:1 
1 23:1 29:1 80:1 122:1 194:1 200:1 
1 115:1 127:1 189:1 194:1 
1 77:1 80:1 111:1 122:1 150:1 191:1 199:1 248:1 257:1 
1 48:1 52:1 53:1 251:1 257:1 
1 49:1 83:1 91:1 111:1 116:1 190:1 191:1 200:1 
1 53:1 200:1 
1 23:1 85:1 123:1 153:1 191:1 214:1 
1 7:1 38:1 98:1 
1 8:1 58:1 84:1 235:1 
1 73:1 80:1 84:1 90:1 164:1 189:1 248:1 
1 78:1 87:1 89:1 93:1 123:1 155:1 193:1 194:1 233:1 248:1 257:1 
1 53:1 62:1 69:1 75:1 187:1 
1 105:1 194:1 219:1 257:1 
1 49:1 53:1 84:1 87:1 90:1 93:1 
1 7:1 148:1 185:1 
1 59:1 112:1 122:1 130:1 233:1 251:1 257:1 
1 81:1 87:1 115:1 214:1 248:1 252:1 
1 48:1 115:1 193:1 194:1 200:1 
1 117:1 160:1 186:1 
1 193:1 234:1 248:1 257:1 
1 32:1 54:1 90:1 98:1 104:1 
1 23:1 24:1 42:1 
1 23:1 76:1 87:1 90:1 93:1 
1 87:1 193:1 194:1 200:1 251:1 257:1 
1 117:1 233:1 252:1 
1 21:1 76:1 105:1 218:1 246:1 
1 233:1 251:1 257:1 
1 49:1 53:1 87:1 111:1 
1 24:1 
1 10:1 19:1 89:1 107:1 111:1 155:1 245:1 
1 2:1 23:1 49:1 55:1 59:1 70:1 89:1 150:1 193:1 245:1 
1 69:1 83:1 91:1 109:1 193:1 194:1 241:1 248:1 251:1 259:1 
1 22:1 75:1 115:1 192:1 218:1 
1 49:1 90:1 106:1 116:1 186:1 
1 48:1 49:1 52:1 53:1 87:1 90:1 150:1 186:1 194:1 200:1 
1 53:1 84:1 192:1 
1 19:1 38:1 87:1 122:1 246:1 251:1 
1 53:1 87:1 89:1 90:1 94:1 97:1 116:1 117:1 127:1 257:1 
1 73:1 116:1 120:1 194:1 248:1 
1 81:1 113:1 116:1 122:1 127:1 189:1 242:1 246:1 
1 23:1 53:1 87:1 103:1 
1 23:1 87:1 111:1 116:1 117:1 122:1 192:1 193:1 194:1 200:1 
1 53:1 54:1 112:1 164:1 193:1 
1 233:1 
1 165:1 202:1 
1 87:1 90:1 144:1 251:1 
1 48:1 78:1 218:1 
1 49:1 50:1 80:1 84:1 90:1 143:1 194:1 
1 49:1 116:1 191:1 194:1 214:1 
1 49:1 53:1 75:1 87:1 146:1 150:1 
1 7:1 150:1 206:1 
1 76:1 79:1 80:1 115:1 117:1 192:1 245:1 257:1 
1 53:1 79:1 115:1 117:1 123:1 124:1 233:1 245:1 
1 77:1 90:1 94:1 122:1 132:1 152:1 155:1 192:1 194:1 200:1 239:1 246:1 
1 77:1 87:1 193:1 
1 7:1 41:1 53:1 148:1 193:1 
1 49:1 87:1 130:1 146:1 191:1 
1 131:1 185:1 
1 49:1 146:1 200:1 248:1 
1 24:1 84:1 245:1 
1 49:1 53:1 87:1 123:1 191:1 
1 23:1 29:1 47:1 49:1 83:1 106:1 142:1 187:1 189:1 214:1 
1 23:1 53:1 95:1 192:1 194:1 195:1 221:1 233:1 240:1 257:1 
1 39:1 53:1 84:1 87:1 189:1 192:1 194:1 
1 14:1 33:1 53:1 87:1 144:1 193:1 194:1 
1 33:1 80:1 87:1 189:1 245:1 
1 22:1 87:1 141:1 193:1 202:1 248:1 270:1 
1 49:1 87:1 123:1 151:1 193:1 200:1 222:1 
1 148:1 189:1 194:1 200:1 
1 84:1 90:1 97:1 111:1 192:1 
1 22:1 23:1 90:1 144:1 221:1 233:1 257:1 
1 6:1 23:1 47:1 73:1 84:1 123:1 
1 23:1 106:1 192:1 194:1 
1 48:1 53:1 80:1 84:1 87:1 123:1 189:1 195:1 200:1 218:1 241:1 
1 196:1 200:1 221:1 
1 116:1 127:1 128:1 191:1 193:1 194:1 248:1 
1 115:1 123:1 138:1 193:1 199:1 200:1 
1 80:1 117:1 123:1 124:1 189:1 235:1 
1 80:1 95:1 189:1 193:1 200:1 214:1 221:1 
1 124:1 189:1 257:1 
1 23:1 80:1 122:1 194:1 200:1 248:1 
1 44:1 89:1 90:1 95:1 116:1 124:1 155:1 189:1 200:1 228:1 233:1 245:1 
1 
1 
1 49:1 76:1 87:1 106:1 189:1 192:1 193:1 
1 115:1 116:1 144:1 
1 53:1 87:1 147:1 
1 48:1 106:1 132:1 193:1 206:1 
1 132:1 231:1 233:1 
1 49:1 87:1 124:1 192:1 204:1 214:1 
1 103:1 189:1 194:1 221:1 257:1 
1 49:1 152:1 191:1 194:1 195:1 201:1 
1 53:1 59:1 87:1 98:1 106:1 132:1 192:1 
1 81:1 84:1 115:1 
1 116:1 252:1 
1 48:1 49:1 140:1 
1 148:1 187:1 194:1 198:1 
1 53:1 87:1 90:1 191:1 251:1 257:1 
1 87:1 93:1 130:1 245:1 
1 115:1 157:1 219:1 
1 48:1 49:1 87:1 187:1 228:1 246:1 248:1 
1 23:1 75:1 124:1 228:1 
1 47:1 75:1 89:1 91:1 105:1 133:1 148:1 218:1 242:1 
1 95:1 193:1 201:1 
1 8:1 87:1 191:1 200:1 
1 78:1 251:1 257:1 
1 128:1 221:1 
1 19:1 44:1 84:1 129:1 130:1 194:1 248:1 
1 80:1 189:1 192:1 193:1 200:1 214:1 
1 78:1 90:1 111:1 112:1 153:1 192:1 225:1 231:1 235:1 
1 7:1 44:1 53:1 75:1 80:1 87:1 217:1 228:1 245:1 
1 7:1 52:1 73:1 115:1 162:1 221:1 233:1 
1 73:1 115:1 123:1 189:1 194:1 
1 23:1 53:1 77:1 87:1 90:1 95:1 200:1 
1 44:1 49:1 87:1 116:1 194:1 
1 87:1 164:1 244:1 
1 87:1 193:1 248:1 251:1 
1 49:1 90:1 134:1 149:1 194:1 257:1 
1 23:1 105:1 117:1 123:1 233:1 
1 49:1 77:1 87:1 115:1 116:1 248:1 
1 63:1 
1 87:1 162:1 191:1 200:1 
1 115:1 192:1 193:1 246:1 
1 49:1 53:1 87:1 124:1 141:1 227:1 240:1 
1 23:1 76:1 78:1 96:1 133:1 152:1 
1 39:1 43:1 220:1 245:1 
1 117:1 123:1 189:1 192:1 251:1 
1 41:1 91:1 117:1 
1 49:1 148:1 
1 49:1 53:1 82:1 87:1 123:1 193:1 
1 14:1 48:1 53:1 76:1 87:1 194:1 195:1 
1 23:1 73:1 151:1 192:1 193:1 
1 24:1 87:1 116:1 192:1 
1 53:1 58:1 115:1 117:1 251:1 
1 193:1 200:1 248:1 251:1 257:1 
1 49:1 53:1 87:1 144:1 189:1 200:1 244:1 
1 24:1 127:1 252:1 
1 82:1 151:1 200:1 218:1 221:1 
1 49:1 82:1 87:1 116:1 124:1 194:1 235:1 
1 81:1 123:1 243:1 252:1 
1 193:1 206:1 214:1 257:1 
1 24:1 95:1 193:1 
1 127:1 200:1 233:1 
1 29:1 49:1 53:1 115:1 192:1 194:1 
1 23:1 47:1 80:1 132:1 155:1 
1 77:1 87:1 122:1 192:1 200:1 
1 23:1 53:1 87:1 90:1 93:1 152:1 156:1 189:1 192:1 193:1 248:1 
1 7:1 115:1 189:1 217:1 
1 24:1 36:1 49:1 53:1 87:1 186:1 
1 85:1 116:1 132:1 189:1 192:1 193:1 194:1 219:1 248:1 
1 24:1 87:1 195:1 200:1 
1 194:1 
1 95:1 115:1 116:1 194:1 200:1 
1 96:1 189:1 194:1 
1 73:1 75:1 87:1 90:1 106:1 
1 23:1 53:1 80:1 123:1 193:1 
1 69:1 80:1 82:1 124:1 228:1 
1 70:1 77:1 83:1 122:1 192:1 240:1 248:1 
1 3:1 49:1 
1 72:1 73:1 84:1 149:1 189:1 193:1 194:1 197:1 200:1 245:1 248:1 
1 
1 47:1 49:1 59:1 62:1 194:1 227:1 
1 48:1 78:1 83:1 117:1 162:1 193:1 
1 111:1 115:1 116:1 123:1 225:1 
1 42:1 44:1 49:1 51:1 69:1 87:1 116:1 191:1 
1 64:1 82:1 87:1 123:1 127:1 162:1 
1 53:1 70:1 90:1 192:1 257:1 
1 80:1 89:1 152:1 193:1 197:1 200:1 
1 44:1 90:1 153:1 
1 116:1 
1 54:1 135:1 251:1 257:1 
1 98:1 193:1 
1 24:1 75:1 192:1 193:1 194:1 
1 48:1 53:1 70:1 75:1 84:1 115:1 189:1 
1 49:1 84:1 87:1 90:1 95:1 225:1 
1 48:1 84:1 222:1 257:1 
1 73:1 123:1 200:1 
1 49:1 50:1 53:1 90:1 193:1 200:1 
1 49:1 87:1 90:1 91:1 103:1 193:1 
1 218:1 252:1 
1 109:1 143:1 193:1 200:1 
1 257:1 259:1 
1 78:1 84:1 111:1 192:1 194:1 200:1 248:1 
1 23:1 76:1 83:1 87:1 95:1 105:1 
1 84:1 193:1 194:1 221:1 233:1 
1 43:1 79:1 116:1 117:1 245:1 
1 75:1 194:1 
1 87:1 270:1 
1 48:1 200:1 248:1 
1 47:1 87:1 150:1 189:1 248:1 
1 49:1 
1 4:1 24:1 53:1 193:1 
1 193:1 194:1 251:1 257:1 
1 87:1 200:1 257:1 
1 24:1 73:1 79:1 84:1 200:1 248:1 
1 49:1 115:1 193:1 248:1 
1 7:1 53:1 54:1 87:1 90:1 94:1 95:1 98:1 115:1 116:1 122:1 128:1 193:1 200:1 244:1 245:1 246:1 
1 115:1 193:1 221:1 
1 53:1 83:1 87:1 90:1 95:1 189:1 192:1 204:1 228:1 246:1 247:1 
1 115:1 116:1 117:1 194:1 206:1 251:1 
1 5:1 7:1 123:1 189:1 
1 49:1 53:1 78:1 87:1 90:1 
1 49:1 75:1 87:1 189:1 193:1 194:1 200:1 233:1 
1 47:1 49:1 53:1 75:1 76:1 87:1 191:1 257:1 
1 87:1 91:1 191:1 193:1 194:1 247:1 
1 49:1 53:1 84:1 87:1 90:1 200:1 233:1 
1 192:1 
1 
1 49:1 75:1 87:1 185:1 
1 80:1 130:1 235:1 252:1 
1 29:1 59:1 87:1 95:1 
1 53:1 87:1 189:1 193:1 194:1 200:1 248:1 
1 44:1 78:1 115:1 193:1 194:1 
1 52:1 53:1 58:1 187:1 191:1 
1 49:1 87:1 257:1 
1 4:1 75:1 95:1 115:1 155:1 194:1 
1 23:1 29:1 48:1 90:1 
1 148:1 186:1 251:1 
1 49:1 53:1 87:1 90:1 98:1 141:1 200:1 
1 49:1 53:1 87:1 90:1 155:1 
1 23:1 48:1 53:1 58:1 87:1 123:1 
1 22:1 23:1 70:1 116:1 
1 81:1 232:1 252:1 257:1 258:1 
1 53:1 115:1 194:1 202:1 
1 89:1 98:1 146:1 
1 59:1 112:1 122:1 142:1 200:1 239:1 240:1 251:1 257:1 
1 73:1 124:1 142:1 233:1 
1 23:1 49:1 55:1 90:1 152:1 186:1 
1 23:1 87:1 117:1 123:1 194:1 242:1 243:1 246:1 
1 47:1 185:1 
1 3:1 58:1 111:1 257:1 
1 49:1 53:1 87:1 191:1 
1 5:1 
1 44:1 49:1 53:1 87:1 248:1 
1 23:1 104:1 116:1 186:1 191:1 
1 48:1 
1 68:1 84:1 152:1 189:1 
1 49:1 95:1 115:1 155:1 
1 115:1 116:1 124:1 144:1 192:1 
1 115:1 117:1 122:1 130:1 242:1 
1 252:1 
1 148:1 248:1 
1 200:1 206:1 
1 49:1 53:1 95:1 225:1 233:1 
1 49:1 52:1 87:1 191:1 251:1 
1 53:1 87:1 193:1 228:1 
1 48:1 53:1 75:1 80:1 87:1 111:1 153:1 200:1 
1 44:1 87:1 127:1 148:1 
1 49:1 87:1 200:1 247:1 
1 53:1 193:1 248:1 251:1 257:1 
1 84:1 132:1 193:1 260:1 
1 193:1 
1 193:1 200:1 233:1 
1 84:1 105:1 117:1 201:1 221:1 257:1 
1 73:1 80:1 115:1 128:1 148:1 240:1 
1 248:1 
1 42:1 107:1 244:1 
1 115:1 228:1 250:1 257:1 
1 257:1 
1 24:1 87:1 116:1 194:1 245:1 
1 116:1 117:1 236:1 
1 26:1 49:1 144:1 194:1 
1 47:1 200:1 248:1 257:1 
1 53:1 83:1 107:1 116:1 
1 214:1 
1 53:1 87:1 95:1 193:1 
1 95:1 193:1 194:1 248:1 
1 87:1 90:1 98:1 257:1 
1 184:1 185:1 
1 73:1 95:1 
1 192:1 257:1 
1 87:1 123:1 189:1 191:1 194:1 200:1 
1 47:1 49:1 53:1 87:1 90:1 193:1 
1 87:1 106:1 189:1 
1 49:1 53:1 87:1 113:1 115:1 127:1 240:1 248:1 
1 24:1 83:1 84:1 87:1 123:1 
1 53:1 87:1 192:1 200:1 
1 90:1 97:1 148:1 
1 130:1 165:1 193:1 231:1 257:1 
1 4:1 117:1 148:1 
1 49:1 53:1 87:1 95:1 116:1 
1 29:1 49:1 52:1 53:1 87:1 111:1 226:1 
1 4:1 23:1 192:1 197:1 
1 3:1 51:1 53:1 115:1 117:1 164:1 233:1 
1 83:1 84:1 123:1 130:1 193:1 198:1 200:1 
1 83:1 254:1 270:1 
1 80:1 87:1 90:1 189:1 191:1 194:1 247:1 
1 115:1 124:1 
1 19:1 111:1 116:1 235:1 
1 85:1 87:1 127:1 194:1 242:1 
1 53:1 76:1 87:1 116:1 127:1 128:1 192:1 194:1 221:1 
1 3:1 248:1 252:1 257:1 
1 89:1 90:1 95:1 
1 75:1 87:1 90:1 
1 115:1 252:1 
1 53:1 78:1 91:1 116:1 122:1 189:1 194:1 200:1 
1 77:1 148:1 187:1 221:1 242:1 
1 148:1 189:1 193:1 228:1 245:1 247:1 
1 72:1 125:1 199:1 200:1 
1 19:1 87:1 97:1 102:1 
1 4:1 48:1 115:1 
1 53:1 87:1 89:1 90:1 193:1 
1 73:1 148:1 197:1 200:1 221:1 
1 29:1 33:1 53:1 95:1 200:1 245:1 
1 7:1 185:1 
1 259:1 
1 23:1 53:1 87:1 192:1 193:1 198:1 
1 138:1 193:1 
1 23:1 29:1 77:1 
1 87:1 132:1 159:1 193:1 195:1 
1 84:1 148:1 158:1 193:1 
1 48:1 49:1 53:1 87:1 
1 23:1 192:1 248:1 
1 70:1 191:1 194:1 227:1 233:1 248:1 
1 53:1 116:1 221:1 233:1 
1 49:1 87:1 193:1 
1 49:1 53:1 87:1 149:1 191:1 200:1 228:1 
1 53:1 87:1 193:1 200:1 
1 58:1 252:1 
1 124:1 193:1 223:1 
1 23:1 106:1 193:1 
1 93:1 193:1 
1 53:1 72:1 83:1 127:1 153:1 189:1 242:1 245:1 246:1 257:1 
1 115:1 122:1 251:1 252:1 
1 130:1 
1 80:1 95:1 
1 115:1 200:1 233:1 248:1 
1 77:1 87:1 233:1 
1 193:1 257:1 
1 51:1 53:1 189:1 257:1 
1 123:1 150:1 189:1 200:1 233:1 
1 53:1 193:1 248:1 
1 53:1 87:1 127:1 144:1 191:1 
1 44:1 193:1 194:1 200:1 221:1 
1 189:1 233:1 
1 
1 115:1 185:1 
1 87:1 116:1 117:1 132:1 141:1 193:1 257:1 
1 48:1 103:1 130:1 
1 111:1 122:1 123:1 
1 87:1 233:1 
1 90:1 116:1 117:1 257:1 
1 252:1 
1 252:1 
1 48:1 52:1 87:1 116:1 200:1 247:1 
1 123:1 189:1 251:1 255:1 
1 80:1 87:1 221:1 
1 77:1 79:1 87:1 232:1 
1 49:1 53:1 98:1 132:1 193:1 
1 38:1 42:1 84:1 89:1 155:1 
1 87:1 115:1 148:1 192:1 247:1 
1 55:1 59:1 97:1 146:1 
1 49:1 149:1 192:1 193:1 221:1 
1 4:1 193:1 
1 23:1 87:1 123:1 201:1 257:1 
1 87:1 117:1 127:1 194:1 221:1 257:1 
1 8:1 193:1 
1 127:1 192:1 194:1 218:1 236:1 
1 219:1 245:1 
1 53:1 122:1 194:1 219:1 251:1 260:1 
1 83:1 123:1 270:1 
1 8:1 44:1 53:1 87:1 156:1 191:1 241:1 
1 49:1 87:1 89:1 90:1 
1 49:1 75:1 87:1 
1 90:1 148:1 149:1 158:1 194:1 
1 193:1 257:1 
1 185:1 189:1 221:1 
1 23:1 116:1 189:1 
1 53:1 214:1 257:1 
1 7:1 23:1 
1 185:1 194:1 
1 75:1 86:1 
1 193:1 200:1 214:1 
1 73:1 84:1 89:1 90:1 98:1 
1 49:1 79:1 257:1 
1 87:1 200:1 
1 80:1 87:1 90:1 94:1 122:1 244:1 
1 81:1 115:1 252:1 
1 78:1 84:1 189:1 257:1 
1 111:1 115:1 130:1 
1 75:1 80:1 115:1 244:1 245:1 246:1 
1 52:1 115:1 122:1 143:1 241:1 257:1 
1 189:1 200:1 
1 49:1 98:1 99:1 102:1 192:1 257:1 
1 72:1 240:1 257:1 
1 49:1 
1 49:1 75:1 87:1 200:1 
1 185:1 
1 233:1 
1 48:1 53:1 80:1 87:1 
1 23:1 49:1 53:1 87:1 93:1 193:1 
1 148:1 185:1 189:1 
1 87:1 123:1 189:1 241:1 
1 24:1 77:1 84:1 
1 48:1 53:1 123:1 127:1 192:1 193:1 194:1 257:1 
1 53:1 84:1 87:1 193:1 257:1 
1 83:1 
1 48:1 53:1 87:1 192:1 
1 53:1 82:1 87:1 95:1 200:1 
1 87:1 90:1 
1 49:1 73:1 197:1 200:1 251:1 
1 49:1 116:1 123:1 192:1 
1 49:1 53:1 54:1 87:1 191:1 
1 49:1 53:1 115:1 123:1 194:1 232:1 
1 115:1 193:1 
1 79:1 193:1 194:1 
1 29:1 32:1 
1 193:1 
1 5:1 49:1 89:1 98:1 117:1 242:1 248:1 
1 85:1 89:1 90:1 97:1 116:1 122:1 146:1 151:1 246:1 
1 48:1 153:1 
1 70:1 193:1 200:1 
1 142:1 194:1 214:1 
1 49:1 97:1 
1 79:1 189:1 
1 75:1 87:1 107:1 200:1 
1 257:1 
1 11:1 29:1 49:1 151:1 194:1 
1 73:1 78:1 201:1 251:1 
1 38:1 214:1 
1 193:1 194:1 221:1 
1 49:1 84:1 186:1 
1 77:1 116:1 232:1 
1 51:1 115:1 124:1 
1 200:1 
1 84:1 
1 57:1 84:1 144:1 233:1 242:1 244:1 
1 117:1 188:1 193:1 
1 83:1 115:1 117:1 206:1 
1 58:1 192:1 193:1 
1 73:1 83:1 115:1 257:1 
1 48:1 84:1 194:1 
1 194:1 
1 187:1 
1 49:1 127:1 194:1 
1 7:1 115:1 193:1 194:1 242:1 
1 77:1 
1 49:1 53:1 87:1 90:1 150:1 
1 82:1 91:1 123:1 221:1 245:1 
1 24:1 53:1 78:1 87:1 218:1 
1 7:1 
1 19:1 87:1 89:1 90:1 98:1 121:1 
1 77:1 87:1 194:1 
1 72:1 81:1 
1 23:1 49:1 233:1 
1 49:1 53:1 80:1 153:1 
1 193:1 200:1 248:1 251:1 
1 48:1 123:1 148:1 257:1 
1 117:1 123:1 194:1 
1 47:1 158:1 
1 193:1 225:1 243:1 
1 79:1 
1 149:1 193:1 
1 115:1 130:1 144:1 193:1 
1 77:1 95:1 116:1 148:1 189:1 192:1 
1 64:1 185:1 193:1 
1 76:1 127:1 221:1 
1 123:1 194:1 200:1 214:1 221:1 
1 124:1 245:1 255:1 
1 53:1 127:1 158:1 
1 87:1 194:1 
1 194:1 
1 49:1 244:1 
1 222:1 248:1 
1 53:1 92:1 105:1 148:1 221:1 
1 189:1 221:1 251:1 
1 123:1 124:1 
1 23:1 
1 51:1 97:1 147:1 
1 81:1 194:1 
1 218:1 221:1 
1 71:1 
1 163:1 185:1 
1 252:1 
1 70:1 93:1 194:1 
1 87:1 90:1 193:1 194:1 248:1 
1 87:1 187:1 257:1 259:1 
1 122:1 156:1 
1 58:1 247:1 
1 115:1 123:1 138:1 189:1 
1 116:1 
1 48:1 185:1 
1 106:1 153:1 
1 24:1 73:1 194:1 200:1 
1 87:1 191:1 
1 87:1 218:1 
1 49:1 76:1 87:1 151:1 186:1 257:1 
1 89:1 90:1 141:1 
1 41:1 
1 79:1 115:1 166:1 257:1 
1 48:1 165:1 261:1 
1 23:1 49:1 111:1 
1 59:1 106:1 112:1 115:1 122:1 129:1 200:1 257:1 
1 87:1 193:1 
1 49:1 54:1 87:1 
1 49:1 53:1 87:1 142:1 193:1 
1 53:1 95:1 127:1 
1 70:1 261:1 
1 123:1 193:1 244:1 
1 53:1 78:1 111:1 
1 127:1 
1 51:1 79:1 81:1 115:1 
1 84:1 185:1 
1 257:1 
1 163:1 164:1 187:1 189:1 
1 164:1 
1 115:1 117:1 123:1 
1 48:1 194:1 246:1 
1 49:1 53:1 87:1 204:1 
1 80:1 84:1 87:1 193:1 194:1 257:1 
1 23:1 194:1 200:1 257:1 
1 84:1 248:1 
1 58:1 148:1 189:1 194:1 
1 48:1 194:1 
1 251:1 257:1 
1 73:1 124:1 221:1 242:1 
1 111:1 186:1 270:1 
1 113:1 115:1 123:1 
1 248:1 251:1 257:1 259:1 
1 73:1 78:1 194:1 200:1 
1 44:1 53:1 130:1 192:1 233:1 257:1 
1 117:1 123:1 242:1 248:1 
1 116:1 165:1 201:1 243:1 
1 160:1 185:1 
1 73:1 
1 115:1 219:1 
1 67:1 75:1 189:1 
1 194:1 200:1 251:1 
1 49:1 53:1 194:1 240:1 
1 87:1 115:1 248:1 257:1 
1 23:1 48:1 53:1 87:1 127:1 
1 115:1 201:1 
1 200:1 
1 122:1 124:1 235:1 239:1 
1 55:1 87:1 150:1 193:1 
1 191:1 193:1 
1 251:1 252:1 
1 148:1 193:1 251:1 257:1 
1 11:1 
1 98:1 
1 117:1 123:1 
1 
1 115:1 233:1 
1 76:1 130:1 
1 75:1 193:1 
1 53:1 87:1 
1 
1 51:1 115:1 122:1 194:1 221:1 
1 51:1 158:1 
1 194:1 197:1 221:1 
1 
1 115:1 116:1 242:1 
1 58:1 
1 48:1 52:1 115:1 138:1 144:1 
1 117:1 195:1 
1 49:1 87:1 116:1 241:1 248:1 
1 49:1 78:1 189:1 194:1 
1 
1 123:1 133:1 
1 123:1 189:1 221:1 233:1 
1 49:1 53:1 
1 49:1 87:1 
1 185:1 
1 14:1 87:1 
1 48:1 193:1 221:1 
1 27:1 59:1 
1 48:1 87:1 115:1 189:1 
1 49:1 193:1 194:1 
1 90:1 94:1 189:1 
1 49:1 87:1 221:1 
1 84:1 161:1 
1 4:1 53:1 115:1 190:1 251:1 257:1 
1 193:1 194:1 233:1 
1 149:1 
1 53:1 71:1 84:1 189:1 222:1 242:1 
1 185:1 189:1 194:1 
1 81:1 
1 123:1 200:1 
1 
1 49:1 73:1 78:1 87:1 150:1 
1 122:1 200:1 242:1 251:1 
1 84:1 124:1 193:1 
1 84:1 90:1 214:1 
1 78:1 
1 84:1 157:1 193:1 
1 53:1 81:1 
1 53:1 55:1 87:1 
1 49:1 51:1 148:1 193:1 
1 49:1 84:1 87:1 98:1 130:1 192:1 
1 81:1 146:1 200:1 241:1 
1 53:1 123:1 194:1 
1 185:1 
1 49:1 87:1 
1 53:1 87:1 89:1 90:1 225:1 
1 87:1 132:1 
1 85:1 204:1 
1 117:1 
1 193:1 
1 189:1 
1 115:1 235:1 
1 81:1 221:1 
1 71:1 
1 51:1 52:1 148:1 
1 49:1 87:1 257:1 
1 270:1 
1 
1 79:1 87:1 115:1 193:1 224:1 
1 81:1 
1 53:1 193:1 
1 245:1 
1 186:1 242:1 
1 84:1 193:1 194:1 221:1 
1 257:1 
1 49:1 53:1 87:1 
1 53:1 
1 206:1 
1 54:1 
1 53:1 194:1 
1 
1 53:1 229:1 
1 192:1 
1 115:1 217:1 
1 87:1 89:1 116:1 193:1 
1 164:1 244:1 
1 70:1 165:1 193:1 197:1 200:1 
1 83:1 
1 48:1 49:1 193:1 
1 83:1 117:1 214:1 254:1 
1 7:1 
1 124:1 
1 115:1 189:1 
1 84:1 186:1 
1 53:1 87:1 89:1 257:1 
1 49:1 223:1 
1 53:1 115:1 148:1 164:1 193:1 194:1 
1 109:1 
1 242:1 
1 123:1 197:1 
1 89:1 90:1 150:1 
1 123:1 
1 123:1 245:1 
1 13:1 
1 164:1 
1 144:1 251:1 
1 
1 75:1 80:1 189:1 
1 84:1 148:1 194:1 224:1 
1 193:1 200:1 
1 80:1 117:1 122:1 
1 117:1 257:1 
1 
1 255:1 
1 
1 79:1 80:1 143:1 233:1 244:1 248:1 251:1 257:1 
1 47:1 
1 117:1 123:1 
1 112:1 
1 48:1 58:1 127:1 144:1 200:1 251:1 
1 200:1 251:1 
1 49:1 53:1 87:1 90:1 
1 115:1 
1 133:1 
1 82:1 194:1 200:1 233:1 
1 84:1 233:1 255:1 
1 192:1 
1 83:1 132:1 224:1 
1 54:1 130:1 
1 53:1 116:1 194:1 
1 116:1 257:1 
1 257:1 
1 219:1 228:1 
1 78:1 127:1 194:1 197:1 
1 53:1 87:1 221:1 
1 49:1 53:1 
1 185:1 
1 7:1 
1 115:1 
1 123:1 
1 185:1 
1 146:1 
1 84:1 123:1 
1 84:1 144:1 194:1 
1 
1 
1 48:1 193:1 233:1 
1 
1 49:1 188:1 
1 83:1 194:1 
1 47:1 
1 78:1 
1 250:1 257:1 
1 49:1 87:1 95:1 98:1 122:1 
1 91:1 214:1 
1 48:1 58:1 214:1 
1 72:1 175:1 185:1 
1 
1 115:1 
1 123:1 189:1 233:1 
1 
1 
1 144:1 
1 7:1 47:1 48:1 83:1 125:1 194:1 200:1 
1 
1 75:1 
1 
1 123:1 
1 251:1 
1 250:1 
1 115:1 116:1 
1 242:1 
1 81:1 122:1 125:1 
1 
1 84:1 200:1 
1 129:1 
1 
1 7:1 130:1 248:1 
1 241:1 248:1 257:1 
1 189:1 228:1 
1 53:1 251:1 
1 87:1 194:1 
1 84:1 85:1 233:1 
1 115:1 148:1 
1 55:1 193:1 233:1 
1 148:1 
1 83:1 194:1 248:1 
1 87:1 194:1 200:1 
1 225:1 
1 91:1 233:1 
1 81:1 
1 200:1 
1 228:1 
1 193:1 194:1 
1 214:1 
1 49:1 
1 189:1 
1 221:1 
1 63:1 194:1 
1 122:1 
1 81:1 115:1 
1 115:1 242:1 
1 192:1 200:1 241:1 
1 
1 257:1 
1 166:1 
1 194:1 214:1 246:1 
1 78:1 193:1 
1 115:1 193:1 221:1 
1 49:1 
1 53:1 87:1 251:1 257:1 
1 79:1 251:1 
1 189:1 
1 149:1 257:1 
1 78:1 115:1 
1 120:1 186:1 213:1 
1 
1 
1 84:1 235:1 
1 
1 200:1 251:1 257:1 
1 123:1 
1 185:1 
1 58:1 81:1 
1 5:1 21:1 23:1 111:1 134:1 
1 152:1 194:1 
1 48:1 81:1 206:1 
1 157:1 
1 
1 191:1 194:1 
1 112:1 
1 185:1 
1 248:1 254:1 
1 193:1 194:1 200:1 
1 4:1 251:1 257:1 
1 187:1 
1 
1 192:1 194:1 251:1 
1 221:1 
1 53:1 87:1 91:1 156:1 191:1 193:1 
1 116:1 194:1 214:1 
1 194:1 
1 115:1 248:1 
1 115:1 
1 48:1 123:1 
1 193:1 
1 
1 257:1 
1 49:1 76:1 87:1 193:1 219:1 
1 192:1 
1 53:1 72:1 87:1 193:1 233:1 
1 162:1 
1 51:1 194:1 
1 192:1 233:1 
1 250:1 
1 82:1 122:1 132:1 194:1 221:1 248:1 
1 200:1 
1 115:1 
1 123:1 257:1 
1 44:1 53:1 
1 214:1 
1 59:1 106:1 115:1 
1 164:1 193:1 194:1 200:1 247:1 248:1 
1 73:1 124:1 
1 194:1 
1 160:1 201:1 221:1 
1 194:1 
1 81:1 254:1 255:1 
1 221:1 
1 233:1 
1 257:1 
1 194:1 
-0.09511363808114366 78:1 138:1 193:1 257:1 
-1 194:1 248:1 251:1 
-1 49:1 175:1 185:1 
-0.3316296807153081 17:1 21:1 38:1 43:1 91:1 97:1 130:1 132:1 193:1 194:1 
-0.2119803671057079 24:1 43:1 82:1 90:1 
-1 191:1 194:1 200:1 221:1 
-1 48:1 49:1 53:1 87:1 138:1 142:1 144:1 191:1 193:1 200:1 248:1 261:1 
-1 49:1 80:1 116:1 127:1 192:1 248:1 
-1 49:1 75:1 78:1 87:1 150:1 193:1 245:1 
-0.7214409860396497 3:1 115:1 187:1 226:1 248:1 
-1 23:1 51:1 76:1 84:1 94:1 192:1 
-0.7324785172005929 80:1 194:1 218:1 252:1 257:1 
-1 24:1 51:1 193:1 200:1 257:1 
-0.05038910367279026 25:1 49:1 96:1 117:1 123:1 
-0.07412910058595563 141:1 194:1 251:1 
-1 47:1 49:1 59:1 77:1 147:1 156:1 186:1 191:1 
-0.3912312322866832 49:1 87:1 160:1 186:1 194:1 257:1 
-0.04238716660437518 49:1 87:1 148:1 186:1 189:1 190:1 
-0.3987769788963542 84:1 87:1 91:1 193:1 194:1 
-0.2207125785871433 19:1 115:1 122:1 
-0.9594856135546276 23:1 53:1 54:1 77:1 80:1 87:1 116:1 193:1 
-1 123:1 193:1 194:1 200:1 
-0.3372277556448567 64:1 115:1 186:1 257:1 
-1 53:1 77:1 81:1 87:1 115:1 130:1 221:1 239:1 241:1 
-1 47:1 48:1 84:1 189:1 192:1 194:1 
-0.05191323110864432 58:1 87:1 185:1 189:1 
-1 24:1 48:1 84:1 194:1 
-1 47:1 84:1 87:1 106:1 188:1 189:1 197:1 200:1 248:1 
-0.7970659764454431 148:1 257:1 
-0.4300197252555745 53:1 84:1 87:1 156:1 192:1 194:1 257:1 
-1 49:1 115:1 123:1 248:1 
-1 73:1 117:1 189:1 194:1 200:1 221:1 
-1 23:1 49:1 87:1 89:1 90:1 97:1 122:1 206:1 
-0.9511615966477638 4:1 49:1 53:1 75:1 87:1 150:1 
-0.389925930796356 14:1 49:1 53:1 87:1 89:1 90:1 248:1 
-1 24:1 49:1 87:1 150:1 191:1 
-1 48:1 49:1 53:1 79:1 87:1 90:1 106:1 123:1 192:1 200:1 248:1 251:1 
-1 200:1 221:1 
-1 75:1 189:1 228:1 
-1 87:1 89:1 105:1 191:1 248:1 
-0.5488560100634273 44:1 48:1 53:1 106:1 160:1 193:1 
-1 49:1 51:1 189:1 194:1 221:1 222:1 251:1 
-0.09564182011594353 124:1 138:1 160:1 233:1 252:1 
-1 43:1 117:1 235:1 245:1 246:1 
-1 44:1 53:1 87:1 91:1 103:1 115:1 153:1 200:1 
-0.07365783688791361 80:1 124:1 186:1 252:1 255:1 256:1 257:1 
-1 87:1 192:1 200:1 221:1 245:1 257:1 
-0.6463725224937391 81:1 122:1 123:1 124:1 189:1 
-1 123:1 193:1 194:1 200:1 
-1 70:1 71:1 72:1 78:1 117:1 200:1 252:1 254:1 
-0.9958878094497791 48:1 78:1 116:1 194:1 233:1 
-0.9436591146774692 83:1 109:1 194:1 214:1 247:1 
-0.05165486123196601 50:1 53:1 75:1 79:1 87:1 94:1 124:1 
-1 4:1 53:1 57:1 115:1 122:1 146:1 
-0.8980315366970657 44:1 49:1 53:1 90:1 117:1 189:1 
-0.1272906563648459 49:1 59:1 63:1 75:1 
-0.859353619912367 87:1 189:1 193:1 194:1 
-0.8001278480600278 47:1 81:1 116:1 185:1 
-0.5482183864258725 4:1 19:1 85:1 193:1 199:1 200:1 248:1 
-0.9683281481623701 73:1 87:1 123:1 189:1 191:1 199:1 
-1 51:1 115:1 193:1 194:1 257:1 
-0.5382718857771278 59:1 77:1 80:1 82:1 83:1 85:1 90:1 193:1 
-0.3434595936229217 87:1 93:1 193:1 248:1 
-0.4997096884003094 148:1 161:1 165:1 189:1 194:1 257:1 
-0.9621299263866938 8:1 58:1 81:1 115:1 122:1 242:1 
-1 144:1 148:1 198:1 204:1 
-0.4477022692709596 4:1 49:1 80:1 84:1 87:1 116:1 251:1 
-0.8451545925644482 11:1 29:1 90:1 97:1 111:1 
-0.9809564811883213 7:1 76:1 111:1 116:1 200:1 214:1 248:1 
-1 4:1 47:1 95:1 125:1 
-0.8566258127121599 49:1 53:1 75:1 77:1 83:1 87:1 95:1 144:1 
-0.4828696151506042 117:1 219:1 257:1 
-1 7:1 22:1 90:1 116:1 122:1 149:1 
-0.8374725711944794 193:1 200:1 228:1 245:1 257:1 
-1 87:1 191:1 193:1 194:1 
-1 53:1 117:1 194:1 233:1 234:1 251:1 257:1 
-0.06497898769193548 49:1 83:1 94:1 153:1 155:1 189:1 221:1 
-1 87:1 105:1 111:1 191:1 193:1 214:1 
-0.500463083557399 41:1 192:1 198:1 251:1 257:1 
-0.7625151000834691 53:1 87:1 89:1 90:1 
-0.1131345931454107 80:1 87:1 189:1 192:1 
-0.717272122213117 75:1 77:1 84:1 105:1 115:1 191:1 192:1 199:1 200:1 
-1 87:1 90:1 95:1 115:1 116:1 117:1 192:1 
-0.07279468186800468 49:1 87:1 93:1 241:1 
-0.09393700545269754 77:1 90:1 104:1 122:1 189:1 
-1 23:1 47:1 62:1 75:1 90:1 248:1 
-1 192:1 194:1 197:1 200:1 248:1 
-0.8393527252256293 87:1 89:1 97:1 115:1 150:1 233:1 
-1 52:1 166:1 
-1 191:1 192:1 200:1 201:1 251:1 257:1 
-1 49:1 87:1 146:1 
-0.09644068980653284 49:1 122:1 125:1 192:1 214:1 
-0.113976001395891 91:1 115:1 130:1 
-0.04576338945917495 58:1 81:1 148:1 248:1 
-0.6872257340168997 23:1 89:1 98:1 106:1 188:1 194:1 247:1 251:1 257:1 
-1 23:1 87:1 89:1 193:1 200:1 
-0.1846281067159308 49:1 68:1 194:1 201:1 
-1 48:1 80:1 94:1 153:1 193:1 202:1 221:1 235:1 
-1 49:1 87:1 96:1 111:1 146:1 
-1 49:1 192:1 194:1 
-0.1729717306279783 14:1 77:1 84:1 87:1 233:1 
-1 19:1 48:1 73:1 189:1 193:1 194:1 219:1 
-0.980448678195259 52:1 58:1 149:1 189:1 244:1 245:1 248:1 
-1 23:1 48:1 75:1 83:1 123:1 
-0.9507427454883746 48:1 49:1 50:1 123:1 190:1 219:1 
-1 13:1 48:1 82:1 227:1 239:1 
-0.2504909077205603 14:1 48:1 53:1 77:1 87:1 192:1 
-1 132:1 185:1 252:1 
-0.3248411576315079 49:1 117:1 200:1 233:1 252:1 
-1 67:1 95:1 152:1 189:1 200:1 
-0.9836931342659565 49:1 75:1 84:1 95:1 98:1 130:1 148:1 227:1 
-1 82:1 87:1 116:1 130:1 191:1 192:1 194:1 
-1 21:1 24:1 55:1 
-1 73:1 84:1 128:1 156:1 199:1 222:1 248:1 
-0.2875565534131983 49:1 53:1 152:1 192:1 
-1 49:1 90:1 97:1 124:1 130:1 147:1 189:1 204:1 240:1 
-0.8356573983971778 7:1 11:1 49:1 53:1 75:1 89:1 90:1 127:1 150:1 
-0.8450759998535418 48:1 54:1 116:1 192:1 257:1 
-0.8007407911345362 53:1 87:1 192:1 193:1 
-0.2389154111328824 115:1 124:1 165:1 185:1 186:1 
-1 73:1 115:1 165:1 231:1 245:1 
-1 24:1 192:1 193:1 
-0.7756445146042166 6:1 53:1 75:1 148:1 
-1 78:1 80:1 90:1 246:1 
-1 23:1 106:1 116:1 
-0.19897318025247 23:1 48:1 75:1 189:1 
-1 82:1 116:1 117:1 122:1 233:1 
-0.7215136669107122 75:1 192:1 194:1 197:1 
-0.4965650554543688 29:1 84:1 87:1 89:1 90:1 
-0.01026593684155748 1:1 53:1 193:1 200:1 
-0.9528553483636228 115:1 185:1 194:1 213:1 
-0.4030240572908215 53:1 77:1 80:1 87:1 117:1 187:1 191:1 192:1 
-1 49:1 77:1 87:1 117:1 127:1 135:1 192:1 194:1 241:1 248:1 
-0.4142729326109794 47:1 148:1 149:1 185:1 
-0.735972154058695 44:1 53:1 85:1 87:1 89:1 90:1 150:1 192:1 248:1 
-0.4490706964408138 19:1 76:1 91:1 94:1 106:1 248:1 
-0.3268890856681596 32:1 49:1 75:1 
-1 84:1 193:1 194:1 
-1 23:1 75:1 79:1 80:1 87:1 153:1 192:1 
-0.640965579843215 53:1 75:1 77:1 78:1 116:1 117:1 122:1 193:1 251:1 
-0.08871786187721029 115:1 144:1 148:1 193:1 251:1 
-0.9589224996822641 115:1 194:1 233:1 235:1 254:1 
-1 23:1 24:1 48:1 83:1 87:1 116:1 123:1 
-0.3261224090384308 53:1 87:1 93:1 98:1 259:1 
-1 33:1 49:1 90:1 95:1 97:1 98:1 
-1 23:1 24:1 189:1 
-0.8372968329659847 48:1 83:1 193:1 
-0.8769900032861311 78:1 116:1 162:1 195:1 217:1 251:1 
-0.5417269349676653 22:1 49:1 77:1 87:1 90:1 
-1 53:1 87:1 117:1 193:1 257:1 259:1 
-0.5606816744982669 49:1 53:1 54:1 87:1 90:1 91:1 248:1 
-0.2744921506373508 53:1 84:1 87:1 242:1 
-1 49:1 148:1 184:1 194:1 221:1 246:1 
-0.5772818951393001 87:1 200:1 246:1 248:1 
-0.9809614371790124 6:1 73:1 78:1 82:1 194:1 221:1 222:1 251:1 257:1 
-1 19:1 64:1 90:1 111:1 
-0.1616886313689601 204:1 218:1 257:1 
-0.8522017064687534 53:1 87:1 98:1 191:1 257:1 
-1 72:1 73:1 152:1 206:1 
-0.9152657877771739 59:1 84:1 193:1 194:1 
-1 69:1 81:1 115:1 
-1 14:1 59:1 87:1 93:1 146:1 
-0.6994586481113469 93:1 116:1 123:1 192:1 193:1 
-0.0922449842155835 248:1 261:1 
-0.6526992906199968 49:1 53:1 77:1 83:1 87:1 89:1 90:1 95:1 
-1 49:1 53:1 82:1 84:1 87:1 193:1 194:1 200:1 
-1 90:1 193:1 214:1 
-0.931067699278627 8:1 49:1 62:1 87:1 186:1 189:1 
-0.3842852682217087 23:1 90:1 91:1 94:1 115:1 
-1 122:1 244:1 251:1 257:1 
-0.5094324363193159 14:1 76:1 77:1 218:1 
-1 23:1 48:1 111:1 193:1 233:1 
-1 7:1 58:1 87:1 127:1 148:1 219:1 
-1 48:1 80:1 186:1 192:1 246:1 
-1 75:1 85:1 206:1 227:1 
-1 49:1 75:1 87:1 155:1 193:1 200:1 
-0.2847106035513477 22:1 53:1 83:1 193:1 
-0.1952863839341522 78:1 84:1 129:1 
-0.3213637449638498 33:1 59:1 
-0.8378658373843552 125:1 185:1 200:1 241:1 247:1 248:1 
-1 38:1 75:1 90:1 93:1 106:1 153:1 
-0.7377023845762581 5:1 49:1 55:1 78:1 93:1 98:1 245:1 246:1 
-1 87:1 128:1 189:1 
-0.5198802813361314 49:1 98:1 117:1 192:1 251:1 257:1 
-1 44:1 53:1 80:1 87:1 130:1 148:1 
-0.2770058305113299 73:1 84:1 193:1 200:1 233:1 234:1 
-1 49:1 146:1 
-0.1994334462507509 49:1 53:1 87:1 191:1 193:1 
-0.9327955817704751 122:1 156:1 201:1 219:1 248:1 
-0.5977127110469866 46:1 79:1 115:1 191:1 
-0.4746779232523466 7:1 111:1 115:1 127:1 194:1 
-1 49:1 52:1 84:1 148:1 189:1 
-1 23:1 53:1 80:1 83:1 84:1 90:1 186:1 243:1 
-1 48:1 109:1 130:1 228:1 
-1 49:1 53:1 192:1 257:1 
-1 109:1 141:1 251:1 
-0.6827521333521837 53:1 79:1 106:1 115:1 116:1 123:1 199:1 244:1 
-0.1062911325735181 122:1 130:1 
-1 91:1 130:1 194:1 240:1 
-0.2237898576603521 49:1 95:1 248:1 
-1 44:1 49:1 87:1 123:1 222:1 
-0.7319948980740288 49:1 101:1 123:1 149:1 150:1 
-1 83:1 132:1 192:1 219:1 224:1 
-1 53:1 76:1 84:1 90:1 127:1 194:1 200:1 
-1 49:1 130:1 186:1 189:1 193:1 194:1 
-0.5835457698467604 53:1 86:1 90:1 140:1 191:1 231:1 245:1 247:1 
-1 23:1 95:1 123:1 
-0.06495032045543814 83:1 114:1 117:1 185:1 194:1 
-1 49:1 87:1 90:1 150:1 
-0.4531587143630894 5:1 59:1 248:1 
-0.09428273778579534 138:1 165:1 185:1 
-0.7920292501929558 24:1 87:1 157:1 159:1 186:1 197:1 
-0.9810748116057668 49:1 50:1 53:1 122:1 186:1 193:1 200:1 
-0.04085881626897791 78:1 80:1 87:1 200:1 
-0.07422865949220922 204:1 252:1 254:1 263:1 
-0.07268108291478452 7:1 48:1 187:1 189:1 
-0.1204552152598107 87:1 129:1 152:1 155:1 
-0.9399639545111163 41:1 78:1 87:1 164:1 193:1 251:1 
-0.7310160813652432 53:1 87:1 90:1 129:1 150:1 193:1 
-0.5657323050220691 49:1 80:1 87:1 193:1 247:1 
-1 53:1 106:1 150:1 
-1 44:1 75:1 227:1 
-0.1257685995714504 23:1 77:1 87:1 109:1 
-0.3459382531184357 26:1 73:1 86:1 117:1 156:1 198:1 200:1 233:1 
-0.06443775103958387 7:1 87:1 193:1 221:1 
-0.6665481035595454 53:1 87:1 193:1 214:1 257:1 
-1 116:1 117:1 123:1 124:1 144:1 
-0.04278203352187064 49:1 75:1 81:1 
-1 24:1 53:1 
-1 39:1 126:1 
-1 89:1 164:1 193:1 221:1 257:1 
-1 79:1 248:1 251:1 
-0.09827271234899276 54:1 162:1 
-0.879106463819144 23:1 29:1 115:1 
-1 72:1 200:1 233:1 246:1 
-0.3243601094834039 53:1 87:1 116:1 122:1 127:1 219:1 
-0.6171313049455971 87:1 116:1 117:1 192:1 193:1 
-1 23:1 77:1 84:1 
-1 53:1 59:1 87:1 115:1 217:1 245:1 
-0.951544240421573 75:1 87:1 193:1 194:1 200:1 
-1 23:1 116:1 193:1 194:1 
-1 124:1 189:1 200:1 233:1 
-1 29:1 78:1 83:1 187:1 193:1 194:1 200:1 
-1 7:1 23:1 91:1 
-0.6895384008501033 49:1 90:1 248:1 
-1 29:1 49:1 80:1 87:1 194:1 200:1 
-1 23:1 58:1 87:1 197:1 200:1 223:1 
-0.07524899463956164 16:1 75:1 87:1 105:1 155:1 
-1 49:1 194:1 248:1 
-1 49:1 95:1 187:1 191:1 240:1 
-1 82:1 87:1 193:1 195:1 221:1 
-1 22:1 115:1 116:1 117:1 
-0.4266638149766848 49:1 84:1 87:1 89:1 90:1 125:1 192:1 257:1 
-1 49:1 53:1 90:1 115:1 193:1 251:1 
-0.1552566081808315 7:1 10:1 193:1 197:1 
-0.02420244211823966 6:1 38:1 83:1 189:1 
-0.4404034267824667 200:1 251:1 
-0.850020491944119 116:1 248:1 
-0.8852580782088916 24:1 68:1 116:1 148:1 193:1 200:1 240:1 251:1 257:1 
-1 53:1 80:1 189:1 221:1 
-1 49:1 89:1 103:1 116:1 192:1 257:1 
-0.03755776080575472 115:1 117:1 201:1 
-1 49:1 54:1 87:1 193:1 
-0.875346767575085 49:1 53:1 87:1 202:1 246:1 
-0.391929391503159 90:1 91:1 93:1 193:1 
-1 115:1 251:1 252:1 257:1 
-0.03753818446822475 115:1 187:1 192:1 200:1 221:1 
-0.3847591804461597 24:1 48:1 53:1 80:1 
-0.3817080527779815 51:1 115:1 200:1 228:1 251:1 
-1 80:1 87:1 123:1 127:1 189:1 
-1 115:1 116:1 124:1 
-1 53:1 193:1 194:1 251:1 257:1 
-0.8817290176318425 111:1 122:1 125:1 194:1 218:1 242:1 
-1 83:1 84:1 123:1 
-0.2422584860885572 26:1 166:1 185:1 
-1 7:1 79:1 155:1 
-0.6015175656636521 36:1 76:1 193:1 
-0.1083108856876377 87:1 123:1 191:1 195:1 
-0.11732018004797 22:1 49:1 53:1 
-0.05013203221113377 48:1 78:1 85:1 87:1 89:1 90:1 
-0.2635943246881062 77:1 83:1 87:1 91:1 
-0.9336921425956431 24:1 49:1 53:1 87:1 116:1 
-0.08551337569788697 19:1 75:1 
-0.4486387044706504 29:1 53:1 87:1 191:1 221:1 
-1 41:1 87:1 120:1 192:1 
-0.6386979701078396 87:1 89:1 90:1 116:1 132:1 
-1 83:1 107:1 144:1 192:1 233:1 
-1 53:1 115:1 200:1 257:1 
-0.4230684553215781 49:1 115:1 124:1 200:1 221:1 
-0.6966755600096577 32:1 44:1 87:1 
-0.08757166595616361 148:1 157:1 165:1 
-1 49:1 80:1 87:1 90:1 111:1 116:1 193:1 247:1 
-0.1258067956448985 87:1 90:1 94:1 116:1 191:1 248:1 
-1 47:1 53:1 87:1 117:1 192:1 194:1 
-0.9403977838978061 48:1 53:1 192:1 
-1 4:1 73:1 115:1 218:1 242:1 
-1 87:1 151:1 192:1 257:1 
-0.1274653405876826 49:1 87:1 189:1 193:1 
-0.06556832269738372 53:1 87:1 192:1 193:1 197:1 200:1 
-1 53:1 95:1 218:1 243:1 
-0.6560226262213732 81:1 87:1 115:1 189:1 192:1 
-0.1468108657606222 7:1 14:1 80:1 87:1 247:1 
-1 24:1 95:1 
-0.3453561941066409 87:1 187:1 200:1 228:1 
-0.04328870531125573 184:1 185:1 270:1 
-0.1674385207264359 77:1 87:1 105:1 
-0.04725499458472193 29:1 50:1 77:1 87:1 152:1 
-1 84:1 115:1 117:1 123:1 193:1 200:1 
-0.3341372847672275 87:1 89:1 90:1 228:1 
-0.4459721643113684 49:1 53:1 87:1 158:1 201:1 
-1 49:1 54:1 84:1 87:1 90:1 105:1 
-1 193:1 257:1 
-1 87:1 116:1 117:1 191:1 251:1 257:1 
-0.921027239714281 4:1 79:1 113:1 187:1 
-0.1094785852500092 91:1 185:1 189:1 
-0.4486935771835009 49:1 53:1 87:1 90:1 193:1 
-0.4817964805944175 76:1 96:1 
-0.685099141874959 77:1 233:1 
-0.1088001625991287 164:1 185:1 194:1 
-0.6968068675813588 49:1 53:1 84:1 87:1 194:1 248:1 
-0.246719208988743 87:1 164:1 
-0.138256305557094 23:1 49:1 75:1 87:1 
-0.8484097211605027 7:1 84:1 93:1 115:1 187:1 248:1 
-0.6362513335229326 53:1 87:1 193:1 233:1 
-1 81:1 115:1 123:1 252:1 
-1 130:1 193:1 194:1 200:1 
-0.3625779734425816 2:1 49:1 84:1 90:1 98:1 105:1 188:1 220:1 
-0.2613497705986929 19:1 189:1 
-1 185:1 193:1 
-0.1551758784143379 48:1 49:1 53:1 73:1 124:1 191:1 
-1 53:1 87:1 98:1 103:1 148:1 191:1 194:1 
-1 189:1 192:1 193:1 242:1 
-1 87:1 94:1 122:1 186:1 192:1 194:1 200:1 
-0.6002151753188625 4:1 48:1 53:1 84:1 87:1 156:1 197:1 
-0.02689011357016668 76:1 87:1 192:1 195:1 
-1 80:1 132:1 152:1 221:1 
-0.3547199181916849 53:1 87:1 122:1 193:1 242:1 
-0.04822458841850087 7:1 115:1 124:1 252:1 
-0.8121554593923669 75:1 189:1 193:1 233:1 
-1 81:1 83:1 193:1 240:1 
-1 127:1 163:1 242:1 
-0.1202485320298032 81:1 117:1 157:1 186:1 
-0.2190339902668577 49:1 53:1 77:1 87:1 105:1 194:1 
-0.07700117682561301 112:1 239:1 
-1 87:1 106:1 117:1 132:1 186:1 189:1 193:1 248:1 
-0.6036190933400006 80:1 82:1 112:1 122:1 
-1 49:1 89:1 90:1 95:1 104:1 189:1 
-1 23:1 49:1 53:1 87:1 193:1 248:1 
-0.9931528698937925 53:1 127:1 193:1 228:1 248:1 
-0.2094442783467653 78:1 252:1 255:1 
-1 90:1 193:1 200:1 
-0.3599834684302568 82:1 115:1 116:1 242:1 
-0.976187108664336 81:1 83:1 84:1 194:1 200:1 251:1 257:1 
-0.04598032852940707 79:1 122:1 248:1 
-1 133:1 233:1 
-0.7075959674246363 80:1 252:1 255:1 
-0.3030830978234042 93:1 111:1 117:1 244:1 
-0.9841508373637433 121:1 155:1 
-0.1750099586786768 10:1 83:1 152:1 224:1 243:1 
-1 148:1 185:1 
-1 115:1 189:1 193:1 194:1 
-1 151:1 200:1 233:1 270:1 
-0.02168299772600537 4:1 115:1 125:1 200:1 251:1 
-1 4:1 72:1 257:1 
-0.5705061466698653 48:1 53:1 87:1 191:1 227:1 
-0.1945915840638668 78:1 83:1 87:1 90:1 159:1 257:1 
-0.5908596475138399 24:1 48:1 76:1 80:1 247:1 
-1 19:1 49:1 53:1 87:1 104:1 128:1 132:1 
-0.9163700132779633 7:1 47:1 80:1 89:1 189:1 247:1 
-1 4:1 48:1 87:1 127:1 133:1 192:1 
-0.722420096573793 111:1 115:1 117:1 122:1 123:1 193:1 235:1 270:1 
-1 76:1 78:1 87:1 92:1 200:1 248:1 
-1 75:1 76:1 77:1 95:1 
-0.06381327869889543 6:1 49:1 62:1 129:1 
-1 3:1 214:1 257:1 
-1 192:1 200:1 214:1 
-0.6868770742262017 53:1 87:1 123:1 193:1 221:1 
-1 23:1 29:1 115:1 122:1 194:1 
-0.06876760021789108 48:1 115:1 187:1 194:1 
-1 78:1 112:1 124:1 130:1 164:1 189:1 257:1 
-1 84:1 193:1 200:1 257:1 
-0.9224868372578228 106:1 193:1 194:1 202:1 
-0.3131226755703514 53:1 125:1 193:1 194:1 
-0.2826352908732653 48:1 87:1 116:1 
-0.4669848705066731 49:1 106:1 193:1 200:1 
-0.2266654874549677 53:1 76:1 80:1 87:1 192:1 
-0.4335504859733505 49:1 192:1 200:1 248:1 
-0.1004171987184502 51:1 53:1 78:1 87:1 124:1 
-1 24:1 49:1 132:1 194:1 
-0.9615200828711189 53:1 85:1 97:1 122:1 150:1 225:1 
-1 194:1 233:1 
-0.03758443237102969 41:1 79:1 80:1 
-0.1934622130155337 155:1 189:1 194:1 214:1 216:1 246:1 
-0.0659021093369165 87:1 191:1 192:1 200:1 
-1 115:1 127:1 189:1 225:1 233:1 
-0.1069860344149929 84:1 117:1 194:1 233:1 251:1 253:1 
-0.5511079151050313 11:1 49:1 90:1 103:1 
-0.03526580402761381 81:1 117:1 123:1 
-0.9517394590583641 7:1 122:1 123:1 189:1 
-1 89:1 111:1 116:1 127:1 243:1 248:1 
-1 49:1 73:1 147:1 
-0.934568408880772 75:1 189:1 
-1 200:1 221:1 
-1 49:1 87:1 191:1 
-1 115:1 164:1 233:1 248:1 
-1 80:1 189:1 194:1 
-0.125272572137673 49:1 87:1 187:1 191:1 
-1 116:1 150:1 152:1 
-0.3313323598707962 24:1 84:1 115:1 189:1 
-1 53:1 58:1 
-0.3477741458717207 112:1 125:1 194:1 248:1 
-0.8173448415598989 53:1 75:1 80:1 87:1 
-1 87:1 122:1 125:1 194:1 200:1 
-1 73:1 81:1 84:1 193:1 
-0.241936437196521 44:1 73:1 87:1 248:1 257:1 
-0.3990750824944487 49:1 106:1 152:1 
-0.3886998006321351 193:1 200:1 206:1 
-1 53:1 95:1 189:1 193:1 200:1 
-0.1524723735321137 4:1 53:1 233:1 235:1 
-0.7713347166280242 23:1 52:1 83:1 148:1 194:1 
-1 87:1 194:1 257:1 
-1 53:1 135:1 141:1 218:1 221:1 225:1 
-1 48:1 73:1 193:1 194:1 200:1 221:1 257:1 
-0.0853692171866387 75:1 89:1 194:1 200:1 
-0.9680619033763226 44:1 49:1 84:1 87:1 191:1 
-0.1759747963673201 193:1 194:1 200:1 201:1 220:1 
-0.8186151019357386 152:1 189:1 252:1 
-1 127:1 142:1 233:1 250:1 
-1 87:1 95:1 122:1 192:1 257:1 
-0.8179445486108743 73:1 78:1 113:1 115:1 123:1 235:1 
-0.07097652361591948 257:1 259:1 
-1 189:1 194:1 200:1 270:1 
-0.373342894817373 200:1 223:1 
-1 76:1 77:1 87:1 95:1 191:1 
-0.01969839930261934 7:1 270:1 
-1 53:1 87:1 90:1 191:1 
-1 23:1 49:1 53:1 87:1 193:1 
-0.8634319416700084 44:1 83:1 115:1 123:1 130:1 
-1 49:1 53:1 87:1 123:1 193:1 
-1 3:1 149:1 192:1 246:1 
-1 53:1 83:1 194:1 200:1 251:1 
-0.3369515234752549 58:1 126:1 186:1 
-0.2213051276285778 192:1 194:1 200:1 257:1 
-1 70:1 85:1 186:1 229:1 245:1 
-0.03165399523128413 49:1 159:1 259:1 
-0.6761617509160035 53:1 87:1 189:1 193:1 
-0.4163797282411456 27:1 84:1 193:1 
-0.03520876419264417 115:1 117:1 222:1 254:1 
-0.03361297924142079 23:1 77:1 189:1 
-0.7707344233233802 49:1 53:1 87:1 192:1 194:1 233:1 234:1 245:1 
-0.1740762273510681 193:1 251:1 259:1 
-0.6531747288310339 51:1 58:1 64:1 
-0.7225353671333395 49:1 87:1 90:1 98:1 246:1 
-0.9471272059453153 59:1 70:1 83:1 111:1 116:1 127:1 129:1 257:1 
-0.677554128644696 53:1 98:1 116:1 127:1 193:1 
-0.4389551723420617 47:1 103:1 
-0.2878529716259904 53:1 115:1 116:1 117:1 148:1 193:1 
-1 47:1 49:1 95:1 242:1 
-0.2370029512637313 49:1 90:1 125:1 140:1 186:1 200:1 231:1 242:1 
-1 51:1 80:1 89:1 95:1 
-0.4066844910201596 49:1 55:1 116:1 191:1 247:1 
-1 117:1 127:1 130:1 233:1 
-0.8629538618020777 44:1 58:1 123:1 125:1 189:1 248:1 252:1 257:1 
-0.9317881675205847 32:1 87:1 193:1 233:1 
-0.2639965562864314 84:1 87:1 152:1 193:1 200:1 
-0.02758999790118813 7:1 54:1 
-0.2426211439854764 48:1 130:1 189:1 218:1 
-1 78:1 116:1 122:1 189:1 194:1 228:1 
-1 48:1 75:1 200:1 
-0.1207340217961693 87:1 90:1 135:1 235:1 
-0.7644410191102076 111:1 116:1 193:1 200:1 
-0.2889266403998573 89:1 150:1 193:1 
-1 22:1 58:1 115:1 193:1 194:1 
-1 53:1 87:1 89:1 115:1 116:1 200:1 257:1 
-0.0938261965848441 87:1 93:1 98:1 100:1 194:1 248:1 251:1 
-0.9508485268697967 79:1 116:1 
-0.3767429044878448 193:1 221:1 228:1 270:1 
-1 48:1 49:1 87:1 165:1 200:1 221:1 
-1 77:1 116:1 221:1 
-0.06916019173360299 49:1 53:1 87:1 90:1 106:1 115:1 
-1 257:1 259:1 
-0.393539906198328 87:1 91:1 97:1 202:1 
-0.314900858125041 76:1 152:1 233:1 
-1 53:1 111:1 123:1 148:1 192:1 
-0.2979106958781787 51:1 113:1 194:1 200:1 
-1 44:1 91:1 105:1 
-0.0748585731452529 115:1 122:1 130:1 160:1 189:1 
-0.625597245982606 81:1 115:1 123:1 126:1 
-1 87:1 116:1 194:1 
-0.4031763457665468 53:1 189:1 193:1 200:1 228:1 
-0.1084273611691709 115:1 123:1 255:1 
-0.9150220765743355 49:1 53:1 197:1 200:1 242:1 
-0.1134537317523097 91:1 130:1 
-1 84:1 185:1 
-0.9019309066429999 80:1 241:1 245:1 247:1 
-0.04481530311252233 61:1 105:1 117:1 
-0.0225075265379 53:1 73:1 75:1 251:1 
-0.9912736537251091 92:1 257:1 
-0.07395626030519926 85:1 91:1 148:1 149:1 194:1 
-1 62:1 109:1 115:1 236:1 248:1 
-1 91:1 228:1 245:1 
-1 23:1 29:1 200:1 
-0.1072278423870583 109:1 214:1 
-1 49:1 59:1 87:1 146:1 189:1 200:1 
-0.2611432871227288 192:1 214:1 
-0.9636287129967556 47:1 194:1 233:1 
-0.4468044572438544 87:1 193:1 194:1 251:1 
-1 79:1 123:1 198:1 240:1 242:1 
-1 70:1 73:1 
-0.9120926586388861 54:1 135:1 162:1 189:1 
-0.9675800863635943 52:1 127:1 251:1 257:1 
-0.948717140008287 53:1 129:1 164:1 193:1 
-1 23:1 194:1 
-0.04686076912236179 52:1 87:1 221:1 
-0.6261205976565813 7:1 193:1 194:1 
-1 51:1 158:1 
-0.9162877400498721 49:1 53:1 54:1 55:1 87:1 89:1 90:1 94:1 97:1 98:1 244:1 245:1 248:1 
-1 69:1 152:1 186:1 
-1 47:1 95:1 193:1 
-0.9371157744881294 49:1 53:1 93:1 116:1 155:1 
-0.09676472852246781 53:1 193:1 194:1 246:1 
-1 49:1 142:1 146:1 224:1 
-0.9412213513127484 81:1 113:1 116:1 242:1 
-1 48:1 51:1 53:1 77:1 80:1 84:1 187:1 
-0.6737978365275652 49:1 84:1 87:1 194:1 
-0.8726682433046998 48:1 123:1 
-0.697808235221275 8:1 87:1 193:1 
-0.4045594912877511 47:1 53:1 87:1 144:1 
-0.02091938223304449 7:1 115:1 122:1 158:1 
-1 49:1 87:1 127:1 146:1 
-0.8407102495181088 49:1 87:1 221:1 
-1 185:1 194:1 
-0.5065375157290539 49:1 76:1 87:1 233:1 
-0.8534810467973853 72:1 81:1 115:1 
-1 44:1 78:1 165:1 225:1 244:1 
-1 23:1 29:1 122:1 
-0.02894720968679799 87:1 111:1 192:1 228:1 
-0.4052173597377768 197:1 252:1 
-0.6240088192474456 58:1 123:1 124:1 127:1 191:1 248:1 
-0.569598222081851 53:1 63:1 87:1 194:1 
-1 70:1 73:1 192:1 251:1 
-0.3177943170565751 80:1 117:1 194:1 
-1 49:1 150:1 155:1 
-0.8914314912924854 116:1 127:1 155:1 
-0.2746774459872573 53:1 75:1 87:1 89:1 90:1 98:1 231:1 
-0.1771271638734713 41:1 148:1 186:1 218:1 
-1 76:1 106:1 245:1 
-0.1905456408410325 6:1 71:1 123:1 124:1 140:1 
-1 52:1 53:1 87:1 95:1 107:1 127:1 148:1 193:1 246:1 
-0.108137823260115 53:1 82:1 240:1 
-0.7397497369103251 49:1 87:1 95:1 192:1 
-0.09935196262896752 49:1 76:1 79:1 85:1 
-1 49:1 53:1 87:1 90:1 134:1 191:1 
-1 49:1 53:1 87:1 251:1 257:1 
-1 77:1 87:1 189:1 193:1 194:1 200:1 
-0.9261729046957125 75:1 87:1 200:1 233:1 
-0.4119450685425621 47:1 48:1 115:1 161:1 164:1 
-1 49:1 53:1 54:1 87:1 193:1 221:1 
-0.1313749113926822 26:1 144:1 193:1 257:1 
-0.5775803230909122 192:1 194:1 
-1 191:1 194:1 
-1 48:1 185:1 
-1 73:1 123:1 187:1 214:1 
-1 117:1 122:1 242:1 
-0.7954444935669496 87:1 116:1 193:1 251:1 257:1 
-0.05629706575224395 87:1 132:1 221:1 
-1 55:1 90:1 111:1 116:1 146:1 189:1 192:1 
-0.3339647480862912 112:1 122:1 123:1 124:1 
-0.2564002837326956 48:1 116:1 117:1 123:1 
-0.7775329002012014 84:1 200:1 
-0.1931013375553791 53:1 87:1 90:1 116:1 148:1 257:1 
-0.9683389182287222 84:1 117:1 123:1 124:1 218:1 
-0.0496398174918754 81:1 150:1 236:1 
-0.7156478765301418 189:1 193:1 201:1 248:1 
-0.6693700610002841 105:1 245:1 
-0.04963138900473844 53:1 123:1 156:1 232:1 
-1 115:1 117:1 257:1 
-0.9711848961183001 189:1 192:1 193:1 199:1 200:1 
-1 87:1 130:1 
-0.6190116730884407 156:1 189:1 193:1 194:1 225:1 233:1 
-1 53:1 87:1 90:1 105:1 
-1 194:1 221:1 257:1 
-0.2624647196055448 47:1 242:1 251:1 257:1 
-1 5:1 129:1 144:1 195:1 
-1 115:1 143:1 
-0.1538718188302581 29:1 49:1 193:1 200:1 
-0.02855630817116518 53:1 79:1 87:1 117:1 221:1 
-0.7720608133599743 53:1 87:1 132:1 135:1 
-0.5673882030419453 49:1 53:1 97:1 116:1 192:1 248:1 
-0.09630996618083013 19:1 86:1 116:1 
-1 49:1 53:1 123:1 200:1 248:1 257:1 
-1 95:1 116:1 257:1 
-0.5756462226816386 115:1 185:1 
-1 124:1 245:1 
-0.7050752590329079 160:1 186:1 242:1 
-1 39:1 241:1 
-0.7255078493626492 53:1 76:1 90:1 99:1 
-1 47:1 49:1 53:1 87:1 189:1 193:1 
-0.5950794638885145 53:1 132:1 148:1 194:1 
-0.2904140439474146 49:1 53:1 87:1 117:1 219:1 233:1 
-0.6568040315471632 10:1 23:1 91:1 247:1 248:1 
-0.2255743440368911 59:1 73:1 87:1 116:1 191:1 248:1 
-0.1463144059781241 87:1 98:1 200:1 247:1 
-0.9202378591302443 47:1 148:1 
-1 49:1 87:1 251:1 257:1 
-1 23:1 248:1 
-0.3946439080207899 48:1 52:1 87:1 194:1 
-0.08730363198332949 53:1 78:1 91:1 
-0.9717352360462757 130:1 228:1 242:1 
-0.5685243570762271 7:1 81:1 204:1 
-0.5027873303578403 149:1 246:1 252:1 
-0.6216967505801017 53:1 73:1 123:1 251:1 257:1 
-0.2896412512025005 75:1 90:1 
-0.9436143629114898 115:1 260:1 
-0.1647999090850457 43:1 53:1 87:1 98:1 191:1 
-0.7275229560954652 83:1 232:1 242:1 
-1 84:1 132:1 
-0.05994081282910085 79:1 87:1 
-0.8232742553383373 24:1 78:1 116:1 189:1 219:1 
-0.9123631673678633 79:1 194:1 217:1 224:1 
-1 76:1 87:1 122:1 251:1 
-0.3792102813624795 23:1 87:1 189:1 
-0.5595965732175333 27:1 200:1 
-1 95:1 97:1 116:1 193:1 
-0.8982031182891157 7:1 53:1 84:1 193:1 
-0.8653909422931878 115:1 191:1 232:1 
-0.1346275767231052 77:1 219:1 243:1 
-0.537693110763828 7:1 115:1 189:1 
-1 146:1 
-0.7368303249265085 24:1 87:1 116:1 219:1 
-1 23:1 233:1 245:1 
-0.6528897595259556 98:1 240:1 242:1 
-1 23:1 80:1 82:1 116:1 200:1 
-1 89:1 98:1 111:1 117:1 
-0.2003688756481762 24:1 49:1 115:1 221:1 
-0.1008259980789239 79:1 84:1 221:1 
-0.8826955069959496 7:1 144:1 200:1 233:1 242:1 
-1 48:1 123:1 131:1 257:1 
-1 83:1 84:1 130:1 
-0.1071517463450038 158:1 221:1 
-0.8249900413213231 89:1 93:1 194:1 
-1 19:1 49:1 111:1 
-1 23:1 127:1 191:1 
-0.2013344565992813 7:1 87:1 193:1 257:1 
-0.896027662505008 80:1 138:1 148:1 158:1 241:1 251:1 
-1 85:1 115:1 204:1 
-0.05138330683100669 49:1 53:1 87:1 98:1 225:1 
-0.3338626654109066 14:1 63:1 193:1 
-1 53:1 87:1 192:1 194:1 257:1 
-0.9632012242606056 49:1 53:1 87:1 189:1 
-0.7008849430317134 38:1 80:1 
-0.6867191067316517 75:1 87:1 90:1 193:1 
-0.06144306626303328 53:1 87:1 156:1 251:1 257:1 
-1 87:1 194:1 200:1 257:1 
-0.6899099959323322 72:1 124:1 246:1 257:1 
-0.1679224430484601 217:1 218:1 233:1 
-1 49:1 84:1 116:1 189:1 193:1 194:1 200:1 
-0.04775641930819519 49:1 90:1 193:1 194:1 263:1 
-1 116:1 194:1 245:1 
-0.09793074316685377 87:1 155:1 248:1 
-1 84:1 111:1 228:1 251:1 257:1 
-0.8980581983858054 7:1 112:1 123:1 241:1 248:1 251:1 
-0.1460552544405746 84:1 123:1 199:1 
-0.8565208465357519 144:1 233:1 
-1 49:1 87:1 123:1 
-1 23:1 58:1 107:1 
-0.4687401021893934 23:1 53:1 130:1 
-1 69:1 115:1 157:1 
-0.8985769913734846 44:1 153:1 
-1 53:1 87:1 90:1 116:1 194:1 
-1 123:1 151:1 
-0.5646244509987958 84:1 87:1 115:1 117:1 144:1 214:1 
-0.9052486342903029 84:1 185:1 231:1 
-0.350436790866778 95:1 201:1 
-0.6151236324788744 7:1 81:1 112:1 115:1 
-0.6586199463444484 115:1 122:1 123:1 201:1 214:1 248:1 
-0.1860556971013287 49:1 84:1 
-1 81:1 115:1 116:1 122:1 123:1 189:1 214:1 
-1 19:1 95:1 
-0.06356743346348948 58:1 115:1 117:1 189:1 252:1 
-1 22:1 23:1 
-0.1077588024338867 58:1 79:1 239:1 
-0.1139345686890505 14:1 87:1 191:1 194:1 233:1 
-0.4590708030548108 79:1 81:1 115:1 
-0.2394697869943456 53:1 99:1 142:1 
-0.8803089794762531 84:1 148:1 
-0.9879291188495828 49:1 77:1 150:1 193:1 194:1 
-0.9606568671913511 80:1 115:1 233:1 242:1 
-0.7639790644939592 53:1 194:1 
-1 115:1 233:1 257:1 
-1 53:1 87:1 90:1 116:1 257:1 
-0.2725146647303198 47:1 89:1 90:1 
-1 189:1 221:1 
-1 49:1 53:1 72:1 87:1 98:1 200:1 
-1 23:1 164:1 192:1 201:1 
-1 23:1 53:1 115:1 214:1 
-0.9656622692308238 115:1 215:1 242:1 
-0.5075602877993867 106:1 123:1 189:1 
-1 75:1 87:1 117:1 123:1 189:1 
-1 130:1 201:1 252:1 
-0.8647296443382143 49:1 105:1 
-0.9695207616949 29:1 49:1 53:1 87:1 
-0.7042592876333071 53:1 194:1 221:1 243:1 247:1 
-0.9806168805090527 82:1 158:1 257:1 
-1 116:1 194:1 251:1 
-1 87:1 200:1 233:1 244:1 248:1 
-1 233:1 252:1 
-1 48:1 53:1 58:1 87:1 189:1 194:1 200:1 233:1 251:1 
-1 148:1 185:1 
-1 49:1 70:1 
-0.2057682459298983 250:1 252:1 254:1 
-0.2597504335429908 193:1 251:1 252:1 258:1 
-1 53:1 122:1 193:1 194:1 
-0.9687350444985952 78:1 87:1 90:1 93:1 
-0.6380793420360178 73:1 91:1 245:1 
-0.1900777572171254 76:1 87:1 155:1 
-1 115:1 189:1 194:1 
-0.8972128977525845 49:1 53:1 87:1 153:1 
-1 132:1 138:1 153:1 
-1 248:1 251:1 257:1 
-1 84:1 130:1 194:1 
-0.282646559156991 133:1 144:1 
-1 132:1 194:1 
-0.9620357370776739 148:1 246:1 251:1 255:1 257:1 
-0.9866726192197628 79:1 134:1 252:1 
-0.7206856436486043 76:1 191:1 194:1 200:1 228:1 
-1 49:1 90:1 
-0.2372845754691213 23:1 53:1 78:1 
-0.05433936824701158 44:1 49:1 77:1 194:1 
-0.01800310578803808 122:1 126:1 245:1 
-0.1282183842945879 90:1 150:1 186:1 
-0.9657071617820177 138:1 185:1 
-0.6294733274277077 79:1 111:1 116:1 
-1 58:1 81:1 
-0.947236554762683 73:1 82:1 95:1 
-1 52:1 81:1 201:1 
-0.3924471374525874 84:1 189:1 221:1 252:1 
-1 84:1 200:1 245:1 
-1 73:1 124:1 193:1 
-1 79:1 185:1 251:1 257:1 
-1 24:1 75:1 87:1 225:1 
-0.7450290797790011 81:1 124:1 255:1 
-0.03064964619370077 85:1 111:1 214:1 244:1 252:1 
-0.821943608969618 78:1 218:1 
-0.7309044915017551 49:1 141:1 
-1 59:1 194:1 214:1 
-0.8698387408359572 185:1 194:1 
-0.95967433735635 70:1 115:1 123:1 228:1 
-1 53:1 90:1 116:1 257:1 
-0.254166434975029 58:1 115:1 144:1 245:1 
-0.9677664582159131 44:1 49:1 59:1 63:1 
-0.8738568062963948 87:1 89:1 90:1 251:1 
-0.09350969525268184 29:1 77:1 123:1 
-1 193:1 194:1 221:1 
-1 32:1 152:1 
-0.6976280094899193 49:1 87:1 246:1 251:1 
-0.7724172059488266 55:1 90:1 105:1 124:1 
-0.799517923191581 11:1 155:1 246:1 
-0.7767761879979319 80:1 124:1 138:1 148:1 239:1 244:1 
-0.1469485193702364 252:1 255:1 257:1 
-0.05430894079487798 189:1 200:1 251:1 
-1 81:1 252:1 
-0.4738626843181445 84:1 96:1 193:1 194:1 
-0.09435597477714602 48:1 52:1 200:1 
-1 49:1 53:1 87:1 191:1 
-1 87:1 89:1 90:1 95:1 
-1 48:1 49:1 53:1 87:1 124:1 187:1 
-1 73:1 84:1 90:1 127:1 142:1 
-1 5:1 98:1 116:1 117:1 191:1 
-0.2913130648513343 47:1 80:1 164:1 
-1 49:1 78:1 
-0.973092052688022 53:1 87:1 90:1 192:1 
-0.3922452971637571 193:1 242:1 248:1 
-1 7:1 95:1 
-1 49:1 53:1 87:1 151:1 193:1 
-1 47:1 193:1 245:1 
-1 189:1 192:1 
-0.9012940271427176 115:1 161:1 163:1 
-1 83:1 146:1 
-1 23:1 200:1 221:1 
-1 69:1 233:1 
-0.07425293699785629 148:1 155:1 242:1 251:1 
-0.7393469398204389 123:1 166:1 193:1 200:1 
-1 84:1 257:1 
-1 194:1 200:1 
-1 48:1 75:1 87:1 90:1 193:1 248:1 
-1 194:1 257:1 
-0.7774354171392525 73:1 117:1 192:1 193:1 
-1 75:1 148:1 194:1 
-1 148:1 193:1 
-0.05904560236748624 53:1 200:1 
-0.2795544522740379 43:1 49:1 193:1 195:1 200:1 
-1 19:1 49:1 53:1 76:1 87:1 
-1 49:1 53:1 87:1 200:1 
-0.1227059641773803 81:1 112:1 122:1 235:1 
-0.671684245685966 189:1 221:1 
-0.2822272124956983 19:1 98:1 101:1 
-1 44:1 80:1 130:1 
-1 87:1 115:1 141:1 193:1 
-0.2507679053370687 115:1 193:1 195:1 214:1 
-1 84:1 194:1 
-0.06935225898950126 49:1 87:1 191:1 
-0.02138228003482241 80:1 123:1 164:1 
-0.3058275932275273 79:1 112:1 115:1 233:1 
-0.4457589956348876 115:1 157:1 185:1 221:1 
-0.117155032984177 2:1 49:1 
-0.2312191589627205 26:1 144:1 151:1 
-0.1133183606763775 78:1 83:1 153:1 
-1 47:1 71:1 87:1 116:1 148:1 
-0.5142756112803262 87:1 193:1 244:1 257:1 
-0.679281192567795 24:1 53:1 192:1 195:1 
-0.9708075663853073 3:1 115:1 232:1 233:1 
-0.1016628391228471 53:1 54:1 87:1 257:1 
-1 122:1 248:1 
-1 79:1 115:1 117:1 124:1 
-0.4851618192256513 115:1 257:1 
-0.1888328726931183 48:1 80:1 87:1 228:1 
-1 38:1 49:1 87:1 90:1 
-0.1305673155372682 124:1 187:1 192:1 195:1 
-1 49:1 87:1 90:1 152:1 233:1 
-0.06484605768590818 4:1 115:1 165:1 
-1 49:1 53:1 87:1 191:1 
-0.7730649035762933 80:1 228:1 
-1 248:1 251:1 257:1 
-0.8361971610465635 187:1 194:1 
-1 48:1 153:1 195:1 270:1 
-0.2186699269886623 48:1 87:1 135:1 193:1 200:1 251:1 
-0.970015799940824 91:1 117:1 122:1 
-0.8005725254963726 111:1 189:1 257:1 
-1 24:1 
-1 115:1 122:1 251:1 
-0.442477144179818 53:1 87:1 90:1 193:1 
-0.9090709184507303 73:1 148:1 200:1 
-0.03891447528537737 189:1 255:1 
-0.60435294345381 193:1 194:1 
-0.9371379066426411 47:1 58:1 247:1 
-0.03830466352795041 23:1 87:1 142:1 
-1 81:1 122:1 124:1 235:1 
-0.1329867428146569 81:1 115:1 123:1 242:1 244:1 
-1 76:1 148:1 194:1 214:1 248:1 
-0.3446870310856537 3:1 87:1 149:1 223:1 
-1 123:1 194:1 
-1 23:1 51:1 52:1 
-0.8850033683135163 87:1 132:1 
-1 260:1 
-1 53:1 107:1 
-1 49:1 90:1 
-0.1894776629284041 186:1 191:1 
-0.9014393320521903 95:1 127:1 
-0.3362902285170615 81:1 82:1 162:1 186:1 257:1 
-0.216585243540444 73:1 106:1 111:1 115:1 
-0.288158509520313 220:1 222:1 223:1 
-0.958608927785186 49:1 53:1 84:1 193:1 248:1 
-1 78:1 87:1 194:1 200:1 
-1 115:1 219:1 
-0.3485802929108728 73:1 87:1 193:1 194:1 233:1 
-1 49:1 53:1 76:1 87:1 90:1 
-0.08593485869735719 41:1 83:1 245:1 
-1 82:1 115:1 123:1 194:1 
-0.02525691698285443 41:1 171:1 185:1 
-0.90621786658724 117:1 148:1 
-1 53:1 84:1 87:1 192:1 
-1 90:1 94:1 193:1 194:1 248:1 
-0.5537724416156626 49:1 53:1 87:1 95:1 194:1 
-1 123:1 189:1 245:1 
-1 105:1 219:1 
-1 200:1 233:1 
-1 22:1 189:1 221:1 
-0.5560040723086984 55:1 87:1 193:1 248:1 
-0.07087215941211494 24:1 55:1 87:1 111:1 144:1 193:1 
-1 23:1 80:1 87:1 
-0.03735372771926529 225:1 252:1 257:1 
-0.9597940017164642 53:1 72:1 76:1 87:1 248:1 
-0.2719771102756507 46:1 200:1 
-1 53:1 78:1 
-0.1597613826468269 81:1 200:1 
-0.9351539423140918 115:1 148:1 
-0.9713437049294106 79:1 189:1 
-1 8:1 91:1 124:1 225:1 
-0.9620618105599877 78:1 193:1 194:1 
-0.5162559037471797 2:1 70:1 111:1 
-0.4680964209131179 187:1 189:1 
-1 90:1 112:1 193:1 225:1 251:1 
-1 128:1 
-1 190:1 191:1 193:1 
-0.4289363860614988 157:1 251:1 257:1 
-0.7921696005314874 48:1 53:1 73:1 111:1 141:1 160:1 
-1 115:1 194:1 214:1 
-0.2747477717779144 149:1 194:1 225:1 
-0.6037025120893135 107:1 122:1 194:1 
-1 87:1 90:1 98:1 
-1 53:1 103:1 106:1 
-1 146:1 
-0.4167821094707059 36:1 53:1 87:1 115:1 189:1 242:1 
-1 252:1 257:1 
-1 51:1 87:1 194:1 
-0.6425478224825822 87:1 95:1 98:1 186:1 194:1 
-0.1903130492415221 53:1 192:1 221:1 
-1 73:1 133:1 193:1 
-0.5374663245295843 132:1 214:1 
-1 192:1 257:1 
-0.2208433268675964 115:1 261:1 
-0.09581207600000237 53:1 84:1 87:1 192:1 
-0.9470330489809999 53:1 87:1 193:1 194:1 201:1 224:1 
-0.5179594168800332 49:1 87:1 89:1 97:1 98:1 109:1 193:1 
-0.365588542727896 49:1 53:1 87:1 98:1 193:1 
-0.09762062003988639 54:1 73:1 87:1 194:1 257:1 
-1 84:1 115:1 235:1 
-0.6641782648566588 24:1 44:1 244:1 248:1 
-1 3:1 53:1 81:1 127:1 144:1 194:1 200:1 
-1 21:1 53:1 191:1 
-0.2133558021262956 49:1 53:1 87:1 191:1 
-1 83:1 117:1 122:1 
-0.9203457916393771 115:1 117:1 123:1 
-0.3667893807629028 49:1 53:1 87:1 259:1 
-0.01806777176540742 8:1 113:1 124:1 235:1 
-0.5782333151210916 189:1 257:1 
-0.4029951465950734 53:1 200:1 251:1 
-0.3755979714253739 49:1 77:1 84:1 87:1 186:1 227:1 
-1 7:1 79:1 81:1 115:1 189:1 214:1 
-1 193:1 257:1 
-1 23:1 80:1 194:1 244:1 
-1 193:1 200:1 
-0.909762538460041 79:1 194:1 
-0.3349373447375669 73:1 221:1 
-1 123:1 194:1 221:1 
-1 123:1 124:1 235:1 
-0.301114802470523 115:1 219:1 
-0.9729978194299939 23:1 53:1 
-0.7245820670042036 49:1 214:1 242:1 
-0.1595700270570915 124:1 242:1 
-0.02194668799672259 194:1 233:1 
-0.5956993091311734 90:1 97:1 
-0.1099264914841308 5:1 49:1 
-0.07862606092548916 54:1 77:1 
-0.05798982442407456 14:1 194:1 
-1 193:1 200:1 
-0.0772338662101734 80:1 87:1 108:1 240:1 
-0.931393493101501 75:1 189:1 195:1 232:1 
-0.1056757863954462 46:1 48:1 160:1 
-1 48:1 53:1 87:1 90:1 193:1 248:1 
-0.05949362280150376 117:1 213:1 
-1 48:1 194:1 
-0.03276387503078801 130:1 144:1 
-0.5700513864115264 4:1 81:1 87:1 115:1 257:1 
-1 186:1 193:1 197:1 233:1 
-1 87:1 123:1 193:1 194:1 248:1 
-1 53:1 87:1 95:1 193:1 
-0.6880552192662144 115:1 192:1 
-0.4045167698971255 77:1 87:1 200:1 
-0.5400393279616094 89:1 90:1 
-1 148:1 192:1 194:1 200:1 242:1 244:1 
-1 48:1 49:1 53:1 87:1 122:1 194:1 
-1 148:1 221:1 
-1 84:1 87:1 116:1 164:1 189:1 
-1 192:1 194:1 233:1 
-1 116:1 221:1 
-1 84:1 248:1 
-1 48:1 49:1 87:1 150:1 
-0.289907677556241 161:1 162:1 193:1 214:1 218:1 
-1 123:1 245:1 
-1 123:1 144:1 214:1 251:1 
-1 112:1 123:1 257:1 
-0.6111772724911111 47:1 189:1 197:1 
-1 193:1 225:1 
-0.5179053628939618 73:1 82:1 87:1 241:1 248:1 
-0.5952004582329256 33:1 
-1 194:1 257:1 
-0.3427274708252993 116:1 141:1 193:1 
-0.1742200304276309 49:1 244:1 
-1 78:1 87:1 90:1 115:1 194:1 
-1 87:1 144:1 193:1 251:1 
-1 78:1 138:1 193:1 
-0.7128093265921253 148:1 242:1 
-1 24:1 
-1 83:1 90:1 132:1 189:1 
-0.9572993296178823 193:1 200:1 
-0.3547870832045126 200:1 221:1 
-0.3630922432048492 47:1 53:1 87:1 245:1 
-0.775746254425119 162:1 189:1 250:1 
-0.9187935537283819 117:1 189:1 200:1 245:1 248:1 253:1 257:1 
-1 49:1 87:1 90:1 
-1 23:1 151:1 
-0.8803566880122561 193:1 194:1 200:1 
-0.5598729181066469 158:1 
-0.07929571576375155 58:1 81:1 87:1 191:1 193:1 200:1 
-1 124:1 228:1 
-1 148:1 149:1 
-1 189:1 193:1 197:1 214:1 
-1 7:1 163:1 
-1 144:1 194:1 
-0.0268078960030177 144:1 214:1 257:1 
-0.06860650689849901 116:1 200:1 
-1 48:1 200:1 
-0.385168899363798 228:1 232:1 
-0.5679501830309475 48:1 257:1 
-1 23:1 29:1 
-0.8769721622246914 75:1 192:1 
-0.9026272767420295 48:1 53:1 123:1 
-1 106:1 115:1 193:1 
-0.7425962990395727 193:1 257:1 
-0.9795559925302546 30:1 257:1 
-1 194:1 214:1 
-1 70:1 115:1 130:1 
-1 194:1 200:1 
-1 111:1 270:1 
-1 87:1 189:1 248:1 
-0.05709287753189664 130:1 193:1 
-0.9520936599591697 95:1 115:1 193:1 
-0.05042645209554673 54:1 192:1 
-1 23:1 221:1 
-1 192:1 193:1 
-1 123:1 244:1 
-1 130:1 235:1 
-1 78:1 241:1 
-1 123:1 252:1 
-1 143:1 194:1 
-1 127:1 194:1 221:1 
-1 84:1 193:1 233:1 
-0.5359211631845393 44:1 49:1 193:1 201:1 
-1 90:1 116:1 257:1 
-0.4668388220643186 117:1 122:1 
-1 133:1 193:1 
-0.9518332651810133 158:1 236:1 
-1 49:1 53:1 257:1 
-1 84:1 206:1 
-0.07374885436544715 49:1 132:1 
-1 115:1 130:1 
-0.9229022839106784 123:1 192:1 
-0.08516093664659599 81:1 214:1 
-1 53:1 87:1 127:1 191:1 
-1 194:1 200:1 
-1 52:1 115:1 
-0.02359342035471302 77:1 116:1 117:1 
-0.7144378423181834 197:1 222:1 
-1 98:1 189:1 248:1 257:1 
-0.8019650460173083 23:1 53:1 87:1 116:1 
-0.6717125911488588 24:1 
-1 143:1 194:1 
-0.1858665654849355 83:1 123:1 
-1 47:1 185:1 
-1 117:1 123:1 242:1 
-0.3115009468847653 78:1 107:1 
-1 48:1 193:1 
-0.4092920846681365 5:1 194:1 
-0.2412456835210092 41:1 
-0.7863277020050495 73:1 250:1 
-0.07115415851879595 115:1 117:1 119:1 185:1 193:1 194:1 251:1 
-1 123:1 233:1 
-1 23:1 29:1 87:1 
-0.4718436173856103 48:1 194:1 
-1 23:1 
-0.5378997346101877 214:1 221:1 
-1 48:1 53:1 115:1 
-1 115:1 221:1 
-0.9197074164732468 49:1 53:1 87:1 95:1 
-0.3392848182516749 116:1 189:1 
-0.06271544023889782 48:1 218:1 251:1 252:1 
-1 194:1 221:1 
-1 115:1 148:1 193:1 
-1 23:1 187:1 
-1 80:1 189:1 
-1 84:1 87:1 193:1 257:1 
-1 14:1 36:1 48:1 53:1 87:1 244:1 257:1 
-0.2448264038002367 5:1 115:1 
-1 8:1 49:1 111:1 
-0.04833947151369709 53:1 124:1 192:1 
-0.9598071278682007 80:1 244:1 
-0.04797383438092159 49:1 87:1 106:1 
-0.9423313070373986 23:1 
-0.2316149822408582 220:1 228:1 250:1 251:1 257:1 
-0.1402628751817295 49:1 80:1 193:1 
-0.6486242885183557 87:1 150:1 194:1 200:1 
-0.676507355479268 53:1 69:1 
-0.02678706069808258 49:1 140:1 150:1 193:1 
-1 47:1 123:1 219:1 
-0.3825430705449522 8:1 49:1 78:1 84:1 194:1 
-0.643380619925334 78:1 194:1 206:1 
-1 53:1 257:1 
-0.4688851260600503 55:1 93:1 106:1 144:1 152:1 248:1 251:1 
-0.04270614716828477 4:1 155:1 
-0.7280293952861253 48:1 53:1 87:1 195:1 
-0.4283988754876822 49:1 82:1 84:1 87:1 116:1 
-0.601696998167105 233:1 240:1 
-0.1169674318946573 55:1 87:1 106:1 200:1 
-0.9156114715481402 124:1 193:1 
-1 105:1 194:1 
-0.4238092348587189 7:1 130:1 
-0.0945359940480824 4:1 124:1 148:1 233:1 
-0.5513786154257844 84:1 193:1 
-1 53:1 87:1 95:1 
-0.2098395033777646 221:1 233:1 
-1 115:1 252:1 
-0.6977032753263607 151:1 155:1 
-0.1887843622688368 49:1 87:1 248:1 
-1 201:1 251:1 252:1 255:1 259:1 
-1 193:1 248:1 251:1 253:1 
-1 218:1 221:1 
-1 117:1 257:1 
-1 255:1 
-1 53:1 58:1 
-0.5573337821700208 194:1 200:1 
-0.1081696297865355 90:1 193:1 244:1 
-0.8869306036955759 38:1 
-0.9372942066717879 189:1 233:1 
-0.552850809735249 117:1 123:1 248:1 
-1 248:1 257:1 
-0.0836404767620625 73:1 162:1 252:1 
-0.3921675623054921 115:1 116:1 124:1 155:1 
-1 53:1 54:1 87:1 90:1 95:1 151:1 
-0.08322252482486224 144:1 148:1 235:1 240:1 
-0.8684160885979281 127:1 144:1 251:1 
-0.8766892811572157 87:1 117:1 194:1 
-0.04277350208935012 49:1 232:1 
-1 117:1 123:1 
-0.8882470654303481 115:1 144:1 
-0.6639935830912174 133:1 
-1 48:1 214:1 
-1 200:1 248:1 257:1 
-0.07277423015334678 26:1 84:1 148:1 194:1 228:1 
-1 70:1 251:1 257:1 
-0.02912510353816224 69:1 248:1 
-0.6016161996840172 189:1 200:1 
-1 87:1 162:1 
-1 84:1 146:1 193:1 200:1 245:1 
-1 225:1 251:1 261:1 
-0.005895429428217525 117:1 193:1 
-1 81:1 123:1 200:1 
-0.8371015377256815 49:1 75:1 80:1 87:1 
-1 257:1 259:1 
-0.1536495920973861 189:1 204:1 
-0.2517509313819118 59:1 106:1 160:1 
-0.2255325689696752 226:1 242:1 
-0.7287856069428029 52:1 142:1 
-0.1172149270096735 79:1 81:1 115:1 245:1 
-1 51:1 257:1 
-1 144:1 257:1 
-0.2640460908859574 48:1 90:1 257:1 
-0.3786322009148661 83:1 257:1 
-1 81:1 206:1 
-1 218:1 257:1 261:1 
-0.5699053748520106 115:1 228:1 
-1 33:1 
-1 107:1 132:1 
-0.6576221741118986 80:1 116:1 261:1 
-0.9809049680968478 91:1 122:1 200:1 
-1 164:1 
-0.7291695224670416 244:1 254:1 258:1 
-0.9522470945227712 252:1 257:1 
-0.5291377956177333 76:1 
-0.190390227570903 194:1 200:1 257:1 
-1 83:1 254:1 
-0.1879682254439896 53:1 59:1 87:1 192:1 
-0.4666725330072604 70:1 
-1 70:1 
-1 123:1 189:1 
-1 23:1 233:1 
-1 87:1 90:1 115:1 193:1 200:1 
-1 53:1 257:1 
-0.1953797687632413 69:1 73:1 
-1 115:1 241:1 
-0.09893306344663369 115:1 130:1 138:1 200:1 
-0.8935043210483204 123:1 221:1 
-0.0403252178453932 7:1 194:1 225:1 
-0.4529234618031491 123:1 127:1 
-1 48:1 53:1 257:1 
-1 49:1 87:1 257:1 
-0.9004821052732663 143:1 
-0.07012215867483222 160:1 189:1 201:1 245:1 248:1 
-1 87:1 123:1 191:1 
-0.2794831657641325 123:1 124:1 
-1 117:1 123:1 
-0.4773044659146877 192:1 257:1 
-0.05854575179741616 90:1 130:1 194:1 
-0.6712730657515034 7:1 84:1 112:1 115:1 193:1 214:1 
-0.577772500399419 162:1 
-1 143:1 200:1 
-0.4910893219417358 200:1 233:1 
-1 48:1 148:1 165:1 
-0.3203861850344652 87:1 155:1 228:1 
-0.1163767520161549 198:1 201:1 
-0.03415816297865333 251:1 257:1 
-1 248:1 252:1 257:1 
-1 84:1 233:1 
-0.426124381730479 49:1 53:1 87:1 90:1 
-0.9021392655681321 78:1 117:1 
-1 151:1 
-1 24:1 
-1 244:1 252:1 
-1 49:1 192:1 193:1 
-0.001080655857111035 194:1 218:1 
-0.298398977680158 109:1 
-1 95:1 187:1 
-1 193:1 221:1 
-1 150:1 
-0.5503517130435361 73:1 200:1 
-1 49:1 53:1 87:1 116:1 186:1 194:1 
-1 193:1 257:1 
-0.1286929907842612 73:1 123:1 
-1 5:1 
-0.1269847491506246 106:1 
-1 193:1 194:1 
-1 164:1 
-1 87:1 95:1 
-0.04997216046610049 59:1 97:1 
-0.9630254304404061 200:1 206:1 
-1 84:1 221:1 
-0.8282984454526796 241:1 251:1 257:1 
-0.5795042799962671 49:1 87:1 89:1 90:1 
-0.8901021487721037 47:1 115:1 
-1 33:1 87:1 98:1 146:1 193:1 
-1 193:1 194:1 
-0.5901211537302503 21:1 
-1 206:1 
-0.8031466490377247 202:1 
-0.4413738057231222 78:1 193:1 
-1 251:1 257:1 
-1 84:1 132:1 200:1 
-1 248:1 257:1 
-1 197:1 200:1 
-1 84:1 148:1 
-1 49:1 53:1 87:1 90:1 
-0.700191308171014 116:1 117:1 
-0.6071493399267588 189:1 194:1 
-1 193:1 233:1 
-1 194:1 221:1 
-1 189:1 194:1 
-0.8391208202598809 270:1 
-1 193:1 201:1 
-0.2855621576818166 214:1 
-1 123:1 194:1 
-1 189:1 194:1 
-0.4548153747415308 71:1 72:1 
-0.6355240367994208 149:1 
-1 149:1 
-1 38:1 
-0.5497091729317733 51:1 
-1 29:1 32:1 
-0.3704693269306894 71:1 200:1 
-0.3186185010006557 78:1 194:1 
-1 193:1 221:1 
-0.255747404789293 185:1 
-1 107:1 
-1 185:1 
-1 87:1 200:1 257:1 
-0.08401296172001185 78:1 115:1 
-0.06273768849326357 7:1 58:1 84:1 194:1 
-0.745563753453637 201:1 
-1 59:1 117:1 127:1 193:1 251:1 257:1 
-1 250:1 251:1 257:1 
-1 73:1 84:1 192:1 194:1 220:1 248:1 
-1 123:1 189:1 
-1 185:1 
-0.1145769691757964 4:1 87:1 157:1 200:1 248:1 
-1 248:1 251:1 257:1 
-0.9653077066782356 218:1 252:1 
-1 193:1 200:1 
-1 123:1 233:1 
-0.02038214723121001 116:1 186:1 194:1 
-0.9672435447375988 53:1 193:1 195:1 241:1 
-1 259:1 
-1 115:1 117:1 123:1 
-0.2406752683890185 81:1 87:1 115:1 117:1 193:1 251:1 257:1 
-1 148:1 149:1 152:1 245:1 
-0.3441459033293585 54:1 191:1 251:1 
-1 251:1 257:1 
-1 87:1 90:1 98:1 
-0.5327836796311529 4:1 193:1 240:1 
-1 48:1 49:1 193:1 
-1 38:1 164:1 
-1 248:1 257:1 
-1 49:1 194:1 240:1 
-1 53:1 189:1 
-1 49:1 257:1 
-0.9356108344229557 4:1 82:1 185:1 248:1 
-0.1562588582630688 194:1 233:1 257:1 
-0.6340080979891798 221:1 
-1 185:1 
-1 221:1 
-0.9390160266791641 47:1 
-1 81:1 122:1 
-1 251:1 257:1 
-1 185:1 
-0.0003198316034202092 225:1 
-0.9629564373033928 52:1 59:1 111:1 116:1 152:1 223:1 
-1 214:1 
-1 185:1 
-1 214:1 
-1 185:1 
-1 221:1 
-1 221:1 
-1 191:1 194:1 
-1 185:1 
-1 185:1 
