svm_type c_svc
kernel_type rbf
gamma 0.025641
nr_class 2
total_sv 1435
rho -0.953453
label 0 1
nr_sv 810 625
SV
0.04656193677911047 1:109 24:1 28:21 
0.04691097479216999 18:99 34:1 35:1 
0.04666026851030852 3:3 18:52 35:2 
0.04697684956506415 8:2 31:2 32:41 
0.1383569533093277 5:3 8:1 14:5 20:2 26:2 28:24 31:2 35:1 
0.4664995896421161 6:1 20:1 28:30 
0.02084927140253029 8:19 22:1 28:9 
0.0949035571260342 8:13 20:6 28:10 
0.04844025811080927 18:26 35:2 
0.03916900616309919 6:7 8:14 19:5 20:1 
0.04634092340266014 8:1 20:26 
0.0447012593187915 6:3 7:2 14:5 25:17 
0.0588770792791065 6:1 12:1 15:24 34:1 
0.02297653739761515 6:2 8:1 11:19 19:1 37:1 39:2 
0.04645390387538813 1:25 7:1 
0.02581676921851018 3:1 4:6 6:2 14:7 16:1 19:3 32:1 33:4 
0.1538848598980437 6:3 7:1 18:20 35:1 
0.04622140953087936 24:24 
0.04398302256383696 6:5 8:2 14:2 28:13 35:2 
0.03100799034791775 1:1 6:16 11:1 14:4 19:1 
0.04176150591170025 8:1 14:15 16:4 18:1 30:1 35:1 
0.5953737958111827 8:2 28:21 
0.01090075080170475 11:18 30:2 37:1 
0.01077900050646448 11:19 37:1 
0.08907293059834656 3:1 8:11 28:6 36:1 
0.1981937096225143 6:3 8:7 14:2 20:6 28:1 
0.03223320118686149 3:1 16:4 19:1 20:2 24:4 29:6 
0.01200902159968733 6:4 11:13 37:1 
0.01082942532241753 6:1 11:13 22:3 37:1 
0.01450936477541234 6:4 8:1 11:1 18:7 19:2 29:1 31:2 
0.01959715721653648 3:5 6:4 20:8 34:1 
0.02987363036934199 3:8 11:8 37:1 
0.0460004300644074 8:1 18:13 30:1 36:2 
0.02115208282655529 6:1 11:8 20:7 34:1 
0.03826422932355781 1:11 24:6 
0.02740601785781985 6:5 7:1 18:2 25:8 34:1 
0.07393885593351114 4:5 6:1 8:2 12:1 21:6 31:1 
0.020885367123469 14:1 19:8 20:5 34:1 
0.03344648773899818 5:7 6:8 
0.006756667644262544 3:1 6:9 8:1 15:1 19:2 20:1 
0.3623859460040177 3:3 7:1 8:1 28:9 33:1 
0.04023723798514901 18:13 35:2 
0.01275893097605165 3:2 4:4 5:1 19:1 20:1 29:5 
0.0009397247714012471 8:1 9:1 20:12 
0.04089982528707769 4:14 
0.004875184670592531 6:9 11:4 37:1 
0.7086971897630763 6:4 8:2 20:2 28:6 
0.02739717271691436 20:12 33:2 
0.01459136108427498 2:4 3:1 6:7 9:2 
0.01985367752750914 3:2 8:7 14:1 20:2 35:1 
0.003088837000249106 5:3 6:1 14:8 20:1 
0.0007834559384217206 6:12 37:1 
0.03918800541016684 29:13 
0.5578244112169268 28:13 
0.01140171261077703 6:4 14:9 
0.01405384291266015 5:1 9:7 11:1 20:3 
0.01291541894314912 24:12 
0.03982530438433766 7:12 
0.01024838877752666 6:1 16:1 19:6 31:4 
0.01263620759533194 8:3 9:7 11:1 37:1 
0.09998169820332688 3:2 7:3 14:2 15:3 19:2 
0.08444492106857243 6:11 
0.1273759722148974 11:3 21:8 
0.02585303869060507 7:1 9:8 35:1 36:1 
0.002285401242822312 3:6 8:4 34:1 
0.06683019872209819 6:1 8:1 12:6 15:3 
0.009366822156060063 11:1 16:8 19:1 34:1 
0.3722050878747625 6:8 8:3 
0.04388504709957427 8:8 35:3 
0.02808704960174864 19:11 
0.02493209497546106 25:4 31:7 
0.04655081531552185 21:6 35:5 
0.0289723052497796 8:3 11:7 37:1 
0.03153049155727826 6:1 7:2 8:1 13:6 
0.01326232573813175 1:7 20:2 24:1 
0.01518794821429123 6:1 20:3 25:6 
0.001352850923478709 11:9 19:1 
0.2921101236035228 3:1 8:9 
0.07334611240162421 8:3 18:2 20:3 28:1 
0.3550469140280664 4:1 6:5 24:3 
0.01774614668334222 6:1 7:1 9:2 26:4 34:1 
0.001905484127817708 9:1 18:5 26:2 34:1 
0.0146650085826506 3:1 33:2 35:6 
0.1991568309622152 6:9 
0.03604497417488354 14:2 15:2 35:5 
0.04539963379997186 3:1 7:2 8:6 
0.03007673520809334 8:3 24:6 
0.07721601960251308 16:4 24:4 28:1 
0.003337265637108903 6:3 29:3 34:2 
0.04048387551416822 3:1 14:1 18:1 20:1 26:4 
0.003323291383598978 8:2 33:6 
0.1972039803334873 24:8 
0.007052148456385162 3:2 12:4 24:1 35:1 
0.06245988071433937 14:4 31:4 
0.006968777577295665 14:2 18:1 22:3 35:2 
0.01967272050870019 4:5 8:2 
0.04314814642293588 1:2 6:5 
0.002345885620217406 8:5 16:2 
0.00712989188318825 22:2 24:5 
0.02209450793589412 1:4 3:1 19:2 
0.2887465405817854 11:7 
0.1734267273456352 24:7 
0.01350390972906254 5:1 24:6 
0.05010694064602954 8:4 14:2 27:1 
0.01564705685226276 3:1 9:2 34:4 
0.9513534022509423 6:6 24:1 
0.469208729355369 6:1 8:4 19:1 
0.0007500330319048316 18:4 35:2 
0.2042840020108522 14:3 20:3 
0.0249503841746188 8:1 14:3 31:1 34:1 
0.1782020789625286 14:1 20:1 21:4 
0.01113794334299653 6:1 19:1 34:3 35:1 
0.007458260231263757 7:5 34:1 
0.05988612930594967 22:1 24:5 
0.05480207771371177 6:2 7:1 33:3 
0.1366214071002003 8:6 
0.1997628463873012 11:6 
0.01301367101438677 6:4 8:1 19:1 
0.07885027669316667 14:2 15:2 19:2 
0.5380479519944831 20:2 21:4 
0.008329113971016412 24:5 35:1 
0.4195514621892696 8:2 22:4 
0.4879895957332741 3:1 6:1 8:3 19:1 
0.0150776245836245 29:5 36:1 
0.01429632342574617 11:5 36:1 
0.4214537973435368 4:1 5:1 6:1 9:1 11:1 
0.394797059384057 8:4 28:1 
0.2430973137003437 5:1 6:2 7:1 11:1 
0.3242275849723952 8:2 15:2 33:1 
0.0268388917523245 6:1 14:2 31:2 
0.03093104832494525 6:1 19:2 33:2 
0.6841718205035092 11:5 
0.4593563502814685 16:2 24:3 
0.4241787672741666 6:3 8:1 20:1 
0.5646888264743447 6:1 24:4 
0.4363900947701747 8:3 19:1 20:1 
0.04583249584999891 8:1 11:3 14:1 
0.2054786392724803 24:5 
0.02093554885454184 2:3 8:2 
0.4881695603544856 11:1 20:1 27:2 
0.07691366792834597 6:2 19:2 
0.2120568124769343 6:2 8:1 19:1 
0.117820575792485 1:2 6:1 8:1 
0.02520348362364266 10:2 19:1 20:1 
0.01533296090598488 24:1 33:3 
0.01346530563086876 8:1 29:3 
0.7868584088594825 8:2 11:1 35:1 
0.2216180127235767 11:3 34:1 
1 5:4 
0.1493601333284447 8:3 19:1 
0.7855011356565131 6:2 24:2 
0.1856637700453126 11:4 
0.1961170870344725 8:1 19:1 20:1 
0.4697245502402344 14:2 20:1 
0.06223532724720384 8:1 19:1 28:1 
0.07143856115522405 1:1 6:2 
0.06391115452826047 6:2 21:1 
1 8:2 22:1 
0.04150829709044478 22:2 34:1 
1 8:2 21:1 
1 8:2 22:1 
0.02826434656880588 18:3 
1 6:1 15:2 
0.002488382135232406 22:1 24:2 
0.903320252268463 3:2 24:1 
0.009768843014142749 19:2 20:1 
0.4782539202053432 6:1 19:2 
0.2056834522620768 3:1 24:1 34:1 
0.1617329873511267 6:2 33:1 
0.714951382507979 21:3 
0.8226668466129095 8:2 35:1 
0.5478395038039799 8:1 11:2 
0.9597984767336732 14:2 36:1 
0.05750481447363427 3:1 5:1 19:1 
0.2743015355120226 14:1 20:2 
0.00143644678970849 9:3 
0.3964630915317389 5:3 
0.05379526242602641 33:3 
0.03327802944358111 31:3 
0.3569133312831854 19:1 24:1 36:1 
0.9860260174559066 8:1 24:2 
0.001107305304332161 14:1 30:1 
0.2575838642153984 14:1 20:1 
0.8017422100678517 14:1 34:1 
0.2535912380757801 34:2 
0.00924432819474626 8:1 31:1 
0.5360294095386831 19:1 22:1 
1 5:1 11:1 
0.01275148594746415 6:1 33:1 
0.6618811720240936 4:1 8:1 
0.5189334126308219 19:2 
0.6006533891924586 22:1 24:1 
0.7254609152733367 19:1 28:1 
0.1364751487521197 8:1 35:1 
0.8218682290577775 8:1 21:1 
0.2805585490610481 11:1 34:1 
1 8:1 35:1 
0.01531739009075794 8:1 20:1 
0.01058948844595185 11:1 35:1 
0.04496920401034937 1:1 6:1 
0.2615499146774393 8:1 19:1 
0.1813988800135943 8:1 14:1 
1 3:1 19:1 
0.009005744142646996 19:1 37:1 
1 8:1 20:1 
0.8021181965563319 8:1 24:1 
1 8:1 19:1 
1 14:1 34:1 
0.1265341913491855 6:1 19:1 
1 8:1 14:1 
1 8:1 24:1 
0.01260006017012729 6:1 8:1 
0.7204536702098554 6:1 22:1 
1 8:1 11:1 
0.8391226338221375 8:1 19:1 
0.00886756472888673 8:1 36:1 
0.98183017563523 24:1 35:1 
0.02821162244417803 32:1 
1 39:1 
1 39:1 
1 39:1 
1 1:1 
0.1437349725463378 26:1 
1 29:1 
1 34:1 
1 34:1 
1 34:1 
1 34:1 
1 34:1 
1 34:1 
1 34:1 
1 1:1 
1 34:1 
1 34:1 
1 34:1 
1 18:1 
1 34:1 
1 34:1 
1 34:1 
1 34:1 
1 34:1 
1 34:1 
1 34:1 
1 34:1 
1 28:1 
1 34:1 
1 1:1 
1 34:1 
1 28:1 
1 34:1 
1 34:1 
0.7330606107334374 26:1 
1 34:1 
1 28:1 
1 34:1 
1 39:1 
1 34:1 
1 34:1 
1 34:1 
1 34:1 
0.7098336104646507 36:1 
1 1:1 
1 28:1 
1 34:1 
1 28:1 
1 34:1 
1 36:1 
1 36:1 
1 28:1 
1 36:1 
1 18:1 
1 34:1 
1 34:1 
1 28:1 
1 34:1 
1 28:1 
1 1:1 
1 7:1 
1 34:1 
1 18:1 
0.02265075806554652 30:1 
1 34:1 
1 34:1 
1 28:1 
1 35:1 
1 34:1 
1 34:1 
1 35:1 
1 35:1 
1 34:1 
1 34:1 
1 34:1 
1 35:1 
1 39:1 
1 35:1 
1 36:1 
1 34:1 
1 7:1 
1 35:1 
1 34:1 
1 35:1 
1 7:1 
1 35:1 
0.1498929925854157 15:1 
1 28:1 
1 35:1 
1 28:1 
1 36:1 
1 34:1 
1 28:1 
1 35:1 
1 35:1 
1 35:1 
1 34:1 
1 28:1 
1 36:1 
1 28:1 
1 34:1 
1 35:1 
1 33:1 
1 20:1 
1 35:1 
1 35:1 
0.006740699640501183 37:1 
1 35:1 
1 34:1 
1 15:1 
1 3:1 
1 18:1 
1 5:1 
1 28:1 
1 20:1 
1 34:1 
1 34:1 
0.8793544480926253 29:1 
0.6505968417766061 31:1 
1 34:1 
1 28:1 
0.9912772976661122 19:1 
1 19:1 
0.7966221757758234 18:1 
1 34:1 
1 19:1 
1 35:1 
1 34:1 
1 20:1 
1 37:1 
1 37:1 
1 19:1 
1 28:1 
1 35:1 
1 3:1 
1 28:1 
1 34:1 
1 28:1 
1 19:1 
1 35:1 
1 34:1 
1 7:1 
1 4:1 
1 11:1 
1 5:1 
1 34:1 
1 35:1 
0.1289274059491877 14:1 
1 28:1 
1 37:1 
1 36:1 
1 36:1 
1 37:1 
1 35:1 
1 34:1 
1 19:1 
1 4:1 
1 19:1 
1 33:1 
1 14:1 
1 14:1 
1 37:1 
1 3:1 
1 1:1 
1 11:1 
1 4:1 
1 11:1 
1 35:1 
1 11:1 
1 36:1 
1 37:1 
1 19:1 
0.7670804262108004 22:1 
1 19:1 
1 14:1 
1 35:1 
1 37:1 
1 11:1 
1 4:1 
1 19:1 
1 34:1 
1 35:1 
1 35:1 
1 14:1 
1 35:1 
1 3:1 
1 19:1 
1 19:1 
1 4:1 
1 36:1 
1 19:1 
1 14:1 
0.5231927636850932 1:1 
1 20:1 
1 28:1 
1 19:1 
1 11:1 
1 28:1 
0.2017626448178887 38:1 
1 36:1 
1 35:1 
1 19:1 
1 20:1 
1 3:1 
1 35:1 
1 37:1 
1 14:1 
1 14:1 
0.7913646767809568 28:1 
1 34:1 
1 34:1 
0.533836988925118 16:1 
1 36:1 
1 19:1 
1 36:1 
1 20:1 
1 19:1 
1 34:1 
1 14:1 
1 34:1 
1 4:1 
1 11:1 
1 14:1 
0.8604758141136786 12:1 
1 34:1 
1 37:1 
1 34:1 
1 3:1 
1 36:1 
0.2697207015273794 5:1 
1 20:1 
1 35:1 
1 4:1 
1 37:1 
1 37:1 
1 37:1 
1 19:1 
1 34:1 
1 7:1 
1 35:1 
1 14:1 
1 19:1 
1 3:1 
1 35:1 
1 35:1 
1 35:1 
1 14:1 
1 14:1 
1 34:1 
0.6664076316491137 15:1 
1 34:1 
1 14:1 
1 4:1 
1 4:1 
1 19:1 
1 11:1 
0.4898590649931637 7:1 
1 14:1 
1 19:1 
1 19:1 
1 36:1 
0.4543422028458849 6:1 
1 37:1 
1 35:1 
1 33:1 
1 4:1 
1 6:1 
1 34:1 
1 20:1 
1 6:1 
1 6:1 
0.969666809032746 20:1 
1 6:1 
0.8824941853274697 11:1 
0.9400541288950236 3:1 
1 6:1 
1 19:1 
0.1361576435749557 8:1 
1 6:1 
1 34:1 
1 6:1 
0.9227171809626047 34:1 
1 6:1 
1 6:1 
1 8:1 
0.8338200483230643 33:1 
1 35:1 
1 6:1 
1 6:1 
1 8:1 
1 8:1 
1 36:1 
1 8:1 
1 6:1 
1 35:1 
1 6:1 
1 6:1 
1 6:1 
1 8:1 
1 8:1 
1 6:1 
0.9407963069225403 4:1 
1 6:1 
1 35:1 
1 8:1 
1 8:1 
1 8:1 
1 6:1 
1 6:1 
1 35:1 
1 35:1 
1 6:1 
1 8:1 
1 8:1 
1 8:1 
1 8:1 
1 8:1 
0.9764763827661859 35:1 
0.0410265176945499 24:1 
1 8:1 
1 6:1 
1 8:1 
0.9941994865374046 6:1 
1 6:1 
1 6:1 
1 6:1 
1 6:1 
1 6:1 
1 11:1 
1 6:1 
0.7353925880893476 4:1 
1 8:1 
1 20:1 
0.2747668668268243 24:1 
1 24:1 
1 24:1 
1 20:1 
1 8:1 
1 8:1 
1 8:1 
1 31:1 
1 36:1 
1 11:1 
1 8:1 
1 8:1 
1 6:1 
0.9358512297723819 9:1 
1 14:1 
1 24:1 
1 8:1 
1 24:1 
1 8:1 
1 11:1 
1 24:1 
1 35:1 
1 6:1 
1 8:1 
1 14:1 
1 24:1 
1 8:1 
1 34:1 
1 8:1 
1 6:1 
1 14:1 
1 33:1 
1 24:1 
1 8:1 
1 35:1 
1 8:1 
1 24:1 
1 8:1 
1 8:1 
1 8:1 
1 34:1 
1 35:1 
1 8:1 
1 8:1 
1 8:1 
1 8:1 
1 6:1 
1 35:1 
1 24:1 
1 6:1 
1 34:1 
1 37:1 
1 8:1 
1 34:1 
1 37:1 
1 24:1 
1 14:1 
1 6:1 
1 24:1 
1 8:1 
1 6:1 
1 14:1 
1 24:1 
1 6:1 
1 8:1 
1 24:1 
1 35:1 
1 20:1 
1 24:1 
1 31:1 
1 6:1 
1 35:1 
1 24:1 
0.9476730015129369 34:1 
0.1886414843087976 11:1 
1 14:1 
1 24:1 
1 6:1 
1 19:1 
1 6:1 
1 6:1 
0.2157237987544826 28:1 
1 6:1 
1 6:1 
1 6:1 
1 6:1 
1 14:1 
1 6:1 
1 14:1 
0.3123861644634199 33:1 
1 8:1 
1 6:1 
0.8268163481496233 38:1 
1 8:1 
1 8:1 
1 8:1 
1 8:1 
1 6:1 
1 6:1 
1 20:1 
1 14:1 
1 8:1 
1 6:1 
0.9682723965739525 20:1 
0.5708806209922896 9:1 
1 8:1 
1 6:1 
0.2089346941350431 
1 
1 
1 
1 
0.9695262258193031 
0.738557001645912 
1 
1 
1 
1 
1 
1 
1 
1 
1 
1 
1 
1 
1 
1 
1 
1 
1 
1 
1 
1 
1 
1 
1 
1 
1 
1 
1 
1 
1 
1 
1 
1 
1 
1 
1 
1 
1 
1 
1 
1 
1 
1 
1 
1 
1 
1 
1 
1 
1 
1 
1 
1 
1 
1 
1 
1 
1 
1 
1 
1 
1 
1 
1 
1 
1 
1 
1 
1 
1 
1 
1 
1 
1 
1 
1 
1 
1 
1 
1 
1 
1 
1 
1 
1 
1 
1 
1 
1 
1 
1 
1 
1 
1 
1 
1 
1 
1 
1 
1 
1 
1 
1 
1 
1 
1 
1 
1 
1 
1 
1 
1 
1 
1 
1 
1 
1 
1 
1 
1 
1 
1 
1 
1 
1 
1 
1 
1 
1 
1 
1 
1 
1 
1 
1 
1 
1 
1 
1 
1 
1 
1 
1 
1 
1 
1 
1 
-1 12:8 18:19 34:1 
-1 28:25 
-1 6:4 8:5 20:4 28:7 
-1 3:3 28:13 
-1 15:11 36:1 
-1 3:1 8:7 19:1 22:3 
-1 5:6 11:4 
-1 6:8 8:1 
-1 6:5 24:3 
-1 3:1 16:1 24:6 
-1 8:1 20:1 21:5 
-1 11:6 
-1 6:2 8:2 19:1 20:1 
-1 14:2 20:2 
-1 8:3 35:1 
-1 6:1 22:1 24:1 
-1 8:3 
-1 3:1 19:2 
-1 6:3 
-1 8:1 11:2 
-1 14:2 36:1 
-1 8:1 11:1 35:1 
-1 8:1 19:1 28:1 
-1 14:1 22:1 34:1 
-1 8:2 14:1 
-1 1:1 6:1 33:1 
-1 8:1 24:2 
-1 6:1 8:1 21:1 
-1 15:2 
-1 8:1 20:1 
-1 8:2 
-1 8:2 
-1 8:1 19:1 
-1 8:1 11:1 
-1 11:1 34:1 
-1 8:1 35:1 
-1 6:1 24:1 
-1 24:1 35:1 
-1 4:1 8:1 
-1 24:2 
-1 14:1 34:1 
-1 8:1 19:1 
-1 8:1 24:1 
-1 6:1 19:1 
-1 24:1 36:1 
-1 34:1 39:1 
-1 14:1 31:1 
-1 8:1 24:1 
-1 20:1 
-1 37:1 
-1 11:1 
-1 3:1 
-1 34:1 
-1 6:1 
-1 35:1 
-1 8:1 
-1 8:1 
-1 14:1 
-1 34:1 
-1 14:1 
-1 7:1 
-1 6:1 
-1 35:1 
-1 34:1 
-1 6:1 
-1 24:1 
-1 28:1 
-1 36:1 
-1 4:1 
-1 35:1 
-1 9:1 
-1 6:1 
-1 6:1 
-1 8:1 
-1 35:1 
-1 14:1 
-1 11:1 
-1 20:1 
-1 22:1 
-1 6:1 
-1 35:1 
-1 35:1 
-1 34:1 
-1 28:1 
-1 4:1 
-1 34:1 
-1 34:1 
-1 5:1 
-1 35:1 
-1 33:1 
-1 4:1 
-1 6:1 
-1 34:1 
-1 18:1 
-1 36:1 
-1 35:1 
-1 6:1 
-1 6:1 
-1 36:1 
-1 37:1 
-1 39:1 
-1 38:1 
-1 7:1 
-1 19:1 
-1 4:1 
-1 11:1 
-1 33:1 
-1 35:1 
-1 34:1 
-1 18:1 
-1 34:1 
-1 34:1 
-1 20:1 
-1 24:1 
-1 8:1 
-1 9:1 
-1 14:1 
-1 24:1 
-1 8:1 
-1 8:1 
-1 8:1 
-1 24:1 
-1 34:1 
-1 35:1 
-1 6:1 
-1 6:1 
-1 34:1 
-1 20:1 
-1 14:1 
-1 34:1 
-1 6:1 
-1 6:1 
-1 6:1 
-1 36:1 
-1 34:1 
-1 6:1 
-1 6:1 
-1 35:1 
-1 34:1 
-1 35:1 
-1 5:1 
-1 8:1 
-1 20:1 
-1 34:1 
-1 1:1 
-1 37:1 
-1 20:1 
-1 11:1 
-1 34:1 
-1 8:1 
-1 33:1 
-1 24:1 
-1 14:1 
-1 6:1 
-1 3:1 
-1 6:1 
-1 28:1 
-1 28:1 
-1 19:1 
-1 31:1 
-1 28:1 
-1 6:1 
-1 8:1 
-1 3:1 
-1 34:1 
-1 26:1 
-1 8:1 
-1 19:1 
-1 34:1 
-1 14:1 
-1 24:1 
-1 36:1 
-1 35:1 
-1 8:1 
-1 37:1 
-1 35:1 
-1 36:1 
-1 35:1 
-1 34:1 
-1 8:1 
-1 34:1 
-1 14:1 
-1 12:1 
-1 27:1 
-1 35:1 
-1 5:1 
-1 19:1 
-1 4:1 
-1 14:1 
-1 29:1 
-1 33:1 
-1 11:1 
-1 11:1 
-1 34:1 
-1 28:1 
-1 14:1 
-1 19:1 
-1 6:1 
-1 34:1 
-1 37:1 
-1 36:1 
-1 20:1 
-1 35:1 
-1 19:1 
-1 6:1 
-1 7:1 
-1 36:1 
-1 3:1 
-1 8:1 
-1 7:1 
-1 5:1 
-1 8:1 
-1 34:1 
-1 6:1 
-1 19:1 
-1 35:1 
-1 8:1 
-1 28:1 
-1 34:1 
-1 21:1 
-1 19:1 
-1 34:1 
-1 37:1 
-1 28:1 
-1 24:1 
-1 22:1 
-1 34:1 
-1 19:1 
-1 15:1 
-1 36:1 
-1 35:1 
-1 6:1 
-1 34:1 
-1 35:1 
-1 36:1 
-1 8:1 
-1 8:1 
-1 6:1 
-1 39:1 
-1 8:1 
-1 34:1 
-1 34:1 
-1 36:1 
-1 36:1 
-1 35:1 
-1 8:1 
-1 18:1 
-1 28:1 
-1 35:1 
-1 5:1 
-1 21:1 
-1 34:1 
-1 35:1 
-1 37:1 
-1 34:1 
-1 19:1 
-1 8:1 
-1 34:1 
-1 29:1 
-1 34:1 
-1 6:1 
-1 4:1 
-1 4:1 
-1 14:1 
-1 28:1 
-1 8:1 
-1 19:1 
-1 19:1 
-1 19:1 
-1 34:1 
-1 31:1 
-1 6:1 
-1 11:1 
-1 6:1 
-1 28:1 
-1 37:1 
-1 35:1 
-1 19:1 
-1 6:1 
-1 16:1 
-1 34:1 
-1 8:1 
-1 34:1 
-1 34:1 
-1 34:1 
-1 34:1 
-1 14:1 
-1 19:1 
-1 11:1 
-1 34:1 
-1 6:1 
-1 6:1 
-1 20:1 
-1 6:1 
-1 19:1 
-1 6:1 
-1 35:1 
-1 6:1 
-1 34:1 
-1 34:1 
-1 8:1 
-1 34:1 
-1 34:1 
-1 8:1 
-1 3:1 
-1 37:1 
-1 34:1 
-1 14:1 
-1 8:1 
-1 24:1 
-1 35:1 
-1 8:1 
-1 8:1 
-1 24:1 
-1 4:1 
-1 36:1 
-1 8:1 
-1 35:1 
-1 34:1 
-1 34:1 
-1 20:1 
-1 18:1 
-1 28:1 
-1 1:1 
-1 3:1 
-1 1:1 
-1 6:1 
-1 4:1 
-1 35:1 
-1 8:1 
-1 28:1 
-1 19:1 
-1 24:1 
-1 19:1 
-1 6:1 
-1 6:1 
-1 11:1 
-1 37:1 
-1 8:1 
-1 8:1 
-1 8:1 
-1 20:1 
-1 34:1 
-1 14:1 
-1 8:1 
-1 37:1 
-1 6:1 
-1 35:1 
-1 15:1 
-1 1:1 
-1 6:1 
-1 24:1 
-1 20:1 
-1 34:1 
-1 8:1 
-1 8:1 
-1 3:1 
-1 14:1 
-1 3:1 
-1 34:1 
-1 28:1 
-1 28:1 
-1 34:1 
-1 37:1 
-1 6:1 
-1 39:1 
-1 8:1 
-1 8:1 
-1 8:1 
-1 28:1 
-1 28:1 
-1 11:1 
-1 34:1 
-1 33:1 
-1 11:1 
-1 24:1 
-1 19:1 
-1 35:1 
-1 37:1 
-1 1:1 
-1 28:1 
-1 35:1 
-1 11:1 
-1 34:1 
-1 3:1 
-1 36:1 
-1 35:1 
-1 6:1 
-1 34:1 
-1 19:1 
-1 35:1 
-1 34:1 
-1 37:1 
-1 35:1 
-1 35:1 
-1 20:1 
-1 35:1 
-1 28:1 
-1 35:1 
-1 22:1 
-1 6:1 
-1 35:1 
-1 6:1 
-1 14:1 
-1 35:1 
-1 28:1 
-1 1:1 
-1 20:1 
-1 34:1 
-1 36:1 
-1 8:1 
-1 19:1 
-1 35:1 
-1 8:1 
-1 35:1 
-1 34:1 
-1 14:1 
-1 14:1 
-1 6:1 
-1 4:1 
-1 34:1 
-1 14:1 
-1 35:1 
-1 14:1 
-1 35:1 
-1 14:1 
-1 34:1 
-1 14:1 
-1 35:1 
-1 34:1 
-1 14:1 
-1 7:1 
-1 34:1 
-1 19:1 
-1 6:1 
-1 28:1 
-1 34:1 
-1 8:1 
-1 3:1 
-1 28:1 
-1 34:1 
-1 35:1 
-1 37:1 
-1 4:1 
-1 6:1 
-1 34:1 
-1 19:1 
-1 5:1 
-1 35:1 
-1 34:1 
-1 7:1 
-1 8:1 
-1 8:1 
-1 36:1 
-1 24:1 
-1 24:1 
-1 34:1 
-1 6:1 
-1 11:1 
-1 6:1 
-1 34:1 
-1 18:1 
-1 34:1 
-1 6:1 
-1 34:1 
-1 20:1 
-1 24:1 
-1 6:1 
-1 24:1 
-1 39:1 
-1 28:1 
-1 19:1 
-1 34:1 
-1 8:1 
-1 4:1 
-1 34:1 
-1 20:1 
-1 28:1 
-1 8:1 
-1 19:1 
-1 19:1 
-1 34:1 
-1 6:1 
-1 8:1 
-1 36:1 
-1 
-1 
-1 
-1 
-1 
-1 
-1 
-1 
-1 
-1 
-1 
-1 
-1 
-1 
-1 
-1 
-1 
-1 
-1 
-1 
-1 
-1 
-1 
-1 
-1 
-1 
-1 
-1 
-1 
-1 
-1 
-1 
-1 
-1 
-1 
-1 
-1 
-1 
-1 
-1 
-1 
-1 
-1 
-1 
-1 
-1 
-1 
-1 
-1 
-1 
-1 
-1 
-1 
-1 
-1 
-1 
-1 
-1 
-1 
-1 
-1 
-1 
-1 
-1 
-1 
-1 
-1 
-1 
-1 
-1 
-1 
-1 
-1 
-1 
-1 
-1 
-1 
-1 
-1 
-1 
-1 
-1 
-1 
-1 
-1 
-1 
-1 
-1 
-1 
-1 
-1 
-1 
-1 
-1 
-1 
-1 
-1 
-1 
-1 
-1 
-1 
-1 
-1 
-1 
-1 
-1 
-1 
-1 
-1 
-1 
-1 
-1 
-1 
-1 
-1 
-1 
-1 
-1 
-1 
-1 
-1 
-1 
-1 
-1 
-1 
-1 
-1 
-1 
-1 
-1 
-1 
-1 
-1 
-1 
-1 
-1 
-1 
-1 
-1 
-1 
