svm_type c_svc
kernel_type rbf
gamma 0.025641
nr_class 2
total_sv 2519
rho -0.104973
label 1 0
nr_sv 1132 1387
SV
0.8446742403407003 3:2 6:4 8:8 15:156 36:1 
0.8443298671600443 15:151 
0.8950849303969467 5:2 6:15 16:3 19:9 28:3 30:53 
0.8953493415824652 8:7 11:5 18:10 19:1 25:6 28:29 33:11 35:5 36:1 
0.8949875548963004 15:23 16:50 
0.9022102156951193 4:5 9:7 11:5 14:5 18:2 19:8 30:40 
0.9663416042310974 9:1 12:10 15:55 34:1 
0.8951195834259283 6:1 18:56 19:1 21:1 30:1 34:2 35:1 
0.6749784069516065 1:1 8:4 28:56 33:1 
0.8942340974984165 3:1 6:4 8:3 9:19 11:2 15:5 16:3 18:2 19:5 22:3 29:6 31:1 34:3 35:2 
0.8992805985429083 3:4 4:9 5:2 7:4 8:18 11:1 19:9 28:10 
0.8947296871467968 1:49 6:1 8:1 33:2 
0.8910823047475397 8:3 14:2 22:1 28:34 29:13 
1 28:52 
0.894019815546801 1:1 4:1 5:7 15:21 19:4 20:1 29:2 33:13 
1 3:4 8:2 18:2 29:2 30:40 
0.6586443789581067 4:3 14:4 16:1 20:34 31:2 33:3 
0.8924204836054055 1:20 4:1 8:3 14:3 15:1 16:2 19:14 28:2 
0.8939591074910394 1:17 4:3 5:2 8:22 
0.8949021628535508 3:16 6:2 7:1 8:6 16:15 19:1 20:1 29:1 34:1 
0.7936388180162419 3:3 8:7 28:34 
1 8:3 20:3 22:3 28:34 
0.9251879729810547 1:9 4:1 7:2 11:2 12:1 14:4 16:1 28:18 31:3 33:1 
1 9:1 14:4 15:27 19:2 20:2 34:3 35:1 
0.826238071461681 3:3 4:1 8:1 11:5 14:2 16:1 19:1 20:14 28:7 31:3 
0.9336508677673577 3:4 6:14 8:7 14:5 18:1 22:5 31:1 
0.883477388889921 3:12 4:1 14:8 16:1 18:1 19:8 29:3 33:1 34:1 
0.902412190697484 8:29 20:2 22:5 
0.8922232783070978 3:8 6:3 14:21 19:2 22:2 
0.3412397509552549 1:31 19:1 24:4 
0.6575579529166947 11:1 20:34 
0.9796680794141762 3:2 6:1 8:9 14:2 16:3 18:3 20:2 22:2 28:2 30:8 34:1 
0.9705046202526724 3:5 5:1 7:4 8:5 9:3 16:2 19:5 20:5 30:5 
0.933867648525727 6:12 14:1 18:14 33:7 36:1 
1 1:1 3:1 8:1 18:21 20:2 33:5 34:2 35:1 
0.8434505369823988 11:5 14:16 18:3 19:3 28:7 
0.8808154731225797 1:28 6:3 8:1 18:1 22:1 
0.919759689199252 3:3 5:3 7:7 10:1 11:2 14:5 16:4 19:1 31:2 33:2 35:4 
1 8:8 11:22 14:1 35:1 37:1 
0.5091251047669448 6:6 14:5 19:3 20:18 
0.4648828429648073 1:29 19:1 24:2 
1 5:5 6:2 19:3 20:2 28:19 
1 6:9 8:2 18:12 19:1 20:2 29:4 35:1 
0.95213554135665 6:3 8:8 16:6 28:13 36:1 
1 3:1 6:17 8:6 12:1 14:1 19:3 34:1 
1 6:2 11:4 28:24 
0.8759783013334361 3:4 4:2 6:5 14:4 16:2 19:2 22:4 33:7 
1 3:4 6:3 8:4 9:6 22:7 30:5 
1 3:4 8:1 14:11 16:4 19:3 20:2 25:2 28:2 
1 22:7 24:5 28:17 
0.8889108078913081 5:2 7:2 12:1 14:5 16:1 18:12 19:1 33:5 
1 6:8 11:2 20:2 22:4 28:5 29:4 31:4 
1 3:18 4:1 7:1 11:1 22:3 29:3 35:1 
0.9536928494811073 4:4 5:3 7:2 11:1 12:5 14:7 19:1 20:1 22:1 29:3 
1 2:1 6:1 8:5 16:1 19:13 25:5 33:2 
1 8:26 25:1 35:1 
1 3:4 4:2 6:7 8:1 9:2 12:3 16:1 18:1 19:1 29:4 33:1 
0.8468259023190553 2:5 7:3 8:5 15:4 18:2 19:4 20:2 33:2 
0.3593921648618855 3:4 5:3 19:2 20:17 31:1 
0.531329534946988 3:2 4:7 5:1 6:2 14:1 18:4 19:3 22:2 29:3 33:1 34:1 
1 11:11 20:5 21:1 28:9 
1 3:1 6:13 19:1 28:10 36:1 
0.6895950446445103 14:3 16:2 19:4 20:5 25:1 31:10 34:1 
1 4:1 6:9 15:1 18:3 19:1 20:10 32:1 
0.7416578475294231 16:20 19:2 24:1 28:3 
1 3:1 5:1 6:2 8:11 14:4 16:7 
1 3:2 5:3 6:7 7:2 14:2 19:1 20:5 33:3 34:1 
1 2:2 4:3 5:2 7:1 8:10 11:1 19:4 20:1 31:2 
1 2:3 6:6 7:4 20:13 
1 8:4 11:1 18:21 
0.9508085464395023 3:1 7:11 8:2 11:1 14:1 16:3 20:7 
1 4:2 8:1 12:4 18:14 19:1 20:2 35:2 
1 4:5 8:11 16:3 20:1 22:2 33:3 
1 4:3 6:17 19:1 20:3 22:1 
1 4:14 12:4 14:2 18:5 
1 28:21 33:4 
1 2:12 4:1 11:1 14:6 29:4 
1 1:1 8:18 16:1 19:1 20:3 
1 3:2 4:1 12:2 16:13 19:1 20:1 22:1 28:2 34:1 
1 10:7 19:8 22:3 30:1 31:2 33:3 
0.2244990194248752 1:16 19:3 24:4 
1 3:4 4:1 8:1 16:1 19:4 20:1 22:1 26:10 
1 3:1 4:1 9:2 11:1 14:3 18:2 19:1 22:4 30:2 31:6 
0.7185070373090022 8:4 11:6 28:12 35:1 
1 3:6 4:5 6:1 7:1 8:1 14:1 19:3 22:1 29:2 32:1 36:1 
1 3:3 6:14 7:1 15:2 19:2 36:1 
1 3:1 8:1 14:1 16:7 25:11 31:1 
1 4:4 6:8 7:4 8:2 19:4 
1 3:2 4:1 14:1 16:1 18:2 20:13 34:2 
1 6:5 7:1 8:3 19:1 22:6 25:4 34:2 
1 1:9 4:2 8:1 11:1 14:1 16:7 19:1 
1 7:1 8:2 14:3 16:12 19:2 22:2 
1 3:2 14:4 19:16 
1 3:6 4:1 19:10 29:5 
1 5:5 8:6 18:10 30:1 
1 24:1 25:20 28:1 
0.2686636893753718 14:12 19:7 20:3 
0.6567988353522431 6:1 8:11 19:1 20:9 
1 7:8 8:2 12:2 14:3 18:5 31:1 35:1 
1 3:2 4:1 6:5 8:1 9:7 19:3 25:1 29:1 34:1 
1 1:1 3:2 6:3 8:3 9:3 33:10 
0.9084309700215691 3:7 4:10 5:2 8:2 19:1 
0.7367182769973404 1:13 6:1 7:1 19:2 20:4 22:1 
1 6:9 8:4 19:1 28:2 31:3 35:2 36:1 
0.9943628203454752 7:4 8:2 11:4 14:1 19:1 28:10 
1 1:1 8:6 19:1 22:6 33:8 
1 6:3 8:13 16:3 20:2 
1 4:1 6:1 8:1 12:3 16:1 18:3 20:1 29:3 33:7 
0.5558504839820514 1:17 6:3 8:1 
0.5020716979733466 4:6 5:2 11:1 14:7 19:5 
1 3:10 6:1 7:1 8:3 14:2 18:3 33:1 
1 3:2 7:4 9:1 16:1 19:1 28:3 29:3 33:3 35:3 
1 20:2 28:13 31:3 33:2 35:1 
1 3:4 8:2 14:4 20:9 34:1 35:1 
1 8:7 19:1 20:4 25:4 29:5 
1 3:2 14:5 19:12 29:1 35:1 
1 7:1 11:2 14:16 18:1 
1 2:1 3:3 7:2 11:3 14:1 18:4 19:5 34:1 
1 28:20 
1 4:1 6:1 7:1 8:8 19:1 22:6 29:2 
1 6:5 8:9 20:6 
1 3:1 8:1 20:17 34:1 
1 4:2 8:9 12:1 18:1 19:2 20:5 
1 5:11 11:7 28:2 
1 3:5 4:1 7:1 8:1 14:6 19:1 20:3 33:1 36:1 
1 14:7 19:1 20:2 22:2 32:3 33:5 
1 2:3 3:2 4:1 6:1 8:1 19:4 20:3 22:1 25:2 33:1 34:1 
0.8251408336491811 3:5 14:2 15:2 16:1 18:3 19:1 22:1 29:1 33:4 
1 6:1 18:17 29:2 
1 4:2 14:4 20:14 
1 3:1 6:4 7:2 19:1 28:12 
1 6:1 28:18 
1 1:2 8:16 14:1 
0.9415986140178173 8:2 19:2 22:2 31:12 34:1 
0.9936451756955752 7:1 14:8 18:9 33:1 
1 3:1 4:2 8:10 14:1 19:2 20:2 24:1 
1 8:10 28:7 35:2 
1 6:3 8:7 11:1 19:1 22:6 34:1 
1 7:3 8:2 12:2 14:2 19:1 20:6 33:3 
1 4:2 8:1 14:1 28:14 33:1 
1 3:2 6:2 14:7 19:6 34:1 35:1 
1 6:5 7:2 18:5 19:2 28:5 
1 4:2 7:4 14:8 19:1 20:4 
1 6:1 8:13 19:5 
1 3:2 6:4 7:1 9:1 18:4 19:2 29:4 
1 6:1 8:3 19:10 20:4 
1 14:2 16:7 19:1 22:7 34:1 
1 3:1 4:1 6:4 8:2 9:3 19:6 26:1 
0.8625822399787045 3:6 8:1 15:4 19:3 32:3 34:1 
1 19:1 20:17 
1 1:6 4:3 6:2 8:2 19:1 20:3 26:1 
1 3:7 8:6 21:4 34:1 
1 1:12 4:1 6:2 33:3 
1 3:5 6:1 14:6 20:4 34:2 
1 8:9 20:6 33:1 34:2 
1 3:4 6:2 8:3 11:9 
1 3:3 4:3 8:1 14:2 19:2 22:1 31:4 33:1 34:1 
1 28:17 
1 2:4 8:5 14:6 19:1 30:1 
1 1:12 8:1 16:1 24:3 
1 3:1 4:6 8:2 26:5 29:3 
1 11:16 37:1 
1 3:10 7:1 15:3 29:2 34:1 
1 3:2 7:1 9:2 14:4 16:3 19:1 22:2 33:2 
1 4:1 6:5 8:1 19:1 22:1 28:8 
1 1:17 
1 3:2 7:1 8:3 9:1 16:2 18:7 19:1 
1 14:4 19:1 20:7 28:4 30:1 
1 8:7 11:2 28:8 
1 9:1 14:3 19:2 20:3 31:6 34:1 36:1 
1 3:5 6:4 19:1 20:7 
1 4:1 6:11 12:1 19:1 33:3 
1 6:3 7:1 8:3 15:1 31:8 35:1 
1 6:9 8:3 18:1 19:1 22:2 35:1 
1 5:1 14:9 19:6 20:1 
1 6:8 8:3 14:2 16:2 19:1 30:1 
1 6:7 13:9 37:1 
1 3:2 8:1 19:3 31:11 
1 3:2 5:3 6:1 8:1 16:3 19:1 20:3 29:2 34:1 
1 14:1 28:15 35:1 
1 3:1 5:2 6:5 16:1 19:3 22:5 
1 8:1 15:1 21:2 28:12 
1 2:1 6:1 8:2 14:5 16:1 18:1 20:1 29:3 36:1 
1 3:2 4:2 8:3 10:1 19:1 20:3 33:4 
1 28:16 
1 4:7 6:2 18:2 19:1 20:3 35:1 
1 1:1 16:2 20:5 24:6 29:2 
1 6:4 8:1 19:7 20:4 
1 3:1 4:6 14:3 20:3 34:1 35:1 36:1 
1 3:4 14:5 19:3 20:2 33:2 
1 5:1 8:1 14:3 18:8 29:2 34:1 
1 6:1 14:3 28:12 
1 2:5 7:1 8:1 12:1 14:2 19:5 28:1 
1 3:4 8:2 18:7 19:1 33:2 
1 3:1 8:4 14:2 15:1 20:2 31:3 33:1 35:2 
1 7:4 9:1 14:4 19:1 22:3 28:3 
1 15:16 
1 4:2 14:1 16:3 19:3 20:4 22:3 
1 3:1 6:1 8:6 9:1 19:4 20:2 29:1 
1 4:1 6:5 7:1 14:4 19:3 20:2 
1 6:3 14:4 19:6 28:3 
1 9:1 11:11 14:2 34:1 
1 3:3 4:8 6:4 
1 9:2 14:5 15:2 16:1 19:1 22:3 29:1 
1 6:9 35:4 36:2 
1 8:1 16:8 22:1 28:4 34:1 
1 6:4 8:5 16:1 25:2 28:3 
1 3:1 8:11 19:2 20:1 
1 1:6 3:1 9:4 14:3 16:1 
1 8:1 11:1 12:3 19:1 20:4 21:5 
1 3:8 8:4 16:1 34:1 35:1 
1 3:4 8:3 11:1 19:7 
1 4:4 5:1 14:3 19:7 
1 3:5 4:1 6:3 9:3 11:1 33:2 
1 3:2 6:6 14:2 19:1 31:2 35:2 
1 6:12 12:2 20:1 
1 6:4 14:3 29:1 32:5 34:2 
1 6:6 20:3 21:6 
1 5:1 11:2 14:4 15:2 22:4 29:1 34:1 
1 3:5 14:4 15:1 19:4 31:1 
1 3:2 4:5 6:3 8:3 19:1 35:1 
1 3:1 5:4 14:3 19:6 30:1 
1 4:1 5:1 6:1 7:1 11:1 14:6 16:2 20:1 22:1 
1 6:3 8:6 16:6 
1 8:3 14:11 31:1 
1 2:12 4:1 6:1 26:1 
1 1:3 7:1 8:2 14:7 20:1 31:1 
1 1:3 4:3 5:1 8:4 9:1 11:1 19:1 33:1 
1 14:4 20:11 
1 6:1 8:2 28:12 
1 1:1 6:1 8:10 28:3 
1 6:8 16:1 20:4 34:1 
1 3:4 4:1 6:2 18:2 19:2 29:1 31:2 
1 6:2 16:2 19:8 20:2 
1 3:1 8:7 16:4 19:2 
1 8:14 
1 6:13 8:1 
1 7:2 14:4 19:7 33:1 
1 3:6 8:1 14:2 15:3 19:2 
1 4:7 7:5 29:2 
1 8:3 16:7 19:1 28:3 
1 6:3 7:6 14:1 18:1 22:2 35:1 
1 3:7 6:3 8:1 19:1 34:1 36:1 
1 6:1 19:13 
1 5:4 6:1 7:5 14:2 34:1 35:1 
1 14:5 28:9 
1 6:2 9:2 20:4 31:6 
1 3:2 4:1 5:1 6:1 8:1 11:1 15:1 18:3 19:2 20:1 
1 6:3 8:5 14:3 28:3 
1 3:1 4:6 14:1 20:3 31:3 
1 6:1 8:2 18:5 25:6 
1 5:1 8:3 16:7 18:1 19:1 20:1 
1 6:7 8:2 9:1 11:2 19:2 
1 4:2 11:1 12:1 14:7 18:2 35:1 
1 3:1 14:4 19:1 20:7 35:1 
1 3:2 4:3 6:1 8:4 11:1 16:2 22:1 
1 8:4 19:1 28:9 
1 5:7 8:2 12:3 18:1 36:1 
1 4:4 5:2 7:1 8:5 19:2 
1 8:8 28:5 35:1 
1 6:4 8:3 11:2 28:5 
1 8:6 11:2 14:1 20:5 
1 14:2 21:5 28:7 
1 21:1 24:12 38:1 
1 14:5 16:3 28:5 34:1 
1 6:1 8:1 11:7 14:3 16:1 20:1 
1 6:1 8:3 28:10 
1 6:3 31:10 35:1 
1 14:3 19:3 20:4 22:1 33:3 
1 3:3 6:7 29:2 34:1 36:1 
1 6:2 8:3 19:7 20:2 
1 5:1 8:2 14:9 19:1 31:1 
1 3:1 4:3 6:1 8:1 16:2 19:5 28:1 
1 6:3 8:9 35:1 
1 6:2 8:9 16:1 28:1 
1 3:1 6:8 8:3 18:1 
1 6:6 16:1 19:2 20:1 28:3 
1 4:5 6:2 7:1 8:1 14:3 19:1 
1 3:3 14:6 18:1 35:3 
1 1:7 6:6 
1 8:13 
1 3:1 6:1 29:10 34:1 
1 11:5 20:5 31:3 
1 8:11 11:2 
1 14:1 20:10 28:1 34:1 
1 4:1 8:8 31:4 
1 11:2 28:10 37:1 
1 6:9 7:2 19:1 35:1 
1 6:1 7:3 8:3 9:1 28:5 
1 3:4 4:1 6:2 7:1 14:3 34:2 
1 4:2 6:8 19:3 
1 8:1 16:4 20:7 34:1 
1 3:1 6:4 11:1 15:1 20:5 30:1 
1 8:2 18:3 19:8 
1 4:7 14:6 
1 8:1 19:5 20:3 28:4 
1 6:6 15:5 23:2 
1 8:12 34:1 
1 7:1 8:1 20:9 25:2 
1 3:1 6:6 28:6 
1 28:12 
1 6:2 22:10 
1 8:5 19:7 
1 8:3 11:3 19:1 20:2 31:2 33:1 
1 3:2 5:2 6:1 7:1 8:2 15:1 35:3 
1 6:1 14:2 15:1 20:4 33:4 
1 7:1 11:1 14:3 19:2 20:4 35:1 
1 3:5 8:1 14:1 15:1 28:3 33:1 
1 6:6 16:5 19:1 
1 5:3 6:1 14:5 15:1 19:1 33:1 
1 3:3 4:1 11:2 14:3 20:2 22:1 
1 6:5 8:3 14:1 19:1 20:1 34:1 
1 3:4 8:8 
1 6:2 7:1 8:2 19:2 28:5 
1 1:1 6:2 14:5 19:1 28:3 
1 4:3 6:6 31:3 
1 8:2 11:2 18:5 19:3 
1 3:1 4:1 6:2 11:1 19:1 22:1 29:3 31:2 
1 4:1 5:4 8:3 19:2 29:1 35:1 
1 6:2 14:6 28:4 
1 4:6 6:1 19:4 22:1 
1 4:3 14:6 18:1 33:1 35:1 
1 3:4 5:2 8:2 19:3 33:1 
1 3:1 6:9 35:2 
1 2:1 6:2 30:1 33:7 34:1 
1 7:1 8:6 9:3 19:1 34:1 
1 5:1 8:1 28:10 
1 6:3 11:1 19:2 31:6 
1 4:3 8:5 14:3 35:1 
1 7:5 8:1 14:1 22:5 
1 3:6 19:6 
1 8:3 18:3 29:5 34:1 
1 4:4 20:7 22:1 
1 8:1 14:5 19:1 20:4 34:1 
1 3:2 5:1 8:4 11:1 20:4 
1 9:3 11:5 20:1 21:2 31:1 
1 8:6 20:3 28:1 33:2 
1 8:2 9:4 28:5 34:1 
1 3:4 6:2 8:4 19:2 
1 8:2 28:10 
1 6:3 8:5 19:4 
1 6:7 8:1 28:4 
1 3:3 6:6 16:3 
1 8:2 11:9 37:1 
1 3:1 6:11 
1 14:3 19:1 20:2 28:2 31:2 34:1 
1 8:2 18:1 19:7 22:1 
1 3:2 8:2 15:4 18:2 19:1 
1 6:9 28:2 
1 3:3 4:5 19:3 
1 6:8 18:1 19:1 20:1 
1 6:4 8:7 
1 3:1 4:1 7:1 14:1 22:2 33:4 34:1 
1 6:1 8:4 16:1 20:2 25:2 34:1 
1 1:1 8:5 9:2 18:1 34:2 
1 4:8 11:3 
1 3:1 8:3 16:5 19:1 33:1 
1 6:3 9:2 19:6 
1 6:3 14:1 16:6 19:1 
1 4:6 8:3 19:1 20:1 
1 4:1 6:1 7:2 9:1 18:2 20:4 
1 6:3 8:2 20:6 
1 3:1 8:2 16:4 20:4 
1 11:2 16:2 19:2 33:5 
1 6:10 31:1 
1 7:3 8:2 15:2 33:4 
1 3:4 14:2 20:4 30:1 
1 3:1 8:3 18:1 27:2 33:4 
1 4:3 8:4 11:3 16:1 
1 6:1 18:10 
1 4:1 5:2 8:2 11:1 19:5 
1 2:1 8:4 16:2 20:3 34:1 
1 3:5 6:4 19:1 36:1 
1 5:9 6:1 22:1 
1 6:6 8:5 
1 5:4 8:3 18:4 
1 1:7 8:2 11:2 
1 4:3 19:1 20:2 26:3 31:1 34:1 
1 1:2 6:3 16:1 19:2 20:1 21:1 22:1 
1 20:7 28:1 33:2 34:1 
1 6:5 16:3 24:2 35:1 
1 6:7 20:2 33:2 
1 11:10 
1 6:1 9:4 18:1 26:3 34:1 
1 4:1 14:1 22:1 28:6 33:1 
1 28:10 
1 8:4 19:2 20:2 33:2 
1 6:4 16:6 
1 8:2 20:1 28:7 
1 5:2 8:1 11:2 18:3 19:1 22:1 
1 3:3 8:2 16:2 19:3 
1 3:3 6:2 17:1 18:2 19:1 30:1 
1 6:2 8:3 18:4 30:1 
1 24:9 38:1 
1 7:1 8:6 9:1 19:2 
1 2:1 6:1 20:6 25:1 33:1 
1 4:3 14:3 16:3 19:1 
1 6:10 
1 7:2 8:2 16:5 35:1 
1 3:1 6:2 14:7 
1 4:3 8:3 12:1 18:2 19:1 
1 16:5 19:1 24:4 
1 4:2 7:1 8:1 14:3 15:3 
1 4:2 14:5 18:3 
1 14:4 16:6 
1 6:2 11:1 15:2 20:4 33:1 
1 6:1 8:2 11:2 19:1 28:4 
1 6:3 16:2 19:1 24:4 
1 3:2 8:1 15:1 18:1 19:3 29:2 
1 6:4 19:1 28:5 
1 3:3 6:2 8:2 16:1 35:2 
1 3:1 6:5 7:1 8:1 20:1 33:1 
1 3:1 11:1 14:5 20:2 22:1 
1 6:2 28:8 
1 6:2 8:6 19:1 27:1 
1 6:1 7:1 11:7 19:1 
1 3:1 6:2 8:5 29:1 36:1 
1 4:2 11:1 19:7 
1 8:3 9:5 22:2 
1 4:1 6:3 7:1 14:1 19:3 20:1 
1 3:1 18:8 20:1 
1 3:7 6:2 8:1 
1 14:7 19:2 
1 1:2 4:2 6:1 7:1 20:3 
1 7:1 8:2 18:2 28:3 35:1 
1 8:4 11:5 
1 24:8 38:1 
1 11:1 14:1 19:3 28:4 
1 8:2 21:2 25:1 28:4 
1 6:3 8:5 9:1 
1 8:4 14:5 
1 6:1 8:5 16:2 19:1 
1 1:5 3:3 8:1 
1 7:1 8:1 11:5 16:1 28:1 
1 6:3 16:1 20:2 24:3 
1 3:2 6:3 7:1 8:1 22:2 
1 8:7 19:1 22:1 
1 15:8 35:1 
1 8:7 18:1 28:1 
1 4:1 6:3 8:5 
1 4:1 6:7 36:1 
1 6:3 8:1 28:5 
1 8:3 11:4 14:1 30:1 
1 6:5 8:1 28:2 34:1 
1 7:1 8:5 14:2 36:1 
1 6:3 11:1 20:2 21:3 
1 4:2 9:1 11:1 14:2 20:3 
1 7:1 11:1 14:1 23:1 28:3 30:2 
1 6:4 7:2 29:2 30:1 
1 14:1 16:2 19:3 20:1 22:1 25:1 
1 3:3 6:4 19:1 20:1 
1 3:1 6:1 15:2 19:1 20:2 29:2 
1 3:2 10:4 14:1 16:1 19:1 
1 5:2 28:6 35:1 
1 3:2 11:3 14:3 32:1 
1 8:3 28:6 
1 7:2 8:4 33:2 35:1 
1 3:3 10:1 19:4 33:1 
1 6:2 8:6 19:1 
1 4:5 8:2 19:2 
1 11:1 19:4 28:4 
1 20:9 
1 11:1 14:4 18:1 30:2 
1 6:2 8:1 33:2 34:1 35:2 
1 7:1 14:4 19:3 
1 3:2 6:4 19:2 
1 4:1 6:6 8:1 
1 5:1 6:3 16:1 19:1 21:2 
1 15:1 24:5 28:2 
1 8:5 31:3 
1 4:1 8:3 9:2 11:1 19:1 
1 5:2 28:6 
1 4:2 8:1 18:3 19:1 34:1 
1 3:1 4:1 11:5 19:1 
1 6:1 28:7 
1 8:1 19:1 28:6 
1 24:8 
1 3:2 8:6 
1 8:4 9:1 29:3 
1 4:3 6:1 19:4 
1 6:2 20:4 22:1 27:1 
1 3:4 6:3 34:1 
1 4:3 14:2 19:2 22:1 
1 6:4 7:3 20:1 
1 4:1 22:2 24:5 
1 19:1 24:2 28:5 
1 6:2 8:1 9:1 18:2 21:2 
1 28:8 
1 14:3 20:1 28:4 
1 8:1 28:6 35:1 
1 4:2 8:1 14:1 20:2 28:2 
1 6:5 15:3 
1 5:2 14:2 18:3 19:1 
1 8:8 
1 28:8 
1 8:1 20:6 34:1 
1 6:6 11:1 34:1 
1 4:1 6:1 8:1 11:4 19:1 
1 1:2 6:1 19:2 24:3 
1 6:3 8:1 16:1 22:2 33:1 
1 3:1 14:6 36:1 
1 7:1 8:6 9:1 
1 25:4 31:4 
1 35:7 36:1 
1 8:2 14:1 19:4 33:1 
1 6:1 8:2 26:4 28:1 
1 8:5 20:3 
1 11:6 19:2 
1 8:2 11:1 14:4 19:1 
1 7:2 8:1 28:5 
1 6:5 11:2 21:1 
1 6:4 8:3 35:1 
1 6:2 7:1 8:2 20:3 
1 4:2 18:5 34:1 
1 3:1 6:4 9:1 19:1 36:1 
1 8:7 20:1 
1 6:6 20:1 24:1 
1 8:3 19:3 27:1 33:1 
1 6:7 8:1 
1 6:3 8:1 20:3 35:1 
1 4:2 8:4 14:1 22:1 
1 6:1 14:6 
1 3:1 4:2 6:1 8:2 35:1 
1 3:1 8:3 14:1 35:2 
1 18:6 35:1 
1 2:1 4:2 11:1 14:2 19:1 
1 28:7 
1 5:1 11:1 15:4 36:1 
1 3:4 8:2 34:1 
1 11:1 20:1 28:5 
1 4:2 6:1 19:1 20:1 31:2 
1 19:1 22:5 24:1 
1 6:1 8:5 19:1 
1 3:1 10:5 34:1 
1 8:5 34:1 35:1 
1 3:4 4:1 20:1 34:1 
1 6:1 8:1 11:4 19:1 
1 6:2 14:1 28:2 31:2 
1 8:4 19:3 
1 3:1 7:1 14:3 22:2 
1 4:1 10:1 14:4 15:1 
1 6:1 8:2 28:4 
1 8:1 11:1 14:4 28:1 
1 8:3 19:1 28:3 
1 6:3 11:1 19:1 20:2 
1 6:3 11:1 20:3 
1 6:2 11:3 14:2 
1 3:4 16:3 
1 4:1 5:1 14:1 19:4 
1 4:3 6:2 19:1 34:1 
1 3:3 6:1 19:1 22:1 33:1 
1 3:3 6:2 35:2 
1 6:1 8:4 28:1 36:1 
1 4:2 8:3 11:1 19:1 
1 6:1 8:2 21:1 31:3 
1 16:6 34:1 
1 4:3 14:3 19:1 
1 6:3 8:1 19:1 33:2 
1 6:1 28:6 
1 3:1 8:5 34:1 
1 14:2 28:5 
1 1:2 8:2 20:3 
1 8:4 14:1 15:1 36:1 
1 6:5 8:1 20:1 
1 3:1 8:5 19:1 
1 6:5 8:1 19:1 
1 4:1 6:3 19:1 20:2 
1 4:1 7:2 8:2 14:2 
1 14:6 19:1 
1 6:3 8:4 
1 11:7 
1 3:2 6:2 7:1 8:1 19:1 
1 8:7 
1 5:2 8:4 24:1 
1 8:5 14:2 
1 7:1 8:4 35:1 36:1 
1 4:2 7:2 14:1 15:1 19:1 
1 8:1 11:3 28:1 33:1 34:1 
1 11:3 18:3 34:1 
1 3:1 6:4 19:1 20:1 
1 3:5 4:1 8:1 
1 3:1 4:1 6:1 14:4 
1 3:1 4:1 5:1 8:1 31:2 35:1 
1 4:2 11:1 14:2 19:1 20:1 
1 6:5 8:2 
1 6:2 8:4 28:1 
1 1:2 8:1 11:1 28:3 
1 3:5 6:1 33:1 
1 5:2 6:1 15:1 19:2 34:1 
1 6:3 19:1 22:3 
1 4:1 11:1 28:4 
1 8:2 14:3 19:1 
1 4:1 8:4 11:1 
1 14:3 19:1 31:2 
1 4:1 6:1 33:3 34:1 
1 6:1 8:1 10:2 18:1 20:1 
1 6:6 
1 14:5 29:1 
1 4:1 8:3 11:1 22:1 
1 8:5 29:1 
1 24:5 35:1 
1 6:2 7:3 18:1 
1 4:1 14:1 19:1 33:2 34:1 
1 8:4 11:1 14:1 
1 14:2 28:4 
1 21:4 31:2 
1 8:6 
1 8:3 28:3 
1 6:1 10:1 28:4 
1 6:3 8:1 14:2 
1 7:2 9:1 14:1 19:1 34:1 
1 8:5 16:1 
1 4:1 6:1 20:4 
1 6:2 14:4 
1 6:1 19:3 30:1 33:1 
1 28:6 
1 29:5 34:1 
1 8:4 16:1 33:1 
1 8:4 34:1 35:1 
1 3:2 8:3 14:1 
1 4:4 6:1 33:1 
1 1:5 8:1 
1 3:3 8:1 21:2 
1 6:6 
1 11:6 
1 3:1 6:5 
1 3:3 6:2 19:1 
1 4:1 8:2 16:1 18:1 19:1 
1 6:4 11:1 16:1 
1 19:5 30:1 
1 8:3 9:1 28:2 
1 6:1 14:3 33:2 
1 6:2 7:1 28:3 
1 5:4 19:2 
1 1:2 8:1 28:3 
1 6:1 26:3 35:2 
1 6:1 20:4 33:1 
1 6:3 14:1 34:1 35:1 
1 6:4 8:1 35:1 
1 3:3 6:1 8:1 20:1 
1 7:1 8:2 19:1 31:1 34:1 
1 28:6 
1 6:3 8:1 11:2 
1 4:1 7:1 14:1 19:3 
1 6:4 16:1 34:1 
1 6:2 8:4 
1 3:1 8:3 16:1 36:1 
1 4:1 18:5 
1 4:4 19:2 
1 8:5 11:1 
1 14:2 22:4 
1 4:4 11:2 
1 3:2 6:4 
1 14:1 18:4 
1 6:1 8:1 31:3 
1 2:2 8:1 16:1 19:1 
1 8:1 14:1 18:2 20:1 
1 8:3 19:2 
1 8:2 28:3 
1 14:2 20:2 36:1 
1 3:2 7:1 14:2 
1 4:1 8:1 16:3 
1 15:1 20:4 
1 5:2 8:3 
1 4:1 5:1 8:2 19:1 
1 11:1 14:2 20:1 34:1 
1 6:1 8:3 33:1 
1 14:3 31:2 
1 8:3 20:1 30:1 
1 5:5 
1 6:3 8:2 
1 6:1 8:3 9:1 
1 14:3 16:2 
1 16:1 24:4 
1 4:2 11:1 14:1 19:1 
1 11:4 35:1 
1 8:1 28:4 
1 8:1 12:1 18:1 20:2 
1 6:2 8:1 19:1 22:1 
1 4:2 6:1 21:2 
1 3:3 8:1 34:1 
1 7:3 14:1 26:1 
1 8:1 19:3 36:1 
1 8:1 10:1 19:3 
1 3:1 8:3 19:1 
1 6:2 19:1 22:1 28:1 
1 20:5 
1 28:3 35:2 
1 6:2 19:1 28:2 
1 3:3 6:2 
1 8:1 11:4 
1 8:2 19:2 35:1 
1 6:4 27:1 
1 3:2 5:2 29:1 
1 7:1 11:1 14:2 19:1 
1 3:1 24:3 25:1 
1 8:1 19:4 
1 7:2 8:1 35:2 
1 6:2 31:3 
1 6:1 24:3 28:1 
1 9:1 14:2 20:2 
1 3:3 8:2 
1 6:1 9:2 20:1 34:1 
1 19:5 
1 8:2 20:2 34:1 
1 6:4 19:1 
1 8:1 19:2 26:1 29:1 
1 3:1 8:1 14:2 19:1 
1 11:1 14:2 19:1 22:1 
1 4:1 19:2 24:2 
1 3:3 6:2 
1 6:1 29:4 
1 8:1 19:2 22:2 
1 8:2 14:1 19:2 
1 3:5 
1 28:5 
1 16:4 35:1 
1 6:2 11:1 22:2 
1 3:1 8:3 20:1 
1 3:2 20:3 
1 3:1 8:1 19:1 20:2 
1 4:1 6:3 19:1 
1 6:2 8:2 19:1 
1 3:2 14:3 
1 6:4 36:1 
1 6:1 7:2 9:1 14:1 
1 19:2 28:2 36:1 
1 5:1 6:1 11:2 14:1 
1 9:1 11:2 18:1 19:1 
1 16:1 24:4 
1 6:3 7:1 21:1 
1 6:5 
1 6:3 8:2 
1 4:2 14:3 
1 8:3 28:2 
1 4:3 6:1 
1 8:2 9:2 
1 4:1 5:1 24:2 
1 4:1 8:1 14:2 
1 6:2 8:1 11:1 
1 11:1 19:1 39:2 
1 3:2 8:1 19:1 
1 8:4 
1 3:2 6:2 
1 8:2 11:1 31:1 
1 6:1 14:1 31:2 
1 6:2 8:2 
1 4:1 6:2 11:1 
1 6:2 20:2 
1 6:2 8:1 15:1 
1 1:1 6:1 8:2 
1 11:4 
1 28:4 
1 11:1 14:3 
1 6:2 24:2 
1 8:3 11:1 
1 6:2 19:2 
1 8:1 11:3 
1 8:3 14:1 
1 14:3 33:1 
1 8:3 36:1 
1 1:1 7:1 24:2 
1 4:1 6:3 
1 5:1 6:2 33:1 
1 8:4 
1 7:1 14:3 
1 3:2 6:1 11:1 
1 3:1 6:2 9:1 
1 8:1 9:1 33:1 34:1 
1 15:1 16:1 22:1 33:1 
1 29:2 33:2 
1 24:4 
1 6:2 33:2 
1 3:4 
1 14:2 19:2 
1 8:4 
1 24:4 
1 14:2 28:2 
1 11:4 
1 8:1 11:1 19:1 35:1 
1 14:2 19:2 
1 3:2 10:1 33:1 
1 3:1 8:3 
1 6:1 8:1 11:1 19:1 
1 5:2 8:1 30:1 
1 11:1 18:2 34:1 
1 6:1 25:2 28:1 
1 6:3 33:1 
1 4:2 11:2 
1 9:1 20:2 22:1 
1 8:3 20:1 
1 6:2 28:2 
1 6:3 19:1 
1 14:1 19:3 
1 6:1 19:1 29:2 
1 3:1 6:2 19:1 
1 24:4 
1 8:2 19:1 20:1 
1 8:1 9:2 18:1 
1 4:2 14:1 19:1 
1 3:1 19:1 20:2 
1 19:1 28:3 
1 15:1 19:1 31:2 
1 6:1 20:1 34:2 
1 4:1 14:1 20:2 
1 4:1 11:1 19:2 
1 6:3 19:1 
1 14:1 18:3 
1 6:3 8:1 
1 8:1 14:3 
1 14:2 16:1 19:1 
1 4:1 5:1 14:2 
1 11:1 35:2 
1 8:3 
1 14:3 
1 6:1 19:2 
1 6:1 8:2 
1 6:3 
1 8:3 
1 6:1 8:1 20:1 
1 4:3 
1 14:3 
1 6:1 11:1 22:1 
1 11:1 20:1 22:1 
1 28:1 35:2 
1 6:3 
1 6:2 20:1 
1 3:2 8:1 
1 6:3 
1 8:2 9:1 
1 22:1 24:2 
1 3:2 14:1 
1 8:1 14:2 
1 3:2 15:1 
1 8:1 20:2 
1 31:3 
1 14:3 
1 33:3 
1 6:1 19:2 
1 3:1 14:2 
1 28:2 35:1 
1 6:2 19:1 
1 21:2 27:1 
1 9:2 19:1 
1 4:3 
1 6:1 20:2 
1 6:3 
1 4:1 8:1 33:1 
1 19:1 24:1 33:1 
1 6:1 8:1 33:1 
1 10:2 35:1 
1 6:1 28:2 
1 8:1 12:2 
1 6:2 8:1 
1 8:1 20:1 34:1 
1 20:3 
1 8:3 
1 8:1 14:1 20:1 
1 20:2 26:1 
1 6:1 7:1 20:1 
1 8:3 
1 6:2 20:1 
1 24:3 
1 8:1 11:1 20:1 
1 8:2 35:1 
1 8:1 24:2 
1 8:2 19:1 
1 6:2 16:1 
1 6:1 19:1 37:1 
1 11:3 
1 6:2 8:1 
1 2:1 4:1 6:1 
1 8:2 20:1 
1 1:1 24:2 
1 8:1 19:1 20:1 
1 8:3 
1 6:2 19:1 
1 8:2 19:1 
1 18:2 19:1 
1 6:3 
1 5:1 8:2 
1 28:1 33:2 
1 11:2 19:1 
1 24:2 
1 28:2 
1 8:2 
1 24:2 
1 6:1 8:1 
1 6:1 20:1 
1 24:2 
1 8:1 28:1 
1 5:1 11:1 
1 15:2 
1 16:1 24:1 
1 8:1 11:1 
1 6:1 35:1 
1 6:1 19:1 
1 6:2 
1 14:1 16:1 
1 20:2 
1 6:1 34:1 
1 24:2 
1 3:1 14:1 
1 6:1 24:1 
1 4:1 14:1 
1 11:1 19:1 
1 14:2 
1 6:1 8:1 
1 6:1 8:1 
1 8:1 11:1 
1 6:2 
1 9:1 19:1 
1 6:1 18:1 
1 6:2 
1 14:2 
1 11:1 28:1 
1 8:1 11:1 
1 6:1 19:1 
1 3:1 19:1 
1 14:2 
1 20:2 
1 11:1 19:1 
1 6:1 14:1 
1 3:1 36:1 
1 8:1 22:1 
1 1:2 
1 6:2 
1 11:1 14:1 
1 8:1 19:1 
1 6:2 
1 8:2 
1 8:2 
1 29:1 35:1 
1 11:1 14:1 
1 14:2 
1 6:1 19:1 
1 8:1 16:1 
1 8:2 
1 6:2 
1 4:1 19:1 
1 8:2 
1 8:1 19:1 
1 6:2 
1 4:1 8:1 
1 6:1 8:1 
1 6:1 19:1 
1 6:1 19:1 
1 6:2 
1 10:1 19:1 
1 28:2 
1 1:1 24:1 
1 20:1 34:1 
1 8:2 
1 4:1 33:1 
1 3:1 7:1 
1 8:2 
1 4:1 8:1 
1 6:1 8:1 
1 24:1 35:1 
1 8:1 19:1 
1 8:1 11:1 
1 19:2 
1 6:1 8:1 
1 19:2 
1 4:1 8:1 
1 6:2 
1 4:2 
1 6:2 
1 6:1 16:1 
1 8:1 11:1 
1 6:2 
1 3:2 
1 1:2 
1 4:1 14:1 
1 8:1 11:1 
1 19:2 
1 6:1 20:1 
1 6:1 
1 6:1 
1 24:1 
1 24:1 
1 4:1 
1 6:1 
1 6:1 
1 24:1 
1 19:1 
1 8:1 
1 20:1 
1 8:1 
1 6:1 
1 11:1 
1 6:1 
1 8:1 
1 24:1 
1 6:1 
1 14:1 
1 6:1 
1 35:1 
1 35:1 
1 6:1 
1 8:1 
1 11:1 
1 8:1 
1 6:1 
1 25:1 
1 6:1 
1 31:1 
1 14:1 
1 24:1 
1 8:1 
1 3:1 
1 24:1 
1 8:1 
1 8:1 
1 24:1 
1 33:1 
1 19:1 
1 6:1 
1 6:1 
1 6:1 
1 8:1 
1 19:1 
1 19:1 
1 6:1 
1 3:1 
1 11:1 
1 6:1 
1 8:1 
1 11:1 
1 24:1 
1 14:1 
1 8:1 
1 6:1 
1 6:1 
1 6:1 
1 21:1 
1 24:1 
1 11:1 
1 8:1 
1 8:1 
1 28:1 
1 6:1 
1 8:1 
1 3:1 
1 19:1 
1 31:1 
1 20:1 
1 6:1 
1 6:1 
1 4:1 
1 33:1 
1 11:1 
1 11:1 
1 6:1 
1 6:1 
1 7:1 
1 14:1 
1 14:1 
1 24:1 
1 6:1 
1 11:1 
1 8:1 
1 4:1 
1 6:1 
1 6:1 
1 8:1 
1 14:1 
1 11:1 
1 14:1 
1 2:1 
1 16:1 
1 6:1 
1 8:1 
1 8:1 
1 8:1 
1 35:1 
1 8:1 
1 24:1 
1 6:1 
1 
1 
1 
1 
1 
1 
1 
1 
1 
1 
1 
1 
1 
1 
1 
1 
1 
1 
1 
1 
1 
1 
1 
1 
1 
1 
1 
1 
1 
1 
1 
1 
1 
1 
1 
1 
1 
1 
1 
1 
1 
1 
1 
1 
1 
1 
1 
1 
1 
1 
1 
1 
1 
-1 8:1 15:100 36:1 
-1 3:11 4:22 6:17 7:2 8:4 9:1 14:1 18:5 19:2 20:4 22:1 31:3 34:1 
-1 20:1 28:64 
-1 3:4 7:27 14:7 16:18 36:1 
-1 15:55 35:1 
-0.7317584135277753 3:7 5:6 7:8 12:5 16:7 19:5 24:9 29:8 38:1 
-0.7198727325752844 3:2 5:7 7:8 12:5 16:7 19:5 24:9 29:8 38:1 
-1 28:47 
-0.933056610072186 4:6 6:1 8:4 9:1 16:3 18:26 22:4 33:1 
-1 8:1 9:3 18:5 30:37 
-1 3:1 6:7 12:3 15:18 16:1 18:4 34:2 36:1 
-1 5:23 14:3 15:1 20:7 34:1 35:2 
-0.7609147940434335 11:35 37:1 
-0.3402271379549114 11:34 37:1 
-0.815266796233307 8:2 18:33 
-0.9064561469472984 8:1 11:3 14:4 22:6 25:20 
-0.9841204979945818 14:3 15:31 
-0.9729492218856354 4:2 14:7 19:2 20:7 25:15 
-1 3:18 4:2 14:9 19:4 
-0.6797932263051286 12:1 18:4 28:28 
-0.0177968652681861 6:27 8:1 34:2 35:2 
-0.7927190922297119 3:1 6:2 14:1 25:28 
-1 6:23 8:7 35:1 
-1 28:31 
-0.6710045741280585 15:30 
-0.8025290051306317 6:30 
-1 6:9 18:21 
-1 8:27 11:3 
-0.6976720556459572 6:24 18:2 30:2 35:1 
-0.9924957908865596 6:2 8:3 19:1 20:2 28:21 
-0.5542239974777428 8:1 14:1 20:1 24:1 28:25 
-0.6247852716318213 8:1 18:27 35:1 
-1 6:1 8:17 28:11 
-0.8822336978008785 3:3 5:1 7:1 8:3 14:1 15:2 16:1 25:14 31:3 
-1 8:6 18:22 
-0.6843690232468249 6:1 11:23 15:3 35:1 
-1 6:16 22:7 33:4 
-1 14:10 18:2 29:8 31:7 
-1 8:2 18:19 22:1 30:1 35:2 36:1 
-0.3387942929370302 8:1 25:24 36:1 
-1 6:1 7:1 8:14 16:3 20:2 22:5 
-1 3:1 4:1 7:2 14:6 16:6 19:3 20:4 22:1 33:1 34:1 
-1 8:7 20:1 21:3 28:15 
-0.4566385315013691 8:1 14:3 15:2 18:2 20:1 25:14 35:2 
-1 3:1 4:5 6:8 19:8 28:3 
-1 6:8 8:3 20:2 28:11 30:1 
-1 3:2 5:5 6:3 14:5 15:2 19:4 31:2 35:1 
-1 1:23 24:1 
-0.3911694379457354 14:4 18:19 35:1 
-1 4:1 8:4 12:1 20:9 31:7 34:2 
-1 3:2 6:3 7:1 8:6 14:1 18:3 29:4 31:1 33:2 34:1 
-1 6:2 28:15 31:6 
-0.9985001237481572 8:3 11:20 
-1 6:6 11:7 28:9 37:1 
-0.4779000346350259 3:3 6:1 11:17 19:1 37:1 
-0.8136043374610651 7:1 11:1 14:5 18:16 
-0.7987997529113423 8:8 12:3 18:10 34:2 
-1 3:1 4:5 16:1 21:1 22:1 31:12 35:1 
-0.5862137426484153 4:1 6:10 11:1 14:4 19:1 20:4 30:1 
-1 6:4 8:6 16:8 19:1 20:2 34:1 
-0.5022585157930425 6:7 11:10 16:1 35:1 37:1 39:2 
-1 11:1 14:5 16:3 20:13 
-0.1297927052599393 8:1 28:21 
-1 8:15 19:3 20:3 28:1 
-0.6299094364486254 7:1 14:4 18:15 22:2 
-0.4514937839284192 6:6 8:3 11:12 37:1 
-1 25:21 
-1 24:1 28:20 
-0.9277975386287417 1:9 7:2 8:1 22:6 29:3 
-1 8:1 14:9 28:10 35:1 
-1 1:19 8:2 
-0.7606854120180978 3:7 8:12 20:1 34:1 
-1 3:3 4:3 8:9 16:1 19:1 20:3 34:1 
-0.1328159145908385 3:1 16:2 24:17 35:1 
-1 3:10 6:1 8:4 14:4 34:2 
-0.7979972189196349 3:2 8:1 9:3 14:10 15:4 19:1 
-0.6401118353055982 5:2 11:1 19:1 20:2 22:12 28:3 
-0.4494367732620174 6:8 14:2 19:1 20:5 29:3 34:1 35:1 
-0.3522115294491326 3:1 4:2 5:9 8:1 14:2 19:1 27:1 29:1 33:3 
-1 3:1 6:6 18:12 34:1 
-1 21:20 
-1 24:1 31:18 36:1 
-1 6:9 19:4 20:7 
-0.5943999149730048 3:5 5:4 8:10 19:1 
-1 6:10 7:1 19:1 28:8 
-1 3:2 4:2 9:1 11:1 14:6 19:1 20:3 33:4 
-0.736465252542209 5:2 6:2 22:13 29:3 
-0.8689884748735462 24:20 
-0.9289643260067575 3:7 6:3 7:2 16:3 28:4 31:1 
-0.3617193310648794 9:2 11:16 34:1 37:1 
-0.6720064784921119 7:6 19:3 24:4 29:6 38:1 
-1 6:1 7:3 14:3 16:5 28:4 29:3 34:1 
-0.1316300117767855 11:17 25:2 37:1 
-1 6:8 8:1 22:1 28:10 
-0.3133422195511815 24:1 28:18 
-1 4:9 7:1 11:2 19:3 22:1 25:3 
-0.8393513226418207 3:7 6:6 8:4 16:2 
-1 28:19 
-1 3:5 6:1 8:5 20:8 
-1 6:6 8:3 14:2 22:8 
-1 3:1 11:4 14:3 16:1 19:2 20:6 22:1 31:1 
-1 6:2 8:17 
-1 4:2 8:1 9:1 14:7 16:1 21:2 33:2 34:1 35:2 
-1 3:1 6:10 20:7 36:1 
-1 19:19 
-1 8:19 
-1 6:10 11:4 31:5 
-1 3:1 4:2 11:1 20:2 28:12 30:1 
-1 24:1 28:17 
-0.7985703995841901 18:13 35:5 
-0.8792417623431117 3:3 8:8 22:4 32:2 34:1 
-0.4766684805504799 6:3 8:1 9:6 14:2 20:5 34:1 
-0.1303992310325868 3:1 19:2 24:15 
-1 2:3 20:14 34:1 
-1 28:18 
-1 6:14 8:3 36:1 
-1 3:5 6:4 19:5 29:4 
-1 3:11 7:1 8:2 29:4 
-1 3:2 4:1 7:4 19:8 20:1 33:2 
-0.6987700764190505 6:6 24:12 
-1 8:7 18:11 
-0.9022043190183948 3:4 8:4 9:6 33:4 
-1 6:1 8:1 14:5 28:11 
-0.6517244950723702 8:5 11:12 37:1 
-1 3:5 6:1 14:11 34:1 
-1 4:3 6:1 7:1 9:2 11:1 18:3 34:6 
-0.6666561228060527 7:1 9:4 16:7 18:2 30:1 34:2 
-1 3:2 5:3 6:3 18:2 19:6 20:1 
-0.9157075327036694 2:8 4:1 16:5 33:3 
-0.7100528416227662 6:9 12:2 19:1 20:2 34:1 35:2 
-1 6:15 31:2 
-1 3:6 6:1 7:3 14:4 22:2 36:1 
-1 28:17 
-0.8011375257252293 8:3 20:11 33:3 
-1 3:1 8:5 9:1 19:10 
-1 4:2 14:2 19:7 22:6 
-1 6:2 28:14 35:1 
-0.5486839255687528 1:1 8:1 20:4 24:2 28:9 
-0.9349688625506337 2:8 6:3 20:5 34:1 
-1 1:1 3:2 4:2 11:2 14:3 16:3 19:1 20:3 
-0.5980756986984537 4:1 6:6 8:1 11:2 19:1 20:6 
-1 6:3 8:2 19:4 20:2 25:1 33:3 34:2 
-1 3:2 6:9 8:3 22:1 28:1 35:1 
-1 8:13 20:2 34:1 35:1 
-1 8:3 14:1 19:12 20:1 
-0.5443405858298532 24:11 28:2 35:3 
-1 7:1 8:1 20:14 
-0.5682287958438381 4:3 11:13 
-1 5:1 7:3 8:3 11:1 19:1 24:2 28:4 33:1 
-0.3615085220191385 3:4 6:6 8:4 34:2 
-0.6447774064093641 6:3 11:5 14:3 20:2 31:1 35:1 37:1 
-1 3:1 4:2 8:1 10:2 14:2 16:3 18:2 19:1 20:1 33:1 
-0.749584463921252 6:9 9:4 34:1 35:2 
-0.7571727413546477 5:1 7:4 9:9 19:1 34:1 
-0.1289385933279964 11:14 14:1 37:1 
-1 3:3 4:2 8:3 19:6 20:2 
-1 4:1 6:7 8:3 25:5 
-1 8:12 16:2 19:2 
-1 4:1 7:2 8:9 19:2 22:2 
-1 3:6 9:4 11:1 14:3 19:2 
-0.7281246806921466 4:3 6:1 18:12 
-1 3:1 6:7 8:1 14:1 19:2 20:1 22:1 29:1 33:1 
-0.6974972759324128 8:13 9:3 
-0.4922244515220849 3:3 6:1 8:6 20:1 29:3 36:2 
-1 4:2 8:10 19:1 22:1 26:1 
-1 8:2 14:5 20:6 33:2 
-0.9167471806928403 3:10 8:2 36:3 
-1 6:9 19:4 35:1 36:1 
-1 8:1 16:1 22:1 28:8 33:3 34:1 
-0.6034300640178138 11:11 18:2 34:2 
-1 5:9 7:2 14:2 19:1 35:1 
-1 3:2 14:6 28:7 
-0.6410784224849528 3:1 4:1 8:4 9:2 15:2 19:1 26:3 34:1 
-1 8:9 28:6 
-0.8113284634661322 3:2 8:2 16:2 19:1 20:8 
-1 8:3 15:4 31:8 
-1 8:10 19:1 33:3 35:1 
-1 3:1 4:3 6:4 8:3 19:4 
-1 28:14 35:1 
-1 2:8 14:6 19:1 
-0.075883696199083 22:2 24:13 
-1 19:1 21:1 28:13 
-1 14:14 15:1 
-0.7342579000588904 3:2 6:3 22:10 
-1 6:3 19:12 
-0.5243788203590348 8:3 11:1 14:1 19:10 
-1 5:3 8:7 11:2 31:3 
-1 6:1 11:1 19:1 28:12 
-1 8:4 19:5 22:4 29:2 
-1 3:2 8:1 14:4 19:5 20:2 22:1 
-1 3:4 4:3 18:1 19:7 
-0.5415779754113988 1:2 6:12 
-0.3523692312634151 1:2 24:11 35:1 
-0.3263296198617866 6:1 9:7 14:2 34:2 35:2 
-1 19:14 
-0.3073888991002189 6:3 25:11 
-0.2020219659817716 8:2 19:11 29:1 
-1 6:3 16:3 18:4 19:3 29:1 
-1 1:9 4:4 24:1 
-1 6:3 14:2 19:2 20:3 31:4 
-1 16:4 20:4 24:6 
-1 4:1 7:1 11:1 14:3 19:7 20:1 
-1 8:7 15:1 19:6 
-0.5477748033923142 3:1 7:1 8:1 14:1 19:3 29:6 35:1 
-1 6:3 8:1 16:4 28:6 
-1 3:5 4:1 6:7 35:1 
-1 6:9 8:1 20:2 28:1 33:1 
-1 4:1 8:12 20:1 
-1 7:4 9:3 14:3 19:2 20:1 26:1 
-0.3365248744435884 3:1 6:10 20:1 35:2 
-0.9656948419351203 6:4 8:1 11:1 12:1 18:3 19:1 31:3 
-1 3:2 8:1 18:9 19:1 34:1 
-1 3:2 16:1 20:9 33:2 
-1 8:6 14:1 16:3 20:4 
-1 8:13 11:1 
-1 3:9 4:1 6:2 14:1 19:1 
-0.6927057213584467 4:2 7:2 9:4 11:1 14:1 20:4 
-0.530878599740733 6:12 36:1 37:1 
-0.2440462864106193 3:1 8:10 19:2 36:1 
-1 1:1 4:3 6:1 8:2 19:1 21:4 31:2 
-1 1:10 6:3 19:1 
-1 3:1 6:1 14:7 19:3 20:2 
-1 6:11 16:2 29:1 
-0.6460743815354942 6:1 8:13 
-1 1:1 3:4 4:1 6:1 8:1 9:2 18:1 20:1 33:1 34:1 
-0.3460826159402234 8:13 19:1 
-1 3:4 4:2 14:6 34:1 36:1 
-0.5524454101797434 3:2 5:4 8:4 16:1 33:2 36:1 
-0.9720911811414122 15:1 20:4 29:5 31:3 
-0.6137095646081508 3:4 24:9 
-1 6:4 8:1 20:5 28:3 
-1 6:1 8:8 16:3 22:1 
-0.3136236868520604 19:1 20:1 24:11 
-1 3:4 6:2 8:1 9:1 14:1 20:1 33:2 34:1 
-1 3:3 4:1 11:1 14:1 19:3 31:4 
-1 6:3 20:10 
-1 6:11 19:1 35:1 
-1 6:7 14:4 16:1 19:1 
-1 3:3 4:1 8:1 31:7 34:1 
-0.4446500328458351 6:1 8:2 19:8 24:1 33:1 
-1 8:1 14:1 20:10 35:1 
-0.7417549149806086 5:1 11:11 14:1 
-0.3846866617012431 8:1 20:10 34:2 
-1 6:2 14:8 20:3 
-1 6:11 7:1 33:1 
-1 4:2 14:4 16:1 18:1 19:1 30:1 33:3 
-0.6627411587472446 18:6 30:5 36:2 
-1 3:5 4:1 12:2 14:1 19:3 20:1 
-1 6:1 7:8 11:1 25:1 34:1 36:1 
-1 6:12 8:1 
-1 6:4 8:9 
-1 3:5 7:1 8:5 19:2 
-1 20:13 
-0.4154642795588845 6:1 8:6 21:3 29:3 
-0.3752469555216698 4:1 6:4 7:1 11:2 19:2 20:3 
-0.5325834626839668 11:2 18:10 34:1 
-1 8:4 14:1 16:5 20:2 34:1 
-1 4:3 6:1 8:1 18:7 30:1 
-1 6:6 8:2 15:4 35:1 
-0.658535896912898 6:2 8:2 28:2 31:2 33:5 
-1 3:1 4:5 6:3 19:2 20:2 
-1 6:3 15:10 
-1 7:1 19:5 20:7 
-1 8:3 10:2 16:8 
-1 5:2 11:7 28:4 
-1 8:6 29:5 30:2 
-0.764174750984656 6:2 20:6 28:5 
-0.9312250283611425 3:2 6:5 8:3 31:1 36:2 
-1 1:3 6:6 8:2 19:2 
-0.8812255198959613 4:7 8:2 16:4 
-0.3493094784671516 2:1 4:1 9:2 11:1 14:7 34:1 
-0.001208852735332177 3:1 6:1 7:5 19:5 
-1 1:2 6:1 8:3 19:4 20:2 
-1 11:2 14:4 19:6 
-1 8:8 19:4 
-0.407128273141013 8:9 14:3 
-0.01244986544393055 6:2 20:10 
-0.4605996511084295 6:1 8:2 20:5 31:4 
-0.9162106118737798 6:1 8:4 11:7 
-0.08284280454563102 5:6 6:2 15:1 19:2 20:1 
-0.4337989106545228 22:3 24:9 
-0.2871102820041792 4:2 11:3 19:3 24:4 
-1 1:4 6:1 8:6 19:1 
-1 19:1 28:11 
-0.4111726513887565 9:1 11:1 20:8 34:2 
-0.6221410029225916 3:5 8:3 20:3 34:1 
-0.6915720280538988 3:1 11:10 37:1 
-0.5245256267179438 3:6 8:3 22:3 
-1 8:4 9:2 19:1 29:3 33:2 
-1 3:2 4:1 7:2 14:1 16:2 22:4 
-1 8:7 28:5 
-1 4:5 7:1 8:5 19:1 
-1 12:1 14:10 18:1 
-0.5652245991341529 8:3 14:1 18:3 21:5 
-1 6:6 8:6 
-1 6:4 8:7 19:1 
-1 4:7 6:2 8:2 19:1 
-0.157125174934185 1:3 6:6 8:2 19:1 
-0.7278114141306613 11:5 14:1 16:4 19:2 
-1 6:2 8:1 28:8 35:1 
-0.2746503286214558 8:1 14:2 16:3 19:1 20:3 31:2 
-0.1499541690922044 8:1 24:4 28:7 
-1 3:3 6:2 19:2 27:1 29:3 34:1 
-1 3:1 6:4 7:2 19:1 33:3 36:1 
-0.352971205159447 6:2 8:9 22:1 
-0.5045655285406813 6:10 8:2 
-1 6:1 8:4 22:4 34:2 35:1 
-1 6:1 11:3 33:7 34:1 
-0.4829746268882674 3:1 5:3 19:1 31:6 33:1 
-0.9397854758126322 8:5 11:6 34:1 
-0.9489148271314507 6:4 8:4 20:1 35:3 
-1 1:9 8:1 11:1 33:1 
-0.8324400315248415 3:3 6:4 9:4 34:1 
-1 6:1 8:3 28:8 
-1 3:1 4:4 5:5 14:2 
-1 6:3 8:5 20:4 
-0.2648185885791604 3:6 4:1 8:2 9:1 31:2 
-1 6:3 28:9 
-0.2818618011501134 11:1 24:11 
-1 6:1 8:6 26:1 28:4 
-1 14:5 31:7 
-1 7:3 14:1 20:1 22:7 
-1 3:1 4:4 14:2 19:1 29:3 30:1 
-1 4:2 6:5 8:1 9:2 11:2 
-0.3939284104111272 3:5 8:1 14:4 16:1 34:1 
-0.9989663005529156 8:9 14:3 
-0.1845404972335132 8:4 24:7 34:1 
-1 5:6 8:5 33:1 
-0.9618067425066422 11:7 19:4 37:1 
-1 3:6 6:2 8:1 16:3 
-1 3:1 6:4 16:1 19:1 20:2 33:3 
-1 16:12 
-1 14:6 19:1 20:5 
-1 8:3 14:1 28:8 
-1 3:3 5:1 6:3 19:3 20:1 25:1 
-1 3:2 5:1 6:2 20:2 33:2 34:1 35:1 
-1 11:5 14:6 
-1 4:2 6:3 7:3 14:1 22:2 
-1 6:1 8:3 16:6 35:1 
-1 11:1 28:10 
-0.2656291114022321 6:4 9:2 14:1 19:1 34:1 36:2 
-0.02373444471351051 8:1 11:6 16:2 30:1 34:1 
-1 5:4 6:2 10:1 18:2 34:2 
-0.699256234612243 6:5 7:4 11:1 20:1 
-1 6:3 8:3 20:1 30:1 31:3 
-1 4:5 11:1 19:5 
-0.9608192393855729 6:1 14:2 28:8 
-0.7212680848366735 7:1 8:1 12:6 18:3 
-0.1528487123439733 6:5 24:6 
-0.3911986436869191 8:5 11:3 18:2 34:1 
-1 6:7 7:3 16:1 
-1 3:1 4:1 6:2 8:1 11:5 19:1 
-0.9988706068062918 6:2 14:2 15:3 16:2 34:1 35:1 
-0.6545449754951395 4:1 16:1 20:5 22:3 34:1 
-0.5563867625688431 12:4 14:2 16:5 
-1 6:9 28:1 35:1 
-0.07567165619757092 5:6 8:2 14:2 19:1 
-0.4465157090435176 7:1 8:7 19:3 
-1 4:10 6:1 
-1 8:1 14:4 16:1 19:3 20:2 
-1 4:8 8:1 14:2 
-0.9862859254423605 9:1 15:2 20:5 22:1 24:1 34:1 
-0.9580385493621401 3:1 14:6 16:3 34:1 
-1 8:2 9:1 19:2 28:6 
-1 6:3 8:6 19:1 35:1 
-1 3:2 4:8 8:1 
-1 4:1 8:1 14:1 19:1 20:7 
-0.3536857285607853 6:1 8:1 10:4 18:5 
-1 3:4 6:6 19:1 
-0.7941766521399817 3:2 6:1 18:1 19:1 22:6 
-1 7:1 8:5 11:2 18:2 19:1 
-1 6:3 8:8 
-1 7:2 8:3 14:1 28:1 31:4 
-1 4:2 8:6 34:3 
-0.9914218174105188 4:1 14:1 20:4 22:3 28:1 35:1 
-0.7689757195595964 7:3 8:1 11:7 
-0.1851920953775827 8:4 22:1 26:6 
-0.7472553507790037 5:9 20:2 
-0.8688733222478485 8:1 14:10 
-1 6:3 8:8 
-1 6:6 8:5 
-1 8:1 20:3 21:7 
-1 8:4 16:2 19:5 
-1 6:8 35:1 36:2 
-1 4:2 7:2 14:4 20:3 
-1 3:2 4:2 6:1 8:2 14:1 20:3 
-1 6:3 19:8 
-0.2881369182735011 8:2 16:3 20:6 
-0.7835744232858041 4:1 6:4 12:2 19:1 20:3 
-0.004599503890227718 6:1 7:1 19:7 22:2 
-1 4:2 7:1 8:1 22:1 33:6 
-0.516829456899535 6:5 8:4 19:1 24:1 
-0.7532727956744937 7:1 8:2 16:5 22:1 34:1 35:1 
-1 5:2 8:3 11:1 14:1 19:4 
-1 6:4 24:4 28:3 
-1 3:5 7:1 14:1 19:2 20:1 29:1 
-0.06282522580413054 3:1 7:2 8:2 28:2 29:4 
-1 8:6 20:5 
-0.5896191147107691 24:11 
-1 6:1 14:5 19:5 
-1 28:11 
-0.508944256458264 20:11 
-0.5600776221875758 9:2 11:7 37:1 
-0.3103734466967696 28:10 
-1 4:1 6:7 7:2 
-1 8:3 18:5 31:2 
-0.7538983126965297 4:1 10:4 15:3 19:1 36:1 
-1 6:7 8:3 
-0.9846545240571859 3:3 8:6 18:1 
-1 8:5 19:2 31:2 35:1 
-0.3601698747377602 12:2 18:5 35:3 
-1 2:2 8:4 24:3 35:1 
-1 8:7 20:3 
-1 28:10 
-0.8590821990930195 15:4 19:1 24:4 31:1 
-1 8:1 28:9 
-1 11:1 28:9 
-0.7005502815063677 23:4 24:6 
-1 8:3 11:1 19:2 20:2 34:1 35:1 
-1 8:3 18:2 28:4 35:1 
-1 8:4 19:1 20:1 33:3 34:1 
-1 8:1 11:5 14:1 18:2 19:1 
-1 8:5 20:5 
-0.1493302567995687 6:3 20:7 
-0.7946752686943009 6:3 16:4 25:2 34:1 
-1 14:2 19:8 
-1 4:1 7:4 8:5 
-0.530691526251296 8:3 9:1 14:3 20:2 34:1 
-0.622616727685928 8:2 11:3 14:3 19:1 35:1 
-0.9983533730871207 28:10 
-0.3604599177092359 22:4 29:6 
-0.3991524553584772 1:3 4:4 8:1 22:1 24:1 
-1 8:4 28:6 
-1 6:4 7:4 8:1 35:1 
-1 4:3 6:3 19:1 20:3 
-1 3:3 6:3 19:2 33:2 
-1 1:1 19:1 22:1 28:7 
-1 19:3 26:5 28:2 
-0.1255548897055262 3:1 6:3 8:3 20:2 21:1 
-1 3:4 8:1 14:2 20:2 33:1 
-0.3135484597574057 11:6 28:3 37:1 
-0.7560961852601932 3:10 
-1 14:3 18:1 22:1 29:1 34:3 36:1 
-0.8044530346338922 10:6 14:3 35:1 
-1 1:1 5:1 6:2 7:1 8:1 28:4 
-1 5:2 7:1 14:7 
-1 6:2 8:3 16:2 19:1 22:2 
-0.9727180995760266 8:2 11:4 16:1 20:3 
-0.9056474414523251 3:2 6:2 7:2 19:3 34:1 
-0.2832404269830148 3:1 5:1 6:2 9:2 19:2 34:2 
-1 8:4 19:2 33:4 
-0.8394685717153326 8:6 20:2 28:2 
-1 4:1 14:3 19:3 28:3 
-0.8725485182770889 6:3 7:2 19:1 22:1 29:3 
-0.6369412173831843 6:2 8:1 14:1 34:1 35:5 
-0.1858207421136985 8:1 11:1 14:1 16:2 19:1 28:2 31:2 
-0.7127699697258245 6:4 8:6 
-0.6412222124693431 6:1 8:8 9:1 
-0.4564465999617944 8:4 9:2 20:3 34:1 
-1 8:7 19:2 20:1 
-1 14:5 20:1 33:4 
-1 7:1 8:5 14:4 
-1 6:6 35:4 
-1 6:8 18:1 34:1 
-0.8654918608335362 8:2 22:4 31:3 34:1 
-1 6:4 9:1 28:2 31:3 
-1 4:2 14:6 20:2 
-1 3:2 8:4 18:1 30:1 33:2 
-0.8747215382643644 1:1 6:5 20:4 
-1 3:1 4:3 5:2 6:2 8:1 19:1 
-0.5265569029929263 3:1 14:8 22:1 
-1 8:7 14:3 
-0.04639243664299451 6:1 10:3 14:1 16:1 20:3 28:1 
-0.8314970247129491 5:3 8:1 11:1 19:2 20:2 21:1 
-1 3:3 5:2 8:1 14:2 16:1 33:1 
-1 6:7 19:1 33:2 
-1 7:1 14:7 19:2 
-1 4:1 14:5 16:3 36:1 
-1 6:1 8:2 28:6 29:1 
-1 8:6 28:4 
-0.6295281508736515 6:8 14:1 16:1 
-1 8:2 18:2 19:2 29:2 30:2 
-1 6:1 8:5 9:4 
-1 6:1 8:2 9:1 26:5 34:1 
-0.3164999901778821 10:1 11:9 
-1 6:4 7:1 8:2 16:2 19:1 
-0.8467837150106059 6:3 24:3 28:4 
-1 4:1 8:2 19:6 20:1 
-0.2249378661595345 3:2 7:6 8:1 11:1 
-0.5101973800491076 14:6 15:2 19:1 20:1 
-1 3:2 8:2 16:3 19:1 34:1 35:1 
-1 4:4 8:3 19:1 27:1 33:1 
-1 4:1 11:2 14:2 18:2 19:1 22:2 
-0.06374677123092268 28:7 35:2 
-1 4:1 6:2 8:1 11:1 19:4 
-0.7639517297732631 25:9 
-1 2:8 6:1 
-1 3:1 6:2 8:4 18:1 19:1 
-1 5:1 22:3 33:5 
-0.01475855836426924 6:6 8:2 37:1 
-0.7470670897056313 6:2 14:4 29:3 
-1 6:2 11:2 21:5 
-1 6:2 19:2 20:4 21:1 
-1 5:1 6:2 31:6 
-0.9952074394791294 4:4 7:3 8:2 
-1 3:3 8:3 14:1 16:2 
-1 8:6 20:3 
-1 6:5 11:1 19:1 20:1 22:1 
-1 3:2 14:4 15:3 
-0.2679667204129896 6:6 8:3 
-1 3:3 8:4 15:2 
-0.3018567752870907 3:3 6:1 8:4 35:1 
-1 8:1 14:4 28:4 
-0.5698400099817057 3:1 6:6 20:2 
-1 4:5 6:1 11:2 26:1 
-0.1209122115785181 14:1 20:7 22:1 
-1 4:1 19:6 20:2 
-1 8:6 16:1 20:2 
-1 6:1 16:7 25:1 
-0.3398169458283816 8:7 11:2 
-1 14:1 16:4 19:1 28:3 
-0.6318374109338116 20:5 24:4 
-0.6310656368646258 2:3 6:1 7:1 22:1 25:1 28:1 31:1 
-0.729171550878451 22:4 24:5 
-1 8:4 28:5 
-1 9:1 11:8 
-1 6:6 8:1 18:1 19:1 
-0.3057165885020275 3:1 14:1 19:5 20:1 22:1 
-1 3:2 14:2 19:4 30:1 
-1 8:1 28:8 
-0.3798190912096346 1:3 6:2 8:2 14:1 15:1 
-1 1:2 6:2 20:3 26:1 34:1 
-1 8:2 14:6 31:1 
-0.09881044863864309 8:7 29:2 
-0.6156717753385909 9:3 29:5 32:1 
-0.9539019886576707 8:6 28:3 
-0.854274023969827 8:6 11:1 28:2 
-0.03414943554704453 6:1 8:1 14:1 20:5 34:1 
-0.1830133136389841 6:2 7:6 34:1 
-0.6387240564293082 4:3 6:3 8:3 
-1 1:1 4:1 11:2 14:1 19:1 22:3 
-0.6362914324020343 6:1 12:1 14:2 19:2 31:3 
-1 11:6 20:3 
-0.01956373087649448 4:1 11:2 22:5 30:1 
-0.1824469325953751 28:4 33:5 
-0.8203744539476754 4:1 14:2 19:2 33:4 
-0.2514306660937262 1:3 7:2 8:1 29:2 35:1 
-1 6:2 8:4 14:3 
-1 6:2 20:1 33:5 34:1 
-0.7253548658891849 5:1 6:2 8:2 17:4 
-1 8:2 16:7 
-1 3:3 4:2 6:1 8:2 34:1 
-1 28:6 35:3 
-1 8:2 11:1 19:3 20:1 31:2 
-0.6185632197737221 6:1 28:6 35:1 36:1 
-0.02821930414216195 6:5 11:4 
-1 1:8 6:1 
-0.1807863446333584 5:1 7:2 10:3 19:1 29:1 33:1 
-0.9692123375084633 3:3 6:4 14:2 
-0.339600893713996 4:1 7:1 8:1 11:1 16:2 19:3 
-0.8845752827861272 4:1 6:2 8:3 19:1 20:2 
-0.2904144174076346 1:4 14:3 19:1 24:1 
-0.06080603241195667 12:1 24:8 
-0.2263818181623045 9:2 11:1 14:2 19:3 34:1 
-1 7:1 14:1 19:1 20:4 31:2 
-1 4:2 8:4 19:2 34:1 
-1 3:5 6:2 20:2 
-1 4:1 8:2 11:1 28:5 
-1 6:1 8:1 28:6 
-0.0398981307440309 8:2 11:2 33:4 
-0.5008414752541615 5:5 24:3 
-1 8:6 16:1 36:1 
-0.7973888803409394 5:8 
-0.1102058780620203 21:7 36:1 
-1 6:2 14:4 18:2 
-0.1082936056796059 8:2 22:6 
-1 8:1 14:2 18:4 27:1 
-0.1861253037338657 8:2 11:2 20:4 
-0.7154304039319899 3:5 6:2 34:1 
-1 4:5 11:1 14:2 
-1 3:3 35:5 
-1 8:3 14:5 
-1 9:3 11:1 18:4 
-1 4:6 20:1 24:1 
-1 3:4 14:4 
-1 8:4 9:3 11:1 
-1 6:1 7:5 14:2 
-1 6:1 9:1 18:2 19:4 
-1 8:1 16:1 19:1 28:5 
-1 3:1 6:3 8:1 16:1 20:1 29:1 
-0.50296602792386 3:2 6:1 9:2 20:1 21:2 
-0.9608667452403769 6:3 8:3 16:1 25:1 
-0.4163726810440405 6:4 14:3 19:1 
-0.8793786847620281 8:5 11:3 
-0.7329751491032703 7:1 14:2 22:2 29:2 35:1 
-0.1187087538825056 5:1 14:1 16:3 17:3 
-1 5:1 6:5 16:2 
-0.6322708189313958 8:2 14:6 
-1 1:7 14:1 
-1 4:5 14:2 19:1 
-0.635489601515993 6:3 8:3 36:2 
-1 4:1 14:3 19:4 
-0.5734148859178045 11:1 12:6 14:1 
-1 11:1 20:3 21:2 30:2 
-1 3:5 4:1 6:2 
-1 5:1 6:2 16:1 18:1 19:2 28:1 
-1 4:4 6:2 19:2 
-1 6:3 28:5 
-0.588488007290643 6:2 7:1 11:2 14:3 
-0.5198282886444564 6:6 24:2 
-1 5:1 6:1 7:1 8:1 15:1 18:2 33:1 
-1 6:2 8:2 28:4 
-1 6:2 16:2 19:2 28:2 
-0.3497139898468538 3:1 4:1 8:1 14:2 19:3 
-1 3:3 4:1 6:4 
-1 6:2 15:4 18:1 30:1 
-0.4763207517648869 8:1 19:5 33:2 
-0.4881745166180221 19:4 24:4 
-0.3085865386143437 5:1 11:6 30:1 
-0.7609256693544723 6:1 8:3 9:3 30:1 
-1 6:6 28:2 
-0.4282564678243835 5:1 19:7 
-0.3914212107366371 3:5 8:3 
-0.6897950029486272 6:2 8:1 16:4 20:1 
-0.06889060339568999 4:1 6:1 10:5 20:1 
-1 4:1 8:4 19:2 36:1 
-1 6:4 19:2 22:2 
-1 14:2 18:5 35:1 
-0.6005827635881489 6:1 8:2 19:5 
-1 8:6 20:2 
-1 14:5 18:3 
-0.3084647192561902 24:6 33:2 
-1 6:6 19:2 
-1 3:3 7:1 8:3 18:1 
-1 6:4 15:1 19:3 
-1 3:1 14:4 19:3 
-1 14:1 20:6 34:1 
-0.07879737772874273 14:3 19:5 
-0.5090512876535822 6:5 11:2 34:1 
-1 4:2 7:1 8:1 14:1 19:3 
-1 4:3 6:2 8:1 14:2 
-0.8030306655068052 8:2 14:6 
-0.2330781340074163 4:4 6:1 22:3 
-0.2422173185806532 20:6 30:1 34:1 
-1 6:4 14:3 19:1 
-1 1:1 14:3 28:4 
-1 10:7 19:1 
-0.8525734229571907 5:2 15:1 19:2 20:3 
-1 6:1 14:2 18:2 19:3 
-1 3:1 4:3 7:1 14:2 19:1 
-1 14:1 20:3 28:4 
-1 2:1 8:1 19:6 
-1 4:1 6:1 14:2 20:4 
-0.07376333081188524 6:3 19:5 
-1 4:1 20:4 27:1 33:2 
-1 6:2 16:1 20:2 33:2 
-1 2:1 6:1 19:4 34:1 
-1 7:2 14:1 19:1 28:3 
-0.9601441080225842 18:7 
-1 1:4 14:2 20:1 
-1 3:5 11:1 20:1 
-0.455029055178929 6:3 22:1 33:3 
-1 24:6 38:1 
-1 6:6 16:1 
-0.1584485737870633 9:1 22:6 
-1 6:1 29:6 
-0.7410567859518469 6:4 24:3 
-0.04550923190135892 6:1 28:6 
-1 6:3 9:3 19:1 
-1 14:4 28:2 29:1 
-1 6:4 22:3 
-1 3:1 8:1 33:5 
-1 6:1 7:1 28:5 
-1 18:7 
-1 8:4 14:3 
-0.5692018264772153 4:1 6:2 18:4 
-1 6:6 34:1 
-0.3649497748569194 16:1 24:5 36:1 
-1 3:3 4:2 14:1 33:1 
-1 8:2 14:1 35:4 
-0.02738179474518341 6:1 8:2 11:3 20:1 
-0.5966774545617137 5:2 8:1 14:3 34:1 
-1 4:1 8:1 14:3 20:1 33:1 
-0.1324037217355356 6:1 8:2 9:2 11:2 
-1 7:3 14:1 18:2 19:1 
-0.8791241370129517 16:7 
-0.3340659472482193 22:2 28:5 
-1 8:5 19:1 27:1 
-1 7:2 11:1 14:4 
-1 4:3 14:3 19:1 
-1 6:4 8:2 19:1 
-0.9638642693934839 3:1 6:1 14:2 19:1 31:2 
-1 8:3 16:3 19:1 
-0.5968310098566928 8:1 33:6 
-1 6:5 19:1 22:1 
-0.6059946428991416 6:2 16:2 22:2 36:1 
-1 4:2 6:2 19:3 
-1 3:2 14:2 15:1 29:1 33:1 
-1 3:2 6:2 20:2 35:1 
-1 6:3 21:2 35:2 
-1 6:1 8:3 19:3 
-1 8:1 28:6 
-1 6:1 8:2 28:4 
-0.858891620354613 6:1 7:1 8:1 20:4 
-1 6:2 18:1 20:1 29:3 
-0.9927518731279552 1:5 24:2 
-1 8:1 31:6 
-1 24:6 38:1 
-1 3:1 4:3 6:3 
-0.1568363286605927 6:1 28:6 
-0.8942684888671683 4:1 14:1 20:1 28:4 
-0.5972844385554229 16:1 24:5 35:1 
-0.09634029117436226 3:3 6:1 8:1 16:2 
-0.3093317522934921 6:1 8:1 11:3 13:1 15:1 
-0.04154257893174032 19:1 21:6 
-1 3:2 6:3 19:2 
-0.1548232646868814 6:1 33:6 
-0.7347702556104672 11:7 
-0.9092875012396838 4:1 6:2 7:1 27:2 33:1 
-0.5962659307779686 16:7 
-1 18:7 
-0.1678969219670432 4:1 7:1 8:1 20:3 29:1 
-0.9366517894307443 6:4 8:1 19:1 30:1 
-0.0176024114911359 6:2 34:3 35:2 
-1 6:2 20:2 31:3 
-1 3:1 6:1 8:2 18:3 
-1 8:2 26:5 
-0.309568124129963 8:5 20:1 36:1 
-1 16:1 19:3 31:1 33:2 
-0.03835293600780543 6:4 8:1 11:1 16:1 
-1 7:2 14:5 
-0.03828443121969322 8:4 11:2 29:1 
-0.893741929153566 8:1 28:6 
-1 14:5 22:1 34:1 
-1 14:2 28:5 
-0.3954945556863486 11:2 22:4 31:1 
-0.700805266892753 1:1 8:2 11:4 
-1 4:1 6:4 28:2 
-0.1313565089975159 6:5 8:1 19:1 
-0.09092689847481797 8:3 16:3 33:1 
-0.435113557905436 5:4 6:1 8:1 35:1 
-0.6255806312569215 3:1 6:5 20:1 
-1 3:2 14:4 19:1 
-0.4991710682964083 8:1 14:4 19:2 
-1 3:2 20:4 34:1 
-1 6:3 19:1 20:1 22:2 
-1 14:2 20:5 
-1 4:2 14:1 15:1 19:1 31:2 
-1 3:2 6:3 10:1 29:1 
-1 11:1 14:1 28:5 
-1 31:6 35:1 
-1 3:1 6:1 14:1 28:4 
-0.691809785906819 5:1 7:3 8:3 
-0.4623310735473656 11:5 14:2 
-0.7691453700295152 3:2 8:4 35:1 
-0.8088048120793475 8:4 12:3 
-1 3:2 8:2 11:2 35:1 
-1 3:2 6:2 11:1 20:1 33:1 
-1 6:1 8:2 28:4 
-1 11:1 14:2 19:3 28:1 
-0.1660321814671746 6:2 22:5 
-1 16:1 24:6 
-1 3:2 8:2 19:2 
-1 6:4 16:2 
-1 4:3 8:2 20:1 
-1 4:2 8:4 
-1 4:3 14:3 
-1 6:1 7:1 20:4 
-1 7:1 14:1 20:4 
-0.1754341016089777 1:2 8:1 11:1 35:2 
-0.3951718725208417 5:2 11:1 14:2 19:1 
-1 3:5 35:1 
-1 3:1 4:2 8:1 19:1 20:1 
-1 6:1 14:2 31:1 32:1 34:1 
-0.6555627284844474 3:1 7:2 8:1 18:1 19:1 
-0.2984201289178389 24:4 29:2 
-1 14:4 30:2 
-0.2364161699851399 6:2 8:1 18:1 20:2 
-0.5650558053592133 1:2 24:4 
-0.266389835900768 8:3 14:2 33:1 
-1 4:2 14:3 19:1 
-1 3:3 6:3 
-1 8:4 9:1 34:1 
-1 4:2 19:4 
-1 16:4 24:2 
-0.1762210092054487 6:3 8:2 11:1 
-1 6:2 14:4 
-1 3:3 8:2 19:1 
-0.2479157402344387 3:4 34:1 35:1 
-1 29:6 
-0.6995795448386408 1:2 4:1 8:1 11:1 19:1 
-1 4:2 14:2 19:1 33:1 
-1 14:2 28:4 
-1 4:1 8:2 11:1 19:1 33:1 
-0.1045557467901977 24:1 25:1 28:4 
-1 8:1 11:2 28:3 
-0.01165596832444141 11:6 
-1 6:2 8:2 19:2 
-0.2601663295751975 8:5 16:1 
-0.567474943429979 6:3 8:2 11:1 
-1 6:6 
-0.570856204116211 5:2 7:4 
-1 6:2 14:4 
-1 8:5 16:1 
-0.8750242168345853 5:2 8:3 11:1 
-0.6325660539936901 14:3 15:2 19:1 
-1 8:3 9:2 22:1 
-0.007724764772198496 3:1 6:4 19:1 
-1 4:2 8:4 
-0.639715392951883 3:2 8:2 14:1 19:1 
-1 14:4 19:1 22:1 
-1 6:1 21:5 
-1 3:2 6:4 
-0.7012489799142991 4:1 11:3 18:1 34:1 
-0.961628483000483 5:1 14:3 35:1 36:1 
-0.5061239197182331 6:6 
-0.193434640678641 19:2 24:3 25:1 
-0.8828997336907155 4:3 6:2 19:1 
-0.668972809684134 8:3 13:2 35:1 
-0.478296158837227 3:1 4:4 11:1 
-1 4:4 11:1 19:1 
-1 8:2 15:3 28:1 
-0.4993622939037304 4:2 24:4 
-1 7:1 8:2 14:1 28:2 
-1 3:3 6:1 19:2 
-1 4:1 8:1 11:2 14:2 
-1 6:3 16:2 21:1 
-0.8650121913560371 11:2 14:2 35:2 
-1 3:2 6:4 
-1 4:1 5:1 8:1 14:2 19:1 
-1 2:1 3:2 4:1 8:1 18:1 
-0.02643296557212858 3:1 11:1 20:2 28:1 35:1 
-0.215257501723905 8:2 19:3 20:1 
-1 6:1 8:2 28:3 
-0.2008157755410934 3:1 6:1 8:1 19:1 35:1 36:1 
-1 4:2 8:3 19:1 
-1 3:1 5:3 8:1 29:1 
-0.6543330600765532 6:2 8:3 14:1 
-1 16:2 19:1 22:1 24:2 
-0.2573137784881176 8:3 10:2 19:1 
-1 6:6 
-0.156318211418542 6:2 8:2 30:2 
-0.4980464132892695 6:2 7:1 11:1 30:2 
-0.2206841502994986 3:2 6:3 36:1 
-0.5936028211715518 1:1 8:2 11:3 
-1 14:3 28:3 
-0.5153471786854411 6:1 8:3 19:2 
-1 6:2 8:2 11:1 19:1 
-1 4:3 11:1 14:1 19:1 
-0.1692902310517741 3:4 24:2 
-0.8732928386029735 8:5 35:1 
-1 8:1 11:1 18:4 
-1 8:3 21:1 36:2 
-1 7:2 14:2 20:2 
-1 3:3 8:2 19:1 
-0.6086870930599404 8:2 14:3 36:1 
-0.297341143596274 6:1 14:2 20:3 
-1 4:2 8:2 11:2 
-1 11:3 19:1 24:1 28:1 
-0.3943546247329104 8:3 9:1 11:1 
-1 16:1 24:4 
-0.8176228841618525 16:3 19:2 
-1 35:4 36:1 
-0.9708354497932816 7:1 8:2 19:1 33:1 
-1 6:2 8:2 19:1 
-0.4443692200211622 6:2 11:2 19:1 
-1 4:1 20:3 33:1 
-0.9892535517600575 18:4 33:1 
-0.1089365202952413 11:4 39:1 
-1 1:1 19:2 24:1 28:1 
-1 8:3 35:2 
-0.415298034226976 4:1 5:1 8:3 
-0.7416978575479232 4:1 20:3 27:1 
-0.1605982579057006 29:2 35:3 
-0.4865986951093519 3:2 6:1 8:1 11:1 
-0.3013327099559577 6:3 16:2 
-0.04941495339128377 5:4 19:1 
-0.6030661304459369 6:2 20:2 34:1 
-1 8:2 11:2 28:1 
-1 6:3 28:2 
-0.6156242733796673 31:5 
-0.2318656901277775 8:3 18:2 
-0.416892450998837 4:1 5:2 8:2 
-1 5:3 19:2 
-1 4:1 8:1 20:2 29:1 
-1 16:2 19:3 
-0.7909959940609089 3:4 34:1 
-1 3:1 8:1 10:1 19:1 33:1 
-0.7591151537280187 3:3 23:1 35:1 
-1 6:2 8:2 19:1 
-1 9:3 28:2 
-1 4:2 14:2 22:1 
-1 3:3 8:1 19:1 
-1 4:2 8:1 11:1 31:1 
-1 8:2 18:1 19:2 
-1 6:4 34:1 
-1 1:2 3:1 8:1 14:1 
-1 5:1 8:2 19:2 
-0.1105787910101016 4:3 28:2 
-1 6:1 28:4 
-1 14:2 20:3 
-0.1898180850567615 24:3 35:2 
-1 6:2 8:2 19:1 
-1 6:3 20:1 28:1 
-1 3:1 14:2 20:1 22:1 
-0.1363918977614051 12:2 20:2 34:1 
-1 3:2 11:1 15:2 
-1 8:2 11:1 20:2 
-1 3:1 8:1 19:3 
-1 3:3 32:1 34:1 
-1 6:1 28:4 
-0.7894393483972021 4:3 6:1 26:1 
-0.6762091961152554 6:2 19:1 26:2 
-0.02649763130728306 8:3 10:2 
-1 3:1 11:3 14:1 
-0.02577844055863299 28:5 
-0.5722030801106415 6:2 20:1 36:2 
-1 6:3 20:2 
-1 8:4 35:1 
-0.8204846131924614 7:2 14:3 
-1 8:2 18:2 19:1 
-0.1857446310324412 14:2 15:2 19:1 
-1 6:2 31:3 
-0.2333674431779239 6:2 15:1 19:2 
-1 6:1 20:2 25:2 
-1 6:1 8:2 11:2 
-0.05501310149471338 8:2 33:1 34:2 
-1 4:1 10:2 19:2 
-1 3:2 19:3 
-1 6:4 31:1 
-0.5486228417017732 3:1 11:3 34:1 
-0.956096415694253 8:2 9:2 
-1 18:2 19:2 
-0.8191088682893757 28:4 
-0.4561146445508893 20:1 21:1 34:2 
-0.6234364657987708 14:2 28:2 
-1 6:1 8:1 9:1 19:1 
-1 28:4 
-1 6:2 21:2 
-1 6:1 11:1 20:2 
-0.05206531641196773 3:2 29:2 
-0.02992426962954511 2:2 6:1 34:1 
-1 8:3 9:1 
-0.3162839616430122 33:1 34:1 35:2 
-1 6:2 11:2 
-1 3:2 19:1 35:1 
-1 3:4 
-1 14:1 15:1 33:2 
-0.02983354096180814 9:1 24:3 
-0.340162124747748 14:3 35:1 
-1 28:4 
-1 6:2 20:2 
-0.8383468795619263 8:1 11:2 19:1 
-1 19:1 28:3 
-0.4648610427142209 33:2 34:2 
-0.3137438074356145 6:1 8:1 25:2 
-1 25:4 
-1 6:2 11:2 
-0.1334684541923598 14:1 24:3 
-1 4:3 19:1 
-1 3:2 8:1 19:1 
-1 28:4 
-0.5568927492905597 6:1 11:2 28:1 
-1 3:2 6:1 19:1 
-0.4992807038966588 8:2 11:1 14:1 
-0.9737298738078128 4:1 14:1 19:1 35:1 
-0.5698834932256243 6:2 24:2 
-1 6:2 24:2 
-0.9460035000011877 6:2 8:1 11:1 
-1 6:3 28:1 
-1 3:2 18:1 34:1 
-0.2624314645941394 18:3 19:1 
-1 8:1 33:2 35:1 
-0.1981680806707459 8:1 19:2 22:1 
-1 6:1 28:3 
-0.510321705582278 1:1 3:1 8:2 
-1 4:1 8:1 20:2 
-0.2227554064031361 6:1 8:2 28:1 
-1 6:2 8:1 11:1 
-1 3:2 6:1 18:1 
-1 19:3 28:1 
-1 3:2 8:1 19:1 
-1 3:2 6:1 19:1 
-0.3564892382160931 3:3 30:1 
-0.6203634359971132 6:2 8:2 
-1 11:1 14:2 22:1 
-0.4337326775620401 8:1 11:1 14:2 
-0.650784886418172 8:1 11:2 20:1 
-1 28:4 
-1 5:2 19:2 
-1 6:2 8:2 
-1 4:1 14:3 
-1 9:3 19:1 
-1 5:2 8:1 19:1 
-1 6:2 8:2 
-0.5088131659139361 5:1 8:2 19:1 
-1 8:1 11:1 14:2 
-1 6:2 8:1 11:1 
-1 14:2 19:1 22:1 
-0.127785855833591 8:3 33:1 
-1 5:1 11:1 19:1 28:1 
-1 18:3 20:1 
-1 28:4 
-1 35:4 
-1 8:1 15:1 20:2 
-1 4:1 14:3 
-1 4:1 20:3 
-1 6:1 8:2 28:1 
-1 5:1 8:2 19:1 
-0.1201325028794581 11:1 14:1 22:1 
-1 7:2 35:1 
-0.5542909694867724 6:1 20:2 
-1 4:1 20:2 
-1 6:2 21:1 
-0.007075514577187826 25:3 
-1 15:3 
-0.428421203245557 8:1 20:1 34:1 
-1 11:2 39:1 
-1 6:2 21:1 
-0.4567715110031331 8:2 9:1 
-1 14:2 32:1 
-1 1:1 8:2 
-0.01413662925534096 11:1 14:2 
-1 19:1 28:2 
-0.9335051539921898 1:1 8:2 
-1 11:2 39:1 
-1 14:2 31:1 
-0.7094423687766395 7:1 8:1 35:1 
-0.8910028055285295 10:3 
-1 2:1 20:2 
-0.015827956548378 6:1 8:2 
-1 21:1 28:2 
-1 14:2 31:1 
-0.6974667827912379 11:1 37:2 
-0.1571319176756822 25:3 
-0.1573427965983765 11:3 
-1 28:2 35:1 
-1 11:3 
-0.02520726096414566 11:1 14:2 
-0.0959043544551498 3:1 19:1 21:1 
-1 11:1 14:2 
-1 14:2 22:1 
-0.008210793296777031 6:1 8:2 
-1 7:1 8:1 35:1 
-1 20:2 34:1 
-0.5718119280159376 4:1 11:2 
-1 15:2 19:1 
-0.9927452065272626 11:3 
-1 4:1 11:1 19:1 
-0.8790438593699119 14:1 36:2 
-0.9940690901266294 11:3 
-1 8:2 9:1 
-0.4693224443427839 19:2 33:1 
-0.9950156470307203 11:3 
-1 8:1 25:2 
-0.242293102272488 8:3 
-0.3426831126677108 11:2 19:1 
-0.2575611057683073 8:3 
-1 19:2 22:1 
-0.48802816742904 8:3 
-1 8:3 
-1 8:3 
-1 8:3 
-1 8:3 
-1 6:1 20:2 
-1 8:3 
-1 15:3 
-1 8:3 
-1 8:3 
-0.5392864514955737 6:3 
-1 6:3 
-1 14:1 22:2 
-1 8:3 
-1 6:3 
-1 14:2 22:1 
-0.9466271605420896 6:3 
-0.2415888405844847 6:2 11:1 
-1 11:3 
-0.9593014994057802 11:2 19:1 
-0.5234024333391812 6:3 
-0.8123523048346912 6:1 8:2 
-1 3:2 19:1 
-0.2871350477298545 6:2 8:1 
-0.6751155360344819 24:3 
-1 24:3 
-0.1509538695644951 3:1 33:2 
-0.1535588511667492 6:3 
-0.1418812191841725 24:3 
-1 6:3 
-1 6:1 8:2 
-0.5841771158918571 6:1 24:2 
-1 6:1 8:2 
-1 6:3 
-1 8:3 
-0.01419008260527566 8:1 20:1 
-0.06675990426199729 24:2 
-0.1156744208616951 6:2 
-1 6:2 
-0.8084430558056953 8:2 
-1 11:2 
-0.8356939286351563 8:2 
-1 8:2 
-0.1815628294282119 24:2 
-0.3042303720874409 6:2 
-1 8:2 
-1 8:2 
-1 11:2 
-0.68432622637609 6:2 
-0.1207436888586606 24:2 
-1 8:2 
-1 8:2 
-1 8:2 
-0.3208699188149801 38:2 
-0.2575367158265218 26:2 
-0.03899499786747252 14:1 31:1 
-1 34:2 
-1 4:1 19:1 
-1 2:1 20:1 
-0.3820028848918594 14:1 31:1 
-0.3676029591376482 24:2 
-1 24:2 
-0.8020934842225875 6:2 
-0.7155905592844196 8:2 
-0.3029264789721725 26:2 
-0.2280081644846627 11:2 
-0.963100861988144 24:2 
-1 9:1 19:1 
-0.113420740917796 6:2 
-0.4764847425498453 8:2 
-1 6:2 
-1 24:2 
-1 20:2 
-1 4:1 19:1 
-1 8:2 
-1 6:2 
-0.01855780835315912 8:2 
-0.7317169426214812 20:2 
-0.1466245116745125 8:2 
-0.5382742975301281 11:2 
-0.694421867652847 24:2 
-0.9135278325186266 6:2 
-1 8:2 
-0.5630770697122647 8:1 20:1 
-1 8:2 
-1 24:2 
-1 24:2 
-1 24:2 
-1 24:2 
-0.3763592671656727 11:2 
-1 4:1 35:1 
-1 4:1 35:1 
-1 8:2 
-0.05661539603161855 24:2 
-0.5885572539595416 6:2 
-1 11:2 
-1 11:2 
-0.02731604103165312 24:2 
-1 8:2 
-0.6067321575210907 8:2 
-0.8360242014857542 11:2 
-0.01706933716325305 24:2 
-0.007772344380551018 11:2 
-0.9411596950777031 6:2 
-1 8:2 
-1 19:1 33:1 
-0.06943270508174797 19:1 34:1 
-0.9618905726469684 6:2 
-0.5973810535730494 8:2 
-1 6:2 
-1 6:2 
-1 8:2 
-0.2719318248636944 6:1 8:1 
-1 8:2 
-1 6:2 
-1 8:2 
-1 8:2 
-1 8:2 
-1 6:2 
-1 8:2 
-1 8:2 
-1 8:2 
-1 6:1 8:1 
-0.4995371191523108 24:2 
-1 8:2 
-1 6:1 8:1 
-1 8:2 
-1 6:2 
-1 6:1 8:1 
-1 24:2 
-1 8:2 
-1 8:2 
-1 6:1 8:1 
-1 6:2 
-1 19:1 28:1 
-1 6:2 
-1 6:2 
-1 24:2 
-1 6:2 
-1 6:2 
-1 24:2 
-1 24:2 
-1 24:2 
-0.3064313601435004 11:2 
-1 24:2 
-1 6:2 
-1 6:2 
-1 24:2 
-1 6:2 
-1 8:2 
-1 8:2 
-0.2159233750537637 6:1 
-1 6:1 
-0.1131232654023793 19:1 
-0.3176258646791143 19:1 
-1 19:1 
-0.2292451295535167 19:1 
-0.2047876486065554 33:1 
-0.6348188727044763 19:1 
-0.5772291659357385 6:1 
-1 6:1 
-0.1572596367334932 34:1 
-0.1548834979802086 19:1 
-1 19:1 
-0.1470238833556414 6:1 
-1 19:1 
-0.1066851425282112 34:1 
-0.0223116690124867 34:1 
-1 19:1 
-1 19:1 
-0.2184490829966022 19:1 
-0.2307738345282331 34:1 
-1 33:1 
-0.4650716103374879 6:1 
-0.8594343865998181 8:1 
-1 8:1 
-1 8:1 
-1 33:1 
-0.1258437971089132 34:1 
-0.4695988788475248 32:1 
-1 33:1 
-0.3237114262639749 8:1 
-1 8:1 
-0.5974145291979185 6:1 
-1 6:1 
-1 8:1 
-1 19:1 
-0.170139943316527 6:1 
-1 6:1 
-1 6:1 
-1 19:1 
-1 6:1 
-1 6:1 
-1 6:1 
-1 6:1 
-1 6:1 
-1 19:1 
-1 19:1 
-1 6:1 
-1 6:1 
-1 33:1 
-1 6:1 
-1 6:1 
-1 19:1 
-0.7859943879798285 14:1 
-1 6:1 
-1 6:1 
-1 6:1 
-1 6:1 
-1 14:1 
-1 6:1 
-1 6:1 
-1 14:1 
-1 14:1 
-1 6:1 
-1 6:1 
-1 6:1 
-1 6:1 
-1 6:1 
-1 6:1 
-1 6:1 
-1 6:1 
-1 6:1 
-1 14:1 
-1 6:1 
-1 19:1 
-1 
-1 
-1 
-1 
-1 
-1 
-1 
-1 
-1 
-1 
-1 
-1 
-1 
-1 
-1 
-1 
-1 
-1 
-1 
-1 
-1 
-1 
-1 
-1 
-1 
-1 
-1 
-1 
-1 
-1 
-1 
-1 
-1 
-1 
-1 
-1 
-1 
-1 
-1 
-1 
-1 
-1 
-1 
-1 
-1 
-1 
-1 
-1 
-1 
-1 
-1 
-1 
-1 
-1 
-0.2099511822261199 
-1 
-1 
-1 
-1 
-1 
-1 
-1 
-1 
-1 
-1 
-1 
-1 
-1 
-1 
-1 
-1 
-1 
-1 
-1 
-1 
-1 
-1 
-1 
-1 
-1 
-1 
-1 
-1 
-1 
-1 
-1 
-1 
-1 
-1 
-1 
-1 
-1 
-1 
-1 
-1 
-1 
-1 
-1 
-1 
-1 
-1 
-1 
