svm_type c_svc
kernel_type rbf
gamma 0.00142857
nr_class 2
total_sv 2231
rho 0.902533
label 1 0
nr_sv 907 1324
SV
1 50:1 88:1 106:1 147:1 320:1 324:1 358:1 417:1 464:1 677:3 678:1 679:3 681:1 682:36 683:1 684:-1 685:32 686:1 687:-1 688:-1 689:-1 690:-1 691:-1 692:-1 693:2 695:4 696:1 697:1 698:3 699:2 700:2 
1 148:1 358:1 382:1 418:1 677:3 678:1 679:3 681:2 682:-1 683:2 684:-1 685:42 686:1 687:4 688:4 689:4 690:1 691:4 692:8 693:1 695:4 696:1 697:1 698:3 699:2 700:-1 
1 50:1 54:1 88:1 147:1 320:1 361:1 417:1 677:3 678:1 679:3 681:1 682:55 683:2 684:-1 685:32.3 686:1 687:2 688:2 689:3 690:2 691:-1 692:8 693:1 695:3 696:1 697:2 698:-8 699:2 700:-1 
1 88:1 92:1 106:1 117:1 148:1 151:1 153:1 249:1 320:1 358:1 418:1 421:1 510:1 516:1 519:1 677:3 678:3 679:1 681:1 682:31 683:1 684:-1 685:31.6 686:1 687:3 688:3 689:3 690:1 691:3 692:9 693:2 695:4 696:1 697:1 698:-8 699:2 700:-1 
1 88:1 190:1 193:1 195:1 329:1 330:1 394:1 459:1 504:1 677:3 678:3 679:1 681:2 682:-1 683:1 684:-1 685:20.2 686:1 687:4 688:4 689:4 690:1 691:4 692:10 693:1 695:4 696:1 697:1 698:4 699:2 700:-1 
1 49:1 52:1 83:1 85:1 195:1 202:1 242:1 243:1 249:1 252:1 254:1 258:1 274:1 322:1 378:1 386:1 394:1 415:1 436:1 465:1 512:1 519:1 524:1 528:1 677:3 678:3 679:1 681:2 682:-1 683:2 684:-1 685:21.9 686:-9 687:4 688:4 689:3 690:1 691:4 692:8 693:1 695:4 696:1 697:1 698:4 699:2 700:-1 
1 39:1 49:1 50:1 90:1 91:1 117:1 190:1 194:1 202:1 320:1 361:1 366:1 383:1 387:1 472:1 677:3 678:3 679:1 681:1 682:61 683:1 684:-1 685:32.6 686:1 687:4 688:4 689:4 690:1 691:4 692:9 693:1 695:4 696:1 697:1 698:4 699:2 700:-1 
1 193:1 196:1 258:1 324:1 358:1 528:1 677:3 678:3 679:1 681:2 682:-1 683:1 684:-1 685:36.6 686:1 687:3 688:3 689:2 690:1 691:3 692:6 693:2 695:5 696:2 697:-1 698:-1 699:2 700:2 
1 25:1 152:1 246:1 295:1 386:1 433:1 677:3 678:3 679:1 681:2 682:-1 683:1 684:-1 685:25.5 686:1 687:4 688:4 689:4 690:1 691:4 692:10 693:1 695:3 696:1 697:1 698:4 699:2 700:-1 
1 151:1 190:1 322:1 377:1 421:1 460:1 677:3 678:1 679:3 681:2 682:-1 683:1 684:-1 685:19 686:-9 687:2 688:-9 689:-9 690:-9 691:-9 692:-9 693:-9 695:-9 696:1 697:1 698:4 699:2 700:2 
1 91:1 96:1 98:1 117:1 118:1 203:1 252:1 356:1 361:1 366:1 368:1 386:1 388:1 519:1 522:1 677:3 678:3 679:1 681:2 682:-1 683:1 684:-1 685:30.5 686:1 687:4 688:4 689:3 690:1 691:4 692:8 693:1 695:3 696:1 697:-8 698:2 699:2 700:-1 
1 4:1 6:1 7:1 60:1 112:1 127:1 275:1 276:1 277:1 401:1 464:1 677:3 678:3 679:1 681:2 682:-1 683:2 684:-1 685:22 686:1 687:3 688:3 689:2 690:1 691:2 692:8 693:1 695:5 696:1 697:2 698:4 699:2 700:-1 
1 201:1 351:1 471:1 677:3 678:1 679:3 681:-1 682:-1 683:1 685:-1 686:-1 687:-1 688:-1 689:-1 690:-1 691:-1 692:-1 693:-1 695:-1 696:1 697:1 698:3 699:2 700:-1 
1 190:1 192:1 195:1 242:1 246:1 344:1 349:1 419:1 462:1 465:1 512:1 519:1 677:3 678:3 679:1 681:2 682:-1 683:1 684:-1 685:26.3 686:1 687:2 688:2 689:2 690:1 691:2 692:5 693:1 695:5 696:1 697:1 698:4 699:2 700:2 
1 33:1 118:1 124:1 194:1 195:1 201:1 245:1 258:1 262:1 355:1 394:1 464:1 465:1 471:1 515:1 528:1 532:1 677:3 678:3 679:1 681:2 682:-1 683:1 684:-1 685:20.7 686:1 687:4 688:4 689:4 690:2 691:-1 692:10 693:1 695:1 696:1 697:1 698:4 699:2 700:2 
1 22:1 23:1 49:1 50:1 88:1 112:1 151:1 192:1 292:1 319:1 320:1 346:1 352:1 358:1 393:1 395:1 421:1 462:1 677:3 678:1 679:3 681:1 682:61 683:1 684:-1 685:45.4 686:1 687:4 688:4 689:4 690:1 691:4 692:10 693:1 695:5 696:1 697:1 698:4 699:2 700:2 
1 25:1 48:1 80:1 96:1 108:1 131:1 147:1 193:1 194:1 295:1 366:1 378:1 398:1 417:1 471:1 677:3 678:3 679:1 681:2 682:-1 683:1 684:-1 685:27 686:1 687:3 688:3 689:2 690:1 691:3 692:8 693:1 695:3 696:1 697:1 698:4 699:2 700:1 
1 50:1 91:1 249:1 419:1 677:3 678:3 679:1 681:1 682:57 683:1 684:-1 685:35.2 686:1 687:3 688:3 689:3 690:1 691:2 692:9 693:1 695:5 696:1 697:1 698:4 699:2 700:-1 
1 117:1 258:1 675:1 677:3 678:3 679:1 680:2 681:2 682:-1 683:2 684:-1 685:39.6 686:2 687:-1 688:-1 689:-1 690:-1 691:-1 692:-1 693:2 695:3 696:1 697:1 698:3 699:2 700:-1 
1 88:1 355:1 358:1 460:1 489:1 523:1 528:1 677:3 678:3 679:1 681:2 682:-1 683:1 684:-1 685:29.3 686:1 687:3 688:4 689:3 690:1 691:4 692:8 693:1 695:4 696:1 697:1 698:3 699:2 700:2 
1 50:1 54:1 55:1 88:1 91:1 147:1 194:1 320:1 324:1 325:1 335:1 347:1 351:1 358:1 360:1 361:1 417:1 423:1 460:1 677:3 678:3 679:1 681:2 682:-1 683:1 684:-1 685:22.2 686:1 687:3 688:3 689:3 690:1 691:3 692:8 693:1 695:4 696:1 697:1 698:4 699:2 700:2 
1 83:1 110:1 124:1 164:1 186:1 195:1 324:1 401:1 419:1 455:1 464:1 465:1 471:1 511:1 515:1 677:3 678:3 679:1 681:2 682:-1 683:2 684:-1 685:22.9 686:1 687:4 688:4 689:4 690:1 691:3 692:8 693:1 695:3 696:1 697:1 698:3 699:2 700:-1 
1 15:1 49:1 54:1 79:1 88:1 151:1 194:1 252:1 258:1 285:1 319:1 324:1 358:1 421:1 464:1 519:1 522:1 528:1 677:1 678:3 679:3 681:2 682:-1 683:1 684:-1 685:34.9 686:1 687:2 688:1 689:1 690:1 691:1 692:-9 693:1 695:5 696:1 697:1 698:2 699:2 700:-1 
1 5:1 24:1 37:1 59:1 84:1 88:1 96:1 108:1 123:1 150:1 275:1 294:1 307:1 329:1 354:1 355:1 358:1 361:1 366:1 378:1 388:1 393:1 420:1 421:1 519:1 677:3 678:3 679:1 681:2 682:-1 683:1 684:-1 685:25.1 686:1 687:3 688:3 689:3 690:1 691:3 692:8 693:1 695:4 696:1 697:1 698:3 699:2 700:1 
1 45:1 50:1 76:1 81:1 85:1 96:1 124:1 157:1 190:1 249:1 315:1 320:1 346:1 351:1 355:1 361:1 366:1 427:1 460:1 677:3 678:3 679:3 681:1 682:63 683:1 684:-1 685:38.7 686:1 687:3 688:4 689:3 690:1 691:4 692:9 693:1 695:3 696:1 697:1 698:4 699:2 700:1 
1 47:1 48:1 54:1 79:1 83:1 118:1 223:1 318:1 388:1 493:1 677:3 678:3 679:1 681:2 682:-1 683:1 684:-1 685:24.4 686:-1 687:-1 688:-1 689:-1 690:-1 691:-1 692:-1 693:-1 695:-1 696:1 697:1 698:4 699:1 700:-1 
1 124:1 195:1 221:1 275:1 464:1 465:1 491:1 677:3 678:3 679:1 681:2 682:-1 683:2 684:-1 685:28 686:1 687:3 688:4 689:4 690:2 691:-1 692:10 693:1 695:5 696:1 697:1 698:2 699:2 700:2 
1 50:1 90:1 94:1 125:1 149:1 194:1 195:1 201:1 249:1 320:1 355:1 360:1 364:1 395:1 426:1 464:1 465:1 471:1 519:1 677:3 678:3 679:1 681:1 682:53 683:1 684:-1 685:40.7 686:1 687:-9 688:-9 689:2 690:1 691:3 692:8 693:1 695:3 696:1 697:2 698:4 699:2 700:2 
1 45:1 82:1 107:1 110:1 116:1 124:1 190:1 192:1 215:1 355:1 362:1 462:1 471:1 485:1 677:3 678:3 679:1 681:2 682:-1 683:1 684:-1 685:37.5 686:1 687:4 688:4 689:4 690:1 691:4 692:8 693:1 695:4 696:1 697:1 698:4 699:2 700:-1 
1 50:1 76:1 77:1 112:1 130:1 190:1 320:1 346:1 347:1 355:1 366:1 460:1 471:1 677:3 678:3 679:1 681:1 682:21 683:1 684:-1 685:52.7 686:1 687:3 688:4 689:3 690:1 691:-9 692:7 693:1 695:3 696:1 697:1 698:4 699:2 700:-9 
1 24:1 49:1 60:1 79:1 82:1 85:1 117:1 118:1 124:1 190:1 220:1 249:1 252:1 258:1 319:1 324:1 330:1 349:1 352:1 354:1 355:1 388:1 394:1 398:1 460:1 493:1 515:1 519:1 522:1 528:1 677:3 678:3 679:1 681:2 682:-1 683:1 684:-1 685:21.9 686:1 687:2 688:2 689:1 690:1 691:1 692:4 693:1 695:4 696:1 697:1 698:3 699:2 700:2 
1 50:1 226:1 275:1 320:1 322:1 324:1 358:1 381:1 464:1 504:1 519:1 677:3 678:3 679:1 681:1 682:39 683:1 684:-1 685:68 686:1 687:3 688:3 689:2 690:1 691:3 692:7 693:1 695:3 696:1 697:1 698:4 699:1 700:2 
1 34:1 85:1 194:1 258:1 275:1 304:1 314:1 324:1 346:1 382:1 384:1 464:1 528:1 677:3 678:3 679:1 681:1 682:49 683:1 684:-1 685:40.7 686:1 687:4 688:4 689:4 690:1 691:4 692:9 693:1 695:2 696:1 697:1 698:4 699:2 700:-1 
1 54:1 91:1 99:1 107:1 131:1 194:1 201:1 324:1 330:1 355:1 361:1 377:1 426:1 464:1 677:3 678:3 679:1 681:2 682:-1 683:1 684:-1 685:24.2 686:1 687:4 688:4 689:4 690:1 691:3 692:9 693:1 695:3 696:1 697:1 698:3 699:2 700:1 
1 50:1 91:1 147:1 194:1 195:1 198:1 249:1 320:1 324:1 358:1 361:1 370:1 398:1 417:1 464:1 465:1 468:1 475:1 519:1 677:3 678:3 679:1 681:1 682:30 683:1 684:-1 685:33.3 686:1 687:4 688:4 689:4 690:1 691:4 692:8 693:1 695:4 696:1 697:1 698:4 699:2 700:1 
1 24:1 39:1 294:1 309:1 471:1 498:1 677:3 678:3 679:1 681:2 682:-1 683:1 684:-1 685:29.5 686:1 687:4 688:4 689:4 690:1 691:4 692:8 693:1 695:3 696:1 697:1 698:4 699:2 700:2 
1 5:1 24:1 30:1 49:1 77:1 81:1 226:1 275:1 294:1 300:1 303:1 319:1 342:1 347:1 348:1 354:1 369:1 464:1 503:1 504:1 505:1 677:3 678:3 679:1 681:2 682:-1 683:1 684:-1 685:19 686:1 687:3 688:4 689:3 690:1 691:3 692:8 693:1 695:3 696:1 697:2 698:2 699:2 700:1 
1 24:1 49:1 73:1 77:1 88:1 133:1 153:1 193:1 234:1 249:1 254:1 275:1 319:1 343:1 347:1 354:1 358:1 463:1 528:1 677:3 678:3 679:1 681:2 682:-1 683:2 684:-1 685:21.5 686:1 687:3 688:3 689:3 690:1 691:3 692:8 693:1 695:3 696:1 697:2 698:2 699:2 700:-1 
1 63:1 675:2 677:3 678:1 679:3 680:3 681:2 682:-1 683:1 684:-1 685:36.6 686:2 687:-1 688:-1 689:-1 690:-1 691:-1 692:-1 693:2 695:4 696:1 697:1 698:3 699:2 700:-1 
1 48:1 126:1 131:1 145:1 194:1 195:1 202:1 222:1 396:1 398:1 464:1 465:1 491:1 532:1 677:3 678:3 679:1 681:2 682:-1 683:2 684:-1 685:37.2 686:1 687:3 688:3 689:3 690:1 691:3 692:5 693:1 695:3 696:1 697:1 698:3 699:2 700:-1 
1 50:1 88:1 194:1 248:1 260:1 368:1 417:1 519:1 530:1 677:3 678:1 679:3 681:1 682:38 683:2 684:-1 685:41 686:1 687:4 688:4 689:4 690:2 691:-1 692:9 693:1 695:3 696:1 697:1 698:4 699:2 700:-1 
1 24:1 116:1 124:1 187:1 190:1 193:1 215:1 243:1 294:1 380:1 386:1 394:1 395:1 460:1 463:1 465:1 513:1 515:1 677:3 678:3 679:1 681:2 682:-1 683:1 684:-1 685:-9 686:-1 687:-1 688:-1 689:-1 690:-1 691:-1 692:-1 693:-1 695:-1 696:1 697:1 698:4 699:2 700:-1 
1 74:1 92:1 96:1 116:1 234:1 252:1 258:1 315:1 366:1 386:1 504:1 528:1 677:3 678:3 679:1 681:2 682:-1 683:1 684:-1 685:16 686:1 687:4 688:4 689:4 690:1 691:4 692:5 693:1 695:4 696:1 697:1 698:3 699:2 700:-1 
1 88:1 123:1 131:1 190:1 195:1 201:1 245:1 252:1 358:1 366:1 394:1 460:1 464:1 465:1 471:1 515:1 519:1 522:1 677:3 678:1 679:3 681:2 682:-1 683:1 684:-1 685:38.4 686:1 687:4 688:4 689:3 690:1 691:4 692:9 693:2 695:4 696:1 697:1 698:4 699:2 700:2 
1 9:1 50:1 81:1 83:1 88:1 96:1 117:1 124:1 194:1 195:1 278:1 279:1 320:1 324:1 335:1 341:1 343:1 351:1 353:1 356:1 366:1 387:1 388:1 393:1 394:1 415:1 465:1 677:3 678:3 679:1 681:1 682:60 683:1 684:-1 685:23.9 686:1 687:4 688:4 689:3 690:1 691:4 692:9 693:1 695:3 696:1 697:1 698:4 699:2 700:2 
1 88:1 96:1 145:1 192:1 258:1 320:1 324:1 330:1 355:1 462:1 677:3 678:1 679:3 681:1 682:48 683:1 684:-1 685:26.8 686:1 687:4 688:4 689:3 690:1 691:3 692:8 693:1 695:4 696:1 697:1 698:4 699:2 700:-1 
1 147:1 152:1 417:1 419:1 422:1 490:1 504:1 515:1 677:3 678:3 679:1 681:2 682:-1 683:1 684:-1 685:20.8 686:1 687:-9 688:4 689:4 690:1 691:4 692:9 693:1 695:2 696:1 697:2 698:3 699:2 700:-1 
1 195:1 465:1 489:1 677:3 678:3 679:1 681:2 682:-1 683:2 684:-1 685:23.1 686:1 687:2 688:2 689:2 690:1 691:3 692:4 693:1 695:3 696:1 697:1 698:4 699:2 700:-1 
1 25:1 54:1 70:1 76:1 128:1 149:1 202:1 295:1 324:1 340:1 346:1 393:1 398:1 423:1 464:1 677:3 678:3 679:1 681:2 682:-1 683:1 684:-1 685:23.3 686:1 687:4 688:4 689:3 690:1 691:4 692:10 693:1 695:3 696:1 697:2 698:4 699:2 700:2 
1 50:1 88:1 91:1 117:1 118:1 128:1 194:1 195:1 320:1 358:1 362:1 387:1 388:1 390:1 464:1 465:1 519:1 677:1 678:3 679:3 681:1 682:35 683:2 684:-1 685:33.6 686:1 687:4 688:4 689:3 690:1 691:4 692:9 693:1 695:5 696:1 697:1 698:3 699:2 700:-9 
1 8:1 78:1 88:1 91:1 95:1 188:1 190:1 194:1 320:1 324:1 346:1 348:1 358:1 361:1 365:1 369:1 458:1 677:3 678:1 679:3 681:1 682:72 683:1 684:-1 685:22.2 686:1 687:3 688:4 689:4 690:2 691:-1 692:10 693:2 695:4 696:1 697:1 698:4 699:2 700:2 
1 80:1 112:1 117:1 190:1 350:1 393:1 460:1 464:1 677:1 678:3 679:3 681:2 682:-1 683:1 684:-1 685:17.2 686:1 687:4 688:4 689:4 690:1 691:4 692:8 693:1 695:4 696:1 697:1 698:4 699:2 700:1 
1 50:1 139:1 186:1 295:1 320:1 355:1 377:1 456:1 465:1 519:1 677:3 678:3 679:1 681:1 682:27 683:1 684:-1 685:42.8 686:1 687:4 688:4 689:3 690:1 691:4 692:8 693:1 695:3 696:1 697:1 698:4 699:2 700:-1 
1 253:1 258:1 519:1 523:1 528:1 677:3 678:1 679:3 681:-1 682:-1 683:2 684:2 685:-1 686:-1 687:-1 688:-1 689:-1 690:-1 691:-1 692:-1 693:-1 695:-1 696:1 697:1 698:4 699:2 700:-1 
1 93:1 194:1 222:1 226:1 355:1 358:1 363:1 374:1 381:1 388:1 391:1 464:1 492:1 496:1 677:3 678:3 679:1 681:2 682:-1 683:1 684:-1 685:71.9 686:1 687:3 688:2 689:3 690:1 691:3 692:7 693:1 695:4 696:1 697:1 698:4 699:1 700:2 
1 50:1 54:1 98:1 252:1 258:1 320:1 368:1 387:1 388:1 464:1 522:1 528:1 677:3 678:3 679:1 681:1 682:42 683:1 684:-1 685:41.3 686:1 687:4 688:4 689:4 690:1 691:4 692:10 693:1 695:3 696:1 697:1 698:4 699:2 700:-1 
1 144:1 192:1 220:1 252:1 258:1 414:1 462:1 464:1 515:1 522:1 528:1 677:3 678:3 679:1 681:2 682:-1 683:1 684:-1 685:25 686:1 687:4 688:4 689:4 690:1 691:4 692:10 693:1 695:3 696:1 697:1 698:4 699:2 700:-1 
1 50:1 54:1 77:1 88:1 91:1 96:1 320:1 347:1 366:1 677:3 678:3 679:1 681:1 682:84 683:1 684:-1 685:22.7 686:1 687:3 688:3 689:3 690:1 691:3 692:9 693:1 695:3 696:1 697:2 698:3 699:2 700:1 
1 74:1 79:1 85:1 153:1 194:1 319:1 423:1 464:1 471:1 677:3 678:3 679:1 681:2 682:-1 683:1 684:-1 685:24.9 686:1 687:4 688:4 689:4 690:1 691:4 692:10 693:1 695:2 696:1 697:1 698:-8 699:2 700:1 
1 48:1 88:1 91:1 116:1 318:1 352:1 358:1 361:1 363:1 386:1 412:1 421:1 677:3 678:3 679:1 681:1 682:58 683:1 684:-1 685:35.8 686:1 687:4 688:4 689:4 690:1 691:4 692:10 693:1 695:4 696:1 697:1 698:4 699:2 700:2 
1 124:1 253:1 258:1 394:1 519:1 523:1 528:1 677:3 678:3 679:1 681:-1 682:-1 683:1 684:3 685:-1 686:-1 687:-1 688:-1 689:-1 690:-1 691:-1 692:-1 693:-1 695:-1 696:1 697:1 698:3 699:1 700:-1 
1 12:1 20:1 96:1 117:1 194:1 234:1 282:1 290:1 387:1 464:1 677:3 678:3 679:1 681:2 682:-1 683:1 684:-1 685:24.2 686:1 687:4 688:4 689:4 690:1 691:4 692:9 693:1 695:2 696:2 697:-1 698:-1 699:2 700:1 
1 54:1 85:1 126:1 149:1 153:1 190:1 195:1 198:1 201:1 320:1 324:1 355:1 386:1 419:1 423:1 465:1 489:1 511:1 677:3 678:3 679:1 681:2 682:-1 683:1 684:-1 685:44.4 686:1 687:3 688:3 689:3 690:1 691:3 692:8 693:1 695:4 696:1 697:1 698:4 699:2 700:2 
1 108:1 117:1 133:1 136:1 195:1 201:1 387:1 415:1 465:1 471:1 677:3 678:3 679:1 681:2 682:-1 683:1 684:-1 685:22.4 686:1 687:3 688:4 689:4 690:1 691:4 692:10 693:1 695:3 696:1 697:2 698:4 699:2 700:2 
1 78:1 81:1 85:1 88:1 91:1 96:1 194:1 201:1 235:1 324:1 358:1 361:1 366:1 398:1 464:1 489:1 677:3 678:3 679:1 681:2 682:-1 683:1 684:-1 685:25.8 686:2 687:4 688:4 689:4 690:1 691:-9 692:10 693:1 695:2 696:1 697:1 698:4 699:2 700:1 
1 45:1 54:1 81:1 123:1 128:1 131:1 315:1 320:1 324:1 349:1 351:1 358:1 393:1 398:1 460:1 677:3 678:3 679:1 681:1 682:68 683:1 684:-1 685:26.9 686:1 687:4 688:4 689:4 690:1 691:4 692:10 693:1 695:3 696:1 697:2 698:-8 699:2 700:1 
1 25:1 295:1 516:1 677:3 678:3 679:3 681:2 682:-1 683:1 684:-1 685:32.8 686:-1 687:-1 688:-1 689:-1 690:-1 691:-1 692:-1 693:-1 695:-1 696:1 697:1 698:4 699:2 700:2 
1 50:1 54:1 88:1 91:1 99:1 106:1 246:1 252:1 320:1 324:1 356:1 358:1 361:1 376:1 522:1 677:3 678:3 679:1 681:1 682:42 683:2 684:-1 685:45.8 686:1 687:3 688:4 689:3 690:1 691:4 692:9 693:1 695:5 696:1 697:1 698:4 699:1 700:-1 
1 88:1 149:1 201:1 258:1 358:1 395:1 460:1 499:1 528:1 677:3 678:3 679:1 681:2 682:-1 683:1 684:-1 685:40.2 686:1 687:3 688:2 689:2 690:1 691:3 692:8 693:1 695:3 696:1 697:2 698:2 699:2 700:-1 
1 48:1 50:1 54:1 81:1 88:1 147:1 148:1 318:1 320:1 321:1 324:1 354:1 358:1 417:1 418:1 677:3 678:1 679:3 681:1 682:52 683:1 684:-1 685:25.3 686:1 687:4 688:4 689:4 690:1 691:4 692:9 693:1 695:3 696:1 697:1 698:3 699:2 700:1 
1 48:1 49:1 54:1 88:1 193:1 195:1 222:1 228:1 249:1 252:1 258:1 319:1 324:1 358:1 463:1 465:1 492:1 498:1 519:1 522:1 528:1 677:3 678:3 679:1 681:2 682:-1 683:1 684:-1 685:20.2 686:1 687:4 688:4 689:3 690:1 691:3 692:9 693:1 695:4 696:1 697:1 698:4 699:2 700:1 
1 50:1 54:1 188:1 193:1 249:1 258:1 344:1 522:1 528:1 677:3 678:3 679:1 681:1 682:54 683:1 684:-1 685:54.6 686:1 687:3 688:3 689:3 690:1 691:3 692:5 693:1 695:5 696:1 697:1 698:3 699:2 700:-1 
1 25:1 48:1 50:1 88:1 124:1 295:1 320:1 324:1 358:1 394:1 398:1 435:1 519:1 677:3 678:3 679:1 681:1 682:50 683:1 684:-1 685:43.9 686:1 687:3 688:4 689:-9 690:1 691:3 692:8 693:1 695:3 696:1 697:1 698:4 699:2 700:2 
1 82:1 116:1 118:1 124:1 229:1 253:1 352:1 386:1 388:1 397:1 499:1 523:1 677:3 678:3 679:1 681:-1 682:-1 683:2 685:-1 686:-1 687:-1 688:-1 689:-1 690:-1 691:-1 692:-1 693:-1 695:-1 696:1 697:1 698:4 699:2 700:-1 
1 31:1 193:1 245:1 253:1 276:1 324:1 358:1 395:1 463:1 464:1 465:1 519:1 523:1 677:3 678:3 679:1 681:2 682:-1 683:1 684:-1 685:19.4 686:1 687:3 688:3 689:3 690:1 691:1 692:8 693:1 695:5 696:1 697:1 698:4 699:2 700:-1 
1 23:1 24:1 79:1 88:1 107:1 225:1 249:1 293:1 330:1 358:1 377:1 386:1 677:3 678:3 679:1 681:2 682:-1 683:1 684:-1 685:24.6 686:1 687:4 688:4 689:3 690:1 691:4 692:8 693:1 695:4 696:1 697:2 698:4 699:2 700:2 
1 48:1 54:1 88:1 90:1 91:1 99:1 102:1 149:1 249:1 318:1 361:1 369:1 374:1 377:1 386:1 387:1 393:1 419:1 495:1 515:1 518:1 519:1 677:3 678:3 679:1 681:2 682:-1 683:1 684:-1 685:31.6 686:1 687:3 688:3 689:3 690:1 691:4 692:8 693:1 695:4 696:1 697:1 698:4 699:2 700:1 
1 54:1 76:1 88:1 192:1 346:1 358:1 375:1 462:1 677:3 678:3 679:2 681:2 682:-1 683:1 684:-1 685:38.4 686:1 687:3 688:3 689:3 690:1 691:3 692:8 693:1 695:3 696:1 697:1 698:4 699:2 700:1 
1 50:1 54:1 74:1 81:1 88:1 91:1 187:1 190:1 194:1 222:1 319:1 320:1 324:1 344:1 351:1 358:1 361:1 369:1 427:1 471:1 677:3 678:1 679:3 681:1 682:71 683:1 684:-1 685:32 686:1 687:4 688:4 689:4 690:1 691:4 692:8 693:1 695:4 696:1 697:1 698:4 699:2 700:-1 
1 30:1 33:1 78:1 136:1 187:1 195:1 348:1 398:1 406:1 415:1 464:1 465:1 471:1 677:3 678:3 679:1 681:2 682:-1 683:1 684:-1 685:25.6 686:1 687:3 688:3 689:4 690:1 691:3 692:9 693:1 695:3 696:1 697:2 698:4 699:2 700:2 
1 8:1 71:1 88:1 91:1 104:1 195:1 200:1 325:1 355:1 374:1 419:1 422:1 464:1 465:1 470:1 496:1 498:1 677:3 678:3 679:1 681:2 682:-1 683:1 684:-1 685:26.2 686:1 687:3 688:3 689:3 690:1 691:3 692:9 693:1 695:5 696:1 697:1 698:4 699:2 700:-1 
1 50:1 76:1 77:1 91:1 126:1 147:1 216:1 319:1 320:1 361:1 417:1 677:3 678:3 679:1 681:1 682:50 683:1 684:-1 685:36.8 686:1 687:4 688:4 689:2 690:1 691:3 692:7 693:1 695:4 696:1 697:2 698:1 699:2 700:2 
1 88:1 195:1 245:1 252:1 364:1 401:1 463:1 465:1 515:1 522:1 528:1 677:3 678:3 679:1 681:2 682:-1 683:2 684:-1 685:25 686:1 687:3 688:3 689:3 690:1 691:3 692:7 693:1 695:4 696:1 697:-8 698:-8 699:2 700:-1 
1 53:1 88:1 117:1 187:1 190:1 193:1 194:1 201:1 228:1 323:1 358:1 366:1 386:1 464:1 471:1 498:1 677:3 678:3 679:1 681:2 682:-1 683:1 684:-1 685:25.4 686:1 687:3 688:4 689:4 690:1 691:4 692:9 693:1 695:3 696:1 697:1 698:4 699:2 700:1 
1 20:1 54:1 117:1 118:1 195:1 290:1 324:1 358:1 362:1 387:1 388:1 465:1 528:1 677:3 678:1 679:3 681:2 682:-1 683:1 684:-1 685:33.9 686:1 687:4 688:4 689:3 690:1 691:4 692:6 693:1 695:4 696:1 697:1 698:3 699:2 700:1 
1 54:1 82:1 88:1 116:1 117:1 128:1 192:1 200:1 222:1 249:1 258:1 324:1 352:1 358:1 360:1 386:1 387:1 398:1 462:1 470:1 471:1 528:1 677:3 678:1 679:3 681:2 682:-1 683:1 684:-1 685:45.2 686:1 687:4 688:4 689:4 690:1 691:3 692:9 693:1 695:5 696:1 697:1 698:2 699:2 700:-1 
1 127:1 258:1 397:1 496:1 528:1 677:3 678:3 679:1 681:-1 682:-1 683:2 684:2 685:-1 686:-1 687:-1 688:-1 689:-1 690:-1 691:-1 692:-1 693:-1 695:-1 696:1 697:1 698:4 699:2 700:-1 
1 48:1 88:1 118:1 133:1 195:1 241:1 258:1 318:1 326:1 330:1 358:1 388:1 403:1 511:1 528:1 677:3 678:1 679:3 681:2 682:-1 683:1 684:-1 685:30.8 686:1 687:4 688:4 689:4 690:1 691:4 692:6 693:1 695:5 696:1 697:1 698:3 699:2 700:-1 
1 118:1 165:1 192:1 201:1 222:1 258:1 309:1 388:1 435:1 458:1 462:1 471:1 528:1 677:3 678:2 679:3 681:2 682:-1 683:1 684:-1 685:30 686:2 687:2 688:4 689:2 690:1 691:3 692:8 693:1 695:4 696:2 697:-1 698:-1 699:2 700:-1 
1 80:1 83:1 88:1 106:1 123:1 215:1 229:1 249:1 252:1 294:1 350:1 358:1 361:1 458:1 485:1 499:1 519:1 522:1 677:3 678:3 679:1 681:2 682:-1 683:2 684:-1 685:33.4 686:1 687:4 688:3 689:4 690:1 691:4 692:9 693:1 695:5 696:1 697:1 698:1 699:2 700:2 
1 85:1 117:1 195:1 201:1 258:1 262:1 464:1 465:1 471:1 522:1 528:1 677:3 678:3 679:1 681:2 682:-1 683:1 684:-1 685:34.7 686:1 687:4 688:4 689:3 690:1 691:4 692:7 693:1 695:4 696:1 697:1 698:4 699:2 700:-1 
1 117:1 131:1 139:1 194:1 252:1 258:1 382:1 401:1 405:1 419:1 464:1 522:1 528:1 677:3 678:3 679:1 681:2 682:-1 683:2 684:-1 685:27.4 686:1 687:3 688:2 689:3 690:1 691:3 692:8 693:1 695:4 696:1 697:1 698:3 699:2 700:2 
1 5:1 74:1 79:1 82:1 84:1 194:1 354:1 434:1 677:3 678:3 679:1 681:2 682:-1 683:1 684:-1 685:25.1 686:1 687:3 688:3 689:2 690:1 691:3 692:9 693:1 695:2 696:1 697:1 698:4 699:2 700:-1 
1 134:1 186:1 194:1 220:1 350:1 388:1 404:1 456:1 677:3 678:3 679:1 681:2 682:-1 683:1 684:-1 685:22.4 686:1 687:4 688:4 689:3 690:1 691:4 692:10 693:1 695:3 696:1 697:1 698:3 699:2 700:-1 
1 25:1 162:1 295:1 316:1 394:1 465:1 677:3 678:3 679:1 681:2 682:-1 683:1 684:-1 685:25 686:1 687:4 688:4 689:4 690:1 691:4 692:10 693:1 695:2 696:2 697:-1 698:-1 699:2 700:-1 
1 76:1 82:1 88:1 123:1 136:1 149:1 151:1 190:1 194:1 243:1 346:1 352:1 358:1 387:1 419:1 460:1 504:1 513:1 677:3 678:3 679:1 681:2 682:-1 683:1 684:-1 685:20.5 686:1 687:4 688:4 689:4 690:1 691:4 692:10 693:1 695:4 696:1 697:1 698:-8 699:2 700:1 
1 54:1 85:1 194:1 201:1 224:1 324:1 326:1 355:1 387:1 464:1 471:1 515:1 677:3 678:3 679:1 681:2 682:-1 683:1 684:-1 685:38.6 686:1 687:3 688:3 689:2 690:1 691:3 692:6 693:1 695:4 696:1 697:1 698:4 699:1 700:-1 
1 24:1 30:1 81:1 123:1 195:1 201:1 300:1 351:1 358:1 465:1 471:1 492:1 524:1 677:3 678:3 679:1 681:2 682:-1 683:1 684:-1 685:32.3 686:2 687:-1 688:-1 689:-1 690:-1 691:-1 692:-1 693:1 695:3 696:1 697:1 698:4 699:2 700:-1 
1 116:1 128:1 190:1 195:1 275:1 386:1 401:1 464:1 465:1 677:3 678:3 679:1 681:2 682:-1 683:2 684:-1 685:19.9 686:1 687:4 688:4 689:4 690:1 691:4 692:9 693:1 695:2 696:1 697:1 698:4 699:2 700:-1 
1 78:1 81:1 112:1 123:1 151:1 192:1 200:1 249:1 258:1 348:1 351:1 362:1 393:1 397:1 400:1 406:1 421:1 462:1 464:1 470:1 471:1 519:1 677:3 678:3 679:1 681:1 682:64 683:1 684:-1 685:31 686:1 687:3 688:4 689:3 690:1 691:3 692:-9 693:-9 695:5 696:1 697:1 698:4 699:2 700:-1 
1 49:1 53:1 54:1 252:1 258:1 319:1 324:1 344:1 386:1 388:1 464:1 528:1 677:1 678:3 679:3 681:2 682:-1 683:1 684:-1 685:24.2 686:-9 687:-9 688:-9 689:-9 690:-9 691:-9 692:-9 693:1 695:4 696:1 697:1 698:3 699:2 700:-1 
1 50:1 84:1 92:1 112:1 117:1 191:1 192:1 201:1 354:1 355:1 362:1 366:1 387:1 393:1 461:1 462:1 463:1 464:1 471:1 519:1 677:3 678:1 679:3 681:2 682:-1 683:2 684:-1 685:33.3 686:1 687:-9 688:-9 689:-9 690:-9 691:-9 692:-9 693:1 695:5 696:1 697:1 698:-8 699:2 700:-1 
1 54:1 201:1 294:1 346:1 354:1 355:1 465:1 516:1 677:3 678:3 679:1 681:2 682:-1 683:1 684:-1 685:29.8 686:-1 687:-1 688:-1 689:-1 690:-1 691:-1 692:-1 693:-1 695:-1 696:1 697:1 698:-8 699:2 700:2 
1 24:1 86:1 124:1 154:1 192:1 215:1 294:1 356:1 358:1 393:1 462:1 485:1 677:3 678:3 679:1 681:2 682:-1 683:1 684:-1 685:27.5 686:1 687:4 688:4 689:4 690:1 691:4 692:10 693:1 695:2 696:1 697:1 698:4 699:2 700:1 
1 8:1 39:1 99:1 309:1 369:1 372:1 377:1 504:1 519:1 677:3 678:3 679:1 681:2 682:-1 683:1 684:-1 685:23 686:1 687:2 688:3 689:3 690:1 691:3 692:8 693:-9 695:-9 696:1 697:1 698:4 699:2 700:1 
1 9:1 59:1 85:1 236:1 329:1 352:1 355:1 506:1 677:3 678:3 679:1 681:-1 682:-1 683:2 684:-1 685:-1 686:-1 687:-1 688:-1 689:-1 690:-1 691:-1 692:-1 693:-1 695:-1 696:1 697:1 698:4 699:2 700:-1 
1 74:1 81:1 85:1 91:1 165:1 190:1 249:1 344:1 351:1 355:1 361:1 366:1 386:1 427:1 457:1 512:1 516:1 677:3 678:3 679:1 681:2 682:-1 683:1 684:-1 685:-9 686:1 687:3 688:3 689:4 690:1 691:4 692:8 693:1 695:3 696:1 697:-8 698:-8 699:2 700:1 
1 79:1 88:1 90:1 94:1 124:1 156:1 194:1 195:1 234:1 249:1 258:1 426:1 465:1 471:1 504:1 528:1 677:3 678:1 679:3 681:2 682:-1 683:1 684:-1 685:27.3 686:1 687:2 688:2 689:2 690:1 691:2 692:7 693:1 695:3 696:1 697:1 698:4 699:2 700:1 
1 54:1 63:1 70:1 76:1 188:1 320:1 324:1 333:1 340:1 346:1 351:1 458:1 518:1 522:1 677:3 678:3 679:1 681:1 682:58 683:1 684:-1 685:37.5 686:1 687:4 688:4 689:4 690:1 691:4 692:9 693:1 695:4 696:1 697:1 698:-8 699:2 700:1 
1 106:1 195:1 220:1 258:1 432:1 463:1 464:1 465:1 677:3 678:3 679:1 681:2 682:-1 683:2 684:-1 685:49.5 686:1 687:3 688:4 689:3 690:1 691:4 692:8 693:1 695:3 696:1 697:1 698:3 699:2 700:-1 
1 50:1 54:1 85:1 88:1 91:1 94:1 320:1 324:1 355:1 357:1 358:1 361:1 398:1 415:1 460:1 471:1 677:3 678:3 679:1 681:1 682:73 683:1 684:-1 685:29.3 686:1 687:3 688:4 689:3 690:1 691:4 692:10 693:1 695:4 696:1 697:1 698:4 699:2 700:1 
1 8:1 149:1 186:1 380:1 393:1 464:1 677:1 678:3 679:3 681:2 682:-1 683:2 684:-1 685:18.3 686:1 687:4 688:4 689:4 690:1 691:4 692:9 693:1 695:1 696:1 697:1 698:4 699:2 700:-1 
1 60:1 113:1 123:1 131:1 234:1 252:1 258:1 330:1 386:1 504:1 528:1 677:3 678:3 679:1 681:2 682:-1 683:1 684:-1 685:14.6 686:1 687:3 688:4 689:4 690:1 691:3 692:6 693:2 695:4 696:1 697:1 698:3 699:2 700:-1 
1 82:1 88:1 116:1 215:1 249:1 253:1 382:1 386:1 523:1 528:1 677:3 678:3 679:1 681:-1 682:-1 683:2 684:2 685:-1 686:-1 687:-1 688:-1 689:-1 690:-1 691:-1 692:-1 693:-1 695:-1 696:1 697:1 698:4 699:2 700:-1 
1 49:1 116:1 194:1 195:1 201:1 319:1 427:1 465:1 471:1 677:3 678:3 679:1 681:2 682:-1 683:1 684:-1 685:21.6 686:1 687:2 688:3 689:2 690:2 691:-1 692:7 693:2 695:4 696:1 697:1 698:4 699:2 700:-1 
1 118:1 161:1 187:1 388:1 394:1 431:1 457:1 677:3 678:2 679:2 681:-1 682:-1 683:1 685:-1 686:-1 687:-1 688:-1 689:-1 690:-1 691:-1 692:-1 693:-1 695:-1 696:1 697:1 698:4 699:2 700:-1 
1 194:1 235:1 249:1 258:1 504:1 677:3 678:3 679:1 681:2 682:-1 683:1 684:-1 685:24.5 686:1 687:2 688:2 689:2 690:1 691:3 692:7 693:1 695:3 696:1 697:1 698:4 699:2 700:2 
1 33:1 55:1 91:1 99:1 105:1 275:1 303:1 315:1 358:1 360:1 361:1 460:1 677:3 678:3 679:1 681:2 682:-1 683:1 684:-1 685:20.3 686:1 687:3 688:3 689:3 690:1 691:3 692:2 693:2 695:3 696:1 697:2 698:-8 699:2 700:1 
1 24:1 25:1 43:1 294:1 313:1 464:1 677:3 678:3 679:2 681:2 682:-1 683:1 684:-1 685:32.9 686:1 687:3 688:3 689:2 690:1 691:3 692:6 693:1 695:5 696:1 697:1 698:3 699:2 700:-1 
1 24:1 77:1 88:1 91:1 94:1 294:1 347:1 361:1 386:1 464:1 677:3 678:3 679:1 681:2 682:-1 683:1 684:-1 685:24.3 686:1 687:4 688:4 689:4 690:1 691:4 692:10 693:1 695:4 696:1 697:1 698:4 699:2 700:1 
1 88:1 194:1 195:1 201:1 252:1 258:1 358:1 464:1 465:1 471:1 677:3 678:1 679:3 681:2 682:-1 683:1 684:-1 685:24.6 686:1 687:4 688:2 689:3 690:1 691:3 692:5 693:1 695:5 696:1 697:1 698:4 699:2 700:-1 
1 118:1 234:1 253:1 675:1 677:3 678:3 679:1 680:1 681:-1 682:-1 683:2 685:-1 686:-1 687:-1 688:-1 689:-1 690:-1 691:-1 692:-1 693:-1 695:-1 696:1 697:1 698:4 699:2 700:-1 
1 22:1 77:1 106:1 219:1 247:1 347:1 376:1 517:1 677:3 678:3 679:1 681:2 682:-1 683:1 684:-1 685:28.5 686:1 687:4 688:4 689:4 690:1 691:4 692:10 693:1 695:2 696:1 697:1 698:-8 699:2 700:1 
1 234:1 252:1 258:1 275:1 324:1 398:1 471:1 499:1 502:1 504:1 515:1 522:1 528:1 677:3 678:3 679:1 681:2 682:-1 683:1 684:-1 685:33.5 686:1 687:4 688:4 689:3 690:1 691:4 692:10 693:1 695:2 696:1 697:1 698:3 699:2 700:-1 
1 50:1 54:1 88:1 112:1 290:1 320:1 324:1 358:1 382:1 387:1 677:3 678:3 679:1 681:1 682:52 683:1 684:-1 685:30.9 686:1 687:4 688:4 689:-9 690:1 691:4 692:8 693:1 695:5 696:1 697:1 698:4 699:2 700:2 
1 25:1 295:1 324:1 504:1 518:1 677:3 678:1 679:3 681:1 682:54 683:1 684:-1 685:36.6 686:1 687:3 688:3 689:2 690:1 691:3 692:10 693:1 695:3 696:1 697:1 698:3 699:2 700:2 
1 11:1 20:1 90:1 108:1 112:1 156:1 246:1 290:1 303:1 325:1 393:1 422:1 465:1 511:1 677:3 678:3 679:1 681:2 682:-1 683:2 684:-1 685:-1 686:1 687:4 688:4 689:4 690:1 691:4 692:10 693:1 695:4 696:1 697:1 698:4 699:2 700:2 
1 3:1 24:1 50:1 56:1 60:1 71:1 90:1 151:1 194:1 246:1 294:1 320:1 330:1 360:1 361:1 365:1 387:1 421:1 426:1 471:1 516:1 677:3 678:3 679:1 681:1 682:68 683:1 684:-1 685:25.8 686:1 687:4 688:4 689:4 690:1 691:4 692:10 693:1 695:2 696:1 697:1 698:-8 699:2 700:1 
1 70:1 84:1 92:1 110:1 194:1 195:1 242:1 249:1 252:1 260:1 394:1 464:1 465:1 504:1 512:1 513:1 519:1 677:3 678:3 679:1 681:2 682:-1 683:1 684:-1 685:31.1 686:1 687:3 688:4 689:4 690:1 691:4 692:9 693:1 695:3 696:1 697:1 698:4 699:2 700:2 
1 23:1 76:1 116:1 193:1 219:1 293:1 386:1 419:1 492:1 495:1 677:3 678:3 679:1 681:2 682:-1 683:1 684:-1 685:20.8 686:1 687:3 688:3 689:4 690:1 691:4 692:8 693:1 695:3 696:2 697:-1 698:-1 699:2 700:2 
1 50:1 91:1 107:1 117:1 187:1 320:1 361:1 368:1 377:1 387:1 388:1 677:3 678:3 679:1 681:1 682:50 683:1 684:-1 685:23.1 686:1 687:4 688:4 689:4 690:1 691:4 692:8 693:1 695:4 696:1 697:1 698:2 699:2 700:2 
1 49:1 50:1 53:1 54:1 88:1 91:1 151:1 187:1 195:1 201:1 320:1 323:1 324:1 326:1 358:1 361:1 366:1 421:1 463:1 465:1 471:1 490:1 511:1 677:3 678:3 679:1 681:1 682:62 683:1 684:-1 685:39.9 686:1 687:4 688:4 689:4 690:1 691:-9 692:9 693:1 695:4 696:1 697:1 698:4 699:2 700:1 
1 54:1 85:1 193:1 315:1 329:1 352:1 355:1 513:1 677:3 678:3 679:1 681:2 682:-1 683:1 684:-1 685:33 686:1 687:3 688:4 689:3 690:1 691:4 692:7 693:2 695:3 696:1 697:1 698:2 699:2 700:1 
1 20:1 39:1 88:1 123:1 247:1 252:1 290:1 309:1 320:1 324:1 358:1 460:1 517:1 519:1 522:1 528:1 677:3 678:1 679:3 681:1 682:63 683:1 684:-1 685:28.2 686:1 687:4 688:4 689:4 690:1 691:4 692:9 693:1 695:4 696:1 697:2 698:2 699:2 700:2 
1 54:1 88:1 90:1 91:1 95:1 98:1 117:1 118:1 128:1 258:1 282:1 290:1 324:1 358:1 360:1 361:1 365:1 368:1 382:1 387:1 388:1 390:1 394:1 522:1 528:1 677:3 678:3 679:1 681:2 682:-1 683:1 684:-1 685:19.5 686:1 687:3 688:2 689:2 690:1 691:3 692:8 693:1 695:5 696:1 697:1 698:4 699:2 700:1 
1 74:1 117:1 121:1 195:1 249:1 464:1 465:1 677:2 678:2 679:3 681:2 682:-1 683:1 684:-1 685:51.7 686:2 687:4 688:4 689:4 690:2 691:-1 692:5 693:2 695:2 696:1 697:1 698:4 699:2 700:-1 
1 82:1 114:1 117:1 123:1 128:1 190:1 243:1 247:1 387:1 394:1 398:1 471:1 513:1 519:1 677:3 678:1 679:3 681:-1 682:-1 683:2 684:-1 685:-1 686:-1 687:-1 688:-1 689:-1 690:-1 691:-1 692:-1 693:-1 695:-1 696:1 697:1 698:4 699:2 700:-1 
1 24:1 54:1 88:1 104:1 294:1 324:1 358:1 374:1 398:1 424:1 516:1 677:3 678:3 679:1 681:2 682:-1 683:1 684:-1 685:30.1 686:1 687:4 688:4 689:4 690:1 691:4 692:10 693:1 695:2 696:1 697:1 698:4 699:2 700:1 
1 24:1 88:1 112:1 117:1 118:1 123:1 193:1 194:1 195:1 201:1 341:1 387:1 388:1 393:1 460:1 464:1 465:1 471:1 677:3 678:3 679:1 681:2 682:-1 683:1 684:-1 685:37.8 686:1 687:2 688:2 689:2 690:1 691:2 692:5 693:1 695:3 696:1 697:1 698:4 699:2 700:1 
1 54:1 55:1 113:1 165:1 194:1 324:1 358:1 387:1 431:1 458:1 460:1 463:1 464:1 519:1 677:3 678:3 679:3 681:2 682:-1 683:1 684:-1 685:59.7 686:1 687:4 688:4 689:4 690:1 691:4 692:10 693:1 695:3 696:2 697:-1 698:-1 699:2 700:-1 
1 234:1 675:4 677:1 678:3 679:3 680:4 681:2 682:-1 683:1 684:-1 685:19.8 686:-9 687:2 688:3 689:2 690:1 691:2 692:8 693:2 695:-9 696:1 697:2 698:3 699:2 700:2 
1 166:1 203:1 675:1 677:3 678:3 679:1 680:1 681:2 682:-1 683:2 684:-1 685:23 686:1 687:4 688:4 689:4 690:1 691:4 692:6 693:1 695:3 696:1 697:1 698:4 699:2 700:-1 
1 88:1 91:1 145:1 252:1 361:1 368:1 522:1 677:3 678:1 679:3 681:2 682:-1 683:2 684:-1 685:41.3 686:1 687:-1 688:-1 689:-1 690:-1 691:-1 692:-1 693:1 695:4 696:1 697:1 698:4 699:2 700:-1 
1 49:1 79:1 219:1 294:1 319:1 463:1 492:1 518:1 677:3 678:3 679:1 681:2 682:-1 683:1 684:-1 685:21.3 686:1 687:4 688:4 689:3 690:1 691:4 692:9 693:1 695:2 696:1 697:1 698:4 699:2 700:-1 
1 50:1 51:1 81:1 85:1 91:1 144:1 195:1 294:1 320:1 349:1 351:1 361:1 414:1 465:1 471:1 472:1 677:3 678:3 679:1 681:1 682:60 683:1 684:-1 685:32.6 686:1 687:3 688:3 689:3 690:1 691:3 692:10 693:1 695:3 696:1 697:1 698:4 699:2 700:1 
1 50:1 117:1 192:1 195:1 215:1 386:1 401:1 462:1 471:1 492:1 677:3 678:3 679:1 681:2 682:-1 683:1 684:-1 685:49.7 686:1 687:4 688:4 689:3 690:1 691:4 692:10 693:1 695:4 696:1 697:1 698:-8 699:2 700:1 
1 50:1 54:1 76:1 88:1 147:1 151:1 320:1 358:1 417:1 519:1 522:1 677:3 678:1 679:3 681:1 682:33 683:1 684:-1 685:37.4 686:1 687:4 688:4 689:4 690:1 691:4 692:9 693:1 695:5 696:1 697:1 698:4 699:2 700:2 
1 8:1 151:1 207:1 344:1 352:1 419:1 421:1 432:1 477:1 510:1 677:3 678:3 679:1 681:2 682:-1 683:1 684:-1 685:17.5 686:1 687:4 688:3 689:3 690:1 691:3 692:8 693:1 695:4 696:1 697:1 698:3 699:2 700:-1 
1 77:1 80:1 81:1 116:1 118:1 193:1 246:1 258:1 388:1 431:1 463:1 465:1 515:1 516:1 528:1 677:3 678:3 679:1 681:2 682:-1 683:1 684:-1 685:33.9 686:1 687:4 688:4 689:3 690:1 691:4 692:8 693:1 695:3 696:1 697:1 698:4 699:2 700:-1 
1 54:1 80:1 116:1 118:1 124:1 125:1 234:1 246:1 281:1 324:1 358:1 386:1 388:1 394:1 464:1 504:1 677:3 678:3 679:1 681:2 682:-1 683:1 684:-1 685:43.5 686:1 687:4 688:4 689:4 690:1 691:4 692:10 693:1 695:3 696:1 697:1 698:4 699:2 700:2 
1 78:1 91:1 95:1 123:1 133:1 153:1 156:1 193:1 195:1 201:1 240:1 247:1 348:1 361:1 413:1 423:1 457:1 471:1 517:1 677:3 678:3 679:1 681:2 682:-1 683:1 684:-1 685:24.4 686:1 687:3 688:3 689:3 690:1 691:4 692:9 693:2 695:3 696:1 697:1 698:4 699:2 700:2 
1 78:1 88:1 194:1 348:1 358:1 411:1 462:1 464:1 519:1 677:3 678:1 679:3 681:2 682:-1 683:2 684:-1 685:27.7 686:1 687:3 688:2 689:2 690:2 691:-1 692:5 693:1 695:4 696:1 697:1 698:3 699:2 700:2 
1 8:1 42:1 54:1 149:1 194:1 312:1 320:1 426:1 460:1 464:1 492:1 677:3 678:3 679:1 681:1 682:54 683:1 684:-1 685:45.3 686:1 687:3 688:3 689:3 690:1 691:3 692:9 693:1 695:3 696:1 697:1 698:4 699:2 700:2 
1 50:1 88:1 131:1 147:1 192:1 320:1 325:1 346:1 417:1 419:1 462:1 677:3 678:1 679:3 681:2 682:-1 683:1 684:-1 685:23 686:1 687:4 688:4 689:4 690:1 691:4 692:10 693:-9 695:3 696:1 697:1 698:4 699:2 700:1 
1 132:1 186:1 319:1 465:1 492:1 522:1 677:3 678:3 679:1 681:2 682:-1 683:1 684:-1 685:21.9 686:1 687:2 688:2 689:2 690:1 691:4 692:7 693:1 695:3 696:1 697:1 698:4 699:2 700:-1 
1 50:1 147:1 201:1 249:1 417:1 519:1 677:3 678:3 679:1 681:1 682:30 683:-1 684:-1 685:-1 686:-1 687:-1 688:-1 689:-1 690:-1 691:-1 692:-1 693:-1 695:-1 696:-1 697:-1 698:-1 699:-1 700:-1 
1 25:1 85:1 246:1 295:1 355:1 466:1 516:1 677:3 678:1 679:3 681:2 682:-1 683:1 684:-1 685:25.1 686:1 687:3 688:4 689:3 690:1 691:4 692:7 693:2 695:3 696:1 697:1 698:-8 699:2 700:1 
1 50:1 54:1 88:1 124:1 192:1 320:1 324:1 358:1 362:1 394:1 462:1 528:1 677:3 678:3 679:1 681:1 682:50 683:1 684:-1 685:28.3 686:1 687:4 688:4 689:4 690:1 691:4 692:7 693:1 695:3 696:1 697:1 698:4 699:2 700:2 
1 24:1 30:1 48:1 50:1 84:1 107:1 143:1 188:1 190:1 215:1 294:1 300:1 318:1 320:1 324:1 358:1 377:1 388:1 394:1 458:1 460:1 485:1 677:3 678:3 679:1 681:1 682:50 683:1 684:-1 685:35.9 686:1 687:3 688:3 689:3 690:1 691:3 692:9 693:1 695:4 696:1 697:1 698:3 699:2 700:1 
1 24:1 54:1 96:1 193:1 195:1 196:1 222:1 234:1 241:1 258:1 324:1 351:1 358:1 369:1 403:1 463:1 466:1 489:1 492:1 677:3 678:3 679:1 681:2 682:-1 683:1 684:-1 685:22.7 686:1 687:3 688:4 689:3 690:1 691:4 692:10 693:1 695:4 696:1 697:1 698:-8 699:2 700:1 
1 40:1 54:1 85:1 88:1 190:1 193:1 195:1 310:1 315:1 319:1 320:1 322:1 324:1 355:1 358:1 398:1 460:1 465:1 512:1 677:3 678:1 679:3 681:2 682:-1 683:1 684:-1 685:28 686:1 687:3 688:3 689:2 690:1 691:3 692:7 693:1 695:4 696:1 697:1 698:2 699:2 700:1 
1 15:1 34:1 54:1 88:1 145:1 194:1 195:1 304:1 324:1 358:1 362:1 464:1 465:1 519:1 677:3 678:1 679:3 681:2 682:-1 683:1 684:-1 685:33.1 686:1 687:4 688:4 689:4 690:1 691:4 692:9 693:1 695:4 696:1 697:1 698:4 699:2 700:2 
1 34:1 81:1 88:1 190:1 246:1 304:1 346:1 351:1 460:1 516:1 677:3 678:1 679:3 681:2 682:-1 683:1 684:-1 685:31.6 686:-1 687:-1 688:-1 689:-1 690:-1 691:-1 692:-1 693:-1 695:-1 696:1 697:1 698:4 699:2 700:-1 
1 23:1 88:1 142:1 194:1 203:1 249:1 271:1 324:1 358:1 361:1 464:1 519:1 541:1 677:3 678:3 679:1 681:2 682:-1 683:1 684:-1 685:25.8 686:1 687:2 688:4 689:4 690:1 691:3 692:9 693:1 695:3 696:1 697:1 698:3 699:2 700:2 
1 50:1 88:1 124:1 152:1 194:1 201:1 223:1 318:1 320:1 401:1 435:1 464:1 677:3 678:3 679:1 681:1 682:35 683:1 684:-1 685:29 686:1 687:3 688:4 689:3 690:1 691:3 692:8 693:1 695:3 696:1 697:1 698:4 699:2 700:2 
1 149:1 190:1 195:1 201:1 281:1 346:1 393:1 460:1 677:3 678:3 679:1 681:1 682:64 683:2 684:-1 685:40 686:1 687:4 688:4 689:4 690:1 691:4 692:10 693:1 695:3 696:1 697:1 698:4 699:2 700:-1 
1 85:1 91:1 98:1 112:1 193:1 321:1 344:1 368:1 417:1 463:1 465:1 519:1 528:1 677:3 678:3 679:1 681:1 682:27 683:1 684:-1 685:27.4 686:1 687:4 688:4 689:4 690:1 691:4 692:10 693:1 695:4 696:1 697:1 698:-8 699:2 700:1 
1 23:1 24:1 91:1 145:1 222:1 234:1 258:1 293:1 324:1 350:1 358:1 361:1 460:1 464:1 485:1 677:3 678:3 679:1 681:2 682:-1 683:1 684:-1 685:28.4 686:1 687:3 688:4 689:3 690:1 691:4 692:7 693:1 695:3 696:2 697:-1 698:-1 699:2 700:1 
1 7:1 24:1 48:1 74:1 85:1 124:1 277:1 294:1 318:1 344:1 346:1 355:1 362:1 417:1 463:1 492:1 677:3 678:3 679:1 681:2 682:-1 683:2 684:-1 685:30.4 686:-1 687:-1 688:-1 689:-1 690:-1 691:-1 692:-1 693:-1 695:-1 696:1 697:1 698:4 699:2 700:2 
1 24:1 107:1 193:1 195:1 294:1 358:1 372:1 377:1 380:1 463:1 464:1 465:1 677:3 678:3 679:1 681:2 682:-1 683:2 684:-1 685:29 686:1 687:3 688:4 689:3 690:1 691:4 692:9 693:1 695:3 696:1 697:1 698:4 699:2 700:1 
1 49:1 54:1 81:1 85:1 88:1 124:1 190:1 196:1 201:1 219:1 242:1 294:1 314:1 355:1 382:1 419:1 460:1 465:1 489:1 499:1 677:3 678:3 679:1 681:2 682:-1 683:1 684:-1 685:18.8 686:1 687:3 688:4 689:4 690:1 691:3 692:10 693:1 695:3 696:1 697:1 698:4 699:2 700:2 
1 197:1 201:1 222:1 464:1 519:1 677:3 678:3 679:1 681:2 682:-1 683:1 684:-1 685:19.7 686:2 687:4 688:4 689:4 690:1 691:4 692:10 693:1 695:1 696:2 697:-1 698:-1 699:2 700:-1 
1 117:1 128:1 129:1 192:1 194:1 195:1 249:1 324:1 358:1 462:1 464:1 465:1 471:1 677:3 678:3 679:1 681:2 682:-1 683:1 684:-1 685:25.8 686:1 687:3 688:4 689:3 690:1 691:4 692:10 693:2 695:3 696:1 697:1 698:4 699:2 700:2 
1 116:1 124:1 139:1 194:1 200:1 201:1 386:1 395:1 415:1 464:1 470:1 504:1 507:1 677:1 678:3 679:3 681:2 682:-1 683:1 684:-1 685:31.1 686:1 687:4 688:4 689:4 690:1 691:3 692:10 693:1 695:2 696:1 697:1 698:4 699:2 700:-1 
1 81:1 118:1 124:1 125:1 190:1 236:1 344:1 349:1 351:1 388:1 394:1 401:1 414:1 506:1 677:3 678:3 679:1 681:-1 682:-1 683:1 685:-1 686:-1 687:-1 688:-1 689:-1 690:-1 691:-1 692:-1 693:-1 695:-1 696:1 697:1 698:3 699:2 700:-1 
1 81:1 96:1 190:1 194:1 201:1 215:1 222:1 294:1 324:1 347:1 366:1 419:1 427:1 463:1 464:1 471:1 485:1 499:1 677:3 678:3 679:1 681:2 682:-1 683:1 684:-1 685:23.2 686:1 687:3 688:3 689:2 690:1 691:-9 692:7 693:1 695:5 696:1 697:1 698:3 699:2 700:1 
1 125:1 190:1 258:1 382:1 460:1 513:1 528:1 677:3 678:3 679:1 681:2 682:-1 683:1 684:-1 685:33.8 686:1 687:3 688:3 689:3 690:1 691:4 692:7 693:1 695:3 696:1 697:1 698:3 699:2 700:-1 
1 24:1 81:1 123:1 195:1 201:1 249:1 326:1 351:1 358:1 393:1 396:1 409:1 461:1 465:1 471:1 510:1 519:1 677:3 678:3 679:1 681:2 682:-1 683:1 684:-1 685:28.3 686:1 687:4 688:3 689:4 690:1 691:4 692:9 693:1 695:2 696:1 697:1 698:4 699:2 700:2 
1 45:1 90:1 91:1 96:1 117:1 125:1 156:1 190:1 201:1 229:1 234:1 246:1 347:1 354:1 355:1 361:1 366:1 387:1 395:1 424:1 426:1 460:1 677:3 678:3 679:1 681:2 682:-1 683:1 684:-1 685:24.4 686:1 687:3 688:3 689:3 690:1 691:3 692:8 693:1 695:3 696:1 697:1 698:3 699:2 700:1 
1 348:1 504:1 675:1 677:3 678:3 679:1 680:2 681:2 682:-1 683:1 684:-1 685:26.6 686:1 687:4 688:4 689:4 690:1 691:4 692:9 693:1 695:3 696:1 697:1 698:4 699:2 700:-1 
1 352:1 353:1 354:1 386:1 387:1 394:1 464:1 465:1 677:3 678:3 679:1 681:2 682:-1 683:2 684:-1 685:32.2 686:1 687:3 688:4 689:3 690:1 691:4 692:7 693:2 695:2 696:1 697:1 698:4 699:2 700:1 
1 50:1 77:1 88:1 107:1 190:1 193:1 194:1 278:1 320:1 324:1 350:1 352:1 358:1 393:1 460:1 463:1 471:1 505:1 677:3 678:3 679:1 681:1 682:54 683:1 684:-1 685:31.5 686:1 687:3 688:4 689:4 690:1 691:4 692:10 693:1 695:3 696:1 697:2 698:4 699:2 700:2 
1 116:1 117:1 145:1 323:1 353:1 355:1 386:1 395:1 415:1 436:1 464:1 492:1 677:3 678:3 679:1 681:2 682:-1 683:1 684:-1 685:31.8 686:1 687:4 688:4 689:4 690:1 691:4 692:8 693:1 695:4 696:1 697:1 698:-8 699:2 700:-1 
1 54:1 88:1 148:1 418:1 515:1 677:3 678:3 679:1 681:2 682:-1 683:1 684:-1 685:24.5 686:1 687:-9 688:-9 689:-9 690:-9 691:-9 692:-9 693:1 695:3 696:1 697:1 698:4 699:2 700:-1 
1 49:1 107:1 133:1 194:1 207:1 319:1 403:1 460:1 464:1 477:1 677:3 678:3 679:1 681:2 682:-1 683:1 684:-1 685:23.9 686:1 687:4 688:4 689:3 690:1 691:3 692:10 693:1 695:2 696:1 697:1 698:4 699:2 700:-1 
1 133:1 232:1 234:1 324:1 358:1 465:1 515:1 677:3 678:3 679:1 681:1 682:58 683:1 684:-1 685:30.7 686:1 687:4 688:4 689:4 690:1 691:4 692:10 693:1 695:2 696:1 697:1 698:4 699:2 700:2 
1 50:1 88:1 125:1 193:1 205:1 215:1 315:1 485:1 677:3 678:3 679:1 681:1 682:66 683:1 684:-1 685:25.8 686:-9 687:4 688:4 689:4 690:1 691:3 692:9 693:2 695:3 696:1 697:1 698:4 699:2 700:1 
1 104:1 190:1 195:1 222:1 258:1 370:1 374:1 465:1 471:1 495:1 518:1 528:1 677:3 678:3 679:1 681:2 682:-1 683:1 684:-1 685:30 686:1 687:4 688:4 689:4 690:1 691:4 692:9 693:1 695:3 696:1 697:2 698:4 699:2 700:2 
1 50:1 153:1 192:1 195:1 196:1 202:1 495:1 677:3 678:3 679:1 681:1 682:65 683:1 684:-1 685:35 686:2 687:3 688:4 689:3 690:1 691:2 692:7 693:2 695:3 696:1 697:1 698:4 699:2 700:2 
1 54:1 60:1 88:1 99:1 107:1 133:1 193:1 324:1 330:1 358:1 369:1 377:1 403:1 421:1 460:1 471:1 677:3 678:3 679:1 681:2 682:-1 683:1 684:-1 685:24.3 686:2 687:3 688:3 689:3 690:1 691:3 692:8 693:1 695:4 696:1 697:1 698:4 699:2 700:2 
1 82:1 85:1 116:1 352:1 355:1 386:1 395:1 419:1 457:1 460:1 517:1 677:3 678:3 679:1 681:-1 682:-1 683:2 684:-1 685:-1 686:-1 687:-1 688:-1 689:-1 690:-1 691:-1 692:-1 693:-1 695:-1 696:1 697:1 698:4 699:2 700:-1 
1 117:1 253:1 519:1 523:1 528:1 677:3 678:3 679:1 681:2 682:-1 683:1 684:-1 685:27.5 686:1 687:3 688:2 689:2 690:1 691:3 692:6 693:2 695:4 696:1 697:1 698:4 699:2 700:-1 
1 49:1 50:1 141:1 320:1 409:1 411:1 433:1 492:1 677:3 678:3 679:1 681:1 682:45 683:1 684:-1 685:32.9 686:1 687:4 688:4 689:4 690:1 691:4 692:10 693:-9 695:-9 696:1 697:2 698:3 699:2 700:1 
1 149:1 188:1 195:1 199:1 319:1 323:1 358:1 465:1 471:1 677:3 678:3 679:1 681:2 682:-1 683:1 684:-1 685:24.6 686:-9 687:3 688:3 689:4 690:1 691:4 692:9 693:1 695:2 696:1 697:2 698:4 699:2 700:2 
1 54:1 88:1 91:1 192:1 252:1 258:1 319:1 324:1 358:1 361:1 394:1 460:1 462:1 465:1 522:1 528:1 677:3 678:3 679:1 681:2 682:-1 683:1 684:-1 685:24 686:1 687:2 688:3 689:2 690:2 691:-1 692:5 693:1 695:3 696:1 697:1 698:2 699:1 700:2 
1 88:1 94:1 131:1 246:1 358:1 386:1 394:1 464:1 499:1 516:1 677:3 678:3 679:1 681:2 682:-1 683:1 684:-1 685:30.2 686:1 687:3 688:4 689:3 690:1 691:3 692:9 693:1 695:3 696:1 697:1 698:4 699:2 700:-1 
1 116:1 158:1 220:1 386:1 465:1 677:3 678:3 679:1 681:-1 682:-1 683:2 685:-1 686:-1 687:-1 688:-1 689:-1 690:-1 691:-1 692:-1 693:-1 695:-1 696:1 697:1 698:3 699:2 700:-1 
1 49:1 50:1 88:1 188:1 229:1 247:1 249:1 319:1 320:1 324:1 358:1 460:1 499:1 519:1 677:3 678:1 679:3 681:1 682:50 683:2 684:-1 685:39.3 686:1 687:3 688:4 689:3 690:1 691:3 692:8 693:1 695:3 696:1 697:1 698:4 699:2 700:1 
1 24:1 76:1 125:1 229:1 294:1 387:1 677:3 678:3 679:1 681:2 682:-1 683:1 684:-1 685:29 686:1 687:4 688:3 689:3 690:1 691:4 692:8 693:1 695:3 696:1 697:1 698:-8 699:2 700:1 
1 48:1 76:1 90:1 92:1 106:1 134:1 149:1 219:1 243:1 346:1 358:1 362:1 376:1 419:1 423:1 460:1 677:3 678:3 679:1 681:1 682:-8 683:1 684:-1 685:23.4 686:1 687:4 688:4 689:4 690:1 691:4 692:8 693:2 695:5 696:1 697:1 698:4 699:2 700:-1 
1 96:1 194:1 202:1 519:1 677:1 678:3 679:3 681:2 682:-1 683:1 684:-1 685:26.2 686:1 687:4 688:4 689:4 690:2 691:-1 692:10 693:2 695:3 696:1 697:2 698:4 699:2 700:-1 
1 9:1 88:1 192:1 201:1 279:1 358:1 462:1 466:1 472:1 513:1 677:3 678:3 679:1 681:2 682:-1 683:2 684:-1 685:37.3 686:1 687:3 688:3 689:3 690:1 691:4 692:7 693:1 695:3 696:1 697:1 698:4 699:1 700:2 
1 79:1 252:1 258:1 312:1 349:1 355:1 465:1 528:1 677:3 678:1 679:3 681:2 682:-1 683:1 684:-1 685:43.8 686:1 687:4 688:4 689:4 690:1 691:3 692:8 693:2 695:3 696:1 697:1 698:4 699:2 700:-1 
1 129:1 222:1 280:1 398:1 399:1 428:1 464:1 471:1 528:1 677:3 678:3 679:1 681:2 682:-1 683:1 684:-1 685:29.3 686:2 687:3 688:4 689:4 690:1 691:4 692:8 693:1 695:3 696:1 697:1 698:4 699:2 700:-1 
1 20:1 45:1 85:1 130:1 131:1 195:1 249:1 326:1 347:1 361:1 362:1 366:1 419:1 457:1 464:1 465:1 516:1 677:3 678:3 679:1 681:2 682:-1 683:1 684:-1 685:17.7 686:1 687:4 688:4 689:4 690:1 691:4 692:10 693:1 695:5 696:1 697:1 698:4 699:2 700:-1 
1 81:1 190:1 193:1 194:1 201:1 215:1 394:1 465:1 471:1 677:3 678:3 679:1 681:2 682:-1 683:1 684:-1 685:26.5 686:1 687:3 688:4 689:3 690:1 691:3 692:9 693:1 695:2 696:1 697:1 698:1 699:2 700:1 
1 79:1 91:1 112:1 113:1 154:1 193:1 226:1 232:1 236:1 361:1 375:1 504:1 677:3 678:3 679:1 681:2 682:-1 683:1 684:-1 685:25.8 686:1 687:4 688:4 689:4 690:1 691:4 692:9 693:1 695:2 696:1 697:-8 698:-8 699:2 700:2 
1 8:1 45:1 54:1 76:1 81:1 88:1 218:1 229:1 246:1 310:1 315:1 319:1 324:1 358:1 394:1 516:1 519:1 677:3 678:3 679:1 681:2 682:-1 683:1 684:-1 685:23.7 686:1 687:4 688:4 689:4 690:1 691:4 692:9 693:1 695:3 696:1 697:1 698:4 699:2 700:1 
1 8:1 53:1 74:1 116:1 163:1 222:1 234:1 278:1 349:1 352:1 386:1 471:1 492:1 522:1 528:1 677:3 678:3 679:1 681:2 682:-1 683:1 684:-1 685:29.6 686:1 687:4 688:4 689:4 690:1 691:4 692:9 693:2 695:3 696:1 697:1 698:-8 699:2 700:-1 
1 74:1 116:1 124:1 190:1 195:1 460:1 464:1 465:1 677:3 678:3 679:1 681:2 682:-1 683:1 684:-1 685:-9 686:-1 687:-1 688:-1 689:-1 690:-1 691:-1 692:-1 693:-1 695:-1 696:1 697:1 698:4 699:2 700:-1 
1 24:1 54:1 78:1 88:1 91:1 96:1 201:1 294:1 324:1 348:1 358:1 361:1 366:1 369:1 463:1 677:3 678:3 679:1 681:2 682:-1 683:2 684:-1 685:24.3 686:1 687:4 688:4 689:4 690:1 691:4 692:10 693:2 695:3 696:1 697:1 698:4 699:2 700:1 
1 45:1 50:1 88:1 117:1 195:1 320:1 324:1 346:1 358:1 360:1 382:1 387:1 677:3 678:3 679:1 681:1 682:44 683:1 684:-1 685:34.3 686:1 687:4 688:4 689:4 690:1 691:4 692:9 693:1 695:4 696:1 697:1 698:4 699:2 700:-1 
1 88:1 165:1 245:1 315:1 319:1 358:1 406:1 421:1 435:1 436:1 515:1 677:3 678:3 679:1 681:2 682:-1 683:1 684:-1 685:42.5 686:1 687:4 688:4 689:4 690:1 691:4 692:10 693:1 695:4 696:1 697:1 698:4 699:2 700:-1 
1 88:1 194:1 249:1 252:1 320:1 324:1 348:1 355:1 358:1 387:1 460:1 464:1 471:1 519:1 677:3 678:3 679:1 681:1 682:51 683:1 684:-1 685:30.4 686:1 687:4 688:4 689:4 690:1 691:4 692:8 693:1 695:4 696:1 697:1 698:-8 699:2 700:2 
1 50:1 91:1 135:1 150:1 195:1 258:1 320:1 324:1 346:1 361:1 369:1 462:1 465:1 522:1 528:1 677:3 678:3 679:1 681:1 682:59 683:1 684:-1 685:25.8 686:1 687:-1 688:-1 689:-1 690:-1 691:-1 692:-1 693:1 695:4 696:1 697:1 698:-8 699:2 700:1 
1 24:1 106:1 118:1 124:1 234:1 294:1 376:1 388:1 394:1 677:3 678:3 679:1 681:2 682:-1 683:2 684:-1 685:33.4 686:1 687:3 688:4 689:4 690:1 691:3 692:8 693:1 695:3 696:1 697:1 698:-8 699:2 700:2 
1 50:1 78:1 88:1 116:1 117:1 249:1 320:1 361:1 382:1 421:1 677:3 678:3 679:1 681:1 682:55 683:1 684:-1 685:37.8 686:1 687:-1 688:-1 689:-1 690:-1 691:-1 692:-1 693:1 695:3 696:1 697:1 698:4 699:2 700:1 
1 64:1 320:1 324:1 334:1 358:1 361:1 388:1 397:1 499:1 677:1 678:3 679:3 681:1 682:53 683:2 684:-1 685:21 686:1 687:4 688:4 689:4 690:1 691:4 692:7 693:1 695:3 696:1 697:2 698:-8 699:2 700:-9 
1 88:1 163:1 192:1 201:1 355:1 358:1 462:1 519:1 677:3 678:1 679:3 681:2 682:-1 683:1 684:-1 685:45.5 686:-9 687:4 688:4 689:2 690:2 691:-1 692:8 693:2 695:4 696:1 697:1 698:4 699:2 700:2 
1 116:1 193:1 194:1 247:1 351:1 463:1 464:1 471:1 518:1 677:3 678:3 679:1 681:2 682:-1 683:2 684:-1 685:24.7 686:1 687:3 688:3 689:3 690:1 691:3 692:9 693:1 695:2 696:1 697:2 698:3 699:2 700:2 
1 50:1 54:1 88:1 125:1 142:1 228:1 241:1 320:1 351:1 356:1 401:1 412:1 419:1 460:1 677:3 678:3 679:1 681:1 682:55 683:1 684:-1 685:27.9 686:1 687:3 688:4 689:4 690:1 691:4 692:10 693:1 695:3 696:1 697:1 698:4 699:2 700:2 
1 24:1 77:1 79:1 97:1 134:1 153:1 330:1 347:1 367:1 423:1 464:1 504:1 677:3 678:3 679:1 681:2 682:-1 683:1 684:-1 685:30.9 686:1 687:4 688:4 689:4 690:1 691:4 692:10 693:-9 695:4 696:1 697:2 698:4 699:2 700:1 
1 40:1 44:1 221:1 246:1 310:1 386:1 677:3 678:1 679:3 681:2 682:-1 683:1 684:-1 685:23.4 686:1 687:3 688:4 689:3 690:1 691:3 692:7 693:2 695:-9 696:2 697:-1 698:-1 699:2 700:-1 
1 118:1 124:1 190:1 193:1 252:1 355:1 382:1 388:1 394:1 522:1 677:3 678:3 679:1 681:2 682:-1 683:1 684:-1 685:34.3 686:1 687:3 688:4 689:4 690:1 691:4 692:8 693:1 695:4 696:1 697:1 698:4 699:2 700:2 
1 42:1 92:1 118:1 349:1 362:1 394:1 398:1 677:3 678:3 679:1 681:2 682:-1 683:1 684:-1 685:42.1 686:1 687:4 688:4 689:4 690:1 691:4 692:8 693:1 695:3 696:1 697:2 698:3 699:2 700:-1 
1 50:1 149:1 320:1 358:1 382:1 419:1 522:1 677:3 678:3 679:1 681:1 682:13 683:2 684:-1 685:36.3 686:1 687:3 688:3 689:2 690:1 691:3 692:8 693:2 695:4 696:1 697:1 698:3 699:2 700:-1 
1 50:1 54:1 83:1 88:1 124:1 194:1 320:1 394:1 464:1 677:3 678:1 679:3 681:1 682:55 683:1 684:-1 685:32.7 686:1 687:3 688:4 689:3 690:1 691:3 692:6 693:1 695:2 696:1 697:1 698:4 699:2 700:1 
1 15:1 49:1 54:1 77:1 88:1 195:1 196:1 285:1 315:1 318:1 347:1 366:1 393:1 394:1 458:1 465:1 471:1 677:3 678:3 679:1 681:2 682:-1 683:1 684:-1 685:28 686:1 687:4 688:4 689:3 690:1 691:-9 692:10 693:1 695:3 696:1 697:1 698:4 699:2 700:1 
1 24:1 74:1 152:1 193:1 194:1 294:1 346:1 422:1 464:1 471:1 677:3 678:3 679:1 681:2 682:-1 683:1 684:-1 685:21.5 686:1 687:-1 688:-1 689:-1 690:-1 691:-1 692:-1 693:1 695:3 696:1 697:2 698:1 699:2 700:2 
1 25:1 88:1 117:1 193:1 295:1 358:1 381:1 387:1 463:1 677:3 678:1 679:3 681:2 682:-1 683:2 684:-1 685:53.9 686:1 687:4 688:4 689:4 690:1 691:4 692:10 693:1 695:2 696:1 697:1 698:4 699:2 700:-9 
1 54:1 59:1 116:1 118:1 252:1 324:1 329:1 386:1 395:1 522:1 677:1 678:3 679:3 681:-1 682:-1 683:2 684:1 685:-1 686:-1 687:-1 688:-1 689:-1 690:-1 691:-1 692:-1 693:-1 695:-1 696:1 697:1 698:3 699:2 700:-1 
1 194:1 201:1 249:1 252:1 258:1 464:1 522:1 523:1 528:1 677:3 678:3 679:1 681:2 682:-1 683:1 684:-1 685:37.2 686:1 687:3 688:3 689:3 690:1 691:4 692:6 693:2 695:3 696:1 697:1 698:2 699:2 700:-1 
1 50:1 54:1 88:1 145:1 190:1 201:1 245:1 376:1 460:1 464:1 471:1 515:1 677:3 678:3 679:1 681:1 682:74 683:1 684:-1 685:27.3 686:1 687:4 688:4 689:4 690:1 691:4 692:10 693:2 695:1 696:1 697:1 698:4 699:2 700:1 
1 25:1 128:1 253:1 295:1 320:1 398:1 465:1 522:1 524:1 677:3 678:3 679:1 681:1 682:56 683:1 684:-1 685:32.8 686:1 687:4 688:4 689:4 690:1 691:4 692:9 693:1 695:3 696:1 697:1 698:4 699:2 700:2 
1 83:1 152:1 201:1 219:1 222:1 319:1 324:1 351:1 353:1 395:1 460:1 471:1 492:1 677:3 678:3 679:1 681:2 682:-1 683:1 684:-1 685:33.8 686:1 687:3 688:4 689:3 690:1 691:3 692:9 693:2 695:2 696:1 697:1 698:2 699:2 700:2 
1 50:1 83:1 88:1 117:1 125:1 195:1 236:1 320:1 324:1 355:1 358:1 387:1 465:1 471:1 677:3 678:3 679:1 681:1 682:41 683:2 684:-1 685:35.9 686:1 687:3 688:3 689:3 690:1 691:3 692:10 693:1 695:4 696:1 697:2 698:-8 699:2 700:-1 
1 82:1 124:1 244:1 253:1 394:1 489:1 677:3 678:1 679:3 681:-1 682:-1 683:1 685:-1 686:-1 687:-1 688:-1 689:-1 690:-1 691:-1 692:-1 693:-1 695:-1 696:1 697:1 698:3 699:2 700:-1 
1 194:1 207:1 215:1 258:1 382:1 515:1 516:1 528:1 677:3 678:3 679:1 681:2 682:-1 683:2 684:-1 685:25.1 686:1 687:3 688:3 689:3 690:2 691:-1 692:9 693:2 695:2 696:2 697:-1 698:-1 699:2 700:-1 
1 25:1 96:1 194:1 295:1 355:1 365:1 366:1 464:1 519:1 677:3 678:3 679:1 681:2 682:-1 683:1 684:-1 685:26 686:1 687:4 688:4 689:3 690:1 691:4 692:10 693:1 695:3 696:1 697:1 698:3 699:2 700:2 
1 128:1 201:1 234:1 366:1 393:1 677:3 678:3 679:1 681:2 682:-1 683:1 684:-1 685:35.6 686:1 687:4 688:4 689:4 690:1 691:4 692:9 693:1 695:2 696:1 697:1 698:4 699:2 700:2 
1 30:1 50:1 54:1 116:1 193:1 195:1 300:1 320:1 463:1 465:1 677:3 678:3 679:1 681:1 682:55 683:1 684:-1 685:38.4 686:1 687:4 688:4 689:3 690:1 691:3 692:8 693:1 695:4 696:1 697:1 698:4 699:2 700:1 
1 24:1 48:1 81:1 133:1 156:1 315:1 366:1 460:1 677:3 678:3 679:1 681:2 682:-1 683:1 684:-1 685:29 686:1 687:4 688:4 689:3 690:1 691:4 692:9 693:1 695:3 696:1 697:1 698:4 699:2 700:1 
1 78:1 88:1 123:1 193:1 201:1 324:1 348:1 355:1 358:1 388:1 394:1 465:1 471:1 677:3 678:3 679:1 681:2 682:-1 683:2 684:-1 685:28 686:1 687:3 688:3 689:3 690:1 691:3 692:8 693:1 695:4 696:1 697:1 698:4 699:2 700:2 
1 24:1 54:1 88:1 91:1 94:1 153:1 157:1 190:1 193:1 194:1 249:1 275:1 294:1 324:1 329:1 341:1 358:1 361:1 364:1 393:1 415:1 423:1 460:1 464:1 471:1 515:1 519:1 677:3 678:3 679:1 681:2 682:-1 683:1 684:-1 685:28.8 686:1 687:3 688:3 689:2 690:1 691:3 692:8 693:1 695:3 696:1 697:1 698:4 699:2 700:-1 
1 8:1 116:1 190:1 218:1 343:1 355:1 488:1 519:1 677:3 678:3 679:1 681:2 682:-1 683:2 684:-1 685:20 686:1 687:3 688:3 689:3 690:1 691:3 692:5 693:1 695:3 696:1 697:1 698:4 699:2 700:-1 
1 25:1 37:1 50:1 54:1 88:1 187:1 295:1 320:1 323:1 324:1 350:1 351:1 366:1 393:1 420:1 457:1 460:1 516:1 519:1 677:3 678:3 679:1 681:1 682:65 683:1 684:-1 685:23.5 686:1 687:4 688:4 689:4 690:1 691:3 692:10 693:1 695:4 696:1 697:1 698:4 699:2 700:1 
1 86:1 117:1 133:1 190:1 193:1 194:1 195:1 220:1 249:1 386:1 387:1 460:1 465:1 471:1 519:1 677:3 678:3 679:1 681:2 682:-1 683:1 684:-1 685:55.9 686:1 687:3 688:3 689:2 690:1 691:3 692:5 693:1 695:4 696:1 697:1 698:3 699:2 700:2 
1 25:1 88:1 196:1 201:1 295:1 358:1 398:1 471:1 518:1 677:3 678:3 679:1 681:2 682:-1 683:1 684:-1 685:23 686:1 687:4 688:4 689:4 690:1 691:4 692:9 693:1 695:3 696:1 697:1 698:4 699:2 700:2 
1 195:1 324:1 330:1 346:1 358:1 413:1 415:1 460:1 473:1 510:1 677:3 678:3 679:1 681:2 682:-1 683:1 684:-1 685:30.2 686:1 687:3 688:3 689:4 690:1 691:4 692:9 693:1 695:2 696:1 697:2 698:4 699:2 700:1 
1 96:1 116:1 117:1 195:1 201:1 489:1 490:1 492:1 506:1 677:3 678:3 679:1 681:1 682:54 683:1 684:-1 685:35.7 686:1 687:4 688:4 689:4 690:1 691:4 692:9 693:1 695:3 696:1 697:1 698:4 699:2 700:1 
1 97:1 190:1 195:1 361:1 366:1 367:1 460:1 463:1 519:1 677:3 678:3 679:1 681:2 682:-1 683:1 684:-1 685:31.6 686:1 687:4 688:4 689:4 690:1 691:3 692:9 693:2 695:4 696:1 697:1 698:4 699:2 700:1 
1 74:1 76:1 88:1 91:1 107:1 346:1 358:1 361:1 460:1 519:1 677:3 678:1 679:3 681:2 682:-1 683:1 684:-1 685:31.6 686:1 687:4 688:3 689:3 690:1 691:4 692:8 693:1 695:4 696:1 697:1 698:4 699:2 700:1 
1 24:1 54:1 81:1 124:1 194:1 386:1 462:1 464:1 677:3 678:3 679:1 681:2 682:-1 683:1 684:-1 685:31.5 686:1 687:3 688:3 689:3 690:2 691:-1 692:5 693:1 695:3 696:1 697:1 698:4 699:2 700:2 
1 70:1 81:1 83:1 125:1 229:1 340:1 456:1 677:3 678:3 679:1 681:2 682:-1 683:2 684:-1 685:21.1 686:1 687:3 688:4 689:2 690:1 691:2 692:8 693:1 695:4 696:1 697:2 698:4 699:2 700:-1 
1 71:1 78:1 84:1 123:1 193:1 241:1 249:1 388:1 393:1 394:1 463:1 464:1 465:1 519:1 677:3 678:3 679:1 681:1 682:65 683:1 684:-1 685:33.4 686:1 687:3 688:2 689:2 690:1 691:2 692:6 693:-9 695:-9 696:1 697:2 698:4 699:2 700:-1 
1 4:1 50:1 404:1 677:3 678:1 679:3 681:2 682:-1 683:1 684:-1 685:28.3 686:1 687:4 688:4 689:4 690:1 691:4 692:10 693:1 695:5 696:1 697:1 698:4 699:2 700:2 
1 73:1 74:1 85:1 150:1 190:1 194:1 195:1 198:1 201:1 246:1 249:1 343:1 344:1 464:1 465:1 471:1 499:1 516:1 522:1 677:3 678:3 679:1 681:2 682:-1 683:1 684:-1 685:-1 686:1 687:3 688:3 689:2 690:1 691:4 692:6 693:1 695:4 696:1 697:1 698:4 699:2 700:-1 
1 320:1 396:1 405:1 471:1 677:3 678:3 679:1 681:1 682:40 683:1 684:-1 685:21.6 686:1 687:4 688:4 689:4 690:1 691:4 692:10 693:1 695:3 696:1 697:2 698:-7 699:2 700:-1 
1 48:1 50:1 60:1 63:1 195:1 228:1 318:1 330:1 333:1 465:1 677:3 678:3 679:1 681:1 682:58 683:1 684:-1 685:25.8 686:1 687:4 688:4 689:3 690:1 691:3 692:9 693:1 695:3 696:1 697:1 698:4 699:2 700:1 
1 49:1 79:1 84:1 118:1 163:1 194:1 319:1 322:1 350:1 383:1 387:1 388:1 464:1 677:3 678:3 679:1 681:2 682:-1 683:1 684:-1 685:34.1 686:1 687:4 688:4 689:2 690:1 691:4 692:9 693:1 695:2 696:1 697:1 698:4 699:2 700:2 
1 112:1 116:1 117:1 124:1 226:1 382:1 464:1 504:1 677:3 678:3 679:1 681:2 682:-1 683:1 684:-1 685:27.7 686:2 687:1 688:1 689:2 690:1 691:2 692:5 693:2 695:3 696:1 697:2 698:2 699:2 700:-1 
1 43:1 45:1 50:1 52:1 70:1 88:1 117:1 192:1 313:1 315:1 320:1 322:1 340:1 343:1 351:1 358:1 369:1 387:1 388:1 462:1 471:1 677:3 678:3 679:1 681:1 682:22 683:1 684:-1 685:38.1 686:1 687:4 688:4 689:3 690:1 691:3 692:10 693:1 695:4 696:1 697:1 698:4 699:2 700:-1 
1 65:1 83:1 88:1 124:1 128:1 163:1 335:1 344:1 358:1 423:1 433:1 462:1 464:1 465:1 519:1 522:1 677:3 678:3 679:1 681:2 682:-1 683:1 684:-1 685:62.9 686:1 687:3 688:4 689:3 690:1 691:3 692:10 693:1 695:4 696:1 697:1 698:3 699:2 700:2 
1 54:1 71:1 91:1 193:1 258:1 323:1 324:1 326:1 341:1 353:1 398:1 463:1 465:1 502:1 528:1 677:3 678:3 679:1 681:2 682:-1 683:1 684:-1 685:21.4 686:1 687:3 688:3 689:3 690:1 691:4 692:7 693:1 695:4 696:1 697:1 698:4 699:2 700:-1 
1 81:1 90:1 153:1 194:1 198:1 201:1 350:1 360:1 423:1 457:1 464:1 471:1 524:1 677:3 678:3 679:1 681:2 682:-1 683:1 684:-1 685:25.7 686:1 687:3 688:4 689:3 690:1 691:3 692:8 693:1 695:5 696:1 697:2 698:4 699:2 700:-1 
1 45:1 91:1 154:1 315:1 320:1 361:1 424:1 677:3 678:3 679:1 681:1 682:50 683:1 684:-1 685:31.9 686:1 687:3 688:3 689:3 690:1 691:4 692:8 693:1 695:3 696:1 697:2 698:1 699:2 700:2 
1 117:1 303:1 387:1 677:3 678:3 679:1 681:2 682:-1 683:2 684:-1 685:19.5 686:1 687:4 688:4 689:4 690:1 691:4 692:10 693:1 695:3 696:1 697:1 698:-8 699:2 700:1 
1 55:1 136:1 252:1 258:1 318:1 320:1 324:1 325:1 358:1 396:1 406:1 463:1 522:1 528:1 677:3 678:1 679:3 681:1 682:37 683:1 684:-1 685:52.3 686:1 687:4 688:4 689:4 690:1 691:4 692:10 693:1 695:5 696:1 697:1 698:2 699:2 700:-1 
1 99:1 194:1 324:1 358:1 369:1 388:1 394:1 677:1 678:3 679:3 681:2 682:-1 683:1 684:-1 685:26.9 686:1 687:4 688:4 689:4 690:1 691:4 692:10 693:2 695:4 696:1 697:2 698:4 699:2 700:-1 
1 25:1 76:1 193:1 194:1 195:1 295:1 318:1 380:1 465:1 677:3 678:3 679:1 681:2 682:-1 683:1 684:-1 685:30 686:1 687:4 688:4 689:4 690:1 691:3 692:9 693:2 695:3 696:1 697:1 698:4 699:2 700:1 
1 49:1 54:1 71:1 76:1 85:1 116:1 190:1 278:1 319:1 324:1 341:1 346:1 352:1 355:1 393:1 460:1 677:3 678:3 679:1 681:2 682:-1 683:1 684:-1 685:29.6 686:-1 687:-1 688:-1 689:-1 690:-1 691:-1 692:-1 693:-1 695:-1 696:1 697:1 698:4 699:2 700:2 
1 50:1 85:1 88:1 91:1 96:1 226:1 320:1 324:1 355:1 358:1 361:1 366:1 517:1 677:3 678:1 679:3 681:1 682:56 683:1 684:-1 685:28.4 686:1 687:3 688:3 689:3 690:1 691:3 692:7 693:1 695:4 696:1 697:1 698:4 699:2 700:-1 
1 49:1 85:1 223:1 258:1 319:1 355:1 386:1 423:1 489:1 512:1 677:3 678:3 679:1 681:2 682:-1 683:1 684:-1 685:27.2 686:1 687:3 688:3 689:3 690:1 691:-9 692:10 693:1 695:4 696:1 697:1 698:4 699:2 700:-1 
1 74:1 124:1 201:1 341:1 463:1 515:1 519:1 677:3 678:3 679:1 681:2 682:-1 683:1 684:-1 685:31.8 686:1 687:3 688:3 689:3 690:1 691:4 692:8 693:1 695:5 696:1 697:1 698:4 699:2 700:-1 
1 50:1 51:1 54:1 91:1 194:1 201:1 320:1 321:1 464:1 471:1 504:1 516:1 677:3 678:1 679:3 681:1 682:62 683:2 684:-1 685:24.3 686:-1 687:-1 688:-1 689:-1 690:-1 691:-1 692:-1 693:-1 695:-1 696:1 697:1 698:3 699:2 700:1 
1 50:1 88:1 91:1 92:1 104:1 194:1 320:1 324:1 358:1 360:1 361:1 362:1 364:1 464:1 677:3 678:1 679:3 681:1 682:50 683:2 684:-1 685:33.7 686:1 687:4 688:4 689:4 690:1 691:4 692:10 693:1 695:5 696:1 697:1 698:4 699:2 700:-1 
1 219:1 253:1 386:1 489:1 522:1 523:1 677:3 678:3 679:3 681:-1 682:-1 683:2 684:1 685:-1 686:-1 687:-1 688:-1 689:-1 690:-1 691:-1 692:-1 693:-1 695:-1 696:1 697:1 698:3 699:2 700:-1 
1 110:1 144:1 194:1 201:1 315:1 330:1 347:1 414:1 460:1 464:1 677:3 678:3 679:1 681:2 682:-1 683:1 684:-1 685:30.2 686:1 687:4 688:4 689:4 690:1 691:4 692:10 693:1 695:4 696:1 697:1 698:4 699:2 700:2 
1 258:1 260:1 386:1 528:1 530:1 677:3 678:3 679:1 681:2 682:-1 683:2 684:-1 685:30.8 686:2 687:4 688:4 689:4 690:1 691:4 692:9 693:2 695:4 696:1 697:1 698:-8 699:2 700:-1 
1 79:1 85:1 112:1 193:1 195:1 201:1 249:1 318:1 355:1 380:1 386:1 463:1 465:1 471:1 519:1 677:3 678:3 679:1 681:2 682:-1 683:1 684:-1 685:31.9 686:1 687:4 688:4 689:3 690:1 691:4 692:10 693:1 695:4 696:1 697:2 698:3 699:2 700:-9 
1 24:1 77:1 84:1 88:1 96:1 106:1 294:1 347:1 366:1 677:3 678:3 679:1 681:2 682:-1 683:1 684:-1 685:24.4 686:1 687:4 688:4 689:4 690:1 691:4 692:10 693:1 695:2 696:1 697:1 698:4 699:2 700:1 
1 85:1 194:1 195:1 222:1 234:1 464:1 477:1 492:1 677:3 678:1 679:3 681:2 682:-1 683:1 684:-1 685:34.7 686:1 687:4 688:4 689:4 690:1 691:4 692:8 693:1 695:3 696:1 697:1 698:2 699:2 700:1 
1 44:1 80:1 117:1 118:1 246:1 379:1 387:1 388:1 419:1 677:3 678:3 679:1 681:2 682:-1 683:1 684:-1 685:27.6 686:1 687:3 688:4 689:3 690:1 691:4 692:10 693:1 695:3 696:1 697:1 698:4 699:2 700:2 
1 76:1 195:1 320:1 324:1 358:1 386:1 465:1 471:1 504:1 519:1 677:3 678:3 679:1 681:1 682:65 683:1 684:-1 685:34.4 686:1 687:4 688:4 689:4 690:1 691:4 692:10 693:1 695:4 696:1 697:1 698:3 699:2 700:2 
1 88:1 271:1 360:1 426:1 504:1 528:1 541:1 677:3 678:3 679:1 681:2 682:-1 683:1 684:-1 685:26.4 686:1 687:4 688:3 689:3 690:1 691:4 692:8 693:1 695:2 696:1 697:1 698:4 699:2 700:-1 
1 49:1 201:1 249:1 393:1 427:1 515:1 519:1 677:3 678:1 679:3 681:2 682:-1 683:1 684:-1 685:39.2 686:1 687:3 688:3 689:3 690:1 691:3 692:6 693:1 695:3 696:1 697:1 698:4 699:2 700:2 
1 48:1 88:1 151:1 190:1 249:1 320:1 355:1 358:1 361:1 368:1 421:1 462:1 471:1 519:1 677:3 678:3 679:1 681:1 682:50 683:1 684:-1 685:40.1 686:1 687:-1 688:-1 689:-1 690:-1 691:-1 692:-1 693:1 695:5 696:1 697:1 698:4 699:2 700:2 
1 50:1 675:2 677:3 678:1 679:3 680:3 681:-1 682:-1 683:1 685:-1 686:-1 687:-1 688:-1 689:-1 690:-1 691:-1 692:-1 693:-1 695:-1 696:1 697:1 698:4 699:2 700:-1 
1 5:1 25:1 54:1 194:1 295:1 324:1 381:1 519:1 677:3 678:3 679:1 681:2 682:-1 683:1 684:-1 685:24.6 686:1 687:4 688:3 689:4 690:1 691:4 692:8 693:1 695:2 696:1 697:1 698:4 699:2 700:1 
1 194:1 195:1 252:1 258:1 464:1 465:1 528:1 677:3 678:3 679:1 681:2 682:-1 683:2 684:-1 685:21 686:1 687:4 688:4 689:3 690:1 691:3 692:9 693:2 695:1 696:1 697:1 698:3 699:2 700:-1 
1 88:1 201:1 258:1 366:1 436:1 471:1 504:1 522:1 528:1 677:3 678:3 679:3 681:2 682:-1 683:2 684:-1 685:32.5 686:1 687:4 688:4 689:4 690:1 691:4 692:9 693:1 695:2 696:1 697:1 698:4 699:2 700:-1 
1 25:1 74:1 80:1 85:1 201:1 249:1 295:1 344:1 460:1 471:1 677:3 678:3 679:1 681:2 682:-1 683:1 684:-1 685:30.7 686:1 687:4 688:4 689:4 690:1 691:4 692:8 693:1 695:3 696:1 697:-8 698:2 699:2 700:2 
1 50:1 116:1 194:1 249:1 320:1 464:1 519:1 677:3 678:1 679:3 681:1 682:32 683:1 684:-1 685:31.3 686:1 687:4 688:4 689:4 690:1 691:4 692:10 693:1 695:3 696:1 697:1 698:4 699:2 700:-1 
1 8:1 54:1 55:1 88:1 91:1 95:1 96:1 99:1 116:1 117:1 123:1 129:1 194:1 201:1 245:1 246:1 247:1 278:1 330:1 358:1 361:1 365:1 366:1 386:1 387:1 393:1 464:1 471:1 519:1 677:3 678:3 679:1 681:2 682:-1 683:1 684:-1 685:27.1 686:1 687:3 688:3 689:2 690:1 691:3 692:7 693:1 695:5 696:1 697:1 698:3 699:2 700:2 
1 116:1 194:1 222:1 386:1 393:1 457:1 464:1 490:1 677:3 678:3 679:1 681:-1 682:-1 683:2 685:-1 686:-1 687:-1 688:-1 689:-1 690:-1 691:-1 692:-1 693:-1 695:-1 696:2 697:-1 698:-1 699:2 700:-1 
1 54:1 84:1 88:1 91:1 96:1 190:1 193:1 205:1 229:1 247:1 248:1 324:1 326:1 358:1 361:1 366:1 377:1 398:1 419:1 460:1 463:1 475:1 499:1 517:1 518:1 519:1 677:3 678:3 679:1 681:2 682:-1 683:1 684:-1 685:30.2 686:1 687:4 688:4 689:4 690:1 691:-9 692:10 693:1 695:3 696:1 697:1 698:4 699:2 700:1 
1 116:1 117:1 118:1 195:1 207:1 252:1 388:1 394:1 465:1 471:1 677:3 678:3 679:1 681:2 682:-1 683:2 684:-1 685:33.2 686:1 687:4 688:3 689:4 690:1 691:4 692:8 693:1 695:2 696:1 697:1 698:4 699:2 700:-1 
1 6:1 8:1 124:1 190:1 276:1 312:1 329:1 460:1 677:3 678:3 679:1 681:2 682:-1 683:2 684:-1 685:21.6 686:1 687:4 688:4 689:4 690:1 691:4 692:10 693:1 695:5 696:1 697:1 698:4 699:2 700:-1 
1 50:1 54:1 79:1 88:1 91:1 320:1 324:1 349:1 358:1 504:1 677:3 678:1 679:3 681:1 682:45 683:1 684:-1 685:35.3 686:1 687:4 688:3 689:4 690:1 691:-9 692:10 693:1 695:4 696:1 697:1 698:4 699:2 700:2 
1 50:1 76:1 88:1 190:1 194:1 195:1 201:1 234:1 274:1 320:1 464:1 465:1 677:3 678:3 679:1 681:1 682:-8 683:1 684:-1 685:31.6 686:1 687:3 688:3 689:4 690:1 691:3 692:7 693:1 695:3 696:1 697:1 698:4 699:2 700:1 
1 48:1 50:1 54:1 76:1 77:1 88:1 192:1 258:1 275:1 320:1 324:1 346:1 347:1 358:1 462:1 465:1 519:1 528:1 677:3 678:3 679:1 681:1 682:67 683:1 684:-1 685:31.2 686:1 687:2 688:4 689:4 690:1 691:4 692:8 693:2 695:5 696:1 697:1 698:4 699:2 700:1 
1 88:1 92:1 192:1 194:1 195:1 248:1 358:1 394:1 462:1 464:1 465:1 492:1 518:1 677:3 678:3 679:1 681:2 682:-1 683:1 684:-1 685:29.6 686:1 687:4 688:4 689:4 690:1 691:4 692:8 693:1 695:4 696:1 697:1 698:4 699:2 700:2 
1 50:1 54:1 85:1 88:1 91:1 201:1 234:1 320:1 324:1 355:1 358:1 361:1 471:1 498:1 504:1 677:3 678:3 679:1 681:1 682:52 683:1 684:-1 685:28.4 686:1 687:4 688:3 689:4 690:1 691:4 692:10 693:1 695:4 696:1 697:2 698:4 699:2 700:2 
1 193:1 358:1 433:1 464:1 465:1 519:1 677:3 678:1 679:3 681:2 682:-1 683:1 684:-1 685:32.3 686:1 687:4 688:-9 689:1 690:1 691:4 692:-9 693:2 695:5 696:1 697:2 698:3 699:2 700:-9 
1 293:1 294:1 345:1 346:1 350:1 355:1 380:1 386:1 398:1 460:1 472:1 492:1 677:3 678:3 679:1 681:2 682:-1 683:1 684:-1 685:23.7 686:1 687:3 688:4 689:3 690:1 691:3 692:9 693:1 695:4 696:1 697:1 698:3 699:2 700:1 
1 50:1 76:1 88:1 186:1 320:1 358:1 677:3 678:3 679:1 681:1 682:40 683:1 684:-1 685:34.5 686:1 687:4 688:4 689:4 690:1 691:4 692:8 693:1 695:3 696:1 697:1 698:4 699:2 700:-1 
1 81:1 131:1 236:1 253:1 386:1 393:1 471:1 506:1 523:1 677:3 678:3 679:1 681:-1 682:-1 683:1 685:-1 686:-1 687:-1 688:-1 689:-1 690:-1 691:-1 692:-1 693:-1 695:-1 696:1 697:1 698:4 699:2 700:-1 
1 30:1 60:1 88:1 96:1 300:1 366:1 464:1 465:1 492:1 515:1 677:3 678:3 679:1 681:2 682:-1 683:2 684:-1 685:28.3 686:1 687:4 688:4 689:3 690:1 691:4 692:9 693:1 695:2 696:1 697:1 698:4 699:2 700:1 
1 54:1 88:1 190:1 194:1 195:1 201:1 249:1 324:1 358:1 394:1 398:1 460:1 463:1 464:1 465:1 471:1 677:3 678:3 679:1 681:2 682:-1 683:2 684:-1 685:28.7 686:1 687:3 688:4 689:3 690:-9 691:3 692:8 693:1 695:4 696:1 697:1 698:4 699:2 700:-1 
1 45:1 79:1 116:1 194:1 195:1 315:1 349:1 464:1 465:1 485:1 677:3 678:3 679:1 681:2 682:-1 683:1 684:-1 685:24.3 686:1 687:3 688:3 689:3 690:1 691:3 692:8 693:1 695:3 696:1 697:1 698:2 699:2 700:2 
1 53:1 54:1 59:1 188:1 192:1 344:1 355:1 388:1 394:1 462:1 465:1 677:3 678:3 679:2 681:1 682:38 683:1 684:-1 685:47.6 686:1 687:4 688:4 689:2 690:1 691:4 692:5 693:1 695:5 696:1 697:2 698:4 699:1 700:-1 
1 50:1 88:1 258:1 277:1 319:1 320:1 358:1 464:1 519:1 522:1 528:1 677:3 678:3 679:1 681:1 682:25 683:2 684:-1 685:27.1 686:1 687:3 688:1 689:2 690:1 691:2 692:5 693:1 695:4 696:1 697:2 698:3 699:2 700:-1 
1 5:1 76:1 96:1 116:1 156:1 195:1 366:1 394:1 471:1 492:1 677:3 678:3 679:1 681:2 682:-1 683:1 684:-1 685:28.4 686:1 687:4 688:4 689:4 690:1 691:4 692:9 693:1 695:4 696:1 697:1 698:3 699:2 700:1 
1 24:1 30:1 49:1 91:1 294:1 300:1 319:1 324:1 361:1 677:3 678:3 679:1 681:2 682:-1 683:1 684:-1 685:23.7 686:1 687:3 688:4 689:4 690:1 691:3 692:9 693:1 695:4 696:1 697:1 698:4 699:2 700:1 
1 149:1 187:1 252:1 320:1 358:1 382:1 387:1 421:1 465:1 677:3 678:3 679:1 681:2 682:-1 683:1 684:-1 685:32.9 686:1 687:3 688:3 689:3 690:1 691:3 692:9 693:1 695:3 696:1 697:1 698:3 699:2 700:2 
1 50:1 54:1 88:1 91:1 99:1 142:1 201:1 320:1 324:1 358:1 369:1 412:1 471:1 677:3 678:1 679:3 681:1 682:30 683:1 684:-1 685:32.1 686:1 687:3 688:2 689:2 690:1 691:3 692:6 693:1 695:3 696:1 697:2 698:3 699:2 700:-1 
1 50:1 54:1 88:1 91:1 156:1 319:1 320:1 324:1 354:1 355:1 358:1 360:1 361:1 369:1 419:1 426:1 469:1 486:1 528:1 677:3 678:3 679:1 681:1 682:75 683:1 684:-1 685:-1 686:1 687:2 688:4 689:3 690:1 691:3 692:7 693:1 695:5 696:1 697:1 698:4 699:2 700:-1 
1 24:1 49:1 54:1 59:1 88:1 124:1 394:1 458:1 464:1 498:1 513:1 677:3 678:3 679:1 681:2 682:-1 683:1 684:-1 685:24.3 686:1 687:3 688:4 689:4 690:1 691:3 692:8 693:1 695:4 696:1 697:1 698:1 699:2 700:1 
1 23:1 24:1 71:1 117:1 293:1 294:1 341:1 387:1 492:1 504:1 516:1 677:3 678:3 679:1 681:2 682:-1 683:1 684:-1 685:47.8 686:1 687:3 688:3 689:3 690:1 691:4 692:7 693:1 695:4 696:1 697:1 698:4 699:2 700:-1 
1 82:1 233:1 253:1 258:1 259:1 352:1 388:1 503:1 523:1 528:1 529:1 677:3 678:3 679:1 681:-1 682:-1 683:1 685:-1 686:-1 687:-1 688:-1 689:-1 690:-1 691:-1 692:-1 693:-1 695:-1 696:1 697:1 698:4 699:2 700:-1 
1 54:1 116:1 195:1 203:1 318:1 401:1 464:1 465:1 677:3 678:3 679:1 681:2 682:-1 683:1 684:-1 685:24 686:1 687:4 688:3 689:3 690:2 691:-1 692:8 693:1 695:1 696:1 697:1 698:4 699:2 700:1 
1 90:1 99:1 147:1 320:1 417:1 418:1 490:1 677:3 678:1 679:3 681:1 682:39 683:2 684:-1 685:32.7 686:1 687:4 688:4 689:4 690:1 691:4 692:10 693:1 695:5 696:1 697:1 698:4 699:2 700:1 
1 60:1 113:1 123:1 143:1 201:1 240:1 241:1 252:1 258:1 471:1 485:1 519:1 521:1 522:1 528:1 677:3 678:3 679:3 681:2 682:-1 683:1 684:-1 685:37.6 686:1 687:3 688:4 689:4 690:1 691:4 692:10 693:1 695:4 696:1 697:1 698:3 699:2 700:-1 
1 74:1 125:1 143:1 234:1 348:1 393:1 504:1 677:3 678:1 679:3 681:2 682:-1 683:1 684:-1 685:33.5 686:1 687:4 688:4 689:4 690:1 691:3 692:10 693:1 695:1 696:1 697:1 698:4 699:2 700:2 
1 24:1 50:1 56:1 91:1 153:1 187:1 294:1 320:1 344:1 361:1 376:1 377:1 460:1 496:1 677:3 678:3 679:1 681:1 682:77 683:1 684:-1 685:27.1 686:1 687:4 688:4 689:4 690:1 691:4 692:10 693:1 695:5 696:1 697:1 698:4 699:2 700:1 
1 24:1 88:1 118:1 124:1 195:1 243:1 244:1 247:1 319:1 356:1 358:1 388:1 394:1 458:1 460:1 495:1 496:1 499:1 503:1 513:1 677:3 678:3 679:1 681:2 682:-1 683:1 684:-1 685:21.8 686:1 687:4 688:3 689:4 690:-9 691:3 692:9 693:1 695:3 696:2 697:-1 698:-1 699:2 700:1 
1 48:1 186:1 427:1 456:1 460:1 677:1 678:3 679:3 681:2 682:-1 683:1 684:-1 685:21.5 686:1 687:4 688:3 689:3 690:1 691:3 692:9 693:1 695:2 696:2 697:-1 698:-1 699:2 700:-1 
1 4:1 59:1 112:1 258:1 363:1 382:1 677:3 678:1 679:3 681:1 682:28 683:2 684:-1 685:59.4 686:1 687:4 688:4 689:4 690:1 691:4 692:9 693:1 695:5 696:1 697:1 698:4 699:2 700:-1 
1 50:1 54:1 88:1 192:1 320:1 324:1 358:1 462:1 490:1 677:3 678:3 679:1 681:1 682:49 683:2 684:-1 685:32.3 686:1 687:4 688:4 689:4 690:1 691:4 692:10 693:1 695:4 696:1 697:1 698:4 699:2 700:-1 
1 6:1 276:1 324:1 329:1 387:1 519:1 528:1 677:3 678:3 679:1 681:2 682:-1 683:1 684:-1 685:22.1 686:1 687:4 688:4 689:4 690:1 691:4 692:3 693:1 695:5 696:1 697:1 698:4 699:2 700:-1 
1 45:1 50:1 54:1 88:1 249:1 315:1 320:1 418:1 421:1 515:1 677:3 678:3 679:1 681:1 682:56 683:1 684:-1 685:28.9 686:1 687:4 688:4 689:4 690:1 691:4 692:10 693:1 695:3 696:1 697:1 698:4 699:2 700:1 
1 24:1 105:1 117:1 187:1 192:1 361:1 364:1 376:1 516:1 519:1 677:3 678:3 679:2 681:2 682:-1 683:1 684:-1 685:26.6 686:1 687:4 688:4 689:4 690:1 691:4 692:10 693:1 695:5 696:1 697:1 698:4 699:2 700:-1 
1 49:1 319:1 361:1 465:1 505:1 528:1 677:3 678:3 679:1 681:1 682:53 683:1 684:-1 685:32.9 686:1 687:4 688:4 689:4 690:1 691:4 692:10 693:1 695:5 696:1 697:1 698:4 699:2 700:-1 
1 69:1 85:1 153:1 190:1 320:1 339:1 351:1 355:1 361:1 383:1 423:1 486:1 677:1 678:3 679:3 681:1 682:40 683:1 684:-1 685:24.2 686:2 687:-1 688:-1 689:-1 690:-1 691:-1 692:-1 693:2 695:4 696:1 697:1 698:4 699:2 700:1 
1 50:1 96:1 116:1 156:1 366:1 425:1 426:1 519:1 677:3 678:3 679:1 681:1 682:63 683:2 684:-1 685:27.7 686:1 687:4 688:4 689:4 690:1 691:4 692:10 693:1 695:3 696:1 697:1 698:3 699:2 700:1 
1 116:1 117:1 125:1 145:1 193:1 330:1 344:1 377:1 387:1 414:1 415:1 463:1 472:1 523:1 677:3 678:3 679:1 681:2 682:-1 683:1 684:-1 685:18.3 686:-1 687:-1 688:-1 689:-1 690:-1 691:-1 692:-1 693:-1 695:-1 696:1 697:1 698:3 699:2 700:2 
1 116:1 118:1 123:1 131:1 243:1 386:1 388:1 393:1 401:1 504:1 513:1 677:3 678:3 679:1 681:-1 682:-1 683:2 685:-1 686:-1 687:-1 688:-1 689:-1 690:-1 691:-1 692:-1 693:-1 695:-1 696:1 697:1 698:4 699:2 700:-1 
1 253:1 675:2 677:3 678:1 679:3 680:3 681:-1 682:-1 683:2 685:-1 686:-1 687:-1 688:-1 689:-1 690:-1 691:-1 692:-1 693:-1 695:-1 696:2 697:-1 698:-1 699:2 700:-1 
1 149:1 249:1 675:1 677:3 678:3 679:1 680:2 681:2 682:-1 683:1 684:-1 685:31.6 686:2 687:4 688:4 689:4 690:1 691:4 692:9 693:1 695:3 696:1 697:1 698:4 699:2 700:1 
1 201:1 207:1 675:1 677:3 678:3 679:1 680:2 681:2 682:-1 683:2 684:-1 685:21 686:1 687:4 688:3 689:4 690:1 691:4 692:9 693:2 695:2 696:1 697:1 698:3 699:2 700:-1 
1 50:1 54:1 96:1 226:1 234:1 319:1 320:1 324:1 361:1 366:1 464:1 492:1 677:3 678:3 679:1 681:1 682:65 683:1 684:-1 685:25.4 686:1 687:3 688:3 689:3 690:1 691:3 692:8 693:2 695:3 696:1 697:1 698:4 699:2 700:1 
1 50:1 53:1 88:1 192:1 252:1 300:1 320:1 324:1 358:1 462:1 677:3 678:3 679:1 681:1 682:22 683:1 684:-1 685:19.5 686:1 687:2 688:2 689:2 690:1 691:3 692:8 693:1 695:2 696:1 697:1 698:4 699:2 700:2 
1 54:1 88:1 194:1 229:1 324:1 358:1 464:1 471:1 499:1 677:3 678:3 679:1 681:2 682:-1 683:1 684:-1 685:27.4 686:1 687:4 688:4 689:4 690:1 691:4 692:10 693:1 695:5 696:1 697:1 698:2 699:2 700:-1 
1 49:1 54:1 76:1 81:1 88:1 112:1 154:1 201:1 319:1 348:1 358:1 409:1 460:1 463:1 464:1 465:1 471:1 519:1 677:3 678:3 679:1 681:2 682:-1 683:1 684:-1 685:36.6 686:1 687:4 688:4 689:4 690:1 691:-9 692:10 693:1 695:2 696:1 697:1 698:4 699:2 700:-1 
1 45:1 88:1 128:1 149:1 344:1 354:1 369:1 419:1 464:1 516:1 677:3 678:3 679:1 681:2 682:-1 683:1 684:-1 685:24.2 686:1 687:4 688:4 689:4 690:1 691:4 692:10 693:1 695:3 696:1 697:2 698:4 699:2 700:2 
1 50:1 88:1 201:1 248:1 275:1 320:1 358:1 463:1 464:1 465:1 471:1 518:1 677:3 678:3 679:1 681:1 682:25 683:1 684:-1 685:59.2 686:1 687:2 688:2 689:2 690:1 691:2 692:5 693:1 695:5 696:1 697:1 698:2 699:2 700:-1 
1 54:1 194:1 249:1 252:1 258:1 324:1 464:1 522:1 528:1 677:3 678:1 679:3 681:2 682:-1 683:1 684:-1 685:35.5 686:1 687:3 688:3 689:3 690:1 691:4 692:5 693:1 695:4 696:1 697:1 698:3 699:2 700:-1 
1 85:1 133:1 194:1 261:1 398:1 464:1 465:1 677:3 678:3 679:1 681:2 682:-1 683:1 684:-1 685:21.5 686:1 687:4 688:4 689:4 690:1 691:4 692:10 693:1 695:1 696:1 697:1 698:4 699:2 700:-1 
1 194:1 275:1 346:1 347:1 350:1 351:1 362:1 393:1 394:1 494:1 496:1 513:1 522:1 677:3 678:3 679:1 681:2 682:-1 683:1 684:-1 685:19.8 686:1 687:4 688:2 689:3 690:1 691:3 692:7 693:1 695:2 696:1 697:2 698:-8 699:2 700:1 
1 194:1 201:1 234:1 278:1 457:1 471:1 504:1 677:3 678:3 679:1 681:2 682:-1 683:1 684:-1 685:22.2 686:1 687:4 688:4 689:4 690:2 691:-1 692:10 693:2 695:3 696:1 697:2 698:3 699:2 700:2 
1 85:1 106:1 118:1 202:1 222:1 258:1 330:1 344:1 355:1 383:1 464:1 471:1 472:1 512:1 528:1 677:3 678:3 679:1 681:2 682:-1 683:1 684:-1 685:31.9 686:1 687:3 688:3 689:3 690:1 691:4 692:8 693:1 695:2 696:1 697:1 698:4 699:2 700:-1 
1 74:1 81:1 116:1 129:1 149:1 241:1 319:1 344:1 395:1 429:1 511:1 677:3 678:3 679:1 681:2 682:-1 683:1 684:-1 685:20.9 686:1 687:3 688:4 689:4 690:1 691:3 692:10 693:1 695:4 696:1 697:1 698:4 699:2 700:-1 
1 249:1 350:1 352:1 356:1 386:1 397:1 513:1 677:3 678:3 679:1 681:-1 682:-1 683:2 684:-1 685:-1 686:-1 687:-1 688:-1 689:-1 690:-1 691:-1 692:-1 693:-1 695:-1 696:1 697:1 698:3 699:2 700:-1 
1 43:1 108:1 245:1 313:1 344:1 519:1 677:3 678:3 679:1 681:2 682:-1 683:2 684:-1 685:39 686:1 687:3 688:3 689:3 690:1 691:3 692:9 693:1 695:4 696:1 697:1 698:4 699:2 700:-1 
1 116:1 229:1 251:1 258:1 521:1 523:1 528:1 677:3 678:3 679:1 681:-1 682:-1 683:2 684:2 685:-1 686:-1 687:-1 688:-1 689:-1 690:-1 691:-1 692:-1 693:-1 695:-1 696:1 697:1 698:3 699:2 700:-1 
1 258:1 355:1 522:1 528:1 677:3 678:1 679:3 681:-1 682:-1 683:2 684:2 685:-1 686:-1 687:-1 688:-1 689:-1 690:-1 691:-1 692:-1 693:-1 695:-1 696:1 697:2 698:3 699:2 700:-1 
1 25:1 88:1 117:1 195:1 246:1 295:1 319:1 320:1 324:1 358:1 399:1 421:1 463:1 465:1 516:1 677:3 678:1 679:3 681:2 682:-1 683:1 684:-1 685:31.9 686:1 687:3 688:4 689:3 690:1 691:3 692:7 693:1 695:3 696:1 697:1 698:4 699:2 700:1 
1 117:1 118:1 237:1 355:1 465:1 504:1 519:1 528:1 677:3 678:3 679:1 681:2 682:-1 683:2 684:-1 685:27.4 686:1 687:2 688:2 689:1 690:1 691:-9 692:5 693:1 695:4 696:1 697:2 698:3 699:1 700:2 
1 27:1 50:1 145:1 195:1 297:1 320:1 333:1 361:1 387:1 465:1 492:1 528:1 677:3 678:3 679:1 681:1 682:40 683:1 684:-1 685:35.7 686:1 687:4 688:3 689:4 690:1 691:-9 692:10 693:1 695:3 696:1 697:1 698:-8 699:2 700:-1 
1 48:1 201:1 249:1 258:1 324:1 358:1 522:1 528:1 677:3 678:3 679:1 681:2 682:-1 683:1 684:-1 685:29.2 686:1 687:3 688:3 689:3 690:1 691:3 692:8 693:1 695:4 696:2 697:-1 698:-1 699:2 700:2 
1 54:1 84:1 108:1 117:1 349:1 378:1 457:1 460:1 462:1 677:3 678:3 679:1 681:2 682:-1 683:1 684:-1 685:20.5 686:1 687:4 688:4 689:4 690:2 691:-1 692:10 693:1 695:2 696:1 697:2 698:-8 699:2 700:-1 
1 215:1 386:1 485:1 677:3 678:3 679:1 681:-1 682:-1 683:1 685:-1 686:-1 687:-1 688:-1 689:-1 690:-1 691:-1 692:-1 693:-1 695:-1 696:1 697:1 698:4 699:2 700:-1 
1 54:1 88:1 96:1 194:1 318:1 324:1 358:1 366:1 464:1 677:3 678:3 679:1 681:2 682:-1 683:1 684:-1 685:24.6 686:1 687:3 688:4 689:4 690:1 691:4 692:8 693:1 695:3 696:1 697:1 698:4 699:2 700:1 
1 96:1 194:1 195:1 249:1 415:1 464:1 503:1 677:3 678:3 679:1 681:2 682:-1 683:1 684:-1 685:27.1 686:1 687:3 688:3 689:3 690:1 691:3 692:5 693:1 695:3 696:1 697:1 698:4 699:2 700:-1 
1 88:1 91:1 99:1 258:1 326:1 358:1 361:1 363:1 463:1 497:1 528:1 677:3 678:3 679:1 681:2 682:-1 683:2 684:-1 685:60 686:1 687:2 688:2 689:2 690:1 691:2 692:3 693:2 695:5 696:1 697:2 698:2 699:2 700:-1 
1 185:1 186:1 380:1 455:1 456:1 490:1 677:3 678:3 679:1 681:2 682:-1 683:2 684:-1 685:38.7 686:1 687:-1 688:-1 689:-1 690:-1 691:-1 692:-1 693:2 695:2 696:1 697:1 698:4 699:2 700:-1 
1 74:1 96:1 344:1 358:1 677:3 678:3 679:1 681:2 682:-1 683:1 684:-1 685:26.4 686:1 687:3 688:4 689:4 690:1 691:4 692:7 693:1 695:3 696:1 697:1 698:4 699:2 700:2 
1 193:1 258:1 324:1 358:1 463:1 485:1 528:1 534:1 677:3 678:3 679:1 681:2 682:-1 683:2 684:-1 685:27 686:-1 687:-1 688:-1 689:-1 690:-1 691:-1 692:-1 693:-1 695:-1 696:1 697:1 698:4 699:2 700:-1 
1 88:1 124:1 190:1 192:1 195:1 201:1 324:1 351:1 358:1 394:1 462:1 677:3 678:3 679:1 681:2 682:-1 683:1 684:-1 685:24.6 686:1 687:4 688:3 689:4 690:1 691:4 692:10 693:1 695:3 696:1 697:1 698:4 699:2 700:2 
1 48:1 50:1 54:1 88:1 91:1 194:1 320:1 351:1 354:1 360:1 361:1 471:1 677:3 678:3 679:1 681:1 682:50 683:1 684:-1 685:30.4 686:1 687:4 688:4 689:3 690:1 691:4 692:5 693:1 695:4 696:1 697:1 698:4 699:2 700:2 
1 88:1 107:1 190:1 344:1 347:1 415:1 460:1 677:3 678:3 679:1 681:2 682:-1 683:1 684:-1 685:28.2 686:1 687:4 688:4 689:4 690:1 691:4 692:10 693:1 695:3 696:1 697:1 698:4 699:2 700:1 
1 50:1 54:1 88:1 114:1 116:1 128:1 241:1 249:1 320:1 324:1 358:1 386:1 395:1 464:1 677:3 678:1 679:3 681:1 682:45 683:1 684:-1 685:33.8 686:1 687:4 688:4 689:4 690:1 691:4 692:10 693:2 695:3 696:1 697:1 698:4 699:2 700:-1 
1 25:1 84:1 85:1 88:1 124:1 295:1 386:1 394:1 462:1 496:1 519:1 677:3 678:3 679:1 681:2 682:-1 683:1 684:-1 685:23.4 686:1 687:3 688:3 689:4 690:1 691:4 692:9 693:1 695:2 696:1 697:1 698:4 699:2 700:1 
1 54:1 88:1 193:1 201:1 324:1 358:1 419:1 464:1 471:1 677:3 678:3 679:1 681:2 682:-1 683:1 684:-1 685:27.4 686:1 687:4 688:4 689:4 690:1 691:-9 692:10 693:1 695:2 696:1 697:1 698:-8 699:2 700:2 
1 91:1 98:1 149:1 324:1 329:1 348:1 361:1 368:1 382:1 421:1 462:1 677:3 678:3 679:1 681:2 682:-1 683:1 684:-1 685:21 686:1 687:4 688:4 689:4 690:1 691:4 692:7 693:1 695:4 696:1 697:1 698:3 699:2 700:-1 
1 131:1 166:1 194:1 232:1 258:1 388:1 437:1 504:1 677:3 678:1 679:3 681:2 682:-1 683:1 684:-1 685:43 686:2 687:2 688:2 689:2 690:1 691:2 692:4 693:1 695:4 696:1 697:1 698:2 699:1 700:-1 
1 5:1 118:1 149:1 388:1 519:1 523:1 677:3 678:1 679:3 681:-1 682:-1 683:1 685:-1 686:-1 687:-1 688:-1 689:-1 690:-1 691:-1 692:-1 693:-1 695:-1 696:1 697:1 698:3 699:1 700:-1 
1 50:1 54:1 88:1 96:1 117:1 358:1 361:1 366:1 383:1 457:1 677:3 678:3 679:1 681:1 682:53 683:1 684:-1 685:27.3 686:1 687:4 688:4 689:4 690:1 691:4 692:10 693:1 695:4 696:1 697:1 698:3 699:2 700:1 
1 30:1 50:1 53:1 54:1 88:1 112:1 227:1 300:1 319:1 320:1 323:1 324:1 354:1 358:1 382:1 463:1 677:3 678:3 679:1 681:1 682:83 683:1 684:-1 685:22.7 686:2 687:4 688:4 689:4 690:1 691:4 692:8 693:2 695:-9 696:1 697:2 698:4 699:2 700:1 
1 5:1 24:1 193:1 198:1 350:1 351:1 394:1 471:1 677:3 678:3 679:1 681:2 682:-1 683:1 684:-1 685:21.3 686:1 687:3 688:3 689:3 690:1 691:4 692:9 693:1 695:2 696:1 697:1 698:2 699:2 700:1 
1 4:1 52:1 54:1 116:1 118:1 165:1 234:1 322:1 386:1 431:1 435:1 677:1 678:3 679:3 681:2 682:-1 683:1 684:-1 685:37.8 686:1 687:3 688:3 689:3 690:1 691:3 692:8 693:1 695:3 696:1 697:1 698:4 699:2 700:-1 
1 84:1 85:1 124:1 131:1 194:1 199:1 201:1 323:1 324:1 355:1 398:1 464:1 465:1 469:1 471:1 677:3 678:3 679:1 681:2 682:-1 683:2 684:-1 685:32.3 686:1 687:4 688:4 689:3 690:1 691:3 692:7 693:1 695:4 696:1 697:2 698:3 699:2 700:-1 
1 84:1 255:1 271:1 386:1 393:1 394:1 506:1 525:1 541:1 677:3 678:3 679:1 681:-1 682:-1 683:2 684:-1 685:-1 686:-1 687:-1 688:-1 689:-1 690:-1 691:-1 692:-1 693:-1 695:-1 696:1 697:1 698:4 699:2 700:-1 
1 81:1 88:1 91:1 190:1 192:1 195:1 248:1 324:1 325:1 346:1 351:1 353:1 355:1 358:1 462:1 465:1 518:1 519:1 677:3 678:3 679:1 681:2 682:-1 683:1 684:-1 685:36.9 686:1 687:3 688:4 689:4 690:1 691:4 692:10 693:1 695:4 696:1 697:1 698:4 699:2 700:-1 
1 116:1 125:1 329:1 677:1 678:3 679:3 681:2 682:-1 683:1 684:-1 685:19.9 686:1 687:4 688:4 689:4 690:1 691:4 692:10 693:2 695:3 696:1 697:2 698:4 699:2 700:1 
1 20:1 112:1 117:1 236:1 290:1 362:1 423:1 677:3 678:3 679:1 681:2 682:-1 683:2 684:-1 685:26.1 686:1 687:3 688:4 689:3 690:1 691:3 692:10 693:1 695:5 696:1 697:1 698:3 699:2 700:2 
1 86:1 88:1 128:1 195:1 243:1 318:1 351:1 355:1 379:1 386:1 464:1 471:1 513:1 677:3 678:3 679:1 681:2 682:-1 683:1 684:-1 685:30 686:1 687:2 688:2 689:3 690:1 691:4 692:8 693:1 695:3 696:1 697:1 698:-8 699:2 700:1 
1 54:1 77:1 88:1 117:1 128:1 129:1 193:1 195:1 222:1 324:1 347:1 349:1 355:1 358:1 398:1 463:1 465:1 492:1 522:1 677:3 678:3 679:1 681:1 682:41 683:1 684:-1 685:31.9 686:1 687:3 688:3 689:3 690:1 691:2 692:8 693:1 695:3 696:1 697:1 698:2 699:2 700:-1 
1 4:1 249:1 253:1 258:1 315:1 358:1 464:1 519:1 523:1 528:1 677:3 678:3 679:1 681:2 682:-1 683:1 684:-1 685:32.7 686:1 687:3 688:3 689:3 690:1 691:3 692:7 693:2 695:3 696:1 697:1 698:-8 699:2 700:-1 
1 90:1 91:1 96:1 366:1 677:3 678:3 679:1 681:2 682:-1 683:1 684:-1 685:33.9 686:1 687:4 688:4 689:4 690:1 691:4 692:10 693:1 695:3 696:1 697:1 698:-8 699:2 700:1 
1 76:1 88:1 91:1 347:1 355:1 358:1 360:1 460:1 464:1 677:3 678:3 679:1 681:2 682:-1 683:1 684:-1 685:20.5 686:-9 687:3 688:3 689:4 690:1 691:3 692:10 693:-9 695:4 696:1 697:1 698:3 699:2 700:1 
1 116:1 253:1 675:1 677:3 678:3 679:1 680:2 681:-1 682:-1 683:2 685:-1 686:-1 687:-1 688:-1 689:-1 690:-1 691:-1 692:-1 693:-1 695:-1 696:1 697:1 698:3 699:2 700:-1 
1 54:1 79:1 92:1 117:1 123:1 190:1 195:1 201:1 278:1 464:1 465:1 677:3 678:3 679:1 681:2 682:-1 683:1 684:-1 685:27.9 686:1 687:4 688:3 689:4 690:1 691:4 692:10 693:1 695:2 696:1 697:1 698:4 699:2 700:1 
1 78:1 149:1 188:1 222:1 243:1 419:1 458:1 677:3 678:3 679:1 681:2 682:-1 683:1 684:-1 685:45.3 686:1 687:4 688:4 689:4 690:1 691:4 692:10 693:1 695:3 696:1 697:-8 698:4 699:2 700:2 
1 149:1 190:1 194:1 229:1 246:1 248:1 378:1 460:1 464:1 499:1 515:1 677:3 678:1 679:3 681:2 682:-1 683:1 684:-1 685:33.5 686:1 687:4 688:4 689:4 690:1 691:4 692:10 693:1 695:4 696:1 697:1 698:4 699:2 700:-9 
1 73:1 126:1 200:1 201:1 312:1 343:1 465:1 470:1 471:1 488:1 522:1 677:3 678:3 679:1 681:2 682:-1 683:1 684:-1 685:20.8 686:1 687:3 688:4 689:3 690:1 691:3 692:5 693:1 695:3 696:1 697:1 698:2 699:2 700:-1 
1 20:1 88:1 98:1 103:1 290:1 358:1 361:1 368:1 459:1 677:3 678:3 679:1 681:2 682:-1 683:1 684:-1 685:-1 686:2 687:4 688:4 689:4 690:1 691:4 692:10 693:1 695:5 696:1 697:1 698:-8 699:2 700:2 
1 5:1 49:1 116:1 275:1 397:1 465:1 492:1 495:1 677:1 678:3 679:3 681:2 682:-1 683:1 684:-1 685:18.7 686:1 687:4 688:3 689:3 690:1 691:4 692:7 693:1 695:2 696:1 697:2 698:-8 699:2 700:2 
1 54:1 88:1 90:1 91:1 194:1 324:1 358:1 360:1 361:1 459:1 464:1 471:1 519:1 528:1 677:3 678:3 679:1 681:2 682:-1 683:2 684:-1 685:29.3 686:1 687:4 688:4 689:4 690:1 691:4 692:10 693:1 695:4 696:1 697:1 698:3 699:1 700:-1 
1 74:1 149:1 198:1 201:1 222:1 323:1 344:1 362:1 386:1 422:1 492:1 677:3 678:1 679:3 681:2 682:-1 683:1 684:-1 685:29.1 686:1 687:4 688:4 689:4 690:1 691:4 692:10 693:1 695:3 696:1 697:1 698:4 699:2 700:-1 
1 30:1 34:1 54:1 96:1 201:1 246:1 278:1 294:1 300:1 324:1 325:1 366:1 499:1 516:1 677:3 678:3 679:1 681:2 682:-1 683:1 684:-1 685:25.7 686:1 687:4 688:4 689:4 690:1 691:4 692:10 693:1 695:2 696:1 697:1 698:4 699:2 700:1 
1 8:1 186:1 350:1 386:1 456:1 465:1 478:1 677:3 678:3 679:1 681:2 682:-1 683:1 684:-1 685:32.4 686:1 687:3 688:3 689:3 690:1 691:3 692:8 693:1 695:2 696:1 697:1 698:4 699:2 700:-1 
1 260:1 354:1 358:1 386:1 393:1 460:1 465:1 492:1 502:1 530:1 677:3 678:1 679:3 681:2 682:-1 683:1 684:-1 685:31.9 686:1 687:4 688:4 689:4 690:1 691:2 692:10 693:1 695:3 696:1 697:2 698:4 699:2 700:-1 
1 24:1 54:1 88:1 193:1 194:1 199:1 294:1 346:1 464:1 469:1 677:3 678:3 679:1 681:1 682:65 683:1 684:-1 685:33.9 686:1 687:4 688:4 689:4 690:1 691:4 692:10 693:1 695:2 696:1 697:1 698:-8 699:2 700:-1 
1 139:1 194:1 387:1 409:1 522:1 541:1 677:3 678:3 679:1 681:2 682:-1 683:1 684:-1 685:24.6 686:1 687:3 688:4 689:3 690:1 691:3 692:8 693:1 695:4 696:1 697:1 698:4 699:2 700:-1 
1 24:1 30:1 78:1 294:1 300:1 677:3 678:3 679:1 681:2 682:-1 683:1 684:-1 685:21.5 686:1 687:4 688:4 689:4 690:1 691:2 692:8 693:1 695:4 696:1 697:1 698:2 699:2 700:1 
1 88:1 133:1 160:1 194:1 196:1 346:1 351:1 464:1 465:1 466:1 519:1 677:3 678:3 679:1 681:2 682:-1 683:2 684:-1 685:31 686:1 687:4 688:4 689:4 690:1 691:4 692:10 693:1 695:5 696:1 697:1 698:4 699:2 700:2 
1 85:1 149:1 159:1 194:1 355:1 386:1 419:1 456:1 464:1 515:1 677:3 678:3 679:1 681:2 682:-1 683:1 684:-1 685:21.8 686:1 687:3 688:3 689:3 690:1 691:3 692:7 693:1 695:1 696:1 697:1 698:4 699:2 700:-1 
1 49:1 50:1 54:1 88:1 319:1 320:1 324:1 358:1 376:1 388:1 393:1 394:1 519:1 677:3 678:3 679:1 681:1 682:54 683:1 684:-1 685:35.9 686:1 687:4 688:4 689:4 690:1 691:4 692:10 693:1 695:3 696:1 697:1 698:4 699:2 700:1 
1 24:1 193:1 249:1 318:1 364:1 419:1 463:1 519:1 677:3 678:3 679:1 681:2 682:-1 683:1 684:-1 685:23.6 686:1 687:3 688:4 689:3 690:2 691:-1 692:8 693:2 695:3 696:1 697:1 698:4 699:2 700:-1 
1 71:1 192:1 195:1 228:1 234:1 249:1 341:1 462:1 465:1 504:1 677:3 678:3 679:1 681:2 682:-1 683:1 684:-1 685:25.8 686:1 687:3 688:3 689:3 690:1 691:3 692:7 693:2 695:4 696:2 697:-1 698:-1 699:2 700:2 
1 54:1 117:1 222:1 234:1 320:1 324:1 358:1 360:1 387:1 424:1 499:1 677:3 678:3 679:1 681:1 682:54 683:1 684:-1 685:27.3 686:1 687:2 688:2 689:2 690:1 691:3 692:6 693:1 695:3 696:1 697:1 698:4 699:2 700:2 
1 50:1 88:1 194:1 320:1 352:1 355:1 423:1 464:1 491:1 677:3 678:3 679:1 681:1 682:30 683:2 684:-1 685:34.7 686:1 687:4 688:4 689:4 690:1 691:4 692:8 693:1 695:3 696:1 697:1 698:4 699:2 700:1 
1 50:1 54:1 88:1 150:1 192:1 201:1 229:1 295:1 320:1 353:1 355:1 356:1 460:1 464:1 528:1 677:3 678:3 679:1 681:1 682:50 683:1 684:-1 685:47.2 686:1 687:4 688:4 689:4 690:1 691:4 692:7 693:1 695:3 696:1 697:1 698:4 699:2 700:2 
1 54:1 88:1 194:1 201:1 324:1 358:1 401:1 464:1 471:1 677:3 678:3 679:1 681:2 682:-1 683:2 684:-1 685:36 686:1 687:3 688:4 689:4 690:1 691:4 692:10 693:1 695:4 696:1 697:1 698:-8 699:2 700:-1 
1 59:1 253:1 295:1 677:3 678:3 679:1 681:2 682:-1 683:2 684:-1 685:36.6 686:1 687:4 688:4 689:4 690:2 691:-1 692:9 693:2 695:2 696:1 697:1 698:4 699:2 700:-1 
1 125:1 194:1 224:1 464:1 677:3 678:3 679:1 681:2 682:-1 683:1 684:-1 685:25.6 686:1 687:4 688:4 689:3 690:1 691:4 692:9 693:1 695:2 696:1 697:1 698:4 699:2 700:1 
1 24:1 107:1 194:1 294:1 355:1 460:1 464:1 522:1 677:3 678:3 679:1 681:2 682:-1 683:1 684:-1 685:29.2 686:1 687:4 688:4 689:4 690:1 691:4 692:9 693:2 695:2 696:1 697:1 698:4 699:2 700:2 
1 94:1 194:1 320:1 360:1 364:1 382:1 677:3 678:1 679:3 681:1 682:52 683:1 684:-1 685:31.6 686:-9 687:-9 688:-9 689:-9 690:-9 691:-9 692:-9 693:1 695:4 696:1 697:1 698:-8 699:2 700:-1 
1 54:1 73:1 84:1 128:1 154:1 190:1 243:1 246:1 247:1 258:1 288:1 319:1 324:1 343:1 358:1 398:1 423:1 424:1 426:1 502:1 513:1 517:1 528:1 677:3 678:3 679:1 681:2 682:-1 683:1 684:-1 685:30.9 686:1 687:3 688:2 689:2 690:1 691:3 692:7 693:1 695:4 696:1 697:1 698:4 699:2 700:2 
1 116:1 123:1 252:1 253:1 386:1 415:1 457:1 460:1 522:1 523:1 677:3 678:3 679:1 681:-1 682:-1 683:2 684:1 685:-1 686:-1 687:-1 688:-1 689:-1 690:-1 691:-1 692:-1 693:-1 695:-1 696:1 697:1 698:4 699:2 700:-1 
1 131:1 319:1 463:1 677:3 678:2 679:2 681:2 682:-1 683:2 684:-1 685:24.5 686:1 687:3 688:3 689:3 690:2 691:-1 692:10 693:1 695:4 696:1 697:2 698:3 699:2 700:2 
1 81:1 96:1 319:1 366:1 677:3 678:3 679:1 681:2 682:-1 683:2 684:-1 685:32.3 686:1 687:-1 688:-1 689:-1 690:-1 691:-1 692:-1 693:1 695:2 696:1 697:1 698:4 699:2 700:2 
1 116:1 201:1 234:1 249:1 427:1 464:1 504:1 677:3 678:3 679:1 681:2 682:-1 683:1 684:-1 685:24.3 686:1 687:3 688:3 689:3 690:1 691:3 692:8 693:1 695:2 696:1 697:1 698:2 699:2 700:-1 
1 78:1 88:1 234:1 318:1 324:1 677:3 678:3 679:1 681:2 682:-1 683:1 684:-1 685:27.9 686:1 687:4 688:4 689:4 690:1 691:4 692:8 693:2 695:2 696:1 697:2 698:4 699:2 700:2 
1 194:1 258:1 294:1 314:1 318:1 320:1 323:1 324:1 352:1 354:1 355:1 387:1 388:1 463:1 464:1 471:1 472:1 677:3 678:3 679:1 681:1 682:62 683:1 684:-1 685:29.1 686:1 687:3 688:3 689:2 690:1 691:3 692:6 693:1 695:3 696:1 697:1 698:2 699:2 700:2 
1 52:1 54:1 190:1 258:1 329:1 382:1 383:1 419:1 528:1 677:3 678:3 679:1 681:1 682:26 683:1 684:-1 685:-9 686:1 687:4 688:4 689:4 690:1 691:4 692:9 693:1 695:3 696:1 697:1 698:4 699:2 700:-1 
1 124:1 151:1 190:1 201:1 234:1 319:1 463:1 677:3 678:3 679:1 681:2 682:-1 683:1 684:-1 685:24.8 686:1 687:4 688:4 689:4 690:1 691:3 692:8 693:1 695:2 696:1 697:1 698:2 699:2 700:-1 
1 54:1 194:1 249:1 324:1 463:1 464:1 519:1 677:3 678:3 679:1 681:2 682:-1 683:1 684:-1 685:28.3 686:1 687:3 688:3 689:3 690:1 691:2 692:8 693:2 695:2 696:1 697:2 698:2 699:2 700:2 
1 54:1 88:1 128:1 145:1 192:1 294:1 324:1 326:1 347:1 358:1 386:1 387:1 415:1 462:1 464:1 471:1 677:3 678:3 679:1 681:2 682:-1 683:1 684:-1 685:27.5 686:1 687:3 688:3 689:3 690:1 691:4 692:10 693:1 695:3 696:1 697:1 698:4 699:2 700:-1 
1 45:1 194:1 195:1 201:1 222:1 294:1 465:1 471:1 677:3 678:3 679:1 681:2 682:-1 683:1 684:-1 685:28.2 686:1 687:3 688:3 689:2 690:1 691:3 692:9 693:1 695:1 696:1 697:1 698:4 699:2 700:1 
1 190:1 234:1 324:1 386:1 460:1 504:1 677:3 678:3 679:1 681:2 682:-1 683:1 684:-1 685:25.8 686:1 687:4 688:4 689:4 690:1 691:4 692:9 693:1 695:1 696:1 697:1 698:-8 699:2 700:1 
1 294:1 319:1 366:1 460:1 471:1 515:1 677:3 678:3 679:1 681:2 682:-1 683:1 684:-1 685:26.2 686:1 687:4 688:4 689:4 690:1 691:4 692:10 693:1 695:3 696:1 697:1 698:4 699:2 700:1 
1 116:1 186:1 352:1 403:1 456:1 677:3 678:3 679:1 681:2 682:-1 683:1 684:-1 685:28.1 686:1 687:3 688:4 689:3 690:2 691:-1 692:9 693:1 695:1 696:2 697:-1 698:-1 699:2 700:-1 
1 88:1 117:1 118:1 133:1 142:1 194:1 258:1 324:1 358:1 360:1 388:1 398:1 403:1 412:1 528:1 677:3 678:1 679:3 681:2 682:-1 683:1 684:-1 685:27.4 686:1 687:3 688:3 689:3 690:1 691:4 692:8 693:1 695:4 696:1 697:1 698:3 699:2 700:-1 
1 49:1 104:1 131:1 294:1 319:1 361:1 364:1 387:1 388:1 394:1 398:1 401:1 677:3 678:3 679:1 681:2 682:-1 683:1 684:-1 685:29.2 686:1 687:4 688:4 689:3 690:1 691:3 692:9 693:1 695:3 696:1 697:1 698:4 699:2 700:1 
1 112:1 123:1 124:1 387:1 677:3 678:3 679:1 681:2 682:-1 683:2 684:-1 685:20.5 686:1 687:4 688:4 689:4 690:1 691:3 692:8 693:1 695:4 696:1 697:1 698:4 699:2 700:-1 
1 88:1 234:1 320:1 324:1 358:1 360:1 361:1 519:1 522:1 677:3 678:1 679:3 681:1 682:50 683:1 684:-1 685:26.5 686:1 687:3 688:2 689:2 690:1 691:2 692:5 693:1 695:5 696:1 697:1 698:4 699:1 700:1 
1 91:1 117:1 118:1 258:1 464:1 465:1 528:1 677:3 678:3 679:3 681:2 682:-1 683:1 684:-1 685:28.3 686:2 687:3 688:3 689:3 690:1 691:3 692:3 693:1 695:4 696:1 697:1 698:4 699:2 700:2 
1 253:1 675:1 677:3 678:3 679:1 680:2 681:-1 682:-1 683:2 685:-1 686:-1 687:-1 688:-1 689:-1 690:-1 691:-1 692:-1 693:-1 695:-1 696:1 697:1 698:4 699:1 700:-1 
1 253:1 675:6 677:3 678:2 679:2 680:5 681:-1 682:-1 683:1 685:-1 686:-1 687:-1 688:-1 689:-1 690:-1 691:-1 692:-1 693:-1 695:-1 696:2 697:-1 698:-1 699:2 700:-1 
1 49:1 53:1 88:1 117:1 201:1 248:1 319:1 323:1 358:1 360:1 387:1 388:1 465:1 518:1 677:3 678:3 679:1 681:2 682:-1 683:1 684:-1 685:24 686:1 687:4 688:4 689:4 690:1 691:4 692:9 693:2 695:3 696:1 697:1 698:4 699:2 700:1 
1 124:1 190:1 252:1 256:1 393:1 522:1 526:1 677:3 678:3 679:1 681:-1 682:-1 683:2 684:2 685:-1 686:-1 687:-1 688:-1 689:-1 690:-1 691:-1 692:-1 693:-1 695:-1 696:1 697:2 698:3 699:2 700:-1 
1 81:1 88:1 222:1 463:1 504:1 677:3 678:1 679:3 681:1 682:55 683:1 684:-1 685:38.7 686:1 687:4 688:4 689:4 690:1 691:4 692:10 693:1 695:4 696:1 697:1 698:4 699:2 700:2 
1 78:1 80:1 88:1 233:1 322:1 324:1 358:1 516:1 677:3 678:1 679:3 681:2 682:-1 683:2 684:-1 685:29.5 686:1 687:4 688:4 689:4 690:1 691:4 692:9 693:1 695:2 696:1 697:1 698:4 699:2 700:2 
1 50:1 54:1 99:1 133:1 194:1 320:1 324:1 348:1 358:1 369:1 373:1 403:1 677:3 678:3 679:1 681:1 682:65 683:1 684:-1 685:27.6 686:1 687:4 688:4 689:4 690:1 691:4 692:10 693:1 695:3 696:1 697:1 698:4 699:2 700:-1 
1 39:1 43:1 85:1 90:1 156:1 276:1 309:1 313:1 369:1 386:1 677:3 678:1 679:3 681:1 682:47 683:1 684:-1 685:22.2 686:2 687:4 688:4 689:4 690:1 691:3 692:8 693:2 695:3 696:1 697:1 698:4 699:2 700:1 
1 88:1 116:1 149:1 193:1 248:1 351:1 358:1 411:1 419:1 518:1 677:3 678:3 679:1 681:2 682:-1 683:1 684:-1 685:22 686:1 687:3 688:4 689:3 690:2 691:-1 692:9 693:1 695:2 696:1 697:1 698:4 699:2 700:2 
1 56:1 60:1 98:1 147:1 326:1 356:1 366:1 417:1 677:3 678:1 679:3 681:2 682:-1 683:1 684:-1 685:27.5 686:1 687:3 688:2 689:2 690:2 691:-1 692:6 693:2 695:4 696:1 697:1 698:3 699:2 700:-1 
1 50:1 150:1 193:1 194:1 222:1 274:1 318:1 320:1 349:1 464:1 471:1 489:1 492:1 497:1 504:1 677:3 678:3 679:1 681:1 682:46 683:1 684:-1 685:39.6 686:1 687:4 688:4 689:3 690:1 691:3 692:8 693:2 695:3 696:1 697:1 698:3 699:2 700:-1 
1 5:1 194:1 344:1 393:1 489:1 677:1 678:3 679:3 681:2 682:-1 683:1 684:-1 685:32.2 686:2 687:3 688:2 689:2 690:1 691:2 692:7 693:1 695:2 696:1 697:2 698:3 699:2 700:2 
1 24:1 88:1 124:1 202:1 258:1 528:1 677:3 678:3 679:1 681:2 682:-1 683:1 684:-1 685:25.1 686:1 687:3 688:4 689:4 690:1 691:4 692:8 693:1 695:4 696:1 697:1 698:3 699:2 700:2 
1 88:1 118:1 128:1 195:1 222:1 258:1 358:1 388:1 398:1 415:1 465:1 528:1 677:3 678:3 679:1 681:2 682:-1 683:1 684:-1 685:30.7 686:1 687:2 688:2 689:1 690:2 691:-1 692:2 693:2 695:4 696:1 697:1 698:4 699:2 700:2 
1 9:1 194:1 279:1 386:1 393:1 464:1 465:1 485:1 677:1 678:3 679:3 681:2 682:-1 683:2 684:-1 685:25 686:-1 687:-1 688:-1 689:-1 690:-1 691:-1 692:-1 693:-1 695:-1 696:1 697:1 698:4 699:2 700:-1 
1 128:1 193:1 195:1 219:1 237:1 358:1 386:1 387:1 388:1 465:1 489:1 519:1 677:3 678:3 679:1 681:2 682:-1 683:2 684:-1 685:44.6 686:1 687:3 688:3 689:2 690:1 691:3 692:6 693:1 695:4 696:1 697:1 698:2 699:1 700:1 
1 220:1 246:1 398:1 516:1 519:1 677:3 678:3 679:1 681:2 682:-1 683:1 684:-1 685:25.7 686:1 687:4 688:4 689:4 690:1 691:4 692:9 693:1 695:2 696:1 697:2 698:3 699:2 700:-1 
1 54:1 123:1 195:1 220:1 252:1 261:1 277:1 362:1 677:3 678:3 679:1 681:2 682:-1 683:1 684:-1 685:30.9 686:1 687:4 688:4 689:4 690:1 691:4 692:9 693:1 695:3 696:1 697:2 698:2 699:2 700:-1 
1 84:1 124:1 271:1 344:1 492:1 522:1 677:3 678:3 679:1 681:2 682:-1 683:1 684:-1 685:21.3 686:1 687:4 688:3 689:3 690:1 691:4 692:7 693:1 695:4 696:1 697:1 698:3 699:2 700:-1 
1 9:1 45:1 54:1 88:1 157:1 192:1 242:1 279:1 324:1 355:1 358:1 387:1 388:1 419:1 422:1 465:1 512:1 677:3 678:3 679:1 681:2 682:-1 683:1 684:-1 685:35.4 686:1 687:4 688:3 689:3 690:1 691:3 692:6 693:1 695:5 696:1 697:1 698:4 699:2 700:-1 
1 50:1 88:1 90:1 91:1 323:1 361:1 464:1 465:1 530:1 677:3 678:3 679:1 681:1 682:50 683:2 684:-1 685:35.8 686:1 687:3 688:3 689:3 690:1 691:3 692:10 693:1 695:4 696:1 697:1 698:-8 699:2 700:1 
1 50:1 76:1 88:1 320:1 324:1 352:1 353:1 358:1 463:1 492:1 499:1 677:3 678:1 679:3 681:1 682:55 683:1 684:-1 685:37.1 686:1 687:4 688:4 689:4 690:1 691:4 692:10 693:2 695:2 696:1 697:2 698:4 699:2 700:1 
1 91:1 149:1 150:1 159:1 195:1 318:1 361:1 465:1 677:3 678:3 679:1 681:2 682:-1 683:1 684:-1 685:30 686:1 687:3 688:3 689:3 690:1 691:3 692:8 693:1 695:3 696:1 697:1 698:2 699:2 700:2 
1 194:1 258:1 464:1 468:1 528:1 677:3 678:2 679:3 681:2 682:-1 683:1 684:-1 685:20.5 686:1 687:4 688:4 689:4 690:1 691:4 692:2 693:1 695:4 696:1 697:1 698:4 699:2 700:-1 
1 186:1 190:1 222:1 274:1 386:1 456:1 677:3 678:3 679:1 681:2 682:-1 683:1 684:-1 685:22.6 686:1 687:3 688:4 689:4 690:1 691:4 692:8 693:1 695:2 696:1 697:1 698:4 699:2 700:-1 
1 24:1 117:1 190:1 294:1 393:1 460:1 464:1 474:1 504:1 677:3 678:3 679:1 681:2 682:-1 683:1 684:-1 685:29.5 686:1 687:4 688:4 689:3 690:1 691:3 692:9 693:1 695:2 696:1 697:2 698:4 699:2 700:1 
1 54:1 215:1 258:1 349:1 355:1 419:1 522:1 528:1 677:3 678:3 679:1 681:2 682:-1 683:1 684:-1 685:27.4 686:2 687:4 688:4 689:4 690:1 691:4 692:9 693:2 695:3 696:1 697:1 698:4 699:2 700:-9 
1 8:1 24:1 315:1 323:1 379:1 677:3 678:3 679:1 681:2 682:-1 683:1 684:-1 685:23.5 686:1 687:3 688:3 689:3 690:1 691:3 692:8 693:1 695:3 696:1 697:2 698:3 699:2 700:2 
1 186:1 195:1 362:1 409:1 456:1 465:1 519:1 541:1 677:3 678:3 679:1 681:2 682:-1 683:1 684:-1 685:27.4 686:-1 687:-1 688:-1 689:-1 690:-1 691:-1 692:-1 693:-1 695:-1 696:2 697:-1 698:-1 699:2 700:-1 
1 76:1 87:1 326:1 357:1 395:1 419:1 534:1 677:3 678:3 679:1 681:2 682:-1 683:1 684:-1 685:39.5 686:1 687:4 688:4 689:4 690:1 691:4 692:10 693:1 695:1 696:1 697:1 698:4 699:2 700:1 
1 194:1 201:1 215:1 324:1 354:1 358:1 393:1 460:1 464:1 471:1 677:3 678:3 679:1 681:2 682:-1 683:1 684:-1 685:31.6 686:1 687:4 688:4 689:4 690:1 691:4 692:10 693:1 695:2 696:1 697:1 698:4 699:2 700:1 
1 74:1 85:1 90:1 91:1 99:1 320:1 324:1 358:1 360:1 361:1 368:1 369:1 398:1 516:1 677:3 678:1 679:3 681:1 682:57 683:1 684:-1 685:25 686:1 687:4 688:4 689:4 690:1 691:4 692:9 693:1 695:5 696:1 697:1 698:4 699:2 700:1 
1 50:1 80:1 258:1 320:1 324:1 358:1 518:1 528:1 677:3 678:1 679:3 681:1 682:25 683:2 684:-1 685:32.2 686:1 687:4 688:4 689:3 690:1 691:4 692:9 693:2 695:4 696:1 697:2 698:4 699:2 700:-1 
1 88:1 201:1 318:1 358:1 458:1 471:1 677:3 678:3 679:1 681:2 682:-1 683:1 684:-1 685:-9 686:1 687:4 688:4 689:4 690:1 691:3 692:9 693:1 695:2 696:1 697:1 698:4 699:2 700:-1 
1 81:1 88:1 91:1 95:1 123:1 245:1 315:1 348:1 361:1 388:1 415:1 422:1 463:1 464:1 519:1 677:3 678:3 679:1 681:2 682:-1 683:1 684:-1 685:30.5 686:1 687:3 688:3 689:3 690:1 691:3 692:9 693:1 695:3 696:1 697:1 698:4 699:2 700:-1 
1 82:1 116:1 253:1 350:1 352:1 398:1 523:1 677:3 678:3 679:1 681:-1 682:-1 683:2 685:-1 686:-1 687:-1 688:-1 689:-1 690:-1 691:-1 692:-1 693:-1 695:-1 696:1 697:2 698:4 699:2 700:-1 
1 79:1 85:1 190:1 258:1 464:1 465:1 528:1 677:3 678:3 679:1 681:2 682:-1 683:1 684:-1 685:27.7 686:1 687:3 688:3 689:2 690:1 691:3 692:7 693:1 695:2 696:1 697:2 698:-8 699:2 700:2 
1 112:1 116:1 131:1 352:1 386:1 677:3 678:3 679:1 681:-1 682:-1 683:2 684:-1 685:-1 686:-1 687:-1 688:-1 689:-1 690:-1 691:-1 692:-1 693:-1 695:-1 696:2 697:-1 698:-1 699:2 700:-1 
1 76:1 81:1 116:1 245:1 246:1 247:1 346:1 351:1 356:1 366:1 386:1 387:1 488:1 516:1 517:1 677:3 678:3 679:1 681:2 682:-1 683:1 684:-1 685:28.8 686:1 687:3 688:3 689:3 690:1 691:3 692:7 693:1 695:5 696:1 697:1 698:4 699:2 700:2 
1 53:1 116:1 123:1 144:1 242:1 258:1 319:1 344:1 386:1 471:1 677:3 678:3 679:1 681:2 682:-1 683:1 684:-1 685:29.5 686:1 687:3 688:3 689:3 690:1 691:4 692:8 693:2 695:3 696:2 697:-1 698:-1 699:2 700:-1 
1 190:1 201:1 358:1 361:1 377:1 397:1 415:1 460:1 518:1 677:1 678:3 679:3 681:2 682:-1 683:1 684:-1 685:23.7 686:1 687:4 688:4 689:4 690:2 691:-1 692:10 693:1 695:2 696:1 697:1 698:4 699:2 700:1 
1 50:1 99:1 100:1 103:1 193:1 258:1 320:1 324:1 376:1 387:1 388:1 394:1 463:1 506:1 512:1 516:1 528:1 677:3 678:3 679:1 681:1 682:72 683:1 684:-1 685:31.2 686:1 687:4 688:4 689:3 690:-9 691:-9 692:-9 693:-9 695:-9 696:1 697:1 698:3 699:2 700:1 
1 73:1 241:1 258:1 343:1 344:1 522:1 528:1 677:3 678:3 679:1 681:2 682:-1 683:2 684:-1 685:22.4 686:1 687:3 688:3 689:3 690:1 691:3 692:3 693:1 695:4 696:1 697:1 698:3 699:1 700:-1 
1 50:1 320:1 364:1 465:1 525:1 677:3 678:1 679:3 681:1 682:59 683:1 684:-1 685:32 686:1 687:4 688:4 689:4 690:1 691:3 692:8 693:1 695:3 696:1 697:1 698:4 699:2 700:2 
1 50:1 76:1 88:1 201:1 320:1 346:1 355:1 464:1 465:1 471:1 677:3 678:1 679:3 681:1 682:62 683:1 684:-1 685:25.3 686:1 687:4 688:4 689:4 690:1 691:4 692:10 693:1 695:4 696:1 697:1 698:4 699:2 700:1 
1 186:1 456:1 492:1 504:1 677:3 678:1 679:3 681:2 682:-1 683:2 684:-1 685:32.1 686:1 687:4 688:4 689:4 690:1 691:4 692:7 693:2 695:1 696:2 697:-1 698:-1 699:2 700:-1 
1 234:1 361:1 504:1 677:3 678:3 679:1 681:2 682:-1 683:1 684:-1 685:32.7 686:1 687:3 688:2 689:3 690:1 691:3 692:8 693:1 695:3 696:1 697:1 698:4 699:2 700:2 
1 49:1 54:1 81:1 88:1 319:1 324:1 355:1 463:1 677:3 678:3 679:1 681:2 682:-1 683:1 684:-1 685:23.6 686:1 687:3 688:2 689:3 690:1 691:3 692:7 693:1 695:3 696:1 697:2 698:4 699:2 700:1 
1 24:1 50:1 54:1 88:1 94:1 194:1 285:1 346:1 355:1 415:1 677:3 678:3 679:1 681:1 682:74 683:1 684:-1 685:21.9 686:1 687:3 688:3 689:4 690:1 691:3 692:9 693:1 695:4 696:1 697:2 698:2 699:2 700:1 
