svm_type c_svc
kernel_type rbf
gamma 0.00141243
nr_class 2
total_sv 2313
rho -0.839884
label 0 1
nr_sv 1688 625
SV
0.2240431603667327 25:1 677:3 678:1 679:3 681:1 682:58 683:1 684:-1 685:-1 686:1 687:-9 688:-9 689:-9 692:-9 693:1 695:3 696:1 697:1 698:3 699:2 700:1 
0.1680842841405671 18:1 91:1 99:1 102:1 677:3 678:1 679:3 681:1 682:68 683:2 684:-1 685:-1 686:1 687:4 688:4 689:4 692:9 693:1 695:4 696:1 697:1 698:3 699:2 700:1 
0.5644014504105137 37:1 112:1 193:1 194:1 201:1 234:1 258:1 677:3 678:3 679:1 681:2 682:-1 683:1 684:-1 685:28.7 686:1 687:4 688:4 689:4 692:7 693:1 695:-9 696:1 697:1 698:4 699:2 700:2 
1 54:1 85:1 88:1 192:1 221:1 222:1 252:1 253:1 258:1 677:3 678:3 679:1 681:2 682:-1 683:1 684:-1 685:32.1 686:1 687:4 688:4 689:3 692:8 693:1 695:3 696:1 697:1 698:4 699:2 700:-1 
0.3939459688358765 50:1 51:1 79:1 85:1 234:1 249:1 677:3 678:3 679:1 681:1 682:11 683:1 684:-1 685:-9 686:1 687:3 688:3 689:3 690:1 691:3 692:4 693:1 695:5 696:1 697:1 698:3 699:2 700:-1 
0.7046266528787221 45:1 113:1 145:1 194:1 221:1 677:1 678:3 679:3 681:2 682:-1 683:1 684:-1 685:28.3 686:1 687:4 688:4 689:4 692:10 693:2 695:4 696:1 697:2 698:-8 699:2 700:2 
0.1378698022994324 85:1 88:1 186:1 201:1 677:3 678:1 679:3 681:2 682:-1 683:1 684:-1 685:52.6 686:1 687:3 688:4 689:3 692:5 693:2 695:3 696:1 697:1 698:-8 699:2 700:-1 
1 24:1 56:1 77:1 85:1 88:1 104:1 107:1 116:1 120:1 190:1 215:1 677:3 678:3 679:1 681:2 682:-1 683:1 684:-1 685:25.3 686:1 687:3 688:3 689:3 692:8 693:1 695:3 696:1 697:1 698:4 699:2 700:1 
0.607874387690283 15:1 39:1 131:1 677:3 678:3 679:1 681:1 682:60 683:1 684:-1 685:-1 686:1 687:4 688:4 689:3 692:8 693:1 695:4 696:1 697:1 698:-8 699:2 700:-9 
1 49:1 54:1 81:1 88:1 117:1 258:1 677:3 678:3 679:1 681:2 682:-1 683:1 684:-1 685:29.3 686:1 687:3 688:3 689:4 692:8 693:1 695:4 696:1 697:2 698:1 699:2 700:-1 
1 59:1 79:1 124:1 193:1 194:1 677:3 678:3 679:1 681:2 682:-1 683:1 684:-1 685:35.3 686:1 687:4 688:4 689:3 692:9 693:1 695:4 696:1 697:1 698:4 699:2 700:-1 
0.3368902416864877 30:1 72:1 143:1 258:1 261:1 677:3 678:3 679:1 681:2 682:-1 683:1 684:-1 685:-1 686:1 687:4 688:3 689:3 692:8 693:1 695:4 696:1 697:1 698:4 699:2 700:2 
1 116:1 118:1 124:1 195:1 252:1 677:3 678:3 679:1 681:2 682:-1 683:1 684:-1 685:24.9 686:-1 687:-1 688:-1 689:-1 690:-1 691:-1 692:-1 693:-1 695:-1 696:1 697:1 698:4 699:2 700:-1 
0.9866219418653808 27:1 85:1 104:1 193:1 195:1 198:1 258:1 677:3 678:3 679:1 681:2 682:-1 683:1 684:-1 685:20.4 686:1 687:2 688:1 689:1 692:5 693:1 695:5 696:1 697:1 698:1 699:1 700:-1 
0.6482669524334067 91:1 95:1 217:1 234:1 245:1 677:3 678:3 679:2 681:2 682:-1 683:1 684:-1 685:17.3 686:1 687:2 688:2 689:1 692:7 693:1 695:5 696:1 697:1 698:4 699:2 700:-1 
0.02334653104423581 8:1 112:1 113:1 117:1 118:1 124:1 677:3 678:3 679:1 681:-1 682:-1 683:2 685:-1 686:-1 687:-1 688:-1 689:-1 692:-1 693:-1 695:-1 696:1 697:1 698:4 699:2 700:-1 
0.6438415488019235 17:1 50:1 88:1 193:1 677:3 678:3 679:1 681:1 682:-8 683:2 684:-1 685:32.6 686:1 687:2 688:2 689:3 690:1 691:2 692:5 693:1 695:5 696:1 697:1 698:4 699:2 700:2 
0.04935075671115802 116:1 171:1 186:1 677:3 678:1 679:3 681:2 682:-1 683:2 684:-1 685:33.1 686:1 687:4 688:4 689:4 690:1 691:4 692:10 693:1 695:3 696:1 697:1 698:4 699:2 700:-1 
1 76:1 91:1 96:1 116:1 151:1 194:1 198:1 677:3 678:3 679:1 681:2 682:-1 683:1 684:-1 685:20.8 686:1 687:3 688:3 689:3 692:8 693:1 695:4 696:1 697:1 698:3 699:2 700:-1 
0.2391232792322202 54:1 104:1 249:1 258:1 677:3 678:3 679:1 681:2 682:-1 683:1 684:-1 685:25.1 686:1 687:4 688:4 689:4 692:10 693:1 695:3 696:1 697:1 698:4 699:2 700:-1 
0.8026498935221879 24:1 71:1 88:1 110:1 128:1 131:1 143:1 145:1 677:3 678:3 679:1 681:2 682:-1 683:1 684:-1 685:23 686:2 687:-1 688:-1 689:-1 690:-1 691:-1 692:-1 693:2 695:3 696:1 697:1 698:4 699:2 700:2 
1 5:1 24:1 49:1 91:1 677:3 678:3 679:1 681:2 682:-1 683:1 684:-1 685:25.9 686:1 687:3 688:3 689:3 690:1 691:3 692:8 693:1 695:2 696:1 697:1 698:3 699:2 700:1 
1 157:1 185:1 186:1 201:1 677:3 678:3 679:1 681:2 682:-1 683:1 684:-1 685:27.4 686:1 687:3 688:3 689:3 692:7 693:1 695:3 696:2 697:-1 698:-1 699:2 700:-1 
0.3365471953533989 56:1 79:1 88:1 92:1 98:1 99:1 128:1 193:1 194:1 254:1 677:3 678:3 679:1 681:2 682:-1 683:-1 684:-1 685:-1 686:-1 687:-1 688:-1 689:-1 692:-1 693:-1 695:-1 696:-1 697:-1 698:-1 699:-1 700:1 
0.05910275915067862 50:1 91:1 145:1 193:1 254:1 677:3 678:3 679:1 681:1 682:50 683:2 684:-1 685:25.8 686:1 687:4 688:4 689:4 692:10 693:1 695:5 696:1 697:1 698:4 699:2 700:-1 
0.1921863774194608 91:1 112:1 194:1 248:1 677:3 678:3 679:1 681:2 682:-1 683:1 684:-1 685:-1 686:1 687:4 688:4 689:4 692:9 693:1 695:3 696:1 697:2 698:4 699:2 700:-1 
0.9862540109138715 50:1 194:1 195:1 201:1 233:1 249:1 677:3 678:3 679:1 681:1 682:49 683:1 684:-1 685:32.5 686:1 687:4 688:3 689:3 692:7 693:1 695:3 696:1 697:1 698:3 699:2 700:-1 
0.5320647668731566 185:1 214:1 248:1 258:1 677:3 678:3 679:1 681:2 682:-1 683:2 684:-1 685:40.8 686:-1 687:-1 688:-1 689:-1 690:-1 691:-1 692:-1 693:-1 695:-1 696:2 697:-1 698:-1 699:2 700:-1 
0.4844338084777818 249:1 677:3 678:1 679:3 681:1 682:31 683:1 684:-1 685:31.8 686:1 687:4 688:4 689:4 690:1 691:4 692:10 693:1 695:4 696:1 697:1 698:4 699:2 700:2 
0.1125482860182379 50:1 88:1 116:1 677:3 678:1 679:3 681:1 682:55 683:2 684:-1 685:34 686:1 687:4 688:-9 689:-9 690:-9 691:-9 692:10 693:2 695:4 696:1 697:2 698:2 699:2 700:2 
0.1851261974095984 244:1 245:1 258:1 677:3 678:2 679:2 681:-1 682:-1 683:1 685:-1 686:-1 687:-1 688:-1 689:-1 690:-1 691:-1 692:-1 693:-1 695:-1 696:1 697:1 698:-8 699:2 700:-1 
0.1795371806274665 273:1 275:1 320:1 324:1 358:1 364:1 376:1 515:1 677:3 678:1 679:3 681:1 682:61 683:1 684:-1 685:24.7 686:1 687:2 688:2 689:2 692:9 693:1 695:4 696:1 697:2 698:4 699:2 700:-1 
1 25:1 54:1 85:1 88:1 91:1 194:1 677:3 678:3 679:1 681:2 682:-1 683:1 684:-1 685:21 686:1 687:4 688:4 689:4 690:1 691:4 692:10 693:1 695:2 696:1 697:1 698:4 699:2 700:-1 
1 54:1 69:1 134:1 193:1 195:1 249:1 677:3 678:3 679:1 681:2 682:-1 683:1 684:-1 685:32.2 686:1 687:4 688:4 689:3 692:5 693:1 695:1 696:1 697:2 698:-8 699:2 700:1 
0.1957401884176369 50:1 54:1 88:1 91:1 193:1 234:1 677:3 678:3 679:1 681:1 682:78 683:1 684:-1 685:31.2 686:1 687:4 688:4 689:4 692:10 693:1 695:5 696:1 697:1 698:4 699:2 700:-1 
0.05522042211828165 186:1 245:1 677:3 678:3 679:1 681:2 682:-1 683:1 684:-1 685:19.7 686:1 687:2 688:3 689:3 690:2 691:-1 692:7 693:1 695:2 696:1 697:-8 698:-8 699:2 700:-1 
0.00770324158198271 99:1 141:1 194:1 201:1 677:3 678:1 679:3 681:2 682:-1 683:1 684:-1 685:-1 686:1 687:4 688:4 689:3 692:10 693:1 695:4 696:1 697:1 698:4 699:2 700:-1 
0.08898880947082448 88:1 193:1 219:1 252:1 258:1 677:3 678:3 679:1 681:2 682:-1 683:1 684:-1 685:26.4 686:2 687:4 688:4 689:-9 690:1 691:4 692:10 693:2 695:4 696:1 697:2 698:1 699:2 700:2 
0.7287749919067692 50:1 677:3 678:3 679:1 681:1 682:49 683:1 684:-1 685:25.8 686:1 687:-1 688:-1 689:-1 690:-1 691:-1 692:-1 693:1 695:5 696:1 697:1 698:2 699:1 700:2 
0.04573621103102275 195:1 202:1 677:3 678:3 679:1 681:2 682:-1 683:1 684:-1 685:18.9 686:1 687:-9 688:-9 689:-9 692:8 693:1 695:4 696:1 697:-8 698:-8 699:2 700:-1 
0.6441343923459694 186:1 677:1 678:3 679:3 681:2 682:-1 683:2 684:-1 685:35.7 686:-1 687:-1 688:-1 689:-1 690:-1 691:-1 692:-1 693:-1 695:-1 696:2 697:-1 698:-1 699:2 700:-1 
0.8017738932737829 50:1 60:1 91:1 98:1 112:1 249:1 677:3 678:3 679:1 681:1 682:81 683:2 684:-1 685:27.1 686:1 687:3 688:3 689:3 690:1 691:3 692:8 693:1 695:4 696:1 697:1 698:-8 699:2 700:2 
0.2162066324318533 72:1 74:1 81:1 244:1 247:1 677:3 678:1 679:3 681:2 682:-1 683:2 684:-1 685:22.8 686:2 687:-1 688:-1 689:-1 690:-1 691:-1 692:-1 693:2 695:3 696:1 697:1 698:4 699:2 700:-1 
0.5691538845369798 25:1 88:1 113:1 117:1 128:1 219:1 222:1 252:1 258:1 260:1 677:3 678:3 679:1 681:2 682:-1 683:1 684:-1 685:32 686:1 687:3 688:4 689:3 690:1 691:2 692:-9 693:1 695:5 696:1 697:2 698:-8 699:2 700:2 
0.02434695799579751 49:1 88:1 96:1 252:1 677:3 678:3 679:1 681:2 682:-1 683:2 684:-1 685:29.3 686:1 687:4 688:4 689:4 690:1 691:4 692:6 693:1 695:3 696:1 697:1 698:-8 699:2 700:-1 
0.8259453379734858 96:1 124:1 162:1 186:1 246:1 677:3 678:1 679:3 681:2 682:-1 683:1 684:-1 685:45.5 686:1 687:4 688:4 689:4 690:1 691:4 692:8 693:2 695:4 696:1 697:1 698:4 699:2 700:-1 
0.5558415226320189 79:1 677:3 678:1 679:3 681:2 682:-1 683:1 684:-1 685:32.1 686:1 687:4 688:4 689:4 690:-9 691:4 692:8 693:2 695:2 696:1 697:2 698:1 699:2 700:1 
1 81:1 190:1 195:1 677:3 678:1 679:3 681:2 682:-1 683:2 684:-1 685:34 686:-1 687:-1 688:-1 689:-1 692:-1 693:-1 695:-1 696:1 697:1 698:4 699:2 700:-1 
0.1015737272499436 77:1 80:1 128:1 149:1 195:1 677:3 678:3 679:1 681:2 682:-1 683:1 684:-1 685:26.8 686:-9 687:-9 688:-9 689:-9 692:-9 693:-9 695:1 696:1 697:1 698:-8 699:2 700:1 
0.2679069994615877 234:1 677:3 678:3 679:1 681:1 682:62 683:1 684:-1 685:43 686:1 687:3 688:4 689:3 690:1 691:3 692:8 693:1 695:3 696:1 697:1 698:4 699:2 700:1 
0.6570623121416939 90:1 116:1 118:1 124:1 194:1 677:3 678:3 679:1 681:2 682:-1 683:1 684:-1 685:21.6 686:1 687:3 688:3 689:3 690:1 691:-9 692:10 693:2 695:2 696:1 697:1 698:-8 699:2 700:2 
0.5985841643054544 24:1 118:1 236:1 249:1 677:3 678:3 679:1 681:2 682:-1 683:1 684:-1 685:29.3 686:1 687:2 688:2 689:2 690:1 691:3 692:5 693:1 695:3 696:1 697:1 698:4 699:2 700:2 
0.931573603189264 81:1 116:1 125:1 677:3 678:3 679:1 681:-1 682:-1 683:2 684:-1 685:-1 686:-1 687:-1 688:-1 689:-1 692:-1 693:-1 695:-1 696:1 697:2 698:4 699:2 700:-1 
1 252:1 253:1 255:1 677:3 678:3 679:1 681:-1 682:-1 683:2 685:-1 686:-1 687:-1 688:-1 689:-1 690:-1 691:-1 692:-1 693:-1 695:-1 696:1 697:1 698:4 699:2 700:-1 
1 49:1 79:1 88:1 162:1 192:1 249:1 677:3 678:3 679:1 681:2 682:-1 683:1 684:-1 685:25.5 686:1 687:4 688:4 689:4 692:10 693:1 695:3 696:1 697:1 698:-8 699:2 700:2 
0.106543022210888 17:1 50:1 88:1 254:1 677:3 678:1 679:3 681:1 682:71 683:2 684:-1 685:-1 686:-1 687:-1 688:-1 689:-1 692:-1 693:-1 695:-1 696:1 697:2 698:4 699:2 700:1 
1 84:1 124:1 253:1 677:3 678:1 679:3 681:-1 682:-1 683:2 685:-1 686:-1 687:-1 688:-1 689:-1 692:-1 693:-1 695:-1 696:1 697:1 698:4 699:2 700:-1 
0.3466665071394569 77:1 81:1 85:1 201:1 677:3 678:3 679:1 681:2 682:-1 683:1 684:-1 685:24.9 686:-1 687:-1 688:-1 689:-1 690:-1 691:-1 692:-1 693:-1 695:-1 696:1 697:1 698:4 699:2 700:2 
0.004573728846025289 85:1 195:1 677:3 678:3 679:1 681:2 682:-1 683:1 684:-1 685:25.1 686:1 687:4 688:4 689:3 690:1 691:3 692:8 693:1 695:3 696:2 697:-1 698:-1 699:1 700:-9 
1 83:1 85:1 88:1 123:1 223:1 235:1 247:1 249:1 258:1 677:3 678:1 679:3 681:2 682:-1 683:2 684:-1 685:37.1 686:2 687:3 688:3 689:3 692:9 693:1 695:4 696:1 697:1 698:3 699:2 700:-1 
0.1588395061428718 30:1 50:1 88:1 90:1 677:3 678:1 679:3 681:1 682:59 683:2 684:-1 685:31.1 686:2 687:4 688:4 689:4 690:1 691:4 692:10 693:2 695:5 696:1 697:1 698:4 699:2 700:2 
0.9909852512148507 24:1 31:1 76:1 91:1 123:1 195:1 677:3 678:3 679:1 681:2 682:-1 683:2 684:-1 685:-1 686:1 687:4 688:4 689:4 692:10 693:1 695:5 696:2 697:-1 698:-1 699:2 700:2 
0.3865285216659627 30:1 91:1 677:3 678:3 679:1 681:2 682:-1 683:1 684:-1 685:31.3 686:1 687:-9 688:-9 689:-9 690:-9 691:-9 692:-9 693:1 695:4 696:1 697:1 698:4 699:2 700:-1 
0.1603863598510271 125:1 675:1 676:1 677:3 678:3 679:1 680:2 681:-1 682:-1 683:2 685:-1 686:-1 687:-1 688:-1 689:-1 690:-1 691:-1 692:-1 693:-1 694:-1 695:-1 696:2 697:-1 698:-1 699:2 700:-1 701:101767 704:1 705:4 706:200 708:7 
0.02380499672720821 194:1 677:3 678:1 679:3 681:2 682:-1 683:1 684:-1 685:20.1 686:1 687:4 688:4 689:4 690:-9 691:3 692:7 693:-9 695:3 696:1 697:2 698:4 699:2 700:1 
0.2006516224882042 54:1 88:1 677:3 678:1 679:3 681:2 682:-1 683:2 684:-1 685:-9 686:1 687:2 688:3 689:2 690:-9 691:3 692:7 693:1 695:4 696:1 697:2 698:-8 699:2 700:2 
0.1940032274617853 145:1 188:1 216:1 677:1 678:3 679:3 681:2 682:-1 683:1 684:-1 685:20 686:-1 687:-1 688:-1 689:-1 690:-1 691:-1 692:-1 693:-1 695:-1 696:1 697:-8 698:-8 699:2 700:-1 
0.009550477778873976 81:1 136:1 195:1 677:3 678:3 679:1 681:1 682:50 683:1 684:-1 685:38.6 686:1 687:4 688:3 689:3 692:10 693:2 695:3 696:1 697:1 698:-8 699:2 700:1 
0.1669901772140761 220:1 677:3 678:1 679:3 681:2 682:-1 683:2 684:-1 685:40.7 686:-9 687:-1 688:-1 689:-1 690:-1 691:-1 692:-1 693:-9 695:2 696:2 697:-1 698:-1 699:2 700:2 
0.5487316752810291 48:1 54:1 88:1 222:1 677:3 678:3 679:1 681:1 682:47 683:2 684:-1 685:41.1 686:1 687:4 688:4 689:4 692:8 693:2 695:4 696:1 697:1 698:4 699:2 700:2 
0.1299739594893821 49:1 54:1 60:1 126:1 186:1 677:3 678:3 679:1 681:2 682:-1 683:2 684:-1 685:31.2 686:2 687:-1 688:-1 689:-1 690:-1 691:-1 692:-1 693:2 695:3 696:1 697:1 698:4 699:2 700:-1 
0.6219266118188354 195:1 234:1 677:3 678:3 679:1 681:2 682:-1 683:1 684:-1 685:21 686:1 687:4 688:4 689:4 690:1 691:4 692:10 693:2 695:1 696:1 697:1 698:4 699:2 700:1 
0.03166326876002841 99:1 107:1 677:3 678:1 679:3 681:-8 682:-1 683:1 684:-1 685:28.2 686:2 687:-1 688:-1 689:-1 692:-1 693:1 695:5 696:1 697:1 698:4 699:2 700:-1 
1 125:1 194:1 234:1 258:1 677:3 678:3 679:1 681:2 682:-1 683:2 684:-1 685:26.6 686:1 687:3 688:3 689:4 692:10 693:1 695:4 696:1 697:1 698:4 699:2 700:-1 
1 112:1 194:1 195:1 222:1 251:1 252:1 677:3 678:3 679:1 681:2 682:-1 683:1 684:-1 685:19.8 686:1 687:2 688:3 689:2 692:7 693:1 695:2 696:1 697:2 698:2 699:1 700:-1 
0.2550676147843334 54:1 190:1 222:1 228:1 233:1 677:3 678:3 679:1 681:2 682:-1 683:1 684:-1 685:24.4 686:1 687:4 688:4 689:3 690:1 691:-9 692:7 693:1 695:3 696:1 697:-8 698:3 699:2 700:1 
0.04249665405495359 54:1 85:1 88:1 91:1 194:1 201:1 252:1 258:1 677:3 678:3 679:1 681:2 682:-1 683:1 684:-1 685:33.5 686:-1 687:-1 688:-1 689:-1 690:-1 691:-1 692:-1 693:-1 695:-1 696:-7 697:-1 698:-1 699:2 700:-1 
0.1604468682979897 81:1 88:1 155:1 675:1 676:1 677:3 678:3 679:1 680:1 681:2 682:-1 683:1 684:-1 685:25.7 686:1 687:4 688:4 689:4 690:2 691:-1 692:9 693:1 694:4 695:3 696:1 697:1 698:4 699:2 700:-1 701:15000 704:1 705:8 706:844 
0.8600889920279147 4:1 149:1 222:1 677:3 678:1 679:3 681:2 682:-1 683:1 684:-1 685:22.5 686:1 687:4 688:4 689:4 690:2 691:-1 692:10 693:2 695:2 696:1 697:1 698:4 699:2 700:-1 
1 49:1 79:1 116:1 131:1 677:3 678:3 679:1 681:2 682:-1 683:1 684:-1 685:26.5 686:1 687:4 688:4 689:4 690:2 691:-1 692:8 693:2 695:2 696:2 697:-1 698:-1 699:2 700:-1 
1 88:1 90:1 91:1 249:1 258:1 271:1 677:3 678:3 679:1 681:2 682:-1 683:2 684:-1 685:21.1 686:2 687:4 688:4 689:4 692:10 693:2 695:2 696:1 697:1 698:-8 699:2 700:2 
0.1289771686904959 45:1 74:1 195:1 677:3 678:3 679:1 681:2 682:-1 683:2 684:-1 685:-9 686:1 687:2 688:4 689:4 690:1 691:2 692:10 693:1 695:3 696:1 697:1 698:-8 699:2 700:-1 
0.3445446278710684 252:1 253:1 258:1 677:3 678:3 679:1 681:-1 682:-1 683:2 685:-1 686:-1 687:-1 688:-1 689:-1 690:-1 691:-1 692:-1 693:-1 695:-1 696:1 697:1 698:4 699:2 700:-1 
0.5109394618602557 50:1 51:1 88:1 677:3 678:3 679:1 681:1 682:78 683:1 684:-1 685:32.5 686:-1 687:-1 688:-1 689:-1 690:-1 691:-1 692:-1 693:-1 695:-1 696:1 697:1 698:2 699:2 700:1 
0.1021085528466932 20:1 54:1 677:3 678:3 679:1 681:2 682:-1 683:1 684:-1 685:26.4 686:1 687:4 688:4 689:4 692:10 693:1 695:1 696:1 697:1 698:-8 699:2 700:2 
0.6733097859967531 76:1 88:1 677:3 678:3 679:3 681:1 682:62 683:1 684:-1 685:22.6 686:2 687:-1 688:-1 689:-1 690:-1 691:-1 692:-1 693:1 695:3 696:2 697:-1 698:-1 699:1 700:1 
0.04504969832747427 48:1 54:1 88:1 123:1 195:1 249:1 677:3 678:3 679:1 681:1 682:45 683:1 684:-1 685:50.9 686:1 687:4 688:4 689:4 690:1 691:4 692:8 693:1 695:4 696:1 697:1 698:3 699:2 700:-1 
0.5043212646095782 4:1 116:1 117:1 149:1 241:1 677:3 678:3 679:1 681:2 682:-1 683:2 684:-1 685:-9 686:1 687:4 688:4 689:3 692:8 693:2 695:3 696:1 697:1 698:4 699:2 700:-1 
0.1121159616906628 50:1 54:1 88:1 677:3 678:1 679:3 681:2 682:-1 683:2 684:-1 685:30 686:1 687:4 688:4 689:4 690:1 691:-9 692:10 693:2 695:2 696:1 697:1 698:4 699:2 700:-1 
0.4087358553929706 74:1 80:1 252:1 677:3 678:3 679:1 681:2 682:-1 683:1 684:-1 685:31.2 686:1 687:3 688:3 689:2 690:2 691:-1 692:6 693:2 695:2 696:1 697:1 698:-8 699:2 700:-1 
1 118:1 167:1 186:1 195:1 677:3 678:3 679:1 681:2 682:-1 683:2 684:-1 685:35.3 686:1 687:3 688:3 689:3 692:8 693:1 695:3 696:1 697:1 698:-8 699:2 700:-1 
0.6077873733531634 50:1 54:1 193:1 195:1 677:3 678:3 679:1 681:1 682:43 683:1 684:-1 685:34.7 686:1 687:3 688:4 689:3 690:2 691:-1 692:5 693:1 695:4 696:1 697:1 698:4 699:2 700:-1 
1 202:1 215:1 677:3 678:3 679:1 681:2 682:-1 683:1 684:-1 685:28.7 686:1 687:3 688:3 689:3 690:1 691:4 692:8 693:1 695:4 696:1 697:1 698:3 699:2 700:-1 
0.2474637146569362 88:1 194:1 677:3 678:3 679:1 681:2 682:-1 683:1 684:-1 685:-9 686:1 687:3 688:3 689:3 690:2 691:-1 692:8 693:-9 695:-9 696:1 697:1 698:4 699:2 700:1 
0.2461290724552431 201:1 215:1 677:3 678:3 679:1 681:2 682:-1 683:2 684:-1 685:33.1 686:1 687:4 688:4 689:4 690:1 691:4 692:10 693:-9 695:2 696:1 697:1 698:2 699:2 700:-1 
0.3053572989775975 80:1 116:1 258:1 677:3 678:3 679:1 681:2 682:-1 683:1 684:-1 685:23 686:2 687:3 688:3 689:3 690:2 691:-1 692:9 693:2 695:2 696:1 697:1 698:4 699:2 700:-1 
0.3700469354736393 190:1 193:1 677:3 678:3 679:1 681:2 682:-1 683:1 684:-1 685:24.1 686:1 687:-9 688:-9 689:-9 690:-9 691:-9 692:-9 693:2 695:3 696:1 697:1 698:4 699:2 700:-1 
0.1602133268858024 116:1 675:2 676:2 677:3 678:1 679:3 680:3 681:-1 682:-1 683:2 685:-1 686:-1 687:-1 688:-1 689:-1 690:-1 691:-1 692:-1 693:-1 694:-1 695:-1 696:1 697:1 698:4 699:2 700:-1 701:35124 704:1 705:2 706:202 708:13 
0.1602213482865629 54:1 85:1 88:1 675:2 676:2 677:3 678:1 679:3 680:3 681:-1 682:-1 683:2 685:-1 686:-1 687:-1 688:-1 689:-1 690:-1 691:-1 692:-1 693:-1 694:-1 695:-1 696:1 697:1 698:4 699:2 700:-1 701:22435 704:2 705:1 706:140 
0.1602264578475634 88:1 201:1 675:1 676:1 677:3 678:3 679:1 680:1 681:2 682:-1 683:2 684:-1 685:33.3 686:2 687:-1 688:-1 689:-1 690:-1 691:-1 692:-1 693:2 694:-1 695:1 696:1 697:1 698:1 699:2 700:-1 701:61770 702:51000 704:2 708:5 
0.3909669286988684 50:1 88:1 90:1 91:1 95:1 141:1 147:1 201:1 677:3 678:3 679:1 681:1 682:42 683:1 684:-1 685:-1 686:2 687:2 688:2 689:2 692:5 693:1 695:3 696:1 697:1 698:4 699:2 700:-1 
0.1023830383738918 85:1 677:3 678:3 679:1 681:2 682:-1 683:1 684:-1 685:27.2 686:1 687:4 688:4 689:4 690:1 691:3 692:-9 693:-9 695:-9 696:1 697:1 698:3 699:2 700:1 
0.3545266861566304 77:1 195:1 677:3 678:3 679:1 681:2 682:-1 683:1 684:-1 685:29.3 686:2 687:4 688:4 689:4 690:-9 691:-9 692:10 693:-9 695:3 696:1 697:2 698:4 699:2 700:1 
0.05661628524167739 25:1 677:3 678:1 679:3 681:2 682:-1 683:1 684:-1 685:-9 686:-1 687:-1 688:-1 689:-1 692:-1 693:-1 695:-1 696:1 697:1 698:-8 699:2 700:2 
0.02953489909552121 253:1 677:3 678:3 679:1 681:2 682:-1 683:2 684:-1 685:24.2 686:1 687:3 688:-9 689:-9 690:1 691:4 692:9 693:1 695:3 696:1 697:1 698:4 699:2 700:-1 
1 48:1 202:1 677:3 678:3 679:1 681:2 682:-1 683:2 684:-1 685:23.6 686:1 687:4 688:4 689:3 690:2 691:-1 692:9 693:2 695:2 696:1 697:1 698:3 699:2 700:-1 
0.1508598236130922 50:1 220:1 240:1 677:3 678:3 679:1 681:1 682:73 683:1 684:-1 685:29.8 686:1 687:2 688:2 689:3 692:6 693:1 695:5 696:1 697:1 698:3 699:2 700:1 
0.001361706465394207 186:1 677:3 678:1 679:3 681:2 682:-1 683:2 684:-1 685:41.4 686:1 687:4 688:2 689:4 690:1 691:-9 692:5 693:2 695:2 696:2 697:-1 698:-1 699:2 700:-1 
0.05812104151414788 125:1 677:1 678:3 679:3 681:2 682:-1 683:2 684:-1 685:25 686:-9 687:4 688:4 689:4 690:1 691:4 692:-9 693:2 695:3 696:1 697:2 698:-8 699:2 700:2 
0.1789853225405869 118:1 195:1 245:1 677:3 678:3 679:1 681:2 682:-1 683:1 684:-1 685:32.9 686:2 687:2 688:2 689:2 690:2 691:-1 692:8 693:2 695:3 696:2 697:-1 698:-1 699:2 700:-1 
1 8:1 219:1 222:1 677:3 678:3 679:3 681:-1 682:-1 683:2 685:-1 686:-1 687:-1 688:-1 689:-1 690:-1 691:-1 692:-1 693:-1 695:-1 696:1 697:1 698:4 699:2 700:-1 
1 45:1 143:1 190:1 195:1 677:3 678:3 679:1 681:2 682:-1 683:1 684:-1 685:32.3 686:1 687:3 688:3 689:3 690:1 691:3 692:8 693:2 695:3 696:1 697:1 698:-8 699:2 700:2 
1 24:1 118:1 222:1 677:3 678:3 679:1 681:2 682:-1 683:1 684:-1 685:37.1 686:1 687:1 688:2 689:1 692:3 693:1 695:4 696:1 697:1 698:4 699:2 700:-1 
0.09537490806175396 149:1 252:1 258:1 260:1 677:3 678:3 679:1 681:-1 682:-1 683:2 684:4 685:-1 686:-1 687:-1 688:-1 689:-1 692:-1 693:-1 695:-1 696:-1 697:-1 698:-1 699:-1 700:-1 
0.2600339108657189 246:1 258:1 677:3 678:3 679:1 681:2 682:-1 683:1 684:-1 685:19 686:-1 687:-1 688:-1 689:-1 692:-1 693:-1 695:-1 696:1 697:1 698:-8 699:2 700:-1 
1 85:1 116:1 201:1 220:1 677:3 678:3 679:1 681:2 682:-1 683:2 684:-1 685:26.6 686:1 687:2 688:2 689:2 690:1 691:3 692:8 693:2 695:2 696:2 697:-1 698:-1 699:1 700:-1 
0.04190401791765595 73:1 677:3 678:3 679:1 681:2 682:-1 683:1 684:-1 685:20.6 686:1 687:-9 688:-9 689:-9 690:-9 691:-9 692:10 693:2 695:2 696:1 697:-8 698:3 699:2 700:2 
0.01264586523410326 60:1 189:1 677:3 678:3 679:1 681:2 682:-1 683:1 684:-1 685:28.7 686:-9 687:-9 688:-9 689:-9 692:-9 693:1 695:2 696:1 697:1 698:4 699:2 700:-1 
1 48:1 54:1 195:1 248:1 677:1 678:3 679:3 681:2 682:-1 683:1 684:-1 685:35.2 686:1 687:3 688:4 689:4 690:1 691:3 692:8 693:1 695:3 696:1 697:1 698:3 699:2 700:-1 
0.07088659930205077 50:1 54:1 85:1 91:1 99:1 106:1 677:3 678:3 679:1 681:1 682:57 683:1 684:-1 685:34.5 686:2 687:-9 688:-9 689:-9 692:-9 693:2 695:2 696:1 697:1 698:3 699:2 700:1 
0.1483000610061821 88:1 117:1 157:1 677:1 678:3 679:3 681:2 682:-1 683:1 684:-1 685:30.7 686:1 687:4 688:2 689:4 692:5 693:-9 695:3 696:1 697:2 698:-8 699:-8 700:2 
0.2637542018963871 50:1 76:1 677:3 678:3 679:1 681:1 682:62 683:1 684:-1 685:30.1 686:2 687:4 688:4 689:4 690:2 691:-1 692:10 693:2 695:1 696:1 697:2 698:-8 699:2 700:2 
0.1602264578475634 194:1 675:4 676:12 677:1 678:3 679:3 680:4 681:2 682:-1 683:1 684:-1 685:22.3 686:1 687:4 688:4 689:3 690:1 691:3 692:6 693:1 694:3 695:1 696:1 697:2 698:3 699:2 700:-1 701:55250 702:58000 704:2 705:2 706:298 708:1 
0.1602306498852788 256:1 675:4 676:10 677:1 678:3 679:3 680:4 681:2 682:-1 683:1 684:-1 685:23 686:2 687:-1 688:-1 689:-1 690:-1 691:-1 692:-1 693:2 694:-1 695:2 696:1 697:1 698:4 699:2 700:2 701:94073 702:18000 704:2 
0.1602490613008437 246:1 675:1 676:1 677:3 678:3 679:1 680:1 681:2 682:-1 683:2 684:-1 685:-9 686:-1 687:-1 688:-1 689:-1 690:-1 691:-1 692:-1 693:-1 694:-1 695:-1 696:-8 697:-1 698:-1 699:2 700:-1 701:76423 704:1 705:1 706:300 
0.1602490613008437 94:1 190:1 675:2 676:2 677:3 678:1 679:3 680:3 681:-1 682:-1 683:2 684:-1 685:-1 686:-1 687:-1 688:-1 689:-1 690:-1 691:-1 692:-1 693:-1 694:-1 695:-1 696:1 697:1 698:4 699:2 700:-1 701:19315 704:1 705:1 706:248 708:2 
0.1602738950774172 235:1 675:1 676:1 677:3 678:3 679:1 680:1 681:2 682:-1 683:2 684:-1 685:25.2 686:1 687:3 688:3 689:3 690:1 691:3 692:8 693:2 694:-1 695:4 696:1 697:1 698:3 699:2 700:-1 701:40000 702:28000 704:2 705:2 706:234 708:3 
0.1602577441396982 59:1 88:1 194:1 249:1 675:1 676:1 677:3 678:3 679:1 680:1 681:-1 682:-1 683:2 685:-1 686:-1 687:-1 688:-1 689:-1 690:-1 691:-1 692:-1 693:-1 694:-1 695:-1 696:2 697:-1 698:-1 699:2 700:-1 701:63738 704:1 705:2 706:336 708:1 
0.1602738950774172 79:1 88:1 124:1 675:2 676:2 677:3 678:1 679:3 680:3 681:2 682:-1 683:2 684:-1 685:66.6 686:2 687:4 688:4 689:4 690:2 691:-1 692:10 693:2 694:-1 695:2 696:1 697:2 698:4 699:2 700:-1 701:30496 702:17000 704:1 
0.1108647566461368 118:1 675:1 676:1 677:3 678:3 679:1 680:1 681:-1 682:-1 683:2 684:-1 685:-1 686:-1 687:-1 688:-1 689:-1 690:-1 691:-1 692:-1 693:-1 694:-1 695:-1 696:2 697:-1 698:-1 699:2 700:-1 701:38280 704:2 
0.02336804994221514 45:1 675:1 676:1 677:3 678:3 679:1 680:1 681:2 682:-1 683:2 684:-1 685:30.5 686:2 687:-1 688:-1 689:-1 690:-1 691:-1 692:-1 693:2 694:-1 695:4 696:1 697:2 698:3 699:2 700:-1 701:13000 702:13000 704:2 
0.1602738950774172 186:1 675:1 676:1 677:3 678:3 679:1 680:1 681:2 682:-1 683:1 684:-1 685:23.9 686:1 687:-9 688:-9 689:-9 690:1 691:3 692:7 693:1 694:3 695:3 696:1 697:1 698:2 699:2 700:-1 701:46000 702:46000 704:2 705:1 706:592 708:1 
0.5448375940989885 54:1 79:1 88:1 91:1 677:3 678:3 679:1 681:2 682:-1 683:1 684:-1 685:24.8 686:1 687:4 688:4 689:4 692:10 693:1 695:2 696:1 697:1 698:4 699:2 700:2 
0.969562146261734 125:1 194:1 249:1 258:1 677:3 678:3 679:1 681:2 682:-1 683:2 684:-1 685:29.5 686:1 687:4 688:4 689:4 692:10 693:1 695:3 696:1 697:1 698:2 699:2 700:-1 
0.03070358266251952 25:1 193:1 195:1 202:1 677:3 678:3 679:1 681:2 682:-1 683:2 684:-1 685:22.6 686:-9 687:3 688:4 689:3 692:6 693:-9 695:5 696:1 697:1 698:-8 699:2 700:-1 
1 116:1 193:1 194:1 677:3 678:3 679:1 681:2 682:-1 683:1 684:-1 685:22 686:1 687:3 688:4 689:4 692:10 693:1 695:2 696:1 697:1 698:3 699:2 700:1 
0.332101413471365 81:1 145:1 236:1 677:1 678:3 679:3 681:-1 682:-1 683:2 684:-1 685:-1 686:-1 687:-1 688:-1 689:-1 690:-1 691:-1 692:-1 693:-1 695:-1 696:1 697:1 698:4 699:2 700:-1 
0.8163079938186827 50:1 51:1 54:1 677:3 678:1 679:3 681:1 682:52 683:2 684:-1 685:28.2 686:1 687:3 688:4 689:2 690:1 691:2 692:7 693:1 695:4 696:1 697:1 698:4 699:2 700:1 
0.03061929960019436 50:1 194:1 677:3 678:3 679:1 681:1 682:73 683:1 684:-1 685:28.8 686:2 687:4 688:4 689:4 690:-9 691:4 692:10 693:2 695:4 696:1 697:2 698:-8 699:2 700:-1 
0.04741353748383989 50:1 190:1 195:1 677:3 678:3 679:1 681:1 682:36 683:1 684:-1 685:-1 686:-1 687:-1 688:-1 689:-1 692:-1 693:-1 695:-1 696:-1 697:-1 698:-1 699:-1 700:2 
0.2214236625991483 81:1 194:1 677:1 678:3 679:3 681:2 682:-1 683:1 684:-1 685:19 686:2 687:-1 688:-1 689:-1 690:-1 691:-1 692:-1 693:2 695:1 696:1 697:2 698:2 699:2 700:-1 
0.1862013449439905 50:1 136:1 677:3 678:3 679:1 681:1 682:65 683:1 684:-1 685:33.2 686:1 687:4 688:4 689:4 690:2 691:-1 692:9 693:2 695:2 696:-8 697:-1 698:-1 699:2 700:1 
0.04586461719225825 54:1 118:1 124:1 677:1 678:3 679:3 681:1 682:66 683:1 684:-1 685:25.7 686:1 687:-1 688:-1 689:-1 692:-1 693:-9 695:-9 696:1 697:1 698:4 699:2 700:2 
0.1123864125947522 88:1 161:1 193:1 677:3 678:1 679:3 681:2 682:-1 683:1 684:-1 685:-9 686:-9 687:4 688:3 689:3 690:-9 691:-9 692:6 693:-9 695:3 696:1 697:2 698:4 699:2 700:-1 
1 79:1 88:1 151:1 190:1 677:3 678:3 679:1 681:2 682:-1 683:1 684:-1 685:27.3 686:1 687:3 688:4 689:4 690:1 691:4 692:7 693:1 695:3 696:1 697:1 698:3 699:2 700:-1 
0.2752001107541119 4:1 248:1 677:3 678:3 679:1 681:-1 682:-1 683:2 685:-1 686:-1 687:-1 688:-1 689:-1 692:-1 693:-1 695:-1 696:1 697:-8 698:4 699:2 700:-1 
0.3239039270753121 50:1 77:1 88:1 99:1 194:1 677:3 678:3 679:1 681:1 682:64 683:-1 684:-1 685:-1 686:-1 687:-1 688:-1 689:-1 692:-1 693:-1 695:-1 696:-1 697:-1 698:-1 699:-1 700:2 
0.5177225736719978 186:1 258:1 677:3 678:3 679:1 681:2 682:-1 683:1 684:-1 685:33.7 686:-1 687:-1 688:-1 689:-1 690:-1 691:-1 692:-1 693:-1 695:-1 696:1 697:1 698:3 699:2 700:-1 
0.8349291334867227 81:1 88:1 677:3 678:3 679:1 681:2 682:-1 683:1 684:-1 685:41.3 686:1 687:3 688:3 689:2 690:1 691:3 692:9 693:1 695:2 696:1 697:2 698:-8 699:2 700:2 
0.0110843030116514 91:1 152:1 221:1 677:3 678:3 679:1 681:1 682:81 683:1 684:-1 685:33.3 686:1 687:-1 688:-1 689:-1 690:-1 691:-1 692:-1 693:1 695:5 696:1 697:1 698:1 699:2 700:2 
0.06290113148867355 50:1 157:1 677:3 678:1 679:3 681:1 682:48 683:1 684:-1 685:48.9 686:2 687:1 688:-9 689:-9 692:-9 693:-9 695:4 696:2 697:-1 698:-1 699:2 700:-1 
0.09075975496739008 50:1 88:1 194:1 677:3 678:1 679:3 681:1 682:60 683:2 684:-1 685:44.4 686:2 687:2 688:2 689:2 690:1 691:2 692:3 693:2 695:3 696:1 697:-8 698:-8 699:2 700:-1 
0.09597274034520119 24:1 677:3 678:3 679:1 681:2 682:-1 683:2 684:-1 685:-9 686:1 687:4 688:4 689:4 692:9 693:1 695:3 696:2 697:-1 698:-1 699:2 700:-9 
0.09411311419168775 49:1 50:1 150:1 677:3 678:3 679:3 681:1 682:64 683:1 684:-1 685:29.4 686:2 687:-9 688:-9 689:-9 690:2 691:-1 692:9 693:2 695:2 696:1 697:1 698:4 699:2 700:2 
0.8568603693061835 151:1 677:1 678:3 679:3 681:2 682:-1 683:1 684:-1 685:21.8 686:1 687:3 688:3 689:3 690:1 691:3 692:6 693:1 695:3 696:1 697:1 698:2 699:2 700:2 
1 222:1 245:1 677:3 678:3 679:1 681:-1 682:-1 683:1 684:4 685:-1 686:-1 687:-1 688:-1 689:-1 692:-1 693:-1 695:-1 696:1 697:1 698:4 699:2 700:-1 
0.3063618640415178 90:1 187:1 195:1 677:3 678:3 679:1 681:2 682:-1 683:1 684:-1 685:39.5 686:1 687:4 688:4 689:4 690:1 691:4 692:10 693:1 695:3 696:1 697:1 698:4 699:2 700:2 
0.09280619394528006 49:1 163:1 677:3 678:3 679:1 681:2 682:-1 683:1 684:-1 685:22.1 686:-9 687:4 688:4 689:4 690:2 691:-1 692:8 693:2 695:-9 696:1 697:2 698:-8 699:2 700:-1 
1 88:1 677:3 678:3 679:1 681:1 682:52 683:1 684:-1 685:26.6 686:1 687:2 688:3 689:2 690:1 691:2 692:6 693:1 695:4 696:1 697:1 698:4 699:2 700:2 
0.3537885689622126 50:1 88:1 193:1 194:1 201:1 677:3 678:3 679:1 681:1 682:53 683:1 684:-1 685:28.6 686:2 687:4 688:4 689:3 690:1 691:4 692:8 693:2 695:4 696:1 697:1 698:4 699:2 700:2 
0.6713794773333486 50:1 91:1 677:3 678:3 679:1 681:1 682:35 683:1 684:-1 685:43 686:2 687:-1 688:-1 689:-1 690:-1 691:-1 692:-1 693:2 695:4 696:1 697:1 698:3 699:2 700:2 
0.1604074069275555 88:1 91:1 94:1 116:1 243:1 675:1 676:1 677:3 678:3 679:1 680:2 681:1 682:58 683:1 684:-1 685:34.8 686:-9 687:-9 688:-9 689:-9 690:-9 691:-9 692:-9 693:2 694:-1 695:2 696:1 697:-8 698:-8 699:2 700:2 701:476146 702:57277 704:2 705:3 706:427 708:12 
0.1512720457483819 74:1 80:1 86:1 116:1 149:1 234:1 675:6 676:12 677:3 678:2 679:2 680:5 681:-1 682:-1 683:2 685:-1 686:-1 687:-1 688:-1 689:-1 690:-1 691:-1 692:-1 693:-1 694:-1 695:-1 696:1 697:1 698:4 699:2 700:-1 701:13527 704:2 705:1 706:90 
0.1604074069275555 50:1 99:1 675:2 676:2 677:3 678:1 679:3 680:3 681:2 682:-1 683:1 684:-1 685:22.4 686:2 687:-1 688:-1 689:-1 690:-1 691:-1 692:-1 693:2 694:-1 695:1 696:1 697:1 698:4 699:2 700:2 701:21500 702:15000 704:2 
0.1596953325393499 50:1 675:6 676:12 677:3 678:2 679:2 680:5 681:-1 682:-1 683:1 685:-1 686:-1 687:-1 688:-1 689:-1 690:-1 691:-1 692:-1 693:-1 694:-1 695:-1 696:1 697:1 698:4 699:2 700:-1 701:54000 704:2 
0.160409323499046 128:1 675:1 676:1 677:3 678:3 679:1 680:1 681:-1 682:-1 683:2 685:-1 686:-1 687:-1 688:-1 689:-1 690:-1 691:-1 692:-1 693:-1 694:-1 695:-1 696:1 697:1 698:3 699:2 700:-1 701:23920 704:1 705:1 706:228 708:1 
0.1604199920661962 74:1 125:1 201:1 675:1 676:1 677:3 678:3 679:1 680:2 681:2 682:-1 683:2 684:-1 685:27 686:2 687:4 688:4 689:4 690:2 691:-1 692:10 693:2 694:-1 695:2 696:1 697:1 698:4 699:2 700:-1 701:203022 702:54995 704:2 
0.097585510394119 88:1 195:1 675:1 676:1 677:3 678:3 679:1 680:1 681:-1 682:-1 683:2 684:-1 685:-1 686:-1 687:-1 688:-1 689:-1 690:-1 691:-1 692:-1 693:-1 694:-1 695:-1 696:1 697:2 698:4 699:2 700:-1 701:42000 704:1 705:1 706:122 
0.1604199920661962 50:1 235:1 254:1 675:4 676:5 677:1 678:3 679:3 680:4 681:-1 682:-1 683:1 685:-1 686:-1 687:-1 688:-1 689:-1 690:-1 691:-1 692:-1 693:-1 694:-1 695:-1 696:1 697:1 698:4 699:2 700:-1 701:141128 704:2 
0.1604293101480527 157:1 675:2 676:2 677:3 678:1 679:3 680:1 681:2 682:-1 683:2 684:-1 685:33.7 686:2 687:-1 688:-1 689:-1 690:-1 691:-1 692:-1 693:1 694:4 695:2 696:1 697:1 698:4 699:2 700:-1 701:60400 702:21500 704:2 
0.1604293101480527 225:1 226:1 675:1 676:1 677:3 678:3 679:1 680:2 681:-1 682:-1 683:2 684:-1 685:-1 686:-1 687:-1 688:-1 689:-1 690:-1 691:-1 692:-1 693:-1 694:-1 695:-1 696:1 697:1 698:4 699:2 700:-1 701:10470 704:1 705:2 706:3688 
0.1604299106740361 5:1 116:1 675:4 676:5 677:1 678:3 679:3 680:4 681:2 682:-1 683:2 684:-1 685:20.1 686:1 687:3 688:4 689:3 690:1 691:4 692:9 693:2 694:-1 695:1 696:1 697:1 698:4 699:2 700:-1 701:70000 702:70000 704:2 708:1 
0.1196942844208328 88:1 128:1 222:1 675:1 676:1 677:3 678:3 679:1 680:2 681:2 682:-1 683:1 684:-1 685:21.3 686:2 687:-1 688:-1 689:-1 690:-1 691:-1 692:-1 693:2 694:-1 695:1 696:1 697:-8 698:-8 699:2 700:2 
0.1124827720299975 234:1 675:1 676:1 677:3 678:3 679:1 680:1 681:-1 682:-1 683:2 685:-1 686:-1 687:-1 688:-1 689:-1 690:-1 691:-1 692:-1 693:-1 694:-1 695:-1 696:1 697:2 698:4 699:2 700:-1 701:18000 704:1 708:1 
0.0781543685663833 124:1 128:1 675:4 676:10 677:1 678:3 679:3 680:4 681:-1 682:-1 683:2 685:-1 686:-1 687:-1 688:-1 689:-1 690:-1 691:-1 692:-1 693:-1 694:-1 695:-1 696:1 697:2 698:3 699:2 700:-1 701:218077 704:2 
0.0898110541179086 50:1 54:1 88:1 195:1 675:1 676:1 677:3 678:3 679:1 680:1 681:-1 682:-1 683:2 685:-1 686:-1 687:-1 688:-1 689:-1 690:-1 691:-1 692:-1 693:-1 694:-1 695:-1 696:1 697:1 698:4 699:2 700:-1 701:42000 704:1 
0.16045112593933 116:1 675:1 676:1 677:3 678:3 679:1 680:2 681:1 682:45 683:2 684:-1 685:27.5 686:2 687:4 688:4 689:4 690:1 691:4 692:10 693:2 694:-1 695:2 696:1 697:1 698:4 699:2 700:-1 701:68000 702:30600 704:2 708:19 
0.139757753051521 116:1 186:1 675:1 676:1 677:3 678:3 679:1 680:1 681:-1 682:-1 683:2 685:-1 686:-1 687:-1 688:-1 689:-1 690:-1 691:-1 692:-1 693:-1 694:-1 695:-1 696:2 697:-1 698:-1 699:2 700:-1 701:35000 704:1 
0.1604883932885872 5:1 50:1 117:1 149:1 243:1 675:1 676:1 677:3 678:3 679:1 680:2 681:2 682:-1 683:2 684:-1 685:47.8 686:2 687:-1 688:-1 689:-1 690:-1 691:-1 692:-1 693:2 694:-1 695:3 696:1 697:1 698:4 699:2 700:-1 701:61676 702:53000 704:2 708:14 
0.1604883932885872 74:1 84:1 201:1 675:1 676:1 677:3 678:3 679:1 680:1 681:2 682:-1 683:1 684:-1 685:20.2 686:-1 687:-1 688:-1 689:-1 690:-1 691:-1 692:-1 693:-1 694:-1 695:-1 696:2 697:-1 698:-1 699:2 700:-1 701:92309 702:75000 704:2 705:1 706:188 708:6 
0.1604989387147586 70:1 116:1 249:1 675:6 676:12 677:3 678:2 679:2 680:5 681:-1 682:-1 683:1 685:-1 686:-1 687:-1 688:-1 689:-1 690:-1 691:-1 692:-1 693:-1 694:-1 695:-1 696:1 697:1 698:4 699:2 700:-1 701:42501 703:3871 704:1 
0.4441816091637065 82:1 116:1 675:1 676:1 677:3 678:3 679:1 680:1 681:-1 682:-1 683:2 685:-1 686:-1 687:-1 688:-1 689:-1 690:-1 691:-1 692:-1 693:-1 694:-1 695:-1 696:1 697:1 698:4 699:2 700:-1 701:85000 704:2 
0.1605258847196494 186:1 675:1 676:1 677:3 678:3 679:1 680:1 681:2 682:-1 683:1 684:-1 685:25.7 686:-1 687:-1 688:-1 689:-1 690:-1 691:-1 692:-1 693:-1 694:-1 695:-1 696:2 697:-1 698:-1 699:2 700:-1 701:26005 704:2 
0.1605474827405413 88:1 118:1 131:1 194:1 240:1 675:1 676:1 677:3 678:3 679:1 680:2 681:2 682:-1 683:1 684:-1 685:37.8 686:1 687:4 688:4 689:4 690:2 691:-1 692:10 693:2 694:-1 695:2 696:1 697:1 698:4 699:2 700:-1 701:68000 702:20400 704:2 705:4 706:1125 708:2 
1 201:1 675:1 676:1 677:3 678:3 679:1 680:1 681:2 682:-1 683:1 684:-1 685:28.2 686:2 687:-1 688:-1 689:-1 690:-1 691:-1 692:-1 693:2 694:-1 695:2 696:1 697:1 698:3 699:2 700:-1 701:50000 702:50000 704:2 
0.1605583263894442 82:1 675:1 676:1 677:3 678:3 679:1 680:1 681:2 682:-1 683:1 684:-1 685:24.2 686:2 687:-1 688:-1 689:-1 690:-1 691:-1 692:-1 693:2 694:-1 695:1 696:2 697:-1 698:-1 699:2 700:-1 701:102000 702:31200 704:2 705:1 706:3772 
0.1605600350238919 50:1 54:1 128:1 675:1 676:1 677:3 678:3 679:1 680:2 681:2 682:-1 683:2 684:-1 685:34.2 686:2 687:-1 688:-1 689:-1 690:-1 691:-1 692:-1 693:2 694:-1 695:3 696:1 697:1 698:4 699:2 700:-1 701:48000 702:18000 704:2 708:4 
0.1600712526842561 54:1 81:1 110:1 675:1 676:1 677:3 678:3 679:1 680:1 681:2 682:-1 683:2 684:-1 685:24.1 686:1 687:3 688:3 689:3 690:1 691:4 692:10 693:2 694:-1 695:3 696:2 697:-1 698:-1 699:2 700:2 701:63779 702:56254 704:2 705:1 706:535 708:11 
0.1598750165612994 124:1 125:1 222:1 234:1 243:1 675:1 676:1 677:3 678:3 679:1 680:2 681:2 682:-1 683:2 684:-1 685:23.4 686:1 687:4 688:4 689:4 690:2 691:-1 692:10 693:1 694:4 695:1 696:1 697:1 698:4 699:2 700:-1 701:84000 702:15333 704:2 708:10 
1 118:1 124:1 128:1 248:1 677:3 678:3 679:1 681:2 682:-1 683:1 684:-1 685:23.6 686:1 687:4 688:4 689:4 690:1 691:4 692:10 693:2 695:2 696:1 697:2 698:4 699:2 700:1 
0.3168441928533836 80:1 190:1 677:3 678:3 679:1 681:2 682:-1 683:1 684:-1 685:44.1 686:1 687:3 688:2 689:2 690:2 691:-1 692:5 693:2 695:1 696:2 697:-1 698:-1 699:2 700:-1 
0.05125427256325123 50:1 54:1 88:1 677:3 678:3 679:1 681:1 682:32 683:1 684:-1 685:34.9 686:2 687:-1 688:-1 689:-1 690:-1 691:-1 692:-1 693:2 695:3 696:1 697:1 698:4 699:2 700:2 
0.8944825713444344 53:1 163:1 194:1 201:1 215:1 677:3 678:3 679:1 681:2 682:-1 683:2 684:-1 685:24.3 686:2 687:-1 688:-1 689:-1 690:-1 691:-1 692:-1 693:2 695:3 696:2 697:-1 698:-1 699:2 700:-1 
0.5371565663450941 54:1 90:1 91:1 190:1 222:1 677:3 678:3 679:1 681:1 682:50 683:1 684:-1 685:29.4 686:2 687:-1 688:-1 689:-1 690:-1 691:-1 692:-1 693:2 695:3 696:1 697:1 698:3 699:2 700:-1 
0.05004815931726151 233:1 677:3 678:3 679:1 681:2 682:-1 683:2 684:-1 685:26.8 686:1 687:2 688:3 689:3 690:-9 691:3 692:7 693:2 695:3 696:1 697:1 698:1 699:2 700:2 
0.6922115248051639 116:1 201:1 249:1 677:3 678:3 679:1 681:2 682:-1 683:1 684:-1 685:30.1 686:-1 687:-1 688:-1 689:-1 692:-1 693:-1 695:-1 696:1 697:1 698:2 699:2 700:-1 
0.5827695149398571 84:1 116:1 256:1 677:3 678:3 679:1 681:-1 682:-1 683:2 685:-1 686:-1 687:-1 688:-1 689:-1 692:-1 693:-1 695:-1 696:1 697:1 698:3 699:2 700:-1 
0.5123810881937841 125:1 253:1 677:3 678:3 679:1 681:-1 682:-1 683:2 684:-8 685:-1 686:-1 687:-1 688:-1 689:-1 690:-1 691:-1 692:-1 693:-1 695:-1 696:1 697:2 698:2 699:2 700:-1 
0.218938303936215 189:1 194:1 195:1 677:3 678:3 679:1 681:2 682:-1 683:1 684:-1 685:23.7 686:1 687:4 688:4 689:2 690:1 691:4 692:4 693:-9 695:4 696:1 697:1 698:4 699:2 700:2 
0.4311484706148658 84:1 195:1 677:3 678:3 679:1 681:2 682:-1 683:1 684:-1 685:22.2 686:1 687:4 688:4 689:4 690:1 691:4 692:10 693:1 695:2 696:1 697:1 698:4 699:2 700:1 
0.4309524640321819 60:1 116:1 249:1 677:3 678:3 679:1 681:2 682:-1 683:2 684:-1 685:20.6 686:2 687:3 688:4 689:2 692:9 693:2 695:2 696:1 697:2 698:4 699:2 700:-1 
0.4039816351430631 54:1 677:3 678:3 679:1 681:2 682:-1 683:1 684:-1 685:17.2 686:1 687:4 688:4 689:3 690:1 691:4 692:8 693:2 695:3 696:1 697:-8 698:-8 699:2 700:2 
0.519799929184122 85:1 194:1 195:1 677:3 678:3 679:1 681:2 682:-1 683:2 684:-1 685:23.4 686:1 687:4 688:4 689:3 690:1 691:3 692:8 693:1 695:-9 696:1 697:2 698:3 699:2 700:-1 
0.2834320098913652 234:1 677:3 678:3 679:1 681:2 682:-1 683:2 684:-1 685:20.3 686:2 687:-1 688:-1 689:-1 690:-1 691:-1 692:-1 693:2 695:-9 696:1 697:1 698:4 699:2 700:-1 
0.1020898526355171 5:1 149:1 677:3 678:3 679:1 681:2 682:-1 683:1 684:-1 685:27.4 686:-9 687:4 688:4 689:4 690:1 691:4 692:9 693:2 695:2 696:1 697:1 698:-8 699:2 700:-1 
0.08799283945530111 74:1 677:3 678:1 679:3 681:2 682:-1 683:1 684:-1 685:-9 686:1 687:4 688:4 689:-9 690:1 691:4 692:8 693:2 695:3 696:1 697:1 698:3 699:2 700:-1 
0.04266379769402923 50:1 54:1 88:1 194:1 677:1 678:3 679:3 681:1 682:61 683:1 684:-1 685:27.9 686:1 687:3 688:3 689:3 690:1 691:4 692:8 693:2 695:-9 696:1 697:1 698:-8 699:2 700:2 
0.4908943092372999 116:1 677:3 678:1 679:3 681:2 682:-1 683:2 684:-1 685:-9 686:1 687:4 688:2 689:2 692:7 693:2 695:1 696:1 697:2 698:-8 699:2 700:-1 
0.2310267748009762 50:1 81:1 84:1 677:1 678:3 679:3 681:1 682:60 683:2 684:-1 685:23.8 686:1 687:4 688:4 689:4 692:10 693:1 695:2 696:1 697:1 698:-8 699:2 700:2 
0.7178178550020189 79:1 149:1 677:3 678:1 679:3 681:2 682:-1 683:1 684:-1 685:29.3 686:2 687:-1 688:-1 689:-1 690:-1 691:-1 692:-1 693:2 695:1 696:2 697:-1 698:-1 699:2 700:-8 
1 49:1 83:1 166:1 249:1 252:1 258:1 677:3 678:3 679:1 681:2 682:-1 683:1 684:-1 685:28.2 686:1 687:3 688:2 689:3 692:8 693:2 695:2 696:1 697:1 698:4 699:2 700:-1 
0.5434371191410392 227:1 677:3 678:1 679:3 681:1 682:30 683:2 684:-1 685:-1 686:1 687:3 688:3 689:3 692:7 693:1 695:4 696:1 697:1 698:3 699:2 700:-1 
0.0642473913463851 193:1 677:3 678:3 679:1 681:2 682:-1 683:1 684:-1 685:47.5 686:2 687:-1 688:-1 689:-1 690:-1 691:-1 692:-1 693:2 695:4 696:2 697:-1 698:-1 699:2 700:2 
0.3024243025767371 195:1 677:3 678:1 679:3 681:2 682:-1 683:1 684:-1 685:-9 686:1 687:4 688:4 689:3 692:9 693:1 695:1 696:1 697:2 698:4 699:2 700:-1 
0.06746113852364886 117:1 118:1 124:1 677:3 678:3 679:1 681:2 682:-1 683:1 684:-1 685:27.5 686:2 687:1 688:1 689:1 690:2 691:-1 692:-9 693:-9 695:2 696:2 697:-1 698:-1 699:2 700:2 
0.5452517646043399 54:1 88:1 245:1 677:3 678:3 679:1 681:2 682:-1 683:1 684:-1 685:-9 686:2 687:4 688:4 689:4 690:2 691:-1 692:10 693:2 695:1 696:1 697:1 698:4 699:2 700:2 
1 194:1 215:1 677:3 678:3 679:1 681:-1 682:-1 683:2 685:-1 686:-1 687:-1 688:-1 689:-1 692:-1 693:-1 695:-1 696:1 697:1 698:4 699:2 700:-1 
0.1555459673149507 79:1 116:1 195:1 677:3 678:3 679:1 681:2 682:-1 683:1 684:-1 685:30.9 686:1 687:-1 688:-1 689:-1 690:-1 691:-1 692:-1 693:1 695:2 696:1 697:1 698:3 699:2 700:-1 
0.7479186724813941 50:1 677:3 678:1 679:3 681:1 682:36 683:2 684:-1 685:33.5 686:1 687:4 688:4 689:4 690:1 691:4 692:10 693:1 695:2 696:1 697:1 698:3 699:2 700:2 
0.08738995960407685 5:1 201:1 677:3 678:3 679:1 681:2 682:-1 683:1 684:-1 685:23.4 686:1 687:-9 688:-9 689:-9 690:-9 691:-9 692:-9 693:2 695:3 696:1 697:1 698:4 699:2 700:-1 
0.1949588114375697 37:1 677:1 678:3 679:3 681:2 682:-1 683:1 684:-1 685:-9 686:-1 687:-1 688:-1 689:-1 690:-1 691:-1 692:-1 693:-1 695:-1 696:1 697:2 698:-8 699:2 700:-1 
0.01418219644804074 54:1 88:1 677:3 678:1 679:3 681:2 682:-1 683:1 684:-1 685:31.5 686:2 687:-9 688:-9 689:-9 690:-9 691:-9 692:-9 693:2 695:2 696:1 697:2 698:4 699:2 700:-1 
0.01630109752830732 49:1 74:1 88:1 194:1 677:3 678:1 679:3 681:2 682:-1 683:1 684:-1 685:31 686:1 687:4 688:3 689:3 690:2 691:-1 692:8 693:2 695:3 696:1 697:1 698:4 699:2 700:-1 
0.1136506203437196 165:1 677:1 678:3 679:3 681:2 682:-1 683:2 684:-1 685:19.5 686:1 687:4 688:4 689:4 690:1 691:-9 692:8 693:2 695:3 696:2 697:-1 698:-1 699:2 700:-1 
0.06020056993328168 88:1 194:1 677:3 678:3 679:1 681:2 682:-1 683:2 684:-1 685:50.3 686:1 687:4 688:4 689:4 690:2 691:-1 692:10 693:-9 695:-9 696:1 697:2 698:4 699:2 700:2 
0.8577179377551692 271:1 677:3 678:3 679:1 681:2 682:-1 683:1 684:-1 685:-9 686:-1 687:-1 688:-1 689:-1 690:-1 691:-1 692:-1 693:-1 695:-1 696:1 697:1 698:3 699:2 700:2 
0.2206120190542669 222:1 677:3 678:3 679:1 681:2 682:-1 683:1 684:-1 685:50 686:2 687:3 688:3 689:3 690:1 691:3 692:7 693:2 695:1 696:2 697:-1 698:-1 699:2 700:-1 
0.07240571678406665 80:1 118:1 124:1 234:1 677:3 678:3 679:1 681:2 682:-1 683:1 685:23.1 686:-1 687:-1 688:-1 689:-1 690:-1 691:-1 692:-1 693:-1 695:-1 696:1 697:1 698:3 699:2 700:-1 
0.1600837588280131 11:1 675:2 676:2 677:3 678:1 679:3 680:3 681:-1 682:-1 683:1 685:-1 686:-1 687:-1 688:-1 689:-1 690:-1 691:-1 692:-1 693:-1 694:-1 695:-1 696:1 697:1 698:4 699:2 700:-1 701:68000 704:2 705:1 706:259 
0.1600763215258282 188:1 675:1 676:1 677:3 678:3 679:1 680:2 681:2 682:-1 683:1 684:-1 685:24.2 686:1 687:4 688:4 689:4 690:1 691:4 692:9 693:1 694:4 695:2 696:1 697:1 698:-8 699:2 700:2 701:27030 704:2 705:1 706:150 707:1 708:1 
0.160084069294058 54:1 88:1 675:4 676:10 677:1 678:3 679:3 680:4 681:2 682:-1 683:2 684:-1 685:24.4 686:1 687:4 688:4 689:3 690:2 691:-1 692:8 693:2 694:-1 695:2 696:1 697:-8 698:4 699:2 700:-1 701:1455 702:1455 704:2 705:1 706:490 
0.160083526757457 128:1 675:1 676:1 677:3 678:3 679:1 680:2 681:1 682:71 683:1 684:-1 685:27.9 686:2 687:4 688:4 689:4 690:1 691:4 692:8 693:2 694:-1 695:3 696:1 697:2 698:2 699:2 700:1 701:9000 704:2 
0.1600901144346629 201:1 675:1 676:1 677:3 678:3 679:1 680:2 681:2 682:-1 683:2 684:-1 685:16.9 686:-1 687:-1 688:-1 689:-1 690:-1 691:-1 692:-1 693:-1 694:-1 695:-1 696:1 697:1 698:4 699:2 700:-1 701:81760 704:2 
0.1600951311867305 88:1 150:1 195:1 258:1 675:4 676:10 677:1 678:3 679:3 680:4 681:2 682:-1 683:2 684:-1 685:23.4 686:-1 687:-1 688:-1 689:-1 690:-1 691:-1 692:-1 693:-1 694:-1 695:-1 696:2 697:-1 698:-1 699:2 700:-1 701:76600 702:35000 704:2 
0.1600973924034399 116:1 241:1 675:1 676:1 677:3 678:3 679:1 680:1 681:-1 682:-1 683:2 684:-1 685:-1 686:-1 687:-1 688:-1 689:-1 690:-1 691:-1 692:-1 693:-1 694:-1 695:-1 696:1 697:2 698:3 699:2 700:-1 701:18500 704:2 708:2 
0.1600973924034399 85:1 88:1 116:1 123:1 139:1 188:1 194:1 195:1 234:1 675:1 676:1 677:3 678:3 679:1 680:2 681:2 682:-1 683:1 684:-1 685:27.9 686:2 687:-1 688:-1 689:-1 690:-1 691:-1 692:-1 693:2 694:-1 695:1 696:2 697:-1 698:-1 699:2 700:-1 701:23520 702:23000 704:1 
0.1600969629698858 80:1 675:1 676:1 677:3 678:3 679:1 680:2 681:2 682:-1 683:1 684:-1 685:20.3 686:1 687:4 688:4 689:4 690:1 691:4 692:8 693:2 694:-1 695:2 696:2 697:-1 698:-1 699:2 700:-1 701:106679 702:106666 704:2 
0.1601104617003152 116:1 195:1 675:1 676:1 677:3 678:3 679:1 680:1 681:2 682:-1 683:1 684:-1 685:42.9 686:1 687:4 688:4 689:4 690:1 691:4 692:9 693:2 694:-1 695:3 696:1 697:1 698:4 699:2 700:-1 701:190256 702:95000 704:2 708:13 
0.1601104617003152 59:1 134:1 675:1 676:1 677:3 678:3 679:1 680:2 681:-1 682:-1 683:1 685:-1 686:-1 687:-1 688:-1 689:-1 690:-1 691:-1 692:-1 693:-1 694:-1 695:-1 696:1 697:2 698:4 699:2 700:-1 701:95500 704:2 705:2 706:804 
0.1601110186638024 220:1 675:1 676:1 677:3 678:3 679:1 680:2 681:2 682:-1 683:1 684:-1 685:-9 686:-1 687:-1 688:-1 689:-1 690:-1 691:-1 692:-1 693:-1 694:-1 695:-1 696:2 697:-1 698:-1 699:2 700:1 701:53200 702:33000 704:2 
0.1601153745832612 116:1 675:1 676:1 677:3 678:3 679:1 680:1 681:2 682:-1 683:1 684:-1 685:30.9 686:2 687:-1 688:-1 689:-1 690:-1 691:-1 692:-1 693:2 694:-1 695:2 696:1 697:1 698:3 699:2 700:-1 701:16800 704:1 
0.1601153745832612 50:1 675:1 676:1 677:3 678:3 679:1 680:2 681:2 682:-1 683:1 684:-1 685:20.2 686:1 687:4 688:4 689:4 690:1 691:4 692:9 693:2 694:-1 695:2 696:1 697:1 698:4 699:2 700:2 701:58684 702:27300 704:2 705:3 706:306 708:11 
0.08509640695860612 54:1 88:1 116:1 675:2 676:2 677:3 678:1 679:3 680:3 681:2 682:-1 683:1 684:-1 685:23.6 686:2 687:-1 688:-1 689:-1 690:-1 691:-1 692:-1 693:2 694:-1 695:1 696:2 697:-1 698:-1 699:2 700:-1 701:6000 702:6000 704:2 
0.1180724975726941 4:1 128:1 129:1 145:1 675:6 676:12 677:3 678:2 679:2 680:5 681:-1 682:-1 683:2 685:-1 686:-1 687:-1 688:-1 689:-1 690:-1 691:-1 692:-1 693:-1 694:-1 695:-1 696:1 697:1 698:4 699:2 700:-1 701:13527 704:2 705:1 706:142 
0.1602851413085916 86:1 675:6 676:12 677:3 678:2 679:2 680:5 681:-1 682:-1 683:2 684:-1 685:-1 686:-1 687:-1 688:-1 689:-1 690:-1 691:-1 692:-1 693:-1 694:-1 695:-1 696:1 697:1 698:4 699:2 700:-1 701:13527 704:2 
0.160128497237619 79:1 116:1 195:1 675:4 676:10 677:1 678:3 679:3 680:4 681:2 682:-1 683:2 684:-1 685:27.3 686:2 687:-1 688:-1 689:-1 690:-1 691:-1 692:-1 693:2 694:-1 695:4 696:-8 697:-1 698:-1 699:-8 700:-1 701:70796 702:50000 704:2 
0.1601282806546782 123:1 201:1 675:4 676:10 677:1 678:3 679:3 680:4 681:2 682:-1 683:2 684:-1 685:-9 686:2 687:-1 688:-1 689:-1 690:-1 691:-1 692:-1 693:2 694:-1 695:3 696:1 697:1 698:2 699:2 700:-1 701:36691 702:16397 704:2 
0.1601433770111334 50:1 675:2 676:2 677:3 678:1 679:3 680:3 681:-1 682:-1 683:2 684:-1 685:-1 686:-1 687:-1 688:-1 689:-1 690:-1 691:-1 692:-1 693:-1 694:-1 695:-1 696:1 697:1 698:4 699:2 700:-1 701:6536 704:1 705:2 706:240 
0.1603390789456038 70:1 88:1 675:2 676:2 677:3 678:1 679:3 680:3 681:2 682:-1 683:2 684:-1 685:19.8 686:-1 687:-1 688:-1 689:-1 690:-1 691:-1 692:-1 693:-1 694:-1 695:-1 696:1 697:1 698:4 699:2 700:2 701:10730 702:10730 704:1 708:5 
0.1599904949807961 54:1 88:1 249:1 258:1 675:2 676:2 677:3 678:1 679:3 680:3 681:2 682:-1 683:2 684:-1 685:34.9 686:2 687:-1 688:-1 689:-1 690:-1 691:-1 692:-1 693:2 694:-1 695:1 696:2 697:-1 698:-1 699:2 700:-1 701:7901 702:7901 704:2 
0.1601511386232423 116:1 164:1 675:1 676:1 677:3 678:3 679:1 680:1 681:-1 682:-1 683:2 685:-1 686:-1 687:-1 688:-1 689:-1 690:-1 691:-1 692:-1 693:-1 694:-1 695:-1 696:1 697:1 698:3 699:2 700:-1 701:3400 704:1 705:3 706:336 
0.1601726241027669 74:1 116:1 118:1 675:2 676:2 677:3 678:1 679:3 680:3 681:-1 682:-1 683:2 684:-1 685:-1 686:-1 687:-1 688:-1 689:-1 690:-1 691:-1 692:-1 693:-1 694:-1 695:-1 696:1 697:1 698:4 699:2 700:-1 701:12422 704:1 
0.160152273005376 82:1 675:2 676:2 677:3 678:1 679:3 680:3 681:-1 682:-1 683:2 685:-1 686:-1 687:-1 688:-1 689:-1 690:-1 691:-1 692:-1 693:-1 694:-1 695:-1 696:1 697:2 698:4 699:2 700:-1 701:37047 702:2041 704:1 
0.101217467717787 24:1 81:1 88:1 149:1 675:2 676:2 677:3 678:1 679:3 680:3 681:2 682:-1 683:2 684:-1 685:42.7 686:2 687:-1 688:-1 689:-1 690:-1 691:-1 692:-1 693:2 694:-1 695:3 696:1 697:1 698:3 699:2 700:-1 701:25000 702:25000 704:2 
0.1601526769692668 114:1 675:1 676:1 677:3 678:3 679:1 680:2 681:2 682:-1 683:1 684:-1 685:25.8 686:2 687:-1 688:-1 689:-1 690:-1 691:-1 692:-1 693:2 694:-1 695:2 696:1 697:1 698:2 699:2 700:1 701:29596 704:2 
0.160170155488906 118:1 124:1 223:1 675:1 676:1 677:3 678:3 679:1 680:2 681:-1 682:-1 683:2 684:-1 685:-1 686:-1 687:-1 688:-1 689:-1 690:-1 691:-1 692:-1 693:-1 694:-1 695:-1 696:1 697:1 698:4 699:2 700:-1 701:113017 704:2 705:1 706:80 
0.1601701554879048 139:1 195:1 675:2 676:2 677:3 678:1 679:3 680:3 681:2 682:-1 683:1 684:-1 685:27.9 686:2 687:-1 688:-1 689:-1 690:-1 691:-1 692:-1 693:2 694:-1 695:2 696:1 697:2 698:4 699:2 700:2 701:213033 702:148933 704:2 
0.1601701554879048 236:1 675:2 676:2 677:3 678:1 679:3 680:3 681:2 682:-1 683:2 684:-1 685:20.3 686:1 687:4 688:4 689:4 690:2 691:-1 692:9 693:2 694:-1 695:1 696:1 697:1 698:4 699:2 700:-1 701:24818 702:24818 704:2 705:8 706:2726 707:1 708:3 
0.1601725194021703 161:1 675:1 676:1 677:3 678:3 679:1 680:1 681:2 682:-1 683:1 684:-1 685:24.3 686:2 687:-1 688:-1 689:-1 690:-1 691:-1 692:-1 693:2 694:-1 695:1 696:2 697:-1 698:-1 699:2 700:-1 701:288199 702:90000 704:2 
0.1601873724492368 123:1 675:6 676:12 677:2 678:3 679:2 680:5 681:-1 682:-1 683:2 685:-1 686:-1 687:-1 688:-1 689:-1 690:-1 691:-1 692:-1 693:-1 694:-1 695:-1 696:1 697:1 698:3 699:2 700:-1 701:36000 704:1 705:1 706:280 
0.1601992783398791 50:1 675:4 676:10 677:1 678:3 679:3 680:4 681:2 682:-1 683:2 684:-1 685:26.4 686:2 687:-1 688:-1 689:-1 690:-1 691:-1 692:-1 693:2 694:-1 695:1 696:1 697:1 698:4 699:2 700:-1 701:100819 704:2 705:2 706:180 708:3 
0.1601980248786436 88:1 116:1 118:1 143:1 195:1 675:1 676:1 677:3 678:3 679:1 680:2 681:2 682:-1 683:2 684:-1 685:44.6 686:2 687:-1 688:-1 689:-1 690:-1 691:-1 692:-1 693:2 694:-1 695:3 696:1 697:1 698:-8 699:2 700:-1 701:40000 702:4000 704:2 705:2 706:520 
0.1601995239626624 149:1 186:1 201:1 675:1 676:1 677:3 678:3 679:1 680:2 681:2 682:-1 683:1 684:-1 685:23.2 686:2 687:-1 688:-1 689:-1 690:-1 691:-1 692:-1 693:2 694:-1 695:1 696:1 697:1 698:4 699:2 700:-1 701:36795 702:36795 704:2 708:9 
0.06285211066753305 256:1 675:1 676:1 677:3 678:3 679:1 680:1 681:-1 682:-1 683:2 685:-1 686:-1 687:-1 688:-1 689:-1 690:-1 691:-1 692:-1 693:-1 694:-1 695:-1 696:1 697:2 698:4 699:2 700:-1 701:42000 704:1 705:1 706:122 
0.1602212799650978 45:1 49:1 88:1 117:1 124:1 130:1 248:1 675:1 676:1 677:3 678:3 679:1 680:2 681:2 682:-1 683:1 684:-1 685:32.7 686:2 687:-1 688:-1 689:-1 690:-1 691:-1 692:-1 693:2 694:-1 695:3 696:2 697:-1 698:-1 699:2 700:-1 701:60756 702:24000 704:2 
0.1602219826538093 195:1 675:2 676:2 677:3 678:1 679:3 680:3 681:1 682:37 683:2 684:-1 685:29 686:1 687:-1 688:-1 689:-1 690:-1 691:-1 692:-1 693:2 694:-1 695:3 696:1 697:1 698:4 699:2 700:-1 701:55000 702:11000 704:2 705:2 706:490 708:15 
0.1602262328703611 149:1 675:1 676:1 677:3 678:3 679:1 680:2 681:2 682:-1 683:2 684:-1 685:20.7 686:1 687:4 688:3 689:3 690:1 691:4 692:8 693:2 694:-1 695:3 696:1 697:1 698:3 699:2 700:-1 701:107000 702:46750 704:2 705:1 706:163 708:1 
0.1602262795132275 54:1 675:2 676:2 677:3 678:1 679:3 680:3 681:-1 682:-1 683:2 685:-1 686:-1 687:-1 688:-1 689:-1 690:-1 691:-1 692:-1 693:-1 694:-1 695:-1 696:1 697:1 698:4 699:2 700:-1 701:43208 702:2000 704:2 708:1 
0.1602210091995471 194:1 675:1 676:1 677:3 678:3 679:1 680:1 681:2 682:-1 683:1 684:-1 685:29.6 686:2 687:-1 688:-1 689:-1 690:-1 691:-1 692:-1 693:2 694:-1 695:2 696:2 697:-1 698:-1 699:2 700:-1 701:20000 702:6667 704:2 705:1 706:60 708:1 
0.1602206191571943 249:1 675:1 676:1 677:3 678:3 679:1 680:1 681:2 682:-1 683:2 684:-1 685:30 686:2 687:-1 688:-1 689:-1 690:-1 691:-1 692:-1 693:2 694:-1 695:3 696:2 697:-1 698:-1 699:2 700:-1 701:40000 702:11200 704:2 
0.1602244234333562 54:1 88:1 675:1 676:1 677:3 678:3 679:1 680:2 681:2 682:-1 683:1 684:-1 685:30.2 686:1 687:4 688:4 689:3 690:1 691:4 692:10 693:2 694:-1 695:1 696:1 697:1 698:4 699:2 700:-1 701:207711 702:27706 704:2 705:3 706:678 
0.1602251467597449 88:1 154:1 675:2 676:2 677:3 678:1 679:3 680:3 681:2 682:-1 683:1 684:-1 685:25.7 686:2 687:-1 688:-1 689:-1 690:-1 691:-1 692:-1 693:2 694:-1 695:1 696:-8 697:-1 698:-1 699:2 700:-1 701:26950 702:24440 704:2 705:1 706:480 
0.1596542779483417 153:1 675:1 676:1 677:3 678:3 679:1 680:1 681:2 682:-1 683:2 684:-1 685:22.4 686:1 687:4 688:4 689:4 690:2 691:-1 692:8 693:2 694:-1 695:2 696:1 697:1 698:4 699:2 700:2 701:71000 704:2 
1 249:1 253:1 258:1 271:1 675:1 676:1 677:3 678:3 679:1 680:1 681:-1 682:-1 683:2 685:-1 686:-1 687:-1 688:-1 689:-1 690:-1 691:-1 692:-1 693:-1 694:-1 695:-1 696:1 697:2 698:4 699:2 700:-1 701:92027 704:1 708:6 
0.1602249978538672 202:1 675:1 676:1 677:3 678:3 679:1 680:2 681:2 682:-1 683:2 685:17.8 686:-1 687:-1 688:-1 689:-1 690:-1 691:-1 692:-1 693:-1 694:-1 695:-1 696:1 697:1 698:4 699:2 700:-1 701:76000 702:4000 704:1 705:1 706:92 708:1 
0.1602238240017129 234:1 675:1 676:1 677:3 678:3 679:1 680:1 681:-1 682:-1 683:1 685:-1 686:-1 687:-1 688:-1 689:-1 690:-1 691:-1 692:-1 693:-1 694:-1 695:-1 696:1 697:1 698:4 699:2 700:-1 701:16500 704:1 705:2 706:1134 
0.160222290671757 54:1 88:1 249:1 675:1 676:1 677:3 678:3 679:1 680:2 681:2 682:-1 683:1 684:-1 685:28.5 686:1 687:-1 688:-1 689:-1 690:-1 691:-1 692:-1 693:2 694:-1 695:2 696:1 697:1 698:4 699:2 700:2 701:267367 702:208627 704:2 705:3 706:740 
0.160235689478915 48:1 675:1 676:1 677:3 678:3 679:1 680:1 681:2 682:-1 683:1 684:-1 685:26.6 686:1 687:3 688:3 689:3 690:2 691:-1 692:9 693:2 694:-1 695:2 696:1 697:1 698:3 699:2 700:-1 701:29000 702:4350 704:1 705:4 706:2180 708:1 
0.1602330971737592 49:1 675:1 676:1 677:3 678:3 679:1 680:2 681:2 682:-1 683:1 684:-1 685:27.7 686:1 687:4 688:4 689:4 690:1 691:4 692:7 693:2 694:-1 695:2 696:1 697:1 698:4 699:2 700:-1 701:143316 702:67500 704:2 
0.1602293423242765 50:1 54:1 88:1 675:1 676:1 677:3 678:3 679:1 680:1 681:-1 682:-1 683:2 684:1 685:-1 686:-1 687:-1 688:-1 689:-1 690:-1 691:-1 692:-1 693:-1 694:-1 695:-1 696:1 697:1 698:3 699:2 700:-1 701:2880 704:1 705:1 706:104 
0.1602369766330802 60:1 675:1 676:1 677:3 678:3 679:1 680:2 681:2 682:-1 683:2 684:-1 685:26.6 686:1 687:4 688:4 689:4 690:1 691:4 692:10 693:2 694:-1 695:2 696:1 697:2 698:4 699:2 700:-1 701:43694 702:36000 704:1 705:2 706:1106 708:8 
0.1602400243468174 50:1 54:1 88:1 157:1 675:6 676:12 677:3 678:2 679:2 680:5 681:-1 682:-1 683:2 684:1 685:-1 686:-1 687:-1 688:-1 689:-1 690:-1 691:-1 692:-1 693:-1 694:-1 695:-1 696:2 697:-1 698:-1 699:2 700:-1 701:43694 704:2 
0.1602397770742817 80:1 243:1 675:1 676:1 677:3 678:3 679:1 680:2 681:-1 682:-1 683:1 685:-1 686:-1 687:-1 688:-1 689:-1 690:-1 691:-1 692:-1 693:-1 694:-1 695:-1 696:1 697:1 698:-8 699:2 700:-1 701:42000 704:1 705:1 706:625 
0.1602493639057411 116:1 194:1 675:2 676:2 677:3 678:1 679:3 680:3 681:2 682:-1 683:2 684:-1 685:25.4 686:2 687:-1 688:-1 689:-1 690:-1 691:-1 692:-1 693:2 694:-1 695:1 696:2 697:-1 698:-1 699:2 700:-1 701:105600 702:75000 704:2 
0.1602493639057411 55:1 675:2 676:2 677:3 678:1 679:3 680:3 681:2 682:-1 683:2 684:-1 685:31.6 686:2 687:-1 688:-1 689:-1 690:-1 691:-1 692:-1 693:2 694:-1 695:3 696:2 697:-1 698:-1 699:2 700:2 701:62250 702:62000 704:2 
0.1602569498933283 50:1 54:1 88:1 90:1 91:1 675:1 676:1 677:3 678:3 679:1 680:2 681:2 682:-1 683:1 684:-1 685:41.2 686:2 687:-1 688:-1 689:-1 690:-1 691:-1 692:-1 693:2 694:-1 695:1 696:2 697:-1 698:-1 699:2 700:-1 701:59808 702:26208 704:2 
0.1602584161470065 25:1 45:1 85:1 130:1 675:2 676:2 677:3 678:1 679:3 680:3 681:2 682:-1 683:2 684:-1 685:32.3 686:1 687:4 688:4 689:4 690:2 691:-1 692:9 693:2 694:-1 695:1 696:1 697:1 698:4 699:2 700:-1 701:47016 702:31616 704:2 705:1 706:84 
0.1601619419451535 117:1 675:1 676:1 677:3 678:3 679:1 680:2 681:2 682:-1 683:2 684:-1 685:19.8 686:1 687:4 688:4 689:4 690:1 691:4 692:8 693:1 694:4 695:3 696:1 697:1 698:-8 699:2 700:2 701:65628 702:29328 704:2 705:1 706:190 708:10 
0.160260556184419 86:1 88:1 91:1 675:2 676:2 677:3 678:1 679:3 680:1 681:2 682:-1 683:1 684:-1 685:28.1 686:2 687:4 688:4 689:4 690:2 691:-1 692:10 693:-9 694:4 695:2 696:1 697:1 698:3 699:2 700:-1 701:24000 702:24000 704:2 705:1 706:89 
0.1600735213379072 116:1 246:1 675:2 676:2 677:3 678:1 679:3 680:3 681:-1 682:-1 683:2 685:-1 686:-1 687:-1 688:-1 689:-1 690:-1 691:-1 692:-1 693:-1 694:-1 695:-1 696:1 697:2 698:1 699:2 700:-1 701:65000 704:2 705:1 706:190 
0.1399045435546806 80:1 190:1 675:1 676:1 677:3 678:3 679:1 680:1 681:2 682:-1 683:2 684:-1 685:22.2 686:2 687:4 688:4 689:3 690:1 691:4 692:9 693:2 694:-1 695:1 696:1 697:2 698:2 699:2 700:-1 701:34976 704:1 708:1 
0.1602566800785694 54:1 88:1 99:1 675:1 676:1 677:3 678:3 679:1 680:2 681:2 682:-1 683:2 684:-1 685:27.3 686:-1 687:-1 688:-1 689:-1 690:-1 691:-1 692:-1 693:-1 694:-1 695:-1 696:1 697:-8 698:-8 699:2 700:-1 701:107502 702:99172 704:2 705:1 706:20 
0.1599076613015573 186:1 675:1 676:1 677:3 678:3 679:1 680:1 681:2 682:-1 683:1 684:-1 685:30.5 686:2 687:-1 688:-1 689:-1 690:-1 691:-1 692:-1 693:2 694:-1 695:2 696:2 697:-1 698:-1 699:2 700:-1 701:19281 702:19281 704:2 705:1 706:15 
0.1602606509231042 194:1 675:1 676:1 677:3 678:3 679:1 680:1 681:2 682:-1 683:2 684:-1 685:26.6 686:1 687:3 688:3 689:3 690:1 691:3 692:8 693:2 694:-1 695:2 696:1 697:1 698:4 699:2 700:2 701:54893 702:16468 704:2 705:1 706:280 
0.002308404914315887 76:1 79:1 128:1 675:4 676:5 677:1 678:3 679:3 680:4 681:2 682:-1 683:1 684:-1 685:26.6 686:2 687:-1 688:-1 689:-1 690:-1 691:-1 692:-1 693:2 694:-1 695:2 696:1 697:2 698:4 699:2 700:-1 701:40000 702:40000 704:2 
0.06363712623715401 48:1 675:1 676:1 677:3 678:3 679:1 680:2 681:-1 682:-1 683:1 685:-1 686:-1 687:-1 688:-1 689:-1 690:-1 691:-1 692:-1 693:-1 694:-1 695:-1 696:1 697:1 698:4 699:2 700:-1 701:46000 704:2 
0.1602619590026053 82:1 675:1 676:1 677:3 678:3 679:1 680:2 681:2 682:-1 683:1 684:-1 685:37.3 686:2 687:-1 688:-1 689:-1 690:-1 691:-1 692:-1 693:2 694:-1 695:3 696:2 697:-1 698:-1 699:2 700:-1 701:75463 702:27040 704:2 
0.1602651812220093 25:1 88:1 245:1 247:1 675:2 676:2 677:3 678:1 679:3 680:1 681:-1 682:-1 683:1 684:1 685:-1 686:-1 687:-1 688:-1 689:-1 690:-1 691:-1 692:-1 693:-1 694:-1 695:-1 696:1 697:2 698:3 699:2 700:-1 701:8076 704:1 705:1 706:205 
0.16026740908554 243:1 675:1 676:1 677:3 678:3 679:1 680:1 681:-1 682:-1 683:2 685:-1 686:-1 687:-1 688:-1 689:-1 690:-1 691:-1 692:-1 693:-1 694:-1 695:-1 696:1 697:1 698:4 699:2 700:-1 701:31000 704:1 
0.2191072305003747 124:1 675:4 676:5 677:1 678:3 679:3 680:4 681:-1 682:-1 683:2 685:-1 686:-1 687:-1 688:-1 689:-1 690:-1 691:-1 692:-1 693:-1 694:-1 695:-1 696:1 697:1 698:4 699:2 700:-1 
0.1602838236607161 50:1 54:1 88:1 675:1 676:1 677:3 678:3 679:1 680:1 681:2 682:-1 683:2 684:-1 685:23.8 686:1 687:4 688:4 689:4 690:1 691:4 692:10 693:1 694:4 695:1 696:2 697:-1 698:-1 699:2 700:-1 701:63738 702:34000 704:2 705:2 706:280 708:3 
0.1602829173367912 194:1 675:1 676:1 677:3 678:3 679:1 680:1 681:-1 682:-1 683:2 685:-1 686:-1 687:-1 688:-1 689:-1 690:-1 691:-1 692:-1 693:-1 694:-1 695:-1 696:2 697:-1 698:-1 699:2 700:-1 701:63738 704:1 705:1 706:244 
0.1602795290952615 258:1 675:6 676:12 677:3 678:2 679:2 680:5 681:2 682:-1 683:1 684:-1 685:21.5 686:-1 687:-1 688:-1 689:-1 690:-1 691:-1 692:-1 693:-1 694:-1 695:-1 696:2 697:-1 698:-1 699:2 700:-1 701:75000 702:75000 704:2 705:1 706:505 
0.1602834417667153 83:1 88:1 131:1 248:1 675:1 676:1 677:3 678:3 679:1 680:2 681:2 682:-1 683:1 684:-1 685:24.9 686:2 687:-1 688:-1 689:-1 690:-1 691:-1 692:-1 693:2 694:-1 695:1 696:1 697:1 698:4 699:2 700:-1 701:296306 702:198255 704:2 
0.1602886426651294 79:1 116:1 229:1 675:2 676:2 677:3 678:1 679:3 680:3 681:-1 682:-1 683:2 685:-1 686:-1 687:-1 688:-1 689:-1 690:-1 691:-1 692:-1 693:-1 694:-1 695:-1 696:1 697:2 698:-8 699:2 700:-1 701:150000 704:2 
0.1602356400595665 88:1 237:1 675:6 676:12 677:3 678:3 679:2 680:5 681:2 682:-1 683:1 684:-1 685:21 686:1 687:3 688:1 689:2 690:1 691:2 692:3 693:2 694:-1 695:2 696:1 697:1 698:1 699:2 700:-1 701:8500 704:1 708:7 
0.1602860180949633 50:1 76:1 88:1 675:1 676:1 677:3 678:3 679:1 680:2 681:2 682:-1 683:1 684:-1 685:18.5 686:2 687:-1 688:-1 689:-1 690:-1 691:-1 692:-1 693:2 694:-1 695:2 696:1 697:1 698:4 699:2 700:-1 701:48651 702:20000 704:1 
0.08842333002218325 50:1 675:6 676:12 677:3 678:2 679:2 680:1 681:-1 682:-1 683:1 685:-1 686:-1 687:-1 688:-1 689:-1 690:-1 691:-1 692:-1 693:-1 694:-1 695:-1 696:1 697:1 698:1 699:2 700:-1 701:42000 704:1 
0.1602872820971836 249:1 675:1 676:1 677:3 678:3 679:1 680:1 681:-1 682:-1 683:2 684:-1 685:-1 686:-1 687:-1 688:-1 689:-1 690:-1 691:-1 692:-1 693:-1 694:-1 695:-1 696:1 697:1 698:4 699:2 700:-1 701:3000 704:2 705:2 706:420 708:1 
0.160283710087042 8:1 187:1 190:1 675:1 676:1 677:3 678:3 679:1 680:1 681:-1 682:-1 683:2 685:-1 686:-1 687:-1 688:-1 689:-1 690:-1 691:-1 692:-1 693:-1 694:-1 695:-1 696:1 697:1 698:4 699:2 700:-1 701:11565 704:1 705:2 706:2364 708:6 
0.160131841963674 116:1 675:1 676:1 677:3 678:3 679:1 680:2 681:2 682:-1 683:1 684:-1 685:-9 686:-1 687:-1 688:-1 689:-1 690:-1 691:-1 692:-1 693:-1 694:-1 695:-1 696:2 697:-1 698:-1 699:2 700:-1 701:18800 702:18800 704:2 
0.1598263693435753 79:1 190:1 232:1 675:2 676:2 677:3 678:1 679:3 680:1 681:-1 682:-1 683:2 684:1 685:-1 686:-1 687:-1 688:-1 689:-1 690:-1 691:-1 692:-1 693:-1 694:-1 695:-1 696:1 697:1 698:4 699:2 700:-1 701:29000 704:2 705:2 706:220 
0.1602856563580222 253:1 258:1 261:1 675:2 676:2 677:3 678:1 679:3 680:3 681:2 682:-1 683:1 684:-1 685:25.6 686:2 687:-1 688:-1 689:-1 690:-1 691:-1 692:-1 693:2 694:-1 695:3 696:1 697:1 698:4 699:2 700:-1 701:24392 704:1 
0.1602839421764042 193:1 207:1 675:2 676:2 677:3 678:1 679:3 680:3 681:-1 682:-1 683:2 685:-1 686:-1 687:-1 688:-1 689:-1 690:-1 691:-1 692:-1 693:-1 694:-1 695:-1 696:1 697:1 698:4 699:2 700:-1 701:13000 704:1 705:1 706:236 
0.1602839421764042 78:1 96:1 99:1 156:1 187:1 190:1 193:1 675:2 676:2 677:3 678:1 679:3 680:3 681:2 682:-1 683:2 684:-1 685:29.5 686:2 687:-1 688:-1 689:-1 690:-1 691:-1 692:-1 693:2 694:-1 695:1 696:1 697:1 698:4 699:2 700:-1 701:129981 702:61800 704:2 
0.8900399063155153 186:1 675:3 676:3 677:3 678:3 679:3 680:1 681:2 682:-1 683:2 684:-1 685:21.6 686:2 687:4 688:4 689:4 690:2 691:-1 692:7 693:2 694:-1 695:2 696:1 697:1 698:4 699:2 700:-1 701:30000 702:30000 704:2 
0.1602861212551306 79:1 116:1 219:1 675:1 676:1 677:3 678:3 679:1 680:2 681:2 682:-1 683:1 684:-1 685:33.7 686:1 687:-1 688:-1 689:-1 690:-1 691:-1 692:-1 693:2 694:-1 695:2 696:1 697:2 698:4 699:2 700:-1 701:213172 702:24750 704:2 705:1 706:257 
0.1602893372579774 124:1 194:1 215:1 675:2 676:2 677:3 678:1 679:3 680:3 681:2 682:-1 683:1 684:-1 685:27.8 686:2 687:-1 688:-1 689:-1 690:-1 691:-1 692:-1 693:2 694:-1 695:1 696:1 697:2 698:4 699:2 700:2 701:36000 702:25000 704:2 705:1 706:320 708:13 
0.07655818193768128 118:1 675:1 676:1 677:3 678:3 679:1 680:2 681:-1 682:-1 683:2 684:-1 685:-1 686:-1 687:-1 688:-1 689:-1 690:-1 691:-1 692:-1 693:-1 694:-1 695:-1 696:1 697:1 698:3 699:2 700:-1 701:8000 704:1 
0.1458574929178553 164:1 675:2 676:2 677:3 678:1 679:3 680:3 681:-1 682:-1 683:2 685:-1 686:-1 687:-1 688:-1 689:-1 690:-1 691:-1 692:-1 693:-1 694:-1 695:-1 696:1 697:1 698:4 699:2 700:-1 701:5000 704:1 
0.1602893372579774 88:1 128:1 249:1 675:1 676:1 677:3 678:3 679:1 680:2 681:2 682:-1 683:1 684:-1 685:31 686:1 687:4 688:4 689:4 690:1 691:4 692:10 693:2 694:-1 695:1 696:1 697:2 698:4 699:2 700:-1 701:90683 702:50003 704:2 
0.1186860614003616 82:1 243:1 675:1 676:1 677:3 678:3 679:1 680:1 681:-1 682:-1 683:2 685:-1 686:-1 687:-1 688:-1 689:-1 690:-1 691:-1 692:-1 693:-1 694:-1 695:-1 696:-8 697:-1 698:-1 699:2 700:-1 701:41600 704:1 
0.160306087216499 79:1 675:1 676:1 677:3 678:3 679:1 680:1 681:1 682:-8 683:1 684:-1 685:-9 686:2 687:-1 688:-1 689:-1 690:-1 691:-1 692:-1 693:2 694:-1 695:4 696:2 697:-1 698:-1 699:2 700:1 701:51821 704:2 705:1 706:358 708:1 
0.1603061549898058 215:1 675:1 676:1 677:3 678:3 679:1 680:1 681:2 682:-1 683:2 684:-1 685:37.1 686:2 687:-1 688:-1 689:-1 690:-1 691:-1 692:-1 693:1 694:2 695:2 696:1 697:1 698:4 699:2 700:-1 701:55000 702:27500 704:2 708:1 
0.1603074700965703 4:1 675:1 676:1 677:3 678:3 679:1 680:2 681:2 682:-1 683:2 684:-1 685:22.8 686:-1 687:-1 688:-1 689:-1 690:-1 691:-1 692:-1 693:-1 694:-1 695:-1 696:1 697:2 698:3 699:2 700:-1 701:82551 704:1 705:1 706:294 
0.1601423745506924 116:1 117:1 675:2 676:2 677:3 678:1 679:3 680:3 681:-1 682:-1 683:1 685:-1 686:-1 687:-1 688:-1 689:-1 690:-1 691:-1 692:-1 693:-1 694:-1 695:-1 696:1 697:1 698:3 699:2 700:-1 701:51532 704:2 705:1 706:90 
0.1603074706263034 198:1 675:4 676:10 677:1 678:3 679:3 680:4 681:2 682:-1 683:1 684:-1 685:23.4 686:1 687:4 688:4 689:4 690:2 691:-1 692:10 693:2 694:-1 695:1 696:2 697:-1 698:-1 699:2 700:-1 701:120000 702:60000 704:2 705:2 706:727 
0.160303806048993 116:1 675:1 676:1 677:3 678:3 679:1 680:2 681:2 682:-1 683:2 684:-1 685:21.9 686:-9 687:-9 688:-9 689:-9 690:-9 691:-9 692:-9 693:2 694:-1 695:2 696:1 697:2 698:-8 699:2 700:2 701:57194 704:2 705:5 706:1332 708:2 
1 5:1 116:1 124:1 192:1 675:1 676:1 677:3 678:3 679:1 680:1 681:2 682:-1 683:2 684:-1 685:25.8 686:2 687:-1 688:-1 689:-1 690:-1 691:-1 692:-1 693:2 694:-1 695:1 696:1 697:2 698:4 699:2 700:-1 701:20000 702:20000 704:1 708:2 
0.1603157268044415 60:1 675:1 676:1 677:3 678:3 679:1 680:1 681:-1 682:-1 683:2 684:-1 685:-1 686:-1 687:-1 688:-1 689:-1 690:-1 691:-1 692:-1 693:-1 694:-1 695:-1 696:1 697:1 698:3 699:2 700:-1 701:35810 704:1 705:1 706:250 708:2 
0.07808766078457775 114:1 116:1 124:1 675:6 676:12 677:2 678:3 679:2 680:5 681:2 682:-1 683:2 684:-1 685:27.4 686:2 687:-1 688:-1 689:-1 690:-1 691:-1 692:-1 693:2 694:-1 695:1 696:2 697:-1 698:-1 699:2 700:-1 701:35000 702:35000 704:2 
0.1603179990657512 50:1 59:1 82:1 88:1 675:1 676:1 677:3 678:3 679:1 680:2 681:2 682:-1 683:1 684:-1 685:31.2 686:-1 687:-1 688:-1 689:-1 690:-1 691:-1 692:-1 693:-1 694:-1 695:-1 696:1 697:2 698:4 699:2 700:2 701:45000 702:30528 704:2 705:1 706:300 708:6 
0.1603190276022075 149:1 675:6 676:12 677:3 678:3 679:2 680:5 681:2 682:-1 683:1 684:-1 685:-9 686:1 687:4 688:4 689:4 690:2 691:-1 692:10 693:2 694:-1 695:1 696:1 697:2 698:4 699:2 700:-1 701:95160 702:47580 704:2 705:1 706:221 
0.160316790666354 96:1 675:1 676:1 677:3 678:3 679:1 680:1 681:2 682:-1 683:2 684:-1 685:26.6 686:2 687:-1 688:-1 689:-1 690:-1 691:-1 692:-1 693:2 694:-1 695:3 696:1 697:1 698:4 699:2 700:-1 701:38382 702:38382 704:2 
0.160316790666354 88:1 675:1 676:1 677:3 678:3 679:1 680:1 681:-1 682:-1 683:2 684:4 685:-1 686:-1 687:-1 688:-1 689:-1 690:-1 691:-1 692:-1 693:-1 694:-1 695:-1 696:1 697:2 698:4 699:2 700:-1 701:13000 704:1 705:1 706:9370 
0.160316790666354 149:1 157:1 675:4 676:10 677:1 678:3 679:3 680:4 681:2 682:-1 683:1 684:-1 685:25.5 686:1 687:-1 688:-1 689:-1 690:-1 691:-1 692:-1 693:2 694:-1 695:1 696:1 697:1 698:2 699:2 700:-1 701:43250 702:15000 704:2 705:1 706:160 
1 8:1 112:1 116:1 675:2 676:2 677:3 678:1 679:3 680:3 681:-1 682:-1 683:2 684:-1 685:-1 686:-1 687:-1 688:-1 689:-1 690:-1 691:-1 692:-1 693:-1 694:-1 695:-1 696:1 697:2 698:4 699:2 700:-1 704:1 
0.160317880082643 49:1 79:1 162:1 675:1 676:1 677:3 678:3 679:1 680:1 681:2 682:-1 683:2 684:-1 685:23.8 686:-1 687:-1 688:-1 689:-1 690:-1 691:-1 692:-1 693:-1 694:-1 695:-1 696:1 697:1 698:4 699:2 700:-1 701:58000 702:9000 704:2 705:1 706:95 708:1 
0.1603180371043915 59:1 195:1 675:1 676:1 677:3 678:3 679:1 680:1 681:2 682:-1 683:1 684:-1 685:24.4 686:2 687:-1 688:-1 689:-1 690:-1 691:-1 692:-1 693:2 694:-1 695:2 696:1 697:1 698:4 699:2 700:2 701:171000 702:26750 704:2 
0.1603191166188945 91:1 118:1 675:1 676:1 677:3 678:3 679:1 680:1 681:2 682:-1 683:2 684:-1 685:25.1 686:2 687:-1 688:-1 689:-1 690:-1 691:-1 692:-1 693:2 694:-1 695:1 696:1 697:1 698:4 699:2 700:-1 701:171000 702:14000 704:2 
0.1603191166188945 145:1 675:1 676:1 677:3 678:3 679:1 680:1 681:2 682:-1 683:1 684:-1 685:23.7 686:2 687:-1 688:-1 689:-1 690:-1 691:-1 692:-1 693:2 694:-1 695:1 696:1 697:1 698:4 699:2 700:-1 701:171000 704:2 
0.2359981730039635 49:1 675:2 676:2 677:3 678:1 679:3 680:3 681:2 682:-1 683:1 684:-1 685:42.9 686:2 687:-1 688:-1 689:-1 690:-1 691:-1 692:-1 693:2 694:-1 695:3 696:2 697:-1 698:-1 699:2 700:-1 701:27000 702:27000 704:2 
0.1217957401531864 88:1 194:1 195:1 675:2 676:2 677:3 678:1 679:3 680:3 681:2 682:-1 683:1 684:-1 685:23.8 686:2 687:3 688:3 689:3 690:1 691:4 692:5 693:2 694:-1 695:3 696:1 697:1 698:4 699:2 700:1 701:8000 704:2 708:6 
0.09524348334117583 54:1 85:1 194:1 195:1 258:1 675:4 676:4 677:1 678:3 679:3 680:4 681:2 682:-1 683:1 684:-1 685:23.5 686:2 687:-1 688:-1 689:-1 690:-1 691:-1 692:-1 693:2 694:-1 695:2 696:1 697:1 698:4 699:2 700:-1 701:218077 702:218077 704:2 
0.03867310109795906 253:1 329:1 519:1 523:1 675:4 676:4 677:1 678:3 679:3 680:4 681:-1 682:-1 683:2 684:-1 685:-1 686:-1 687:-1 688:-1 689:-1 690:-1 691:-1 692:-1 693:-1 694:-1 695:-1 696:1 697:1 698:4 699:2 700:-1 701:218077 704:2 
0.1603191673855235 150:1 152:1 252:1 262:1 675:1 676:1 677:3 678:3 679:1 680:2 681:2 682:-1 683:1 684:-1 685:22.2 686:1 687:2 688:2 689:2 690:2 691:-1 692:8 693:2 694:-1 695:1 696:1 697:-8 698:-8 699:2 700:-1 701:58000 702:58000 704:2 705:1 706:79 
0.1603191673855235 8:1 55:1 107:1 108:1 249:1 675:1 676:1 677:3 678:3 679:1 680:1 681:2 682:-1 683:2 684:-1 685:30 686:1 687:3 688:4 689:3 690:2 691:-1 692:10 693:2 694:-1 695:3 696:1 697:1 698:4 699:2 700:-1 701:63000 702:26000 704:2 705:2 706:322 
0.06276426836848259 245:1 675:1 676:1 677:3 678:3 679:1 680:2 681:-1 682:-1 683:2 685:-1 686:-1 687:-1 688:-1 689:-1 690:-1 691:-1 692:-1 693:-1 694:-1 695:-1 696:1 697:1 698:4 699:2 700:-1 701:197439 704:2 705:1 706:125 
0.09790852433188474 101:1 675:1 676:1 677:3 678:3 679:1 680:2 681:-1 682:-1 683:2 684:-1 685:-1 686:-1 687:-1 688:-1 689:-1 690:-1 691:-1 692:-1 693:-1 694:-1 695:-1 696:1 697:1 698:4 699:2 700:-1 701:197439 704:2 705:1 706:125 
0.1603191673855235 141:1 675:1 676:1 677:3 678:3 679:1 680:2 681:2 682:-1 683:1 684:-1 685:20.9 686:2 687:-1 688:-1 689:-1 690:-1 691:-1 692:-1 693:2 694:-1 695:1 696:2 697:-1 698:-1 699:2 700:-1 701:1500 702:1500 704:2 705:1 706:115 
0.1603191673855235 4:1 675:1 676:1 677:3 678:3 679:1 680:2 681:-1 682:-1 683:1 685:-1 686:-1 687:-1 688:-1 689:-1 690:-1 691:-1 692:-1 693:-1 694:-1 695:-1 696:1 697:1 698:3 699:2 700:-1 701:44062 704:2 705:1 706:239 
0.1597750221395206 69:1 88:1 130:1 249:1 675:1 676:1 677:3 678:3 679:1 680:1 681:-1 682:-1 683:2 685:-1 686:-1 687:-1 688:-1 689:-1 690:-1 691:-1 692:-1 693:-1 694:-1 695:-1 696:1 697:2 698:-8 699:2 700:-1 701:50000 704:2 705:1 706:224 
0.1601522721055751 116:1 219:1 675:1 676:1 677:3 678:3 679:1 680:2 681:-1 682:-1 683:2 684:-1 685:-1 686:-1 687:-1 688:-1 689:-1 690:-1 691:-1 692:-1 693:-1 694:-1 695:-1 696:1 697:1 698:2 699:1 700:-1 701:36089 704:2 
0.08385490587139462 125:1 187:1 675:1 676:1 677:3 678:3 679:1 680:2 681:-1 682:-1 683:1 685:-1 686:-1 687:-1 688:-1 689:-1 690:-1 691:-1 692:-1 693:-1 694:-1 695:-1 696:1 697:2 698:2 699:2 700:-1 701:58000 704:2 705:4 706:342 708:2 
0.08243663619741319 80:1 118:1 125:1 208:1 675:1 676:1 677:3 678:3 679:1 680:2 681:-1 682:-1 683:1 684:1 685:-1 686:-1 687:-1 688:-1 689:-1 690:-1 691:-1 692:-1 693:-1 694:-1 695:-1 696:1 697:2 698:2 699:2 700:-1 701:58000 704:2 705:1 706:348 
0.1603191673855235 252:1 675:1 676:1 677:3 678:3 679:1 680:2 681:2 682:-1 683:2 684:-1 685:20.6 686:2 687:-1 688:-1 689:-1 690:-1 691:-1 692:-1 693:2 694:-1 695:2 696:1 697:1 698:4 699:2 700:-1 701:39800 702:4480 704:2 705:6 706:1734 708:2 
0.7585094815939262 194:1 677:3 678:3 679:1 681:2 682:-1 683:1 684:-1 685:27.8 686:-9 687:4 688:4 689:4 690:-9 691:4 692:7 693:-9 695:4 696:1 697:1 698:4 699:2 700:-1 
0.08086866900134218 88:1 194:1 677:1 678:3 679:3 681:2 682:-1 683:2 684:-1 685:-9 686:-9 687:-9 688:-9 689:-9 690:-9 691:-9 692:-9 693:-9 695:-9 696:-8 697:-1 698:-1 699:2 700:-1 
0.6895919437412096 5:1 677:3 678:1 679:3 681:2 682:-1 683:1 684:-1 685:-9 686:-1 687:-1 688:-1 689:-1 690:-1 691:-1 692:-1 693:-1 695:-1 696:1 697:1 698:4 699:2 700:-1 
0.3247347724134766 50:1 54:1 248:1 677:1 678:3 679:3 681:1 682:-8 683:1 684:-1 685:-1 686:-1 687:-1 688:-1 689:-1 692:-1 693:-1 695:-1 696:1 697:1 698:3 699:2 700:-1 
0.02537828234456548 190:1 677:1 678:3 679:3 681:-1 682:-1 683:1 685:-1 686:-1 687:-1 688:-1 689:-1 690:-1 691:-1 692:-1 693:-1 695:-1 696:1 697:-7 698:-7 699:-7 700:-1 
0.5285160889260101 30:1 201:1 677:3 678:3 679:1 681:2 682:-1 683:2 684:-1 685:28.2 686:1 687:3 688:3 689:2 690:1 691:3 692:8 693:1 695:5 696:1 697:2 698:3 699:2 700:-9 
0.01412936513148031 196:1 677:3 678:3 679:1 681:2 682:-1 683:1 684:-1 685:21.6 686:1 687:3 688:3 689:3 690:-9 691:-9 692:7 693:2 695:2 696:1 697:1 698:4 699:2 700:2 
0.07345572077737636 190:1 677:3 678:1 679:3 681:2 682:-1 683:2 684:-1 685:-9 686:2 687:-1 688:-1 689:-1 690:-1 691:-1 692:-1 693:2 695:1 696:2 697:-1 698:-1 699:-8 700:-1 
0.1799152142838105 91:1 98:1 677:3 678:3 679:2 681:1 682:56 683:2 684:-1 685:-1 686:1 687:3 688:3 689:3 690:1 691:-9 692:5 693:2 695:5 696:1 697:2 698:4 699:2 700:2 
0.2632919375823674 82:1 116:1 677:1 678:3 679:3 681:2 682:-1 683:2 684:-1 685:20.2 686:1 687:4 688:4 689:3 690:2 691:-1 692:-9 693:1 695:4 696:1 697:1 698:3 699:2 700:-1 
0.5120318982665224 50:1 677:3 678:3 679:1 681:1 682:40 683:2 684:-1 685:28.3 686:-9 687:-1 688:-1 689:-1 690:-1 691:-1 692:-1 693:2 695:4 696:1 697:1 698:4 699:2 700:-1 
0.0376539064431748 55:1 677:3 678:1 679:3 681:2 682:-1 683:2 684:-1 685:-1 686:1 687:-9 688:-9 689:-9 692:-9 693:2 695:2 696:1 697:1 698:4 699:2 700:2 
0.1768734948775548 124:1 677:1 678:3 679:3 681:2 682:-1 683:1 684:-1 685:17.6 686:-1 687:-1 688:-1 689:-1 690:-1 691:-1 692:-1 693:-1 695:-1 696:1 697:-8 698:-8 699:2 700:-1 
0.009690676958689597 195:1 677:3 678:3 679:1 681:2 682:-1 683:2 684:-1 685:22.3 686:2 687:-9 688:-9 689:-9 690:-9 691:-9 692:-9 693:2 695:1 696:1 697:1 698:4 699:2 700:-1 
0.1922246282475684 222:1 677:3 678:3 679:1 681:2 682:-1 683:1 684:-1 685:-9 686:2 687:-1 688:-1 689:-1 690:-1 691:-1 692:-1 693:2 695:1 696:1 697:1 698:4 699:2 700:-1 
1 186:1 252:1 258:1 677:1 678:3 679:3 681:2 682:-1 683:2 684:-1 685:25.7 686:2 687:-1 688:-1 689:-1 690:-1 691:-1 692:-1 693:2 695:3 696:2 697:-1 698:-1 699:2 700:-1 
1 50:1 88:1 91:1 677:3 678:3 679:1 681:1 682:45 683:1 684:-1 685:37.6 686:1 687:3 688:3 689:3 692:8 693:1 695:4 696:1 697:1 698:4 699:2 700:1 
0.4153621824129184 229:1 677:3 678:3 679:1 681:2 682:-1 683:2 684:4 685:23 686:-1 687:-1 688:-1 689:-1 690:-1 691:-1 692:-1 693:-1 695:-1 696:2 697:-1 698:-1 699:2 700:-1 
0.6764692627382742 50:1 76:1 677:3 678:1 679:3 681:1 682:-8 683:1 684:-1 685:24.2 686:1 687:4 688:4 689:4 690:2 691:-1 692:8 693:2 695:3 696:1 697:2 698:-8 699:2 700:-1 
0.07356454660926377 91:1 94:1 677:3 678:3 679:1 681:1 682:75 683:1 684:-1 685:41.8 686:-9 687:3 688:3 689:3 690:1 691:3 692:6 693:2 695:4 696:1 697:1 698:1 699:2 700:-1 
0.1523918900792859 256:1 258:1 677:3 678:3 679:1 681:-1 682:-1 683:2 685:-1 686:-1 687:-1 688:-1 689:-1 690:-1 691:-1 692:-1 693:-1 695:-1 696:1 697:1 698:4 699:2 700:-1 
0.05605466089981273 74:1 126:1 188:1 194:1 677:3 678:3 679:1 681:2 682:-1 683:2 684:-1 685:37.1 686:2 687:-1 688:-1 689:-1 690:-1 691:-1 692:-1 693:2 695:4 696:1 697:1 698:3 699:2 700:-1 
0.1727150962013462 116:1 677:3 678:3 679:1 681:2 682:-1 683:2 684:-1 685:30.2 686:1 687:4 688:4 689:4 690:2 691:-1 692:10 693:2 695:1 696:2 697:-1 698:-1 699:-8 700:-1 
1 88:1 194:1 195:1 252:1 677:3 678:3 679:1 681:1 682:42 683:1 684:-1 685:33 686:1 687:4 688:4 689:4 692:10 693:1 695:3 696:1 697:1 698:4 699:2 700:1 
0.126748871893093 116:1 677:1 678:3 679:3 681:2 682:-1 683:1 684:-1 685:24.2 686:-1 687:-1 688:-1 689:-1 692:-1 693:-1 695:-1 696:1 697:-8 698:-8 699:-8 700:-1 
0.06960534196395343 116:1 201:1 677:3 678:3 679:1 681:2 682:-1 683:-7 684:-1 685:-9 686:-1 687:-1 688:-1 689:-1 692:-1 693:-1 695:-1 696:2 697:-1 698:-1 699:2 700:-1 
0.2392704420032426 192:1 195:1 677:3 678:3 679:1 681:1 682:56 683:1 684:-1 685:31.7 686:1 687:3 688:3 689:2 692:8 693:1 695:5 696:1 697:1 698:4 699:2 700:1 
1 85:1 124:1 677:3 678:3 679:1 681:2 682:-1 683:1 684:-1 685:21.1 686:1 687:4 688:4 689:4 692:10 693:1 695:2 696:1 697:1 698:4 699:2 700:2 
0.1602440487615165 54:1 150:1 675:1 676:1 677:3 678:3 679:1 680:2 681:-1 682:-1 683:2 685:-1 686:-1 687:-1 688:-1 689:-1 690:-1 691:-1 692:-1 693:-1 694:-1 695:-1 696:1 697:1 698:4 699:2 700:-1 701:140000 704:2 705:1 706:145 
0.2444168988163471 8:1 116:1 215:1 677:3 678:3 679:1 681:2 682:-1 683:1 684:-1 685:35 686:1 687:4 688:4 689:4 692:9 693:2 695:4 696:1 697:1 698:3 699:2 700:2 
0.540145682616439 50:1 54:1 88:1 94:1 96:1 130:1 254:1 677:3 678:3 679:1 681:1 682:67 683:1 684:-1 685:29.3 686:2 687:4 688:4 689:-9 692:8 693:1 695:4 696:1 697:2 698:2 699:2 700:1 
1 193:1 194:1 677:3 678:3 679:1 681:2 682:-1 683:1 684:-1 685:21.3 686:1 687:4 688:4 689:3 692:10 693:1 695:2 696:1 697:1 698:3 699:2 700:2 
0.9897440403420305 54:1 76:1 154:1 252:1 677:3 678:3 679:1 681:2 682:-1 683:1 684:-1 685:28.8 686:1 687:3 688:4 689:3 692:9 693:1 695:2 696:1 697:1 698:3 699:2 700:1 
0.8663225897161047 91:1 96:1 221:1 677:3 678:3 679:1 681:2 682:-1 683:1 684:-1 685:24.4 686:1 687:4 688:4 689:4 692:10 693:1 695:4 696:1 697:1 698:4 699:2 700:1 
1 50:1 88:1 677:3 678:3 679:1 681:1 682:53 683:2 684:-1 685:37.1 686:2 687:2 688:4 689:1 692:5 693:1 695:5 696:2 697:-1 698:-1 699:2 700:2 
0.1602348221916549 201:1 675:1 676:1 677:3 678:3 679:1 680:2 681:2 682:-1 683:2 684:-1 685:23.3 686:2 687:-1 688:-1 689:-1 690:-1 691:-1 692:-1 693:2 694:-1 695:1 696:1 697:1 698:4 699:2 700:-1 701:141333 702:40004 704:2 
0.1602330971737591 5:1 194:1 675:4 676:6 677:1 678:3 679:3 680:4 681:2 682:-1 683:1 684:-1 685:20.8 686:-1 687:-1 688:-1 689:-1 690:-1 691:-1 692:-1 693:-1 694:-1 695:-1 696:2 697:-1 698:-1 699:2 700:-1 701:75067 702:55000 704:2 705:1 706:400 708:7 
0.1602226379994861 20:1 50:1 88:1 91:1 190:1 675:1 676:1 677:3 678:3 679:1 680:1 681:2 682:-1 683:1 684:-1 685:34.4 686:2 687:-1 688:-1 689:-1 690:-1 691:-1 692:-1 693:2 694:-1 695:2 696:1 697:1 698:4 699:2 700:-1 701:60000 702:10000 704:2 
0.1597303847990854 4:1 675:1 676:1 677:3 678:3 679:1 680:1 681:2 682:-1 683:2 684:-1 685:49.8 686:2 687:-1 688:-1 689:-1 690:-1 691:-1 692:-1 693:2 694:-1 695:3 696:2 697:-1 698:-1 699:2 700:-1 701:65000 702:35000 704:2 
0.1598376563230499 194:1 201:1 222:1 229:1 675:1 676:1 677:3 678:3 679:1 680:1 681:2 682:-1 683:1 684:-1 685:28.3 686:2 687:-1 688:-1 689:-1 690:-1 691:-1 692:-1 693:2 694:-1 695:2 696:2 697:-1 698:-1 699:2 700:2 701:65000 702:48750 704:2 
0.06927710658562572 82:1 123:1 675:4 676:6 677:1 678:3 679:3 680:4 681:2 682:-1 683:1 684:-1 685:-9 686:2 687:-1 688:-1 689:-1 690:-1 691:-1 692:-1 693:2 694:-1 695:1 696:-8 697:-1 698:-1 699:2 700:-1 
0.1731886215463649 82:1 116:1 123:1 149:1 236:1 675:4 676:6 677:1 678:3 679:3 680:4 681:2 682:-1 683:2 684:-1 685:-9 686:2 687:-1 688:-1 689:-1 690:-1 691:-1 692:-1 693:2 694:-1 695:1 696:-8 697:-1 698:-1 699:2 700:-1 
0.9080466977411643 92:1 194:1 677:3 678:3 679:1 681:2 682:-1 683:1 684:-1 685:25.2 686:1 687:3 688:4 689:3 692:8 693:1 695:3 696:1 697:1 698:4 699:2 700:-9 
0.08428114712026846 50:1 193:1 675:2 676:2 677:3 678:1 679:3 680:3 681:2 682:-1 683:2 684:-1 685:19.5 686:2 687:-1 688:-1 689:-1 690:-1 691:-1 692:-1 693:2 694:-1 695:2 696:2 697:-1 698:-1 699:2 700:-1 701:29000 702:9000 704:2 
0.2328968565717286 118:1 248:1 249:1 258:1 260:1 677:3 678:3 679:1 681:1 682:37 683:1 684:-1 685:35 686:1 687:4 688:4 689:4 692:10 693:1 695:3 696:1 697:2 698:-8 699:2 700:-1 
0.08386754777427166 78:1 675:1 676:1 677:3 678:3 679:1 680:1 681:2 682:-1 683:1 684:-1 685:24.7 686:2 687:-1 688:-1 689:-1 690:-1 691:-1 692:-1 693:2 694:-1 695:2 696:2 697:-1 698:-1 699:2 700:-1 701:35000 702:35000 704:2 705:1 706:15 
0.5272106881331864 48:1 117:1 677:1 678:3 679:3 681:-1 682:-1 683:2 685:-1 686:-1 687:-1 688:-1 689:-1 692:-1 693:-1 695:-1 696:1 697:1 698:3 699:2 700:-1 
0.1599274430399266 86:1 88:1 193:1 194:1 675:1 676:1 677:3 678:3 679:1 680:1 681:2 682:-1 683:2 684:-1 685:26.5 686:1 687:4 688:4 689:4 690:2 691:-1 692:9 693:2 694:-1 695:3 696:1 697:1 698:3 699:2 700:-1 701:27736 704:1 705:3 706:5730 708:6 
0.8446008425492365 165:1 246:1 677:3 678:3 679:1 681:2 682:-1 683:1 684:-1 685:21.6 686:1 687:4 688:4 689:3 692:9 693:1 695:3 696:1 697:1 698:4 699:2 700:2 
0.1253000212397879 49:1 50:1 88:1 94:1 151:1 193:1 194:1 200:1 201:1 677:3 678:1 679:3 681:1 682:37 683:1 684:-1 685:29.8 686:1 687:4 688:4 689:4 693:1 695:4 696:1 697:1 698:-8 699:2 700:2 
1 24:1 84:1 85:1 88:1 96:1 112:1 195:1 677:3 678:3 679:1 681:2 682:-1 683:1 684:-1 685:25.1 686:-9 687:4 688:3 689:3 692:10 693:1 695:3 696:1 697:2 698:4 699:2 700:1 
0.8654884886829119 24:1 48:1 50:1 194:1 677:3 678:3 679:1 681:1 682:58 683:1 684:-1 685:34.2 686:1 687:4 688:4 689:4 692:9 693:1 695:3 696:1 697:2 698:4 699:2 700:1 
0.1014627390260706 8:1 50:1 88:1 675:1 676:1 677:3 678:3 679:1 680:2 681:2 682:-1 683:2 684:-1 685:17.8 686:2 687:-1 688:-1 689:-1 690:-1 691:-1 692:-1 693:2 694:-1 695:3 696:1 697:2 698:2 699:2 700:-1 701:24644 704:1 
0.102787242952027 162:1 675:1 676:1 677:3 678:3 679:1 680:2 681:-1 682:-1 683:2 685:-1 686:-1 687:-1 688:-1 689:-1 690:-1 691:-1 692:-1 693:-1 694:-1 695:-1 696:1 697:2 698:2 699:2 700:-1 701:24644 704:1 
0.160074684638842 118:1 675:1 676:1 677:3 678:3 679:1 680:2 681:2 682:-1 683:2 684:-1 685:21.3 686:2 687:-1 688:-1 689:-1 690:-1 691:-1 692:-1 693:2 694:-1 695:2 696:1 697:2 698:3 699:2 700:-1 701:436153 702:218077 704:2 705:1 706:110 
0.1599880340752882 49:1 675:1 676:1 677:3 678:3 679:1 680:1 681:2 682:-1 683:1 684:-1 685:28.3 686:2 687:-1 688:-1 689:-1 690:-1 691:-1 692:-1 693:2 694:-1 695:3 696:1 697:2 698:4 699:2 700:2 701:135762 702:73882 704:2 
0.1600140111843165 139:1 675:4 676:6 677:1 678:3 679:3 680:4 681:2 682:-1 683:1 684:-1 685:20.8 686:2 687:-1 688:-1 689:-1 690:-1 691:-1 692:-1 693:2 694:-1 695:2 696:1 697:1 698:3 699:2 700:-1 701:51000 702:51000 704:2 705:1 706:35 708:1 
0.159953215249978 248:1 675:2 676:2 677:3 678:1 679:3 680:3 681:2 682:-1 683:1 684:-1 685:23.4 686:2 687:-1 688:-1 689:-1 690:-1 691:-1 692:-1 693:2 694:-1 695:4 696:2 697:-1 698:-1 699:2 700:-1 701:74000 702:14000 704:2 
0.4440953910133217 54:1 113:1 222:1 677:3 678:3 679:1 681:2 682:-1 683:1 684:-1 685:-9 686:1 687:3 688:2 689:3 692:8 693:2 695:3 696:1 697:1 698:4 699:2 700:-1 
0.8358619336245536 50:1 88:1 677:3 678:3 679:1 681:1 682:42 683:2 684:-1 685:37.8 686:1 687:4 688:4 689:4 692:10 693:1 695:3 696:1 697:1 698:2 699:2 700:2 
0.06152392775728914 98:1 123:1 675:2 676:2 677:3 678:1 679:3 680:3 681:2 682:-1 683:2 684:-1 685:23.7 686:-9 687:-1 688:-1 689:-1 690:-1 691:-1 692:-1 693:2 694:-1 695:1 696:2 697:-1 698:-1 699:2 700:-1 701:25000 702:25000 704:2 708:2 
0.1599657033454601 117:1 675:2 676:2 677:3 678:1 679:3 680:3 681:2 682:-1 683:2 684:-1 685:34.9 686:-1 687:-1 688:-1 689:-1 690:-1 691:-1 692:-1 693:-1 694:-1 695:-1 696:2 697:-1 698:-1 699:2 700:-1 701:21000 702:21000 704:2 
0.07951250117047098 116:1 675:2 676:2 677:3 678:1 679:3 680:3 681:2 682:-1 683:2 684:-1 685:23.5 686:-1 687:-1 688:-1 689:-1 690:-1 691:-1 692:-1 693:-1 694:-1 695:-1 696:2 697:-1 698:-1 699:2 700:-1 701:21000 704:2 
0.08126351348406124 5:1 11:1 80:1 675:2 676:2 677:3 678:1 679:3 680:3 681:2 682:-1 683:2 684:-1 685:22.6 686:-1 687:-1 688:-1 689:-1 690:-1 691:-1 692:-1 693:-1 694:-1 695:-1 696:2 697:-1 698:-1 699:2 700:-1 701:21000 704:2 
0.07126642766316993 125:1 149:1 677:3 678:3 679:1 681:-1 682:-1 683:2 685:-1 686:-1 687:-1 688:-1 689:-1 692:-1 693:-1 695:-1 696:1 697:-7 698:-7 699:-7 700:-1 
1 45:1 84:1 88:1 196:1 234:1 677:3 678:3 679:1 681:2 682:-1 683:1 684:-1 685:23.4 686:1 687:3 688:4 689:3 692:7 693:1 695:2 696:1 697:2 698:4 699:2 700:2 
1 80:1 116:1 234:1 243:1 677:1 678:3 679:3 681:2 682:-1 683:1 684:-1 685:32.7 686:2 687:4 688:4 689:4 692:10 693:1 695:1 696:1 697:1 698:4 699:2 700:-1 
1 258:1 675:1 676:1 677:3 678:3 679:1 680:2 681:2 682:-1 683:2 684:-1 685:20 686:2 687:-1 688:-1 689:-1 690:-1 691:-1 692:-1 693:2 694:-1 695:2 696:1 697:1 698:4 699:2 700:-1 701:20000 702:20000 704:1 
1 24:1 91:1 226:1 245:1 677:3 678:3 679:1 681:2 682:-1 683:2 684:-1 685:21.3 686:1 687:4 688:4 689:4 692:9 693:1 695:3 696:1 697:1 698:4 699:2 700:1 
1 44:1 55:1 194:1 245:1 677:3 678:3 679:1 681:2 682:-1 683:2 684:-1 685:24.8 686:1 687:4 688:4 689:4 692:10 693:1 695:4 696:1 697:1 698:4 699:2 700:1 
0.2325211099335731 50:1 677:3 678:3 679:1 681:1 682:55 683:2 684:-1 685:22.8 686:-9 687:-9 688:-9 689:-9 692:-9 693:-9 695:2 696:1 697:1 698:3 699:2 700:2 
0.08621176946200365 195:1 677:3 678:3 679:1 681:2 682:-1 683:2 684:-1 685:21.5 686:2 687:4 688:4 689:4 692:10 693:2 695:1 696:1 697:-8 698:-8 699:2 700:-1 
1 131:1 186:1 258:1 677:3 678:1 679:3 681:2 682:-1 683:2 684:-1 685:24 686:1 687:4 688:4 689:4 692:8 693:1 695:4 696:1 697:1 698:4 699:2 700:-1 
0.160085959919579 49:1 124:1 675:4 676:10 677:1 678:3 679:3 680:4 681:2 682:-1 683:2 684:-1 685:22.6 686:-1 687:-1 688:-1 689:-1 690:-1 691:-1 692:-1 693:-1 694:-1 695:-1 696:1 697:-8 698:-8 699:2 700:-1 701:85000 702:36000 704:2 
0.1598944172489843 95:1 675:4 676:10 677:1 678:3 679:3 680:4 681:2 682:-1 683:2 684:-1 685:21.8 686:-1 687:-1 688:-1 689:-1 690:-1 691:-1 692:-1 693:-1 694:-1 695:-1 696:1 697:-8 698:-8 699:2 700:-1 701:85000 702:49000 704:2 
0.1597143383585438 49:1 54:1 124:1 675:1 676:1 677:3 678:3 679:1 680:2 681:2 682:-1 683:1 684:-1 685:25.1 686:2 687:-1 688:-1 689:-1 690:-1 691:-1 692:-1 693:2 694:-1 695:3 696:1 697:1 698:-8 699:2 700:2 701:40988 702:10400 704:2 
0.125 125:1 675:1 676:1 677:3 678:3 679:1 680:1 681:2 682:-1 683:2 684:-1 685:28.3 686:2 687:-1 688:-1 689:-1 690:-1 691:-1 692:-1 693:2 694:-1 695:1 696:1 697:1 698:1 699:2 700:-1 701:53000 704:2 
0.1243091204822261 116:1 675:1 676:1 677:3 678:3 679:1 680:1 681:-1 682:-1 683:2 685:-1 686:-1 687:-1 688:-1 689:-1 690:-1 691:-1 692:-1 693:-1 694:-1 695:-1 696:1 697:1 698:1 699:2 700:-1 701:53000 704:1 
0.160283710087042 8:1 125:1 186:1 675:1 676:1 677:3 678:3 679:1 680:2 681:-1 682:-1 683:2 684:-1 685:-1 686:-1 687:-1 688:-1 689:-1 690:-1 691:-1 692:-1 693:-1 694:-1 695:-1 696:1 697:1 698:1 699:2 700:-1 701:53000 704:1 705:1 706:173 
1 88:1 91:1 124:1 128:1 133:1 193:1 245:1 677:3 678:3 679:1 681:2 682:-1 683:1 684:-1 685:32.9 686:1 687:3 688:3 689:3 692:8 693:2 695:3 696:1 697:1 698:4 699:2 700:2 
0.1600986764081884 25:1 86:1 88:1 94:1 675:1 676:1 677:3 678:3 679:1 680:2 681:2 682:-1 683:-1 684:-1 685:23.8 686:-1 687:-1 688:-1 689:-1 690:-1 691:-1 692:-1 693:-1 694:-1 695:-1 696:-1 697:-1 698:-1 699:-1 700:-1 701:34809 702:13809 704:2 
0.1599766670022501 8:1 79:1 84:1 124:1 252:1 258:1 675:1 676:1 677:3 678:3 679:1 680:1 681:2 682:-1 683:2 684:-1 685:29.8 686:2 687:-1 688:-1 689:-1 690:-1 691:-1 692:-1 693:2 694:-1 695:2 696:2 697:-1 698:-1 699:2 700:-1 701:2500 704:2 
0.083021955020397 79:1 150:1 203:1 675:1 676:1 677:3 678:3 679:1 680:1 681:2 682:-1 683:2 684:-1 685:30.9 686:2 687:-1 688:-1 689:-1 690:-1 691:-1 692:-1 693:2 694:-1 695:2 696:2 697:-1 698:-1 699:2 700:-1 701:2500 702:2500 704:2 
0.160204613858395 124:1 222:1 675:1 676:1 677:3 678:3 679:1 680:2 681:2 682:-1 683:2 684:-1 685:27.8 686:2 687:-1 688:-1 689:-1 690:-1 691:-1 692:-1 693:2 694:-1 695:2 696:2 697:-1 698:-1 699:2 700:2 701:67000 702:67000 704:2 
1 50:1 54:1 88:1 117:1 193:1 249:1 252:1 258:1 677:3 678:3 679:1 681:1 682:-8 683:1 684:-1 685:31.3 686:1 687:2 688:3 689:4 692:5 693:1 695:4 696:1 697:1 698:3 699:2 700:-1 
0.1600843941703747 195:1 675:2 676:2 677:3 678:1 679:3 680:3 681:2 682:-1 683:2 684:-1 685:25.8 686:2 687:-1 688:-1 689:-1 690:-1 691:-1 692:-1 693:2 694:-1 695:3 696:2 697:-1 698:-1 699:2 700:2 701:71539 702:27600 704:1 
0.1600951497116029 88:1 156:1 675:1 676:1 677:3 678:3 679:1 680:1 681:2 682:-1 683:1 684:-1 685:21.6 686:2 687:-1 688:-1 689:-1 690:-1 691:-1 692:-1 693:2 694:-1 695:5 696:2 697:-1 698:-1 699:2 700:-1 701:17500 704:2 705:1 706:120 708:3 
0.1601459174562351 88:1 192:1 200:1 675:2 676:2 677:3 678:1 679:3 680:3 681:2 682:-1 683:1 684:-1 685:38.4 686:-1 687:-1 688:-1 689:-1 690:-1 691:-1 692:-1 693:-1 694:-1 695:-1 696:1 697:1 698:4 699:2 700:-1 701:12243 702:6413 704:2 
0.5455528624179121 80:1 124:1 190:1 234:1 249:1 677:3 678:3 679:1 681:-1 682:-1 683:2 684:1 685:-1 686:-1 687:-1 688:-1 689:-1 692:-1 693:-1 695:-1 696:1 697:1 698:3 699:2 700:-1 
0.1602348221916549 220:1 675:1 676:1 677:3 678:3 679:1 680:2 681:-1 682:-1 683:2 685:-1 686:-1 687:-1 688:-1 689:-1 690:-1 691:-1 692:-1 693:-1 694:-1 695:-1 696:1 697:1 698:3 699:2 700:-1 701:20500 704:1 705:1 706:257 708:2 
1 54:1 88:1 95:1 96:1 123:1 677:3 678:3 679:1 681:2 682:-1 683:1 684:-1 685:22 686:1 687:3 688:4 689:3 692:9 693:1 695:2 696:1 697:1 698:3 699:2 700:2 
0.1600926407091311 187:1 675:4 676:10 677:1 678:3 679:3 680:4 681:2 682:-1 683:1 684:-1 685:19.7 686:2 687:-1 688:-1 689:-1 690:-1 691:-1 692:-1 693:2 694:-1 695:2 696:1 697:1 698:3 699:2 700:-1 701:24519 702:18720 704:2 705:1 706:130 708:6 
1 117:1 123:1 124:1 677:3 678:3 679:1 681:-1 682:-1 683:2 684:-1 685:-1 686:-1 687:-1 688:-1 689:-1 692:-1 693:-1 695:-1 696:1 697:1 698:4 699:2 700:-1 
0.08375682877557736 195:1 252:1 675:1 676:1 677:3 678:3 679:1 680:2 681:2 682:-1 683:2 684:-1 685:31.3 686:2 687:-1 688:-1 689:-1 690:-1 691:-1 692:-1 693:2 694:-1 695:1 696:2 697:-1 698:-1 699:2 700:-1 701:6000 702:6000 704:2 
1 24:1 117:1 195:1 226:1 677:3 678:3 679:1 681:2 682:-1 683:1 684:-1 685:28.5 686:1 687:3 688:3 689:4 692:8 693:1 695:3 696:1 697:-8 698:4 699:2 700:2 
1 193:1 222:1 249:1 677:3 678:3 679:1 681:2 682:-1 683:1 684:-1 685:28.3 686:1 687:4 688:4 689:4 692:9 693:2 695:1 696:2 697:-1 698:-1 699:2 700:2 
0.9490860317427168 54:1 107:1 675:2 676:2 677:3 678:1 679:3 680:3 681:2 682:-1 683:2 684:-1 685:35.3 686:2 687:-1 688:-1 689:-1 690:-1 691:-1 692:-1 693:2 694:-1 695:1 696:1 697:1 698:1 699:2 700:-1 701:12000 702:12000 704:1 
0.1073342471300363 30:1 50:1 81:1 88:1 149:1 677:3 678:3 679:1 681:1 682:52 683:1 684:-1 685:29.5 686:1 687:4 688:4 689:4 692:10 693:1 695:2 696:1 697:1 698:4 699:2 700:1 
0.7034405785964797 215:1 229:1 677:3 678:3 679:1 681:2 682:-1 683:1 684:-1 685:25.8 686:1 687:4 688:4 689:4 692:10 693:1 695:2 696:1 697:1 698:-8 699:2 700:-1 
0.06368764941442001 48:1 49:1 88:1 677:3 678:3 679:1 681:2 682:-1 683:1 684:-1 685:26.3 686:1 687:4 688:4 689:3 692:9 693:2 695:1 696:1 697:-8 698:-8 699:2 700:2 
1 24:1 88:1 677:3 678:3 679:1 681:2 682:-1 683:1 684:-1 685:22.3 686:1 687:4 688:4 689:3 692:10 693:1 695:2 696:1 697:1 698:4 699:2 700:1 
1 74:1 195:1 222:1 677:3 678:3 679:1 681:2 682:-1 683:1 684:-1 685:24.7 686:1 687:3 688:4 689:4 692:8 693:1 695:2 696:1 697:1 698:4 699:2 700:-1 
0.00373730403740701 187:1 195:1 675:2 676:2 677:3 678:1 679:3 680:3 681:2 682:-1 683:2 684:-1 685:36.9 686:2 687:3 688:2 689:3 690:1 691:4 692:-9 693:1 694:3 695:4 696:2 697:-1 698:-1 699:2 700:1 
0.9176658114999325 222:1 234:1 243:1 677:2 678:3 679:2 681:-1 682:-1 683:2 685:-1 686:-1 687:-1 688:-1 689:-1 692:-1 693:-1 695:-1 696:1 697:1 698:4 699:2 700:-1 
1 81:1 88:1 91:1 117:1 118:1 123:1 124:1 145:1 677:3 678:3 679:1 681:2 682:-1 683:1 684:-1 685:24.4 686:1 687:-1 688:-1 689:-1 692:-1 693:1 695:4 696:1 697:1 698:3 699:2 700:-1 
0.1602362286769379 194:1 675:2 676:2 677:3 678:1 679:3 680:3 681:2 682:-1 683:2 684:-1 685:29.6 686:2 687:4 688:4 689:3 690:1 691:3 692:7 693:2 694:-1 695:3 696:1 697:1 698:4 699:2 700:-1 701:55504 702:55504 704:2 705:1 706:3836 
1 88:1 94:1 124:1 677:3 678:1 679:3 681:2 682:-1 683:2 684:-1 685:21.8 686:1 687:4 688:4 689:4 692:10 693:2 695:4 696:1 697:1 698:4 699:2 700:-1 
0.1600843941703747 50:1 54:1 88:1 675:2 676:2 677:3 678:1 679:3 680:3 681:2 682:-1 683:1 684:-1 685:28.1 686:2 687:-1 688:-1 689:-1 690:-1 691:-1 692:-1 693:2 694:-1 695:2 696:2 697:-1 698:-1 699:2 700:-1 701:96000 702:96000 704:2 705:1 706:265 
0.08220458817570336 54:1 77:1 675:2 676:2 677:3 678:1 679:3 680:1 681:2 682:-1 683:1 684:-1 685:23.7 686:2 687:-1 688:-1 689:-1 690:-1 691:-1 692:-1 693:2 694:-1 695:2 696:2 697:-1 698:-1 699:2 700:-1 701:60000 702:40000 704:2 
0.1600971839286952 114:1 195:1 675:1 676:1 677:3 678:3 679:1 680:2 681:2 682:-1 683:1 684:-1 685:27.1 686:-1 687:-1 688:-1 689:-1 690:-1 691:-1 692:-1 693:-1 694:-1 695:-1 696:2 697:-1 698:-1 699:2 700:-1 701:210000 702:105000 704:2 
0.6795254766388781 76:1 96:1 677:1 678:3 679:3 681:1 682:67 683:1 684:-1 685:23.4 686:1 687:4 688:3 689:4 692:9 693:-9 695:3 696:1 697:2 698:-8 699:2 700:1 
0.1601992783398792 186:1 675:2 676:2 677:3 678:1 679:3 680:3 681:2 682:-1 683:2 684:-1 685:45.9 686:2 687:-1 688:-1 689:-1 690:-1 691:-1 692:-1 693:2 694:-1 695:2 696:2 697:-1 698:-1 699:2 700:-1 701:68000 702:26000 704:2 
0.1598895636933407 84:1 116:1 675:2 676:2 677:3 678:1 679:3 680:3 681:-1 682:-1 683:1 685:-1 686:-1 687:-1 688:-1 689:-1 690:-1 691:-1 692:-1 693:-1 694:-1 695:-1 696:-8 697:-1 698:-1 699:2 700:-1 701:68000 702:2000 704:2 
0.1600986070187917 79:1 675:6 676:12 677:3 678:2 679:2 680:5 681:-1 682:-1 683:2 685:-1 686:-1 687:-1 688:-1 689:-1 690:-1 691:-1 692:-1 693:-1 694:-1 695:-1 696:1 697:1 698:-8 699:2 700:-1 701:19344 704:1 705:1 706:656 
0.2045681255418833 116:1 117:1 675:6 676:12 677:3 678:2 679:2 680:5 681:-1 682:-1 683:2 685:-1 686:-1 687:-1 688:-1 689:-1 690:-1 691:-1 692:-1 693:-1 694:-1 695:-1 696:1 697:1 698:-8 699:2 700:-1 
0.4135920756314266 112:1 118:1 675:1 676:1 677:3 678:3 679:1 680:1 681:2 682:-1 683:2 684:-1 685:38.6 686:2 687:-1 688:-1 689:-1 690:-1 691:-1 692:-1 693:-9 694:-9 695:1 696:1 697:1 698:3 699:2 700:-1 701:10000 702:10000 704:2 
0.1603211734068305 116:1 675:1 676:1 677:3 678:3 679:1 680:2 681:-1 682:-1 683:-1 684:-1 685:-1 686:-1 687:-1 688:-1 689:-1 690:-1 691:-1 692:-1 693:-1 694:-1 695:-1 696:-1 697:-1 698:-1 699:-1 700:-1 701:236077 704:2 705:2 706:642 708:1 
0.1603186295762718 54:1 81:1 194:1 195:1 675:1 676:1 677:3 678:3 679:1 680:2 681:2 682:-1 683:2 684:-1 685:25.5 686:2 687:3 688:3 689:3 690:1 691:3 692:9 693:2 694:-1 695:3 696:2 697:-1 698:-1 699:2 700:-1 701:123755 702:77966 704:2 708:1 
0.3452222867188252 195:1 675:6 676:12 677:3 678:3 679:2 680:5 681:2 682:-1 683:1 684:-1 685:19.4 686:2 687:4 688:4 689:4 690:1 691:4 692:10 693:2 694:-1 695:2 696:2 697:-1 698:-1 699:2 700:1 701:10000 704:2 708:6 
0.1603206011768634 83:1 675:1 676:1 677:3 678:3 679:1 680:1 681:1 682:33 683:2 684:-1 685:23.3 686:-1 687:-1 688:-1 689:-1 690:-1 691:-1 692:-1 693:-1 694:-1 695:-1 696:1 697:1 698:3 699:2 700:-1 701:19760 702:19760 704:2 
0.1600986641262194 24:1 91:1 190:1 196:1 675:1 676:1 677:3 678:3 679:1 680:2 681:2 682:-1 683:1 684:-1 685:31.3 686:2 687:-1 688:-1 689:-1 690:-1 691:-1 692:-1 693:2 694:-1 695:3 696:2 697:-1 698:-1 699:2 700:-1 701:57954 702:5758 704:2 
0.3462939783568537 54:1 85:1 88:1 124:1 149:1 190:1 192:1 677:3 678:3 679:1 681:1 682:60 683:1 684:-1 685:42.5 686:1 687:4 688:4 689:4 692:9 693:1 695:3 696:1 697:2 698:4 699:2 700:1 
0.1603203033737363 116:1 675:1 676:1 677:3 678:3 679:1 680:2 681:1 682:53 683:2 684:-1 685:40.7 686:1 687:-1 688:-1 689:-1 690:-1 691:-1 692:-1 693:2 694:-1 695:4 696:1 697:2 698:3 699:2 700:2 701:59000 702:37050 704:2 705:2 706:205 708:23 
0.1603203033737363 73:1 675:1 676:1 677:3 678:3 679:1 680:1 681:2 682:-1 683:2 684:-1 685:-9 686:-9 687:-1 688:-1 689:-1 690:-1 691:-1 692:-1 693:2 694:-1 695:1 696:2 697:-1 698:-1 699:2 700:-1 701:6720 702:6720 704:1 
0.1601504617249283 186:1 675:4 676:4 677:1 678:3 679:3 680:4 681:2 682:-1 683:2 684:-1 685:26 686:2 687:-1 688:-1 689:-1 690:-1 691:-1 692:-1 693:2 694:-1 695:1 696:1 697:1 698:4 699:2 700:-1 701:52000 702:20000 704:2 
0.1602264578475635 161:1 675:2 676:2 677:3 678:1 679:3 680:3 681:2 682:-1 683:2 684:-1 685:34.2 686:2 687:4 688:4 689:3 690:1 691:4 692:8 693:2 694:-1 695:2 696:2 697:-1 698:-1 699:2 700:-1 701:13527 702:7465 704:2 708:3 
0.1600987012455041 88:1 252:1 675:1 676:1 677:3 678:3 679:1 680:1 681:2 682:-1 683:1 684:-1 685:31.2 686:-1 687:-1 688:-1 689:-1 690:-1 691:-1 692:-1 693:-1 694:-1 695:-1 696:2 697:-1 698:-1 699:2 700:-1 701:124505 702:80000 704:2 
0.160062934701301 88:1 675:1 676:1 677:3 678:3 679:1 680:1 681:-1 682:-1 683:2 685:-1 686:-1 687:-1 688:-1 689:-1 690:-1 691:-1 692:-1 693:-1 694:-1 695:-1 696:2 697:-1 698:-1 699:2 700:-1 701:124505 704:2 
0.1602493639057411 253:1 256:1 257:1 675:4 676:10 677:1 678:3 679:3 680:4 681:-1 682:-1 683:2 684:99 685:-1 686:-1 687:-1 688:-1 689:-1 690:-1 691:-1 692:-1 693:-1 694:-1 695:-1 696:-8 697:-1 698:-1 699:-8 700:-1 701:70796 704:1 
0.2202586427734055 88:1 133:1 193:1 194:1 195:1 249:1 675:1 676:1 677:3 678:3 679:1 680:2 681:2 682:-1 683:1 684:-1 685:19 686:1 687:4 688:4 689:4 690:2 691:-1 692:10 693:1 694:2 695:1 696:1 697:1 698:4 699:2 700:-1 
0.1602225157001092 133:1 675:1 676:1 677:3 678:3 679:1 680:2 681:2 682:-1 683:1 684:-1 685:25.7 686:-1 687:-1 688:-1 689:-1 690:-1 691:-1 692:-1 693:-1 694:-1 695:-1 696:2 697:-1 698:-1 699:2 700:-1 701:14900 704:2 
0.6040169525515641 80:1 114:1 256:1 675:2 676:2 677:3 678:1 679:3 680:3 681:-1 682:-1 683:2 685:-1 686:-1 687:-1 688:-1 689:-1 690:-1 691:-1 692:-1 693:-1 694:-1 695:-1 696:1 697:1 698:3 699:2 700:-1 
1 54:1 88:1 95:1 99:1 221:1 246:1 677:3 678:3 679:1 681:2 682:-1 683:1 684:-1 685:25 686:1 687:4 688:4 689:4 692:8 693:1 695:2 696:1 697:1 698:4 699:2 700:2 
0.1600999489507792 85:1 123:1 675:1 676:1 677:3 678:3 679:1 680:2 681:2 682:-1 683:1 684:-1 685:27.1 686:2 687:-1 688:-1 689:-1 690:-1 691:-1 692:-1 693:1 694:4 695:3 696:2 697:-1 698:-1 699:2 700:-1 701:71433 702:21775 704:2 705:1 706:329 
1 24:1 48:1 677:3 678:3 679:1 681:2 682:-1 683:1 684:-1 685:26.6 686:2 687:4 688:4 689:4 692:9 693:1 695:1 696:1 697:1 698:4 699:2 700:-1 
0.1602569498933284 81:1 246:1 675:1 676:1 677:3 678:3 679:1 680:2 681:2 682:-1 683:2 684:-1 685:20.7 686:2 687:-1 688:-1 689:-1 690:-1 691:-1 692:-1 693:2 694:-1 695:1 696:2 697:-1 698:-1 699:2 700:-1 701:125000 704:2 
0.2014473259075787 188:1 195:1 220:1 677:3 678:3 679:1 681:2 682:-1 683:2 684:-1 685:23.2 686:1 687:4 688:4 689:4 692:9 693:1 695:2 696:1 697:1 698:4 699:2 700:-1 
1 25:1 190:1 249:1 677:3 678:3 679:1 681:2 682:-1 683:1 684:-1 685:24.3 686:1 687:3 688:4 689:3 692:9 693:1 695:2 696:1 697:1 698:3 699:2 700:1 
0.160128497237619 249:1 675:1 676:1 677:3 678:3 679:1 680:1 681:2 682:-1 683:2 684:-1 685:33.5 686:2 687:-1 688:-1 689:-1 690:-1 691:-1 692:-1 693:2 694:-1 695:1 696:1 697:1 698:4 699:2 700:-1 701:36208 702:11500 704:1 
0.140326258420632 82:1 116:1 145:1 675:1 676:1 677:3 678:3 679:1 680:2 681:-1 682:-1 683:1 685:-1 686:-1 687:-1 688:-1 689:-1 690:-1 691:-1 692:-1 693:-1 694:-1 695:-1 696:1 697:1 698:4 699:2 700:-1 701:36208 704:1 
0.1603250881512194 50:1 54:1 88:1 675:2 676:2 677:3 678:1 679:3 680:3 681:2 682:-1 683:1 684:-1 685:18.8 686:2 687:-1 688:-1 689:-1 690:-1 691:-1 692:-1 693:2 694:-1 695:4 696:2 697:-1 698:-1 699:1 700:-1 701:6233 703:6233 704:1 705:2 706:511 
0.2857355687987355 81:1 225:1 244:1 677:3 678:3 679:1 681:-1 682:-1 683:2 684:-1 685:-1 686:-1 687:-1 688:-1 689:-1 692:-1 693:-1 695:-1 696:1 697:1 698:-8 699:2 700:-1 
0.1601876602819093 190:1 675:1 676:1 677:3 678:3 679:1 680:1 681:-1 682:-1 683:2 685:-1 686:-1 687:-1 688:-1 689:-1 690:-1 691:-1 692:-1 693:-1 694:-1 695:-1 696:1 697:2 698:1 699:2 700:-1 701:18865 704:1 705:2 706:593 708:1 
0.1601980137863572 258:1 675:1 676:1 677:3 678:3 679:1 680:1 681:-1 682:-1 683:2 684:-1 685:-1 686:-1 687:-1 688:-1 689:-1 690:-1 691:-1 692:-1 693:-1 694:-1 695:-1 696:1 697:2 698:1 699:2 700:-1 701:18865 704:1 705:2 706:485 
0.03817254857901491 124:1 677:3 678:3 679:1 681:-1 682:-1 683:-7 684:-7 685:-1 686:-1 687:-1 688:-1 689:-1 692:-1 693:-1 695:-1 696:-7 697:-1 698:-1 699:2 700:-1 
0.4307968634900335 54:1 74:1 88:1 194:1 677:3 678:1 679:3 681:2 682:-1 683:2 684:-1 685:28 686:1 687:4 688:4 689:4 692:10 693:-9 695:5 696:1 697:1 698:4 699:2 700:-1 
0.160098645973662 78:1 81:1 88:1 131:1 675:1 676:1 677:3 678:3 679:1 680:2 681:2 682:-1 683:2 684:-1 685:23.7 686:2 687:-1 688:-1 689:-1 690:-1 691:-1 692:-1 693:2 694:-1 695:1 696:1 697:2 698:4 699:2 700:-1 701:42640 702:42640 704:2 
0.1602362286769379 125:1 675:1 676:1 677:3 678:3 679:1 680:2 681:-1 682:-1 683:2 685:-1 686:-1 687:-1 688:-1 689:-1 690:-1 691:-1 692:-1 693:-1 694:-1 695:-1 696:1 697:1 698:-8 699:2 700:-1 701:73360 702:9360 704:2 
0.5445170817776639 77:1 91:1 194:1 677:3 678:3 679:1 681:2 682:-1 683:1 684:-1 685:24.3 686:1 687:4 688:4 689:4 692:10 693:1 695:2 696:1 697:1 698:-8 699:2 700:1 
