svm_type c_svc
kernel_type rbf
gamma 0.00142857
nr_class 2
total_sv 2718
rho 0.896807
label 1 0
nr_sv 1133 1585
SV
1 50:1 88:1 141:1 148:1 151:1 320:1 358:1 411:1 418:1 421:1 464:1 675:1 677:3 678:3 679:1 680:1 681:2 682:-1 683:1 684:-1 685:25.7 686:2 687:-1 688:-1 689:-1 690:-1 691:-1 692:-1 693:1 695:3 696:1 697:1 698:4 699:2 700:-1 
1 88:1 151:1 675:2 676:-1 677:3 678:1 679:3 680:3 681:2 682:-1 683:1 684:-1 685:22.7 686:1 687:3 688:3 689:3 690:1 691:3 692:5 693:1 694:3 695:5 696:1 697:1 698:4 699:2 700:2 
1 30:1 76:1 88:1 156:1 234:1 258:1 300:1 315:1 319:1 320:1 326:1 346:1 351:1 383:1 528:1 675:1 677:3 678:3 679:1 680:2 681:1 682:57 683:1 684:-1 685:36.6 686:1 687:-1 688:-1 689:-1 690:-1 691:-1 692:-1 693:1 695:4 696:1 697:1 698:-8 699:2 700:1 
1 25:1 43:1 54:1 79:1 99:1 102:1 108:1 116:1 117:1 145:1 149:1 252:1 258:1 262:1 295:1 313:1 324:1 366:1 369:1 372:1 378:1 387:1 388:1 398:1 419:1 522:1 528:1 532:1 675:2 677:3 678:1 679:3 680:3 681:2 682:-1 683:2 684:-1 685:27.5 686:1 687:2 688:4 689:4 690:1 691:2 692:8 693:1 695:2 696:1 697:1 698:4 699:2 700:-1 
1 15:1 148:1 320:1 324:1 358:1 361:1 418:1 675:1 677:3 678:3 679:1 680:2 681:2 682:-1 683:1 684:-1 685:33.9 686:1 687:2 688:3 689:2 690:1 691:3 692:8 693:1 695:5 696:1 697:1 698:-8 699:2 700:2 
1 24:1 25:1 76:1 88:1 116:1 124:1 188:1 278:1 295:1 346:1 393:1 394:1 419:1 458:1 675:1 677:3 678:3 679:1 680:2 681:2 682:-1 683:1 684:-1 685:36.9 686:1 687:4 688:4 689:4 690:1 691:4 692:10 693:1 695:1 696:1 697:1 698:4 699:2 700:2 
1 50:1 675:2 676:-1 677:3 678:1 679:3 680:3 681:1 682:50 683:2 684:-1 685:25.8 686:1 687:2 688:2 689:2 690:2 691:-1 692:7 693:2 694:-1 695:3 696:1 697:1 698:4 699:2 700:-1 
1 25:1 50:1 88:1 98:1 193:1 295:1 320:1 368:1 675:2 677:3 678:1 679:3 680:3 681:1 682:52 683:2 684:-1 685:40.8 686:2 687:4 688:4 689:4 690:1 691:4 692:10 693:1 695:4 696:1 697:1 698:4 699:2 700:2 
1 249:1 278:1 355:1 394:1 424:1 458:1 464:1 519:1 522:1 528:1 675:1 677:3 678:3 679:1 680:2 681:2 682:-1 683:1 684:-1 685:29.5 686:1 687:4 688:4 689:4 690:1 691:3 692:10 693:1 695:4 696:1 697:1 698:4 699:2 700:2 
1 25:1 26:1 42:1 80:1 83:1 84:1 85:1 93:1 96:1 111:1 149:1 151:1 194:1 201:1 225:1 247:1 294:1 295:1 296:1 312:1 319:1 320:1 324:1 346:1 353:1 354:1 355:1 363:1 366:1 381:1 401:1 406:1 421:1 463:1 464:1 465:1 468:1 471:1 495:1 517:1 519:1 675:1 677:3 678:3 679:1 680:2 681:1 682:54 683:2 684:-1 685:33.6 686:1 687:2 688:3 689:3 690:1 691:3 692:7 693:1 695:4 696:1 697:1 698:-8 699:2 700:1 
1 78:1 111:1 190:1 194:1 201:1 252:1 258:1 415:1 464:1 519:1 522:1 528:1 675:1 677:3 678:3 679:1 680:1 681:2 682:-1 683:1 684:-1 685:33.4 686:1 687:4 688:2 689:3 690:1 691:4 692:10 693:1 695:2 696:1 697:1 698:4 699:2 700:-1 
1 124:1 166:1 194:1 675:1 676:-1 677:3 678:3 679:1 680:2 681:2 682:-1 683:2 684:-1 685:28.1 686:1 687:3 688:3 689:3 690:1 691:3 692:7 693:1 694:3 695:2 696:1 697:1 698:3 699:2 700:-1 
1 84:1 94:1 246:1 249:1 258:1 516:1 517:1 519:1 528:1 675:1 677:3 678:3 679:1 680:2 681:2 682:-1 683:1 684:-1 685:21.5 686:1 687:3 688:3 689:3 690:1 691:4 692:8 693:1 695:3 696:2 697:-1 698:-1 699:2 700:-1 
1 258:1 675:2 676:-1 677:3 678:1 679:3 680:3 681:2 682:-1 683:1 684:-1 685:23.7 686:1 687:2 688:4 689:2 690:1 691:3 692:7 693:2 694:-1 695:3 696:1 697:2 698:3 699:2 700:-1 
1 50:1 78:1 123:1 148:1 190:1 320:1 321:1 343:1 348:1 355:1 398:1 418:1 426:1 460:1 496:1 519:1 675:1 677:3 678:3 679:1 680:1 681:1 682:51 683:1 684:-1 685:27.2 686:1 687:4 688:4 689:3 690:1 691:3 692:8 693:1 695:2 696:1 697:1 698:4 699:2 700:1 
1 20:1 91:1 117:1 187:1 290:1 361:1 387:1 394:1 675:1 677:3 678:3 679:1 680:2 681:2 682:-1 683:1 684:-1 685:34 686:1 687:3 688:3 689:3 690:1 691:3 692:8 693:1 695:5 696:1 697:1 698:3 699:1 700:1 
1 48:1 85:1 194:1 195:1 215:1 229:1 355:1 464:1 471:1 675:1 677:3 678:3 679:1 680:2 681:2 682:-1 683:1 684:-1 685:27.9 686:1 687:4 688:3 689:3 690:1 691:4 692:8 693:1 695:3 696:1 697:1 698:4 699:2 700:-1 
1 24:1 50:1 69:1 76:1 88:1 118:1 124:1 195:1 252:1 258:1 294:1 315:1 320:1 330:1 339:1 348:1 350:1 353:1 358:1 394:1 423:1 460:1 465:1 495:1 499:1 522:1 528:1 675:1 677:3 678:3 679:1 680:2 681:1 682:50 683:1 684:-1 685:29.4 686:1 687:3 688:3 689:3 690:1 691:4 692:8 693:1 695:4 696:1 697:1 698:3 699:2 700:1 
1 50:1 124:1 190:1 195:1 386:1 394:1 396:1 465:1 675:2 677:3 678:1 679:3 680:3 681:2 682:-1 683:2 684:-1 685:30.6 686:1 687:3 688:3 689:3 690:1 691:3 692:8 693:1 695:2 696:1 697:1 698:4 699:2 700:-1 
1 50:1 88:1 94:1 96:1 144:1 147:1 193:1 320:1 324:1 358:1 364:1 365:1 366:1 369:1 393:1 414:1 417:1 463:1 524:1 675:2 677:3 678:1 679:3 680:3 681:1 682:50 683:1 684:-1 685:25.1 686:1 687:3 688:3 689:3 690:1 691:3 692:7 693:2 695:5 696:1 697:1 698:3 699:2 700:2 
1 54:1 56:1 88:1 92:1 128:1 139:1 258:1 324:1 358:1 362:1 398:1 460:1 528:1 675:2 677:3 678:1 679:3 680:3 681:2 682:-1 683:1 684:-1 685:35.8 686:1 687:4 688:3 689:3 690:1 691:3 692:7 693:1 695:3 696:1 697:1 698:3 699:2 700:-1 
1 45:1 128:1 195:1 252:1 258:1 398:1 460:1 464:1 465:1 489:1 522:1 528:1 675:2 677:3 678:1 679:3 680:3 681:2 682:-1 683:1 684:-1 685:26.6 686:1 687:4 688:4 689:3 690:1 691:-9 692:7 693:1 695:5 696:1 697:1 698:3 699:2 700:-1 
1 54:1 88:1 118:1 124:1 145:1 153:1 190:1 192:1 195:1 252:1 258:1 320:1 322:1 324:1 344:1 358:1 388:1 394:1 415:1 460:1 462:1 465:1 471:1 522:1 528:1 675:1 677:3 678:3 679:1 680:2 681:1 682:54 683:1 684:-1 685:30.8 686:1 687:4 688:4 689:4 690:1 691:4 692:10 693:1 695:3 696:1 697:1 698:4 699:2 700:1 
1 50:1 88:1 94:1 112:1 147:1 220:1 226:1 320:1 321:1 364:1 368:1 417:1 471:1 496:1 675:2 677:3 678:1 679:3 680:3 681:1 683:1 684:-1 685:25.8 686:1 687:4 688:4 689:4 690:1 691:4 692:10 693:1 695:4 696:1 697:1 698:-8 699:2 700:-1 
1 52:1 60:1 78:1 85:1 96:1 193:1 195:1 198:1 201:1 222:1 252:1 258:1 262:1 315:1 354:1 355:1 463:1 468:1 471:1 504:1 528:1 675:1 677:3 678:3 679:1 680:2 681:2 682:-1 683:1 684:-1 685:25 686:1 687:3 688:3 689:3 690:1 691:3 692:7 693:1 695:3 696:1 697:1 698:4 699:2 700:1 
1 24:1 25:1 88:1 91:1 96:1 127:1 192:1 195:1 294:1 347:1 358:1 361:1 368:1 378:1 462:1 465:1 528:1 675:1 677:3 678:3 679:1 680:2 681:2 682:-1 683:1 684:-1 685:26.1 686:-9 687:3 688:4 689:4 690:1 691:4 692:9 693:1 695:4 696:1 697:1 698:4 699:2 700:-9 
1 91:1 300:1 315:1 324:1 346:1 349:1 356:1 358:1 361:1 369:1 393:1 422:1 460:1 519:1 675:1 677:3 678:3 679:1 680:2 681:2 682:-1 683:1 684:-1 685:30.9 686:1 687:3 688:3 689:4 690:1 691:3 692:10 693:1 695:3 696:1 697:1 698:4 699:2 700:1 
1 85:1 88:1 118:1 193:1 234:1 243:1 249:1 324:1 355:1 513:1 675:1 677:3 678:3 679:1 680:2 681:2 682:-1 683:1 684:-1 685:25.8 686:1 687:4 688:4 689:4 690:1 691:4 692:8 693:1 695:3 696:1 697:2 698:4 699:2 700:-1 
1 12:1 84:1 90:1 91:1 96:1 156:1 189:1 282:1 320:1 324:1 354:1 360:1 361:1 366:1 426:1 464:1 499:1 519:1 675:1 677:3 678:3 679:1 680:2 681:1 682:76 683:1 684:-1 685:32.4 686:1 687:4 688:4 689:4 690:1 691:4 692:10 693:2 695:3 696:1 697:1 698:4 699:2 700:2 
1 80:1 82:1 116:1 124:1 201:1 274:1 386:1 394:1 504:1 675:1 677:3 678:3 679:1 680:2 681:-1 682:-1 683:2 684:1 685:-1 686:-1 687:-1 688:-1 689:-1 690:-1 691:-1 692:-1 693:-1 695:-1 696:1 697:2 698:2 699:2 700:-1 
1 5:1 195:1 456:1 675:2 677:3 678:1 679:3 680:3 681:2 682:-1 683:2 684:-1 685:32.3 686:1 687:4 688:4 689:4 690:1 691:4 692:9 693:1 695:1 696:1 697:1 698:4 699:2 700:-1 
1 50:1 88:1 116:1 190:1 193:1 195:1 201:1 235:1 249:1 258:1 320:1 355:1 358:1 398:1 407:1 462:1 465:1 471:1 528:1 675:2 677:3 678:1 679:3 680:3 681:1 682:30 683:1 684:-1 685:33.5 686:1 687:4 688:4 689:4 690:1 691:4 692:10 693:1 695:1 696:1 697:1 698:3 699:2 700:-1 
1 49:1 50:1 54:1 76:1 88:1 91:1 131:1 194:1 195:1 319:1 320:1 324:1 360:1 361:1 395:1 401:1 419:1 463:1 464:1 465:1 466:1 513:1 675:1 677:3 678:3 679:1 680:1 681:1 682:65 683:1 684:-1 685:34 686:1 687:3 688:4 689:3 690:1 691:3 692:7 693:1 695:4 696:1 697:1 698:4 699:2 700:2 
1 15:1 17:1 20:1 128:1 149:1 187:1 285:1 289:1 290:1 382:1 390:1 398:1 403:1 411:1 423:1 497:1 675:1 677:3 678:3 679:1 680:2 681:2 682:-1 683:-1 684:-1 685:-1 686:-1 687:-1 688:-1 689:-1 690:-1 691:-1 692:-1 693:-1 695:-1 696:-1 697:-1 698:-1 699:-1 700:2 
1 40:1 54:1 88:1 123:1 124:1 149:1 151:1 190:1 220:1 310:1 360:1 397:1 421:1 460:1 464:1 472:1 490:1 519:1 522:1 528:1 675:1 677:3 678:3 679:1 680:2 681:2 682:-1 683:1 684:-1 685:24.8 686:1 687:4 688:4 689:4 690:1 691:4 692:10 693:1 695:4 696:1 697:1 698:4 699:2 700:1 
1 25:1 54:1 76:1 88:1 91:1 117:1 165:1 195:1 249:1 258:1 295:1 315:1 324:1 358:1 361:1 366:1 419:1 465:1 519:1 528:1 675:1 677:3 678:3 679:1 680:2 681:2 682:-1 683:1 684:-1 685:31.2 686:1 687:4 688:4 689:4 690:1 691:4 692:8 693:1 695:4 696:1 697:1 698:1 699:2 700:-1 
1 5:1 45:1 84:1 88:1 124:1 246:1 275:1 377:1 394:1 436:1 512:1 675:1 677:3 678:3 679:1 680:2 681:2 682:-1 683:1 684:-1 685:44.1 686:1 687:3 688:4 689:3 690:1 691:3 692:8 693:1 695:4 696:1 697:2 698:4 699:2 700:-1 
1 50:1 69:1 73:1 76:1 86:1 88:1 125:1 142:1 149:1 192:1 194:1 240:1 245:1 252:1 254:1 258:1 320:1 339:1 343:1 358:1 368:1 394:1 412:1 419:1 462:1 515:1 522:1 524:1 675:2 677:3 678:1 679:3 680:3 681:1 682:75 683:1 684:-1 685:18.9 686:1 687:3 688:3 689:3 690:1 691:4 692:8 693:1 695:4 696:1 697:1 698:4 699:2 700:1 
1 186:1 195:1 456:1 465:1 675:4 677:1 678:3 679:3 680:4 681:2 682:-1 683:1 684:-1 685:21 686:-1 687:-1 688:-1 689:-1 690:-1 691:-1 692:-1 693:-1 695:-1 696:1 697:2 698:3 699:2 700:-1 
1 56:1 78:1 88:1 117:1 194:1 195:1 215:1 319:1 348:1 358:1 386:1 387:1 462:1 463:1 464:1 465:1 471:1 519:1 522:1 675:1 677:3 678:3 679:1 680:2 681:2 682:-1 683:1 684:-1 685:49 686:1 687:4 688:3 689:3 690:1 691:4 692:8 693:1 695:4 696:1 697:1 698:3 699:2 700:2 
1 4:1 124:1 394:1 675:1 677:3 678:3 679:1 680:2 681:-1 682:-1 683:1 684:2 685:-1 686:-1 687:-1 688:-1 689:-1 690:-1 691:-1 692:-1 693:-1 695:-1 696:1 697:2 698:2 699:2 700:-1 
1 8:1 50:1 51:1 194:1 201:1 220:1 222:1 252:1 320:1 321:1 355:1 490:1 522:1 523:1 675:1 677:3 678:3 679:1 680:2 681:1 682:32 683:1 684:-1 685:42.7 686:1 687:3 688:3 689:3 690:1 691:3 692:8 693:1 695:4 696:1 697:1 698:1 699:2 700:2 
1 23:1 25:1 88:1 112:1 117:1 118:1 190:1 193:1 246:1 295:1 346:1 358:1 368:1 381:1 387:1 388:1 460:1 463:1 675:1 677:3 678:3 679:1 680:2 681:2 682:-1 683:1 684:-1 685:32.6 686:1 687:4 688:4 689:3 690:1 691:3 692:8 693:1 695:3 696:1 697:1 698:4 699:2 700:-1 
1 50:1 92:1 118:1 194:1 201:1 258:1 275:1 320:1 321:1 362:1 388:1 398:1 431:1 436:1 464:1 471:1 510:1 511:1 515:1 519:1 522:1 528:1 675:1 677:3 678:3 679:1 680:2 681:1 682:25 683:1 684:-1 685:41.3 686:1 687:4 688:3 689:3 690:1 691:3 692:6 693:1 695:4 696:1 697:1 698:4 699:1 700:-1 
1 54:1 78:1 88:1 91:1 151:1 190:1 195:1 318:1 319:1 324:1 348:1 358:1 361:1 403:1 421:1 460:1 465:1 471:1 675:1 677:3 678:3 679:1 680:2 681:2 682:-1 683:1 684:-1 685:26.4 686:2 687:4 688:3 689:4 690:1 691:4 692:5 693:2 695:3 696:1 697:1 698:4 699:2 700:1 
1 42:1 54:1 158:1 252:1 324:1 435:1 464:1 522:1 528:1 675:1 677:3 678:3 679:1 680:1 681:2 682:-1 683:2 684:-1 685:27.4 686:1 687:4 688:2 689:2 690:1 691:4 692:9 693:1 695:4 696:1 697:1 698:4 699:2 700:-9 
1 12:1 24:1 60:1 77:1 85:1 88:1 91:1 153:1 194:1 282:1 324:1 347:1 358:1 361:1 423:1 464:1 524:1 675:1 677:3 678:3 679:1 680:2 681:2 682:-1 683:2 684:-1 685:-1 686:-1 687:-1 688:-1 689:-1 690:-1 691:-1 692:-1 693:-1 695:-1 696:-1 697:-1 698:-1 699:-1 700:2 
1 88:1 91:1 114:1 124:1 139:1 195:1 376:1 394:1 465:1 519:1 675:1 677:3 678:3 679:1 680:2 681:2 682:-1 683:1 684:-1 685:30.6 686:1 687:3 688:4 689:4 690:1 691:3 692:8 693:1 695:4 696:1 697:1 698:4 699:2 700:1 
1 54:1 76:1 85:1 135:1 194:1 264:1 324:1 346:1 394:1 415:1 419:1 464:1 534:1 675:1 677:3 678:3 679:1 680:2 681:2 682:-1 683:1 684:-1 685:29.3 686:1 687:3 688:3 689:3 690:1 691:3 692:8 693:1 695:4 696:1 697:1 698:4 699:2 700:1 
1 123:1 253:1 255:1 388:1 393:1 523:1 525:1 675:1 677:3 678:3 679:1 680:1 681:-1 682:-1 683:2 684:-1 685:-1 686:-1 687:-1 688:-1 689:-1 690:-1 691:-1 692:-1 693:-1 695:-1 696:1 697:1 698:4 699:2 700:-1 
1 15:1 54:1 59:1 190:1 194:1 285:1 313:1 324:1 329:1 355:1 358:1 398:1 464:1 486:1 675:1 677:3 678:3 679:1 680:2 681:2 682:-1 683:1 684:-1 685:20.1 686:1 687:4 688:4 689:4 690:1 691:4 692:8 693:1 695:4 696:1 697:1 698:-8 699:2 700:1 
1 6:1 84:1 116:1 192:1 249:1 258:1 276:1 278:1 295:1 386:1 462:1 519:1 528:1 675:1 677:3 678:3 679:1 680:1 681:2 682:-1 683:1 684:-1 685:33.6 686:1 687:4 688:4 689:4 690:1 691:3 692:10 693:1 695:4 696:1 697:1 698:4 699:2 700:-1 
1 84:1 88:1 96:1 145:1 249:1 278:1 346:1 348:1 354:1 358:1 366:1 512:1 519:1 675:1 677:3 678:3 679:1 680:2 681:2 682:-1 683:1 684:-1 685:25.6 686:2 687:4 688:4 689:3 690:1 691:3 692:8 693:1 695:2 696:1 697:1 698:4 699:2 700:2 
1 50:1 54:1 60:1 88:1 123:1 128:1 190:1 195:1 201:1 207:1 217:1 275:1 320:1 324:1 330:1 341:1 354:1 355:1 358:1 393:1 398:1 423:1 460:1 464:1 465:1 468:1 471:1 477:1 499:1 504:1 511:1 519:1 675:1 677:3 678:3 679:1 680:2 681:2 682:-1 683:1 684:-1 685:36.4 686:1 687:3 688:3 689:3 690:1 691:3 692:6 693:1 695:3 696:1 697:2 698:3 699:2 700:1 
1 195:1 201:1 228:1 294:1 322:1 423:1 464:1 465:1 471:1 675:1 677:3 678:3 679:1 680:2 681:1 682:62 683:1 684:-1 685:31 686:1 687:3 688:4 689:4 690:1 691:4 692:10 693:1 695:4 696:1 697:1 698:4 699:2 700:1 
1 6:1 107:1 112:1 195:1 252:1 276:1 675:2 677:3 678:1 679:3 680:3 681:2 682:-1 683:2 684:-1 685:40.6 686:1 687:4 688:4 689:4 690:1 691:4 692:10 693:1 695:4 696:1 697:1 698:3 699:2 700:-9 
1 15:1 24:1 39:1 59:1 60:1 79:1 85:1 88:1 91:1 106:1 116:1 117:1 123:1 156:1 279:1 285:1 294:1 309:1 329:1 330:1 349:1 358:1 361:1 387:1 393:1 426:1 519:1 675:1 677:3 678:3 679:1 680:2 681:2 682:-1 683:1 684:-1 685:-9 686:1 687:4 688:4 689:4 690:1 691:4 692:8 693:1 695:3 696:1 697:1 698:2 699:2 700:1 
1 15:1 285:1 288:1 304:1 305:1 354:1 358:1 398:1 415:1 463:1 465:1 471:1 515:1 516:1 519:1 675:1 677:3 678:3 679:1 680:2 681:2 682:-1 683:1 684:-1 685:21.8 686:1 687:3 688:3 689:2 690:1 691:2 692:9 693:1 695:5 696:1 697:1 698:4 699:2 700:1 
1 49:1 54:1 85:1 88:1 192:1 193:1 195:1 201:1 222:1 319:1 324:1 358:1 386:1 462:1 463:1 465:1 471:1 675:1 677:3 678:3 679:1 680:2 681:2 682:-1 683:2 684:-1 685:39.6 686:1 687:4 688:4 689:4 690:1 691:4 692:7 693:1 695:3 696:1 697:1 698:4 699:2 700:-1 
1 24:1 30:1 39:1 49:1 52:1 81:1 84:1 94:1 128:1 190:1 194:1 201:1 229:1 246:1 294:1 300:1 309:1 319:1 322:1 351:1 354:1 364:1 377:1 398:1 460:1 516:1 675:1 677:3 678:3 679:1 680:2 681:2 682:-1 683:1 684:-1 685:28.5 686:1 687:3 688:4 689:3 690:-9 691:3 692:9 693:1 695:2 696:1 697:1 698:3 699:2 700:1 
1 85:1 186:1 195:1 258:1 324:1 358:1 456:1 465:1 528:1 675:2 677:3 678:1 679:3 680:3 681:2 682:-1 683:2 684:-1 685:41.9 686:1 687:3 688:4 689:4 690:1 691:3 692:8 693:1 695:4 696:1 697:1 698:4 699:2 700:-1 
1 50:1 54:1 88:1 91:1 117:1 118:1 123:1 195:1 234:1 249:1 252:1 258:1 260:1 320:1 324:1 358:1 361:1 387:1 393:1 519:1 522:1 528:1 530:1 675:1 677:3 678:3 679:1 680:2 681:1 682:38 683:1 684:-1 685:48.7 686:1 687:2 688:2 689:2 690:2 691:-1 692:4 693:1 695:3 696:1 697:1 698:4 699:1 700:-1 
1 78:1 192:1 194:1 195:1 348:1 462:1 464:1 465:1 675:2 677:3 678:1 679:3 680:3 681:2 682:-1 683:1 684:-1 685:27.7 686:2 687:4 688:4 689:4 690:1 691:4 692:9 693:2 695:2 696:1 697:1 698:4 699:2 700:2 
1 39:1 45:1 54:1 56:1 74:1 88:1 96:1 151:1 153:1 193:1 194:1 201:1 249:1 309:1 315:1 319:1 324:1 326:1 346:1 358:1 366:1 393:1 421:1 423:1 430:1 435:1 464:1 519:1 675:1 677:3 678:3 679:1 680:2 681:2 682:-1 683:1 684:-1 685:36.4 686:1 687:3 688:3 689:4 690:1 691:3 692:9 693:1 695:4 696:1 697:1 698:4 699:2 700:2 
1 73:1 252:1 253:1 258:1 343:1 518:1 522:1 523:1 528:1 675:1 677:3 678:3 679:1 680:2 681:-1 682:-1 683:1 684:2 685:-1 686:-1 687:-1 688:-1 689:-1 690:-1 691:-1 692:-1 693:-1 695:-1 696:1 697:1 698:4 699:2 700:-1 
1 50:1 54:1 56:1 88:1 91:1 98:1 108:1 117:1 151:1 190:1 201:1 320:1 321:1 324:1 355:1 358:1 361:1 368:1 378:1 387:1 417:1 421:1 460:1 471:1 517:1 675:1 677:3 678:3 679:1 680:2 681:1 682:28 683:1 684:-1 685:50 686:1 687:4 688:4 689:4 690:1 691:4 692:10 693:1 695:5 696:1 697:1 698:4 699:2 700:2 
1 50:1 91:1 100:1 112:1 118:1 149:1 153:1 195:1 201:1 240:1 318:1 320:1 346:1 354:1 361:1 370:1 419:1 423:1 471:1 499:1 519:1 675:1 677:3 678:3 679:1 680:2 681:1 682:34 683:1 684:-1 685:29.3 686:1 687:4 688:4 689:3 690:1 691:4 692:10 693:1 695:2 696:1 697:1 698:-8 699:2 700:1 
1 50:1 54:1 60:1 76:1 88:1 190:1 194:1 195:1 201:1 320:1 330:1 346:1 458:1 489:1 675:1 677:3 678:3 679:1 680:2 681:1 682:52 683:1 684:-1 685:41.7 686:1 687:4 688:4 689:4 690:1 691:3 692:10 693:1 695:3 696:1 697:1 698:4 699:2 700:2 
1 189:1 194:1 195:1 258:1 379:1 464:1 465:1 528:1 675:1 677:3 678:3 679:1 680:2 681:2 682:-1 683:2 684:-1 685:29.8 686:-1 687:-1 688:-1 689:-1 690:-1 691:-1 692:-1 693:-1 695:-1 696:1 697:2 698:4 699:2 700:-1 
1 43:1 194:1 313:1 401:1 422:1 675:1 677:3 678:3 679:1 680:2 681:2 682:-1 683:1 684:-1 685:39.1 686:1 687:4 688:4 689:4 690:1 691:4 692:10 693:1 695:3 696:1 697:1 698:4 699:2 700:1 
1 54:1 83:1 88:1 94:1 134:1 194:1 201:1 215:1 324:1 404:1 464:1 466:1 471:1 513:1 675:1 677:3 678:3 679:1 680:2 681:2 682:-1 683:1 684:-1 685:22.6 686:1 687:3 688:3 689:3 690:1 691:3 692:7 693:1 695:3 696:1 697:1 698:2 699:2 700:2 
1 24:1 28:1 108:1 190:1 193:1 215:1 247:1 294:1 299:1 335:1 351:1 355:1 378:1 460:1 463:1 519:1 675:1 677:3 678:3 679:1 680:2 681:2 682:-1 683:1 684:-1 685:27.4 686:1 687:3 688:3 689:3 690:1 691:4 692:9 693:1 695:2 696:1 697:1 698:2 699:1 700:1 
1 48:1 54:1 156:1 190:1 195:1 318:1 324:1 351:1 353:1 426:1 460:1 471:1 675:1 677:3 678:3 679:1 680:1 681:2 682:-1 683:1 684:-1 685:28.1 686:1 687:4 688:4 689:3 690:1 691:4 692:8 693:1 695:4 696:1 697:1 698:4 699:2 700:-1 
1 54:1 77:1 88:1 91:1 96:1 116:1 128:1 188:1 193:1 222:1 230:1 249:1 252:1 253:1 258:1 320:1 324:1 358:1 366:1 368:1 382:1 387:1 394:1 458:1 463:1 500:1 517:1 519:1 522:1 523:1 528:1 675:1 677:3 678:3 679:1 680:2 681:2 682:-1 683:1 684:-1 685:44.4 686:1 687:4 688:4 689:4 690:1 691:2 692:10 693:1 695:2 696:1 697:-8 698:4 699:2 700:-1 
1 24:1 40:1 278:1 294:1 310:1 354:1 496:1 675:1 677:3 678:3 679:1 680:2 681:2 682:-1 683:2 684:-1 685:29 686:1 687:3 688:3 689:4 690:1 691:3 692:9 693:1 695:3 696:1 697:2 698:4 699:2 700:1 
1 131:1 249:1 252:1 258:1 522:1 528:1 675:1 677:3 678:3 679:1 680:1 681:2 682:-1 683:1 684:-1 685:23.9 686:-1 687:-1 688:-1 689:-1 690:-1 691:-1 692:-1 693:-1 695:-1 696:1 697:1 698:-8 699:2 700:-1 
1 95:1 117:1 118:1 165:1 194:1 315:1 354:1 365:1 374:1 387:1 388:1 464:1 528:1 675:1 677:3 678:3 679:1 680:2 681:2 682:-1 683:2 684:-1 685:19.7 686:1 687:3 688:2 689:3 690:1 691:-9 692:8 693:1 695:3 696:1 697:1 698:-8 699:2 700:1 
1 74:1 124:1 165:1 194:1 195:1 464:1 465:1 472:1 492:1 528:1 675:1 677:3 678:3 679:1 680:1 681:2 682:-1 683:1 684:-1 685:31.3 686:1 687:3 688:3 689:3 690:2 691:-1 692:8 693:1 695:3 696:1 697:1 698:2 699:2 700:-1 
1 24:1 60:1 74:1 85:1 91:1 98:1 124:1 194:1 195:1 201:1 249:1 252:1 330:1 344:1 352:1 354:1 358:1 361:1 366:1 368:1 420:1 464:1 465:1 471:1 491:1 519:1 522:1 528:1 675:1 677:3 678:3 679:1 680:2 681:2 682:-1 683:2 684:-1 685:36 686:1 687:4 688:4 689:4 690:1 691:4 692:8 693:1 695:5 696:1 697:1 698:4 699:2 700:-1 
1 77:1 83:1 151:1 193:1 347:1 349:1 356:1 463:1 675:1 677:3 678:3 679:1 680:2 681:2 682:-1 683:1 684:-1 685:29 686:1 687:2 688:3 689:2 690:1 691:3 692:5 693:1 695:5 696:1 697:1 698:3 699:2 700:2 
1 81:1 124:1 386:1 394:1 675:1 677:3 678:3 679:1 680:1 681:-1 682:-1 683:2 685:-1 686:-1 687:-1 688:-1 689:-1 690:-1 691:-1 692:-1 693:-1 695:-1 696:1 697:1 698:4 699:2 700:-1 
1 24:1 56:1 60:1 81:1 84:1 85:1 88:1 95:1 193:1 195:1 319:1 326:1 358:1 386:1 406:1 463:1 465:1 472:1 519:1 675:1 677:3 678:3 679:1 680:2 681:2 682:-1 683:2 684:-1 685:30.7 686:1 687:3 688:3 689:3 690:1 691:3 692:8 693:1 695:4 696:1 697:2 698:4 699:2 700:2 
1 25:1 54:1 81:1 84:1 86:1 110:1 116:1 127:1 190:1 193:1 194:1 246:1 247:1 294:1 295:1 323:1 324:1 341:1 351:1 354:1 386:1 397:1 458:1 460:1 463:1 464:1 466:1 471:1 675:1 677:3 678:3 679:1 680:2 681:2 682:-1 683:1 684:-1 685:29.2 686:1 687:4 688:4 689:3 690:1 691:4 692:9 693:1 695:2 696:1 697:1 698:4 699:2 700:1 
1 10:1 153:1 157:1 258:1 280:1 319:1 356:1 358:1 419:1 435:1 463:1 528:1 530:1 675:2 677:3 678:1 679:3 680:3 681:2 682:-1 683:2 684:-1 685:54.2 686:1 687:4 688:4 689:4 690:1 691:4 692:8 693:1 695:4 696:1 697:1 698:-8 699:2 700:-1 
1 12:1 20:1 24:1 54:1 78:1 96:1 117:1 135:1 190:1 282:1 294:1 324:1 348:1 387:1 426:1 504:1 522:1 675:1 677:3 678:3 679:1 680:2 681:2 682:-1 683:1 684:-1 685:25.7 686:1 687:3 688:3 689:3 690:1 691:4 692:9 693:1 695:2 696:1 697:1 698:4 699:2 700:1 
1 56:1 76:1 81:1 86:1 88:1 96:1 145:1 149:1 150:1 201:1 247:1 346:1 366:1 413:1 415:1 420:1 460:1 465:1 471:1 517:1 675:1 677:3 678:3 679:1 680:2 681:2 682:-1 683:1 684:-1 685:30 686:1 687:3 688:4 689:3 690:1 691:2 692:9 693:1 695:3 696:1 697:1 698:4 699:2 700:1 
1 194:1 675:4 676:-1 677:1 678:3 679:3 680:4 681:2 682:-1 683:2 684:-1 685:22.1 686:1 687:4 688:3 689:3 690:1 691:4 692:7 693:1 694:4 695:3 696:1 697:1 698:4 699:2 700:-1 
1 24:1 76:1 137:1 151:1 156:1 187:1 190:1 194:1 195:1 243:1 358:1 366:1 379:1 421:1 458:1 464:1 499:1 513:1 518:1 675:1 677:3 678:3 679:1 680:2 681:2 682:-1 683:1 684:-1 685:27.3 686:-9 687:3 688:4 689:4 690:1 691:4 692:9 693:1 695:1 696:1 697:2 698:-8 699:2 700:1 
1 22:1 91:1 188:1 193:1 223:1 312:1 330:1 378:1 403:1 415:1 471:1 498:1 504:1 675:1 677:3 678:3 679:1 680:2 681:2 682:-1 683:1 684:-1 685:33.8 686:1 687:4 688:4 689:4 690:1 691:3 692:9 693:1 695:5 696:1 697:1 698:4 699:2 700:2 
1 50:1 76:1 187:1 193:1 195:1 237:1 320:1 351:1 394:1 460:1 463:1 465:1 675:1 677:3 678:3 679:1 680:2 681:1 682:59 683:1 684:-1 685:23 686:1 687:4 688:4 689:4 690:1 691:3 692:10 693:1 695:3 696:1 697:1 698:4 699:2 700:-1 
1 74:1 124:1 166:1 190:1 344:1 394:1 436:1 437:1 456:1 460:1 675:1 677:3 678:3 679:1 680:2 681:2 682:-1 683:1 684:-1 685:28.3 686:1 687:4 688:4 689:4 690:1 691:4 692:9 693:1 695:2 696:1 697:1 698:4 699:2 700:-1 
1 74:1 81:1 83:1 110:1 117:1 133:1 193:1 201:1 222:1 252:1 258:1 344:1 346:1 351:1 353:1 366:1 380:1 394:1 403:1 415:1 465:1 471:1 513:1 516:1 517:1 522:1 528:1 675:1 677:3 678:3 679:1 680:2 681:2 682:-1 683:1 684:-1 685:19.3 686:1 687:4 688:4 689:4 690:1 691:4 692:10 693:1 695:2 696:1 697:1 698:4 699:2 700:1 
1 50:1 76:1 77:1 78:1 91:1 222:1 294:1 320:1 346:1 347:1 361:1 464:1 519:1 675:1 677:3 678:3 679:1 680:2 681:1 682:58 683:1 684:-1 685:31.1 686:1 687:3 688:3 689:2 690:1 691:4 692:6 693:1 695:4 696:1 697:1 698:4 699:2 700:1 
1 5:1 24:1 76:1 78:1 107:1 117:1 249:1 282:1 294:1 348:1 354:1 387:1 465:1 471:1 675:1 677:3 678:3 679:1 680:2 681:2 682:-1 683:1 684:-1 685:23.3 686:1 687:4 688:4 689:4 690:1 691:4 692:10 693:1 695:4 696:1 697:1 698:4 699:2 700:1 
1 13:1 14:1 43:1 45:1 50:1 54:1 88:1 289:1 299:1 313:1 314:1 315:1 320:1 675:1 677:3 678:3 679:1 680:1 681:1 682:51 683:1 684:-1 685:-1 686:1 687:4 688:4 689:4 690:1 691:4 692:10 693:1 695:4 696:2 697:-1 698:-1 699:2 700:2 
1 59:1 201:1 252:1 256:1 258:1 329:1 471:1 504:1 522:1 523:1 526:1 675:1 677:3 678:3 679:1 680:2 681:-1 682:-1 683:2 684:2 685:-1 686:-1 687:-1 688:-1 689:-1 690:-1 691:-1 692:-1 693:-1 695:-1 696:1 697:1 698:4 699:2 700:-1 
1 78:1 96:1 247:1 346:1 348:1 366:1 463:1 493:1 517:1 528:1 675:1 677:3 678:3 679:1 680:2 681:2 682:-1 683:1 684:-1 685:22.9 686:1 687:3 688:3 689:3 690:1 691:3 692:10 693:1 695:3 696:1 697:2 698:2 699:2 700:1 
1 85:1 165:1 190:1 220:1 222:1 225:1 386:1 471:1 490:1 492:1 496:1 675:1 677:3 678:3 679:1 680:2 681:2 682:-1 683:1 684:-1 685:22.7 686:1 687:3 688:3 689:3 690:1 691:3 692:8 693:1 695:3 696:1 697:-8 698:-8 699:2 700:-1 
1 7:1 25:1 124:1 142:1 194:1 249:1 319:1 320:1 324:1 358:1 387:1 401:1 412:1 460:1 519:1 675:1 677:3 678:3 679:1 680:2 681:1 682:56 683:1 684:-1 685:46.9 686:1 687:3 688:3 689:3 690:1 691:3 692:8 693:1 695:4 696:1 697:1 698:-8 699:2 700:2 
1 48:1 50:1 54:1 59:1 74:1 81:1 94:1 117:1 249:1 320:1 324:1 344:1 351:1 358:1 465:1 518:1 519:1 675:1 677:3 678:3 679:1 680:2 681:2 682:-1 683:1 684:-1 685:17.9 686:1 687:3 688:2 689:3 690:1 691:3 692:8 693:1 695:2 696:1 697:1 698:2 699:2 700:-1 
1 50:1 54:1 85:1 88:1 91:1 96:1 124:1 128:1 149:1 154:1 195:1 318:1 320:1 324:1 355:1 358:1 361:1 366:1 394:1 398:1 419:1 424:1 425:1 498:1 519:1 675:1 677:3 678:3 679:1 680:2 681:1 682:65 683:1 684:-1 685:29.2 686:1 687:3 688:3 689:3 690:1 691:3 692:9 693:1 695:3 696:1 697:1 698:4 699:2 700:1 
1 23:1 50:1 76:1 88:1 96:1 190:1 320:1 460:1 675:1 677:3 678:3 679:1 680:2 681:1 682:62 683:1 684:-1 685:29.6 686:1 687:3 688:3 689:4 690:1 691:4 692:9 693:1 695:3 696:1 697:1 698:-8 699:2 700:1 
1 117:1 124:1 194:1 318:1 394:1 460:1 471:1 492:1 519:1 675:1 677:3 678:3 679:1 680:1 681:2 682:-1 683:1 684:-1 685:31.6 686:1 687:4 688:4 689:3 690:1 691:4 692:10 693:1 695:2 696:1 697:1 698:4 699:2 700:2 
1 56:1 192:1 195:1 201:1 258:1 355:1 419:1 427:1 462:1 463:1 465:1 471:1 675:1 677:3 678:3 679:1 680:2 681:2 682:-1 683:1 684:-1 685:33.7 686:1 687:3 688:2 689:3 690:1 691:3 692:7 693:1 695:5 696:1 697:1 698:4 699:2 700:-1 
1 107:1 245:1 246:1 248:1 351:1 383:1 462:1 468:1 516:1 528:1 675:2 677:3 678:1 679:3 680:3 681:2 682:-1 683:1 684:-1 685:23.6 686:1 687:4 688:4 689:4 690:1 691:4 692:8 693:2 695:4 696:1 697:1 698:4 699:2 700:2 
1 116:1 124:1 125:1 149:1 152:1 248:1 351:1 386:1 394:1 518:1 675:1 677:3 678:3 679:1 680:2 681:2 682:-1 683:1 684:-1 685:31.9 686:1 687:4 688:4 689:-9 690:1 691:4 692:9 693:1 695:3 696:1 697:1 698:4 699:2 700:-1 
1 49:1 54:1 74:1 193:1 195:1 201:1 315:1 324:1 344:1 398:1 463:1 465:1 471:1 675:1 677:3 678:3 679:1 680:2 681:2 682:-1 683:1 684:-1 685:22.4 686:-9 687:2 688:2 689:3 690:2 691:-1 692:5 693:1 695:4 696:1 697:1 698:4 699:2 700:2 
1 60:1 88:1 118:1 128:1 153:1 222:1 234:1 344:1 349:1 358:1 387:1 492:1 504:1 675:1 677:3 678:3 679:1 680:2 681:2 682:-1 683:1 684:-1 685:28.5 686:1 687:4 688:4 689:4 690:1 691:4 692:10 693:-9 695:-9 696:1 697:1 698:4 699:2 700:2 
1 50:1 116:1 124:1 320:1 324:1 358:1 387:1 407:1 427:1 460:1 675:1 677:3 678:3 679:1 680:1 681:1 682:38 683:2 684:-1 685:-9 686:1 687:4 688:4 689:4 690:1 691:4 692:10 693:2 695:3 696:1 697:1 698:4 699:2 700:-1 
1 24:1 79:1 81:1 83:1 88:1 99:1 190:1 221:1 248:1 294:1 324:1 344:1 353:1 358:1 398:1 462:1 465:1 491:1 518:1 519:1 675:1 677:3 678:3 679:1 680:2 681:2 682:-1 683:2 684:-1 685:26.1 686:2 687:3 688:4 689:3 690:1 691:4 692:8 693:1 695:4 696:1 697:1 698:4 699:2 700:2 
1 54:1 65:1 91:1 145:1 156:1 324:1 335:1 353:1 358:1 361:1 426:1 465:1 471:1 515:1 522:1 675:1 677:3 678:3 679:1 680:2 681:2 682:-1 683:1 684:-1 685:27 686:1 687:3 688:3 689:3 690:1 691:4 692:10 693:2 695:1 696:1 697:1 698:-8 699:2 700:1 
1 52:1 88:1 112:1 128:1 234:1 245:1 247:1 249:1 252:1 322:1 382:1 489:1 504:1 517:1 519:1 522:1 675:1 677:3 678:3 679:1 680:2 681:2 682:-1 683:1 684:-1 685:-1 686:1 687:3 688:2 689:2 690:1 691:4 692:8 693:1 695:5 696:1 697:1 698:4 699:2 700:-1 
1 95:1 149:1 166:1 193:1 194:1 252:1 258:1 259:1 324:1 344:1 358:1 365:1 436:1 464:1 522:1 528:1 529:1 530:1 675:1 677:3 678:3 679:1 680:2 681:2 682:-1 683:1 684:-1 685:32.2 686:1 687:3 688:2 689:2 690:1 691:2 692:7 693:1 695:4 696:1 697:-8 698:4 699:2 700:-1 
1 54:1 88:1 91:1 123:1 187:1 193:1 194:1 195:1 247:1 324:1 358:1 361:1 393:1 457:1 463:1 464:1 465:1 516:1 675:1 677:3 678:3 679:1 680:2 681:2 682:-1 683:1 684:-1 685:44.9 686:1 687:2 688:3 689:3 690:1 691:3 692:9 693:1 695:3 696:1 697:1 698:3 699:2 700:1 
1 54:1 90:1 91:1 98:1 123:1 194:1 196:1 202:1 219:1 273:1 361:1 393:1 398:1 417:1 419:1 464:1 465:1 466:1 472:1 489:1 504:1 675:1 677:3 678:3 679:1 680:2 681:2 682:-1 683:1 684:-1 685:21.9 686:1 687:3 688:3 689:3 690:1 691:3 692:7 693:1 695:3 696:1 697:1 698:4 699:2 700:-1 
1 56:1 77:1 88:1 117:1 118:1 194:1 254:1 347:1 348:1 366:1 387:1 393:1 409:1 675:1 677:3 678:3 679:1 680:2 681:2 682:-1 683:1 684:-1 685:42.1 686:1 687:3 688:2 689:1 690:1 691:3 692:5 693:1 695:4 696:1 697:1 698:4 699:2 700:1 
1 44:1 83:1 118:1 195:1 354:1 358:1 364:1 388:1 393:1 518:1 675:4 677:1 678:3 679:3 680:4 681:2 682:-1 683:1 684:-1 685:20.5 686:1 687:4 688:2 689:4 690:1 691:4 692:10 693:2 695:4 696:1 697:1 698:4 699:2 700:-1 
1 15:1 78:1 157:1 285:1 348:1 675:1 677:3 678:3 679:1 680:2 681:2 682:-1 683:1 684:-1 685:23.5 686:1 687:3 688:3 689:3 690:1 691:3 692:9 693:1 695:2 696:1 697:1 698:4 699:2 700:1 
1 258:1 471:1 528:1 675:6 677:3 678:3 679:2 680:5 681:2 682:-1 683:1 684:-1 685:41.6 686:2 687:4 688:4 689:2 690:2 691:-1 692:10 693:2 695:4 696:2 697:-1 698:-1 699:2 700:-1 
1 84:1 88:1 117:1 124:1 131:1 190:1 194:1 195:1 322:1 354:1 366:1 393:1 394:1 415:1 464:1 465:1 675:1 677:3 678:3 679:1 680:1 681:2 682:-1 683:1 684:-1 685:24.2 686:1 687:4 688:4 689:4 690:1 691:4 692:10 693:1 695:4 696:1 697:1 698:4 699:2 700:1 
1 194:1 222:1 355:1 464:1 492:1 675:6 677:3 678:3 679:2 680:1 681:2 682:-1 683:2 684:-1 685:40.2 686:1 687:4 688:4 689:4 690:1 691:4 692:10 693:-9 695:2 696:1 697:1 698:4 699:2 700:-1 
1 54:1 88:1 131:1 194:1 294:1 324:1 349:1 354:1 356:1 358:1 361:1 364:1 401:1 464:1 465:1 519:1 675:1 677:3 678:3 679:1 680:2 681:2 682:-1 683:1 684:-1 685:31.6 686:1 687:3 688:3 689:3 690:1 691:3 692:8 693:1 695:2 696:1 697:1 698:4 699:2 700:2 
1 24:1 50:1 78:1 194:1 201:1 320:1 348:1 358:1 427:1 675:2 677:3 678:1 679:3 680:3 681:1 682:60 683:1 684:-1 685:36 686:1 687:4 688:4 689:4 690:1 691:4 692:9 693:1 695:3 696:1 697:1 698:4 699:2 700:2 
1 49:1 167:1 252:1 376:1 388:1 435:1 456:1 516:1 519:1 675:1 677:3 678:3 679:1 680:2 681:2 682:-1 683:2 684:-1 685:37.5 686:1 687:4 688:4 689:4 690:1 691:4 692:8 693:1 695:4 696:2 697:-1 698:-1 699:2 700:-1 
1 24:1 30:1 79:1 90:1 96:1 143:1 190:1 222:1 249:1 294:1 300:1 324:1 354:1 358:1 360:1 366:1 419:1 492:1 675:1 677:3 678:3 679:1 680:2 681:2 682:-1 683:2 684:-1 685:21 686:1 687:4 688:4 689:4 690:1 691:4 692:10 693:1 695:1 696:1 697:2 698:4 699:2 700:1 
1 50:1 90:1 124:1 150:1 201:1 222:1 320:1 324:1 358:1 361:1 419:1 424:1 471:1 472:1 675:1 677:3 678:3 679:1 680:2 681:1 682:50 683:1 684:-1 685:34.6 686:1 687:3 688:3 689:3 690:1 691:4 692:9 693:1 695:4 696:1 697:1 698:4 699:2 700:1 
1 194:1 323:1 358:1 465:1 675:1 677:3 678:3 679:1 680:2 681:1 682:66 683:1 684:-1 685:30.1 686:1 687:3 688:4 689:4 690:1 691:4 692:10 693:1 695:3 696:1 697:1 698:4 699:2 700:1 
1 24:1 84:1 91:1 148:1 156:1 194:1 254:1 294:1 361:1 418:1 426:1 460:1 464:1 492:1 524:1 675:1 677:3 678:3 679:1 680:2 681:2 682:-1 683:1 684:-1 685:31.3 686:1 687:4 688:4 689:4 690:1 691:3 692:10 693:2 695:4 696:1 697:1 698:4 699:2 700:1 
1 28:1 88:1 123:1 249:1 299:1 320:1 324:1 358:1 382:1 675:1 677:3 678:3 679:1 680:1 681:1 682:46 683:1 684:-1 685:43.5 686:1 687:4 688:3 689:3 690:1 691:3 692:9 693:1 695:3 696:1 697:1 698:4 699:2 700:-1 
1 112:1 187:1 194:1 198:1 322:1 457:1 468:1 471:1 675:1 677:3 678:3 679:1 680:2 681:2 682:-1 683:1 684:-1 685:32.1 686:1 687:4 688:4 689:3 690:1 691:4 692:8 693:2 695:4 696:1 697:1 698:1 699:2 700:-1 
1 16:1 54:1 222:1 252:1 289:1 517:1 522:1 675:1 677:3 678:3 679:1 680:2 681:2 682:-1 683:2 684:-1 685:28.2 686:1 687:4 688:3 689:3 690:1 691:4 692:8 693:1 695:3 696:1 697:1 698:-8 699:2 700:-1 
1 116:1 245:1 258:1 275:1 515:1 528:1 675:1 677:3 678:3 679:1 680:2 681:2 682:-1 683:2 684:-1 685:36.9 686:2 687:3 688:3 689:3 690:1 691:3 692:8 693:1 695:3 696:1 697:1 698:3 699:2 700:-1 
1 88:1 194:1 195:1 245:1 252:1 264:1 393:1 464:1 465:1 471:1 515:1 518:1 522:1 528:1 534:1 675:1 677:3 678:3 679:1 680:2 681:2 682:-1 683:1 684:-1 685:19.5 686:1 687:4 688:3 689:4 690:1 691:3 692:7 693:1 695:3 696:1 697:2 698:3 699:2 700:1 
1 54:1 79:1 80:1 84:1 131:1 192:1 324:1 401:1 462:1 471:1 675:1 677:3 678:3 679:1 680:2 681:2 682:-1 683:1 684:-1 685:30.7 686:1 687:3 688:3 689:2 690:1 691:3 692:9 693:1 695:4 696:1 697:1 698:3 699:2 700:1 
1 30:1 88:1 147:1 300:1 312:1 464:1 675:2 677:3 678:1 679:3 680:3 681:2 682:-1 683:1 684:-1 685:25.9 686:1 687:4 688:4 689:4 690:-9 691:-9 692:8 693:-9 695:5 696:1 697:1 698:3 699:2 700:-1 
1 76:1 78:1 85:1 88:1 190:1 193:1 195:1 201:1 222:1 346:1 358:1 415:1 460:1 465:1 472:1 675:1 677:3 678:3 679:1 680:2 681:2 682:-1 683:1 684:-1 685:23.8 686:1 687:2 688:3 689:2 690:1 691:2 692:7 693:2 695:3 696:1 697:1 698:2 699:2 700:1 
1 116:1 193:1 194:1 243:1 252:1 258:1 419:1 471:1 490:1 675:1 677:3 678:3 679:1 680:2 681:2 682:-1 683:1 684:-1 685:38.3 686:1 687:3 688:3 689:3 690:1 691:3 692:8 693:1 695:4 696:1 697:1 698:4 699:2 700:-1 
1 84:1 88:1 194:1 198:1 221:1 346:1 354:1 358:1 471:1 675:1 677:3 678:3 679:1 680:2 681:2 682:-1 683:2 684:-1 685:28.2 686:1 687:3 688:4 689:3 690:1 691:3 692:9 693:2 695:2 696:1 697:1 698:4 699:2 700:1 
1 60:1 128:1 154:1 194:1 222:1 358:1 422:1 471:1 675:1 677:3 678:3 679:1 680:2 681:2 682:-1 683:1 684:-1 685:25.8 686:1 687:3 688:3 689:3 690:1 691:3 692:7 693:1 695:2 696:1 697:1 698:3 699:2 700:1 
1 24:1 30:1 48:1 88:1 118:1 245:1 275:1 294:1 300:1 330:1 358:1 387:1 388:1 515:1 675:1 677:3 678:3 679:1 680:2 681:2 682:-1 683:1 684:-1 685:19.3 686:1 687:4 688:4 689:4 690:1 691:4 692:8 693:1 695:3 696:1 697:1 698:4 699:2 700:1 
1 78:1 88:1 94:1 99:1 195:1 348:1 358:1 364:1 465:1 504:1 675:2 677:3 678:1 679:3 680:3 681:2 682:-1 683:1 684:-1 685:25.1 686:1 687:4 688:4 689:4 690:1 691:4 692:6 693:1 695:3 696:1 697:1 698:3 699:2 700:1 
1 40:1 77:1 88:1 128:1 258:1 310:1 324:1 325:1 347:1 358:1 361:1 398:1 464:1 528:1 675:1 677:3 678:3 679:1 680:2 681:2 682:-1 683:1 684:-1 685:35.7 686:1 687:4 688:4 689:3 690:1 691:3 692:10 693:2 695:2 696:1 697:2 698:4 699:2 700:-1 
1 48:1 81:1 88:1 145:1 190:1 194:1 293:1 324:1 351:1 352:1 358:1 398:1 415:1 460:1 464:1 465:1 496:1 675:1 677:3 678:3 679:1 680:2 681:2 682:-1 683:1 684:-1 685:32 686:1 687:2 688:2 689:2 690:1 691:3 692:8 693:1 695:3 696:1 697:1 698:4 699:2 700:1 
1 76:1 96:1 116:1 117:1 247:1 346:1 351:1 366:1 517:1 675:1 677:3 678:3 679:1 680:2 681:2 682:-1 683:1 684:-1 685:16.3 686:1 687:3 688:3 689:3 690:1 691:4 692:10 693:2 695:5 696:1 697:1 698:3 699:2 700:1 
1 22:1 49:1 50:1 88:1 90:1 96:1 123:1 128:1 312:1 319:1 320:1 324:1 325:1 358:1 360:1 366:1 393:1 398:1 463:1 465:1 675:6 677:3 678:3 679:2 680:5 681:1 682:50 683:1 684:-1 685:36.7 686:1 687:4 688:4 689:4 690:1 691:4 692:10 693:1 695:4 696:1 697:1 698:4 699:2 700:2 
1 76:1 81:1 201:1 249:1 320:1 351:1 355:1 358:1 364:1 516:1 519:1 675:2 677:3 678:1 679:3 680:3 681:1 682:60 683:1 684:-1 685:54.8 686:1 687:3 688:3 689:4 690:1 691:4 692:9 693:1 695:5 696:1 697:1 698:-8 699:2 700:2 
1 45:1 78:1 88:1 294:1 320:1 324:1 348:1 355:1 358:1 516:1 675:1 677:3 678:3 679:1 680:2 681:1 682:68 683:1 684:-1 685:31 686:1 687:4 688:4 689:4 690:1 691:4 692:10 693:1 695:2 696:1 697:1 698:4 699:2 700:2 
1 81:1 86:1 123:1 133:1 187:1 247:1 320:1 351:1 457:1 465:1 516:1 517:1 675:1 677:3 678:3 679:1 680:2 681:2 682:-1 683:1 684:-1 685:25.5 686:1 687:-1 688:-1 689:-1 690:-1 691:-1 692:-1 693:1 695:3 696:1 697:1 698:3 699:2 700:2 
1 76:1 79:1 86:1 88:1 91:1 94:1 194:1 325:1 361:1 366:1 465:1 675:1 677:3 678:3 679:1 680:2 681:2 682:-1 683:1 684:-1 685:24.4 686:1 687:4 688:3 689:3 690:2 691:-1 692:8 693:1 695:3 696:1 697:1 698:3 699:2 700:1 
1 222:1 485:1 492:1 675:1 677:3 678:3 679:1 680:2 681:-1 682:-1 683:1 685:-1 686:-1 687:-1 688:-1 689:-1 690:-1 691:-1 692:-1 693:-1 695:-1 696:1 697:1 698:4 699:2 700:-1 
1 23:1 85:1 124:1 201:1 293:1 386:1 394:1 471:1 485:1 675:1 677:3 678:3 679:1 680:2 681:2 682:-1 683:1 684:-1 685:23 686:1 687:4 688:4 689:4 690:2 691:-1 692:10 693:2 695:1 696:1 697:-8 698:4 699:2 700:2 
1 91:1 96:1 117:1 320:1 360:1 361:1 387:1 460:1 675:1 677:3 678:3 679:1 680:2 681:1 682:74 683:1 684:-1 685:33.9 686:1 687:3 688:3 689:3 690:1 691:3 692:9 693:1 695:3 696:1 697:1 698:2 699:2 700:1 
1 117:1 124:1 125:1 190:1 394:1 436:1 675:1 677:3 678:3 679:1 680:2 681:2 682:-1 683:1 684:-1 685:23.7 686:1 687:3 688:4 689:3 690:1 691:3 692:7 693:1 695:1 696:1 697:2 698:2 699:2 700:-1 
1 50:1 54:1 88:1 90:1 91:1 192:1 249:1 293:1 294:1 324:1 358:1 361:1 364:1 462:1 489:1 492:1 675:1 677:3 678:3 679:1 680:2 681:1 682:35 683:1 684:-1 685:26.4 686:1 687:2 688:3 689:2 690:1 691:2 692:6 693:1 695:5 696:1 697:1 698:4 699:2 700:2 
1 8:1 54:1 88:1 145:1 153:1 193:1 324:1 358:1 423:1 471:1 675:1 677:3 678:3 679:1 680:2 681:2 682:-1 683:1 684:-1 685:42.4 686:1 687:4 688:4 689:4 690:1 691:4 692:10 693:1 695:2 696:1 697:1 698:4 699:2 700:1 
1 96:1 186:1 215:1 396:1 485:1 522:1 675:1 677:3 678:3 679:1 680:2 681:2 682:-1 683:1 684:-1 685:35.1 686:1 687:3 688:3 689:3 690:1 691:3 692:8 693:1 695:3 696:1 697:1 698:4 699:2 700:-1 
1 24:1 30:1 78:1 81:1 88:1 94:1 124:1 149:1 190:1 193:1 247:1 294:1 300:1 346:1 348:1 358:1 364:1 374:1 460:1 463:1 465:1 468:1 675:1 677:3 678:3 679:1 680:2 681:2 682:-1 683:1 684:-1 685:25.8 686:1 687:4 688:4 689:4 690:1 691:4 692:9 693:1 695:2 696:1 697:2 698:4 699:2 700:1 
1 245:1 253:1 271:1 675:1 676:-1 677:3 678:3 679:1 680:2 681:-1 682:-1 683:1 685:-1 686:-1 687:-1 688:-1 689:-1 690:-1 691:-1 692:-1 693:-1 694:-1 695:-1 696:1 697:1 698:2 699:1 700:-1 
1 116:1 124:1 675:1 676:-1 677:3 678:3 679:1 680:1 681:-1 682:-1 683:1 685:-1 686:-1 687:-1 688:-1 689:-1 690:-1 691:-1 692:-1 693:-1 694:-1 695:-1 696:1 697:1 698:4 699:2 700:-1 
1 70:1 81:1 195:1 201:1 245:1 249:1 324:1 340:1 355:1 358:1 388:1 460:1 471:1 675:3 677:3 678:3 679:3 680:5 681:2 682:-1 683:1 684:-1 685:21.3 686:1 687:3 688:2 689:2 690:2 691:-1 692:7 693:1 695:5 696:1 697:2 698:4 699:1 700:-1 
1 82:1 124:1 201:1 243:1 253:1 352:1 383:1 394:1 471:1 492:1 516:1 523:1 675:1 677:3 678:3 679:1 680:2 681:-1 682:-1 683:2 685:-1 686:-1 687:-1 688:-1 689:-1 690:-1 691:-1 692:-1 693:-1 695:-1 696:1 697:1 698:3 699:2 700:-1 
1 23:1 24:1 123:1 201:1 249:1 293:1 349:1 355:1 472:1 519:1 675:1 677:3 678:3 679:1 680:2 681:2 682:-1 683:1 684:-1 685:25.6 686:1 687:4 688:4 689:4 690:1 691:-9 692:9 693:1 695:1 696:1 697:-8 698:4 699:2 700:1 
1 186:1 194:1 377:1 460:1 464:1 675:2 677:3 678:1 679:3 680:3 681:2 682:-1 683:2 684:-1 685:27.5 686:1 687:2 688:2 689:2 690:1 691:2 692:7 693:-9 695:3 696:1 697:1 698:3 699:2 700:-1 
1 96:1 131:1 205:1 282:1 307:1 334:1 361:1 366:1 422:1 475:1 510:1 519:1 675:1 677:3 678:3 679:1 680:2 681:2 682:-1 683:1 684:-1 685:25.1 686:1 687:4 688:4 689:3 690:1 691:3 692:8 693:1 695:3 696:1 697:1 698:3 699:2 700:2 
1 96:1 99:1 123:1 128:1 149:1 242:1 254:1 324:1 369:1 383:1 393:1 394:1 419:1 460:1 492:1 507:1 675:1 677:3 678:3 679:1 680:2 681:2 682:-1 683:2 684:-1 685:28.3 686:1 687:3 688:3 689:3 690:1 691:3 692:8 693:1 695:3 696:1 697:1 698:4 699:2 700:-1 
1 48:1 84:1 252:1 522:1 524:1 675:1 677:3 678:3 679:1 680:2 681:1 682:57 683:1 684:-1 685:27.4 686:1 687:4 688:4 689:4 690:1 691:3 692:8 693:1 695:3 696:1 697:1 698:4 699:2 700:1 
1 124:1 349:1 394:1 465:1 675:4 677:1 678:3 679:3 680:4 681:2 682:-1 683:1 684:-1 685:24.2 686:2 687:2 688:2 689:2 690:1 691:-9 692:5 693:1 695:2 696:2 697:-1 698:-1 699:2 700:-1 
1 25:1 54:1 60:1 85:1 117:1 135:1 188:1 295:1 312:1 355:1 374:1 377:1 675:1 677:3 678:3 679:1 680:2 681:2 682:-1 683:1 684:-1 685:25 686:1 687:3 688:3 689:3 690:1 691:3 692:8 693:1 695:4 696:1 697:1 698:3 699:2 700:2 
1 50:1 54:1 88:1 201:1 222:1 252:1 258:1 320:1 324:1 348:1 358:1 383:1 388:1 464:1 465:1 522:1 528:1 675:2 677:3 678:1 679:3 680:3 681:1 682:50 683:1 684:-1 685:31.4 686:1 687:4 688:4 689:4 690:1 691:3 692:9 693:1 695:4 696:1 697:1 698:4 699:2 700:1 
1 5:1 258:1 262:1 386:1 428:1 522:1 528:1 675:1 677:3 678:3 679:1 680:2 681:2 682:-1 683:2 684:-1 685:25.1 686:-1 687:-1 688:-1 689:-1 690:-1 691:-1 692:-1 693:-1 695:-1 696:1 697:1 698:2 699:2 700:-1 
1 80:1 113:1 139:1 192:1 228:1 241:1 350:1 462:1 464:1 466:1 490:1 498:1 675:1 677:3 678:3 679:1 680:2 681:2 682:-1 683:2 684:-1 685:28.3 686:1 687:2 688:2 689:2 690:1 691:3 692:5 693:1 695:2 696:1 697:1 698:4 699:2 700:1 
1 77:1 88:1 90:1 91:1 194:1 324:1 358:1 360:1 361:1 464:1 491:1 675:1 677:3 678:3 679:1 680:2 681:2 682:-1 683:1 684:-1 685:23.9 686:1 687:3 688:3 689:3 690:1 691:4 692:10 693:1 695:3 696:1 697:1 698:4 699:2 700:2 
1 30:1 50:1 59:1 88:1 91:1 96:1 190:1 300:1 320:1 324:1 329:1 358:1 360:1 361:1 366:1 499:1 675:1 677:3 678:3 679:1 680:2 681:1 682:77 683:1 684:-1 685:33 686:1 687:3 688:4 689:3 690:1 691:-9 692:9 693:1 695:4 696:1 697:1 698:4 699:2 700:1 
1 50:1 60:1 88:1 125:1 151:1 192:1 320:1 358:1 418:1 421:1 462:1 464:1 519:1 675:2 677:3 678:1 679:3 680:3 681:1 682:43 683:2 684:-1 685:30.7 686:2 687:4 688:4 689:3 690:1 691:3 692:8 693:1 695:4 696:1 697:2 698:-7 699:2 700:1 
1 12:1 112:1 117:1 145:1 282:1 387:1 415:1 460:1 675:1 677:3 678:3 679:1 680:2 681:2 682:-1 683:1 684:-1 685:28.7 686:1 687:3 688:2 689:1 690:1 691:3 692:3 693:1 695:5 696:1 697:1 698:2 699:2 700:-9 
1 59:1 76:1 77:1 80:1 201:1 232:1 271:1 320:1 329:1 346:1 347:1 460:1 465:1 675:1 677:3 678:3 679:1 680:2 681:1 682:43 683:2 684:-1 685:35.7 686:-9 687:-9 688:-9 689:-9 690:-9 691:-9 692:-9 693:1 695:2 696:1 697:2 698:4 699:1 700:2 
1 45:1 193:1 201:1 243:1 315:1 471:1 675:1 677:3 678:3 679:1 680:2 681:2 682:-1 683:1 684:-1 685:31.5 686:1 687:-1 688:-1 689:-1 690:-1 691:-1 692:-1 693:1 695:3 696:1 697:1 698:4 699:2 700:2 
1 186:1 281:1 355:1 464:1 504:1 675:2 677:3 678:1 679:3 680:3 681:2 682:-1 683:1 684:-1 685:33.7 686:2 687:4 688:4 689:4 690:1 691:4 692:10 693:2 695:1 696:1 697:1 698:4 699:2 700:-1 
1 106:1 192:1 376:1 462:1 471:1 675:1 677:3 678:3 679:1 680:2 681:2 682:-1 683:1 684:-1 685:35.2 686:1 687:4 688:4 689:4 690:1 691:4 692:10 693:1 695:3 696:1 697:1 698:4 699:2 700:2 
1 49:1 70:1 85:1 86:1 201:1 249:1 319:1 340:1 355:1 356:1 394:1 423:1 464:1 519:1 675:1 677:3 678:3 679:1 680:2 681:2 682:-1 683:1 684:-1 685:24.2 686:1 687:4 688:4 689:4 690:1 691:3 692:10 693:1 695:3 696:1 697:1 698:4 699:2 700:2 
1 112:1 194:1 195:1 242:1 252:1 258:1 324:1 340:1 358:1 464:1 465:1 512:1 522:1 528:1 675:4 677:1 678:3 679:3 680:4 681:2 682:-1 683:1 684:-1 685:25 686:1 687:4 688:4 689:4 690:1 691:3 692:8 693:1 695:5 696:1 697:2 698:4 699:2 700:2 
1 50:1 82:1 96:1 107:1 201:1 294:1 320:1 324:1 352:1 358:1 365:1 366:1 369:1 377:1 504:1 519:1 675:1 677:3 678:3 679:1 680:2 681:1 682:40 683:1 684:-1 685:26.3 686:1 687:4 688:3 689:3 690:1 691:4 692:10 693:1 695:4 696:1 697:1 698:4 699:2 700:2 
1 49:1 54:1 88:1 96:1 151:1 194:1 195:1 252:1 258:1 326:1 366:1 421:1 464:1 465:1 522:1 528:1 675:1 677:3 678:3 679:1 680:2 681:2 682:-1 683:1 684:-1 685:30.2 686:1 687:3 688:3 689:3 690:1 691:3 692:7 693:-9 695:3 696:1 697:1 698:2 699:2 700:1 
1 48:1 49:1 54:1 88:1 118:1 157:1 193:1 200:1 201:1 242:1 293:1 318:1 319:1 324:1 355:1 358:1 388:1 393:1 415:1 427:1 463:1 470:1 471:1 491:1 519:1 522:1 675:1 677:3 678:3 679:1 680:2 681:2 682:-1 683:1 684:-1 685:21.8 686:1 687:3 688:4 689:4 690:2 691:-1 692:8 693:2 695:4 696:1 697:1 698:4 699:2 700:-1 
1 91:1 150:1 190:1 193:1 222:1 314:1 361:1 403:1 413:1 460:1 465:1 516:1 675:1 677:3 678:3 679:1 680:2 681:2 682:-1 683:1 684:-1 685:28.2 686:1 687:4 688:4 689:4 690:1 691:4 692:10 693:1 695:4 696:1 697:1 698:4 699:2 700:1 
1 253:1 258:1 528:1 675:2 677:3 678:1 679:3 680:1 681:-1 682:-1 683:2 684:3 685:-1 686:-1 687:-1 688:-1 689:-1 690:-1 691:-1 692:-1 693:-1 695:-1 696:1 697:1 698:3 699:2 700:-1 
1 11:1 24:1 25:1 88:1 190:1 193:1 229:1 244:1 249:1 285:1 294:1 351:1 354:1 358:1 405:1 460:1 463:1 514:1 519:1 675:1 677:3 678:3 679:1 680:2 681:2 682:-1 683:1 684:-1 685:25.8 686:1 687:3 688:3 689:2 690:2 691:-1 692:8 693:1 695:4 696:2 697:-1 698:-1 699:2 700:-1 
1 72:1 73:1 77:1 81:1 116:1 124:1 206:1 243:1 249:1 342:1 343:1 351:1 354:1 476:1 477:1 519:1 675:4 677:1 678:3 679:3 680:4 681:-1 682:-1 683:2 684:99 685:-1 686:-1 687:-1 688:-1 689:-1 690:-1 691:-1 692:-1 693:-1 695:-1 696:1 697:1 698:4 699:2 700:-1 
1 53:1 81:1 320:1 321:1 348:1 675:2 677:3 678:1 679:3 680:3 681:1 682:32 683:1 684:-1 685:33.1 686:-9 687:1 688:2 689:2 690:1 691:2 692:7 693:2 695:4 696:1 697:1 698:4 699:2 700:1 
1 24:1 187:1 190:1 247:1 294:1 346:1 361:1 460:1 517:1 675:1 677:3 678:3 679:1 680:2 681:2 682:-1 683:1 684:-1 685:25.5 686:1 687:4 688:4 689:4 690:1 691:4 692:9 693:1 695:3 696:1 697:2 698:2 699:2 700:1 
1 30:1 77:1 79:1 88:1 91:1 99:1 190:1 195:1 201:1 248:1 300:1 349:1 351:1 358:1 361:1 366:1 393:1 423:1 460:1 463:1 465:1 471:1 518:1 675:1 677:3 678:3 679:1 680:2 681:2 682:-1 683:1 684:-1 685:25.8 686:1 687:3 688:3 689:3 690:1 691:3 692:6 693:1 695:4 696:2 697:-1 698:-1 699:2 700:1 
1 25:1 50:1 59:1 88:1 118:1 157:1 193:1 295:1 309:1 320:1 324:1 358:1 388:1 463:1 500:1 675:2 677:3 678:1 679:3 680:3 681:1 682:52 683:1 684:-1 685:39.1 686:1 687:3 688:4 689:3 690:1 691:3 692:8 693:1 695:4 696:1 697:1 698:4 699:2 700:1 
1 8:1 117:1 161:1 258:1 522:1 528:1 675:2 677:3 678:1 679:3 680:3 681:2 682:-1 683:1 684:-1 685:20.5 686:1 687:4 688:3 689:3 690:1 691:4 692:5 693:2 695:4 696:1 697:2 698:3 699:2 700:-1 
1 54:1 60:1 80:1 88:1 99:1 128:1 193:1 195:1 200:1 201:1 228:1 258:1 330:1 350:1 432:1 465:1 471:1 528:1 675:2 677:3 678:1 679:3 680:3 681:2 682:-1 683:1 684:-1 685:31.9 686:1 687:2 688:2 689:2 690:1 691:3 692:6 693:-9 695:-9 696:1 697:1 698:3 699:2 700:1 
1 30:1 54:1 78:1 86:1 88:1 98:1 118:1 193:1 300:1 324:1 330:1 356:1 358:1 361:1 368:1 369:1 387:1 388:1 394:1 398:1 675:2 677:3 678:1 679:3 680:3 681:2 682:-1 683:2 684:-1 685:32.5 686:1 687:4 688:3 689:4 690:1 691:4 692:9 693:1 695:3 696:1 697:1 698:3 699:1 700:1 
1 34:1 90:1 128:1 192:1 220:1 221:1 223:1 234:1 305:1 324:1 354:1 360:1 398:1 464:1 675:1 677:3 678:3 679:1 680:2 681:2 682:-1 683:1 684:-1 685:31.3 686:1 687:4 688:3 689:4 690:1 691:3 692:9 693:1 695:3 696:1 697:1 698:4 699:2 700:1 
1 45:1 59:1 79:1 83:1 85:1 134:1 222:1 258:1 315:1 355:1 396:1 404:1 407:1 457:1 492:1 496:1 519:1 528:1 675:1 677:3 678:3 679:1 680:2 681:2 682:-1 683:1 684:-1 685:54.9 686:1 687:4 688:4 689:3 690:1 691:4 692:10 693:1 695:5 696:1 697:1 698:3 699:2 700:-1 
1 147:1 378:1 382:1 418:1 675:2 677:3 678:1 679:3 680:3 681:2 682:-1 683:1 684:-1 685:26.1 686:1 687:-1 688:-1 689:-1 690:-1 691:-1 692:-1 693:1 695:3 696:2 697:-1 698:-1 699:2 700:-1 
1 24:1 45:1 81:1 85:1 124:1 193:1 194:1 243:1 244:1 341:1 388:1 394:1 675:1 677:3 678:3 679:1 680:2 681:2 682:-1 683:1 684:-1 685:26.9 686:1 687:4 688:4 689:3 690:1 691:4 692:8 693:1 695:2 696:1 697:1 698:4 699:2 700:1 
1 77:1 86:1 117:1 123:1 124:1 190:1 194:1 196:1 347:1 351:1 356:1 419:1 460:1 464:1 675:1 677:3 678:3 679:1 680:2 681:2 682:-1 683:1 684:-1 685:28.8 686:1 687:4 688:4 689:3 690:1 691:4 692:8 693:1 695:2 696:1 697:1 698:4 699:2 700:2 
1 76:1 84:1 88:1 112:1 123:1 193:1 318:1 351:1 354:1 358:1 361:1 465:1 466:1 504:1 675:1 677:3 678:3 679:1 680:2 681:2 682:-1 683:1 684:-1 685:20 686:1 687:3 688:4 689:3 690:1 691:3 692:9 693:1 695:2 696:1 697:1 698:-8 699:2 700:1 
1 50:1 54:1 85:1 88:1 99:1 252:1 320:1 347:1 358:1 369:1 513:1 515:1 522:1 541:1 675:1 677:3 678:3 679:1 680:2 681:1 682:50 683:2 684:-1 685:36.3 686:1 687:3 688:3 689:3 690:1 691:4 692:9 693:1 695:5 696:1 697:1 698:1 699:2 700:-1 
1 79:1 105:1 116:1 139:1 163:1 349:1 375:1 386:1 433:1 516:1 675:2 677:3 678:1 679:3 680:3 681:2 682:-1 683:1 684:-1 685:35.7 686:1 687:4 688:4 689:4 690:2 691:-1 692:8 693:1 695:3 696:1 697:1 698:3 699:2 700:1 
1 5:1 50:1 54:1 88:1 90:1 91:1 187:1 190:1 243:1 320:1 324:1 358:1 361:1 457:1 458:1 460:1 513:1 675:1 677:3 678:3 679:1 680:2 681:2 682:-1 683:1 684:-1 685:31.5 686:1 687:4 688:4 689:4 690:1 691:4 692:9 693:1 695:3 696:1 697:1 698:4 699:2 700:1 
1 84:1 88:1 91:1 117:1 118:1 133:1 151:1 193:1 346:1 355:1 463:1 471:1 675:1 677:3 678:3 679:1 680:2 681:2 682:-1 683:1 684:-1 685:33.6 686:1 687:4 688:4 689:4 690:1 691:3 692:7 693:1 695:3 696:1 697:1 698:4 699:2 700:2 
1 50:1 73:1 88:1 91:1 98:1 147:1 320:1 343:1 360:1 361:1 417:1 675:2 677:3 678:1 679:3 680:3 681:1 682:40 683:2 684:-1 685:29.2 686:1 687:4 688:4 689:4 690:2 691:-1 692:-9 693:1 695:5 696:1 697:2 698:3 699:2 700:2 
1 71:1 85:1 124:1 249:1 252:1 258:1 341:1 355:1 463:1 528:1 675:1 677:3 678:3 679:1 680:2 681:2 682:-1 683:2 684:-1 685:34.2 686:1 687:3 688:4 689:3 690:1 691:4 692:10 693:1 695:4 696:1 697:1 698:3 699:2 700:1 
1 50:1 195:1 258:1 320:1 324:1 358:1 464:1 465:1 515:1 528:1 675:1 677:3 678:3 679:1 680:2 681:1 682:43 683:2 684:-1 685:32.2 686:1 687:2 688:2 689:2 690:1 691:2 692:8 693:1 695:5 696:1 697:1 698:4 699:2 700:-1 
1 96:1 194:1 315:1 325:1 358:1 361:1 369:1 675:1 677:3 678:3 679:1 680:2 681:2 682:-1 683:2 684:-1 685:28.7 686:1 687:-1 688:-1 689:-1 690:-1 691:-1 692:-1 693:1 695:2 696:1 697:2 698:-8 699:2 700:2 
1 74:1 88:1 91:1 106:1 117:1 118:1 124:1 249:1 344:1 376:1 388:1 394:1 421:1 460:1 519:1 675:1 677:3 678:3 679:1 680:1 681:2 682:-1 683:2 684:-1 685:39 686:1 687:4 688:4 689:2 690:1 691:4 692:10 693:1 695:3 696:1 697:1 698:3 699:2 700:-1 
1 5:1 11:1 65:1 86:1 99:1 200:1 228:1 245:1 249:1 281:1 355:1 466:1 470:1 516:1 675:1 677:3 678:3 679:1 680:2 681:2 682:-1 683:1 684:-1 685:32.3 686:1 687:3 688:4 689:3 690:1 691:3 692:8 693:1 695:3 696:1 697:1 698:4 699:2 700:-1 
1 50:1 54:1 88:1 90:1 91:1 99:1 100:1 117:1 320:1 324:1 326:1 358:1 360:1 361:1 369:1 370:1 394:1 398:1 675:2 677:3 678:1 679:3 680:3 681:2 682:-1 683:1 684:-1 685:28.6 686:1 687:-1 688:-1 689:-1 690:-1 691:-1 692:-1 693:-9 695:3 696:1 697:1 698:4 699:2 700:1 
1 49:1 76:1 79:1 86:1 88:1 203:1 278:1 319:1 320:1 324:1 346:1 356:1 358:1 364:1 473:1 675:2 677:3 678:1 679:3 680:3 681:1 682:51 683:1 684:-1 685:33.2 686:1 687:3 688:3 689:3 690:1 691:3 692:9 693:1 695:2 696:1 697:1 698:4 699:2 700:2 
1 24:1 50:1 76:1 88:1 294:1 320:1 324:1 346:1 358:1 463:1 675:1 677:3 678:3 679:1 680:2 681:1 682:69 683:2 684:-1 685:22.6 686:1 687:4 688:3 689:4 690:1 691:4 692:10 693:1 695:3 696:1 697:1 698:4 699:2 700:2 
1 77:1 88:1 96:1 150:1 188:1 193:1 198:1 229:1 246:1 258:1 324:1 347:1 366:1 420:1 460:1 463:1 465:1 516:1 528:1 675:1 677:3 678:3 679:1 680:2 681:1 682:81 683:1 684:-1 685:31.8 686:1 687:4 688:4 689:4 690:2 691:-1 692:8 693:1 695:2 696:1 697:1 698:3 699:2 700:2 
1 77:1 94:1 96:1 149:1 193:1 236:1 249:1 364:1 366:1 419:1 519:1 675:1 677:3 678:3 679:1 680:2 681:2 682:-1 683:1 684:-1 685:18.8 686:1 687:3 688:4 689:3 690:1 691:3 692:9 693:1 695:4 696:1 697:1 698:1 699:2 700:-1 
1 9:1 50:1 59:1 88:1 194:1 248:1 275:1 320:1 329:1 412:1 415:1 471:1 498:1 518:1 675:1 677:3 678:3 679:1 680:2 681:1 682:73 683:1 684:-1 685:24.7 686:1 687:4 688:4 689:4 690:1 691:4 692:10 693:1 695:3 696:1 697:1 698:4 699:2 700:1 
1 94:1 223:1 363:1 519:1 675:1 677:3 678:3 679:1 680:2 681:2 682:-1 683:1 684:-1 685:39 686:1 687:3 688:3 689:3 690:1 691:4 692:7 693:-9 695:-9 696:1 697:1 698:4 699:2 700:-1 
1 74:1 194:1 464:1 515:1 528:1 675:1 677:3 678:3 679:1 680:2 681:2 682:-1 683:1 684:-1 685:21.8 686:1 687:3 688:2 689:2 690:1 691:3 692:5 693:1 695:5 696:1 697:1 698:4 699:1 700:-1 
1 45:1 50:1 205:1 218:1 387:1 489:1 490:1 675:1 677:3 678:3 679:1 680:2 681:1 682:17 683:1 684:-1 685:39.8 686:1 687:4 688:4 689:4 690:1 691:4 692:9 693:1 695:4 696:1 697:1 698:4 699:2 700:-1 
1 80:1 86:1 117:1 118:1 151:1 192:1 320:1 421:1 462:1 519:1 675:2 677:3 678:1 679:3 680:3 681:1 682:56 683:1 684:-1 685:35.4 686:1 687:4 688:4 689:4 690:1 691:3 692:10 693:1 695:4 696:1 697:1 698:4 699:2 700:1 
1 45:1 85:1 99:1 324:1 355:1 369:1 516:1 675:1 677:3 678:3 679:1 680:2 681:2 682:-1 683:1 684:-1 685:19.9 686:1 687:3 688:4 689:3 690:1 691:3 692:9 693:1 695:4 696:1 697:1 698:-8 699:2 700:1 
1 50:1 76:1 85:1 123:1 246:1 320:1 351:1 355:1 675:2 677:3 678:1 679:3 680:3 681:1 682:55 683:1 684:-1 685:33.9 686:1 687:4 688:3 689:3 690:1 691:3 692:8 693:1 695:3 696:1 697:1 698:-8 699:2 700:1 
1 8:1 48:1 49:1 54:1 83:1 88:1 124:1 131:1 194:1 201:1 246:1 319:1 386:1 396:1 460:1 464:1 471:1 516:1 517:1 675:2 677:3 678:1 679:3 680:3 681:2 682:-1 683:2 684:-1 685:31.6 686:1 687:4 688:3 689:3 690:1 691:3 692:10 693:1 695:3 696:1 697:1 698:4 699:2 700:2 
1 69:1 88:1 195:1 201:1 318:1 339:1 344:1 358:1 404:1 414:1 422:1 423:1 464:1 465:1 471:1 522:1 675:1 677:3 678:3 679:1 680:2 681:2 682:-1 683:1 684:-1 685:21.9 686:1 687:3 688:3 689:3 690:1 691:3 692:7 693:1 695:4 696:1 697:1 698:-8 699:2 700:2 
1 50:1 88:1 117:1 192:1 194:1 320:1 358:1 388:1 462:1 464:1 675:1 677:3 678:3 679:1 680:1 681:1 682:32 683:2 684:-1 685:44.6 686:1 687:3 688:3 689:3 690:1 691:3 692:1 693:1 695:4 696:1 697:1 698:4 699:2 700:-1 
1 24:1 74:1 194:1 344:1 460:1 464:1 465:1 675:1 677:3 678:3 679:1 680:2 681:2 682:-1 683:1 684:-1 685:16.9 686:1 687:4 688:4 689:4 690:1 691:4 692:8 693:1 695:4 696:2 697:-1 698:-1 699:2 700:-1 
1 55:1 74:1 104:1 118:1 128:1 145:1 149:1 219:1 222:1 344:1 388:1 393:1 405:1 419:1 464:1 465:1 499:1 528:1 675:1 677:3 678:3 679:1 680:2 681:2 682:-1 683:2 684:-1 685:31.6 686:1 687:4 688:4 689:4 690:1 691:4 692:10 693:1 695:5 696:1 697:1 698:4 699:2 700:2 
1 49:1 116:1 118:1 124:1 319:1 394:1 460:1 466:1 472:1 513:1 675:1 677:3 678:3 679:1 680:2 681:2 682:-1 683:1 684:-1 685:22.3 686:1 687:3 688:3 689:3 690:1 691:3 692:9 693:1 695:2 696:1 697:1 698:-8 699:2 700:1 
1 116:1 193:1 201:1 222:1 229:1 324:1 358:1 361:1 387:1 463:1 492:1 499:1 675:2 677:3 678:1 679:3 680:3 681:2 682:-1 683:1 684:-1 685:27.5 686:1 687:4 688:3 689:2 690:1 691:4 692:7 693:1 695:4 696:1 697:1 698:2 699:2 700:2 
1 88:1 193:1 258:1 358:1 394:1 463:1 528:1 675:1 677:3 678:3 679:1 680:1 681:2 682:-1 683:1 684:-1 685:31.4 686:1 687:3 688:3 689:3 690:1 691:4 692:9 693:2 695:4 696:1 697:1 698:4 699:2 700:-1 
1 82:1 118:1 220:1 248:1 253:1 386:1 388:1 393:1 394:1 415:1 460:1 471:1 511:1 522:1 523:1 528:1 675:1 677:3 678:3 679:1 680:2 681:-1 682:-1 683:2 684:2 685:-1 686:-1 687:-1 688:-1 689:-1 690:-1 691:-1 692:-1 693:-1 695:-1 696:1 697:1 698:4 699:2 700:-1 
1 54:1 55:1 85:1 88:1 192:1 195:1 201:1 324:1 325:1 358:1 383:1 465:1 515:1 522:1 675:1 677:3 678:3 679:1 680:1 681:2 682:-1 683:1 684:-1 685:34.7 686:1 687:3 688:3 689:3 690:1 691:3 692:8 693:1 695:4 696:1 697:1 698:4 699:2 700:-1 
1 45:1 81:1 84:1 96:1 149:1 190:1 249:1 315:1 319:1 349:1 366:1 383:1 465:1 511:1 519:1 675:1 677:3 678:3 679:1 680:1 681:2 682:-1 683:1 684:-1 685:21.7 686:1 687:-9 688:-9 689:-9 690:-9 691:-9 692:-9 693:1 695:2 696:1 697:1 698:-8 699:2 700:2 
1 50:1 76:1 77:1 85:1 88:1 201:1 319:1 320:1 346:1 353:1 354:1 355:1 460:1 471:1 675:1 677:3 678:3 679:1 680:2 681:1 682:50 683:1 684:-1 685:30.3 686:1 687:3 688:3 689:3 690:1 691:3 692:7 693:1 695:3 696:1 697:1 698:2 699:2 700:1 
1 79:1 94:1 194:1 201:1 223:1 234:1 320:1 324:1 358:1 361:1 464:1 465:1 471:1 504:1 675:2 677:3 678:1 679:3 680:3 681:1 682:45 683:1 684:-1 685:29 686:1 687:4 688:3 689:3 690:1 691:3 692:7 693:1 695:4 696:1 697:2 698:-8 699:2 700:-1 
1 194:1 195:1 465:1 471:1 675:1 677:3 678:3 679:1 680:2 681:2 682:-1 683:1 684:-1 685:25.1 686:1 687:4 688:4 689:4 690:1 691:4 692:10 693:1 695:4 696:1 697:1 698:4 699:2 700:2 
1 50:1 54:1 88:1 117:1 131:1 382:1 675:2 677:3 678:1 679:3 680:3 681:1 682:64 683:1 684:-1 685:26.9 686:1 687:4 688:4 689:4 690:2 691:-1 692:7 693:2 695:5 696:1 697:1 698:4 699:1 700:2 
1 54:1 78:1 348:1 513:1 675:4 677:1 678:3 679:3 680:4 681:2 682:-1 683:2 684:-1 685:21.9 686:1 687:4 688:4 689:4 690:2 691:-1 692:9 693:2 695:1 696:1 697:2 698:4 699:2 700:1 
1 50:1 78:1 91:1 325:1 355:1 361:1 421:1 462:1 464:1 491:1 499:1 675:5 677:3 678:3 679:3 680:5 681:1 682:35 683:1 684:-1 685:26.6 686:2 687:4 688:4 689:4 690:1 691:4 692:10 693:1 695:4 696:1 697:1 698:3 699:2 700:2 
1 55:1 118:1 145:1 188:1 190:1 194:1 201:1 241:1 323:1 387:1 415:1 460:1 511:1 513:1 523:1 675:2 677:3 678:1 679:3 680:3 681:2 682:-1 683:1 684:-1 685:18.6 686:1 687:-1 688:-1 689:-1 690:-1 691:-1 692:-1 693:1 695:2 696:1 697:1 698:4 699:2 700:-1 
1 71:1 85:1 341:1 343:1 355:1 401:1 519:1 522:1 528:1 675:1 677:3 678:3 679:1 680:2 681:2 682:-1 683:1 684:-1 685:38.6 686:1 687:3 688:3 689:2 690:1 691:2 692:7 693:1 695:4 696:1 697:1 698:4 699:2 700:2 
1 40:1 50:1 60:1 82:1 88:1 116:1 245:1 249:1 310:1 320:1 324:1 358:1 386:1 463:1 464:1 513:1 675:1 677:3 678:3 679:1 680:2 681:1 682:50 683:1 684:-1 685:27.4 686:1 687:-1 688:-1 689:-1 690:-1 691:-1 692:-1 693:-9 695:1 696:1 697:1 698:4 699:2 700:1 
1 54:1 77:1 88:1 90:1 106:1 195:1 300:1 324:1 358:1 360:1 457:1 465:1 519:1 675:1 677:3 678:3 679:1 680:2 681:2 682:-1 683:1 684:-1 685:31.2 686:1 687:3 688:4 689:4 690:1 691:4 692:9 693:1 695:3 696:1 697:1 698:4 699:2 700:1 
1 76:1 81:1 195:1 241:1 351:1 354:1 405:1 464:1 465:1 511:1 519:1 675:1 677:3 678:3 679:1 680:2 681:2 682:-1 683:1 684:-1 685:26.5 686:1 687:3 688:3 689:4 690:1 691:3 692:10 693:2 695:3 696:1 697:1 698:4 699:2 700:1 
1 50:1 112:1 117:1 139:1 141:1 364:1 403:1 409:1 411:1 675:1 677:3 678:3 679:1 680:2 681:1 682:48 683:2 684:-1 685:31.8 686:1 687:4 688:4 689:3 690:1 691:4 692:10 693:1 695:3 696:1 697:1 698:4 699:2 700:1 
1 86:1 116:1 252:1 356:1 387:1 388:1 463:1 522:1 675:1 677:3 678:3 679:1 680:1 681:2 682:-1 683:1 684:-1 685:23 686:1 687:4 688:4 689:3 690:1 691:3 692:9 693:1 695:4 696:1 697:1 698:4 699:2 700:-1 
1 88:1 192:1 198:1 249:1 358:1 386:1 462:1 519:1 675:1 677:3 678:3 679:1 680:2 681:2 682:-1 683:1 684:-1 685:18.9 686:1 687:4 688:4 689:3 690:1 691:4 692:8 693:1 695:3 696:1 697:1 698:-8 699:2 700:1 
1 15:1 49:1 81:1 88:1 151:1 194:1 285:1 319:1 355:1 364:1 460:1 464:1 471:1 675:1 677:3 678:3 679:1 680:2 681:2 682:-1 683:1 684:-1 685:34 686:1 687:3 688:3 689:2 690:1 691:3 692:9 693:1 695:4 696:1 697:1 698:4 699:2 700:2 
1 50:1 88:1 190:1 258:1 320:1 358:1 460:1 518:1 528:1 675:1 677:3 678:3 679:1 680:2 681:1 682:-8 683:1 684:-1 685:27.5 686:-9 687:-1 688:-1 689:-1 690:-1 691:-1 692:-1 693:1 695:3 696:1 697:1 698:3 699:2 700:2 
1 24:1 50:1 85:1 193:1 194:1 293:1 294:1 320:1 361:1 463:1 464:1 675:1 677:3 678:3 679:1 680:2 681:1 682:76 683:1 684:-1 685:31.1 686:-1 687:-1 688:-1 689:-1 690:-1 691:-1 692:-1 693:-1 695:-1 696:1 697:1 698:4 699:2 700:1 
1 28:1 83:1 299:1 324:1 358:1 675:1 677:3 678:3 679:1 680:2 681:2 682:-1 683:1 684:-1 685:25.7 686:1 687:4 688:4 689:4 690:1 691:4 692:10 693:1 695:3 696:1 697:1 698:4 699:2 700:2 
1 25:1 50:1 88:1 201:1 315:1 319:1 346:1 432:1 460:1 675:1 677:3 678:3 679:1 680:2 681:1 682:54 683:1 684:-1 685:32.9 686:1 687:4 688:4 689:4 690:1 691:4 692:10 693:1 695:2 696:1 697:1 698:4 699:2 700:1 
1 249:1 252:1 329:1 463:1 464:1 675:1 677:3 678:3 679:1 680:2 681:2 682:-1 683:1 684:-1 685:27.5 686:1 687:3 688:3 689:2 690:1 691:3 692:6 693:1 695:2 696:1 697:1 698:-8 699:2 700:-1 
1 24:1 54:1 60:1 88:1 117:1 125:1 202:1 294:1 324:1 330:1 335:1 346:1 349:1 358:1 387:1 472:1 499:1 516:1 675:1 677:3 678:3 679:1 680:2 681:2 682:-1 683:1 684:-1 685:24.5 686:1 687:4 688:4 689:4 690:1 691:4 692:10 693:1 695:3 696:1 697:1 698:3 699:2 700:1 
1 50:1 88:1 92:1 117:1 222:1 246:1 320:1 358:1 361:1 362:1 398:1 463:1 492:1 516:1 519:1 675:2 677:3 678:1 679:3 680:3 681:1 682:70 683:1 684:-1 685:32.4 686:1 687:4 688:4 689:3 690:1 691:4 692:7 693:1 695:4 696:1 697:1 698:3 699:1 700:1 
1 5:1 24:1 54:1 74:1 116:1 165:1 294:1 324:1 344:1 351:1 460:1 464:1 465:1 475:1 513:1 675:1 677:3 678:3 679:1 680:2 681:2 682:-1 683:1 684:-1 685:35.5 686:2 687:3 688:4 689:3 690:1 691:4 692:7 693:1 695:4 696:1 697:1 698:3 699:2 700:2 
1 50:1 54:1 88:1 235:1 258:1 320:1 324:1 358:1 464:1 471:1 492:1 675:1 677:3 678:3 679:1 680:1 681:1 682:61 683:1 684:-1 685:28.3 686:1 687:4 688:4 689:3 690:1 691:3 692:10 693:1 695:4 696:1 697:1 698:4 699:2 700:2 
1 40:1 50:1 131:1 145:1 187:1 195:1 246:1 310:1 320:1 465:1 675:1 677:3 678:3 679:1 680:2 681:1 682:12 683:1 684:-1 685:23.1 686:1 687:4 688:4 689:4 690:1 691:4 692:10 693:1 695:4 696:1 697:1 698:4 699:2 700:-1 
1 24:1 50:1 79:1 88:1 123:1 145:1 320:1 321:1 358:1 415:1 464:1 489:1 495:1 675:1 677:3 678:3 679:1 680:2 681:1 682:45 683:1 684:-1 685:31.2 686:1 687:4 688:3 689:3 690:1 691:3 692:9 693:1 695:3 696:1 697:1 698:4 699:2 700:1 
1 245:1 258:1 260:1 515:1 528:1 530:1 675:1 677:3 678:3 679:1 680:2 681:2 682:-1 683:1 684:-1 685:23.6 686:1 687:3 688:4 689:4 690:1 691:4 692:9 693:1 695:3 696:1 697:1 698:4 699:2 700:-1 
1 54:1 82:1 117:1 152:1 153:1 258:1 260:1 324:1 344:1 387:1 398:1 471:1 528:1 530:1 675:1 677:3 678:3 679:1 680:2 681:2 682:-1 683:1 684:-1 685:34.9 686:1 687:4 688:4 689:3 690:1 691:3 692:10 693:1 695:4 696:1 697:1 698:4 699:2 700:-1 
1 123:1 145:1 194:1 201:1 464:1 471:1 522:1 675:1 677:3 678:3 679:1 680:1 681:2 682:-1 683:1 684:-1 685:23.6 686:1 687:3 688:4 689:3 690:1 691:3 692:8 693:1 695:1 696:1 697:1 698:4 699:2 700:-1 
1 252:1 253:1 256:1 258:1 413:1 460:1 510:1 522:1 523:1 526:1 528:1 675:6 677:3 678:3 679:2 680:1 681:2 682:-1 683:1 684:-1 685:29.3 686:1 687:3 688:4 689:4 690:1 691:3 692:8 693:1 695:3 696:2 697:-1 698:-1 699:2 700:-1 
1 82:1 141:1 190:1 208:1 243:1 246:1 506:1 514:1 516:1 675:6 677:2 678:3 679:2 680:5 681:-1 682:-1 683:2 684:-1 685:-1 686:-1 687:-1 688:-1 689:-1 690:-1 691:-1 692:-1 693:-1 695:-1 696:1 697:2 698:3 699:2 700:-1 
1 88:1 195:1 401:1 497:1 675:1 677:3 678:3 679:1 680:2 681:2 682:-1 683:2 684:-1 685:32.5 686:1 687:3 688:3 689:3 690:1 691:4 692:8 693:1 695:5 696:1 697:1 698:4 699:2 700:-1 
1 74:1 88:1 186:1 194:1 295:1 456:1 460:1 498:1 675:2 677:3 678:1 679:3 680:3 681:2 682:-1 683:1 684:-1 685:41.6 686:1 687:4 688:3 689:4 690:1 691:3 692:7 693:1 695:4 696:1 697:1 698:-8 699:2 700:-1 
1 145:1 195:1 249:1 252:1 258:1 401:1 464:1 465:1 471:1 522:1 528:1 675:1 677:3 678:3 679:1 680:2 681:2 682:-1 683:2 684:-1 685:42.6 686:1 687:3 688:2 689:2 690:1 691:4 692:7 693:1 695:4 696:1 697:1 698:3 699:2 700:-1 
1 118:1 194:1 200:1 201:1 358:1 378:1 387:1 388:1 464:1 470:1 471:1 528:1 675:1 677:3 678:3 679:1 680:1 681:2 682:-1 683:2 684:-1 685:43.6 686:1 687:4 688:4 689:4 690:1 691:4 692:8 693:1 695:4 696:-7 697:-1 698:-1 699:2 700:-1 
1 5:1 49:1 81:1 88:1 153:1 194:1 319:1 354:1 358:1 423:1 464:1 519:1 675:1 677:3 678:3 679:1 680:2 681:2 682:-1 683:2 684:-1 685:22.3 686:1 687:3 688:4 689:4 690:1 691:3 692:9 693:2 695:2 696:1 697:1 698:4 699:2 700:1 
1 50:1 86:1 91:1 96:1 112:1 116:1 117:1 123:1 190:1 273:1 320:1 324:1 335:1 354:1 361:1 366:1 376:1 386:1 387:1 464:1 519:1 675:1 677:3 678:3 679:1 680:2 681:1 682:60 683:1 684:-1 685:-1 686:1 687:4 688:4 689:4 690:1 691:4 692:10 693:2 695:4 696:1 697:1 698:4 699:2 700:1 
1 77:1 88:1 152:1 190:1 192:1 222:1 347:1 430:1 460:1 463:1 675:1 677:3 678:3 679:1 680:2 681:2 682:-1 683:1 684:-1 685:27.8 686:1 687:3 688:3 689:4 690:1 691:3 692:9 693:1 695:3 696:1 697:1 698:4 699:2 700:1 
1 49:1 86:1 118:1 192:1 193:1 196:1 200:1 201:1 319:1 330:1 356:1 386:1 388:1 462:1 463:1 466:1 470:1 675:6 677:3 678:2 679:2 680:1 681:2 682:-1 683:1 684:-1 685:17.2 686:1 687:2 688:2 689:2 690:1 691:3 692:10 693:1 695:3 696:1 697:1 698:4 699:2 700:2 
1 76:1 85:1 96:1 116:1 248:1 258:1 330:1 346:1 354:1 355:1 358:1 360:1 361:1 366:1 528:1 675:1 677:3 678:3 679:1 680:2 681:2 682:-1 683:1 684:-1 685:21.7 686:2 687:4 688:4 689:4 690:1 691:4 692:10 693:1 695:3 696:1 697:1 698:4 699:2 700:1 
1 50:1 320:1 349:1 382:1 494:1 499:1 675:1 677:3 678:3 679:1 680:2 681:1 682:40 683:1 684:-1 685:22.5 686:2 687:3 688:-9 689:1 690:2 691:-1 692:8 693:2 695:2 696:1 697:1 698:4 699:2 700:2 
1 73:1 88:1 118:1 252:1 343:1 349:1 358:1 387:1 388:1 675:2 677:3 678:1 679:3 680:3 681:2 682:-1 683:1 684:-1 685:26.1 686:1 687:3 688:2 689:2 690:1 691:-9 692:7 693:1 695:3 696:1 697:1 698:4 699:2 700:-1 
1 91:1 96:1 196:1 300:1 358:1 361:1 366:1 387:1 460:1 466:1 675:1 677:3 678:3 679:1 680:2 681:2 682:-1 683:1 684:-1 685:25.9 686:1 687:3 688:4 689:3 690:1 691:4 692:9 693:1 695:4 696:1 697:1 698:4 699:2 700:1 
1 45:1 88:1 94:1 117:1 194:1 195:1 252:1 253:1 258:1 324:1 358:1 364:1 387:1 398:1 465:1 522:1 523:1 528:1 541:1 675:1 677:3 678:3 679:1 680:2 681:2 682:-1 683:2 684:-1 685:41.6 686:-1 687:-1 688:-1 689:-1 690:-1 691:-1 692:-1 693:-1 695:-1 696:1 697:1 698:4 699:1 700:-1 
1 45:1 49:1 54:1 128:1 149:1 195:1 249:1 252:1 315:1 319:1 324:1 356:1 361:1 386:1 394:1 397:1 398:1 419:1 464:1 519:1 675:1 677:3 678:3 679:1 680:2 681:2 682:-1 683:1 684:-1 685:25.7 686:1 687:3 688:2 689:4 690:1 691:-9 692:5 693:-9 695:-9 696:1 697:1 698:-8 699:2 700:2 
1 60:1 88:1 94:1 128:1 141:1 151:1 193:1 320:1 358:1 364:1 411:1 421:1 463:1 675:1 677:3 678:3 679:1 680:1 681:1 682:29 683:1 684:-1 685:32.4 686:1 687:4 688:4 689:4 690:1 691:3 692:10 693:1 695:5 696:1 697:1 698:4 699:2 700:-1 
1 74:1 124:1 344:1 388:1 394:1 401:1 675:4 677:1 678:3 679:3 680:4 681:2 682:-1 683:2 684:-1 685:19.5 686:1 687:4 688:4 689:3 690:1 691:4 692:9 693:1 695:3 696:1 697:1 698:3 699:2 700:-1 
1 54:1 88:1 194:1 198:1 252:1 258:1 324:1 355:1 358:1 464:1 468:1 519:1 522:1 528:1 675:2 677:3 678:1 679:3 680:3 681:2 682:-1 683:1 684:-1 685:39.5 686:1 687:1 688:2 689:2 690:1 691:4 692:3 693:2 695:5 696:1 697:2 698:1 699:1 700:-9 
1 20:1 290:1 324:1 349:1 358:1 360:1 361:1 471:1 675:1 677:3 678:3 679:1 680:2 681:2 682:-1 683:1 684:-1 685:27.5 686:1 687:4 688:4 689:4 690:1 691:4 692:8 693:2 695:3 696:1 697:1 698:4 699:2 700:1 
1 193:1 431:1 463:1 471:1 675:2 677:3 678:1 679:3 680:3 681:2 682:-1 683:1 684:-1 685:22 686:1 687:3 688:3 689:2 690:2 691:-1 692:7 693:1 695:2 696:1 697:2 698:1 699:2 700:-1 
1 49:1 194:1 196:1 247:1 464:1 471:1 503:1 675:1 677:3 678:3 679:1 680:2 681:2 682:-1 683:2 684:-1 685:23 686:1 687:4 688:3 689:4 690:1 691:4 692:10 693:1 695:2 696:1 697:1 698:4 699:2 700:1 
1 123:1 234:1 519:1 675:1 677:3 678:3 679:1 680:2 681:2 682:-1 683:1 684:-1 685:22.3 686:1 687:4 688:4 689:4 690:1 691:4 692:9 693:1 695:2 696:2 697:-1 698:-1 699:2 700:-1 
1 195:1 200:1 201:1 202:1 252:1 465:1 470:1 471:1 472:1 522:1 675:1 677:3 678:3 679:1 680:2 681:2 682:-1 683:1 684:-1 685:23 686:1 687:3 688:4 689:3 690:1 691:4 692:9 693:1 695:4 696:1 697:1 698:4 699:2 700:2 
1 186:1 258:1 322:1 355:1 398:1 403:1 431:1 519:1 522:1 528:1 675:1 677:3 678:3 679:1 680:2 681:2 682:-1 683:1 684:-1 685:50.1 686:1 687:3 688:1 689:1 690:1 691:2 692:3 693:1 695:5 696:1 697:2 698:2 699:2 700:-1 
1 50:1 56:1 60:1 76:1 143:1 320:1 330:1 346:1 356:1 358:1 413:1 675:1 677:3 678:3 679:1 680:2 681:1 682:70 683:1 684:-1 685:26.8 686:1 687:4 688:3 689:3 690:1 691:4 692:10 693:1 695:3 696:1 697:1 698:3 699:2 700:2 
1 88:1 131:1 139:1 195:1 234:1 258:1 274:1 352:1 358:1 383:1 388:1 401:1 436:1 528:1 675:1 677:3 678:3 679:1 680:2 681:2 682:-1 683:1 684:-1 685:29 686:1 687:3 688:3 689:3 690:1 691:3 692:9 693:1 695:3 696:1 697:1 698:4 699:2 700:-1 
1 50:1 91:1 123:1 141:1 190:1 320:1 321:1 323:1 361:1 411:1 460:1 472:1 513:1 675:1 677:3 678:3 679:1 680:2 681:1 682:65 683:1 684:-1 685:32.1 686:1 687:3 688:3 689:3 690:1 691:3 692:8 693:1 695:3 696:1 697:1 698:3 699:2 700:2 
1 48:1 52:1 54:1 78:1 88:1 190:1 318:1 322:1 324:1 351:1 358:1 370:1 460:1 471:1 513:1 518:1 675:1 677:3 678:3 679:1 680:2 681:2 682:-1 683:1 684:-1 685:27.7 686:1 687:4 688:4 689:4 690:1 691:4 692:8 693:1 695:2 696:1 697:1 698:4 699:2 700:1 
1 74:1 195:1 344:1 465:1 471:1 515:1 675:1 677:3 678:3 679:1 680:2 681:2 682:-1 683:2 684:-1 685:26.8 686:1 687:4 688:4 689:3 690:1 691:4 692:8 693:1 695:4 696:1 697:1 698:4 699:1 700:-9 
1 54:1 88:1 96:1 147:1 157:1 194:1 324:1 351:1 358:1 366:1 417:1 464:1 491:1 675:1 677:3 678:3 679:1 680:2 681:2 682:-1 683:2 684:-1 685:39 686:1 687:4 688:4 689:4 690:1 691:4 692:10 693:2 695:3 696:1 697:1 698:4 699:2 700:2 
1 22:1 25:1 77:1 126:1 127:1 278:1 295:1 312:1 314:1 348:1 675:1 677:3 678:3 679:1 680:2 681:2 682:-1 683:1 684:-1 685:20.3 686:1 687:4 688:4 689:3 690:1 691:3 692:9 693:1 695:3 696:1 697:1 698:4 699:2 700:2 
1 7:1 24:1 50:1 54:1 88:1 125:1 190:1 194:1 320:1 324:1 346:1 358:1 361:1 460:1 465:1 471:1 675:1 677:3 678:3 679:1 680:2 681:1 682:61 683:1 684:-1 685:31.8 686:1 687:4 688:3 689:3 690:1 691:3 692:8 693:1 695:4 696:1 697:1 698:3 699:2 700:1 
1 73:1 76:1 199:1 252:1 350:1 419:1 522:1 675:1 677:3 678:3 679:1 680:2 681:2 682:-1 683:1 684:-1 685:27.8 686:1 687:4 688:4 689:4 690:1 691:4 692:10 693:1 695:3 696:1 697:1 698:4 699:2 700:1 
1 50:1 54:1 60:1 88:1 151:1 249:1 320:1 330:1 358:1 419:1 421:1 459:1 675:1 677:3 678:3 679:1 680:1 681:1 682:70 683:1 684:-1 685:-1 686:-1 687:-1 688:-1 689:-1 690:-1 691:-1 692:-1 693:-1 695:-1 696:-1 697:-1 698:-1 699:-1 700:-1 
1 88:1 112:1 192:1 194:1 258:1 358:1 462:1 519:1 528:1 675:1 677:3 678:3 679:1 680:1 681:2 682:-1 683:-7 684:-1 685:53.1 686:1 687:3 688:3 689:3 690:1 691:3 692:9 693:2 695:4 696:1 697:1 698:4 699:2 700:1 
1 128:1 133:1 194:1 195:1 222:1 393:1 398:1 492:1 675:1 677:3 678:3 679:1 680:2 681:2 682:-1 683:1 684:-1 685:19.7 686:1 687:4 688:4 689:3 690:1 691:3 692:9 693:2 695:3 696:1 697:1 698:4 699:2 700:-1 
1 54:1 85:1 123:1 201:1 252:1 253:1 258:1 323:1 324:1 355:1 462:1 465:1 471:1 472:1 477:1 519:1 522:1 528:1 675:1 677:3 678:3 679:1 680:2 681:2 682:-1 683:1 684:-1 685:39.9 686:1 687:3 688:2 689:3 690:1 691:2 692:3 693:1 695:4 696:1 697:1 698:2 699:1 700:-1 
1 258:1 675:1 676:-1 677:3 678:3 679:1 680:2 681:2 682:-1 683:2 684:-1 685:25.8 686:1 687:3 688:2 689:3 690:1 691:3 692:8 693:1 694:4 695:3 696:1 697:1 698:4 699:2 700:-1 
1 123:1 124:1 675:4 676:-1 677:1 678:3 679:3 680:1 681:2 682:-1 683:1 684:-1 685:24.4 686:1 687:3 688:4 689:3 690:2 691:-1 692:8 693:2 694:-1 695:2 696:1 697:1 698:3 699:2 700:2 
1 54:1 88:1 315:1 318:1 324:1 358:1 402:1 464:1 465:1 675:4 677:1 678:3 679:3 680:4 681:2 682:-1 683:1 684:-1 685:17 686:1 687:3 688:3 689:3 690:1 691:3 692:8 693:2 695:2 696:1 697:-8 698:3 699:2 700:2 
1 54:1 81:1 193:1 194:1 324:1 351:1 362:1 460:1 463:1 464:1 675:1 677:3 678:3 679:1 680:1 681:2 682:-1 683:1 684:-1 685:25.5 686:1 687:4 688:4 689:4 690:1 691:3 692:8 693:1 695:4 696:1 697:1 698:4 699:2 700:-1 
1 50:1 88:1 91:1 107:1 134:1 147:1 320:1 358:1 360:1 361:1 377:1 404:1 417:1 418:1 515:1 516:1 517:1 519:1 528:1 675:1 677:3 678:3 679:1 680:2 681:1 682:45 683:1 684:-1 685:39.7 686:1 687:4 688:4 689:4 690:1 691:4 692:9 693:1 695:1 696:1 697:1 698:4 699:2 700:2 
1 30:1 33:1 34:1 88:1 156:1 187:1 193:1 194:1 303:1 358:1 398:1 419:1 463:1 464:1 471:1 497:1 517:1 675:1 677:3 678:3 679:1 680:2 681:2 682:-1 683:1 684:-1 685:32.2 686:1 687:4 688:3 689:4 690:1 691:4 692:9 693:1 695:4 696:1 697:1 698:-8 699:2 700:2 
1 5:1 49:1 81:1 110:1 121:1 149:1 202:1 219:1 222:1 234:1 248:1 273:1 319:1 393:1 409:1 419:1 433:1 472:1 492:1 504:1 518:1 519:1 675:1 677:3 678:3 679:1 680:2 681:2 682:-1 683:1 684:-1 685:23.2 686:1 687:4 688:4 689:4 690:1 691:4 692:10 693:1 695:2 696:1 697:1 698:2 699:2 700:2 
1 50:1 88:1 91:1 117:1 141:1 150:1 254:1 258:1 275:1 320:1 354:1 358:1 361:1 388:1 519:1 524:1 528:1 534:1 675:1 677:3 678:3 679:1 680:1 681:1 682:58 683:1 684:-1 685:21.6 686:1 687:4 688:4 689:4 690:2 691:-1 692:10 693:1 695:5 696:1 697:1 698:4 699:2 700:2 
1 50:1 54:1 88:1 147:1 305:1 320:1 324:1 358:1 417:1 675:1 677:3 678:3 679:1 680:2 681:1 682:55 683:1 684:-1 685:36 686:1 687:4 688:4 689:4 690:1 691:3 692:10 693:1 695:4 696:1 697:1 698:4 699:2 700:1 
1 5:1 50:1 78:1 83:1 88:1 151:1 154:1 193:1 195:1 275:1 318:1 320:1 348:1 353:1 358:1 366:1 393:1 394:1 421:1 424:1 463:1 465:1 675:1 677:3 678:3 679:1 680:2 681:1 682:46 683:1 684:-1 685:39.3 686:1 687:3 688:3 689:3 690:1 691:3 692:9 693:1 695:3 696:1 697:1 698:3 699:2 700:1 
1 45:1 48:1 84:1 123:1 315:1 318:1 324:1 354:1 401:1 675:1 677:3 678:3 679:1 680:2 681:2 682:-1 683:1 684:-1 685:25.7 686:1 687:3 688:3 689:3 690:1 691:3 692:9 693:1 695:3 696:1 697:1 698:4 699:2 700:1 
1 54:1 149:1 195:1 201:1 324:1 419:1 500:1 514:1 675:1 677:3 678:3 679:1 680:2 681:2 682:-1 683:1 684:-1 685:30.4 686:-9 687:4 688:4 689:4 690:1 691:3 692:8 693:2 695:3 696:1 697:1 698:3 699:2 700:1 
1 54:1 94:1 194:1 386:1 675:1 677:3 678:3 679:1 680:2 681:2 682:-1 683:1 684:-1 685:35 686:1 687:3 688:4 689:3 690:1 691:4 692:9 693:1 695:3 696:1 697:1 698:4 699:2 700:1 
1 54:1 79:1 88:1 139:1 157:1 194:1 260:1 324:1 427:1 530:1 675:1 677:3 678:3 679:1 680:2 681:2 682:-1 683:1 684:-1 685:24.8 686:1 687:4 688:4 689:4 690:1 691:4 692:10 693:2 695:3 696:1 697:1 698:4 699:2 700:2 
1 59:1 88:1 190:1 243:1 258:1 320:1 329:1 349:1 358:1 361:1 464:1 517:1 528:1 675:1 677:3 678:3 679:1 680:1 681:2 682:-1 683:1 684:-1 685:31 686:1 687:3 688:3 689:3 690:1 691:4 692:8 693:1 695:3 696:1 697:1 698:1 699:2 700:-1 
1 11:1 116:1 188:1 192:1 246:1 281:1 322:1 355:1 386:1 462:1 675:1 677:3 678:3 679:1 680:1 681:2 682:-1 683:1 684:-1 685:32.3 686:1 687:3 688:3 689:3 690:1 691:3 692:7 693:1 695:3 696:1 697:1 698:3 699:2 700:-1 
1 15:1 25:1 50:1 54:1 78:1 88:1 99:1 285:1 295:1 320:1 324:1 348:1 358:1 369:1 464:1 675:1 677:3 678:3 679:1 680:2 681:1 682:70 683:1 684:-1 685:39.5 686:1 687:4 688:4 689:4 690:1 691:4 692:10 693:2 695:3 696:1 697:1 698:4 699:2 700:1 
1 88:1 96:1 118:1 193:1 354:1 358:1 366:1 388:1 463:1 471:1 675:1 677:3 678:3 679:1 680:2 681:2 682:-1 683:1 684:-1 685:27.8 686:1 687:4 688:3 689:3 690:1 691:4 692:9 693:1 695:4 696:1 697:1 698:3 699:2 700:-1 
1 5:1 45:1 50:1 71:1 77:1 88:1 117:1 201:1 249:1 320:1 358:1 369:1 387:1 388:1 393:1 519:1 524:1 675:1 677:3 678:3 679:1 680:2 681:1 682:35 683:1 684:-1 685:33.4 686:1 687:4 688:4 689:4 690:1 691:4 692:10 693:1 695:5 696:1 697:1 698:4 699:2 700:2 
1 54:1 88:1 194:1 195:1 201:1 258:1 324:1 351:1 358:1 464:1 465:1 471:1 528:1 675:1 677:3 678:3 679:1 680:2 681:2 682:-1 683:1 684:-1 685:29.2 686:1 687:3 688:2 689:2 690:1 691:3 692:8 693:2 695:2 696:1 697:1 698:4 699:2 700:2 
1 24:1 81:1 82:1 88:1 90:1 91:1 294:1 324:1 351:1 358:1 360:1 361:1 365:1 465:1 516:1 675:1 677:3 678:3 679:1 680:2 681:2 682:-1 683:1 684:-1 685:21.9 686:1 687:3 688:3 689:3 690:1 691:2 692:9 693:2 695:4 696:1 697:1 698:-8 699:2 700:1 
1 34:1 64:1 88:1 112:1 247:1 248:1 275:1 294:1 305:1 310:1 330:1 334:1 382:1 388:1 465:1 675:1 677:3 678:3 679:1 680:2 681:2 682:-1 683:1 684:-1 685:33.3 686:1 687:4 688:3 689:4 690:1 691:4 692:8 693:1 695:4 696:1 697:1 698:3 699:2 700:1 
1 49:1 76:1 90:1 91:1 153:1 361:1 377:1 423:1 504:1 675:1 677:3 678:3 679:1 680:2 681:2 682:-1 683:2 684:-1 685:26.9 686:1 687:-1 688:-1 689:-1 690:-1 691:-1 692:-1 693:2 695:2 696:1 697:1 698:4 699:2 700:1 
1 96:1 318:1 320:1 324:1 346:1 358:1 366:1 382:1 387:1 457:1 463:1 522:1 675:1 677:3 678:3 679:1 680:2 681:1 682:70 683:1 684:-1 685:29.1 686:-9 687:-9 688:-9 689:-9 690:-9 691:-9 692:-9 693:1 695:5 696:1 697:1 698:4 699:2 700:1 
1 30:1 201:1 300:1 348:1 462:1 504:1 675:1 677:3 678:3 679:1 680:2 681:2 682:-1 683:1 684:-1 685:33.9 686:1 687:4 688:3 689:2 690:1 691:3 692:7 693:1 695:2 696:1 697:1 698:4 699:2 700:1 
1 78:1 88:1 128:1 133:1 347:1 348:1 351:1 419:1 496:1 675:1 677:3 678:3 679:1 680:2 681:2 682:-1 683:1 684:-1 685:25.8 686:1 687:3 688:3 689:4 690:1 691:3 692:9 693:1 695:3 696:1 697:1 698:4 699:2 700:2 
1 49:1 258:1 319:1 386:1 528:1 675:1 677:3 678:3 679:1 680:2 681:2 682:-1 683:1 684:-1 685:-9 686:1 687:4 688:3 689:3 690:1 691:3 692:8 693:1 695:4 696:1 697:1 698:4 699:2 700:-1 
1 192:1 195:1 324:1 358:1 398:1 462:1 465:1 471:1 675:1 677:3 678:3 679:1 680:2 681:2 682:-1 683:1 684:-1 685:27.8 686:1 687:4 688:4 689:4 690:2 691:-1 692:10 693:1 695:1 696:1 697:1 698:4 699:2 700:1 
1 24:1 90:1 91:1 194:1 294:1 358:1 360:1 361:1 464:1 471:1 515:1 675:1 677:3 678:3 679:1 680:2 681:2 682:-1 683:1 684:-1 685:20 686:2 687:3 688:3 689:3 690:1 691:4 692:8 693:2 695:4 696:1 697:1 698:4 699:2 700:1 
1 116:1 118:1 124:1 128:1 249:1 352:1 394:1 464:1 519:1 675:2 677:3 678:1 679:3 680:3 681:2 682:-1 683:1 684:-1 685:30.8 686:1 687:3 688:3 689:3 690:1 691:3 692:9 693:1 695:2 696:1 697:1 698:3 699:2 700:-1 
1 25:1 54:1 85:1 88:1 90:1 91:1 107:1 197:1 248:1 295:1 347:1 358:1 360:1 361:1 377:1 435:1 502:1 518:1 675:1 677:3 678:3 679:1 680:2 681:2 682:-1 683:1 684:-1 685:23.8 686:1 687:2 688:2 689:2 690:2 691:-1 692:5 693:1 695:4 696:1 697:2 698:4 699:2 700:2 
1 20:1 59:1 117:1 222:1 290:1 460:1 464:1 465:1 471:1 492:1 675:1 677:3 678:3 679:1 680:2 681:1 682:53 683:2 684:-1 685:44.3 686:1 687:3 688:4 689:3 690:1 691:3 692:9 693:1 695:4 696:2 697:-1 698:-1 699:2 700:-9 
1 77:1 116:1 190:1 194:1 347:1 354:1 386:1 420:1 460:1 464:1 675:1 677:3 678:3 679:1 680:2 681:2 682:-1 683:1 684:-1 685:32.1 686:1 687:3 688:3 689:3 690:1 691:4 692:10 693:1 695:2 696:1 697:1 698:4 699:2 700:1 
1 85:1 88:1 136:1 157:1 192:1 195:1 220:1 319:1 358:1 406:1 462:1 465:1 472:1 490:1 675:1 677:3 678:3 679:1 680:2 681:2 682:-1 683:1 684:-1 685:28.7 686:1 687:4 688:3 689:2 690:1 691:3 692:8 693:-9 695:3 696:1 697:1 698:4 699:2 700:1 
1 50:1 88:1 90:1 158:1 195:1 247:1 320:1 361:1 415:1 427:1 428:1 463:1 464:1 465:1 675:1 677:3 678:3 679:1 680:2 681:1 682:40 683:1 684:-1 685:-9 686:1 687:4 688:3 689:4 690:-9 691:4 692:8 693:2 695:3 696:1 697:1 698:4 699:2 700:1 
1 59:1 88:1 117:1 193:1 198:1 220:1 324:1 358:1 463:1 465:1 471:1 490:1 513:1 675:1 677:3 678:3 679:1 680:2 681:2 682:-1 683:1 684:-1 685:40.2 686:1 687:3 688:3 689:3 690:2 691:-1 692:8 693:1 695:3 696:1 697:1 698:2 699:2 700:-1 
1 30:1 50:1 54:1 88:1 190:1 194:1 201:1 258:1 260:1 300:1 320:1 322:1 324:1 355:1 358:1 460:1 464:1 522:1 528:1 530:1 675:1 677:3 678:3 679:1 680:2 681:1 682:27 683:1 684:-1 685:29.5 686:2 687:-1 688:-1 689:-1 690:-1 691:-1 692:-1 693:2 695:4 696:1 697:1 698:2 699:2 700:-1 
1 5:1 45:1 50:1 54:1 60:1 88:1 126:1 190:1 192:1 258:1 319:1 320:1 324:1 358:1 369:1 460:1 462:1 528:1 675:1 677:3 678:3 679:1 680:1 681:1 682:40 683:1 684:-1 685:25.7 686:1 687:3 688:3 689:3 690:1 691:3 692:8 693:1 695:3 696:1 697:1 698:4 699:2 700:2 
1 4:1 54:1 77:1 78:1 86:1 91:1 193:1 274:1 324:1 356:1 358:1 361:1 524:1 675:1 677:3 678:3 679:1 680:2 681:2 682:-1 683:1 684:-1 685:20.1 686:1 687:2 688:3 689:4 690:1 691:4 692:8 693:1 695:5 696:1 697:1 698:-8 699:2 700:1 
1 7:1 252:1 258:1 517:1 522:1 528:1 675:1 677:3 678:3 679:1 680:2 681:2 682:-1 683:2 684:-1 685:31.2 686:1 687:3 688:4 689:3 690:1 691:3 692:9 693:2 695:3 696:1 697:1 698:4 699:2 700:-1 
1 76:1 142:1 194:1 195:1 202:1 346:1 464:1 465:1 472:1 496:1 519:1 675:1 677:3 678:3 679:1 680:2 681:2 682:-1 683:1 684:-1 685:28.5 686:1 687:3 688:1 689:3 690:1 691:3 692:8 693:2 695:2 696:1 697:1 698:3 699:2 700:-9 
1 52:1 245:1 252:1 258:1 262:1 322:1 515:1 522:1 528:1 532:1 675:1 677:3 678:3 679:1 680:2 681:2 682:-1 683:1 684:-1 685:29.4 686:1 687:4 688:4 689:4 690:1 691:4 692:7 693:1 695:4 696:2 697:-1 698:-1 699:2 700:-1 
1 50:1 85:1 91:1 192:1 252:1 320:1 324:1 358:1 361:1 366:1 388:1 423:1 507:1 675:1 677:3 678:3 679:1 680:2 681:1 682:31 683:1 684:-1 685:38.2 686:1 687:4 688:2 689:2 690:1 691:4 692:7 693:1 695:5 696:1 697:1 698:1 699:2 700:-1 
1 116:1 124:1 171:1 186:1 326:1 441:1 456:1 492:1 513:1 675:1 677:3 678:3 679:1 680:2 681:2 682:-1 683:1 684:-1 685:25.4 686:1 687:3 688:3 689:3 690:1 691:3 692:7 693:1 695:3 696:1 697:1 698:3 699:2 700:-1 
1 54:1 88:1 91:1 117:1 125:1 236:1 324:1 358:1 361:1 387:1 463:1 500:1 675:1 677:3 678:3 679:1 680:1 681:2 682:-1 683:1 684:-1 685:22.3 686:1 687:4 688:4 689:4 690:1 691:3 692:9 693:1 695:4 696:1 697:1 698:4 699:2 700:-1 
1 85:1 193:1 201:1 258:1 355:1 394:1 415:1 465:1 523:1 528:1 675:1 677:3 678:3 679:1 680:2 681:2 682:-1 683:2 684:-1 685:29.3 686:1 687:4 688:3 689:2 690:1 691:4 692:7 693:1 695:4 696:1 697:1 698:3 699:2 700:-1 
1 25:1 76:1 83:1 190:1 295:1 346:1 353:1 460:1 464:1 675:1 677:3 678:3 679:1 680:2 681:2 682:-1 683:1 684:-1 685:29.2 686:1 687:3 688:4 689:4 690:1 691:4 692:10 693:1 695:2 696:1 697:1 698:4 699:2 700:1 
1 30:1 50:1 90:1 99:1 107:1 151:1 300:1 320:1 360:1 361:1 369:1 376:1 377:1 421:1 460:1 675:1 677:3 678:3 679:1 680:2 681:1 682:47 683:1 684:-1 685:29 686:1 687:4 688:4 689:4 690:1 691:4 692:10 693:1 695:4 696:1 697:1 698:4 699:2 700:1 
1 193:1 249:1 324:1 358:1 387:1 463:1 465:1 511:1 519:1 675:1 677:3 678:3 679:1 680:2 681:2 682:-1 683:1 684:-1 685:34.7 686:1 687:2 688:2 689:3 690:1 691:2 692:5 693:1 695:5 696:1 697:1 698:4 699:2 700:-1 
1 24:1 54:1 79:1 91:1 278:1 294:1 315:1 324:1 349:1 361:1 382:1 485:1 492:1 675:1 677:3 678:3 679:1 680:2 681:2 682:-1 683:1 684:-1 685:25.1 686:1 687:4 688:4 689:3 690:1 691:4 692:8 693:1 695:1 696:1 697:1 698:2 699:2 700:2 
1 8:1 45:1 54:1 117:1 193:1 222:1 230:1 245:1 294:1 324:1 352:1 387:1 515:1 675:1 677:3 678:3 679:1 680:2 681:2 682:-1 683:1 684:-1 685:34.9 686:1 687:4 688:4 689:4 690:1 691:4 692:10 693:1 695:3 696:1 697:1 698:4 699:2 700:1 
1 88:1 349:1 358:1 398:1 457:1 460:1 463:1 675:1 677:3 678:3 679:1 680:2 681:2 682:-1 683:1 684:-1 685:23.5 686:1 687:4 688:4 689:4 690:1 691:4 692:10 693:1 695:4 696:1 697:1 698:4 699:2 700:2 
1 30:1 50:1 106:1 188:1 300:1 320:1 352:1 376:1 383:1 394:1 414:1 465:1 504:1 675:1 677:3 678:3 679:1 680:1 681:2 682:-1 683:1 684:-1 685:28.7 686:1 687:3 688:4 689:3 690:1 691:3 692:8 693:2 695:3 696:1 697:1 698:4 699:2 700:-1 
1 48:1 145:1 199:1 234:1 349:1 471:1 504:1 528:1 675:1 677:3 678:3 679:1 680:2 681:2 682:-1 683:2 684:-1 685:24.1 686:1 687:4 688:4 689:3 690:1 691:4 692:9 693:1 695:4 696:1 697:1 698:3 699:2 700:-1 
1 4:1 34:1 50:1 59:1 88:1 305:1 320:1 324:1 326:1 356:1 358:1 361:1 382:1 403:1 427:1 471:1 675:1 677:3 678:3 679:1 680:2 681:1 682:37 683:2 684:-1 685:33.1 686:2 687:4 688:4 689:4 690:1 691:4 692:10 693:-9 695:4 696:1 697:1 698:4 699:2 700:2 
1 8:1 165:1 278:1 318:1 353:1 456:1 530:1 675:1 677:3 678:3 679:1 680:2 681:2 682:-1 683:2 684:-1 685:28.2 686:1 687:4 688:4 689:3 690:1 691:3 692:8 693:1 695:3 696:1 697:1 698:4 699:1 700:-1 
1 54:1 88:1 156:1 249:1 324:1 358:1 394:1 471:1 519:1 675:2 677:3 678:1 679:3 680:3 681:2 682:-1 683:1 684:-1 685:35.5 686:1 687:4 688:4 689:3 690:1 691:4 692:10 693:2 695:2 696:1 697:2 698:4 699:2 700:2 
1 77:1 79:1 139:1 187:1 241:1 243:1 320:1 346:1 347:1 349:1 353:1 403:1 465:1 513:1 518:1 675:1 677:3 678:3 679:1 680:1 681:1 682:40 683:1 684:-1 685:37.8 686:1 687:3 688:4 689:2 690:1 691:2 692:8 693:1 695:5 696:1 697:1 698:1 699:2 700:-1 
1 70:1 79:1 166:1 201:1 340:1 349:1 383:1 436:1 457:1 471:1 492:1 522:1 675:1 677:3 678:3 679:1 680:2 681:2 682:-1 683:2 684:-1 685:21 686:1 687:2 688:2 689:2 690:1 691:2 692:5 693:1 695:4 696:2 697:-1 698:-1 699:2 700:-1 
1 48:1 82:1 123:1 194:1 202:1 222:1 318:1 320:1 324:1 358:1 460:1 472:1 675:1 677:3 678:3 679:1 680:2 681:1 682:57 683:1 684:-1 685:34.3 686:1 687:4 688:4 689:3 690:1 691:4 692:9 693:1 695:2 696:1 697:1 698:4 699:2 700:2 
1 25:1 48:1 190:1 193:1 295:1 381:1 423:1 460:1 463:1 495:1 510:1 675:1 677:3 678:3 679:1 680:2 681:2 682:-1 683:2 684:-1 685:35 686:1 687:4 688:4 689:4 690:1 691:4 692:10 693:1 695:3 696:1 697:1 698:4 699:2 700:2 
1 88:1 234:1 295:1 320:1 324:1 351:1 358:1 420:1 675:1 677:3 678:3 679:1 680:2 681:1 682:68 683:1 684:-1 685:42.1 686:1 687:4 688:4 689:4 690:1 691:4 692:10 693:1 695:3 696:1 697:1 698:4 699:2 700:1 
1 74:1 85:1 88:1 91:1 99:1 118:1 195:1 216:1 221:1 320:1 324:1 351:1 355:1 358:1 361:1 465:1 486:1 491:1 493:1 675:2 677:3 678:1 679:3 680:3 681:1 682:49 683:1 684:-1 685:33.7 686:1 687:3 688:3 689:2 690:1 691:3 692:3 693:1 695:4 696:1 697:1 698:4 699:2 700:-1 
1 74:1 149:1 150:1 420:1 463:1 465:1 471:1 522:1 528:1 675:1 677:3 678:3 679:1 680:1 681:2 682:-1 683:1 684:-1 685:24.2 686:1 687:4 688:4 689:4 690:1 691:4 692:8 693:1 695:4 696:1 697:1 698:4 699:2 700:2 
1 48:1 49:1 50:1 54:1 85:1 192:1 195:1 198:1 201:1 318:1 320:1 322:1 323:1 324:1 355:1 462:1 465:1 468:1 471:1 519:1 675:1 677:3 678:3 679:1 680:2 681:1 682:45 683:2 684:-1 685:21.1 686:1 687:1 688:1 689:1 690:2 691:-1 693:1 695:5 696:1 697:1 698:3 699:2 700:-1 
1 88:1 110:1 154:1 358:1 424:1 675:6 677:3 678:2 679:2 680:5 681:2 682:-1 683:1 684:-1 685:19.7 686:1 687:2 688:3 689:3 690:1 691:3 692:8 693:-9 695:4 696:1 697:1 698:4 699:2 700:-1 
1 91:1 117:1 193:1 195:1 219:1 246:1 324:1 358:1 361:1 364:1 386:1 463:1 489:1 492:1 675:1 677:3 678:3 679:1 680:2 681:2 682:-1 683:1 684:-1 685:37.8 686:1 687:3 688:3 689:3 690:1 691:3 692:5 693:1 695:3 696:1 697:1 698:3 699:2 700:2 
1 30:1 94:1 117:1 193:1 300:1 349:1 364:1 387:1 464:1 675:1 677:3 678:3 679:1 680:2 681:2 682:-1 683:1 684:-1 685:30.8 686:1 687:3 688:4 689:4 690:1 691:3 692:8 693:1 695:4 696:1 697:1 698:4 699:2 700:1 
1 74:1 161:1 190:1 278:1 344:1 386:1 394:1 431:1 460:1 485:1 506:1 675:1 677:3 678:3 679:1 680:2 681:2 682:-1 683:1 684:-1 685:41.2 686:1 687:3 688:3 689:3 690:1 691:4 692:8 693:1 695:2 696:1 697:1 698:3 699:2 700:-1 
1 15:1 240:1 285:1 290:1 315:1 318:1 510:1 675:1 677:3 678:3 679:1 680:2 681:2 682:-1 683:2 684:-1 685:24.5 686:1 687:4 688:4 689:4 690:1 691:4 692:9 693:1 695:2 696:1 697:1 698:4 699:2 700:-1 
1 49:1 53:1 78:1 80:1 124:1 222:1 271:1 275:1 321:1 323:1 348:1 350:1 354:1 394:1 477:1 492:1 675:1 677:3 678:3 679:1 680:2 681:2 682:-1 683:1 684:-1 685:34.7 686:1 687:4 688:4 689:4 690:1 691:4 692:9 693:1 695:2 696:1 697:1 698:3 699:2 700:-1 
1 9:1 85:1 116:1 135:1 193:1 194:1 246:1 247:1 355:1 386:1 401:1 423:1 463:1 464:1 465:1 516:1 517:1 675:1 677:3 678:3 679:1 680:2 681:2 682:-1 683:1 684:-1 685:25.3 686:1 687:4 688:4 689:4 690:1 691:3 692:8 693:1 695:3 696:1 697:1 698:4 699:2 700:1 
1 39:1 76:1 88:1 91:1 92:1 364:1 519:1 675:2 677:3 678:1 679:3 680:3 681:2 682:-1 683:1 684:-1 685:38.5 686:1 687:4 688:2 689:2 690:1 691:4 692:7 693:1 695:5 696:1 697:1 698:4 699:2 700:2 
1 50:1 52:1 320:1 322:1 324:1 358:1 519:1 675:1 677:3 678:3 679:1 680:2 681:1 682:51 683:2 684:-1 685:24.5 686:1 687:3 688:3 689:2 690:1 691:3 692:7 693:1 695:5 696:1 697:1 698:4 699:2 700:2 
1 54:1 88:1 358:1 394:1 675:4 677:1 678:3 679:3 680:4 681:2 682:-1 683:1 684:-1 685:27.3 686:2 687:-1 688:-1 689:-1 690:-1 691:-1 692:-1 693:1 695:4 696:1 697:1 698:4 699:2 700:2 
1 25:1 50:1 295:1 320:1 419:1 519:1 675:1 677:3 678:3 679:1 680:2 681:1 682:44 683:2 684:-1 685:31.9 686:1 687:3 688:4 689:3 690:1 691:3 692:8 693:1 695:5 696:1 697:1 698:4 699:2 700:-1 
1 124:1 161:1 193:1 195:1 278:1 318:1 394:1 465:1 675:2 677:3 678:1 679:3 680:3 681:2 682:-1 683:2 684:-1 685:26 686:1 687:4 688:4 689:4 690:2 691:-1 692:9 693:1 695:3 696:1 697:2 698:3 699:2 700:2 
1 60:1 76:1 200:1 216:1 220:1 278:1 315:1 330:1 346:1 470:1 675:1 677:3 678:3 679:1 680:2 681:2 682:-1 683:1 684:-1 685:20.9 686:1 687:3 688:3 689:3 690:1 691:4 692:8 693:1 695:3 696:1 697:1 698:3 699:1 700:1 
1 116:1 124:1 194:1 195:1 277:1 334:1 351:1 394:1 460:1 464:1 513:1 675:1 677:3 678:3 679:1 680:2 681:2 682:-1 683:1 684:-1 685:25.1 686:1 687:3 688:2 689:3 690:1 691:4 692:5 693:1 695:4 696:1 697:1 698:4 699:2 700:1 
1 154:1 194:1 195:1 222:1 492:1 675:1 677:3 678:3 679:1 680:2 681:2 682:-1 683:1 684:-1 685:31.9 686:1 687:3 688:3 689:3 690:1 691:3 692:9 693:1 695:2 696:1 697:1 698:-8 699:2 700:2 
1 73:1 125:1 256:1 355:1 513:1 675:6 677:3 678:2 679:2 680:5 681:-1 682:-1 683:1 685:-1 686:-1 687:-1 688:-1 689:-1 690:-1 691:-1 692:-1 693:-1 695:-1 696:1 697:2 698:4 699:2 700:-1 
1 54:1 149:1 193:1 195:1 221:1 315:1 319:1 324:1 463:1 464:1 471:1 491:1 675:1 677:3 678:3 679:1 680:2 681:2 682:-1 683:1 684:-1 685:24.3 686:1 687:3 688:4 689:4 690:1 691:3 692:9 693:1 695:2 696:1 697:1 698:4 699:2 700:1 
1 49:1 59:1 85:1 186:1 675:1 676:-1 677:3 678:3 679:1 680:1 681:2 682:-1 683:2 684:-1 685:26.6 686:1 687:3 688:3 689:3 690:1 691:2 692:8 693:2 694:-1 695:2 696:1 697:1 698:4 699:2 700:-1 
1 25:1 675:1 676:-1 677:3 678:3 679:1 680:2 681:2 682:-1 683:2 684:-1 685:27.5 686:1 687:4 688:4 689:4 690:1 691:4 692:10 693:1 694:3 695:3 696:1 697:1 698:4 699:2 700:-1 
1 116:1 124:1 149:1 190:1 252:1 258:1 386:1 394:1 419:1 435:1 464:1 522:1 528:1 675:1 677:3 678:3 679:1 680:1 681:2 682:-1 683:2 684:-1 685:23.5 686:1 687:3 688:4 689:3 690:1 691:3 692:7 693:1 695:3 696:1 697:1 698:4 699:2 700:-1 
1 245:1 465:1 675:1 677:3 678:3 679:1 680:2 681:2 682:-1 683:1 684:-1 685:25 686:1 687:4 688:4 689:4 690:1 691:4 692:8 693:1 695:3 696:1 697:1 698:4 699:2 700:-1 
1 68:1 234:1 247:1 355:1 420:1 471:1 675:1 677:3 678:3 679:1 680:2 681:2 682:-1 683:1 684:-1 685:32.8 686:1 687:3 688:4 689:4 690:1 691:-9 692:10 693:2 695:3 696:1 697:1 698:4 699:2 700:1 
1 42:1 109:1 229:1 249:1 435:1 489:1 504:1 675:1 677:3 678:3 679:1 680:2 681:2 682:-1 683:1 684:-1 685:33.3 686:1 687:3 688:3 689:2 690:1 691:3 692:8 693:1 695:4 696:1 697:1 698:4 699:1 700:2 
1 54:1 63:1 88:1 193:1 201:1 249:1 258:1 324:1 329:1 355:1 358:1 398:1 463:1 470:1 471:1 519:1 528:1 675:1 677:3 678:3 679:1 680:1 681:2 682:-1 683:1 684:-1 685:22.1 686:1 687:4 688:4 689:4 690:1 691:4 692:10 693:1 695:4 696:1 697:1 698:4 699:2 700:-1 
1 49:1 83:1 88:1 249:1 319:1 326:1 344:1 358:1 460:1 519:1 526:1 675:1 677:3 678:3 679:1 680:2 681:2 682:-1 683:2 684:-1 685:17.6 686:1 687:3 688:3 689:3 690:1 691:4 692:9 693:1 695:1 696:1 697:1 698:4 699:2 700:2 
1 73:1 81:1 85:1 88:1 92:1 96:1 100:1 147:1 194:1 242:1 324:1 351:1 355:1 358:1 365:1 366:1 464:1 465:1 471:1 675:1 677:3 678:3 679:1 680:2 681:2 682:-1 683:1 684:-1 685:16.2 686:1 687:4 688:3 689:4 690:1 691:4 692:8 693:1 695:3 696:1 697:1 698:3 699:2 700:1 
1 25:1 50:1 220:1 246:1 295:1 320:1 499:1 675:1 677:3 678:3 679:1 680:2 681:1 682:55 683:1 684:-1 685:36.5 686:1 687:3 688:4 689:3 690:1 691:3 692:10 693:1 695:2 696:1 697:1 698:-8 699:2 700:2 
1 25:1 108:1 123:1 149:1 190:1 295:1 378:1 460:1 464:1 515:1 517:1 675:1 677:3 678:3 679:1 680:2 681:2 682:-1 683:1 684:-1 685:43.8 686:1 687:4 688:4 689:4 690:1 691:4 692:7 693:1 695:3 696:1 697:1 698:4 699:2 700:2 
1 82:1 245:1 275:1 326:1 350:1 352:1 386:1 395:1 500:1 675:6 677:3 678:3 679:2 680:5 681:-1 682:-1 683:2 684:-1 685:-1 686:-1 687:-1 688:-1 689:-1 690:-1 691:-1 692:-1 693:-1 695:-1 696:1 697:1 698:4 699:1 700:-1 
1 76:1 106:1 278:1 346:1 376:1 463:1 464:1 472:1 516:1 675:1 677:3 678:3 679:1 680:2 681:2 682:-1 683:1 684:-1 685:25 686:1 687:4 688:4 689:3 690:1 691:4 692:8 693:1 695:2 696:1 697:1 698:4 699:2 700:1 
1 149:1 195:1 201:1 252:1 464:1 465:1 471:1 488:1 675:2 677:3 678:1 679:3 680:3 681:2 682:-1 683:1 684:-1 685:24.2 686:1 687:-1 688:-1 689:-1 690:-1 691:-1 692:-1 693:1 695:4 696:1 697:1 698:3 699:1 700:-1 
1 24:1 124:1 195:1 294:1 315:1 358:1 361:1 423:1 465:1 484:1 675:1 677:3 678:3 679:1 680:2 681:2 682:-1 683:1 684:-1 685:29.8 686:1 687:4 688:4 689:4 690:1 691:4 692:10 693:1 695:3 696:1 697:1 698:4 699:2 700:1 
1 50:1 116:1 118:1 194:1 221:1 234:1 320:1 324:1 344:1 356:1 358:1 386:1 464:1 471:1 491:1 504:1 675:1 677:3 678:3 679:1 680:2 681:2 682:-1 683:1 684:-1 685:31 686:1 687:3 688:3 689:3 690:1 691:3 692:8 693:1 695:5 696:1 697:1 698:3 699:2 700:2 
1 50:1 128:1 221:1 465:1 675:1 677:3 678:3 679:1 680:2 681:1 682:55 683:1 684:-1 685:24.3 686:1 687:4 688:4 689:4 690:1 691:4 692:10 693:1 695:2 696:1 697:1 698:4 699:2 700:1 
1 56:1 88:1 145:1 201:1 289:1 314:1 386:1 393:1 415:1 675:4 677:1 678:3 679:3 680:4 681:2 682:-1 683:1 684:-1 685:17 686:1 687:4 688:4 689:3 690:1 691:2 692:8 693:1 695:4 696:1 697:2 698:2 699:2 700:1 
1 24:1 40:1 49:1 155:1 294:1 310:1 675:1 677:3 678:3 679:1 680:2 681:2 682:-1 683:1 684:-1 685:22 686:1 687:4 688:4 689:4 690:1 691:4 692:10 693:1 695:1 696:1 697:1 698:4 699:2 700:1 
1 82:1 206:1 476:1 519:1 675:1 677:3 678:3 679:1 680:2 681:-1 682:-1 683:2 684:-1 685:-1 686:-1 687:-1 688:-1 689:-1 690:-1 691:-1 692:-1 693:-1 695:-1 696:1 697:1 698:4 699:2 700:-1 
1 24:1 88:1 151:1 294:1 324:1 325:1 358:1 387:1 401:1 421:1 464:1 675:1 677:3 678:3 679:1 680:2 681:2 682:-1 683:1 684:-1 685:34.2 686:1 687:3 688:4 689:3 690:1 691:4 692:9 693:1 695:2 696:1 697:1 698:4 699:2 700:1 
1 45:1 54:1 84:1 149:1 153:1 188:1 246:1 324:1 346:1 354:1 419:1 422:1 460:1 463:1 675:1 677:3 678:3 679:1 680:2 681:2 682:-1 683:1 684:-1 685:24.2 686:1 687:3 688:4 689:3 690:1 691:3 692:9 693:1 695:2 696:1 697:1 698:-8 699:2 700:1 
1 54:1 69:1 229:1 254:1 324:1 339:1 358:1 377:1 504:1 524:1 675:4 677:1 678:3 679:3 680:4 681:2 682:-1 683:1 684:-1 685:23.2 686:1 687:3 688:4 689:3 690:1 691:3 692:9 693:2 695:4 696:1 697:1 698:4 699:2 700:1 
1 116:1 123:1 166:1 205:1 275:1 358:1 376:1 382:1 384:1 421:1 428:1 441:1 456:1 465:1 475:1 506:1 675:6 677:3 678:2 679:3 680:5 681:2 682:-1 683:2 684:-1 685:25.6 686:1 687:3 688:3 689:3 690:1 691:3 692:7 693:1 695:4 696:1 697:1 698:4 699:1 700:-1 
1 76:1 80:1 195:1 271:1 350:1 386:1 465:1 511:1 513:1 541:1 675:1 677:3 678:3 679:1 680:2 681:2 682:-1 683:1 684:-1 685:19.2 686:1 687:3 688:3 689:3 690:1 691:4 692:9 693:1 695:2 696:1 697:1 698:4 699:2 700:-1 
1 8:1 73:1 74:1 116:1 278:1 343:1 386:1 522:1 675:1 677:3 678:3 679:1 680:2 681:2 682:-1 683:1 684:-1 685:26.9 686:1 687:4 688:4 689:4 690:2 691:-1 692:9 693:2 695:2 696:1 697:1 698:4 699:2 700:-1 
1 25:1 34:1 76:1 91:1 117:1 123:1 295:1 305:1 320:1 347:1 348:1 361:1 393:1 396:1 511:1 675:1 677:3 678:3 679:1 680:2 681:1 682:40 683:2 684:-1 685:18.9 686:1 687:2 688:2 689:1 690:1 691:2 692:5 693:1 695:4 696:1 697:2 698:3 699:2 700:2 
1 54:1 252:1 324:1 426:1 522:1 675:1 677:3 678:3 679:1 680:2 681:2 682:-1 683:1 684:-1 685:24.2 686:1 687:3 688:3 689:3 690:1 691:3 692:8 693:1 695:4 696:1 697:2 698:2 699:2 700:-1 
1 56:1 85:1 98:1 116:1 147:1 194:1 326:1 368:1 387:1 388:1 412:1 417:1 675:2 677:3 678:1 679:3 680:3 681:2 682:-1 683:2 684:-1 685:53.4 686:1 687:4 688:3 689:3 690:1 691:4 692:8 693:1 695:4 696:1 697:1 698:3 699:2 700:2 
1 53:1 54:1 88:1 90:1 154:1 194:1 323:1 324:1 358:1 360:1 424:1 675:1 677:3 678:3 679:1 680:2 681:2 682:-1 683:1 684:-1 685:25.8 686:1 687:4 688:4 689:4 690:2 691:-1 692:8 693:1 695:3 696:1 697:1 698:3 699:2 700:1 
1 88:1 91:1 193:1 354:1 463:1 465:1 675:1 677:3 678:3 679:1 680:2 681:2 682:-1 683:1 684:-1 685:31.1 686:1 687:4 688:4 689:4 690:1 691:4 692:10 693:2 695:3 696:1 697:1 698:4 699:2 700:1 
1 118:1 195:1 253:1 277:1 384:1 388:1 465:1 523:1 675:1 677:3 678:3 679:1 680:1 681:-1 682:-1 683:2 685:-1 686:-1 687:-1 688:-1 689:-1 690:-1 691:-1 692:-1 693:-1 695:-1 696:1 697:1 698:4 699:2 700:-1 
1 50:1 82:1 85:1 110:1 116:1 193:1 278:1 320:1 355:1 386:1 463:1 464:1 675:1 677:3 678:3 679:1 680:2 681:1 682:50 683:1 684:-1 685:43 686:1 687:4 688:4 689:4 690:1 691:4 692:10 693:1 695:3 696:1 697:1 698:4 699:2 700:2 
1 110:1 166:1 436:1 489:1 492:1 675:1 677:3 678:3 679:1 680:2 681:2 682:-1 683:1 684:-1 685:25.1 686:-1 687:-1 688:-1 689:-1 690:-1 691:-1 692:-1 693:-1 695:-1 696:1 697:1 698:4 699:2 700:-1 
1 54:1 88:1 92:1 123:1 128:1 194:1 196:1 249:1 393:1 421:1 519:1 675:1 677:3 678:3 679:1 680:1 681:2 682:-1 683:1 684:-1 685:30.2 686:1 687:4 688:3 689:4 690:1 691:3 692:9 693:1 695:4 696:1 697:1 698:4 699:2 700:-1 
1 24:1 77:1 80:1 193:1 194:1 347:1 350:1 358:1 366:1 463:1 464:1 465:1 528:1 675:1 677:3 678:3 679:1 680:2 681:2 682:-1 683:1 684:-1 685:33 686:1 687:4 688:4 689:3 690:1 691:4 692:9 693:2 695:2 696:1 697:1 698:4 699:2 700:1 
1 50:1 74:1 79:1 118:1 124:1 139:1 319:1 320:1 492:1 675:1 677:3 678:3 679:1 680:2 681:1 682:12 683:1 684:-1 685:-9 686:1 687:2 688:3 689:3 690:2 691:-1 692:8 693:1 695:3 696:1 697:1 698:-8 699:2 700:-1 
1 77:1 131:1 226:1 344:1 347:1 382:1 386:1 463:1 464:1 675:1 677:3 678:3 679:1 680:2 681:2 682:-1 683:1 684:-1 685:24.1 686:1 687:4 688:4 689:4 690:1 691:4 692:9 693:1 695:3 696:1 697:1 698:-8 699:2 700:1 
1 39:1 96:1 234:1 309:1 320:1 324:1 346:1 355:1 393:1 398:1 403:1 464:1 504:1 675:1 677:3 678:3 679:1 680:2 681:2 682:-1 683:1 684:-1 685:22.3 686:1 687:4 688:4 689:3 690:1 691:4 692:10 693:1 695:3 696:1 697:1 698:3 699:2 700:-1 
1 83:1 84:1 85:1 91:1 96:1 353:1 361:1 366:1 393:1 403:1 675:1 677:3 678:3 679:1 680:2 681:2 682:-1 683:1 684:-1 685:30.1 686:1 687:3 688:2 689:2 690:1 691:3 692:8 693:1 695:3 696:1 697:1 698:4 699:2 700:2 
1 88:1 320:1 324:1 358:1 499:1 675:1 677:3 678:3 679:1 680:2 681:1 682:67 683:1 684:-1 685:35.2 686:1 687:4 688:4 689:4 690:1 691:4 692:9 693:2 695:3 696:1 697:1 698:4 699:2 700:2 
1 124:1 145:1 194:1 201:1 234:1 319:1 362:1 465:1 675:1 677:3 678:3 679:1 680:2 681:2 682:-1 683:1 684:-1 685:31.9 686:1 687:4 688:4 689:3 690:1 691:4 692:10 693:1 695:2 696:1 697:1 698:4 699:2 700:2 
1 24:1 60:1 117:1 260:1 294:1 315:1 324:1 330:1 346:1 349:1 358:1 401:1 515:1 528:1 530:1 534:1 675:1 677:3 678:3 679:1 680:2 681:2 682:-1 683:1 684:-1 685:41.1 686:-9 687:2 688:3 689:3 690:1 691:2 692:5 693:1 695:2 696:1 697:-8 698:2 699:1 700:-8 
1 96:1 165:1 166:1 195:1 207:1 344:1 419:1 465:1 675:1 677:3 678:3 679:1 680:2 681:2 682:-1 683:1 684:-1 685:-9 686:1 687:3 688:3 689:2 690:1 691:4 692:7 693:1 695:2 696:1 697:1 698:3 699:2 700:-1 
1 209:1 236:1 319:1 386:1 394:1 397:1 415:1 460:1 479:1 519:1 675:1 677:3 678:3 679:1 680:1 681:-1 682:-1 683:2 684:-1 685:-1 686:-1 687:-1 688:-1 689:-1 690:-1 691:-1 692:-1 693:-1 695:-1 696:1 697:1 698:3 699:2 700:-1 
1 81:1 117:1 252:1 258:1 349:1 387:1 465:1 471:1 485:1 511:1 519:1 528:1 675:2 677:3 678:1 679:3 680:3 681:2 682:-1 683:1 684:-1 685:29.2 686:1 687:4 688:4 689:4 690:1 691:4 692:9 693:1 695:2 696:1 697:1 698:4 699:2 700:2 
1 116:1 194:1 249:1 252:1 258:1 324:1 464:1 522:1 528:1 675:3 677:3 678:3 679:3 680:5 681:2 682:-1 683:1 684:-1 685:38.6 686:2 687:2 688:2 689:2 690:1 691:3 692:7 693:2 695:4 696:1 697:1 698:4 699:2 700:-1 
1 88:1 128:1 195:1 241:1 258:1 318:1 353:1 383:1 398:1 465:1 471:1 517:1 675:1 677:3 678:3 679:1 680:2 681:2 682:-1 683:1 684:-1 685:43.5 686:1 687:4 688:4 689:4 690:1 691:4 692:10 693:1 695:3 696:1 697:1 698:4 699:2 700:2 
1 7:1 88:1 246:1 277:1 358:1 411:1 471:1 516:1 519:1 522:1 675:1 677:3 678:3 679:1 680:1 681:2 682:-1 683:1 684:-1 685:29.4 686:1 687:3 688:2 689:3 690:1 691:2 692:5 693:1 695:3 696:1 697:1 698:3 699:2 700:2 
1 88:1 118:1 234:1 258:1 353:1 406:1 462:1 465:1 500:1 522:1 528:1 675:1 677:3 678:3 679:1 680:2 681:2 682:-1 683:1 684:-1 685:28.7 686:2 687:4 688:4 689:4 690:1 691:4 692:10 693:2 695:3 696:1 697:1 698:3 699:2 700:1 
1 54:1 88:1 116:1 118:1 294:1 324:1 358:1 388:1 394:1 675:1 677:3 678:3 679:1 680:2 681:2 682:-1 683:1 684:-1 685:29.4 686:1 687:4 688:4 689:3 690:1 691:4 692:9 693:1 695:3 696:1 697:1 698:4 699:2 700:2 
1 73:1 133:1 186:1 252:1 259:1 324:1 329:1 394:1 398:1 403:1 455:1 522:1 528:1 529:1 675:1 677:3 678:3 679:1 680:2 681:2 682:-1 683:2 684:-1 685:42.9 686:1 687:4 688:3 689:2 690:1 691:2 692:5 693:1 695:4 696:1 697:1 698:4 699:2 700:-1 
1 108:1 116:1 117:1 216:1 221:1 222:1 344:1 378:1 386:1 388:1 432:1 464:1 465:1 472:1 485:1 504:1 519:1 675:1 677:3 678:3 679:1 680:2 681:-1 682:-1 683:2 684:1 685:-1 686:-1 687:-1 688:-1 689:-1 690:-1 691:-1 692:-1 693:-1 695:-1 696:1 697:1 698:4 699:1 700:-1 
1 96:1 133:1 294:1 320:1 324:1 362:1 366:1 457:1 675:1 677:3 678:3 679:1 680:2 681:1 682:60 683:1 684:-1 685:37.4 686:1 687:4 688:4 689:4 690:1 691:4 692:9 693:1 695:3 696:1 697:1 698:4 699:2 700:1 
1 50:1 84:1 112:1 117:1 125:1 262:1 274:1 320:1 355:1 358:1 484:1 504:1 519:1 675:1 677:3 678:3 679:1 680:2 681:1 682:58 683:1 684:-1 685:30.1 686:1 687:4 688:4 689:3 690:1 691:3 692:9 693:1 695:5 696:1 697:1 698:4 699:2 700:-1 
1 145:1 147:1 417:1 675:1 677:3 678:3 679:1 680:2 681:2 682:-1 683:2 684:-1 685:27.3 686:1 687:4 688:4 689:4 690:1 691:4 692:9 693:1 695:4 696:1 697:1 698:4 699:2 700:-1 
1 24:1 88:1 94:1 154:1 193:1 258:1 294:1 324:1 351:1 361:1 675:1 677:3 678:3 679:1 680:2 681:2 682:-1 683:1 684:-1 685:29.8 686:1 687:3 688:3 689:2 690:1 691:3 692:6 693:1 695:3 696:1 697:2 698:3 699:2 700:2 
1 48:1 74:1 116:1 386:1 394:1 395:1 456:1 675:6 677:3 678:2 679:2 680:5 681:2 682:-1 683:2 684:-1 685:25.6 686:1 687:4 688:4 689:4 690:1 691:4 692:10 693:1 695:1 696:1 697:1 698:4 699:2 700:-1 
1 65:1 85:1 190:1 333:1 675:1 677:3 678:3 679:1 680:2 681:2 682:-1 683:1 684:-1 685:37.4 686:-9 687:4 688:4 689:3 690:1 691:3 692:5 693:1 695:5 696:1 697:2 698:-8 699:2 700:-1 
1 252:1 258:1 510:1 522:1 528:1 675:1 677:3 678:3 679:1 680:2 681:2 682:-1 683:1 684:-1 685:29.9 686:1 687:3 688:3 689:3 690:2 691:-1 692:7 693:2 695:4 696:1 697:1 698:4 699:2 700:-1 
1 80:1 157:1 201:1 222:1 225:1 427:1 464:1 465:1 492:1 675:1 677:3 678:3 679:1 680:2 681:2 682:-1 683:2 684:-1 685:24.4 686:1 687:4 688:4 689:3 690:1 691:4 692:9 693:1 695:1 696:1 697:1 698:4 699:2 700:-1 
1 132:1 194:1 195:1 258:1 464:1 465:1 522:1 528:1 675:1 677:3 678:3 679:1 680:2 681:2 682:-1 683:2 684:-1 685:36.1 686:1 687:3 688:3 689:3 690:1 691:3 692:9 693:2 695:3 696:1 697:1 698:3 699:2 700:-1 
1 49:1 128:1 142:1 149:1 193:1 258:1 326:1 358:1 401:1 412:1 463:1 519:1 675:1 677:3 678:3 679:1 680:2 681:2 682:-1 683:1 684:-1 685:25.1 686:1 687:2 688:2 689:3 690:2 691:-1 692:6 693:1 695:3 696:1 697:1 698:3 699:2 700:1 
1 193:1 234:1 252:1 273:1 275:1 377:1 401:1 465:1 504:1 675:1 677:3 678:3 679:1 680:2 681:2 682:-1 683:1 684:-1 685:25 686:1 687:3 688:3 689:3 690:1 691:3 692:7 693:2 695:2 696:2 697:-1 698:-1 699:1 700:-1 
1 48:1 133:1 222:1 229:1 320:1 355:1 403:1 490:1 519:1 675:1 677:3 678:3 679:1 680:2 681:2 682:-1 683:1 684:-1 685:35.2 686:1 687:2 688:2 689:3 690:1 691:3 692:7 693:1 695:3 696:1 697:1 698:4 699:2 700:1 
1 54:1 145:1 258:1 463:1 528:1 675:1 677:3 678:3 679:1 680:2 681:2 682:-1 683:1 684:-1 685:35 686:1 687:4 688:4 689:3 690:1 691:4 692:10 693:1 695:3 696:1 697:1 698:3 699:2 700:2 
1 50:1 54:1 60:1 86:1 88:1 133:1 249:1 320:1 356:1 388:1 419:1 464:1 504:1 675:1 677:3 678:3 679:1 680:2 681:1 682:67 683:1 684:-1 685:30.4 686:1 687:4 688:4 689:4 690:1 691:4 692:10 693:2 695:3 696:1 697:1 698:4 699:2 700:2 
