svm_type c_svc
kernel_type rbf
gamma 0.00141243
nr_class 2
total_sv 5651
rho 0.937985
label 1 0
nr_sv 1469 4182
SV
1 24:1 118:1 195:1 249:1 258:1 294:1 465:1 519:1 528:1 675:1 676:-1 677:3 678:3 679:1 680:2 681:2 682:-1 683:2 684:-1 685:24.3 686:1 687:3 688:3 689:2 690:1 691:3 692:7 693:1 694:2 695:3 696:1 697:1 698:4 699:2 700:-1 
1 88:1 249:1 260:1 675:2 676:2 677:3 678:1 679:3 680:3 681:1 682:5 683:1 684:-1 685:28.2 686:-9 687:-9 688:-9 689:-9 690:-9 691:-9 692:-9 693:1 694:4 695:3 696:1 697:-8 698:-8 699:2 700:-1 701:46516 702:8036 704:1 705:38 706:11529 708:39 
1 56:1 88:1 98:1 128:1 147:1 192:1 324:1 358:1 368:1 417:1 462:1 465:1 519:1 675:2 676:-1 677:3 678:1 679:3 680:3 681:2 682:-1 683:1 684:-1 685:23.9 686:1 687:4 688:4 689:4 690:1 691:4 692:10 693:1 694:4 695:4 696:1 697:1 698:4 699:2 700:-1 
1 123:1 147:1 249:1 356:1 358:1 393:1 417:1 421:1 519:1 675:2 676:-1 677:3 678:1 679:3 680:3 681:1 682:27 683:1 684:-1 685:-1 686:-1 687:-1 688:-1 689:-1 690:-1 691:-1 692:-1 693:-1 694:-1 695:-1 696:-1 697:-1 698:-1 699:-1 700:-1 
1 50:1 54:1 88:1 94:1 148:1 151:1 249:1 319:1 320:1 324:1 358:1 388:1 421:1 471:1 675:1 676:-1 677:3 678:3 679:1 680:1 681:1 682:45 683:2 684:-1 685:41.2 686:1 687:4 688:4 689:4 690:1 691:4 692:9 693:1 694:4 695:4 696:1 697:1 698:2 699:2 700:-1 
1 147:1 401:1 417:1 675:1 676:-1 677:3 678:3 679:1 680:1 681:2 682:-1 683:1 684:-1 685:22.3 686:2 687:3 688:3 689:3 690:1 691:3 692:8 693:2 694:-1 695:5 696:1 697:1 698:3 699:2 700:-1 
1 88:1 94:1 151:1 194:1 248:1 358:1 364:1 419:1 421:1 464:1 471:1 518:1 675:1 676:-1 677:3 678:3 679:1 680:1 681:2 682:-1 683:1 684:-1 685:25.5 686:1 687:3 688:4 689:4 690:1 691:3 692:10 693:1 694:3 695:3 696:1 697:1 698:4 699:2 700:2 
1 24:1 50:1 78:1 91:1 96:1 123:1 133:1 190:1 193:1 221:1 226:1 249:1 294:1 320:1 348:1 361:1 366:1 377:1 393:1 403:1 417:1 463:1 496:1 519:1 528:1 675:1 676:-1 677:3 678:3 679:1 680:2 681:1 682:38 683:1 684:-1 685:-1 686:1 687:4 688:3 689:3 690:1 691:3 692:8 693:1 694:3 695:5 696:1 697:1 698:4 699:2 700:1 
1 188:1 252:1 253:1 255:1 377:1 458:1 471:1 477:1 522:1 523:1 525:1 675:1 676:-1 677:3 678:3 679:1 680:2 681:-1 682:-1 683:2 684:1 685:-1 686:-1 687:-1 688:-1 689:-1 690:-1 691:-1 692:-1 693:-1 694:-1 695:-1 696:1 697:1 698:4 699:2 700:-1 
1 194:1 249:1 324:1 358:1 464:1 675:4 676:-1 677:1 678:3 679:3 680:4 681:2 682:-1 683:1 684:-1 685:26.4 686:2 687:-1 688:-1 689:-1 690:-1 691:-1 692:-1 693:2 694:-1 695:2 696:1 697:2 698:3 699:2 700:1 
1 147:1 190:1 200:1 355:1 393:1 417:1 421:1 462:1 463:1 470:1 471:1 472:1 513:1 675:2 676:-1 677:3 678:1 679:3 680:3 681:2 682:-1 683:1 684:-1 685:26 686:1 687:4 688:4 689:3 690:1 691:4 692:10 693:1 694:3 695:4 696:1 697:1 698:1 699:2 700:-1 
1 118:1 124:1 190:1 675:1 676:1 677:3 678:3 679:1 680:1 681:-1 682:-1 683:2 685:-1 686:-1 687:-1 688:-1 689:-1 690:-1 691:-1 692:-1 693:-1 694:-1 695:-1 696:1 697:1 698:4 699:2 700:-1 701:30196 704:1 705:62 706:10283 708:3 
1 50:1 98:1 226:1 320:1 360:1 675:2 676:-1 677:3 678:1 679:3 680:3 681:1 682:-8 683:2 684:-1 685:26.3 686:1 687:3 688:4 689:4 690:1 691:3 692:10 693:2 694:-1 695:4 696:1 697:1 698:3 699:2 700:1 
1 30:1 91:1 116:1 153:1 300:1 361:1 423:1 675:1 676:-1 677:3 678:3 679:1 680:2 681:2 682:-1 683:1 684:-1 685:28.7 686:1 687:4 688:4 689:4 690:1 691:4 692:7 693:1 694:4 695:3 696:1 697:2 698:-8 699:2 700:1 
1 73:1 195:1 252:1 258:1 464:1 465:1 493:1 516:1 522:1 528:1 675:1 676:-1 677:3 678:3 679:1 680:2 681:2 682:-1 683:1 684:-1 685:24.2 686:2 687:3 688:2 689:3 690:1 691:3 692:10 693:1 694:2 695:3 696:1 697:2 698:3 699:2 700:-1 
1 220:1 262:1 675:1 676:1 677:3 678:3 679:1 680:2 681:2 682:-1 683:2 684:-1 685:27.4 686:2 687:-1 688:-1 689:-1 690:-1 691:-1 692:-1 693:2 694:-1 695:2 696:2 697:-1 698:-1 699:2 700:-1 701:31858 702:30358 704:2 705:146 706:1898 
1 150:1 153:1 253:1 255:1 523:1 675:1 676:-1 677:3 678:3 679:1 680:1 681:-1 682:-1 683:2 684:1 685:-1 686:-1 687:-1 688:-1 689:-1 690:-1 691:-1 692:-1 693:-1 694:-1 695:-1 696:1 697:1 698:4 699:2 700:-1 
1 79:1 88:1 147:1 358:1 386:1 417:1 675:2 676:-1 677:3 678:1 679:3 680:3 681:2 682:-1 683:2 684:-1 685:25.8 686:1 687:4 688:4 689:4 690:1 691:4 692:10 693:1 694:4 695:4 696:1 697:1 698:1 699:2 700:2 
1 50:1 139:1 151:1 320:1 421:1 675:2 676:-1 677:3 678:1 679:3 680:3 681:1 682:55 683:2 684:-1 685:22.6 686:2 687:4 688:4 689:2 690:1 691:4 692:10 693:2 694:-1 695:4 696:1 697:1 698:4 699:2 700:2 
1 165:1 248:1 349:1 394:1 435:1 471:1 518:1 522:1 528:1 675:1 676:-1 677:3 678:3 679:1 680:2 681:2 682:-1 683:1 684:-1 685:20.8 686:1 687:3 688:3 689:3 690:1 691:3 692:9 693:1 694:3 695:3 696:1 697:1 698:3 699:2 700:-1 
1 39:1 40:1 50:1 54:1 60:1 201:1 258:1 309:1 312:1 320:1 324:1 330:1 340:1 348:1 354:1 365:1 377:1 471:1 519:1 528:1 675:1 676:-1 677:3 678:3 679:1 680:2 681:1 682:27 683:1 684:-1 685:19.9 686:1 687:3 688:3 689:3 690:1 691:3 692:9 693:1 694:2 695:5 696:1 697:1 698:4 699:2 700:1 
1 37:1 50:1 88:1 190:1 205:1 249:1 319:1 320:1 321:1 351:1 358:1 400:1 401:1 403:1 409:1 457:1 460:1 464:1 465:1 475:1 510:1 519:1 675:1 676:-1 677:3 678:3 679:1 680:1 681:1 682:65 683:1 684:-1 685:30.8 686:1 687:4 688:4 689:4 690:1 691:3 692:9 693:1 694:3 695:2 696:1 697:1 698:4 699:2 700:2 
1 8:1 24:1 50:1 96:1 194:1 294:1 320:1 366:1 464:1 675:1 676:-1 677:3 678:3 679:1 680:2 681:1 682:55 683:1 684:-1 685:35.9 686:1 687:3 688:3 689:3 690:1 691:3 692:7 693:1 694:2 695:4 696:1 697:1 698:3 699:2 700:1 
1 50:1 81:1 148:1 234:1 318:1 320:1 329:1 355:1 358:1 361:1 364:1 369:1 421:1 457:1 675:1 676:-1 677:3 678:3 679:1 680:2 681:1 682:38 683:1 684:-1 685:26.3 686:1 687:3 688:3 689:3 690:1 691:3 692:9 693:-9 694:-9 695:-9 696:1 697:1 698:3 699:2 700:1 
1 50:1 88:1 148:1 193:1 207:1 252:1 258:1 319:1 320:1 324:1 358:1 374:1 421:1 460:1 463:1 464:1 471:1 477:1 498:1 519:1 522:1 528:1 675:1 676:-1 677:3 678:3 679:1 680:2 681:1 682:45 683:1 684:-1 685:30.4 686:1 687:4 688:4 689:4 690:1 691:4 692:10 693:1 694:4 695:4 696:1 697:1 698:4 699:2 700:1 
1 50:1 54:1 88:1 90:1 91:1 94:1 320:1 324:1 360:1 361:1 364:1 519:1 528:1 675:2 676:-1 677:3 678:1 679:3 680:1 681:1 682:57 683:1 684:-1 685:29 686:1 687:4 688:4 689:4 690:1 691:4 692:5 693:1 694:4 695:4 696:1 697:1 698:4 699:2 700:2 
1 24:1 84:1 88:1 120:1 128:1 133:1 154:1 193:1 200:1 258:1 294:1 309:1 314:1 324:1 326:1 341:1 346:1 349:1 358:1 390:1 403:1 424:1 463:1 470:1 519:1 528:1 675:1 676:-1 677:3 678:3 679:1 680:2 681:2 682:-1 683:1 684:-1 685:26.7 686:1 687:2 688:2 689:2 690:1 691:3 692:4 693:1 694:3 695:4 696:1 697:1 698:4 699:2 700:1 
1 50:1 88:1 246:1 258:1 320:1 348:1 355:1 362:1 387:1 460:1 492:1 515:1 528:1 675:1 676:-1 677:3 678:3 679:1 680:1 681:1 682:34 683:1 684:-1 685:47.2 686:1 687:4 688:4 689:4 690:1 691:4 692:10 693:1 694:4 695:3 696:1 697:1 698:4 699:2 700:-1 
1 253:1 675:2 676:2 677:3 678:1 679:3 680:3 681:-1 682:-1 683:2 684:1 685:-1 686:-1 687:-1 688:-1 689:-1 690:-1 691:-1 692:-1 693:-1 694:-1 695:-1 696:1 697:1 698:4 699:2 700:-1 701:25686 704:1 705:30 706:3945 708:8 
1 50:1 51:1 147:1 189:1 312:1 675:2 676:2 677:3 678:1 679:3 680:3 681:2 682:-1 683:2 684:3 685:29.3 686:-1 687:-1 688:-1 689:-1 690:-1 691:-1 692:-1 693:-1 694:-1 695:-1 696:1 697:2 698:3 699:2 700:-1 701:4206 704:1 705:41 706:148742 708:14 
1 50:1 81:1 124:1 139:1 262:1 351:1 394:1 402:1 515:1 675:1 676:-1 677:3 678:3 679:1 680:2 681:1 683:1 684:-1 685:36 686:2 687:4 688:4 689:3 690:1 691:3 692:7 693:1 694:3 695:2 696:1 697:1 698:4 699:2 700:-1 
1 50:1 59:1 88:1 94:1 99:1 123:1 194:1 249:1 258:1 320:1 675:1 676:-1 677:3 678:3 679:1 680:2 681:1 682:42 683:1 684:-1 685:-1 686:1 687:3 688:3 689:2 690:1 691:3 692:8 693:1 694:3 695:4 696:1 697:1 698:4 699:-8 700:2 
1 50:1 54:1 88:1 128:1 145:1 147:1 194:1 275:1 320:1 324:1 358:1 377:1 401:1 417:1 675:2 676:-1 677:3 678:1 679:3 680:3 681:1 682:59 683:1 684:-1 685:34.5 686:2 687:4 688:4 689:4 690:1 691:4 692:9 693:1 694:4 695:4 696:2 697:-1 698:-1 699:2 700:2 
1 50:1 151:1 675:1 676:1 677:3 678:3 679:1 680:1 681:2 682:-1 683:1 684:-1 685:18.9 686:1 687:4 688:4 689:4 690:2 691:-1 692:10 693:2 694:-1 695:4 696:1 697:1 698:4 699:2 700:-1 701:16765 704:1 705:151 706:66574 708:40 
1 50:1 88:1 90:1 123:1 148:1 151:1 320:1 324:1 358:1 360:1 361:1 362:1 421:1 675:1 676:-1 677:3 678:3 679:1 680:1 681:1 682:27 683:1 684:-1 685:44.3 686:2 687:4 688:4 689:4 690:2 691:-1 692:10 693:2 694:-1 695:1 696:1 697:1 698:4 699:2 700:-1 
1 50:1 77:1 91:1 148:1 273:1 320:1 421:1 675:1 676:-1 677:3 678:3 679:1 680:1 681:1 682:16 683:1 684:-1 685:38.7 686:1 687:4 688:4 689:4 690:1 691:4 692:9 693:2 694:-1 695:4 696:1 697:1 698:3 699:2 700:-1 
1 4:1 8:1 60:1 79:1 143:1 149:1 160:1 200:1 201:1 249:1 258:1 274:1 403:1 409:1 419:1 470:1 528:1 675:1 676:-1 677:3 678:3 679:1 680:2 681:2 682:-1 683:1 684:-1 685:27.5 686:1 687:4 688:4 689:3 690:1 691:4 692:8 693:1 694:3 695:4 696:1 697:1 698:4 699:2 700:2 
1 76:1 88:1 91:1 156:1 190:1 193:1 195:1 201:1 234:1 258:1 465:1 471:1 517:1 519:1 528:1 675:1 676:-1 677:3 678:3 679:1 680:2 681:2 682:-1 683:1 684:-1 685:28.2 686:1 687:3 688:3 689:3 690:1 691:3 692:6 693:1 694:2 695:4 696:1 697:1 698:4 699:2 700:1 
1 25:1 50:1 192:1 200:1 248:1 249:1 295:1 320:1 350:1 354:1 380:1 433:1 464:1 470:1 471:1 675:2 676:-1 677:3 678:1 679:3 680:3 681:1 682:52 683:1 684:-1 685:36 686:1 687:2 688:3 689:2 690:1 691:3 692:5 693:1 694:4 695:3 696:1 697:2 698:1 699:2 700:-1 
1 74:1 344:1 394:1 401:1 511:1 675:1 676:-1 677:3 678:3 679:1 680:2 681:2 682:-1 683:2 684:-1 685:20.3 686:1 687:4 688:4 689:4 690:1 691:4 692:9 693:2 694:-1 695:1 696:1 697:1 698:4 699:2 700:-1 
1 27:1 50:1 54:1 88:1 151:1 297:1 315:1 320:1 324:1 358:1 421:1 464:1 519:1 675:2 676:-1 677:3 678:1 679:3 680:3 681:2 682:-1 683:1 684:-1 685:32.9 686:1 687:1 688:2 689:2 690:1 691:4 692:6 693:1 694:4 695:3 696:1 697:1 698:4 699:2 700:-1 
1 4:1 24:1 25:1 84:1 85:1 195:1 201:1 234:1 252:1 258:1 294:1 295:1 319:1 346:1 354:1 355:1 463:1 465:1 471:1 477:1 504:1 528:1 675:1 676:-1 677:3 678:3 679:1 680:2 681:2 682:-1 683:1 684:-1 685:23.5 686:1 687:4 688:4 689:3 690:1 691:4 692:7 693:1 694:4 695:5 696:1 697:1 698:3 699:1 700:1 
1 84:1 253:1 352:1 515:1 523:1 675:1 676:-1 677:3 678:3 679:1 680:1 681:-1 682:-1 683:1 684:1 685:-1 686:-1 687:-1 688:-1 689:-1 690:-1 691:-1 692:-1 693:-1 694:-1 695:-1 696:1 697:1 698:4 699:2 700:-1 
1 19:1 53:1 76:1 145:1 190:1 323:1 383:1 386:1 460:1 675:2 676:-1 677:3 678:1 679:3 680:3 681:2 682:-1 683:1 684:-1 685:25.2 686:-9 687:-9 688:-9 689:-9 690:-9 691:-9 692:-9 693:1 694:4 695:3 696:1 697:2 698:-8 699:2 700:2 
1 50:1 76:1 94:1 193:1 194:1 195:1 245:1 320:1 351:1 463:1 465:1 675:1 676:-1 677:3 678:3 679:1 680:2 681:1 682:51 683:1 684:-1 685:21.3 686:1 687:3 688:3 689:3 690:1 691:3 692:7 693:1 694:3 695:3 696:1 697:1 698:3 699:2 700:1 
1 48:1 81:1 118:1 124:1 133:1 157:1 193:1 194:1 243:1 246:1 249:1 275:1 318:1 351:1 366:1 388:1 394:1 460:1 463:1 464:1 472:1 499:1 516:1 519:1 675:1 676:-1 677:3 678:3 679:1 680:2 681:2 682:-1 683:1 684:-1 685:20.5 686:1 687:3 688:3 689:2 690:1 691:3 692:9 693:1 694:3 695:2 696:1 697:2 698:3 699:2 700:-1 
1 30:1 33:1 78:1 85:1 88:1 194:1 249:1 300:1 303:1 312:1 314:1 348:1 355:1 358:1 387:1 463:1 464:1 465:1 471:1 519:1 675:2 676:-1 677:3 678:1 679:3 680:3 681:2 682:-1 683:1 684:-1 685:26.2 686:1 687:4 688:4 689:4 690:1 691:4 692:10 693:1 694:4 695:4 696:1 697:1 698:4 699:2 700:-9 
1 79:1 194:1 243:1 464:1 465:1 513:1 675:1 676:-1 677:3 678:3 679:1 680:1 681:-1 682:-1 683:1 685:-1 686:-1 687:-1 688:-1 689:-1 690:-1 691:-1 692:-1 693:-1 694:-1 695:-1 696:1 697:1 698:4 699:2 700:-1 
1 8:1 54:1 59:1 88:1 94:1 117:1 118:1 187:1 249:1 255:1 278:1 320:1 325:1 329:1 356:1 364:1 387:1 388:1 393:1 394:1 427:1 457:1 519:1 523:1 525:1 528:1 675:1 676:-1 677:3 678:3 679:1 680:2 681:1 682:60 683:1 684:-1 685:39.9 686:1 687:4 688:4 689:4 690:1 691:4 692:10 693:1 694:-9 695:4 696:1 697:1 698:4 699:2 700:2 
1 11:1 15:1 30:1 76:1 88:1 300:1 330:1 361:1 465:1 675:1 676:-1 677:3 678:3 679:1 680:2 681:2 682:-1 683:1 684:-1 685:25.4 686:1 687:3 688:3 689:3 690:1 691:4 692:10 693:1 694:4 695:2 696:1 697:1 698:4 699:2 700:1 
1 70:1 85:1 194:1 222:1 340:1 386:1 464:1 492:1 528:1 675:1 676:-1 677:3 678:3 679:1 680:2 681:2 682:-1 683:2 684:-1 685:28.7 686:1 687:3 688:3 689:3 690:1 691:2 692:7 693:1 694:3 695:3 696:1 697:1 698:2 699:2 700:-1 
1 50:1 81:1 201:1 234:1 258:1 315:1 320:1 465:1 504:1 528:1 675:1 676:-1 677:3 678:3 679:1 680:1 681:2 682:-1 683:1 684:-1 685:36.3 686:1 687:4 688:3 689:4 690:1 691:3 692:8 693:1 694:3 695:5 696:1 697:1 698:4 699:2 700:2 
1 5:1 77:1 84:1 88:1 99:1 189:1 193:1 194:1 202:1 215:1 312:1 319:1 324:1 326:1 329:1 352:1 354:1 358:1 366:1 383:1 423:1 430:1 463:1 464:1 506:1 519:1 675:1 676:-1 677:3 678:3 679:1 680:2 681:2 682:-1 683:1 684:-1 685:23.3 686:1 687:4 688:4 689:4 690:1 691:4 692:10 693:1 694:4 695:4 696:1 697:1 698:4 699:2 700:2 
1 118:1 192:1 200:1 258:1 318:1 320:1 330:1 356:1 376:1 378:1 388:1 462:1 470:1 502:1 518:1 522:1 528:1 675:2 676:-1 677:3 678:1 679:3 680:3 681:1 682:33 683:1 684:-1 685:34.3 686:1 687:4 688:4 689:4 690:1 691:4 692:10 693:1 694:4 695:5 696:1 697:1 698:4 699:2 700:-1 
1 258:1 394:1 401:1 419:1 523:1 675:1 676:-1 677:3 678:3 679:1 680:1 681:-1 682:-1 683:1 684:4 685:-1 686:-1 687:-1 688:-1 689:-1 690:-1 691:-1 692:-1 693:-1 694:-1 695:-1 696:1 697:1 698:4 699:1 700:-1 
1 149:1 165:1 186:1 190:1 195:1 349:1 387:1 460:1 465:1 492:1 504:1 513:1 515:1 522:1 675:1 676:-1 677:3 678:3 679:1 680:2 681:2 682:-1 683:1 684:-1 685:37 686:1 687:4 688:4 689:4 690:1 691:4 692:10 693:1 694:2 695:2 696:1 697:1 698:4 699:2 700:-1 
1 9:1 25:1 76:1 81:1 135:1 192:1 202:1 249:1 279:1 315:1 346:1 462:1 464:1 506:1 519:1 675:1 676:-1 677:3 678:3 679:1 680:2 681:2 682:-1 683:1 684:-1 685:41.8 686:1 687:4 688:4 689:3 690:1 691:4 692:9 693:2 694:-1 695:5 696:1 697:1 698:4 699:2 700:1 
1 39:1 50:1 230:1 249:1 675:2 676:2 677:3 678:1 679:3 680:3 681:1 682:45 683:1 684:-1 685:23.2 686:1 687:4 688:4 689:4 690:2 691:-1 692:10 693:2 694:-1 695:4 696:1 697:1 698:4 699:2 700:2 701:32346 702:11000 704:2 705:22 706:146254 708:92 
1 118:1 194:1 215:1 253:1 258:1 464:1 485:1 523:1 528:1 675:1 676:-1 677:3 678:3 679:1 680:1 681:-1 682:-1 683:1 685:-1 686:-1 687:-1 688:-1 689:-1 690:-1 691:-1 692:-1 693:-1 694:-1 695:-1 696:1 697:2 698:4 699:2 700:-1 
1 50:1 56:1 59:1 190:1 193:1 215:1 320:1 329:1 353:1 358:1 423:1 458:1 460:1 463:1 464:1 471:1 492:1 493:1 505:1 517:1 528:1 675:6 676:-1 677:3 678:3 679:2 680:5 681:2 682:-1 683:1 684:-1 685:39.8 686:-1 687:-1 688:-1 689:-1 690:-1 691:-1 692:-1 693:-1 694:-1 695:-1 696:1 697:1 698:4 699:2 700:2 
1 60:1 77:1 79:1 91:1 123:1 124:1 193:1 201:1 222:1 246:1 247:1 248:1 294:1 330:1 347:1 349:1 361:1 393:1 394:1 413:1 426:1 464:1 471:1 504:1 516:1 518:1 675:1 676:-1 677:3 678:3 679:1 680:2 681:2 682:-1 683:1 684:-1 685:23.6 686:1 687:4 688:4 689:3 690:1 691:4 692:10 693:1 694:4 695:2 696:1 697:1 698:4 699:2 700:1 
1 88:1 116:1 171:1 186:1 519:1 675:1 676:-1 677:3 678:3 679:1 680:2 681:2 682:-1 683:1 684:-1 685:29.3 686:2 687:-1 688:-1 689:-1 690:-1 691:-1 692:-1 693:2 694:-1 695:2 696:1 697:1 698:-8 699:2 700:-1 
1 50:1 193:1 252:1 258:1 259:1 388:1 463:1 519:1 522:1 528:1 529:1 675:2 676:-1 677:3 678:1 679:3 680:1 681:2 682:-1 683:1 684:-1 685:39.2 686:1 687:4 688:4 689:4 690:1 691:4 692:10 693:1 694:3 695:5 696:1 697:1 698:4 699:2 700:-1 
1 44:1 64:1 65:1 117:1 127:1 153:1 190:1 195:1 201:1 249:1 334:1 387:1 423:1 457:1 464:1 485:1 675:1 676:-1 677:3 678:3 679:1 680:2 681:2 682:-1 683:1 684:-1 685:24.4 686:1 687:3 688:3 689:3 690:1 691:4 692:8 693:1 694:3 695:3 696:1 697:2 698:-8 699:2 700:1 
1 59:1 113:1 118:1 253:1 258:1 519:1 523:1 528:1 675:1 676:-1 677:3 678:3 679:1 680:1 681:-1 682:-1 683:1 684:2 685:-1 686:-1 687:-1 688:-1 689:-1 690:-1 691:-1 692:-1 693:-1 694:-1 695:-1 696:1 697:1 698:4 699:2 700:-1 
1 249:1 346:1 355:1 377:1 675:2 676:-1 677:3 678:1 679:3 680:3 681:2 682:-1 683:2 684:-1 685:32.1 686:1 687:4 688:4 689:4 690:1 691:4 692:10 693:1 694:4 695:4 696:1 697:1 698:4 699:2 700:1 
1 8:1 77:1 194:1 226:1 229:1 234:1 241:1 247:1 347:1 386:1 387:1 393:1 419:1 464:1 471:1 499:1 504:1 517:1 675:1 676:-1 677:3 678:3 679:1 680:2 681:2 682:-1 683:1 684:-1 685:25.7 686:1 687:4 688:4 689:4 690:1 691:4 692:10 693:1 694:4 695:3 696:1 697:1 698:4 699:2 700:1 
1 81:1 93:1 98:1 105:1 117:1 136:1 201:1 222:1 322:1 358:1 363:1 368:1 378:1 386:1 395:1 401:1 414:1 419:1 471:1 519:1 675:1 676:-1 677:3 678:3 679:1 680:2 681:2 682:-1 683:1 684:-1 685:30.4 686:1 687:4 688:4 689:4 690:1 691:4 692:10 693:1 694:4 695:4 696:1 697:1 698:4 699:2 700:1 
1 20:1 54:1 79:1 128:1 152:1 165:1 252:1 290:1 324:1 378:1 422:1 460:1 504:1 522:1 675:1 676:-1 677:3 678:3 679:1 680:2 681:2 682:-1 683:1 684:-1 685:21.8 686:1 687:4 688:3 689:2 690:1 691:2 692:8 693:1 694:3 695:2 696:1 697:2 698:4 699:2 700:2 
1 55:1 116:1 117:1 151:1 195:1 381:1 387:1 393:1 421:1 675:1 676:-1 677:3 678:3 679:1 680:2 681:2 682:-1 683:1 684:-1 685:36.7 686:1 687:3 688:4 689:4 690:1 691:3 692:10 693:1 694:4 695:4 696:1 697:1 698:4 699:2 700:1 
1 50:1 195:1 234:1 252:1 386:1 465:1 504:1 522:1 534:1 675:1 676:-1 677:3 678:3 679:1 680:1 681:1 682:36 683:1 684:-1 685:40.8 686:1 687:4 688:3 689:3 690:1 691:4 692:8 693:2 694:-1 695:5 696:1 697:1 698:4 699:2 700:-1 
1 74:1 108:1 193:1 194:1 195:1 201:1 245:1 248:1 258:1 344:1 463:1 464:1 471:1 493:1 495:1 496:1 515:1 519:1 528:1 675:1 676:-1 677:3 678:3 679:1 680:2 681:2 682:-1 683:1 684:-1 685:27.4 686:1 687:1 688:2 689:1 690:2 691:-1 692:8 693:1 694:1 695:4 696:2 697:-1 698:-1 699:1 700:-1 
1 90:1 128:1 151:1 189:1 220:1 226:1 249:1 358:1 398:1 415:1 421:1 459:1 464:1 496:1 519:1 528:1 675:2 676:-1 677:3 678:1 679:3 680:3 681:2 682:-1 683:-1 684:-1 685:-1 686:-1 687:-1 688:-1 689:-1 690:-1 691:-1 692:-1 693:-1 694:-1 695:-1 696:-1 697:-1 698:-1 699:-1 700:-1 
1 85:1 194:1 201:1 249:1 252:1 258:1 355:1 423:1 464:1 471:1 519:1 522:1 528:1 675:1 676:-1 677:3 678:3 679:1 680:1 681:2 682:-1 683:2 684:-1 685:26.5 686:1 687:3 688:2 689:4 690:1 691:3 692:9 693:1 694:3 695:4 696:1 697:1 698:4 699:2 700:-1 
1 54:1 118:1 124:1 193:1 194:1 215:1 222:1 394:1 403:1 471:1 485:1 675:2 676:-1 677:3 678:1 679:3 680:3 681:2 682:-1 683:1 684:-1 685:39.1 686:1 687:3 688:4 689:3 690:1 691:3 692:8 693:1 694:4 695:3 696:2 697:-1 698:-1 699:2 700:2 
1 54:1 76:1 88:1 118:1 193:1 221:1 324:1 358:1 387:1 388:1 403:1 463:1 491:1 675:2 676:-1 677:3 678:1 679:3 680:3 681:2 682:-1 683:1 684:-1 685:39.1 686:1 687:4 688:4 689:4 690:1 691:4 692:9 693:1 694:3 695:4 696:1 697:1 698:4 699:2 700:2 
1 96:1 107:1 246:1 361:1 366:1 504:1 675:1 676:-1 677:3 678:3 679:1 680:2 681:2 682:-1 683:1 684:-1 685:27.1 686:1 687:3 688:4 689:3 690:1 691:3 692:9 693:1 694:3 695:2 696:1 697:1 698:4 699:2 700:2 
1 30:1 194:1 320:1 321:1 349:1 502:1 675:2 676:-1 677:3 678:1 679:3 680:3 681:1 682:60 683:1 684:-1 685:23.2 686:1 687:4 688:4 689:4 690:1 691:4 692:6 693:1 694:4 695:4 696:1 697:1 698:3 699:2 700:2 
1 50:1 54:1 88:1 150:1 252:1 258:1 320:1 324:1 358:1 420:1 423:1 519:1 522:1 528:1 675:1 676:-1 677:3 678:3 679:1 680:1 681:1 682:52 683:1 684:-1 685:29.3 686:1 687:4 688:4 689:4 690:1 691:4 692:10 693:1 694:4 695:4 696:1 697:1 698:1 699:2 700:2 
1 49:1 88:1 151:1 193:1 201:1 246:1 319:1 464:1 675:2 676:-1 677:3 678:1 679:3 680:3 681:2 682:-1 683:1 684:-1 685:34.7 686:1 687:2 688:1 689:4 690:2 691:-1 692:10 693:2 694:-1 695:5 696:1 697:2 698:2 699:2 700:2 
1 78:1 348:1 499:1 675:1 676:-1 677:3 678:3 679:1 680:2 681:2 682:-1 683:1 684:-1 685:23.7 686:1 687:4 688:4 689:3 690:1 691:4 692:10 693:1 694:4 695:2 696:1 697:-8 698:4 699:2 700:2 
1 114:1 118:1 253:1 384:1 523:1 675:2 676:-1 677:3 678:1 679:3 680:3 681:-1 682:-1 683:2 684:-1 685:-1 686:-1 687:-1 688:-1 689:-1 690:-1 691:-1 692:-1 693:-1 694:-1 695:-1 696:1 697:1 698:4 699:2 700:-1 
1 50:1 83:1 88:1 91:1 92:1 149:1 151:1 193:1 194:1 246:1 320:1 358:1 361:1 421:1 463:1 464:1 465:1 516:1 519:1 675:2 676:-1 677:3 678:1 679:3 680:3 681:2 682:-1 683:1 684:-1 685:31.7 686:1 687:3 688:4 689:2 690:1 691:4 692:5 693:1 694:2 695:4 696:2 697:-1 698:-1 699:2 700:2 
1 50:1 234:1 421:1 675:1 676:-1 677:3 678:3 679:1 680:1 681:1 682:40 683:1 684:-1 685:27.2 686:1 687:3 688:4 689:3 690:1 691:3 692:8 693:1 694:4 695:4 696:1 697:1 698:4 699:2 700:-1 
1 25:1 386:1 675:1 676:-1 677:3 678:3 679:1 680:2 681:2 682:-1 683:2 684:-1 685:24.2 686:1 687:3 688:3 689:3 690:1 691:4 692:9 693:1 694:4 695:3 696:1 697:1 698:3 699:2 700:-1 
1 60:1 70:1 74:1 79:1 83:1 117:1 131:1 201:1 258:1 349:1 353:1 464:1 471:1 522:1 528:1 675:1 676:-1 677:3 678:3 679:1 680:1 681:2 682:-1 683:1 684:-1 685:29.3 686:1 687:2 688:3 689:2 690:1 691:2 692:5 693:1 694:2 695:5 696:1 697:1 698:2 699:2 700:-1 
1 86:1 88:1 91:1 95:1 117:1 120:1 194:1 199:1 258:1 358:1 361:1 365:1 382:1 387:1 675:1 676:-1 677:3 678:3 679:1 680:2 681:2 682:-1 683:1 684:-1 685:20.2 686:2 687:-9 688:-9 689:-9 690:-9 691:-9 692:-9 693:-9 694:4 695:3 696:1 697:2 698:1 699:2 700:2 
1 84:1 88:1 109:1 116:1 195:1 258:1 379:1 464:1 465:1 504:1 522:1 528:1 675:1 676:-1 677:3 678:3 679:1 680:2 681:2 682:-1 683:1 684:-1 685:34.2 686:1 687:4 688:4 689:4 690:1 691:4 692:9 693:-9 694:-9 695:-9 696:1 697:1 698:-8 699:2 700:2 
1 9:1 150:1 279:1 393:1 471:1 675:1 676:-1 677:3 678:3 679:1 680:2 681:2 682:-1 683:1 684:-1 685:28.3 686:1 687:1 688:1 689:1 690:2 691:-1 693:1 694:3 695:5 696:1 697:2 698:4 699:2 700:-1 
1 8:1 240:1 246:1 253:1 383:1 395:1 506:1 523:1 675:1 676:-1 677:3 678:3 679:1 680:1 681:-1 682:-1 683:1 685:-1 686:-1 687:-1 688:-1 689:-1 690:-1 691:-1 692:-1 693:-1 694:-1 695:-1 696:1 697:1 698:4 699:2 700:-1 
1 15:1 131:1 279:1 285:1 457:1 460:1 675:1 676:-1 677:3 678:3 679:1 680:1 681:2 682:-1 683:1 684:-1 685:36.8 686:1 687:-1 688:-1 689:-1 690:-1 691:-1 692:-1 693:1 694:4 695:2 696:1 697:1 698:-8 699:2 700:-1 
1 33:1 50:1 54:1 56:1 88:1 90:1 91:1 303:1 319:1 320:1 324:1 358:1 360:1 361:1 365:1 419:1 435:1 528:1 675:1 676:-1 677:3 678:3 679:1 680:2 681:1 682:49 683:2 684:-1 685:24.7 686:1 687:4 688:4 689:4 690:1 691:4 692:8 693:1 694:4 695:3 696:1 697:1 698:4 699:2 700:2 
1 49:1 74:1 79:1 116:1 124:1 193:1 195:1 246:1 258:1 315:1 344:1 380:1 386:1 394:1 464:1 465:1 528:1 675:1 676:-1 677:3 678:3 679:1 680:2 681:2 682:-1 683:1 684:-1 685:37.8 686:1 687:3 688:4 689:3 690:1 691:3 692:8 693:1 694:4 695:3 696:1 697:1 698:3 699:2 700:2 
1 192:1 201:1 229:1 234:1 249:1 401:1 415:1 471:1 504:1 519:1 675:1 676:-1 677:3 678:3 679:1 680:2 681:2 682:-1 683:1 684:-1 685:21.1 686:1 687:2 688:2 689:-9 690:1 691:2 692:5 693:1 694:2 695:5 696:1 697:1 698:1 699:2 700:2 
1 116:1 165:1 186:1 195:1 201:1 258:1 274:1 522:1 528:1 675:2 676:-1 677:3 678:1 679:3 680:3 681:2 682:-1 683:1 684:-1 685:32.9 686:1 687:4 688:4 689:4 690:1 691:4 692:7 693:1 694:4 695:4 696:1 697:1 698:4 699:2 700:-1 
1 42:1 44:1 187:1 246:1 312:1 314:1 320:1 324:1 358:1 516:1 675:2 676:-1 677:3 678:1 679:3 680:3 681:1 682:-8 683:2 684:-1 685:23.1 686:1 687:4 688:4 689:4 690:1 691:2 692:-9 693:2 694:-1 695:4 696:1 697:1 698:-8 699:2 700:-1 
1 54:1 78:1 201:1 258:1 464:1 471:1 528:1 675:1 676:-1 677:3 678:3 679:1 680:2 681:2 682:-1 683:1 684:-1 685:19.6 686:1 687:4 688:3 689:3 690:1 691:3 692:8 693:2 694:-1 695:3 696:1 697:2 698:4 699:2 700:-1 
1 45:1 49:1 60:1 84:1 94:1 124:1 163:1 165:1 201:1 249:1 330:1 460:1 464:1 471:1 519:1 675:1 676:-1 677:3 678:3 679:1 680:2 681:2 682:-1 683:2 684:-1 685:22.7 686:1 687:3 688:3 689:3 690:1 691:3 692:7 693:1 694:4 695:3 696:1 697:1 698:4 699:2 700:-1 
1 74:1 88:1 141:1 153:1 192:1 195:1 196:1 320:1 358:1 411:1 419:1 423:1 462:1 465:1 466:1 522:1 675:1 676:-1 677:3 678:3 679:1 680:1 681:1 682:61 683:1 684:-1 685:35.5 686:1 687:4 688:3 689:3 690:-9 691:-9 692:4 693:1 694:3 695:4 696:1 697:1 698:3 699:2 700:-1 
1 84:1 88:1 149:1 195:1 220:1 258:1 319:1 329:1 344:1 351:1 377:1 415:1 419:1 420:1 423:1 460:1 465:1 490:1 519:1 522:1 528:1 675:1 676:-1 677:3 678:3 679:1 680:1 681:2 682:-1 683:1 684:-1 685:20.7 686:1 687:3 688:3 689:2 690:1 691:4 692:6 693:1 694:4 695:3 696:1 697:1 698:4 699:2 700:-1 
1 8:1 74:1 118:1 126:1 165:1 195:1 252:1 253:1 258:1 344:1 388:1 465:1 519:1 522:1 523:1 528:1 675:1 676:-1 677:3 678:3 679:1 680:2 681:2 682:-1 683:1 684:-1 685:30.1 686:1 687:4 688:4 689:4 690:1 691:4 692:10 693:1 694:4 695:3 696:1 697:1 698:4 699:2 700:-1 
1 24:1 78:1 84:1 106:1 108:1 190:1 281:1 315:1 346:1 348:1 354:1 376:1 378:1 460:1 675:1 676:-1 677:3 678:3 679:1 680:2 681:2 682:-1 683:1 684:-1 685:27.8 686:-9 687:-9 688:-9 689:-9 690:-9 691:-9 692:-9 693:1 694:4 695:3 696:1 697:1 698:4 699:2 700:1 
1 24:1 49:1 201:1 294:1 361:1 471:1 675:1 676:-1 677:3 678:3 679:1 680:2 681:2 682:-1 683:1 684:-1 685:25.7 686:1 687:4 688:4 689:4 690:1 691:3 692:9 693:1 694:4 695:2 696:1 697:2 698:-8 699:2 700:-1 
1 76:1 124:1 195:1 346:1 396:1 398:1 400:1 465:1 675:2 676:-1 677:3 678:1 679:3 680:3 681:2 682:-1 683:1 684:-1 685:32.8 686:1 687:3 688:3 689:2 690:1 691:4 692:5 693:2 694:-1 695:4 696:1 697:1 698:-8 699:2 700:1 
1 25:1 43:1 194:1 202:1 258:1 295:1 313:1 464:1 471:1 472:1 528:1 675:2 676:-1 677:3 678:1 679:3 680:3 681:2 682:-1 683:-1 684:-1 685:-1 686:-1 687:-1 688:-1 689:-1 690:-1 691:-1 692:-1 693:-1 694:-1 695:-1 696:-1 697:-1 698:-1 699:-1 700:-1 
1 50:1 54:1 88:1 96:1 145:1 153:1 215:1 222:1 320:1 366:1 386:1 415:1 485:1 513:1 675:1 676:-1 677:3 678:3 679:1 680:2 681:1 682:74 683:1 684:-1 685:23.6 686:1 687:4 688:4 689:4 690:1 691:4 692:8 693:1 694:4 695:3 696:1 697:1 698:4 699:2 700:-1 
1 24:1 50:1 258:1 278:1 320:1 358:1 383:1 490:1 492:1 515:1 519:1 522:1 528:1 675:1 676:-1 677:3 678:3 679:1 680:2 681:1 682:40 683:1 684:-1 685:38.1 686:1 687:4 688:4 689:4 690:1 691:4 692:10 693:1 694:4 695:4 696:1 697:1 698:3 699:2 700:-1 
1 50:1 54:1 85:1 96:1 195:1 227:1 249:1 258:1 320:1 324:1 355:1 358:1 386:1 415:1 427:1 465:1 516:1 517:1 522:1 523:1 528:1 675:1 676:-1 677:3 678:3 679:1 680:2 681:1 682:32 683:2 684:-1 685:28.6 686:1 687:3 688:2 689:3 690:1 691:3 692:7 693:1 694:4 695:4 696:1 697:1 698:4 699:2 700:-1 
1 71:1 74:1 88:1 234:1 240:1 344:1 386:1 504:1 675:2 676:-1 677:3 678:1 679:3 680:3 681:2 682:-1 683:1 684:-1 685:26.6 686:1 687:3 688:3 689:3 690:1 691:4 692:6 693:1 694:2 695:2 696:1 697:1 698:4 699:2 700:-1 
1 8:1 25:1 50:1 90:1 91:1 221:1 295:1 361:1 421:1 463:1 491:1 675:1 676:-1 677:3 678:3 679:1 680:1 681:1 682:69 683:1 684:-1 685:26 686:1 687:4 688:4 689:4 690:1 691:4 692:10 693:1 694:4 695:4 696:1 697:2 698:4 699:2 700:1 
1 50:1 54:1 88:1 116:1 143:1 150:1 153:1 157:1 320:1 321:1 326:1 377:1 383:1 393:1 406:1 417:1 419:1 421:1 423:1 675:1 676:-1 677:3 678:3 679:1 680:1 681:1 682:39 683:1 684:-1 685:41.6 686:1 687:4 688:4 689:4 690:1 691:4 692:-9 693:-9 694:-9 695:-9 696:1 697:2 698:4 699:2 700:-1 
1 49:1 85:1 91:1 156:1 187:1 226:1 234:1 319:1 355:1 360:1 426:1 504:1 675:1 676:-1 677:3 678:3 679:1 680:2 681:2 682:-1 683:1 684:-1 685:34.8 686:-9 687:4 688:3 689:3 690:1 691:3 692:9 693:1 694:3 695:3 696:1 697:1 698:4 699:2 700:1 
1 5:1 48:1 54:1 76:1 124:1 220:1 275:1 324:1 351:1 358:1 394:1 465:1 492:1 675:1 676:-1 677:3 678:3 679:1 680:2 681:2 682:-1 683:1 684:-1 685:34.9 686:1 687:3 688:4 689:4 690:1 691:4 692:10 693:2 694:-1 695:3 696:1 697:1 698:4 699:2 700:1 
1 4:1 5:1 59:1 82:1 128:1 207:1 352:1 386:1 415:1 477:1 506:1 510:1 675:1 676:-1 677:3 678:3 679:1 680:2 681:-1 682:-1 683:2 684:-1 685:-1 686:-1 687:-1 688:-1 689:-1 690:-1 691:-1 692:-1 693:-1 694:-1 695:-1 696:1 697:1 698:3 699:2 700:-1 
1 54:1 88:1 111:1 187:1 195:1 201:1 258:1 457:1 465:1 471:1 492:1 528:1 534:1 675:1 676:-1 677:3 678:3 679:1 680:1 681:2 682:-1 683:2 684:-1 685:34.1 686:-1 687:-1 688:-1 689:-1 690:-1 691:-1 692:-1 693:-1 694:-1 695:-1 696:1 697:1 698:4 699:1 700:-1 
1 50:1 76:1 195:1 201:1 222:1 243:1 315:1 320:1 341:1 346:1 351:1 413:1 430:1 464:1 471:1 485:1 495:1 512:1 522:1 675:1 676:-1 677:3 678:3 679:1 680:2 681:1 682:62 683:1 684:-1 685:26.6 686:1 687:2 688:3 689:3 690:1 691:3 692:10 693:1 694:3 695:3 696:1 697:1 698:4 699:2 700:-1 
1 90:1 91:1 99:1 102:1 117:1 118:1 128:1 190:1 324:1 349:1 351:1 355:1 361:1 387:1 388:1 398:1 460:1 675:1 676:-1 677:3 678:3 679:1 680:2 681:2 682:-1 683:1 684:-1 685:29.2 686:1 687:4 688:4 689:4 690:1 691:4 692:10 693:1 694:4 695:3 696:1 697:1 698:4 699:2 700:-1 
1 84:1 207:1 369:1 463:1 675:4 676:4 677:1 678:3 679:3 680:4 681:2 682:-1 683:1 684:-1 685:19.2 686:2 687:-1 688:-1 689:-1 690:-1 691:-1 692:-1 693:2 694:-1 695:4 696:1 697:2 698:2 699:2 700:-1 701:14688 704:1 705:1 706:140 708:81 
1 242:1 243:1 390:1 675:2 676:2 677:3 678:1 679:3 680:3 681:2 682:-1 683:1 684:-1 685:23.6 686:-9 687:-9 688:-9 689:-9 690:-9 691:-9 692:-9 693:2 694:-1 695:1 696:1 697:1 698:4 699:2 700:-1 701:96130 702:40110 704:2 705:11 706:945 
1 50:1 54:1 79:1 88:1 99:1 106:1 320:1 324:1 348:1 358:1 364:1 369:1 388:1 464:1 522:1 675:1 676:-1 677:3 678:3 679:1 680:1 681:1 682:40 683:1 684:-1 685:17.6 686:1 687:4 688:4 689:4 690:1 691:4 692:8 693:1 694:4 695:4 696:1 697:1 698:4 699:2 700:-1 
1 74:1 259:1 344:1 522:1 528:1 529:1 675:1 676:-1 677:3 678:3 679:1 680:2 681:2 682:-1 683:1 684:-1 685:24.5 686:1 687:3 688:3 689:3 690:1 691:3 692:8 693:1 694:3 695:3 696:2 697:-1 698:-1 699:2 700:-1 
1 71:1 76:1 88:1 92:1 128:1 190:1 193:1 195:1 200:1 201:1 220:1 249:1 326:1 341:1 355:1 358:1 398:1 401:1 421:1 427:1 460:1 463:1 470:1 471:1 472:1 490:1 516:1 675:1 676:-1 677:3 678:3 679:1 680:2 681:2 682:-1 683:1 684:-1 685:32.3 686:1 687:3 688:3 689:3 690:1 691:3 692:7 693:1 694:3 695:-9 696:1 697:1 698:4 699:2 700:-1 
1 50:1 64:1 96:1 107:1 116:1 124:1 143:1 187:1 207:1 249:1 320:1 350:1 355:1 368:1 382:1 386:1 393:1 394:1 401:1 405:1 675:3 676:-1 677:3 678:3 679:3 680:5 681:1 682:40 683:1 684:-1 685:29.8 686:1 687:3 688:2 689:2 690:1 691:4 692:8 693:1 694:3 695:4 696:1 697:1 698:3 699:2 700:-9 
1 49:1 76:1 88:1 113:1 160:1 201:1 319:1 324:1 346:1 358:1 386:1 393:1 430:1 464:1 675:1 676:-1 677:3 678:3 679:1 680:2 681:2 682:-1 683:1 684:-1 685:25.6 686:1 687:4 688:4 689:4 690:1 691:4 692:9 693:1 694:4 695:2 696:1 697:1 698:4 699:2 700:1 
1 60:1 88:1 107:1 108:1 118:1 194:1 195:1 249:1 252:1 258:1 330:1 358:1 377:1 388:1 464:1 465:1 471:1 519:1 522:1 528:1 675:1 676:-1 677:3 678:3 679:1 680:1 681:2 682:-1 683:1 684:-1 685:28.3 686:1 687:4 688:4 689:3 690:1 691:3 692:-9 693:1 694:3 695:5 696:2 697:-1 698:-1 699:2 700:-1 
1 73:1 99:1 194:1 195:1 201:1 220:1 229:1 258:1 355:1 464:1 465:1 499:1 675:2 676:-1 677:3 678:1 679:3 680:3 681:2 682:-1 683:1 684:-1 685:26.9 686:1 687:4 688:4 689:4 690:1 691:4 692:10 693:1 694:4 695:4 696:1 697:1 698:4 699:2 700:-1 
1 50:1 190:1 252:1 320:1 421:1 522:1 675:1 676:-1 677:3 678:3 679:1 680:2 681:1 682:55 683:1 684:-1 685:30.1 686:1 687:3 688:4 689:3 690:1 691:4 692:9 693:1 694:3 695:3 696:1 697:1 698:4 699:2 700:1 
1 49:1 76:1 88:1 118:1 133:1 193:1 319:1 322:1 324:1 346:1 353:1 388:1 394:1 403:1 423:1 435:1 460:1 463:1 471:1 512:1 675:1 676:-1 677:3 678:3 679:1 680:2 681:2 682:-1 683:1 684:-1 685:23.8 686:-9 687:4 688:3 689:4 690:1 691:4 692:9 693:1 694:4 695:4 696:1 697:2 698:4 699:2 700:1 
1 56:1 59:1 88:1 111:1 113:1 192:1 193:1 194:1 195:1 201:1 247:1 258:1 320:1 325:1 355:1 358:1 386:1 387:1 388:1 404:1 415:1 459:1 462:1 463:1 464:1 465:1 471:1 485:1 492:1 502:1 512:1 516:1 517:1 519:1 675:1 676:-1 677:3 678:3 679:1 680:2 681:1 682:55 683:1 684:-1 685:49.6 686:1 687:4 688:3 689:4 690:1 691:3 692:9 693:1 694:2 695:4 696:1 697:1 698:4 699:2 700:2 
1 52:1 88:1 90:1 91:1 151:1 190:1 201:1 360:1 361:1 421:1 464:1 512:1 519:1 675:1 676:-1 677:3 678:3 679:1 680:2 681:2 682:-1 683:1 684:-1 685:-9 686:1 687:3 688:3 689:3 690:1 691:3 692:9 693:1 694:3 695:4 696:1 697:1 698:4 699:-8 700:2 
1 45:1 50:1 149:1 246:1 247:1 248:1 320:1 358:1 361:1 366:1 383:1 387:1 419:1 515:1 516:1 675:1 676:-1 677:3 678:3 679:1 680:2 681:1 682:60 683:2 684:-1 685:31.7 686:1 687:3 688:4 689:4 690:1 691:4 692:10 693:1 694:4 695:4 696:1 697:1 698:4 699:2 700:1 
1 50:1 94:1 157:1 260:1 320:1 324:1 358:1 463:1 500:1 530:1 675:1 676:-1 677:3 678:3 679:1 680:1 681:1 682:25 683:1 684:-1 685:26.9 686:1 687:4 688:4 689:4 690:1 691:3 692:10 693:2 694:-1 695:5 696:1 697:1 698:4 699:2 700:-1 
1 26:1 48:1 50:1 54:1 78:1 88:1 149:1 190:1 201:1 296:1 320:1 348:1 358:1 471:1 519:1 675:1 676:-1 677:3 678:3 679:1 680:2 681:1 682:58 683:1 684:-1 685:40 686:1 687:4 688:3 689:4 690:1 691:3 692:8 693:1 694:3 695:3 696:1 697:1 698:3 699:2 700:1 
1 50:1 60:1 91:1 123:1 193:1 320:1 324:1 358:1 361:1 460:1 675:1 676:-1 677:3 678:3 679:1 680:2 681:1 682:61 683:1 684:-1 685:39.1 686:1 687:4 688:3 689:3 690:1 691:3 692:9 693:1 694:3 695:3 696:1 697:1 698:4 699:2 700:1 
1 84:1 91:1 200:1 244:1 249:1 320:1 358:1 361:1 378:1 398:1 421:1 464:1 506:1 519:1 675:1 676:-1 677:3 678:3 679:1 680:2 681:2 682:-1 683:1 684:-1 685:29.3 686:1 687:4 688:4 689:4 690:1 691:4 692:10 693:1 694:4 695:2 696:1 697:1 698:4 699:2 700:2 
1 50:1 88:1 147:1 148:1 220:1 396:1 421:1 497:1 675:2 676:-1 677:3 678:1 679:3 680:3 681:1 682:56 683:1 684:-1 685:23.8 686:2 687:3 688:3 689:3 690:1 691:3 692:6 693:1 694:2 695:3 696:1 697:1 698:2 699:1 700:2 
1 51:1 59:1 85:1 88:1 199:1 320:1 321:1 328:1 329:1 355:1 358:1 377:1 384:1 388:1 394:1 457:1 464:1 469:1 496:1 518:1 675:1 676:-1 677:3 678:3 679:1 680:2 681:1 682:28 683:1 684:-1 685:32.1 686:1 687:3 688:3 689:3 690:1 691:4 692:8 693:1 694:3 695:4 696:1 697:1 698:3 699:2 700:-1 
1 33:1 88:1 128:1 149:1 249:1 303:1 320:1 324:1 358:1 395:1 398:1 419:1 457:1 514:1 519:1 675:1 676:-1 677:3 678:3 679:1 680:2 681:1 682:60 683:1 684:-1 685:31.7 686:1 687:4 688:3 689:4 690:1 691:4 692:10 693:1 694:4 695:4 696:1 697:1 698:3 699:2 700:1 
1 24:1 76:1 249:1 294:1 346:1 363:1 393:1 464:1 519:1 675:1 676:-1 677:3 678:3 679:1 680:2 681:2 682:-1 683:2 684:-1 685:24.6 686:-9 687:4 688:4 689:4 690:1 691:4 692:10 693:2 694:-1 695:1 696:1 697:1 698:4 699:2 700:1 
1 50:1 54:1 221:1 249:1 320:1 324:1 472:1 519:1 675:1 676:-1 677:3 678:3 679:1 680:1 681:1 682:46 683:1 684:-1 685:29 686:1 687:3 688:4 689:3 690:1 691:3 692:8 693:2 694:-1 695:4 696:1 697:1 698:-8 699:2 700:1 
1 86:1 91:1 94:1 145:1 343:1 354:1 356:1 358:1 360:1 364:1 369:1 675:2 676:-1 677:3 678:1 679:3 680:3 681:2 682:-1 683:1 684:-1 685:28.3 686:2 687:4 688:4 689:4 690:1 691:4 692:10 693:1 694:4 695:3 696:1 697:1 698:4 699:2 700:2 
1 48:1 117:1 194:1 252:1 258:1 358:1 387:1 516:1 522:1 528:1 675:1 676:-1 677:3 678:3 679:1 680:2 681:2 682:-1 683:1 684:-1 685:27 686:1 687:-9 688:-9 689:-9 690:-9 691:-9 692:-9 693:1 694:3 695:4 696:1 697:1 698:3 699:2 700:2 
1 54:1 65:1 88:1 105:1 107:1 117:1 194:1 324:1 335:1 343:1 344:1 358:1 375:1 377:1 387:1 412:1 464:1 492:1 675:2 676:-1 677:3 678:1 679:3 680:3 681:1 682:51 683:1 684:-1 685:38.4 686:1 687:4 688:4 689:4 690:1 691:4 692:9 693:1 694:4 695:3 696:1 697:1 698:4 699:2 700:-1 
1 30:1 50:1 123:1 201:1 246:1 320:1 387:1 393:1 413:1 464:1 471:1 516:1 675:2 676:-1 677:3 678:1 679:3 680:3 681:1 682:68 683:1 684:-1 685:31.3 686:1 687:4 688:4 689:4 690:1 691:4 692:10 693:1 694:4 695:3 696:1 697:1 698:4 699:2 700:1 
1 85:1 109:1 187:1 195:1 228:1 242:1 249:1 322:1 324:1 355:1 465:1 498:1 512:1 519:1 675:1 676:-1 677:3 678:3 679:1 680:2 681:2 682:-1 683:1 684:-1 685:31.5 686:1 687:2 688:2 689:2 690:2 691:-1 692:2 693:1 694:3 695:4 696:1 697:2 698:1 699:1 700:-1 
1 58:1 128:1 151:1 194:1 249:1 324:1 328:1 419:1 420:1 421:1 464:1 519:1 675:1 676:-1 677:3 678:3 679:1 680:2 681:2 682:-1 683:1 684:-1 685:25.1 686:1 687:3 688:3 689:3 690:1 691:4 692:9 693:1 694:3 695:5 696:1 697:2 698:4 699:2 700:-1 
1 50:1 54:1 78:1 88:1 320:1 324:1 348:1 355:1 358:1 361:1 675:2 676:-1 677:3 678:1 679:3 680:3 681:1 682:77 683:1 684:-1 685:20.5 686:2 687:4 688:4 689:4 690:2 691:-1 692:10 693:2 694:-1 695:1 696:1 697:1 698:4 699:2 700:1 
1 85:1 112:1 117:1 118:1 201:1 252:1 258:1 326:1 358:1 368:1 382:1 387:1 388:1 419:1 499:1 522:1 528:1 675:1 676:-1 677:3 678:3 679:1 680:2 681:2 682:-1 683:1 684:-1 685:24.6 686:1 687:3 688:4 689:3 690:1 691:3 692:9 693:1 694:3 695:5 696:1 697:1 698:4 699:2 700:-1 
1 48:1 49:1 82:1 85:1 110:1 145:1 190:1 194:1 201:1 215:1 229:1 278:1 318:1 352:1 355:1 356:1 380:1 464:1 675:1 676:-1 677:3 678:3 679:1 680:2 681:2 682:-1 683:1 684:-1 685:35.5 686:1 687:3 688:3 689:2 690:1 691:3 692:6 693:1 694:-9 695:4 696:1 697:1 698:3 699:2 700:-1 
1 25:1 88:1 190:1 192:1 200:1 322:1 324:1 358:1 460:1 462:1 464:1 465:1 470:1 675:2 676:-1 677:3 678:1 679:3 680:3 681:2 682:-1 683:1 684:-1 685:30.8 686:-9 687:4 688:2 689:2 690:1 691:4 692:10 693:1 694:2 695:3 696:1 697:1 698:4 699:2 700:1 
1 69:1 76:1 152:1 190:1 193:1 200:1 229:1 252:1 339:1 346:1 348:1 427:1 458:1 470:1 507:1 675:6 676:-1 677:3 678:2 679:2 680:5 681:2 682:-1 683:1 684:-1 685:19.4 686:1 687:3 688:2 689:2 690:1 691:3 692:5 693:1 694:3 695:3 696:1 697:1 698:4 699:2 700:2 
1 50:1 88:1 92:1 135:1 193:1 320:1 329:1 366:1 463:1 504:1 675:1 676:-1 677:3 678:3 679:1 680:2 681:1 682:49 683:1 684:-1 685:46.1 686:1 687:4 688:4 689:4 690:1 691:4 692:9 693:1 694:4 695:4 696:1 697:1 698:4 699:2 700:2 
1 70:1 81:1 85:1 88:1 92:1 219:1 234:1 258:1 261:1 340:1 358:1 464:1 528:1 531:1 675:1 676:-1 677:3 678:3 679:1 680:2 681:2 682:-1 683:1 684:-1 685:27.4 686:1 687:4 688:4 689:3 690:1 691:4 692:8 693:1 694:4 695:4 696:1 697:1 698:3 699:2 700:2 
1 107:1 141:1 143:1 147:1 193:1 195:1 249:1 323:1 377:1 382:1 393:1 411:1 413:1 464:1 465:1 506:1 512:1 516:1 519:1 675:1 676:-1 677:3 678:3 679:1 680:2 681:2 682:-1 683:1 684:-1 685:38.7 686:1 687:3 688:3 689:3 690:1 691:3 692:8 693:1 694:4 695:4 696:1 697:1 698:3 699:2 700:1 
1 49:1 54:1 91:1 94:1 188:1 207:1 319:1 361:1 364:1 460:1 477:1 675:1 676:-1 677:3 678:3 679:1 680:1 681:2 682:-1 683:2 684:-1 685:41.3 686:1 687:4 688:4 689:3 690:1 691:4 692:10 693:1 694:3 695:3 696:1 697:1 698:4 699:2 700:-1 
1 74:1 118:1 124:1 157:1 249:1 252:1 258:1 319:1 394:1 465:1 519:1 522:1 528:1 675:1 676:-1 677:3 678:3 679:1 680:1 681:2 682:-1 683:2 684:-1 685:38.3 686:1 687:3 688:3 689:3 690:1 691:3 692:10 693:1 694:4 695:4 696:1 697:1 698:4 699:2 700:-1 
1 25:1 675:1 676:1 677:3 678:3 679:1 680:1 681:1 682:48 683:1 684:-1 685:35.6 686:1 687:4 688:4 689:4 690:1 691:-9 692:5 693:1 694:3 695:4 696:1 697:1 698:3 699:2 700:-9 701:49496 704:1 705:29 706:7252 708:14 
1 117:1 124:1 394:1 456:1 499:1 675:1 676:-1 677:3 678:3 679:1 680:2 681:2 682:-1 683:1 684:-1 685:29.3 686:1 687:4 688:3 689:4 690:1 691:4 692:9 693:1 694:4 695:3 696:1 697:1 698:4 699:2 700:-1 
1 10:1 50:1 51:1 54:1 187:1 246:1 274:1 275:1 320:1 321:1 355:1 387:1 395:1 419:1 462:1 464:1 515:1 675:1 676:-1 677:3 678:3 679:1 680:2 681:1 682:33 683:1 684:-1 685:52 686:1 687:3 688:3 689:3 690:1 691:3 692:6 693:1 694:3 695:5 696:1 697:2 698:3 699:2 700:-1 
1 50:1 76:1 78:1 99:1 147:1 249:1 278:1 320:1 324:1 346:1 348:1 358:1 369:1 417:1 518:1 519:1 675:1 676:-1 677:3 678:3 679:1 680:2 681:2 682:-1 683:1 684:-1 685:36.6 686:2 687:4 688:4 689:4 690:1 691:4 692:9 693:1 694:4 695:3 696:1 697:1 698:4 699:2 700:2 
1 39:1 42:1 309:1 427:1 462:1 675:1 676:-1 677:3 678:3 679:1 680:2 681:2 682:-1 683:1 684:-1 685:24.1 686:1 687:3 688:3 689:3 690:1 691:3 692:7 693:1 694:2 695:4 696:1 697:1 698:4 699:2 700:2 
1 24:1 85:1 229:1 294:1 325:1 377:1 396:1 499:1 675:1 676:-1 677:3 678:3 679:1 680:2 681:2 682:-1 683:1 684:-1 685:24.1 686:1 687:3 688:3 689:3 690:1 691:3 692:9 693:1 694:3 695:2 696:2 697:-1 698:-1 699:2 700:1 
1 88:1 98:1 129:1 147:1 319:1 330:1 346:1 368:1 417:1 421:1 675:1 676:-1 677:3 678:3 679:1 680:2 681:2 682:-1 683:2 684:-1 685:21.4 686:1 687:4 688:4 689:4 690:2 691:-1 692:10 693:1 694:4 695:3 696:1 697:1 698:4 699:2 700:1 
1 54:1 60:1 84:1 88:1 99:1 117:1 192:1 324:1 358:1 369:1 387:1 462:1 675:2 676:-1 677:3 678:1 679:3 680:3 681:2 682:-1 683:1 684:-1 685:25.5 686:-9 687:-9 688:-9 689:-9 690:-9 691:-9 692:-9 693:1 694:2 695:4 696:1 697:1 698:4 699:2 700:1 
1 88:1 94:1 193:1 249:1 258:1 324:1 346:1 351:1 358:1 364:1 386:1 387:1 463:1 519:1 522:1 528:1 675:1 676:-1 677:3 678:3 679:1 680:2 681:2 682:-1 683:1 684:-1 685:39 686:1 687:4 688:4 689:3 690:1 691:4 692:8 693:1 694:3 695:5 696:1 697:1 698:4 699:2 700:-1 
1 80:1 112:1 116:1 145:1 190:1 194:1 355:1 415:1 465:1 471:1 675:1 676:-1 677:3 678:3 679:1 680:2 681:2 682:-1 683:2 684:-1 685:27.6 686:1 687:3 688:3 689:2 690:1 691:3 692:7 693:1 694:2 695:3 696:1 697:1 698:4 699:2 700:-1 
1 50:1 54:1 77:1 84:1 90:1 91:1 147:1 151:1 249:1 320:1 326:1 354:1 360:1 361:1 417:1 421:1 675:1 676:-1 677:3 678:3 679:1 680:2 681:1 682:-8 683:1 684:-1 685:28.8 686:1 687:4 688:4 689:4 690:1 691:4 692:10 693:1 694:4 695:4 696:1 697:1 698:4 699:2 700:1 
1 12:1 282:1 358:1 464:1 675:2 676:-1 677:3 678:1 679:3 680:3 681:2 682:-1 683:1 684:-1 685:22.8 686:1 687:4 688:4 689:4 690:1 691:3 692:8 693:2 694:-1 695:1 696:1 697:1 698:4 699:2 700:-1 
1 193:1 200:1 201:1 249:1 252:1 394:1 470:1 471:1 492:1 522:1 528:1 675:1 676:-1 677:3 678:3 679:1 680:2 681:2 682:-1 683:1 684:-1 685:21.9 686:1 687:3 688:3 689:3 690:1 691:3 692:7 693:1 694:4 695:4 696:1 697:1 698:3 699:2 700:-1 
1 77:1 91:1 117:1 195:1 324:1 361:1 387:1 388:1 465:1 675:1 676:-1 677:3 678:3 679:1 680:1 681:2 682:-1 683:2 684:-1 685:29.8 686:-9 687:-9 688:4 689:4 690:1 691:3 692:5 693:1 694:3 695:4 696:1 697:1 698:3 699:2 700:2 
1 49:1 60:1 193:1 194:1 195:1 248:1 319:1 329:1 330:1 463:1 464:1 465:1 518:1 675:1 676:-1 677:3 678:3 679:1 680:2 681:2 682:-1 683:1 684:-1 685:19.4 686:1 687:3 688:4 689:4 690:1 691:4 692:10 693:1 694:4 695:2 696:1 697:1 698:4 699:2 700:1 
1 50:1 88:1 118:1 124:1 144:1 193:1 201:1 320:1 358:1 388:1 394:1 463:1 464:1 492:1 675:1 676:-1 677:3 678:3 679:1 680:2 681:1 682:45 683:1 684:-1 685:39.5 686:1 687:4 688:4 689:4 690:1 691:4 692:10 693:1 694:4 695:3 696:1 697:1 698:4 699:2 700:-1 
1 5:1 6:1 88:1 192:1 193:1 276:1 358:1 393:1 462:1 465:1 675:2 676:-1 677:3 678:1 679:3 680:3 681:2 682:-1 683:1 684:-1 685:23.7 686:1 687:4 688:4 689:4 690:1 691:4 692:10 693:2 694:-1 695:4 696:1 697:1 698:4 699:2 700:2 
1 86:1 91:1 107:1 116:1 117:1 190:1 219:1 223:1 324:1 358:1 361:1 383:1 386:1 463:1 464:1 465:1 675:1 676:-1 677:3 678:3 679:1 680:2 681:2 682:-1 683:1 684:-1 685:23.6 686:1 687:4 688:4 689:4 690:1 691:4 692:10 693:1 694:4 695:2 696:1 697:1 698:4 699:2 700:2 
1 25:1 54:1 96:1 139:1 194:1 222:1 295:1 324:1 366:1 421:1 492:1 675:1 676:-1 677:3 678:3 679:1 680:2 681:2 682:-1 683:1 684:-1 685:30 686:1 687:2 688:3 689:2 690:2 691:-1 692:8 693:1 694:4 695:4 696:1 697:1 698:4 699:2 700:1 
1 88:1 124:1 190:1 223:1 234:1 253:1 324:1 358:1 394:1 460:1 493:1 519:1 522:1 523:1 528:1 675:1 676:-1 677:3 678:3 679:1 680:2 681:2 682:-1 683:1 684:-1 685:36.9 686:1 687:3 688:4 689:4 690:1 691:3 692:10 693:1 694:3 695:4 696:1 697:-8 698:3 699:1 700:-1 
1 54:1 77:1 78:1 84:1 88:1 91:1 116:1 151:1 192:1 324:1 330:1 347:1 348:1 358:1 361:1 394:1 395:1 421:1 462:1 675:2 676:-1 677:3 678:1 679:3 680:3 681:2 682:-1 683:1 684:-1 685:23.8 686:1 687:4 688:4 689:4 690:-9 691:4 692:10 693:1 694:4 695:5 696:1 697:1 698:4 699:2 700:-1 
1 45:1 84:1 113:1 131:1 153:1 195:1 315:1 354:1 393:1 394:1 401:1 518:1 675:1 676:-1 677:3 678:3 679:1 680:2 681:2 682:-1 683:1 684:-1 685:24.4 686:1 687:4 688:4 689:4 690:1 691:3 692:10 693:1 694:4 695:1 696:1 697:1 698:4 699:2 700:2 
1 54:1 128:1 131:1 145:1 193:1 195:1 201:1 252:1 344:1 353:1 355:1 398:1 401:1 415:1 465:1 471:1 522:1 675:1 676:-1 677:3 678:3 679:1 680:2 681:2 682:-1 683:1 684:-1 685:18.6 686:1 687:3 688:3 689:3 690:1 691:3 692:6 693:1 694:3 695:3 696:1 697:1 698:4 699:1 700:-1 
1 85:1 96:1 192:1 195:1 201:1 349:1 366:1 394:1 420:1 462:1 465:1 471:1 485:1 675:1 676:-1 677:3 678:3 679:1 680:2 681:2 682:-1 683:2 684:-1 685:23.4 686:1 687:4 688:4 689:4 690:1 691:4 692:9 693:1 694:4 695:4 696:1 697:1 698:3 699:2 700:2 
1 25:1 49:1 53:1 60:1 78:1 88:1 148:1 193:1 295:1 330:1 348:1 358:1 421:1 492:1 675:1 676:-1 677:3 678:3 679:1 680:2 681:2 682:-1 683:1 684:-1 685:31.5 686:1 687:3 688:4 689:3 690:1 691:4 692:9 693:1 694:4 695:2 696:1 697:1 698:4 699:1 700:2 
1 54:1 88:1 195:1 222:1 234:1 252:1 258:1 260:1 324:1 346:1 348:1 358:1 388:1 464:1 465:1 492:1 519:1 522:1 528:1 530:1 675:2 676:-1 677:3 678:1 679:3 680:3 681:2 682:-1 683:1 684:-1 685:42.4 686:1 687:3 688:2 689:2 690:1 691:3 692:8 693:1 694:2 695:4 696:1 697:1 698:1 699:2 700:-1 
1 88:1 189:1 193:1 320:1 358:1 366:1 459:1 463:1 465:1 675:2 676:-1 677:3 678:1 679:3 680:3 681:1 682:70 683:2 684:-1 685:33.2 686:-9 687:3 688:3 689:4 690:1 691:4 692:6 693:1 694:4 695:4 696:2 697:-1 698:-1 699:2 700:1 
1 77:1 84:1 195:1 249:1 347:1 464:1 465:1 492:1 675:1 676:-1 677:3 678:3 679:1 680:2 681:2 682:-1 683:1 684:-1 685:34.4 686:1 687:3 688:4 689:3 690:1 691:4 692:9 693:1 694:4 695:3 696:1 697:1 698:-8 699:2 700:1 
1 24:1 45:1 50:1 88:1 93:1 152:1 271:1 294:1 315:1 320:1 324:1 358:1 362:1 398:1 465:1 519:1 541:1 675:1 676:-1 677:3 678:3 679:1 680:2 681:1 682:59 683:1 684:-1 685:28.5 686:1 687:3 688:4 689:3 690:1 691:3 692:8 693:1 694:3 695:4 696:1 697:1 698:3 699:2 700:1 
1 24:1 85:1 91:1 117:1 123:1 222:1 234:1 254:1 258:1 294:1 361:1 387:1 388:1 423:1 504:1 524:1 675:1 676:-1 677:3 678:3 679:1 680:1 681:2 682:-1 683:1 684:-1 685:30.4 686:1 687:4 688:4 689:4 690:1 691:4 692:10 693:1 694:4 695:5 696:1 697:1 698:4 699:2 700:1 
1 50:1 151:1 320:1 321:1 324:1 325:1 330:1 355:1 356:1 358:1 419:1 421:1 468:1 675:1 676:-1 677:3 678:3 679:1 680:2 681:1 682:-8 683:1 684:-1 685:25.2 686:-9 687:4 688:4 689:4 690:1 691:4 692:9 693:1 694:-9 695:4 696:1 697:2 698:4 699:2 700:-1 
1 90:1 134:1 187:1 194:1 236:1 281:1 328:1 358:1 360:1 361:1 366:1 394:1 404:1 457:1 458:1 675:1 676:-1 677:3 678:3 679:1 680:2 681:2 682:-1 683:2 684:-1 685:24.4 686:1 687:3 688:4 689:3 690:1 691:4 692:9 693:1 694:3 695:3 696:1 697:1 698:4 699:2 700:1 
1 24:1 128:1 133:1 153:1 195:1 248:1 249:1 252:1 294:1 320:1 324:1 346:1 394:1 403:1 423:1 426:1 460:1 463:1 465:1 492:1 518:1 519:1 675:1 676:-1 677:3 678:3 679:1 680:2 681:2 682:-1 683:1 684:-1 685:27.8 686:1 687:3 688:3 689:3 690:1 691:3 692:9 693:1 694:3 695:2 696:1 697:1 698:3 699:2 700:2 
1 23:1 43:1 95:1 123:1 190:1 275:1 278:1 293:1 313:1 314:1 326:1 365:1 368:1 387:1 393:1 417:1 457:1 675:1 676:-1 677:3 678:3 679:1 680:2 681:2 682:-1 683:1 684:-1 685:32.1 686:1 687:4 688:4 689:3 690:1 691:3 692:9 693:1 694:4 695:3 696:1 697:1 698:4 699:2 700:2 
1 85:1 96:1 151:1 165:1 190:1 194:1 207:1 245:1 247:1 249:1 312:1 320:1 349:1 366:1 421:1 423:1 464:1 477:1 495:1 515:1 517:1 519:1 675:1 676:-1 677:3 678:3 679:1 680:2 681:1 682:65 683:1 684:-1 685:31.9 686:1 687:3 688:3 689:4 690:1 691:4 692:10 693:1 694:4 695:4 696:1 697:1 698:4 699:2 700:1 
1 176:1 186:1 243:1 456:1 513:1 675:1 676:-1 677:3 678:3 679:1 680:2 681:2 682:-1 683:1 684:-1 685:21.9 686:1 687:3 688:3 689:3 690:1 691:3 692:7 693:1 694:2 695:3 696:2 697:-1 698:-1 699:2 700:-1 
1 54:1 82:1 90:1 91:1 124:1 192:1 195:1 319:1 324:1 358:1 360:1 361:1 386:1 462:1 675:1 676:-1 677:3 678:3 679:1 680:2 681:2 682:-1 683:1 684:-1 685:35 686:2 687:3 688:4 689:4 690:1 691:3 692:8 693:2 694:-1 695:3 696:1 697:1 698:4 699:2 700:1 
1 74:1 85:1 116:1 160:1 194:1 258:1 330:1 344:1 355:1 386:1 387:1 388:1 393:1 428:1 430:1 464:1 465:1 471:1 498:1 507:1 522:1 528:1 675:1 676:-1 677:3 678:3 679:1 680:2 681:2 682:-1 683:1 684:-1 685:27.4 686:-9 687:-9 688:-9 689:-9 690:-9 691:-9 692:-9 693:1 694:3 695:5 696:1 697:1 698:4 699:1 700:-1 
1 5:1 79:1 153:1 194:1 423:1 464:1 492:1 675:1 676:-1 677:3 678:3 679:1 680:2 681:2 682:-1 683:1 684:-1 685:29.8 686:1 687:4 688:3 689:3 690:1 691:4 692:7 693:1 694:4 695:3 696:1 697:1 698:4 699:1 700:-1 
1 50:1 88:1 91:1 107:1 145:1 152:1 190:1 194:1 221:1 225:1 249:1 319:1 320:1 324:1 329:1 356:1 358:1 361:1 377:1 422:1 460:1 464:1 489:1 492:1 496:1 514:1 517:1 519:1 675:1 676:-1 677:3 678:3 679:1 680:2 681:1 682:75 683:1 684:-1 685:18.1 686:1 687:4 688:4 689:4 690:1 691:4 692:10 693:1 694:4 695:4 696:1 697:1 698:4 699:2 700:1 
1 54:1 88:1 166:1 194:1 195:1 252:1 258:1 324:1 355:1 358:1 436:1 464:1 465:1 514:1 522:1 528:1 675:1 676:-1 677:3 678:3 679:1 680:2 681:2 682:-1 683:2 684:-1 685:36 686:1 687:3 688:4 689:3 690:1 691:3 692:7 693:1 694:3 695:4 696:1 697:1 698:3 699:2 700:-1 
1 54:1 123:1 200:1 201:1 222:1 312:1 324:1 350:1 358:1 361:1 386:1 387:1 393:1 460:1 464:1 470:1 492:1 499:1 675:1 676:-1 677:3 678:3 679:1 680:2 681:2 682:-1 683:1 684:-1 685:20.7 686:1 687:4 688:4 689:4 690:1 691:4 692:10 693:1 694:4 695:2 696:1 697:1 698:4 699:2 700:1 
1 82:1 84:1 88:1 91:1 108:1 193:1 195:1 361:1 378:1 465:1 675:2 676:-1 677:3 678:1 679:3 680:3 681:2 682:-1 683:1 684:-1 685:41.6 686:1 687:2 688:2 689:2 690:1 691:3 692:5 693:1 694:4 695:4 696:1 697:1 698:4 699:2 700:-1 
1 84:1 88:1 90:1 91:1 117:1 258:1 324:1 358:1 360:1 361:1 387:1 469:1 473:1 492:1 519:1 522:1 528:1 675:1 676:-1 677:3 678:3 679:1 680:2 681:2 682:-1 683:1 684:-1 685:30.7 686:1 687:4 688:4 689:4 690:1 691:4 692:9 693:1 694:2 695:5 696:1 697:1 698:4 699:2 700:1 
1 24:1 37:1 49:1 76:1 96:1 136:1 309:1 312:1 330:1 346:1 366:1 387:1 415:1 675:1 676:-1 677:3 678:3 679:1 680:2 681:2 682:-1 683:1 684:-1 685:29.2 686:1 687:4 688:4 689:4 690:1 691:4 692:10 693:1 694:4 695:3 696:1 697:1 698:4 699:2 700:1 
1 49:1 60:1 96:1 193:1 201:1 243:1 319:1 330:1 366:1 463:1 675:2 676:-1 677:3 678:1 679:3 680:3 681:2 682:-1 683:1 684:-1 685:32.3 686:2 687:4 688:4 689:4 690:1 691:4 692:9 693:1 694:4 695:3 696:2 697:-1 698:-1 699:2 700:2 
1 24:1 54:1 85:1 88:1 90:1 91:1 116:1 117:1 118:1 128:1 294:1 324:1 355:1 358:1 360:1 361:1 387:1 425:1 426:1 516:1 519:1 675:1 676:-1 677:3 678:3 679:1 680:2 681:2 682:-1 683:1 684:-1 685:28.5 686:1 687:4 688:3 689:3 690:2 691:-1 692:9 693:1 694:4 695:3 696:1 697:1 698:4 699:2 700:1 
1 215:1 258:1 358:1 485:1 519:1 528:1 675:2 676:-1 677:3 678:1 679:3 680:3 681:2 682:-1 683:1 684:-1 685:32.7 686:1 687:4 688:3 689:3 690:1 691:4 692:8 693:1 694:2 695:2 696:1 697:1 698:3 699:2 700:-1 
1 78:1 88:1 190:1 354:1 358:1 675:1 676:-1 677:3 678:3 679:1 680:1 681:2 682:-1 683:1 684:-1 685:29.9 686:2 687:4 688:4 689:3 690:2 691:-1 692:10 693:2 694:-1 695:3 696:1 697:1 698:3 699:2 700:-1 
1 85:1 258:1 351:1 355:1 460:1 465:1 528:1 675:1 676:-1 677:3 678:3 679:1 680:1 681:2 682:-1 683:1 684:-1 685:28.7 686:1 687:4 688:4 689:3 690:1 691:4 692:8 693:2 694:-1 695:2 696:1 697:1 698:4 699:2 700:-1 
1 50:1 76:1 78:1 90:1 91:1 201:1 320:1 322:1 346:1 354:1 361:1 368:1 393:1 496:1 516:1 519:1 675:1 676:-1 677:3 678:3 679:1 680:2 681:2 682:-1 683:1 684:-1 685:31 686:1 687:4 688:3 689:4 690:1 691:3 692:5 693:1 694:4 695:5 696:1 697:2 698:3 699:2 700:1 
1 24:1 50:1 54:1 76:1 86:1 88:1 187:1 195:1 294:1 320:1 324:1 356:1 358:1 465:1 675:1 676:-1 677:3 678:3 679:1 680:2 681:1 682:46 683:1 684:-1 685:28.2 686:1 687:4 688:4 689:3 690:1 691:4 692:9 693:1 694:4 695:2 696:1 697:1 698:4 699:2 700:1 
1 50:1 151:1 320:1 386:1 393:1 421:1 460:1 675:4 676:-1 677:1 678:3 679:3 680:1 681:1 682:24 683:1 684:-1 685:34.3 686:1 687:4 688:4 689:4 690:1 691:4 692:10 693:1 694:4 695:3 696:1 697:1 698:4 699:2 700:1 
1 25:1 215:1 675:1 676:1 677:3 678:3 679:1 680:2 681:2 682:-1 683:2 684:-1 685:26.6 686:1 687:4 688:4 689:4 690:1 691:4 692:10 693:1 694:4 695:2 696:1 697:1 698:3 699:2 700:-1 701:68207 702:5000 704:2 705:34 706:36105 708:13 
1 49:1 54:1 56:1 58:1 60:1 88:1 123:1 193:1 195:1 201:1 232:1 249:1 319:1 324:1 330:1 358:1 393:1 463:1 471:1 502:1 504:1 519:1 675:1 676:-1 677:3 678:3 679:1 680:1 681:2 682:-1 683:1 684:-1 685:28.8 686:1 687:3 688:3 689:3 690:1 691:3 692:7 693:1 694:2 695:4 696:1 697:1 698:4 699:2 700:1 
1 50:1 52:1 88:1 124:1 190:1 193:1 201:1 249:1 320:1 322:1 324:1 355:1 358:1 398:1 463:1 465:1 471:1 519:1 675:1 676:-1 677:3 678:3 679:1 680:2 681:1 682:52 683:1 684:-1 685:33.5 686:1 687:3 688:3 689:3 690:1 691:3 692:9 693:1 694:3 695:4 696:1 697:1 698:4 699:2 700:1 
1 25:1 50:1 54:1 116:1 118:1 194:1 242:1 295:1 320:1 386:1 388:1 394:1 675:2 676:-1 677:3 678:1 679:3 680:3 681:1 682:64 683:1 684:-1 685:26.8 686:1 687:2 688:4 689:2 690:1 691:4 692:9 693:1 694:2 695:3 696:1 697:2 698:2 699:2 700:-1 
1 4:1 20:1 39:1 42:1 118:1 123:1 274:1 290:1 309:1 312:1 393:1 675:1 676:-1 677:3 678:3 679:1 680:2 681:2 682:-1 683:2 684:-1 685:34.4 686:1 687:3 688:4 689:4 690:1 691:4 692:9 693:1 694:3 695:4 696:1 697:2 698:4 699:2 700:-1 
1 25:1 295:1 320:1 355:1 460:1 518:1 675:1 676:-1 677:3 678:3 679:1 680:1 681:1 682:68 683:1 684:-1 685:33.1 686:2 687:4 688:4 689:3 690:2 691:-1 692:8 693:2 694:-1 695:3 696:1 697:2 698:4 699:2 700:1 
1 124:1 194:1 201:1 249:1 324:1 394:1 460:1 471:1 675:1 676:-1 677:3 678:3 679:1 680:2 681:2 682:-1 683:1 684:-1 685:36.5 686:1 687:3 688:4 689:3 690:1 691:3 692:9 693:1 694:3 695:4 696:1 697:2 698:3 699:2 700:1 
1 91:1 151:1 187:1 241:1 358:1 361:1 387:1 421:1 504:1 675:1 676:-1 677:3 678:3 679:1 680:2 681:2 682:-1 683:2 684:-1 685:28.2 686:1 687:4 688:3 689:4 690:1 691:4 692:8 693:1 694:4 695:3 696:1 697:1 698:4 699:2 700:2 
1 7:1 55:1 88:1 147:1 277:1 325:1 349:1 358:1 417:1 675:4 676:-1 677:1 678:3 679:3 680:4 681:2 682:-1 683:2 684:-1 685:25.8 686:1 687:3 688:4 689:3 690:1 691:3 692:9 693:2 694:-1 695:4 696:1 697:1 698:2 699:2 700:-1 
1 76:1 123:1 195:1 258:1 282:1 294:1 324:1 346:1 348:1 354:1 393:1 401:1 423:1 424:1 465:1 528:1 675:4 676:-1 677:1 678:3 679:3 680:4 681:2 682:-1 683:2 684:-1 685:25.7 686:1 687:3 688:4 689:4 690:-9 691:-9 692:8 693:2 694:-1 695:4 696:1 697:1 698:4 699:2 700:1 
1 26:1 42:1 252:1 258:1 294:1 296:1 346:1 496:1 516:1 522:1 528:1 675:1 676:-1 677:3 678:3 679:1 680:2 681:1 682:64 683:1 684:-1 685:27.8 686:1 687:2 688:3 689:2 690:2 691:-1 692:8 693:2 694:-1 695:4 696:1 697:2 698:-8 699:2 700:1 
1 90:1 165:1 355:1 360:1 366:1 465:1 519:1 675:1 676:-1 677:3 678:3 679:1 680:2 681:2 682:-1 683:1 684:-1 685:31.2 686:1 687:3 688:4 689:3 690:1 691:4 692:10 693:1 694:4 695:3 696:1 697:1 698:4 699:2 700:1 
1 8:1 85:1 118:1 124:1 190:1 201:1 252:1 253:1 383:1 460:1 465:1 496:1 519:1 522:1 523:1 675:6 676:-1 677:3 678:3 679:2 680:5 681:-1 682:-1 683:1 684:3 685:-1 686:-1 687:-1 688:-1 689:-1 690:-1 691:-1 692:-1 693:-1 694:-1 695:-1 696:1 697:1 698:4 699:2 700:-1 
1 76:1 149:1 157:1 160:1 215:1 249:1 258:1 295:1 346:1 354:1 362:1 406:1 423:1 427:1 430:1 485:1 504:1 519:1 528:1 675:1 676:-1 677:3 678:3 679:1 680:2 681:2 682:-1 683:1 684:-1 685:22.5 686:1 687:4 688:4 689:4 690:1 691:4 692:10 693:1 694:4 695:1 696:1 697:2 698:-8 699:2 700:2 
1 25:1 50:1 85:1 88:1 151:1 232:1 295:1 320:1 324:1 346:1 351:1 362:1 386:1 421:1 675:1 676:-1 677:3 678:3 679:1 680:2 681:1 682:-8 683:1 684:-1 685:29.9 686:1 687:4 688:3 689:4 690:1 691:3 692:8 693:1 694:4 695:3 696:1 697:1 698:4 699:2 700:1 
1 30:1 50:1 76:1 81:1 84:1 88:1 194:1 243:1 252:1 320:1 325:1 346:1 350:1 351:1 464:1 465:1 504:1 519:1 522:1 675:1 676:-1 677:3 678:3 679:1 680:2 681:1 682:62 683:1 684:-1 685:23.8 686:1 687:3 688:4 689:4 690:1 691:4 692:9 693:1 694:4 695:4 696:1 697:2 698:-8 699:2 700:1 
1 88:1 195:1 465:1 528:1 675:1 676:-1 677:3 678:3 679:1 680:2 681:2 682:-1 683:1 684:-1 685:25 686:1 687:4 688:4 689:4 690:1 691:3 692:9 693:2 694:-1 695:3 696:1 697:1 698:4 699:2 700:-1 
1 50:1 54:1 88:1 117:1 118:1 124:1 150:1 295:1 320:1 324:1 346:1 351:1 358:1 387:1 388:1 394:1 420:1 435:1 460:1 675:1 676:-1 677:3 678:3 679:1 680:1 681:1 682:53 683:1 684:-1 685:36.6 686:1 687:4 688:4 689:3 690:1 691:3 692:10 693:1 694:3 695:4 696:1 697:1 698:4 699:2 700:-1 
1 50:1 51:1 187:1 320:1 321:1 457:1 675:1 676:-1 677:3 678:3 679:1 680:2 681:1 682:47 683:1 684:-1 685:36.3 686:2 687:3 688:4 689:3 690:1 691:3 692:8 693:1 694:3 695:3 696:1 697:1 698:3 699:2 700:-1 
1 54:1 84:1 85:1 190:1 194:1 201:1 252:1 324:1 354:1 423:1 464:1 471:1 522:1 524:1 528:1 675:1 676:-1 677:3 678:3 679:1 680:2 681:2 682:-1 683:1 684:-1 685:44.9 686:1 687:4 688:4 689:4 690:1 691:4 692:10 693:2 694:-1 695:4 696:1 697:1 698:4 699:2 700:1 
1 30:1 54:1 88:1 112:1 117:1 153:1 202:1 234:1 300:1 324:1 358:1 387:1 398:1 423:1 463:1 472:1 675:1 676:-1 677:3 678:3 679:1 680:2 681:2 682:-1 683:1 684:-1 685:29.4 686:1 687:4 688:4 689:4 690:1 691:4 692:10 693:1 694:4 695:4 696:1 697:1 698:4 699:2 700:1 
1 49:1 59:1 96:1 124:1 194:1 195:1 222:1 252:1 258:1 319:1 324:1 329:1 419:1 464:1 465:1 528:1 531:1 675:1 676:-1 677:3 678:3 679:1 680:2 681:2 682:-1 683:1 684:-1 685:27.1 686:1 687:2 688:2 689:3 690:1 691:4 692:5 693:1 694:4 695:3 696:1 697:1 698:-8 699:2 700:-1 
1 195:1 300:1 465:1 675:1 676:-1 677:3 678:3 679:1 680:2 681:2 682:-1 683:1 684:-1 685:32.4 686:1 687:4 688:4 689:4 690:1 691:4 692:10 693:1 694:-9 695:2 696:1 697:1 698:4 699:2 700:1 
1 50:1 54:1 88:1 117:1 118:1 128:1 201:1 320:1 324:1 351:1 353:1 358:1 383:1 387:1 388:1 398:1 462:1 465:1 675:2 676:-1 677:3 678:1 679:3 680:3 681:1 682:30 683:1 684:-1 685:39.8 686:1 687:4 688:3 689:2 690:1 691:2 692:7 693:2 694:-1 695:4 696:1 697:1 698:4 699:2 700:-1 
1 49:1 54:1 81:1 88:1 91:1 190:1 193:1 319:1 324:1 347:1 358:1 361:1 366:1 460:1 504:1 675:1 676:-1 677:3 678:3 679:1 680:2 681:2 682:-1 683:2 684:-1 685:24.9 686:-9 687:-9 688:-9 689:-9 690:-9 691:-9 692:-9 693:1 694:-9 695:2 696:1 697:1 698:-8 699:2 700:1 
1 50:1 76:1 83:1 88:1 92:1 249:1 320:1 324:1 346:1 351:1 353:1 358:1 400:1 464:1 519:1 675:1 676:-1 677:3 678:3 679:1 680:1 681:2 682:-1 683:2 684:-1 685:29.7 686:1 687:4 688:4 689:4 690:2 691:-1 692:10 693:2 694:-1 695:3 696:1 697:2 698:4 699:2 700:-1 
1 108:1 117:1 123:1 136:1 245:1 358:1 378:1 387:1 393:1 519:1 522:1 524:1 675:1 676:-1 677:3 678:3 679:1 680:2 681:2 682:-1 683:1 684:-1 685:33.5 686:1 687:4 688:3 689:3 690:1 691:4 692:8 693:1 694:4 695:5 696:1 697:1 698:-8 699:2 700:1 
1 124:1 127:1 145:1 249:1 353:1 415:1 512:1 519:1 675:2 676:-1 677:3 678:1 679:3 680:3 681:2 682:-1 683:1 684:-1 685:28.1 686:1 687:4 688:3 689:3 690:1 691:4 692:7 693:1 694:2 695:2 696:1 697:1 698:4 699:2 700:2 
1 33:1 54:1 88:1 193:1 201:1 222:1 294:1 303:1 351:1 353:1 469:1 471:1 675:1 676:-1 677:3 678:3 679:1 680:2 681:2 682:-1 683:1 684:-1 685:33.6 686:1 687:4 688:4 689:4 690:1 691:3 692:7 693:1 694:3 695:4 696:1 697:1 698:4 699:2 700:1 
1 78:1 85:1 88:1 193:1 348:1 355:1 358:1 366:1 396:1 463:1 675:1 676:-1 677:3 678:3 679:1 680:2 681:2 682:-1 683:1 684:-1 685:27.3 686:1 687:4 688:4 689:4 690:1 691:4 692:9 693:2 694:-1 695:3 696:1 697:1 698:4 699:2 700:1 
1 30:1 54:1 88:1 92:1 153:1 192:1 201:1 245:1 300:1 324:1 358:1 362:1 457:1 675:2 676:-1 677:3 678:1 679:3 680:3 681:2 682:-1 683:1 684:-1 685:26.5 686:1 687:3 688:3 689:2 690:1 691:3 692:7 693:2 694:-1 695:4 696:1 697:1 698:4 699:2 700:2 
1 50:1 54:1 74:1 88:1 91:1 117:1 235:1 320:1 324:1 358:1 361:1 387:1 675:1 676:-1 677:3 678:3 679:1 680:1 681:1 682:45 683:1 684:-1 685:24.6 686:-9 687:-9 688:-9 689:-9 690:-9 691:-9 692:-9 693:1 694:4 695:5 696:1 697:1 698:4 699:2 700:1 
1 19:1 159:1 192:1 195:1 252:1 289:1 324:1 400:1 409:1 419:1 420:1 423:1 429:1 465:1 510:1 522:1 528:1 530:1 675:1 676:-1 677:3 678:3 679:1 680:2 681:2 682:-1 683:1 684:-1 685:35.4 686:1 687:1 688:1 689:1 690:2 691:-1 692:1 693:1 694:1 695:5 696:1 697:1 698:3 699:2 700:-1 
1 234:1 675:1 676:1 677:3 678:3 679:1 680:1 681:2 682:-1 683:1 684:-1 685:22 686:1 687:3 688:4 689:3 690:1 691:3 692:8 693:1 694:3 695:5 696:2 697:-1 698:-1 699:1 700:-1 701:146368 704:1 705:40 706:46040 708:53 
1 124:1 675:1 676:1 677:3 678:3 679:1 680:2 681:-1 682:-1 683:2 684:-1 685:-1 686:-1 687:-1 688:-1 689:-1 690:-1 691:-1 692:-1 693:-1 694:-1 695:-1 696:1 697:2 698:4 699:2 700:-1 701:86700 704:2 705:22 706:8979 708:2 
1 50:1 54:1 60:1 88:1 90:1 98:1 124:1 147:1 190:1 192:1 355:1 471:1 675:2 676:2 677:3 678:1 679:3 680:3 681:2 682:-1 683:1 684:-1 685:28.3 686:1 687:4 688:4 689:4 690:1 691:4 692:9 693:2 694:-1 695:2 696:1 697:1 698:4 699:2 700:2 701:30000 702:6000 704:2 705:6 706:762 708:5 
1 112:1 190:1 195:1 249:1 355:1 393:1 457:1 465:1 675:1 676:-1 677:3 678:3 679:1 680:2 681:2 682:-1 683:1 684:-1 685:21.5 686:1 687:2 688:4 689:3 690:1 691:3 692:8 693:1 694:2 695:4 696:1 697:1 698:4 699:2 700:-1 
1 11:1 83:1 201:1 249:1 281:1 294:1 471:1 492:1 675:1 676:-1 677:3 678:3 679:1 680:2 681:2 682:-1 683:1 684:-1 685:22 686:1 687:4 688:4 689:4 690:1 691:4 692:7 693:1 694:4 695:2 696:1 697:1 698:3 699:2 700:2 
1 49:1 54:1 76:1 82:1 94:1 128:1 149:1 190:1 248:1 319:1 355:1 393:1 394:1 398:1 511:1 675:1 676:-1 677:3 678:3 679:1 680:2 681:2 682:-1 683:1 684:-1 685:33.8 686:1 687:4 688:4 689:4 690:1 691:4 692:9 693:1 694:4 695:3 696:1 697:1 698:4 699:2 700:1 
1 25:1 85:1 190:1 258:1 295:1 319:1 323:1 358:1 462:1 464:1 528:1 675:1 676:-1 677:3 678:3 679:1 680:2 681:2 682:-1 683:1 684:-1 685:28.9 686:1 687:3 688:3 689:4 690:1 691:3 692:9 693:2 694:-1 695:2 696:1 697:2 698:4 699:2 700:-1 
1 192:1 201:1 264:1 462:1 465:1 490:1 675:1 676:-1 677:3 678:3 679:1 680:1 681:2 682:-1 683:1 684:-1 685:26 686:1 687:3 688:3 689:3 690:1 691:4 692:8 693:1 694:4 695:4 696:1 697:2 698:3 699:2 700:2 
1 54:1 88:1 90:1 117:1 194:1 195:1 324:1 358:1 360:1 361:1 387:1 465:1 675:2 676:-1 677:3 678:1 679:3 680:3 681:2 682:-1 683:1 684:-1 685:29.3 686:1 687:4 688:3 689:3 690:1 691:3 692:10 693:1 694:3 695:4 696:1 697:1 698:4 699:2 700:1 
1 12:1 54:1 80:1 145:1 194:1 201:1 282:1 355:1 415:1 464:1 471:1 675:1 676:-1 677:3 678:3 679:1 680:2 681:2 682:-1 683:1 684:-1 685:28.7 686:-9 687:3 688:2 689:1 690:1 691:3 692:6 693:1 694:3 695:4 696:1 697:1 698:4 699:2 700:-1 
1 59:1 249:1 252:1 258:1 329:1 519:1 522:1 528:1 675:2 676:-1 677:3 678:1 679:3 680:3 681:2 682:-1 683:1 684:-1 685:31.1 686:1 687:4 688:4 689:4 690:1 691:4 692:10 693:2 694:-1 695:3 696:1 697:1 698:4 699:2 700:-1 
1 117:1 123:1 387:1 393:1 528:1 675:1 676:-1 677:3 678:3 679:1 680:2 681:2 682:-1 683:1 684:-1 685:29.6 686:1 687:4 688:4 689:4 690:1 691:4 692:9 693:1 694:4 695:4 696:1 697:1 698:4 699:2 700:2 
1 54:1 85:1 88:1 94:1 112:1 193:1 195:1 202:1 232:1 245:1 355:1 364:1 465:1 472:1 515:1 675:1 676:-1 677:3 678:3 679:1 680:2 681:2 682:-1 683:1 684:-1 685:25.8 686:1 687:3 688:3 689:2 690:1 691:4 692:5 693:1 694:2 695:3 696:1 697:1 698:4 699:2 700:-1 
1 24:1 83:1 84:1 165:1 222:1 252:1 278:1 294:1 318:1 319:1 353:1 394:1 460:1 463:1 471:1 522:1 528:1 675:1 676:-1 677:3 678:3 679:1 680:2 681:2 682:-1 683:1 684:-1 685:-9 686:1 687:3 688:4 689:3 690:1 691:3 692:10 693:-9 694:-9 695:2 696:1 697:1 698:3 699:2 700:1 
1 8:1 77:1 88:1 194:1 249:1 324:1 347:1 369:1 464:1 675:1 676:-1 677:3 678:3 679:1 680:1 681:2 682:-1 683:1 684:-1 685:26.5 686:2 687:-9 688:-9 689:-9 690:-9 691:-9 692:-9 693:2 694:-1 695:2 696:1 697:1 698:4 699:2 700:1 
1 76:1 88:1 116:1 190:1 351:1 358:1 460:1 485:1 492:1 675:1 676:-1 677:3 678:3 679:1 680:2 681:2 682:-1 683:1 684:-1 685:34.3 686:2 687:3 688:3 689:3 690:1 691:3 692:6 693:2 694:-1 695:2 696:1 697:1 698:3 699:2 700:1 
1 54:1 160:1 190:1 193:1 324:1 354:1 362:1 386:1 398:1 464:1 465:1 519:1 675:1 676:-1 677:3 678:3 679:1 680:2 681:2 682:-1 683:1 684:-1 685:24.4 686:1 687:4 688:4 689:4 690:1 691:4 692:9 693:1 694:4 695:2 696:1 697:1 698:4 699:2 700:1 
1 91:1 117:1 118:1 123:1 193:1 195:1 199:1 249:1 361:1 393:1 460:1 462:1 463:1 464:1 485:1 675:3 676:-1 677:3 678:3 679:3 680:5 681:2 682:-1 683:1 684:-1 685:33.4 686:1 687:3 688:3 689:3 690:1 691:2 692:8 693:1 694:3 695:4 696:1 697:1 698:2 699:2 700:2 
1 26:1 194:1 294:1 296:1 386:1 460:1 471:1 519:1 675:1 676:-1 677:3 678:3 679:1 680:1 681:2 682:-1 683:1 684:-1 685:26.1 686:1 687:4 688:4 689:4 690:1 691:4 692:8 693:1 694:4 695:2 696:1 697:1 698:3 699:2 700:2 
1 56:1 88:1 118:1 124:1 187:1 193:1 324:1 358:1 388:1 394:1 463:1 675:1 676:-1 677:3 678:3 679:1 680:1 681:2 682:-1 683:1 684:-1 685:30.5 686:1 687:4 688:4 689:4 690:1 691:4 692:9 693:1 694:4 695:2 696:1 697:1 698:4 699:2 700:-1 
1 24:1 45:1 54:1 69:1 84:1 88:1 91:1 107:1 148:1 226:1 318:1 324:1 339:1 358:1 361:1 362:1 366:1 377:1 387:1 393:1 421:1 675:1 676:-1 677:3 678:3 679:1 680:2 681:2 682:-1 683:1 684:-1 685:30.3 686:1 687:4 688:4 689:4 690:1 691:4 692:10 693:1 694:4 695:2 696:1 697:1 698:3 699:2 700:1 
1 48:1 53:1 60:1 193:1 194:1 260:1 271:1 319:1 323:1 386:1 393:1 463:1 464:1 465:1 469:1 471:1 522:1 528:1 530:1 541:1 675:1 676:-1 677:3 678:3 679:1 680:1 681:2 682:-1 683:1 684:-1 685:31.7 686:1 687:4 688:4 689:3 690:1 691:4 692:9 693:1 694:4 695:3 696:1 697:1 698:4 699:2 700:-1 
1 194:1 195:1 243:1 258:1 318:1 398:1 465:1 504:1 516:1 675:2 676:-1 677:3 678:1 679:3 680:3 681:2 682:-1 683:1 684:-1 685:24 686:1 687:4 688:4 689:4 690:1 691:3 692:10 693:1 694:3 695:3 696:1 697:1 698:4 699:2 700:2 
1 5:1 24:1 84:1 107:1 116:1 117:1 124:1 190:1 245:1 294:1 346:1 381:1 387:1 388:1 394:1 460:1 464:1 471:1 675:1 676:-1 677:3 678:3 679:1 680:2 681:2 682:-1 683:1 684:-1 685:27.2 686:1 687:4 688:4 689:4 690:1 691:4 692:9 693:1 694:4 695:2 696:1 697:1 698:2 699:2 700:1 
1 60:1 63:1 76:1 84:1 96:1 194:1 324:1 330:1 333:1 366:1 377:1 380:1 401:1 406:1 407:1 465:1 675:1 676:-1 677:3 678:3 679:1 680:1 681:2 682:-1 683:1 684:-1 685:26.8 686:1 687:4 688:4 689:3 690:1 691:3 692:10 693:1 694:4 695:3 696:1 697:1 698:4 699:2 700:2 
1 54:1 192:1 195:1 201:1 246:1 249:1 319:1 324:1 354:1 358:1 462:1 465:1 471:1 485:1 516:1 519:1 675:3 676:-1 677:3 678:3 679:3 680:5 681:2 682:-1 683:1 684:-1 685:40.8 686:1 687:4 688:4 689:4 690:1 691:4 692:9 693:2 694:-1 695:3 696:1 697:-8 698:4 699:2 700:-1 
1 85:1 88:1 193:1 194:1 324:1 346:1 355:1 358:1 519:1 675:2 676:-1 677:3 678:1 679:3 680:3 681:2 682:-1 683:1 684:-1 685:43.8 686:1 687:3 688:3 689:3 690:1 691:3 692:8 693:1 694:3 695:4 696:1 697:1 698:4 699:2 700:2 
1 49:1 85:1 88:1 95:1 324:1 355:1 358:1 360:1 361:1 364:1 365:1 368:1 369:1 471:1 490:1 504:1 675:1 676:-1 677:3 678:3 679:1 680:2 681:2 682:-1 683:1 684:-1 685:20.8 686:1 687:-7 688:3 689:-7 690:1 691:-7 692:-7 693:1 694:-7 695:5 696:1 697:1 698:4 699:2 700:2 
1 50:1 60:1 90:1 91:1 128:1 187:1 249:1 320:1 324:1 358:1 360:1 361:1 365:1 366:1 427:1 517:1 519:1 675:1 676:-1 677:3 678:3 679:1 680:2 681:1 682:56 683:1 684:-1 685:44.5 686:1 687:4 688:4 689:4 690:1 691:4 692:10 693:1 694:4 695:5 696:1 697:1 698:4 699:2 700:2 
1 116:1 124:1 324:1 386:1 394:1 675:6 676:-1 677:2 678:3 679:2 680:5 681:2 682:-1 683:1 684:-1 685:31.2 686:-1 687:-1 688:-1 689:-1 690:-1 691:-1 692:-1 693:-1 694:-1 695:-1 696:1 697:1 698:4 699:2 700:-1 
1 116:1 118:1 124:1 143:1 165:1 192:1 194:1 200:1 319:1 358:1 368:1 386:1 401:1 419:1 464:1 470:1 472:1 522:1 528:1 675:4 676:-1 677:3 678:3 679:3 680:5 681:2 682:-1 683:1 684:-1 685:27.1 686:1 687:4 688:4 689:4 690:1 691:4 692:9 693:1 694:3 695:-9 696:1 697:1 698:4 699:2 700:-1 
1 53:1 73:1 95:1 96:1 194:1 201:1 319:1 323:1 324:1 343:1 358:1 365:1 366:1 393:1 460:1 464:1 471:1 504:1 675:1 676:-1 677:3 678:3 679:1 680:2 681:2 682:-1 683:1 684:-1 685:27.1 686:1 687:3 688:3 689:3 690:1 691:3 692:9 693:1 694:-9 695:4 696:1 697:2 698:2 699:2 700:-1 
1 49:1 76:1 190:1 319:1 324:1 346:1 361:1 675:1 676:-1 677:3 678:3 679:1 680:2 681:2 682:-1 683:2 684:-1 685:31.1 686:1 687:4 688:4 689:4 690:2 691:-1 692:10 693:2 694:-1 695:3 696:1 697:1 698:4 699:2 700:1 
1 8:1 50:1 54:1 76:1 78:1 88:1 149:1 195:1 325:1 358:1 464:1 465:1 675:2 676:2 677:3 678:1 679:3 680:3 681:2 682:-1 683:1 684:-1 685:34.4 686:1 687:1 688:1 689:1 690:2 691:-1 692:1 693:2 694:-1 695:5 696:1 697:1 698:2 699:2 700:1 701:26124 704:1 705:8 706:1492 708:39 
1 48:1 74:1 117:1 194:1 195:1 376:1 675:1 676:1 677:3 678:3 679:1 680:2 681:2 682:-1 683:2 684:-1 685:25.8 686:-9 687:-9 688:-9 689:-9 690:-9 691:-9 692:-9 693:2 694:-1 695:3 696:1 697:1 698:4 699:2 700:-1 701:14560 702:14560 704:2 705:34 706:16192 708:11 
1 48:1 54:1 76:1 84:1 195:1 225:1 324:1 358:1 464:1 675:1 676:-1 677:3 678:3 679:1 680:2 681:2 682:-1 683:1 684:-1 685:36.8 686:1 687:4 688:4 689:4 690:1 691:4 692:10 693:1 694:4 695:2 696:1 697:2 698:4 699:2 700:-1 
1 50:1 88:1 106:1 147:1 320:1 358:1 417:1 490:1 675:1 676:-1 677:3 678:3 679:1 680:2 681:1 682:53 683:2 684:-1 685:35 686:1 687:3 688:3 689:3 690:1 691:4 692:7 693:2 694:-1 695:4 696:1 697:1 698:3 699:2 700:-1 
1 54:1 88:1 118:1 123:1 193:1 194:1 201:1 220:1 222:1 324:1 329:1 344:1 358:1 388:1 400:1 422:1 463:1 464:1 519:1 528:1 675:1 676:-1 677:3 678:3 679:1 680:1 681:2 682:-1 683:2 684:-1 685:26.6 686:1 687:4 688:4 689:4 690:1 691:4 692:10 693:1 694:4 695:5 696:1 697:1 698:4 699:2 700:-1 
1 24:1 54:1 60:1 84:1 190:1 193:1 201:1 242:1 258:1 294:1 354:1 398:1 463:1 465:1 471:1 472:1 512:1 528:1 675:1 676:-1 677:3 678:3 679:1 680:2 681:2 682:-1 683:1 684:-1 685:30 686:1 687:2 688:4 689:3 690:1 691:3 692:7 693:1 694:3 695:4 696:1 697:1 698:4 699:2 700:1 
1 8:1 110:1 123:1 124:1 186:1 220:1 330:1 358:1 387:1 427:1 456:1 675:1 676:-1 677:3 678:3 679:1 680:1 681:2 682:-1 683:1 684:-1 685:28.3 686:1 687:4 688:4 689:3 690:1 691:4 692:8 693:2 694:-1 695:2 696:1 697:1 698:4 699:2 700:-1 
1 35:1 88:1 117:1 128:1 192:1 193:1 194:1 249:1 290:1 312:1 314:1 315:1 324:1 344:1 354:1 358:1 369:1 464:1 465:1 505:1 519:1 528:1 675:1 676:-1 677:3 678:3 679:1 680:2 681:2 682:-1 683:2 684:-1 685:33.3 686:2 687:1 688:1 689:1 690:2 691:-1 692:3 693:1 694:3 695:4 696:1 697:2 698:1 699:2 700:-1 
1 49:1 165:1 194:1 200:1 319:1 423:1 470:1 675:1 676:-1 677:3 678:3 679:1 680:1 681:2 682:-1 683:1 684:-1 685:25.7 686:1 687:3 688:3 689:4 690:1 691:4 692:7 693:1 694:4 695:3 696:1 697:1 698:4 699:2 700:-1 
1 20:1 50:1 88:1 90:1 149:1 290:1 320:1 324:1 358:1 361:1 363:1 413:1 675:1 676:-1 677:3 678:3 679:1 680:2 681:1 682:64 683:1 684:-1 685:37 686:1 687:3 688:4 689:3 690:1 691:3 692:9 693:1 694:3 695:5 696:1 697:1 698:-8 699:2 700:1 
1 49:1 84:1 88:1 96:1 319:1 366:1 402:1 675:1 676:-1 677:3 678:3 679:1 680:2 681:2 682:-1 683:2 684:-1 685:23.8 686:1 687:3 688:3 689:3 690:1 691:3 692:8 693:1 694:4 695:2 696:1 697:1 698:4 699:2 700:1 
1 48:1 128:1 194:1 251:1 460:1 675:2 676:-1 677:3 678:1 679:3 680:3 681:2 682:-1 683:1 684:-1 685:37.8 686:1 687:4 688:4 689:4 690:1 691:4 692:10 693:1 694:4 695:3 696:1 697:2 698:4 699:2 700:-1 
1 39:1 58:1 222:1 309:1 328:1 343:1 393:1 419:1 519:1 522:1 528:1 675:1 676:-1 677:3 678:3 679:1 680:2 681:2 682:-1 683:2 684:-1 685:20.6 686:1 687:3 688:3 689:3 690:2 691:-1 692:9 693:1 694:4 695:5 696:1 697:1 698:3 699:2 700:1 
1 48:1 132:1 133:1 195:1 201:1 215:1 355:1 393:1 464:1 465:1 471:1 485:1 492:1 504:1 517:1 675:1 676:-1 677:3 678:3 679:1 680:2 681:2 682:-1 683:1 684:-1 685:26.3 686:1 687:4 688:4 689:4 690:1 691:4 692:10 693:1 694:4 695:2 696:1 697:1 698:-8 699:2 700:2 
1 52:1 116:1 128:1 190:1 194:1 195:1 202:1 294:1 322:1 386:1 398:1 457:1 460:1 464:1 465:1 472:1 515:1 675:1 676:-1 677:3 678:3 679:1 680:2 681:2 682:-1 683:1 684:-1 685:42.5 686:2 687:3 688:3 689:3 690:1 691:3 692:7 693:1 694:3 695:-9 696:1 697:1 698:4 699:2 700:-1 
1 39:1 50:1 54:1 88:1 228:1 309:1 320:1 346:1 460:1 498:1 675:1 676:-1 677:3 678:3 679:1 680:2 681:1 682:51 683:-1 684:-1 685:-1 686:-1 687:-1 688:-1 689:-1 690:-1 691:-1 692:-1 693:-1 694:-1 695:-1 696:-1 697:-1 698:-1 699:-1 700:-1 
1 50:1 88:1 131:1 145:1 151:1 192:1 249:1 258:1 294:1 320:1 347:1 358:1 361:1 401:1 415:1 462:1 519:1 528:1 675:1 676:-1 677:3 678:3 679:1 680:2 681:1 682:15 683:1 684:-1 685:35.1 686:1 687:4 688:3 689:3 690:1 691:3 692:8 693:1 694:3 695:5 696:1 697:1 698:4 699:2 700:-1 
1 193:1 194:1 201:1 242:1 419:1 463:1 464:1 471:1 675:2 676:-1 677:3 678:1 679:3 680:3 681:2 682:-1 683:1 684:-1 685:34.4 686:1 687:4 688:4 689:3 690:2 691:-1 692:5 693:2 694:-1 695:4 696:1 697:1 698:4 699:2 700:-1 
1 258:1 319:1 522:1 528:1 675:1 676:-1 677:3 678:3 679:1 680:2 681:2 682:-1 683:1 684:-1 685:24.7 686:1 687:4 688:3 689:3 690:1 691:4 692:10 693:2 694:-1 695:2 696:1 697:1 698:-8 699:2 700:2 
1 54:1 88:1 91:1 99:1 189:1 324:1 358:1 361:1 459:1 464:1 675:1 676:-1 677:3 678:3 679:1 680:1 681:2 682:-1 683:1 684:-1 685:23.4 686:1 687:4 688:4 689:4 690:1 691:4 692:5 693:2 694:-1 695:1 696:1 697:2 698:4 699:2 700:-1 
1 76:1 77:1 81:1 83:1 84:1 117:1 118:1 128:1 145:1 194:1 241:1 273:1 346:1 349:1 358:1 366:1 411:1 415:1 417:1 462:1 465:1 471:1 510:1 511:1 512:1 514:1 675:1 676:-1 677:3 678:3 679:1 680:2 681:2 682:-1 683:1 684:-1 685:38.4 686:1 687:3 688:4 689:3 690:1 691:3 692:7 693:1 694:3 695:5 696:1 697:2 698:4 699:2 700:2 
1 5:1 78:1 79:1 84:1 88:1 190:1 249:1 258:1 294:1 348:1 349:1 354:1 355:1 407:1 460:1 519:1 528:1 675:1 676:-1 677:3 678:3 679:1 680:2 681:2 682:-1 683:1 684:-1 685:32.8 686:1 687:4 688:4 689:3 690:1 691:3 692:10 693:1 694:4 695:3 696:1 697:1 698:4 699:2 700:1 
1 84:1 88:1 131:1 188:1 190:1 249:1 252:1 258:1 324:1 347:1 354:1 358:1 471:1 522:1 528:1 675:1 676:-1 677:3 678:3 679:1 680:2 681:2 682:-1 683:1 684:-1 685:34 686:1 687:4 688:4 689:4 690:1 691:3 692:9 693:1 694:4 695:2 696:1 697:1 698:3 699:2 700:-1 
1 27:1 54:1 59:1 215:1 252:1 258:1 319:1 324:1 329:1 388:1 398:1 464:1 522:1 528:1 675:1 676:-1 677:3 678:3 679:1 680:2 681:2 682:-1 683:1 684:-1 685:28.7 686:1 687:3 688:3 689:4 690:1 691:-9 692:9 693:1 694:-9 695:4 696:1 697:1 698:4 699:2 700:-9 
1 176:1 186:1 234:1 319:1 358:1 441:1 456:1 504:1 675:1 676:-1 677:3 678:3 679:1 680:2 681:2 682:-1 683:1 684:-1 685:38.7 686:1 687:3 688:3 689:3 690:1 691:3 692:8 693:1 694:-9 695:3 696:2 697:-1 698:-1 699:2 700:-1 
1 50:1 77:1 117:1 123:1 133:1 320:1 347:1 382:1 387:1 388:1 393:1 403:1 415:1 675:1 676:-1 677:3 678:3 679:1 680:2 681:1 682:77 683:1 684:-1 685:24.1 686:1 687:4 688:4 689:4 690:1 691:4 692:-9 693:1 694:4 695:1 696:1 697:2 698:4 699:2 700:1 
1 24:1 78:1 84:1 86:1 88:1 91:1 117:1 249:1 324:1 348:1 354:1 356:1 358:1 361:1 380:1 388:1 463:1 465:1 472:1 519:1 675:1 676:-1 677:3 678:3 679:1 680:2 681:2 682:-1 683:2 684:-1 685:21.5 686:1 687:4 688:4 689:3 690:1 691:3 692:7 693:1 694:3 695:4 696:1 697:1 698:4 699:2 700:1 
1 124:1 139:1 193:1 194:1 249:1 320:1 324:1 358:1 463:1 464:1 471:1 515:1 519:1 675:1 676:-1 677:3 678:3 679:1 680:2 681:1 682:50 683:1 684:-1 685:49.5 686:1 687:3 688:3 689:2 690:1 691:3 692:8 693:1 694:4 695:4 696:1 697:1 698:4 699:2 700:2 
1 193:1 195:1 274:1 675:2 676:-1 677:3 678:1 679:3 680:3 681:2 682:-1 683:1 684:-1 685:26.8 686:1 687:4 688:4 689:4 690:1 691:4 692:10 693:1 694:4 695:4 696:1 697:1 698:4 699:2 700:2 
1 96:1 124:1 366:1 464:1 492:1 675:1 676:-1 677:3 678:3 679:1 680:2 681:2 682:-1 683:1 684:-1 685:28.1 686:1 687:3 688:4 689:4 690:1 691:3 692:9 693:1 694:4 695:3 696:1 697:2 698:4 699:2 700:-1 
1 50:1 76:1 241:1 320:1 324:1 358:1 361:1 465:1 675:1 676:-1 677:3 678:3 679:1 680:2 681:1 682:55 683:1 684:-1 685:34.7 686:1 687:4 688:4 689:4 690:1 691:4 692:9 693:1 694:4 695:3 696:1 697:1 698:4 699:2 700:1 
1 54:1 78:1 79:1 116:1 319:1 324:1 348:1 349:1 466:1 490:1 675:1 676:-1 677:3 678:3 679:1 680:2 681:2 682:-1 683:1 684:-1 685:21.9 686:1 687:3 688:4 689:3 690:1 691:-9 692:8 693:1 694:3 695:2 696:1 697:1 698:4 699:2 700:2 
1 78:1 194:1 222:1 348:1 366:1 423:1 464:1 471:1 516:1 675:2 676:-1 677:3 678:1 679:3 680:3 681:2 682:-1 683:1 684:-1 685:20.1 686:1 687:4 688:4 689:4 690:1 691:4 692:10 693:1 694:4 695:2 696:1 697:1 698:4 699:2 700:1 
1 186:1 228:1 437:1 456:1 675:1 676:-1 677:3 678:3 679:1 680:2 681:2 682:-1 683:1 684:-1 685:20.8 686:-1 687:-1 688:-1 689:-1 690:-1 691:-1 692:-1 693:-1 694:-1 695:-1 696:1 697:1 698:-8 699:2 700:-1 
1 88:1 113:1 193:1 221:1 234:1 249:1 324:1 330:1 358:1 362:1 394:1 412:1 463:1 466:1 519:1 528:1 675:1 676:-1 677:3 678:3 679:1 680:2 681:2 682:-1 683:1 684:-1 685:21.9 686:1 687:4 688:4 689:4 690:1 691:4 692:10 693:1 694:4 695:3 696:1 697:1 698:4 699:1 700:1 
1 81:1 99:1 142:1 194:1 195:1 240:1 384:1 394:1 398:1 403:1 412:1 415:1 464:1 465:1 519:1 675:1 676:-1 677:3 678:3 679:1 680:1 681:2 682:-1 683:2 684:-1 685:37.3 686:1 687:4 688:4 689:4 690:1 691:4 692:10 693:1 694:4 695:5 696:1 697:1 698:4 699:2 700:-1 
1 176:1 186:1 504:1 675:1 676:-1 677:3 678:3 679:1 680:1 681:2 682:-1 683:1 684:-1 685:28.3 686:1 687:3 688:2 689:3 690:1 691:3 692:6 693:1 694:2 695:3 696:1 697:1 698:4 699:2 700:-1 
1 98:1 195:1 368:1 386:1 457:1 519:1 675:1 676:-1 677:3 678:3 679:1 680:2 681:1 682:42 683:1 684:-1 685:48.7 686:1 687:4 688:4 689:4 690:1 691:4 692:8 693:1 694:4 695:2 696:1 697:1 698:1 699:2 700:-1 
1 24:1 79:1 84:1 85:1 201:1 349:1 355:1 394:1 424:1 464:1 675:1 676:-1 677:3 678:3 679:1 680:2 681:2 682:-1 683:1 684:-1 685:25.8 686:1 687:4 688:4 689:4 690:1 691:4 692:9 693:1 694:3 695:2 696:1 697:2 698:4 699:2 700:1 
1 116:1 123:1 190:1 258:1 358:1 419:1 460:1 511:1 522:1 528:1 675:1 676:-1 677:3 678:3 679:1 680:1 681:2 682:-1 683:1 684:-1 685:22.5 686:1 687:1 688:1 689:1 690:1 691:3 692:3 693:1 694:2 695:4 696:1 697:2 698:2 699:2 700:2 
1 50:1 51:1 54:1 88:1 116:1 194:1 202:1 275:1 319:1 320:1 321:1 324:1 358:1 464:1 496:1 675:1 676:-1 677:3 678:3 679:1 680:2 681:1 682:63 683:1 684:-1 685:31.8 686:1 687:-1 688:-1 689:-1 690:-1 691:-1 692:-1 693:1 694:4 695:4 696:1 697:2 698:4 699:2 700:1 
1 88:1 91:1 117:1 125:1 193:1 195:1 201:1 346:1 358:1 361:1 387:1 388:1 465:1 471:1 675:1 676:-1 677:3 678:3 679:1 680:2 681:2 682:-1 683:1 684:-1 685:29.6 686:1 687:3 688:3 689:3 690:1 691:3 692:8 693:1 694:-9 695:4 696:1 697:1 698:4 699:1 700:1 
1 50:1 131:1 249:1 344:1 421:1 471:1 524:1 675:1 676:-1 677:3 678:3 679:1 680:1 681:1 682:43 683:1 684:-1 685:34.2 686:1 687:4 688:4 689:4 690:1 691:4 692:10 693:1 694:4 695:3 696:1 697:1 698:-8 699:2 700:1 
1 54:1 76:1 88:1 90:1 188:1 275:1 355:1 360:1 361:1 458:1 489:1 504:1 675:1 676:-1 677:3 678:3 679:1 680:1 681:2 682:-1 683:1 684:-1 685:32.1 686:1 687:3 688:3 689:3 690:1 691:3 692:8 693:1 694:3 695:4 696:1 697:2 698:1 699:2 700:1 
1 40:1 96:1 128:1 187:1 195:1 246:1 249:1 329:1 358:1 360:1 366:1 465:1 492:1 519:1 541:1 675:1 676:-1 677:3 678:3 679:1 680:2 681:2 682:-1 683:2 684:-1 685:35.6 686:1 687:4 688:3 689:3 690:1 691:4 692:9 693:1 694:4 695:4 696:1 697:2 698:4 699:2 700:2 
1 50:1 54:1 190:1 201:1 319:1 320:1 324:1 349:1 358:1 364:1 376:1 401:1 460:1 471:1 675:1 676:-1 677:3 678:3 679:1 680:2 681:1 682:60 683:1 684:-1 685:24.7 686:1 687:3 688:4 689:4 690:1 691:4 692:10 693:1 694:4 695:2 696:1 697:1 698:3 699:2 700:1 
1 255:1 320:1 344:1 352:1 358:1 386:1 388:1 394:1 395:1 398:1 409:1 465:1 469:1 477:1 492:1 499:1 519:1 523:1 525:1 675:1 676:-1 677:3 678:3 679:1 680:2 681:1 682:15 683:1 684:-1 685:34.4 686:1 687:3 688:3 689:4 690:1 691:3 692:8 693:2 694:-1 695:4 696:1 697:1 698:4 699:2 700:-1 
1 42:1 50:1 88:1 249:1 312:1 319:1 320:1 358:1 519:1 675:4 676:-1 677:1 678:3 679:3 680:4 681:1 682:38 683:1 684:-1 685:21.9 686:1 687:4 688:4 689:4 690:1 691:4 692:10 693:1 694:4 695:3 696:1 697:1 698:4 699:2 700:-1 
1 151:1 326:1 675:2 676:-1 677:3 678:1 679:3 680:3 681:1 682:45 683:1 684:-1 685:48.1 686:-9 687:-9 688:-9 689:-9 690:-9 691:-9 692:-9 693:2 694:-1 695:5 696:1 697:2 698:3 699:2 700:-1 
1 82:1 85:1 118:1 190:1 202:1 352:1 355:1 388:1 460:1 472:1 675:1 676:-1 677:3 678:3 679:1 680:2 681:-1 682:-1 683:2 685:-1 686:-1 687:-1 688:-1 689:-1 690:-1 691:-1 692:-1 693:-1 694:-1 695:-1 696:1 697:2 698:4 699:2 700:-1 
1 25:1 194:1 195:1 201:1 275:1 324:1 349:1 354:1 423:1 464:1 465:1 675:1 676:-1 677:3 678:3 679:1 680:1 681:2 682:-1 683:1 684:-1 685:30.1 686:1 687:4 688:4 689:4 690:1 691:4 692:10 693:1 694:2 695:3 696:1 697:1 698:4 699:2 700:2 
1 25:1 77:1 295:1 347:1 517:1 675:1 676:-1 677:3 678:3 679:1 680:1 681:2 682:-1 683:1 684:-1 685:22.6 686:2 687:3 688:4 689:3 690:2 691:-1 692:6 693:2 694:-1 695:4 696:1 697:1 698:4 699:2 700:2 
1 50:1 54:1 88:1 192:1 320:1 324:1 358:1 361:1 462:1 465:1 466:1 675:4 676:-1 677:1 678:3 679:3 680:4 681:1 682:57 683:2 684:-1 685:24.8 686:1 687:1 688:2 689:3 690:1 691:2 692:8 693:1 694:2 695:5 696:1 697:1 698:3 699:2 700:2 
1 91:1 94:1 232:1 258:1 319:1 324:1 333:1 358:1 361:1 364:1 431:1 522:1 528:1 675:1 676:-1 677:3 678:3 679:1 680:2 681:2 682:-1 683:2 684:-1 685:43.3 686:1 687:4 688:4 689:4 690:1 691:4 692:10 693:1 694:4 695:3 696:1 697:1 698:4 699:2 700:-1 
1 82:1 116:1 195:1 201:1 221:1 386:1 387:1 465:1 675:1 676:-1 677:3 678:3 679:1 680:2 681:2 682:-1 683:1 684:-1 685:31 686:1 687:4 688:4 689:4 690:1 691:4 692:10 693:1 694:4 695:3 696:1 697:1 698:4 699:2 700:2 
1 83:1 186:1 324:1 419:1 429:1 464:1 465:1 522:1 675:1 676:-1 677:3 678:3 679:1 680:2 681:2 682:-1 683:1 684:-1 685:23.2 686:1 687:3 688:2 689:2 690:1 691:3 692:7 693:2 694:-1 695:3 696:1 697:1 698:4 699:2 700:-1 
1 49:1 78:1 83:1 88:1 91:1 93:1 128:1 139:1 153:1 319:1 324:1 348:1 358:1 361:1 363:1 366:1 398:1 423:1 499:1 675:1 676:-1 677:3 678:3 679:1 680:2 681:2 682:-1 683:2 684:-1 685:27.2 686:1 687:4 688:4 689:4 690:1 691:3 692:9 693:1 694:4 695:3 696:1 697:1 698:3 699:2 700:1 
1 112:1 117:1 194:1 201:1 215:1 222:1 232:1 471:1 675:1 676:-1 677:3 678:3 679:1 680:2 681:2 682:-1 683:1 684:-1 685:28.9 686:1 687:4 688:4 689:4 690:1 691:4 692:10 693:1 694:4 695:4 696:1 697:1 698:4 699:2 700:-1 
1 25:1 249:1 252:1 295:1 522:1 675:1 676:-1 677:3 678:3 679:1 680:1 681:2 682:-1 683:1 684:-1 685:24.4 686:1 687:3 688:3 689:3 690:-9 691:3 692:9 693:1 694:4 695:4 696:1 697:1 698:4 699:2 700:2 
1 54:1 85:1 88:1 92:1 124:1 194:1 243:1 249:1 320:1 324:1 351:1 355:1 358:1 362:1 388:1 394:1 464:1 465:1 519:1 675:2 676:-1 677:3 678:1 679:3 680:3 681:1 682:55 683:1 684:-1 685:39 686:1 687:3 688:3 689:4 690:1 691:3 692:9 693:2 694:-1 695:4 696:1 697:1 698:3 699:2 700:-9 
1 48:1 202:1 253:1 472:1 675:1 676:-1 677:3 678:3 679:1 680:2 681:2 682:-1 683:1 684:-1 685:30.7 686:2 687:4 688:4 689:3 690:1 691:4 692:8 693:2 694:-1 695:1 696:1 697:2 698:-8 699:2 700:-1 
1 85:1 91:1 92:1 124:1 190:1 194:1 195:1 293:1 360:1 361:1 460:1 464:1 465:1 516:1 675:1 676:-1 677:3 678:3 679:1 680:2 681:2 682:-1 683:1 684:-1 685:31.6 686:1 687:4 688:4 689:4 690:1 691:4 692:10 693:1 694:4 695:2 696:1 697:1 698:-8 699:2 700:-1 
1 77:1 190:1 193:1 195:1 196:1 201:1 220:1 279:1 320:1 460:1 463:1 465:1 466:1 471:1 490:1 675:1 676:-1 677:3 678:3 679:1 680:2 681:1 682:63 683:1 684:-1 685:45.8 686:-9 687:4 688:4 689:4 690:1 691:4 692:10 693:2 694:-1 695:4 696:1 697:1 698:4 699:2 700:2 
1 128:1 193:1 245:1 252:1 457:1 463:1 464:1 465:1 515:1 675:1 676:-1 677:3 678:3 679:1 680:2 681:2 682:-1 683:1 684:-1 685:24.2 686:1 687:3 688:3 689:3 690:1 691:4 692:7 693:1 694:3 695:5 696:1 697:1 698:4 699:2 700:-1 
1 49:1 98:1 104:1 153:1 320:1 324:1 326:1 351:1 358:1 361:1 366:1 368:1 374:1 382:1 387:1 393:1 423:1 462:1 512:1 516:1 675:2 676:-1 677:3 678:1 679:3 680:3 681:2 682:-1 683:2 684:-1 685:34.2 686:1 687:3 688:3 689:2 690:1 691:3 692:9 693:1 694:4 695:4 696:1 697:1 698:4 699:2 700:2 
1 116:1 149:1 234:1 471:1 504:1 675:2 676:-1 677:3 678:1 679:3 680:3 681:2 682:-1 683:1 684:-1 685:32.3 686:2 687:4 688:4 689:4 690:1 691:4 692:9 693:1 694:3 695:4 696:1 697:1 698:4 699:2 700:2 
1 60:1 81:1 84:1 88:1 128:1 193:1 194:1 195:1 324:1 351:1 353:1 358:1 398:1 465:1 490:1 491:1 519:1 675:1 676:-1 677:3 678:3 679:1 680:2 681:2 682:-1 683:1 684:-1 685:24.4 686:1 687:3 688:3 689:3 690:1 691:3 692:4 693:1 694:-9 695:4 696:1 697:1 698:4 699:2 700:1 
1 54:1 81:1 190:1 201:1 246:1 294:1 324:1 462:1 465:1 516:1 528:1 675:1 676:-1 677:3 678:3 679:1 680:1 681:2 682:-1 683:1 684:-1 685:23.7 686:1 687:4 688:4 689:4 690:1 691:4 692:10 693:1 694:4 695:4 696:1 697:1 698:4 699:2 700:-1 
1 55:1 74:1 116:1 118:1 195:1 201:1 319:1 324:1 329:1 346:1 358:1 460:1 463:1 464:1 465:1 513:1 528:1 675:1 676:-1 677:3 678:3 679:1 680:2 681:2 682:-1 683:1 684:-1 685:31.1 686:1 687:3 688:3 689:3 690:1 691:3 692:8 693:1 694:4 695:4 696:1 697:1 698:3 699:2 700:2 
1 77:1 88:1 117:1 133:1 157:1 195:1 201:1 358:1 387:1 393:1 464:1 465:1 471:1 519:1 675:1 676:-1 677:3 678:3 679:1 680:2 681:2 682:-1 683:1 684:-1 685:26.5 686:1 687:3 688:3 689:4 690:1 691:2 692:8 693:1 694:4 695:5 696:1 697:1 698:-8 699:2 700:2 
1 96:1 278:1 324:1 344:1 346:1 350:1 358:1 361:1 365:1 366:1 457:1 460:1 464:1 471:1 517:1 675:1 676:-1 677:3 678:3 679:1 680:2 681:2 682:-1 683:1 684:-1 685:34.4 686:1 687:3 688:4 689:4 690:1 691:4 692:10 693:1 694:4 695:3 696:1 697:2 698:4 699:2 700:1 
1 50:1 54:1 55:1 88:1 156:1 192:1 249:1 320:1 324:1 325:1 350:1 358:1 387:1 426:1 462:1 471:1 519:1 675:1 676:-1 677:3 678:3 679:1 680:1 681:1 682:58 683:1 684:-1 685:25 686:1 687:3 688:4 689:4 690:1 691:2 692:8 693:1 694:3 695:4 696:1 697:1 698:3 699:2 700:-1 
1 142:1 150:1 354:1 396:1 420:1 460:1 519:1 675:1 676:-1 677:3 678:3 679:1 680:2 681:2 682:-1 683:1 684:-1 685:20.3 686:1 687:4 688:4 689:4 690:1 691:4 692:9 693:1 694:4 695:3 696:1 697:1 698:4 699:2 700:1 
1 54:1 78:1 91:1 96:1 141:1 324:1 346:1 348:1 349:1 358:1 361:1 366:1 465:1 675:4 676:-1 677:1 678:3 679:3 680:4 681:2 682:-1 683:1 684:-1 685:22.3 686:1 687:3 688:3 689:3 690:1 691:4 692:6 693:1 694:4 695:4 696:1 697:1 698:4 699:2 700:1 
1 50:1 253:1 260:1 320:1 386:1 387:1 462:1 472:1 523:1 528:1 530:1 675:6 676:-1 677:3 678:3 679:2 680:5 681:1 682:60 683:1 684:-1 685:33.9 686:1 687:4 688:3 689:3 690:1 691:4 692:9 693:1 694:3 695:3 696:1 697:1 698:4 699:2 700:2 
1 50:1 85:1 190:1 194:1 195:1 222:1 252:1 258:1 271:1 320:1 329:1 344:1 353:1 355:1 464:1 465:1 471:1 519:1 522:1 528:1 675:2 676:-1 677:3 678:1 679:3 680:3 681:2 682:-1 683:1 684:-1 685:38.6 686:1 687:3 688:4 689:3 690:1 691:3 692:8 693:1 694:3 695:-9 696:1 697:1 698:4 699:2 700:-1 
1 12:1 50:1 282:1 319:1 320:1 352:1 462:1 471:1 519:1 675:1 676:-1 677:3 678:3 679:1 680:2 681:1 682:25 683:1 684:-1 685:39.8 686:1 687:4 688:4 689:4 690:1 691:4 692:9 693:1 694:4 695:4 696:1 697:1 698:4 699:2 700:-1 
1 9:1 78:1 80:1 88:1 92:1 201:1 346:1 348:1 362:1 415:1 427:1 457:1 471:1 472:1 513:1 675:4 676:-1 677:1 678:3 679:3 680:4 681:2 682:-1 683:1 684:-1 685:22.2 686:1 687:4 688:4 689:4 690:2 691:-1 692:10 693:2 694:-1 695:3 696:1 697:1 698:4 699:2 700:2 
1 195:1 201:1 249:1 252:1 258:1 320:1 358:1 362:1 376:1 387:1 464:1 675:1 676:1 677:3 678:3 679:1 680:2 681:1 682:67 683:1 684:-1 685:27 686:2 687:4 688:4 689:4 690:1 691:4 692:10 693:1 694:4 695:3 696:1 697:1 698:4 699:2 700:1 701:18000 704:2 708:78 
1 113:1 315:1 675:1 676:1 677:3 678:3 679:1 680:1 681:-1 682:-1 683:2 685:-1 686:-1 687:-1 688:-1 689:-1 690:-1 691:-1 692:-1 693:-1 694:-1 695:-1 696:1 697:1 698:4 699:2 700:-1 704:1 705:19 706:13526 
1 8:1 94:1 113:1 190:1 194:1 222:1 243:1 281:1 324:1 460:1 492:1 675:1 676:-1 677:3 678:3 679:1 680:2 681:2 682:-1 683:1 684:-1 685:25.5 686:1 687:3 688:3 689:3 690:1 691:3 692:7 693:1 694:4 695:2 696:1 697:1 698:3 699:2 700:2 
1 48:1 74:1 124:1 139:1 190:1 195:1 234:1 318:1 344:1 353:1 394:1 460:1 504:1 675:4 676:-1 677:1 678:3 679:3 680:4 681:2 682:-1 683:2 684:-1 685:29 686:1 687:4 688:4 689:4 690:1 691:4 692:9 693:1 694:4 695:4 696:1 697:1 698:4 699:2 700:-1 
1 193:1 201:1 252:1 344:1 362:1 463:1 471:1 513:1 522:1 675:1 676:-1 677:3 678:3 679:1 680:2 681:2 682:-1 683:1 684:-1 685:20.8 686:1 687:4 688:4 689:4 690:1 691:4 692:8 693:2 694:-1 695:4 696:1 697:1 698:3 699:2 700:-1 
1 76:1 81:1 116:1 319:1 346:1 351:1 406:1 430:1 675:1 676:-1 677:3 678:3 679:1 680:2 681:2 682:-1 683:2 684:-1 685:34.2 686:1 687:3 688:3 689:3 690:1 691:3 692:8 693:1 694:3 695:3 696:1 697:2 698:3 699:2 700:2 
1 50:1 76:1 148:1 320:1 324:1 358:1 421:1 489:1 675:1 676:-1 677:3 678:3 679:1 680:2 681:1 682:74 683:1 684:-1 685:29.3 686:1 687:4 688:4 689:4 690:1 691:4 692:10 693:1 694:4 695:4 696:1 697:1 698:4 699:2 700:1 
1 30:1 50:1 88:1 91:1 153:1 201:1 300:1 354:1 361:1 465:1 471:1 675:1 676:-1 677:3 678:3 679:1 680:2 681:1 682:39 683:1 684:-1 685:29.2 686:1 687:3 688:3 689:4 690:1 691:3 692:8 693:2 694:-1 695:3 696:1 697:1 698:4 699:2 700:1 
1 79:1 88:1 107:1 123:1 192:1 200:1 201:1 226:1 234:1 249:1 349:1 353:1 393:1 457:1 462:1 470:1 496:1 519:1 675:6 676:-1 677:3 678:2 679:3 680:5 681:2 682:-1 683:1 684:-1 685:34.1 686:1 687:4 688:4 689:4 690:1 691:3 692:9 693:1 694:4 695:4 696:1 697:1 698:4 699:2 700:2 
1 4:1 27:1 88:1 116:1 151:1 157:1 190:1 274:1 324:1 421:1 471:1 513:1 675:1 676:-1 677:3 678:3 679:1 680:2 681:2 682:-1 683:2 684:-1 685:33.3 686:1 687:4 688:4 689:4 690:1 691:4 692:10 693:1 694:-9 695:3 696:1 697:1 698:4 699:2 700:-1 
1 54:1 88:1 153:1 194:1 351:1 421:1 423:1 464:1 471:1 675:2 676:-1 677:3 678:1 679:3 680:1 681:2 682:-1 683:1 684:-1 685:20.6 686:1 687:4 688:4 689:3 690:1 691:4 692:10 693:1 694:2 695:4 696:1 697:1 698:4 699:2 700:-1 
1 186:1 455:1 456:1 675:4 676:-1 677:1 678:3 679:3 680:4 681:2 682:-1 683:2 684:-1 685:28.3 686:1 687:2 688:4 689:2 690:1 691:3 692:6 693:1 694:3 695:1 696:1 697:1 698:4 699:2 700:-1 
1 50:1 54:1 79:1 139:1 285:1 320:1 324:1 330:1 351:1 354:1 386:1 401:1 457:1 464:1 466:1 516:1 524:1 675:4 676:-1 677:1 678:3 679:3 680:4 681:1 682:78 683:1 684:-1 685:23.8 686:1 687:4 688:4 689:3 690:1 691:3 692:7 693:1 694:3 695:4 696:1 697:1 698:-8 699:2 700:1 
1 88:1 94:1 116:1 118:1 192:1 207:1 364:1 387:1 462:1 477:1 675:1 676:-1 677:3 678:3 679:1 680:2 681:2 682:-1 683:1 684:-1 685:22.7 686:1 687:3 688:4 689:4 690:1 691:4 692:10 693:1 694:4 695:4 696:1 697:1 698:3 699:2 700:1 
1 253:1 460:1 523:1 525:1 675:1 676:-1 677:3 678:3 679:1 680:2 681:2 682:-1 683:1 684:-1 685:25.8 686:1 687:-1 688:-1 689:-1 690:-1 691:-1 692:-1 693:2 694:-1 695:3 696:1 697:1 698:4 699:2 700:-1 
1 112:1 187:1 320:1 324:1 358:1 387:1 464:1 496:1 675:1 676:-1 677:3 678:3 679:1 680:1 681:1 682:30 683:1 684:-1 685:31.4 686:1 687:4 688:4 689:4 690:1 691:4 692:10 693:1 694:4 695:4 696:1 697:1 698:4 699:2 700:-1 
1 50:1 124:1 201:1 388:1 464:1 471:1 675:1 676:-1 677:3 678:3 679:1 680:2 681:1 682:12 683:2 684:-1 685:21.1 686:1 687:3 688:3 689:3 690:1 691:3 692:8 693:1 694:3 695:-9 696:1 697:1 698:4 699:2 700:-1 
1 45:1 294:1 315:1 364:1 519:1 675:1 676:-1 677:3 678:3 679:1 680:2 681:2 682:-1 683:1 684:-1 685:24.3 686:1 687:4 688:4 689:4 690:2 691:-1 692:10 693:1 694:4 695:4 696:1 697:1 698:4 699:2 700:1 
1 50:1 54:1 258:1 320:1 353:1 358:1 362:1 394:1 464:1 471:1 519:1 522:1 528:1 675:1 676:-1 677:3 678:3 679:1 680:1 681:1 682:48 683:1 684:-1 685:25.4 686:1 687:4 688:4 689:3 690:1 691:3 692:7 693:1 694:3 695:4 696:1 697:1 698:2 699:2 700:-1 
1 25:1 74:1 76:1 78:1 83:1 92:1 131:1 295:1 324:1 358:1 361:1 362:1 398:1 400:1 401:1 522:1 675:2 676:-1 677:3 678:1 679:3 680:3 681:2 682:-1 683:1 684:-1 685:29.1 686:1 687:4 688:4 689:3 690:1 691:3 692:10 693:1 694:4 695:4 696:1 697:1 698:4 699:2 700:2 
1 49:1 96:1 319:1 366:1 394:1 485:1 675:4 676:-1 677:1 678:3 679:3 680:4 681:2 682:-1 683:1 684:-1 685:25.8 686:1 687:4 688:4 689:4 690:1 691:4 692:9 693:1 694:3 695:3 696:2 697:-1 698:-1 699:2 700:-1 
1 60:1 107:1 123:1 195:1 216:1 258:1 382:1 386:1 387:1 388:1 394:1 465:1 485:1 528:1 675:1 676:-1 677:3 678:3 679:1 680:2 681:2 682:-1 683:1 684:-1 685:36 686:1 687:3 688:4 689:4 690:1 691:4 692:8 693:1 694:4 695:4 696:1 697:2 698:4 699:2 700:-1 
1 24:1 54:1 78:1 88:1 90:1 91:1 124:1 190:1 324:1 347:1 348:1 358:1 360:1 361:1 386:1 394:1 460:1 675:1 676:-1 677:3 678:3 679:1 680:2 681:2 682:-1 683:1 684:-1 685:22.2 686:1 687:4 688:4 689:4 690:1 691:4 692:9 693:1 694:4 695:2 696:1 697:1 698:-8 699:2 700:1 
1 194:1 201:1 354:1 465:1 471:1 675:1 676:-1 677:3 678:3 679:1 680:2 681:2 682:-1 683:1 684:-1 685:38 686:1 687:3 688:4 689:4 690:1 691:-9 692:9 693:-9 694:4 695:2 696:1 697:1 698:4 699:2 700:2 
1 194:1 198:1 201:1 249:1 279:1 323:1 346:1 464:1 471:1 515:1 519:1 675:1 676:-1 677:3 678:3 679:1 680:2 681:2 682:-1 683:1 684:-1 685:26.9 686:1 687:4 688:4 689:4 690:1 691:4 692:9 693:1 694:4 695:3 696:1 697:1 698:4 699:2 700:-1 
1 71:1 91:1 125:1 201:1 326:1 382:1 393:1 486:1 675:1 676:-1 677:3 678:3 679:1 680:2 681:2 682:-1 683:1 684:-1 685:31.4 686:1 687:3 688:3 689:3 690:1 691:3 692:9 693:1 694:3 695:3 696:1 697:1 698:4 699:2 700:2 
1 39:1 49:1 50:1 54:1 85:1 88:1 194:1 309:1 315:1 320:1 324:1 355:1 358:1 419:1 485:1 499:1 504:1 675:1 676:-1 677:3 678:3 679:1 680:2 681:1 682:65 683:1 684:-1 685:27.3 686:1 687:3 688:4 689:3 690:1 691:4 692:10 693:1 694:4 695:3 696:1 697:2 698:4 699:2 700:1 
1 88:1 116:1 190:1 193:1 222:1 249:1 324:1 354:1 358:1 460:1 463:1 471:1 492:1 528:1 675:1 676:-1 677:3 678:3 679:1 680:2 681:2 682:-1 683:1 684:-1 685:29.3 686:1 687:4 688:4 689:4 690:1 691:4 692:8 693:1 694:4 695:4 696:1 697:1 698:4 699:2 700:1 
1 50:1 76:1 84:1 88:1 320:1 324:1 358:1 393:1 675:6 676:-1 677:3 678:3 679:2 680:5 681:1 682:70 683:1 684:-1 685:34.4 686:1 687:4 688:4 689:4 690:1 691:4 692:9 693:2 694:-1 695:2 696:1 697:1 698:4 699:2 700:1 
1 48:1 54:1 88:1 193:1 195:1 318:1 350:1 463:1 465:1 675:1 676:-1 677:3 678:3 679:1 680:2 681:2 682:-1 683:1 684:-1 685:31.5 686:1 687:4 688:4 689:4 690:1 691:4 692:9 693:1 694:4 695:3 696:1 697:-8 698:4 699:2 700:1 
1 49:1 124:1 195:1 319:1 394:1 464:1 465:1 466:1 471:1 675:1 676:-1 677:3 678:3 679:1 680:1 681:2 682:-1 683:1 684:-1 685:37.8 686:1 687:2 688:3 689:4 690:1 691:3 692:10 693:1 694:4 695:3 696:1 697:1 698:3 699:2 700:-1 
1 116:1 188:1 193:1 386:1 458:1 463:1 675:1 676:-1 677:3 678:3 679:1 680:2 681:2 682:-1 683:1 684:-1 685:30 686:1 687:3 688:4 689:4 690:1 691:2 692:9 693:1 694:4 695:2 696:1 697:1 698:3 699:2 700:1 
1 54:1 88:1 91:1 110:1 195:1 234:1 346:1 398:1 399:1 427:1 464:1 675:1 676:1 677:3 678:3 679:1 680:2 681:2 682:-1 683:2 684:-1 685:24.3 686:-9 687:4 688:3 689:3 690:1 691:4 692:9 693:1 694:4 695:2 696:1 697:1 698:4 699:2 700:1 
1 118:1 194:1 195:1 358:1 361:1 362:1 421:1 522:1 675:2 676:2 677:3 678:1 679:3 680:3 681:2 682:-1 683:2 684:-1 685:33.6 686:-9 687:-9 688:-9 689:-9 690:-9 691:-9 692:-9 693:1 694:2 695:3 696:1 697:1 698:4 699:2 700:-1 
1 60:1 63:1 91:1 117:1 123:1 128:1 194:1 195:1 249:1 504:1 515:1 528:1 675:1 676:1 677:3 678:3 679:1 680:2 681:2 682:-1 683:1 684:-1 685:36.6 686:2 687:-1 688:-1 689:-1 690:-1 691:-1 692:-1 693:2 694:-1 695:3 696:2 697:-1 698:-1 699:2 700:-1 701:27080 702:27000 704:2 705:11 706:1536 
1 8:1 82:1 358:1 360:1 518:1 675:1 676:1 677:3 678:3 679:1 680:2 681:2 682:-1 683:2 684:-1 685:24.5 686:-9 687:4 688:4 689:4 690:-9 691:4 692:9 693:-9 694:-9 695:4 696:1 697:1 698:4 699:2 700:2 704:1 705:15 706:7065 707:2 708:90 
1 56:1 69:1 88:1 149:1 241:1 249:1 320:1 324:1 326:1 339:1 341:1 358:1 363:1 386:1 388:1 511:1 528:1 675:1 676:-1 677:3 678:3 679:1 680:2 681:1 682:45 683:1 684:-1 685:32.7 686:1 687:4 688:4 689:4 690:1 691:4 692:8 693:1 694:4 695:4 696:1 697:1 698:4 699:2 700:1 
1 54:1 86:1 128:1 398:1 401:1 431:1 675:1 676:-1 677:3 678:3 679:1 680:2 681:2 682:-1 683:2 684:-1 685:22.5 686:1 687:3 688:4 689:3 690:1 691:4 692:9 693:1 694:4 695:3 696:1 697:1 698:4 699:2 700:2 
1 88:1 96:1 243:1 249:1 315:1 366:1 675:2 676:-1 677:3 678:1 679:3 680:3 681:2 682:-1 683:1 684:-1 685:41.4 686:1 687:3 688:2 689:2 690:1 691:2 692:8 693:1 694:3 695:5 696:1 697:2 698:4 699:2 700:-1 
1 74:1 90:1 91:1 201:1 247:1 319:1 326:1 328:1 344:1 358:1 360:1 361:1 366:1 386:1 465:1 517:1 519:1 675:1 676:-1 677:3 678:3 679:1 680:2 681:2 682:-1 683:1 684:-1 685:27.5 686:1 687:3 688:3 689:3 690:1 691:3 692:9 693:1 694:3 695:4 696:1 697:1 698:4 699:2 700:-1 
1 88:1 194:1 195:1 201:1 262:1 326:1 358:1 377:1 464:1 532:1 675:1 676:-1 677:3 678:3 679:1 680:1 681:2 682:-1 683:1 684:-1 685:35 686:1 687:4 688:4 689:4 690:1 691:4 692:8 693:1 694:4 695:5 696:1 697:2 698:4 699:2 700:-1 
1 50:1 88:1 194:1 201:1 249:1 252:1 258:1 320:1 358:1 464:1 471:1 504:1 519:1 522:1 528:1 675:2 676:-1 677:3 678:1 679:3 680:3 681:1 682:32 683:1 684:-1 685:-9 686:1 687:4 688:4 689:4 690:2 691:-1 692:8 693:1 694:4 695:3 696:1 697:1 698:4 699:2 700:-1 
1 25:1 54:1 111:1 194:1 249:1 295:1 381:1 435:1 519:1 675:1 676:-1 677:3 678:3 679:1 680:1 681:2 682:-1 683:1 684:-1 685:40.2 686:-9 687:-9 688:-9 689:-9 690:-9 691:-9 692:-9 693:1 694:4 695:3 696:1 697:1 698:4 699:2 700:-9 
1 50:1 88:1 91:1 320:1 324:1 355:1 358:1 519:1 541:1 675:2 676:-1 677:3 678:1 679:3 680:3 681:1 682:54 683:1 684:-1 685:31 686:1 687:4 688:4 689:4 690:1 691:2 692:10 693:1 694:2 695:5 696:1 697:1 698:4 699:2 700:-9 
1 50:1 88:1 194:1 320:1 325:1 358:1 464:1 675:2 676:-1 677:3 678:1 679:3 680:3 681:1 682:75 683:1 684:-1 685:30.3 686:1 687:4 688:4 689:4 690:1 691:4 692:10 693:1 694:4 695:3 696:1 697:1 698:4 699:2 700:2 
1 48:1 49:1 81:1 117:1 143:1 157:1 196:1 203:1 222:1 252:1 319:1 351:1 362:1 369:1 387:1 388:1 398:1 435:1 516:1 522:1 528:1 675:1 676:-1 677:3 678:3 679:1 680:2 681:2 682:-1 683:1 684:-1 685:25.4 686:1 687:3 688:4 689:3 690:1 691:3 692:9 693:1 694:3 695:3 696:1 697:1 698:3 699:2 700:2 
1 88:1 190:1 193:1 274:1 324:1 358:1 398:1 430:1 435:1 460:1 463:1 464:1 528:1 675:1 676:-1 677:3 678:3 679:1 680:2 681:2 682:-1 683:1 684:-1 685:30 686:1 687:3 688:4 689:3 690:1 691:3 692:8 693:1 694:3 695:3 696:1 697:1 698:3 699:2 700:2 
1 193:1 195:1 240:1 258:1 463:1 465:1 510:1 528:1 675:1 676:-1 677:3 678:3 679:1 680:2 681:2 682:-1 683:1 684:-1 685:27.5 686:1 687:3 688:3 689:4 690:1 691:3 692:8 693:1 694:3 695:3 696:1 697:1 698:4 699:1 700:-1 
1 37:1 80:1 222:1 312:1 355:1 492:1 675:1 676:-1 677:3 678:3 679:1 680:2 681:2 682:-1 683:1 684:-1 685:29.1 686:1 687:3 688:3 689:3 690:1 691:3 692:8 693:1 694:2 695:3 696:1 697:1 698:3 699:2 700:-1 
1 8:1 65:1 88:1 194:1 358:1 419:1 464:1 675:1 676:-1 677:3 678:3 679:1 680:2 681:2 682:-1 683:1 684:-1 685:25.6 686:1 687:3 688:4 689:3 690:1 691:4 692:10 693:1 694:4 695:3 696:1 697:1 698:4 699:2 700:2 
1 5:1 194:1 222:1 275:1 386:1 458:1 464:1 492:1 513:1 675:1 676:-1 677:3 678:3 679:1 680:2 681:2 682:-1 683:1 684:-1 685:27.5 686:1 687:4 688:4 689:4 690:1 691:4 692:10 693:1 694:4 695:2 696:1 697:1 698:4 699:2 700:1 
1 247:1 253:1 258:1 492:1 517:1 523:1 528:1 675:1 676:-1 677:3 678:3 679:1 680:1 681:2 682:-1 683:1 684:-1 685:35.2 686:2 687:4 688:4 689:4 690:1 691:4 692:10 693:2 694:-1 695:3 696:2 697:-1 698:-1 699:2 700:-1 
1 8:1 86:1 194:1 195:1 202:1 356:1 361:1 398:1 464:1 499:1 675:1 676:-1 677:3 678:3 679:1 680:2 681:2 682:-1 683:1 684:-1 685:23.3 686:1 687:4 688:4 689:4 690:1 691:4 692:10 693:1 694:4 695:1 696:1 697:1 698:3 699:2 700:-1 
1 79:1 128:1 149:1 153:1 190:1 245:1 275:1 349:1 351:1 460:1 515:1 675:6 676:-1 677:2 678:3 679:2 680:5 681:2 682:-1 683:1 684:-1 685:30.3 686:1 687:4 688:4 689:4 690:1 691:4 692:10 693:1 694:4 695:3 696:1 697:2 698:4 699:2 700:-1 
1 50:1 54:1 88:1 131:1 249:1 320:1 324:1 353:1 358:1 369:1 465:1 504:1 510:1 675:4 676:-1 677:1 678:3 679:3 680:4 681:1 682:57 683:1 684:-1 685:30 686:1 687:4 688:4 689:4 690:1 691:4 692:7 693:1 694:4 695:4 696:1 697:2 698:4 699:2 700:-1 
1 133:1 190:1 201:1 246:1 320:1 403:1 457:1 460:1 675:2 676:-1 677:3 678:1 679:3 680:3 681:1 682:63 683:2 684:-1 685:28.3 686:1 687:3 688:3 689:3 690:1 691:4 692:8 693:1 694:3 695:2 696:1 697:1 698:4 699:2 700:2 
1 23:1 82:1 131:1 190:1 247:1 293:1 319:1 465:1 485:1 517:1 675:1 676:-1 677:3 678:3 679:1 680:2 681:2 682:-1 683:1 684:-1 685:19.1 686:1 687:3 688:3 689:3 690:1 691:3 692:8 693:1 694:3 695:2 696:1 697:-8 698:3 699:2 700:1 
1 54:1 78:1 88:1 201:1 293:1 294:1 309:1 312:1 348:1 471:1 675:1 676:-1 677:3 678:3 679:1 680:2 681:2 682:-1 683:1 684:-1 685:40 686:1 687:3 688:3 689:3 690:1 691:4 692:8 693:2 694:-1 695:4 696:1 697:2 698:4 699:2 700:-1 
1 88:1 128:1 190:1 358:1 398:1 411:1 457:1 464:1 495:1 675:2 676:-1 677:3 678:1 679:3 680:3 681:2 682:-1 683:1 684:-1 685:28.1 686:1 687:4 688:3 689:4 690:1 691:3 692:10 693:1 694:4 695:4 696:1 697:1 698:3 699:2 700:-1 
1 10:1 54:1 74:1 81:1 193:1 202:1 258:1 275:1 344:1 415:1 419:1 427:1 463:1 465:1 471:1 472:1 513:1 528:1 675:2 676:-1 677:3 678:1 679:3 680:3 681:2 682:-1 683:1 684:-1 685:33.7 686:1 687:3 688:2 689:1 690:2 691:-1 692:4 693:1 694:2 695:4 696:1 697:1 698:1 699:1 700:-1 
1 37:1 43:1 123:1 289:1 290:1 300:1 307:1 313:1 320:1 324:1 358:1 361:1 393:1 464:1 485:1 491:1 519:1 675:1 676:-1 677:3 678:3 679:1 680:2 681:1 682:68 683:2 684:-1 685:33.5 686:1 687:3 688:3 689:3 690:1 691:3 692:9 693:1 694:3 695:3 696:1 697:1 698:4 699:2 700:1 
1 88:1 117:1 118:1 126:1 195:1 252:1 358:1 387:1 388:1 396:1 398:1 465:1 504:1 675:1 676:-1 677:3 678:3 679:1 680:1 681:2 682:-1 683:1 684:-1 685:27.3 686:1 687:4 688:4 689:4 690:1 691:4 692:10 693:2 694:-1 695:3 696:1 697:1 698:2 699:2 700:2 
1 54:1 85:1 88:1 91:1 117:1 143:1 192:1 277:1 324:1 325:1 348:1 358:1 361:1 387:1 413:1 462:1 675:2 676:-1 677:3 678:1 679:3 680:3 681:2 682:-1 683:1 684:-1 685:40.5 686:1 687:4 688:4 689:4 690:1 691:3 692:3 693:1 694:4 695:4 696:1 697:1 698:4 699:2 700:2 
1 9:1 88:1 124:1 128:1 145:1 161:1 195:1 348:1 431:1 456:1 464:1 465:1 492:1 528:1 675:2 676:-1 677:3 678:1 679:3 680:3 681:2 682:-1 683:1 684:-1 685:40.7 686:1 687:3 688:3 689:3 690:1 691:3 692:7 693:1 694:2 695:4 696:1 697:1 698:4 699:2 700:-1 
1 90:1 112:1 139:1 149:1 223:1 235:1 346:1 351:1 360:1 378:1 675:1 676:-1 677:3 678:3 679:1 680:2 681:2 682:-1 683:1 684:-1 685:31.3 686:1 687:4 688:4 689:4 690:1 691:4 692:9 693:1 694:-9 695:2 696:1 697:2 698:3 699:2 700:1 
1 50:1 320:1 364:1 675:4 676:-1 677:1 678:3 679:3 680:4 681:1 682:45 683:1 684:-1 685:29.2 686:1 687:3 688:3 689:3 690:1 691:3 692:9 693:2 694:-1 695:4 696:1 697:2 698:4 699:2 700:1 
